-0.6666258940616892,-0.8507679964172273,0.64476173874804,-0.6234198967910904,0.8320681463918607,0.3064300266744014,-0.8470943168152919,-0.6004489775778951,-0.8071575190058529,-0.09048312465480837,0.0923321641779954,-0.4479251540448206,0.24543361582735662,-0.7828394247787219,0.9288395843617554,0.9092315867508408,-1.2386630752363978,-0.6971211616033792,-1.0006768921520897,0.015333311384555426,0.20016432016158217,-0.045111133927520634,-0.45454348342040246,-0.6631226867608113,0.8181836559691325,0.9000734259047272,0.032643763000890974,0.9696074102410953,-0.7350944029137336,-0.5988791991426309,5.2001208905399485,0.8888240772436068,-5.143330021521307,-0.6130243587489633,-0.5392612904863424,-0.8284222396272451,-0.4249792799907655,0.9069353892272413,0.40355121949290296,0.16690820169399048,1.1280136035136459,0.2165522965321172,0.6453623351898692,1.5377947017240432,0.9686391461800425,-0.5303925411633367,-0.655619373870234,-0.46757311711509536,0.07495319836245995,-0.12665445895719926
-0.2529172489926766,0.6574378934973073,-0.3723031087271852,0.03652701843379479,-1.0748748920290907,0.944962318169509,0.1069166349119854,0.20615651801675905,0.5315943674320486,-0.4413551999037461,0.11549871370391869,0.15501213438039216,0.8926073952480469,-0.9707180565643508,-0.20613094988948452,-0.5309221273795439,-0.5479859384274455,0.8112283469302379,0.10168178487533412,-0.6616313971028378,0.24776968254889944,-0.44734854856859557,0.017109826202805187,-0.6149035090254045,0.2821340815518962,0.1467700370751804,-0.22267625656835707,0.2588550711083072,0.44570832720692494,0.037978825151808004,3.078950553896691,0.7378238938078013,-3.8049726328532403,-0.5659745925840315,0.31864168266956994,-0.833645500221711,0.46366124276113424,0.8931571273170615,-0.43525136609788717,0.7651996427113361,-0.7087166909216293,0.16408571153364,1.0185690297907741,-0.1626329041577987,-0.7004704439465933,-0.4177474435075894,0.6506837828607692,-0.5372334025572211,0.8009366936156611,-0.1231344999784903
-0.2650176544459184,-0.36223672179236055,0.23173622231058036,0.26476803961755196,-0.13565322522575035,0.48120040174516704,-0.26602399726544057,-0.8428639318490962,0.16875141628885598,0.07302560713626312,-0.05335413376962499,0.4471042441942689,0.7267691191033476,0.17670535341996416,-0.2616163159530362,-0.30425055521333727,-0.5659199670576383,0.484874393861934,-0.5983422527948628,0.8602291126709795,0.17922174644500158,0.7706362744509788,-0.6175715075693949,0.2638846570005957,0.3004542392217445,0.16973585218947546,-0.32132792110683067,0.369140598808365,0.6352941960713151,0.4771195760935058,4.329629602508605,-0.08729400110727475,-5.350654407650883,0.0817291805413406,0.16574673260416725,0.7596421886331762,-0.7668041672622038,-0.03976317934961665,-0.5593041899048352,-0.7853036700594789,-0.15894318986516684,0.35665018412606697,-0.035524890219873415,0.7342358676355929,0.6203906896805036,0.6295830032052937,-0.6542991922493367,0.3470753084950647,0.18746349932226702,0.22860325937177978
0.8697107775335498,0.898367946854544,0.5628583661128078,0.10681928509915259,-1.0250911502221915,-0.40368336399051896,0.42495794094115497,0.9353672721411284,0.5038237328986925,0.8178802659151464,0.6962426951048031,-0.09106882475119042,-0.7442093817516279,0.021754125455726563,0.7431280407223935,-0.27481569122176075,0.5226217373815535,-0.9947127867073262,-0.8585755393012576,0.8532028676959368,-0.5302540290077445,0.7843749839483438,-0.6690492548012359,-0.1335382363079772,0.7171154774276787,0.052436017124375046,-0.667868896478761,-0.18811791882494655,0.6970830942866828,-0.06762117081741734,3.378072131435037,0.7593637496473417,-3.7959422281215076,0.2744249221260037,0.5115439717899221,-0.5865733208202972,-0.9983673141677926,0.08547780014476253,-0.43958240714702945,-0.8963532566239039,-0.005474397304575099,-0.05633706443819209,-0.0763185827549478,0.5491547037248407,0.17542783302254844,0.9502120332039509,0.29271891288075014,0.34489804562511933,0.46500933959526297,0.6272588438283692
-0.22558355023872464,0.47358160513916775,1.1535802630546623,0.6953928157499454,-0.25890073505398825,-0.7780746885007871,-0.37684386668042213,-0.14928018471831772,-0.29800931736403824,0.883429850935573,-0.8255560324078758,0.21524562440485379,0.7297093018773231,-0.1475305211868594,0.9589523747644411,-0.6312213936042236,-0.2113502103777934,0.3686639810522189,0.1541410692357671,-0.362757929752547,-0.877176770235401,-0.10918687229956306,0.31399695879562345,-0.2128672898691985,-0.3210899756715673,0.2753563758287343,0.8666496449509306,0.7417073057939707,0.2316719556204593,-0.4864362461583442,2.0131242326442904,-0.02012163287064425,-2.8079229579716176,-0.09965892604075724,-0.38794738832637476,-0.8272697948945602,0.2899946360880708,-0.8325579647585565,-0.6391009350487984,0.8627019027027351,0.09339985361950168,-0.26821226749283583,0.8041275220334283,0.44163271000441323,-0.5015155510332666,-0.12397591960088199,-0.6057745047855918,0.6021261857533508,0.43156777124745377,0.8609768795671581
-0.1458243981857348,-0.2910910628878718,-0.6673718648352613,0.861936275777556,-0.6694925702238379,-0.9818132955628552,0.8033979166702225,0.22972186521890217,-0.07663042589814166,-0.4758342363130155,-0.7389821328700502,-0.18548688700424382,0.9992641338362405,-1.0738621970155906,0.23985775762913758,0.8434026041530746,0.4323386653516821,0.7754565556944784,-0.9422258335482392,1.0321201976336383,-0.9252918412195493,-0.49121920652991957,-0.41767278196825236,0.9835884347651709,-0.07639187467045715,-0.4534424293974367,0.6073897417277848,0.7194146888180942,-0.7024281791633907,-0.1369883260145261,2.1616934218591495,0.4758597842930543,-3.6547588944027494,0.6735029431186885,0.8143359165279707,0.665217716949958,-0.30969881392934795,-0.9240571330501012,-0.3377451939715873,0.2501702536160919,0.506943904393716,0.4146003993023828,1.0634440434848584,0.9386928249616403,0.18209130863939338,0.3862276972118187,-0.2162205590216358,-0.5436247268436055,0.9053929145811084,-0.09124269101687284
0.6080130111704533,-0.6570149018356487,1.1292649947995028,0.23029958887879687,-0.2844212368306461,-0.6989833272868642,0.6283384822409136,0.03885681943806318,-1.007787326552518,0.5817277658772192,-0.9095337993681636,-0.5058626508346457,-0.9040437216704297,-1.1777654263817101,0.45368282423279926,0.13079088533934233,0.5753655346338233,-0.30929646357569396,-0.12615487069224646,0.15310714587675003,-0.46794541619678565,0.023049052919540923,0.6218433241088052,-0.006425433453659719,-0.8686192816381213,0.8156361265358639,-0.8329233819001102,0.49568524683869253,-0.1976540472058241,-1.1419352061569887,2.050213207336254,0.7261494470889368,-1.4510332126653662,0.9877960627032785,-0.9326591288574388,0.18421871448411406,-0.08721318184397227,0.6190419113972785,-0.021009489266436813,0.30570953693429065,0.9818392319843154,-0.27741962472950565,-0.21287974326498654,1.0185574581075063,0.44302287440461735,-0.0756904801929107,0.0156277774106012,0.8128980540346564,-0.08529329435488603,-0.17623060376929203
-0.08765629042048706,0.9789695997996445,0.013083274852022233,-0.014190110732405031,-0.9813952230330859,0.2917874797206375,-0.8184285880635819,-0.15609525093788804,0.3427214751038924,0.5739686284591016,0.3241603140916715,-0.8104921575910559,0.6149702564802388,-0.1831352335547279,0.7813488446481478,0.37480376723190423,0.24962805851960249,-0.5222789599861355,-1.0799914395772732,0.8357351233350451,-0.6336722893991363,0.6450966080898616,-0.16573843330307786,0.6345362682925657,-0.7598994735226101,0.45406870593130993,-0.11234627692778783,0.5267413135919141,0.8464948658136512,0.17296087410176156,1.8162997325755639,-0.7908046150562793,-2.5027380955636778,0.2682081517957276,0.9550557615794214,-0.6095718915819099,0.7426637352337528,0.4482516176977525,-0.2540214379780263,0.5937386204883479,1.3713203112843395,-0.7260819315767078,0.24462745210631315,0.6799250641185436,-0.9111306519481037,0.4798660766239442,0.294229843254099,0.10228010244467813,-0.0954067554477526,0.3912463198717343
-0.38709978796134087,-0.7455865890431305,0.03455109623832512,-0.9560241129291841,-0.3327811023732496,0.7511934562358024,-0.7335224038519917,0.5843475514759907,0.0003406392115126274,-0.7835676784553564,0.5997638639190896,-0.5071135780878,0.45860337417925573,0.5309541227644426,0.48438663565541673,-0.9519309132587221,-0.4296302454952987,-0.3432365599877251,-0.6714009566369912,-0.3122760062364804,0.017825652747892235,-0.9849287730170758,0.6273077489912557,-0.7696378335762735,-0.133994921485583,0.4618760651962891,-0.2126433105102867,0.7273949087476358,0.015229642135438235,-0.35362312123052114,0.2491628270784494,0.563481678419978,-0.4957871980120818,0.747113165296016,-0.7961682654077934,0.8316523561433145,-0.8254633986947886,0.6382920556674349,-0.9572515823874675,-0.6285138503830752,-0.46407001810473597,0.47959301135612425,0.31244934939343494,-0.22285754558705645,0.6631876159420544,0.9309848855292686,0.16684273247810033,0.8587123297066984,-0.6708279721707208,1.1150181248214968
0.625611005102752,0.7871403918359228,-0.46390011680055115,-0.7293887790758741,-0.9721370604878894,0.3023822886043939,0.5870150265720812,-0.1717512859213102,0.7055835688827332,-0.6362480592963424,-0.6961507720445101,-0.15597860372279154,0.35075384197428955,0.65731401110767,0.21658620453283292,0.06949557866512344,0.04876688547181521,0.2270741582569378,-0.016144282427477754,0.1279919200497278,0.5473654353547087,-0.7922576740342913,-0.7132448408582791,-0.7907509194093986,0.40472776013870754,0.02262824711225631,-0.6082493372738466,-0.35311047605815254,0.6651544830993196,0.11211283835840782,0.9643023628242795,-0.025233286577181067,-1.1696469240548073,-0.6412633958696055,0.865191674652712,0.5503479031437305,0.7428633868751983,-0.505406587832102,0.8698158049792218,0.9782881184898535,0.7782870070061172,-0.9797805832069608,0.5319455957182406,0.6522616737772466,0.9648774767920238,0.6976133816477008,0.8071230523417634,0.09264315350281269,-0.1527711029972642,-0.21885809948068477
-0.8062124156912635,-0.3595582381707113,0.015199129954276532,0.37881150666141106,-0.5020716276128562,-0.618379109782121,0.6411367310202563,-0.16886049899872463,0.010236816385912628,0.09697718095348036,0.45305088745096933,-0.2458491419411767,0.13289253573879267,0.6557342521124071,-0.17551484219702737,-0.3929715101270294,0.5595954067208277,-0.2721040382020579,0.7157525857511373,-0.8852834585817052,-0.5051624303686296,0.5307292925361504,0.10149441679759698,0.6709189744653458,-0.09298190829652024,-0.08518268341463703,-0.474103367681612,-0.0875108574489642,-0.8703531649860823,0.6891453888730409,-1.02556245043754,-0.5070091287535395,0.3797389007184135,-0.34525502276597864,0.4623434940142122,0.16376577702139916,0.59837818444825,0.016281459939546418,-0.3724253860691245,-0.8608163238767421,1.564076555810515,-0.3459992067939092,0.5725395659341598,0.5939067595674442,0.2132247541285692,-0.8396057732853093,-0.3604504163259055,-0.9942080054717711,-0.5795807531230521,0.43932542016264886
0.6063636775463054,-0.7462120137735678,0.3491269694079407,-0.38714600742591915,0.6007093731031125,0.4394009976854404,0.6374697246666841,-0.6098744229446386,-0.7672315815929258,-1.0342163971913925,0.2610995404982166,0.5191123300298197,0.8407152136929484,0.6215838534715646,-0.4513761497460398,0.9474797202664833,-0.28157642703334745,-0.1482194953829623,0.03667500074280579,0.41490003663905817,-0.8225307190232652,0.7809652454650156,0.4849549976203496,0.8005495972911044,0.9118016301690682,0.23492481625012818,-0.07184972415287905,-1.0834619869156983,0.040125858020694516,-0.44051405088200146,-0.5566470222449798,-0.25036554345388273,0.3316056887430332,-0.9040839923012534,-0.7193792450961656,0.137256238874837,-0.12382267129095106,-0.7578912014354846,-0.8709657411904278,-0.6835139872106322,0.3375624550516847,0.4150862285072952,0.3352060137632694,-0.18676809419302887,0.13958299504345978,0.16975166775663456,-1.038468675583027,-0.6491631910974812,-0.2753927926106289,-0.032831073930884226
-0.1543857290586887,-0.9493436113016397,0.19187646096757838,-0.37772967800485285,-0.8298562544232351,-0.6244832453485836,0.18454792393721584,-0.9682387598938826,0.02196098221053039,-0.5690925430427556,-1.0067479882994128,-0.35293652478296683,-0.03866105357969972,0.6469998015712051,0.769060938566144,0.9778914453919041,0.9723199262667478,0.3336159475142081,-0.23868633235682168,-0.17135239006650888,0.9625269965122261,0.3276691315231051,0.32524397600160665,-0.7817685352040022,-0.38994758036343335,0.5243755823999865,-0.6021779432444576,-0.4948770518519849,1.0449849251484968,-0.9945139730483826,-0.9888161784662264,-0.10910062795893713,2.1535086622283486,0.43712250798480173,0.842847012837664,-0.7101972715593914,0.0061516015562455735,0.22057677233191778,-0.12923791420195127,0.4763151513902633,1.3746997964778047,-0.1969114536614648,0.7803142856552057,0.5331549417512512,0.13391315597027567,-0.36368450681939235,-0.7223502916570761,0.8771848642637359,-0.04975848268947772,-0.5655878922605789
0.06040451263668039,-0.43266776974791454,-0.5664228601702991,0.4184851235173922,-0.8163475148508583,0.3663802348487741,0.13542401486419792,-0.21465091336219894,0.879444633249521,0.24754954496305842,0.18576855877364365,0.2539900044653445,0.3843707623502176,-0.09235517409619565,0.566373245873112,0.008553768879941125,1.058897537612147,0.3232580296582613,-0.5056502612086744,0.030658129124515557,-0.17187204330627479,-0.5219717595545599,0.55072685526527,0.864592806616709,-0.8338147132243263,-0.3237418837586704,0.329276516317393,-1.054347706036572,0.5591842164916591,0.8306846869297583,-0.17668743091731323,-0.5127913606724679,1.7425255308399163,0.22833734858413507,-0.744893077954448,0.0776174854816541,-0.5725098222424105,0.8645404411616993,0.4044687638051409,0.78928905781261,0.21956249002144032,-0.2020877138560189,-0.6058713224252393,-0.9379169145929939,-0.9290362440786081,0.6567899374407827,0.46321854762513753,-0.8376303556407744,-0.09684332366467502,0.32145068001538685
-0.8028557418335385,-0.030382819800820183,0.7447243750696179,-0.8016414302403431,-0.49125567835825185,0.7240161689014886,-0.7107458756578401,0.8060165214490507,-0.9432695518636642,-0.936235691643872,0.4764903583397642,0.7365479130940346,0.5557748188532703,1.1363863274155224,-0.8542271713174544,0.13548263064322802,1.200362600808268,0.4688138943990774,-0.34383835856284317,-0.7718239299512576,0.62700419473147,-0.6533739698017863,0.7829819595016071,0.4605726896174935,-0.22265116692177492,0.39974071378354326,-0.5237043372045785,-0.13685329603502935,0.41731206741370747,0.26929480122862276,-0.5511096258916369,-0.04121428173570275,1.9201722344632337,0.052437046707059023,0.12926777667320719,0.7995740612571706,0.9159628580432178,-0.42258100672891946,0.605167763377106,0.2586170348693482,1.428965949579984,-0.5683263930799226,-0.765229960929134,0.08981429396361627,-0.4196916374775575,0.33082810314881184,-0.07448827611317572,-0.6582432233249031,0.6124786286504835,0.48885848390377185
-0.05734293082068146,-0.07581495482033111,0.6958530346768479,0.1307113759877467,0.30645093516727084,0.968580326851028,0.6359551169703574,-0.291585548309339,0.179779533201286,0.504278791450751,0.9570341684520522,-0.28895239166195963,0.3320039159372195,0.20024299288612252,0.6618647619252864,0.2844405905647951,0.612426556059615,0.14018146637058912,-0.05205319311560363,0.36265461422659656,0.573501998123951,-0.13483881187752772,0.8262780264386436,0.6904502487351664,-0.9181138065499297,0.20594795462205906,-0.2730995777440268,-0.9831114064978821,0.5958267283839237,-0.15524247667976285,-2.1216039448956745,-0.12379682660233518,2.154155073652016,-0.3751308156970898,-0.4111768876877959,0.1472656338984259,-0.18216836110789528,0.8139735507693509,0.7047157814274734,0.4772576513544372,1.6660687125518716,-0.8468041658743456,0.7585917582946342,-0.8219023573318409,-0.036379186905636886,0.282127670826693,-0.8771316033665725,-0.07965767086794197,-0.2110869698051853,-0.7765053663314236
-0.8449497127950673,-0.5870633369767924,1.1468727910831464,-0.9256310656589752,0.22540702730246298,-0.47565619881512594,0.9261726769341018,0.7081423287569072,-0.10859904140141294,0.08544742270686337,0.027839137094351075,0.9010355165276459,0.14166354478283746,0.3906128829378257,0.4552378865701493,-0.47946902640293315,1.481501734948564,-0.6340947920886199,0.9164336167081634,-0.8921150218188966,-0.028646155672800405,0.19989690369383908,0.21152243673312524,0.4454989552037145,-0.742791559691194,0.6675961333110181,-0.9119324616915696,0.476161047461055,0.6758594982189293,0.00968521824741435,-2.164219450056484,-0.4132919293279043,2.419521237557264,0.7185132521926479,0.642156620108607,-0.9208556933254377,-0.24496822479482375,0.7960634077762985,-0.36962249200500047,-0.8018361763113783,1.4993269662152584,0.7833045602613952,-0.8374354454098233,-1.1597008763989183,-0.42652346219550474,0.49284861280441805,-0.49246291331177894,-0.6321912847384376,0.982630081462108,-0.8009907579039417
0.5646780555469376,0.4635280340984992,-0.44584080558687894,0.2358783729732173,0.5270912986940167,0.9541382217224029,-0.4971734448119029,0.4343479998267843,0.9447823228518109,0.17443736458079565,-0.8331424456810984,-0.46020422253847004,0.8776158869343844,1.2492418645783847,-0.7224942666157702,-0.555434400625222,1.1205804803882,1.0121747176597204,1.1020556386109193,0.8020579296426056,0.2686096510879862,0.8706289238750587,-0.795768279117522,0.2545122785995047,-0.7736688466695412,0.5968396562551336,-0.926456371326325,-1.0606299271098156,0.23769522624234182,0.051330597541490594,-1.5678367645341649,-0.2226714960178447,2.98064069173659,-0.8627011596527903,0.7538720105987252,-0.7413870211698351,-0.5363057681587872,0.04147426079558483,0.5888320752489726,-0.19495996849379432,1.7980118018824225,0.21418360249641868,0.9911722443477321,-0.3678296351381033,0.24364164017918238,-0.6076924128407856,-0.7611682698785717,-0.03977147973768171,0.9893905024849703,-0.39167569637086314
-0.16624012437918104,0.34780791365862346,0.6847143246102999,-0.11243380767438499,0.9255904232962169,0.6879979874072191,0.39674246743862235,-0.19131462980407712,0.26972145866285946,-0.9933202741015753,-0.13742061990411658,-0.6036751164989663,-0.0660900816855431,1.0263681987187143,0.015435151481640109,-0.5442220134745142,1.725002915177119,-0.4331561365562155,-0.3783123626728533,0.2913463122445605,-0.17499787382150242,0.44352049759729456,0.5892889580488786,-0.10839858552000527,0.2833321993720722,-0.8974775416907246,0.9181763419100091,0.5818631154305633,-0.6481003270496632,-0.022784006513771327,-1.0849437896295833,0.39786498925164865,2.6826152295918,0.6430222510133045,-0.6663416953229666,-0.7839431696539445,0.5535590594985556,-0.6311816311325307,0.11950111187818822,-0.9246764072400351,1.8626331973344314,-0.8305421544040862,0.5498704592387786,0.2101080055289728,-0.938307293333392,0.740095536573334,-0.37253404371374016,0.05082875189102002,1.1612612477445103,0.007327383603503944
-0.4261290169022708,0.04541665318521277,0.8612363307278978,-0.17977118246810517,-0.4440873002615653,0.4519720194262662,0.29774237041790913,-0.12923040586784199,-0.6461925721226282,-0.997641876679272,-0.527567559928062,-0.05199126257685465,0.4831363322618492,-0.23313838437609166,0.12376103208985073,0.8826371368729768,0.4808112791849115,0.07293671876211166,-0.4758090060235243,-0.9280384778074297,0.9926756701508607,0.227857457397744,-0.8153494052304063,0.23452651931820714,-0.1756911153563996,-0.058757840832846686,-0.21782342027049176,0.6043781487053052,-0.8020796315338202,0.5005443566721779,-1.4868049756441417,0.7655712366237764,2.3811629298599546,0.022189648714504136,0.8660619986866961,0.9800234415795617,0.6415813636301128,-0.39190821750462324,0.27112853052991376,-0.27878099440629484,1.9116972601236706,-0.10237526593292758,0.1306033523287145,0.005551202748459065,0.8475654523057404,0.1010080836881699,0.43729138704631837,0.9834975913788618,1.2402519504930836,-0.5933066175227295
-0.11336073237347176,-0.2775511570933556,0.5019085961066148,0.2515572312502605,-0.6577449600202087,0.7022414855552043,-0.39173944077436934,-0.9512216175149941,0.868827432712159,0.45033791336646817,0.10097548524278996,0.17297844229541406,-0.9652511817373125,1.0325648204624087,-0.31355934320076845,-0.04992608878948272,0.7612378512508314,-0.05852931329295659,-0.0038917797323499634,0.2383117459263487,0.21478946498884705,-0.7702474779193946,0.4906094394346573,-0.1651345644076017,0.8592848339857184,0.023948053750286406,-0.8693847230056868,-0.15192361650991815,0.1918737396179351,0.8356781277517463,-1.2023793418844755,-0.7393327852189896,2.466916070484149,-0.009165296871031499,-0.06311301614846046,1.072472806144557,-0.21027831331202765,-0.018782609908091108,0.14056721912912706,-0.802319682921535,0.7394647264464695,-0.21053068723942717,-0.24109992247075282,-1.0026197128485717,0.5975536424519141,0.41944240195990856,0.8861121844266372,0.9998398026071982,0.5219526505329039,0.13848589819934645
0.5013832610924673,0.8983651989460262,-0.46394849631716817,-0.20471649550376192,0.8167781926949449,0.10831411636525574,-0.4802542078856971,0.9151358998171722,0.7034247845452802,-0.3194765014880488,0.7220932137318793,0.06330620684741768,0.005811109429563475,-0.03496920676401927,-1.141570983263599,-0.012959257508423368,1.3217319420724354,-0.27389000339787334,0.7594616503749216,-0.20348046088402777,0.41343381300877724,0.4205087514638975,-0.09310957673756132,0.9419845977678576,0.16645231032071955,-0.4481359724424864,0.648433952977265,0.6211428322601547,-0.6137272273291586,-0.7190532989308696,-0.5608232066243678,0.3061458909024763,0.4925900552710719,0.5222621546765529,-0.7095945367586406,0.17443674730831665,0.9436104698764167,0.5172533115988014,0.295851473348305,0.20257498963046147,1.8727593490193288,-0.4678125502473757,0.1304558310843172,-0.6535419111524374,-0.06821776553132523,-0.4783425850808524,0.376737551852455,0.9999689782997678,-0.22012703649826795,-0.3421986717543226
0.7695795716202234,0.5266909957847105,0.45731604678265947,0.1235783680653196,0.19938970666790487,0.6164395670915411,-0.18042571766617008,-0.5790764412915128,-0.6475778985831799,-0.03403276484880509,0.6700891435923968,0.5533948966342171,-0.36099492841206277,1.122640785085072,-1.0395844704272967,0.7679501657231536,0.4277773705355796,0.9052018995763008,0.6067619836743506,-0.877133241364653,0.9892588889603031,-0.6021292275418165,-0.8576214996465533,0.4868092518890261,0.23826042123893218,-0.6671242637692415,-0.15959739389380473,0.22012530164215627,-0.1922969085165211,0.2698156534372778,-0.9562471815166328,0.6040045612497703,1.1252129270117757,-0.0869578522888711,0.2970035916134538,-0.7797843566335003,-0.2826385207925108,-0.6647673595166363,0.04531026318777334,-0.19303026194403503,1.8040793061058593,0.3194969477207035,-0.8929692109472954,-0.8533056572705906,0.96174559521426,-0.9650979609987379,-1.0638564030460353,-0.6448621822819286,-0.17755053720834715,-0.9267387389637302
0.6581018172289611,0.20954151996023548,0.9349609165661305,-0.6314722157243838,0.37105002677719096,0.34799542761775915,0.7302294543536779,0.4963824144207132,-0.13836321391191128,-0.7290659156410394,-0.18683220661102334,-0.5470242763975743,-0.557782630845585,1.011477481012408,0.44634912544168603,0.280951336424718,0.7689105378327284,0.9745782158097468,-0.33574886258147507,0.8198921468310495,0.7333833128023398,-0.7025840628540303,0.8110044768295529,0.8782189525594882,-0.3078614762176357,0.6917589202749427,-0.41864288404722816,-0.5085757430146947,0.23035013915815866,0.30230787554755556,0.04383160772022511,0.2747352348714247,1.532498429248952,0.6890692109836986,0.05891300978202944,0.04134838757679457,-0.6457639920710351,0.2623843571081184,0.5879798246444619,-0.8901514193241962,1.3037971784181879,0.21434816723742942,-0.8559729928492743,-0.7273630114820827,-0.9742636006337332,0.4583234013069734,0.07714858653513688,0.4795197854176521,1.0373994301953486,-0.32411601007223934
-0.7794900538661841,0.5350632913869919,0.6639165261958111,-0.3059475820395018,-0.4311210107186856,-0.10562096766953805,0.30114686221382625,-0.6832234218506431,0.11994790503181268,-0.6015785295209406,-0.2288087681838334,0.7098227789252795,0.8352127716465547,0.5400256937014889,0.8141980412108819,0.8978937265259129,0.2737093819882426,-0.08727885330996867,-0.6963379008966001,0.5706037666639797,-0.14941969188052182,-0.8789821113981207,-0.45650192154795843,-0.6746290515274866,-0.18009472709840055,0.36382205945081536,0.8915822411561909,0.35808476133693534,-0.03912934454255969,0.633795780444694,-0.6084173228947803,-0.0392050683973618,-1.276031844882988,-0.5771388231181486,-0.9238698610111138,0.42414308086849606,-0.23758333465585244,-0.4111726840164202,0.6752051005159957,-0.21593504968116128,1.4824145893458596,-0.6927573302085841,0.7745951075314667,-0.03462198170608915,-0.7893701862440746,-0.32668878658494344,-0.6926466676383849,0.20188136889437094,0.06273777167520553,0.2852965486021902
0.28536302286968507,-0.1373513329345017,0.6623281367957671,0.6424466076201789,-0.7808276625618622,0.9027924695394962,-0.8398328645853586,-0.4561362756866887,-0.8370326858981806,-0.6775527780869758,-0.02488530952375001,-0.1795037348065851,-0.8535358889986504,0.8522060473069768,0.6800338925973304,-0.18910655598019221,0.5375666750440442,0.5091385837842436,0.8180746571778127,0.4652653082420091,0.7984858073390139,0.8364423440468951,-0.48118269308771094,-0.2762316102694643,0.040019840668645966,-0.7325064920644924,-0.5344501627159065,0.06544652093687844,0.03342640964181611,-0.5982903381153521,-0.9640750553103379,-0.12179007933021253,-0.19848536383769658,-0.5280102254820294,-0.7553781601926819,-0.623120168068942,-0.10325079116225376,0.6942654688277418,0.16063196575134708,-0.30037687158591014,1.5649246447882457,-0.9050274787645216,0.27047114225879354,0.4218357566803383,-0.9784193300607441,0.031177092936641067,-0.7197940990713004,-0.7864600258205185,-0.2962834565560803,-0.010169679777551028
0.11368225661004616,-0.32495379120717066,-0.21544674557678642,-1.016039438662613,-0.059750234572886356,-1.0069824167675616,-0.778930831505718,-0.4592262396529383,0.8186251157343856,-0.5028526499814528,-0.7780973589498879,-0.18418684604795277,0.38763716986360086,-0.21129167733555354,-0.610634441252386,0.500269756905795,-0.0212776621008222,-0.4852359789160782,0.35892606849723613,-0.9782944876865571,0.31842182743487424,-0.010857640032572327,0.14033991135608057,0.3536456228415412,0.679076112623369,-0.8499540751453594,0.5715921312945147,-0.4043017638226408,0.26755580010248586,-0.49874922407581457,0.3678743647995804,0.04189502146581018,-0.7455594077385098,0.4894357471057342,-1.0007687581931664,0.44788542579146334,-0.7282810979753389,0.12462224142519641,-0.9894656588308669,0.2672940401986476,1.4585933149741885,0.8854450062709561,0.11643458751007661,-0.1317785777976869,-0.672323824227017,-0.1404364988061772,-0.23334752304437323,0.4780382539174175,-0.2545189228019185,0.6555327445828221
0.7313057528148529,0.2677629443880604,0.019095745407181067,-0.6375554789734844,-0.001386912223085927,-0.2562146447367905,-0.333398622296653,0.6058977891013944,0.7631681952928021,0.6117183302393338,-0.2979092452071607,-0.6011254091133186,0.933462725815484,0.7322414923900415,0.20631391670053184,0.4013408841377095,-0.9816932305426489,-0.2767121591122866,-0.7852563975087491,-0.8436493503380305,0.43872424286958395,-0.06662083415014093,-0.35787251451550267,-0.5722042151959605,-0.38737915155247077,-0.8638929715033529,-0.8531009048039273,0.17970829811896827,0.5719894671321059,-0.20045375780535266,0.08984016488983394,-0.41001027147860025,-1.0095046255365012,-1.092069217358442,0.5295794673654767,0.20030939829104594,-0.8687669764104234,-0.9100772853273068,-0.04209826619774754,-0.6305552839827737,1.0594214991880961,0.9448495542570864,0.3114383554331676,-1.2239095038713472,0.9450190142717717,0.5890346665400208,-0.1917842889841794,0.32921885107473314,-0.03521267040147825,1.129517232818958
0.43476473982792957,0.9789866949920211,0.6211491629353517,0.6625101537888025,0.5280901631316199,-0.12809549102066162,-0.5572845651199869,0.9584865539912185,0.8768401516275365,-0.8259904733578576,-0.961002748287448,-0.8889034401430396,0.7198982071633206,-0.032553531740173926,-0.4349353536634926,0.3735856651117379,-0.43392106288603,0.667867466101256,-0.8180135479151194,0.4090545685203934,0.1857875550844421,-0.5647822476160337,-0.41313772526902004,-0.04299024577835527,-0.4452776120995033,0.227897576310856,0.16821828182708531,0.11856088595847492,-0.1652202923501472,-0.8398623356245786,0.8786990787649157,-0.09611681498212013,-1.2972192516324694,0.515971793275719,-0.9682597181005412,-0.44717481964061156,0.9186482575594456,-0.693016676873797,0.22283297374448457,-0.4515638216764989,0.9109493897636769,0.8420459265726549,-0.5019877384041721,-0.3947345868343129,-0.6817311145972869,-0.2645187132009327,-0.6886646244687944,0.32725561775660966,-0.6228487973531435,-0.46227642122537793
0.4310872337586316,-0.29946790644621124,-0.48584435102339185,-0.420511295647811,0.6329349403697465,-0.4516261772667889,0.3833451132944857,0.7708352878993867,-0.7745401421487714,-0.5073665234556661,0.679265095206887,-0.08707234112148252,-0.1049039078181356,0.31045353816211835,-0.7275375538854594,0.2149222310724372,-1.1316165568294378,-0.32504624913863234,0.48127907735364883,-0.21624422823708758,0.843791961028999,0.2408649671742402,0.09189940490538663,-0.758473264026045,-0.5297451496119393,0.6787179782550672,-0.07270381611984107,0.7081953843745384,0.6470780779586811,-0.6655606419329714,1.4293905688971866,-0.855719182145522,-3.877499394426639,-0.6181908841081816,-0.47626871548270394,0.5480687150982951,-0.5428118779970528,0.6827657554244573,0.0802496069238768,-0.46965638975316637,0.9139810380571913,-0.22649284943632886,-0.636605605768571,0.3763027602128025,0.7935793984589223,-0.33528395060175936,0.6401230869928309,0.4691859119204729,0.22155761760686138,0.23797964872817848
0.03971623733041939,-0.16902658410806348,0.25396429994713876,0.03322116317041367,-0.007134363552532903,0.5462282310776106,0.46425773771980144,0.6920832340935744,-0.16370852422336207,-0.9348352058270826,0.5184384191620511,-0.18379238222883446,0.5389448990342474,-1.1772895920805588,0.6097661701718271,0.7735754827860281,-0.9755144568942967,-0.6150413845480637,-0.6788902472806774,0.4278109008789927,0.9784375005655709,0.08127112529157961,-0.6333556503187557,-0.3065348772049473,-0.19929759303969108,0.7105132603111209,0.8674302900210986,-0.8152708873926373,-0.5753141341866829,-0.029790304551664048,3.829794531692664,-0.7691511984446456,-4.584907789823683,0.5990683119675088,-0.8424875647936818,-0.6357010086527379,-0.7526511115656082,0.9910790410031863,-0.6756252928750553,-0.542948380434761,0.3216778597193879,0.17599231032641763,0.04008018314897423,1.4502936407003328,0.9019914740763422,0.25772061586965145,-0.06535815127910731,-0.29175504115547374,-0.5350650122297882,-0.740671152670327
-0.12756908694524405,-0.23218252365520708,1.2406781430201275,-0.6480947753500453,0.3150691997531892,-0.9613846213745193,0.28113856903706674,0.17665216083527668,-0.2234924183330058,-0.3462806579244264,-0.4314283516919649,0.8600589946312053,0.9673230896586562,-1.1324412736755198,0.12982364855278408,0.520079836055059,-0.1189093181053606,-0.7876643784842093,-0.6851549663282359,0.07239224616435871,-0.7201177985815349,0.5169326612148863,-0.09041973640770626,-0.4152389714757726,0.251117358506146,0.3796698965053525,0.3927139376361692,0.5095595189048909,-0.6392331470270273,-0.23964236696616098,3.8837931892177013,0.051205061201990684,-2.8973175701719325,-0.317446517082074,0.3647221293237702,0.66031921357773,-0.4110406886875925,-0.18965881918197292,-0.20642219958457392,-0.8312979028431351,0.009456209856674225,-0.16084252202832533,-0.6252455555438773,0.1941915244690567,0.6005949742274052,0.14275759264545324,-0.8396299587753921,-0.6023552700192187,0.015869671775991915,1.0632009496311725
0.7880114516255062,-0.8840614319353096,0.5451665741394394,0.6626760003152458,0.18141735302842582,-0.18738056942394285,-0.49733561257182446,0.4394573582780499,-0.6232449285171245,0.02735171008731529,-0.5273148782564797,-0.08564233460867077,0.28639226262568895,-0.8544337795275082,0.03352818892990455,-0.6861182656348552,-1.5587607717627125,0.4416437141786442,-0.6863096588104242,0.8616717179980713,-0.9630708371273707,-0.03667013063551859,0.293206882800509,0.8466640484521174,-0.09249196529321604,-0.04460631360204168,-0.8515121756716879,0.5835848909796304,0.47020769305813015,-0.688203966491866,3.219711616666753,0.7017415909795925,-2.5425876559425777,0.6015828373497846,0.12186767961614123,0.23832603768182434,-0.846464357876134,-0.9688870507576994,-0.1286018351376819,-0.5022404315286861,0.23803110942625705,0.39403358870091504,0.6905573809141562,-0.4129273162101044,-0.21801143484924201,-0.033395200282819594,-0.44043586990184846,0.3624502452165147,0.8172155116368621,0.9573808291787761
1.0159271782920627,0.6542819908380809,1.1464094766723945,1.0075512988920212,-0.6676754511063805,-0.8313530637251599,0.6455330015109629,-0.19000811455141564,0.01722312938487127,-0.02177208272333991,0.9784662466197478,-0.9304786301525816,0.8937877663544289,0.3160668663609302,-0.5175214382731137,0.06561202048163105,0.3053336911891898,0.5094552136900613,-0.27062929050714774,0.10765988501181878,0.7157149955942188,0.7352989653179298,-0.5910651901151321,0.40717311592612065,-0.2777355902313285,0.7112796797431046,0.8545773597077783,0.26391170035380207,0.45377821376239336,0.05595821826219108,3.793939436845679,0.7751127508261244,-2.6771276191311655,-0.20755507560774003,-0.26180218848044445,0.6792435205688873,-0.4110627986548326,-0.3626236791046232,-0.15116195133507487,0.5725571333645704,1.10660343303489,-0.73943309021487,0.19077944891856735,0.5881072684765625,0.5748413522774082,-0.5786286382325281,-0.5233393452807765,-0.5849805826544971,-0.3965553860696153,0.5839477012532944
0.6225249881811025,-0.8527100993702486,0.23615019676600818,0.967695066545641,0.3707150922399782,0.9145550252397868,0.7688489360048685,-0.03522025969620988,0.9899420406861801,-0.5196723289051585,-0.19197927320328517,0.798584267000924,0.4645437133701214,0.6412280589659611,-0.9498118505881427,0.8460173328799255,0.49798409836663526,-0.59234087959554,0.29959541202282997,0.2341379835191622,-0.953514546709033,0.9210298618775565,0.21893761465037204,0.7901737930612032,-0.6300144202370005,0.9604113483077462,-0.7512089860653238,0.629785610498641,-0.8676508096814501,0.29593439595256626,2.243193714866484,-0.5411578230631139,-0.9583767349023635,-0.07209043422221997,-0.9042057114864344,-0.7539017198258758,0.4745988128718229,-0.32576853393438265,-0.2565385624857779,-0.8317086610508708,0.2730975395163833,-0.13634848219492174,0.681370309986582,-0.43617014252340186,-0.33222374555239326,0.7522974807422673,-0.17516579110477348,-0.7386291874403589,0.049177945491826275,-0.5125136070051682
0.2951509022691328,0.6256448385121459,-0.3889206739528721,-0.2678978792834288,-1.047550122379141,-0.9815782088602233,0.6898933665737573,-0.18024377358511984,0.1535604218000368,0.16288232872149877,-0.3639178231436045,0.4815061598191091,-0.13580409271893598,0.21607678312919276,-0.8349858727668295,-0.1433288631642634,-1.3222897975733667,0.3326467941930315,-1.014763871222096,0.42865462367939244,-0.3484523205666461,-0.7825353076274835,0.048628874852054846,-0.6274742904750976,0.2766270676807596,-0.9319093028250037,0.5916761364675593,-0.2387699320426899,-0.44951049271613497,-0.25300707484034113,2.391671946818463,-0.46826666701422226,-1.5050506635347165,0.8230672977793777,0.72375156401173,0.766204889391959,-0.16476774686780293,0.03888348331773278,-0.7677584316837801,-0.7640852494555065,1.2620777653409312,0.8206935411908385,0.6947934000489139,0.26711161972569797,-0.5331861844783391,-0.11204434308491744,0.12992452012864256,-0.8524628429289077,0.3882719786048159,1.087703737110388
-0.5498226216698365,-0.9013185400351733,0.15409898359448082,-0.4340976314943088,-0.048519555354275136,0.010629528242992702,-0.5778709247091833,-0.5177272258224963,0.7616821650235578,0.28176029850120154,0.35626492790270947,0.534561831387137,-0.1355984892548097,-0.399364021514394,0.4038049214080894,0.7131927649615201,0.6141092467033388,-0.2689883551884987,-0.2404879281744328,0.36191139548249107,0.23578807473519445,-0.16222776387359084,-0.029466073770270097,0.28131214254428316,0.7462235330449996,-0.9855040854917854,-0.4510014926836801,0.401801959359788,0.34924629370176496,-0.3716854090300657,1.216920424976711,-0.3178379668322441,-1.5249184409155478,0.23980657821709664,0.6728571950283423,-1.0173046331452724,-0.1325983555836775,0.10938852623553186,0.6744149352433497,0.34861694408626526,0.3605321865329129,0.5358600868689262,-0.8690118898141584,-0.605845126755373,0.1405849844563417,0.2209645883551461,-0.5283634628324384,-0.7005323897831167,0.9820304747426465,-0.20832019288768588
0.5839398232489069,0.7515287847659236,-0.24111713549714195,0.3079843191217443,0.5822625004398941,-0.21404269609141094,-0.9283485928081265,0.08960061860958828,0.3658967978863435,0.35065612581324973,0.6233893444986993,0.6258654393447554,0.640198238885579,0.6161475553681557,-0.6563894307561363,0.37921150666883924,-0.47135686967031015,-0.7722547131193,0.5644568810081365,-0.7334765692177957,-0.7726733318181332,-0.9719311505401106,-0.5673091777457072,-0.9819262064921495,-0.47807916519587074,0.8103418627979411,0.3322687500222379,0.27477248337787225,-0.04214696948668621,0.4277771138394688,1.2061572138432544,-0.06854757687027024,-0.015691586961114248,-0.12976208791017632,-0.4115917291503188,0.06996296373435058,-0.624836503481523,-0.6283324623315546,-0.027312852114122908,0.13436506100464446,0.006746055359195061,-0.03728419932525126,-0.24258357889842655,0.16905175970537623,0.3248623426732913,0.4512611019803077,-0.04867107415578741,0.5201744005894748,-0.29213131892198246,0.6653751601291157
0.900978333192011,1.0119380142226562,-0.006031207468067203,-0.029409880452409227,0.5538620702846953,-0.5131276634755032,-0.29157814132078985,-0.3053626691935776,-0.8007638679083112,0.953468164840573,0.9169491707563566,-0.45137853403158956,0.09920397559364016,-0.7541220220343241,0.007660334783523018,0.5306330572643658,0.32941038779298737,-0.5991723313804872,0.06518456241022472,0.16211545266481636,-0.5218973507248554,0.4111016323662817,0.4890752756001759,0.9744285216877565,-0.6844611646967905,0.3427977466193477,0.8660471173083206,0.15366981433900948,0.7945878760424498,0.7041354280013379,-0.03574128506071342,0.3390384578521716,-0.049039281975026716,0.25278123595443813,0.017180334515178333,-0.6475386749912021,-0.8181756800425535,-0.4061456296902411,0.08303969580620565,-0.7513291590854191,-0.03375480227851204,-0.7723510505941614,0.7806551899863213,0.1037777226960728,-0.5679592409604298,-0.11782689054782586,0.17342627431998725,0.17551480196013233,-0.7595461318808095,-0.3364391706878617
-0.2235229476123882,-0.18646140178998008,1.3573438734934387,0.8850065763060863,0.8800490025554274,0.1083710988345017,-0.3389644803913159,0.4585820417742127,-0.3002972981927273,-0.7972866601968938,-0.3916240715207659,-0.8608134286224245,0.7491164632208551,-0.7067924745773322,-0.09182583834962624,-0.22977713135523684,0.2914539336634379,0.760217708055554,-0.519006850184041,0.6463078742637871,-0.051991075236559124,0.5906136411527924,-0.20289424081384816,-0.8702841139076373,0.34872783955084424,0.06240707729172385,0.485044685492448,0.4296764005593008,0.19114171670123511,0.13564806784611744,0.33258187510524956,-0.6445491602637324,1.5450269641215661,-0.7290630114708803,0.6167296722214811,-0.5543033391705541,-0.16750520122018858,-0.7535984805165739,-0.8319896010258173,0.1701753267459505,0.4263107085173195,-0.1288436724300181,0.5786118298867573,-0.9542632546858183,-0.277986462720517,0.9971858088440956,-0.04504782483755567,0.6591802919187001,-0.5208342290765542,0.6894704888825539
0.26796038102263453,-0.7704870239977328,-0.09510727172779224,-0.896348599592762,-0.03114096421352483,0.5439485916630273,-0.5453186104179759,-0.22776650279203972,-0.9398832369521054,-0.6359741200401683,-0.7443946743124411,0.943560583635294,-0.24949914297564202,0.8443800618733261,-1.045897705783838,-0.5487348134943498,0.22751992197565937,1.0005331625299283,0.2525032263650522,-0.7447343439838681,-0.22774443967620994,0.41296779179250875,-0.9988281348215774,-0.777213767582887,-0.5784166132046532,-0.19077235338900622,0.19450943158969364,-0.24430826920964682,0.29227101235835024,-0.4430264153252486,-0.8876972390284875,-0.6815836400368948,1.4061104972379241,-0.8788453044881679,-0.9726799722957172,0.00448119243482746,-0.08894230127942483,0.7383528566791989,-0.0878777133208613,-0.16183038251951945,1.2444440339064093,0.7084868753157327,0.009790102577610213,-0.5338541217685999,-0.8657594394085543,0.08376445320997741,-0.571373175128951,-0.5122662997554397,1.1660194564033308,-0.16592496938328394
0.8134394449474878,0.1573845463601124,-0.19489971610826007,-0.18176819515286105,0.6429701084677049,0.7759805524207114,-0.5302131454441149,-0.24903197562223647,0.4985659695739694,-0.7064706272003053,-0.43971365872573775,-0.44029456872683387,0.815518014610849,-0.08566179418654139,-0.5226355512304259,-0.27739360671806124,-0.22818445118662614,-0.5959720801830722,0.08213112510151672,-0.2008202484775057,-0.19091045262587317,0.47095614751774273,-0.5524752982381034,-0.6118572292206294,-0.1956151453379951,-0.8980289340070022,-0.3709953575324784,-0.6618958437553603,-0.2262031631501751,-0.9419403492199689,-0.7322406260871621,0.643140283286072,1.532360005018043,0.9140983453652062,-0.45846936370932473,0.27174473289012635,-0.14616415182227707,-0.9794529788856161,-0.6241406763688582,-0.8460398496166323,1.2101740629155195,-0.13653818712020394,-0.7235814658064714,0.6792471990993377,-0.02453253738967609,-0.5823227462333186,0.8113933087477122,-0.7723544613939315,-0.25023539165817893,0.0556070109745207
0.7855293604845591,-0.6672361681904404,1.2542660697538193,-0.0010595213142099902,-0.42692380086927084,-0.39285179646145096,-0.5890129141183281,-0.6881570773306117,0.5668729705022896,-0.3289349768988649,0.13003946785964232,-0.6361909291182122,0.33040327005875025,0.17098856236634666,-0.9719606662583108,0.6180327453253945,0.15422981584599071,-0.13490339076095986,-0.6988816311583198,0.08663352694852336,0.39006177461171304,0.8848744657174494,0.5333409629488663,-0.8956071835353387,-0.1290856931231621,-0.5685423404185347,-0.2053323095358779,-0.14300849239208374,-0.22843038344019112,-0.9475051896002552,-0.910079936697596,-0.33629211589355873,1.0952949527194218,0.5940269106602314,-0.17764762412390328,-0.37626228833051084,-0.06070767808557136,-0.11818011881944152,0.5728293165391144,0.24562969036767573,0.7079455973786652,-0.4539910629521831,-0.5763079523069529,0.5271463852684353,-0.8345364487778093,0.7507257371443957,-0.772695186464959,-0.5282223260520935,-0.15280153153751472,-0.7771947126779396
-0.7232169458798284,-0.7017756042407168,0.1783302177086834,0.1558678821219286,0.7340507164227725,-0.24714111321218213,0.7474918808340395,-0.8715274986597229,-0.5202609097790555,-0.09424552479908285,0.36126198362882034,-0.7743348785024061,-0.3597572541552373,-0.6636644839487538,-0.9872547541980519,-0.33755088984754167,0.34269369535923394,-0.3117900531159448,-0.6889456361820671,0.8574641222272599,0.7353228141882538,-0.9214802452323029,0.9956651725251449,-0.5858757736513661,-0.20160478279770871,-0.6085699400326009,-0.38651932425199154,-0.5086063404492719,-0.11667265040922573,-0.8183776228776046,-1.2231942078076428,0.43359545902286784,1.3770498091455985,0.6524692775027783,-0.5356302412158431,0.8680723869717685,0.42310108965670323,0.033455502055475136,0.8138464360026938,0.972160103041281,0.9885500091792853,-0.5973881950852835,0.8292831415327423,0.4997841319116825,0.7812733076302811,0.7404154990798013,0.5694968627632166,-0.5621886525275288,-0.3644285929441589,0.8278645984717069
-0.6986582988013669,0.6922250854257087,1.0575784601192146,0.8147166705404413,0.4025140496959672,0.5245408546985798,0.5294511109008154,0.9266740970556014,-0.9794861738722638,-0.22095334534880012,-0.9040302689130459,0.656158284978929,0.23437349621670134,0.6927656039550217,0.41140818916881366,0.66816156738429,0.08391162190804087,0.9253296457408962,-0.1904183255980175,-0.701102362542195,0.02362551907323404,-0.7447861666178037,0.2613760941776941,-0.7551053841226466,0.9522820776715158,-0.913445859068639,-0.34561390660516417,-0.6074642721955914,-0.019448066706730723,-0.14846522126473607,-1.0454355513536784,0.9636801334869248,2.2705446114621686,0.5830695628079579,-0.7942603297606734,-0.33025280650207434,0.6027908377673346,-0.9520044791336622,0.48514180195938905,-0.9572824800875552,1.621243428300285,-0.4900571144486068,-0.3142444696448344,0.4732846744307337,-0.23400522629672518,-0.8091812354038976,0.7555976456135461,0.9072457863621417,1.1251946533807062,0.48350944539317436
-0.03443658750212854,0.33825156969434533,1.0326396614722313,-0.678887973870843,-0.5435519359697084,-0.9675987945794694,0.8611829052457598,0.11685225023781816,-0.7877187560189206,-0.47000572221075937,0.3033938805216252,0.5991531612131203,-0.589546648584505,0.37797324454429215,-0.1770358610529687,-0.3603123588557166,0.8473591000260503,0.34842611806287427,-0.17101877642790275,-0.49796044005911083,0.1582314860791071,0.5446420667205318,0.16432225681825224,-0.24533976451276124,0.4553228471313995,0.6729396215278655,0.5498198681998571,0.3591808219787502,-0.5768813905997537,-0.5262071588170085,-1.6103409885611457,-0.6918501302889516,1.5162754518875041,-0.96328203928468,-0.7190746455641724,0.5111483082451873,0.7250737127701796,0.47377338572933453,0.35030879292982153,0.378129458422161,1.5706687131461192,0.037020252961500064,0.6411437976388592,-0.10249471452146043,0.6882349190143753,-0.11971031109657634,0.8861277673727492,-0.21285673101868538,0.6370973624705595,0.6757155484533343
-0.8166341582446932,-0.25353303631629187,-0.4611066462614365,-0.3378560867989133,0.6219662418535388,-0.021826807435312214,-0.005716646564845256,-0.7473536520353189,0.801505375008991,0.6760512547758394,-0.19702577154715642,0.06537097497467295,-0.9227310821340876,-0.0910275958457471,0.8168687938861432,-0.10987959786276215,0.15782391660707423,-0.6962484690599936,0.32019374418423663,-0.44903927831138096,0.46782722270423605,-0.9536871981950144,0.2997190577625238,0.4046068873817606,-0.20839138510280686,-0.055016539186581184,-0.07174809628921532,-0.26038638707275397,-0.2704967470071166,-0.2266452176834871,-0.8051375618700224,0.36308233924355754,1.0107131401186227,0.00027926625654110067,-0.27622397994754005,0.006241812928372551,-0.5736742112315163,0.8810205114850518,-0.2862103961680659,0.7124488723385889,0.4525038107516221,0.9473525241161698,-0.3963113909894003,-1.027207677163112,-0.21515801132029908,-0.9774222695102216,-0.7151864161537521,0.6884815547222922,0.6140695636693083,0.8687754898088144
-0.5795747708494663,-0.27947468126876546,-0.3213516952379358,-0.08182549844215724,-0.45206284207064606,-0.3000816392497433,0.7190628219263713,-0.40596134625584823,-0.6007782106969902,0.8930062956455714,-0.19682747316803084,0.023426166245253524,-0.9142166440493151,-0.17954791814254026,0.4110861896435294,0.29463996085690725,0.0030690331132869593,0.04555027260514217,1.1345999678205985,-0.2792231512528864,0.16418125092864794,-0.6001095495902729,0.4450039625098959,0.07582309032766239,0.22414329390654278,-0.9037971637577775,-0.9628520627133362,-1.097270626246813,-0.7609929548910876,-0.028125609957876167,-2.7636268007126987,0.10077208951560382,3.8557060401456593,-0.3104977874973255,0.5401283882089543,0.12500003277799998,-0.14957824505331915,0.9537613009586611,0.6523302461259299,0.04859866046696472,0.04932287334827778,-0.6923411237467179,-0.5509913888930278,0.33742214385398095,0.9662460316108388,0.4344764729289334,0.6607474791979115,0.9042397041381175,-0.47229694436813335,0.8925067056870334
0.15497677871052123,-0.30679388680300024,1.2873027455571973,-0.00021724761654488576,-0.24541565104240531,0.6597916918019843,0.027144492299887014,-0.9817546207684246,0.01051341717699792,-0.11473119905820651,-0.16521408862857567,-0.9243368951863972,-0.09324950479666341,0.21046721323063422,-0.3413575205465165,0.4429507375969009,0.35193211718786666,-0.4717511290330897,1.4946665493311382,-0.6947475199155692,0.3794338569890345,0.025524725029683108,0.05844756485974184,-0.5621877983943842,0.9509445348543724,0.9521037503922578,-0.9890758962791952,-0.9734645300814343,0.6920349342194926,0.2892253126137448,-1.6805286551786067,0.5573436102305428,2.701529467717135,-1.0792172480820668,0.655801254632685,-0.7924116596631001,0.3687965089491405,-0.9581855465491533,0.6654308256416321,-0.8744821183650748,1.1120609748513983,-0.5831044967297908,-0.2601592090161134,-0.8231373284386639,-0.8395274574131291,0.15125727626540666,0.4145184881986477,-0.23046923315098378,-0.3517610948492313,-0.06525828365358878
-0.8007342995070297,-0.40975435800252363,1.059487102821867,-0.05632190004315269,0.27195099535094064,-0.851032918894479,0.2546551508369016,0.12900645922339388,0.14745990343312781,-0.7683636843697402,0.30712380145228163,-0.7761076314650805,0.016077727457162554,0.7248384260096464,0.6038347347028196,0.12182560122237844,0.22395480228163148,0.5956133651368586,1.2531836352838195,-0.4496421672339017,-0.7585960329256043,0.07615212662194328,-0.3742588656655023,0.45486539829852035,-0.6517077345907183,0.8750620554518324,-0.9488104246595881,-0.5438108471913244,-0.5984905334377593,-0.055683179354760554,-0.48503202494450126,-0.9360030769698252,1.7143004387338325,0.10196946326629615,-0.44845695705186955,0.9160541749345935,-0.9749639799800481,-0.5116828221267741,0.6223752694614223,0.17260863429075315,0.05148699178324618,0.3033311570107282,-0.14108227949267302,-0.19320855475254764,0.2820287258826732,-0.5939150900138549,-0.9447056124704808,-0.674601627319244,0.3345990313058952,-0.8442318232489114
0.023948495399340165,-0.00018989141365684462,1.0639234850019095,0.21329456533690652,0.5282299933205584,0.5876885934304551,0.7993155235890053,-0.8424041202380818,-0.10436056319014855,0.6492605991113746,0.8416118620019315,-0.6481605881097819,0.5343092817308056,-0.48050313044034404,-1.1429677242237897,-0.3955445486893115,1.579397873966688,0.25671253818560896,1.2802775167623344,0.600381911093126,0.6571748256712122,-0.6352697969153311,-0.688364330546668,0.3920752110724302,-0.48171349916096096,-0.22531324632306166,0.17990705744493374,-0.3110863112085376,-0.5690298639478072,-0.4514643362821623,-0.6128564562956207,-0.1373860606852109,2.1868476016011056,-0.4949199609307161,-0.2406822709865753,0.5938741279486124,0.5832157639989378,0.2926435527487949,0.9681909071695395,0.4549445657938946,1.5776811321357596,-0.26544916385204886,0.17183941589005308,-1.0388069390307453,-0.7867561530865916,0.46651405995977685,0.7455012023483056,-0.28388188635508904,-0.3248443359877296,-0.11727155983709127
0.4915194849085297,0.009202734767775209,-0.04598827010457835,0.8862117692052442,0.14556122918196876,0.7995604864788888,0.7806850129971501,-0.43871401159665174,0.49655468512620765,0.40370369135454875,-0.8367801323003908,-0.938344883292929,-1.1034989797686188,0.6817641607325957,0.688119258165407,-0.34044473048155516,0.5849704808548943,0.9311057066459387,0.7882510034665865,0.758159285738615,0.9453587446486375,-0.9294357580356907,0.9897021281684907,-0.5575159007986558,-0.27488939647762706,0.13850968716408485,-0.5133990890946669,-0.8905046873702791,0.6811828218914409,0.15695963021870524,-1.4885938492948818,-0.7677444129105279,2.0224734511302684,-0.09085092334083673,-0.013709014399866005,1.0593632608730017,0.6422846167745981,-0.8382567569090229,0.7290138615078811,-0.50972023658718,0.4820009686074888,-0.3451149465624315,0.23537316637785483,-0.8086381271410554,-0.2229216526118541,0.5641511812842765,0.40028269927209553,0.7917149569076074,0.5461715426351308,-0.1422598217827212
0.10470855645382791,-0.5230130945550306,0.9653054619222999,-0.6137174923854561,0.9483261762807854,-0.480499026247019,0.9886844653011737,-0.4294570465712759,-0.04074686428334077,0.08117683113486072,0.17514656983634538,0.933519679784172,-0.0037600902563851347,1.255806770561681,-1.0175825970038412,0.8314415062357562,-0.0024435532398055125,0.2825542167061487,0.3624893639212585,0.5846162988266448,0.08375916948216355,0.5013196771180825,-0.5607203493717788,0.31377386602130386,-0.315021249694693,0.6325664791955979,0.049221110698928004,-0.7829128026035346,0.17273825605341445,0.9026600488145347,-1.0822111728861057,0.3204117237258845,1.4642025250452144,-0.29189984597293656,0.34081542310731466,0.05966875337196511,-0.6703516419669698,-0.44958376723932725,0.3170897964749171,-0.031893016645678,0.47333097222503107,0.17350705628663934,0.957137227947388,-0.27504861574501493,0.8189902178620707,-0.11371797260471496,-0.5832803028664958,0.932109869575559,1.0692010608048506,-0.9773772995727164
-0.4549982543339922,0.23380135945721825,-0.48000473093822327,0.05329805166155088,-0.2048087939488951,0.16878839517908897,-0.8502729756256736,-0.13521220040261694,0.9151487035642594,0.8772981625535572,0.7996315417789903,-0.42797495125144325,0.48514543674564164,0.30589094911674003,-0.3554724599081779,-0.9005699228956224,-0.4621392666573459,-0.7981224554766831,1.2028912945705694,0.24624376209160714,-0.551887653106987,0.16876577509754995,-0.006123277861113143,0.819356228616644,-0.7679755787145135,-0.7839423852739432,0.13518369805588348,0.7098899531882995,0.21375171268126378,-0.2678553208236787,-1.324406371773877,-0.6217200379824519,0.721331513561978,-0.23404809720043543,-0.4049794690098589,0.35106956606912304,-0.43042160183514067,-0.955346480553688,-0.9442017750010541,0.8219985830271249,1.484427667645547,-0.8642038088987892,-0.9829479384010931,-1.2664818892816239,0.0029518359355893923,0.45267082662662333,-0.5161512933474943,-0.30805033357309747,0.9833317534155033,0.3720929079409923
0.05454794065558717,0.23221217704377242,-0.5786928584472532,0.018136624481783388,-0.6455845736564798,0.36141521541257643,-0.025136217252502393,-0.33012609078790106,-0.8879132042875854,-0.2977489636355065,-0.17549915342830855,0.6070908628648977,0.3713107247245649,1.067565966303865,-1.0131787631471618,0.2774106977878752,-0.5517296466152869,-0.3917709964499348,0.4371113734658859,-0.19885193696387082,-0.03300870902533975,-0.43874184210159306,0.8455794963190699,0.45870131826906724,-0.5320432291906222,-0.8755178557777947,0.6283584639882687,0.6644160980548689,0.2603579635349324,-0.9468288936146462,-0.542395005330302,0.8208485653302513,0.452032370560578,-0.12259472318705662,-0.39020353594573765,0.21852927442743245,-0.6626008655422795,-0.9583179254127545,0.8251946579388939,-0.5880335735609408,0.7290125804117121,-0.7140228508364457,-0.24603555857416068,-0.4674574836961787,-0.8194125448517703,-0.8035914396610062,-0.3265990242003067,-0.4777965507847025,-0.4655906763806351,-0.5360127978078391
-0.5287967939014855,0.7684540563879387,0.9484696920857312,0.9256944806022049,0.3233605987702361,-0.33111339320293093,0.37129966747311544,0.9434085396397435,-0.09411946518856386,0.7412524353290392,0.6302412218722798,0.4505250011176154,0.012195703196165232,0.504773355391252,0.41586749253517535,0.058952854875289444,0.9491950858085022,-0.3141759425970086,0.4917716203566702,0.142766356171655,-0.5366760031162133,0.64403786030947,-0.4365836160913362,-0.7416096856564499,0.12438401757913249,-0.8364963762764335,-0.4507777571682522,-0.2723887726307414,-0.6457309891161209,0.519205597546085,-0.8752697293672249,-0.5365148701917791,0.20617917197161767,-0.350613114890045,0.3211816985148455,-0.6947055566400971,-0.977875464207189,0.9100217217406701,-0.9123440545064383,0.3122565069726783,0.6346400839800838,-0.9365367532797686,-0.4558775189096892,-1.2834674484871833,0.012517541632386008,0.4817155314103307,0.3244035878729387,1.0274370948464429,-0.5336946805459762,-0.3109791837065714
0.7883999945217455,0.6805779599113472,0.1814811184518314,-0.30798457573069943,-0.7901651823568056,-0.8442727139655141,0.4123655615776615,-0.04037501588920239,-0.07979343305255412,-0.8563110055826297,-0.7037148600929046,-0.7751905898480939,0.3433072345582902,0.6339837068142944,-1.0170330794227702,0.8793029240611611,1.0916576159612854,-0.8754128906993968,-0.3888515338944608,0.15899345363329356,-0.9748063577620952,0.3943171775310337,-0.9850898097728402,0.8401729672987822,0.14048485453338153,0.4183661913470251,0.69065928523521,0.436025221446003,0.2861347708914363,-0.4433750973551584,-0.09043838975217311,0.5059055376556275,-0.0669672346098651,0.39934014665531486,-0.7686168030139239,-0.6702200177292752,-0.5812216745695787,-0.5225658377661356,0.41573586293386106,-0.021723158430398546,1.2638371799387154,-0.447369847941229,0.5384045784801459,-0.869256206937634,-0.6064803945038887,-0.93199152084192,0.22476615239809586,0.5814703800250187,0.9225604331174256,-0.568336124803539
0.8764686727085486,-0.13642115706265798,-0.010771173579629143,-0.03276829991760766,0.827008605305872,-0.6526314840732809,0.2218656993196485,-0.3025600453683668,-0.41572939940019465,-0.6243579053809764,0.2258635299919976,-0.39264398987625876,0.24119230327334826,0.7875100453195353,-0.8460643594857142,-0.4758855668627614,0.9757956562610448,0.37586376886262757,-0.849948492530291,-0.7427768517301044,-0.7581679833810824,-0.34694533984924864,0.7835318198976376,-0.016723888416677973,-0.495106376153404,0.22032138591439218,0.509616805665862,0.386305190847132,-0.4383872076953961,-0.3824895835179567,-0.18389978941855528,-0.24633330707906884,0.570833856909259,-0.6447079667738256,0.8104699914461089,-0.30964950761446414,0.5595142289856857,-0.9694835459238212,-0.021299250519663554,-0.004980587536483,1.256407882299652,-0.7340532219913075,0.6797963942481176,0.4070936773695757,-0.7787256925063027,0.18773136031273766,-0.11515195046038226,-0.9143738302298574,0.5816238956392187,-0.5235432706556463
-0.7250322841209293,0.4500080310626057,-0.2202956317583783,0.3912428807234603,0.518730602680628,-0.9826907665139256,0.09261364928997738,0.3247020159198417,0.5745081134873179,-0.147152009043083,0.37154661363402486,0.6955620418546458,0.10689031080269565,1.212204713692029,0.8574737601595347,0.8044522706329621,0.7395792927345709,0.4563098826704499,0.9091093447518137,0.3976677837927806,-0.7864282068119042,-0.7203065845034363,-0.5706965711168581,0.656216753530704,0.5166473169305085,-0.11933549179717963,0.9311292256504148,-0.5807076504858125,-1.0121522069594397,-0.306426840918608,0.5219054572229734,0.7468380730306949,-2.334546991648428,0.5228401345100725,0.5546529259616301,-0.3506180868067601,-0.21749110360222626,0.15117597096323043,-0.9229454147956271,-0.18704265391598637,-0.14187705962741257,-0.12720435744138017,-0.7857436589660193,-0.970059891180224,0.0834702137399539,-0.8339022725148344,0.6136234577949317,-0.4070065368269177,0.18606760258210042,1.0060043603126434
-0.006311898741957731,-0.2598250858188042,-0.5606747120927444,0.016958734633586173,-0.37147188286648847,0.7668360149246706,-0.42575110475446365,0.8892844518069499,-0.5059576415197701,-0.2887298243724903,-0.552745569726069,-0.9333258976303894,-0.7616623772646003,-0.7152646231974816,-1.0593742237248327,-0.6503554617409014,-0.40018929660206193,-0.7777609809969421,-0.7720616649651705,-0.6369481400002798,0.5763715457252955,0.5692548268745053,0.30108782049955224,-0.43869132288063395,-0.7306005487668225,-0.3969563775471001,-0.8341020373866678,0.40051952901751736,-0.44270113474088796,-0.5164727019256641,1.1270200695195602,0.7607554168954423,-2.412501924046988,-1.0744639744584192,0.2204550043406836,-0.4303957338110589,0.8305527247892849,-0.45260905417087405,-0.70788430416358,-0.8110484802784883,0.2862258590440166,-0.8163295258627412,0.2735064210794746,-0.9167684151548848,0.7891527113886345,-0.5649810993167109,0.007133825571403031,0.8271111025633772,-0.6288934389188514,0.6170038003447129
1.051618688732843,-0.6886329969755802,-0.6638405430099431,-0.28894318296259347,-1.0857338267896857,0.45920072993667416,0.9789560897387586,0.809485567527461,0.9098204006043239,0.1737945737314588,-0.27792162837933526,0.16126595902810228,0.8198586755435098,-0.5988147846483152,-0.08865876894030643,-0.7374233150354549,-1.431269774159374,-0.9337330029902944,0.7088810682970573,-0.8825211713616704,-0.6930327621187494,0.8688626527063134,0.23663802018057445,-0.2003467792824622,-0.181551961975471,-0.632138895883375,0.8296328914249965,0.7515975984970454,-0.03947968213701125,-0.07106085447522026,3.77261820111877,-0.38738944991841645,-3.962686129207087,0.5421366598163441,0.6079601874640616,-0.6387980053834278,0.5520053499634516,0.5151927264928645,-0.06407753470727619,-0.2228121971016915,0.5970248448072878,-0.902529339449733,0.8273529532682316,0.1514556403853425,-0.9022975301763505,-0.8853389190481303,0.010935293028181223,0.3952630869783846,-0.11475371079497272,0.6107210256425201
0.20328256423748337,1.032508136236238,1.3357373239323806,-0.008882986513085028,0.8772452178723483,-0.8713634538067484,-0.4995045052472717,-0.013767144394223885,-0.49062424584669706,0.7460267459450763,0.1606569808357407,0.2596344134664996,-0.3267596983876487,-0.24056039007947272,-0.4386792510902453,-0.381395377058152,-1.081251176611217,-0.22273779833436408,-0.9428874816537366,0.7656625358331904,0.8103543694552096,0.10201711241496485,-0.10427598158215284,0.5344861017711849,-0.38773676527374673,-0.622815145443787,0.6443591288490444,0.2764379795731936,0.45362727129564157,-0.9704293850757165,2.440779534309916,-0.9717465888376513,-2.948009211182922,0.5288784519613244,-0.2652504229360646,-0.48704538719262813,0.08150149640530711,-0.5013119867000945,-0.15037470748180465,-0.9203850909975592,0.42439433222451806,0.8965192768837206,0.834835309983639,-0.33924035851554674,-0.2736431406537814,0.8231945490642398,-1.006229182504573,-0.34875141889083294,0.5358643993787087,-0.5618502702455128
0.5363614652788751,0.2028098628959552,0.7827824735743999,0.5246484922849788,0.3632876110467161,0.8494084234270809,0.7218749298364469,0.2671185130589312,-0.4658584514267283,-0.027473613533030822,0.04376291179250392,0.6111901568420551,0.22669357363438028,-0.6264049691112146,0.5458254229918648,0.6004420992981089,-0.18882523146490143,0.7310586896123187,-0.6218212415981761,-0.3027197990857417,0.16468696546083278,-0.4668942483333385,0.2922438421467126,0.16339707209467058,0.33254138252349386,-0.8311720680733011,-0.8087968233079994,0.27820872610870484,0.533399621758056,-0.5591952790747661,2.896933697457759,-0.2368149604754593,-2.34401862245644,-0.35872564625416964,-0.03229309320852328,-0.023043051507133306,0.16639532434436977,0.2101328028219824,-0.5627190770777115,-0.5223343613885121,0.6575518983037872,-0.3064928468755579,-0.051259453195507336,0.9379426141141015,0.920678294955934,0.992900612146527,-1.0218432681638516,0.05075986189783538,0.10127077258459506,0.39489237884497747
0.5546572408018453,0.3622172971648657,0.7925767354063885,-0.7631951627329383,-0.24841894856177885,-0.2910499957287362,-0.9237834578372012,-0.4265605273452147,0.5475986155321967,0.04827212359786803,-0.04261237304123047,-0.12601224124503732,-0.32790686334158803,0.4994024725684801,0.636271387277031,0.5485235180358129,0.0150613124838152,-0.8770673417981586,0.025615842014630383,-0.5551544349451556,-0.3422718938852192,0.3585650386660162,0.7876119779727241,0.2096321020433215,-0.41219698942656074,-0.5573405433218449,-0.3296799028242509,0.4627002100053255,-0.29631176597421965,-0.2449807777730151,2.7955843102614035,-0.8321300804224753,-2.397959126492662,0.48714234795989786,0.45215306592732724,-0.04899428255926455,0.4360859501059951,0.9744794474244209,0.638233333477667,0.1736603813037569,-0.41993577723182574,-0.2951229816583823,-0.17639806181198733,0.9333935381779899,-0.42741917883604136,0.8442059712247187,-0.9002321771475139,-0.5894203764566839,-0.6001437282943861,0.9853869940261283
-0.46396867373516565,0.516301026967773,1.2596625717384284,0.7203931883299207,-0.6791890222647956,-0.5231207442932965,0.8466142701520626,-0.37095695580089716,-0.4402183261594976,0.14491959517509218,-0.10372880234957724,0.5434058473354305,-0.20757207077312012,-0.3933525986406956,-0.4839638652094147,0.49049917740226556,0.592895667936207,-0.4041116090312096,-1.3310368435401485,0.8287226765828664,0.6722574338197629,0.8907988023538284,-0.3941042102135001,-0.7302483162424448,0.39856450838562374,0.9623311041892811,-0.746484561877126,-0.6888460498203457,-0.16920506931956422,-0.5798719251978729,2.120838815993862,-0.5369202547464441,-2.7180767293196926,0.6377457499514968,0.8700932780245142,-0.3762525404216034,-0.15493570223223002,-0.1327167220563313,-0.6435702706334107,-0.37105125006576656,-0.6096661569618971,-0.08441488999958943,-0.6953561846713241,0.9494947569215181,0.9922380993438857,0.5016295086646924,-0.5212376031618292,-0.7626920703057912,0.8788899179211058,-0.04481321196211548
0.3124450439940784,0.9260613817499748,-0.470763623895485,-0.44181934765000336,0.024570136154059875,-0.845328522271368,-0.6816089553693327,0.8022997372696348,0.7924706603205113,0.5956198447337581,-0.7183587035721585,-0.5361930623708847,-0.055102444613362576,0.1634100224184897,0.4947166347016453,0.8573382611211985,-1.401766603229057,0.10957672115146512,-0.34952876894760576,0.6783922317013007,0.23316841459172924,-0.41708998230210403,0.6412837212700148,0.7899789270921093,-0.4082339312995302,-0.12687252350404926,-0.29396250960298353,0.5639737962436214,0.28575883982226485,0.6126845654860822,1.6246799483023209,0.05880731529006571,-1.585789983905421,0.2564501594388304,-0.9616276180524433,-0.29284638522827394,-0.986636333385601,-0.8096183609722121,0.5851643664846111,-0.8782025803203626,0.8022843560896571,0.9351627914122463,-0.3807747525609597,1.1737636925320256,0.45339211460532136,-0.8141464705923656,-1.018324281467857,0.0823717102855804,-0.7926965979131936,0.9721647482427115
0.6503109442717678,-0.5397151237237792,-0.6257061220732231,0.004040479393038823,-1.0641556267144126,0.0529583994433203,-0.543482191601721,0.7584611181498154,0.46529471890215307,0.37948042859131514,-0.42969490165511687,0.050404790384502116,-0.27572019378663154,-1.0927906910990675,0.8137786304380438,-0.34381871585337215,-0.5357233559211538,0.3971010411861801,0.218248552449594,0.7874530878582382,0.4627366492973223,-0.007296404573231086,-0.23545052812447975,0.3196427554584198,0.5050804685017853,-0.9148022260948638,-0.6972721120782833,-0.33620656909557,0.34073374371075554,-0.5900268672455041,0.6678481968829595,-0.8091408932551565,0.5243236445010835,-0.5138921277786901,-1.0056549302779594,0.7040337018907731,0.35868240091720005,-0.03365920350028959,0.4979231158721881,-0.22925067315483888,0.9407035345837919,-0.9745870702094712,-0.3902087267874162,-0.52605278103778,-0.6215018179033766,-0.08119485420658897,-0.03910215443245635,0.7949270887126397,0.3677573660162424,0.20834467067191156
-0.47105840743267396,0.9633067665435443,0.40427194423532736,-0.4321642485206374,-0.6648696443172786,0.48737325630622363,-0.9025187926010948,-0.37385126128628443,-0.787767745843441,0.08222396849226996,0.4938549638213519,0.5636846198246752,0.08566474733914274,-0.3902181510964454,-0.9609072127302509,-0.40068294290303075,-0.045779774445610565,-0.3120671175994644,0.32810448660245695,-0.0791155068722768,0.9236749109233371,0.2510458626450823,-0.3557410754519102,-0.2740978190278519,0.33499493326671675,-0.7076052823784618,-1.00008248393063,0.7070022362623253,0.5605601064046328,0.07635257759052202,1.2136002837734459,0.6989669985161463,-1.1731581671718132,-0.5008881653736168,-0.4400266298297452,0.04092414185268928,0.6089938263731515,-0.9640383344017985,0.14806599821389685,0.6638099159129326,-0.12655813139882086,-0.33208845598082126,-0.7233385066595566,1.0598792361030127,-0.3600216844024969,0.1095990584431498,-1.041097308792129,-0.24002634991705551,-0.2977315218893921,0.29220798052696345
-0.4570738546465524,-0.7866895640283538,0.31717561566540814,0.6069222849479614,-0.9529359635670084,-0.23049270265714492,-0.2245874516686102,0.9588030025288292,-0.11949445472513662,-0.4408533134415528,-0.6208485839636922,-0.6377521847887984,-0.14747029536959963,1.0445036368644527,0.0663914831211415,0.035225529115906234,-0.7037679820737265,0.4332311571151286,-0.7285747941594916,0.836652046960502,-0.877583605006601,-0.2737108722678702,-0.2461668185757527,-0.37141572276748097,-0.12358007202712222,-0.7463662756097581,0.24278851874241664,0.9171068736973351,-0.4809621819902616,0.47904515485387017,-0.09552675036701601,-0.4322649416727045,1.0638764744581704,0.7930168711687916,-0.3089244565483947,0.024231744625506715,-0.5587036121484246,0.06449634375692456,0.535281878073946,0.22021386292359282,1.065705819930247,0.6568298678095518,-0.6087567508961422,-0.07448494885430926,1.0362434622213614,-0.8118913124443904,0.43347273703872014,-0.6602759438521417,-0.17282384011993432,-0.6210759359551062
-0.21359792174580527,0.10127027102010015,0.028411579974669768,0.5980698129365598,-0.016258988105283437,0.5301327467364089,-0.2577800606697584,-0.2494454602120871,0.8633308647185012,0.3016185854031642,0.6382823661719539,-0.013501728335161894,0.4422168112596952,1.0819722783650123,0.43057065206438677,0.5269125604452792,-0.37535863317826434,-0.4939606056441585,-0.2193912743540344,0.12487460593237683,-0.7108962641577224,-0.42724189927817163,0.17745263841577952,-0.24708562157851965,0.5792264116647547,-0.27638569160686816,-0.4211214599427341,-0.5201644083864133,0.9253638377230806,-0.5191340340318953,-1.0011225674290904,-0.9237862273728698,1.8949158409101186,0.464594741293167,-0.9186288559182125,0.8342071429958064,-0.4090198999652558,-0.5206345140220999,-0.6598496844728805,0.6182747464132905,0.748030954301312,0.4711532340002087,-0.42419824060555944,-0.2820955834328724,-0.3293150594913513,0.480257975176954,0.29456116015368494,-0.31637706993984316,-0.04056090303786868,0.770203640221507
1.0679113849237818,0.7636873607841254,0.4433154160470754,0.4691912570643346,-0.3847743106257469,-0.5125340258139075,-0.774464953301851,-0.6158515874360048,0.4411551876236089,-0.789504658659687,0.7542518194849693,-0.91991085419233,-0.2724059439685931,0.8679953290851954,0.05798556845047078,-0.6521311623131923,-0.5436720284405401,-0.33186075913437396,-0.882676495194308,-0.5493226672038004,-0.7491377947389105,-0.8906067533476346,0.42599302708035314,-0.34019711095859173,-0.8319538615209613,-0.10468980198650099,0.8052294839385501,-0.28375173562353107,1.0422806823018766,-0.43936003010508934,-0.15854693275638668,0.29197145401624347,0.32276038010147323,0.08403117032683612,-0.28150864215898896,-0.25149609074312523,-0.9030500277026223,0.0679796248666627,-0.25778652103983574,0.05833018706307078,0.11754931126024047,0.7547081301535287,-0.060407365351312976,-0.3371193344656166,0.1789602106754853,-0.6214713088546281,-0.2980159321576359,0.6831505023338844,0.36245217145246794,-0.09187361285655016
1.0055253102934207,-0.11320004810722469,-0.11557982466401871,0.02243546957642205,0.8824965440716525,0.524076884971253,-0.8936127805550493,-0.8636812739922256,0.03851445395728095,0.37085852183092416,0.40670549576028525,0.21727994081110608,0.31322596541500336,-0.10529535488219434,0.304761282241642,0.7588516147823199,-0.252887640204774,0.9877538123090049,-0.9203636389076453,0.027403615137040885,0.29208184987445696,-0.6968899342656938,-0.03418222975473662,0.42694325426130775,0.003620131364312881,0.282743821828919,0.2556415605081284,-0.9728543777817961,0.5371937964545995,-0.0019588040488496164,-0.15948691987756392,0.24488815882472031,1.6765123526482952,0.8653574390589845,0.4353108970476329,-0.826392979623526,0.33840067233552235,0.5382671328050613,-0.025911137702916837,0.40652052859026544,0.15330710560153757,-0.030720044157748656,0.5009532127499645,-0.8966969266850048,0.14202478177964759,0.13643828947261283,0.07608994079815634,0.42709074488327364,0.8925388887816321,0.8901627791056544
-0.14510623570639586,-0.10520095232898403,0.5530011035398773,-0.45988969549488334,0.899545099139237,0.7219967077370051,-0.09731379652463396,0.6688365100853543,-0.6629045217652064,-0.5477147229423965,-0.313195511343966,-0.9156313195944854,-1.0697676352834946,-0.4739031433220103,-0.05929081503107469,0.5995293164852044,0.0963799775939216,-0.7124261315337967,0.7301166553694267,-0.8674413833331575,-0.016767633508773288,0.3255069018291377,0.2771313119677995,0.4487762027268087,0.7309693003630818,0.8409552951393191,-0.058917770818421006,0.7148389350845421,0.4916459073414764,0.5236615387214136,0.33160078852417146,0.4098305590699868,0.7970717445474232,0.7295700794310629,0.7575626235628669,0.016038224994566995,0.7699058424175768,-0.8382499155115919,-1.041997641477344,-0.6679891915260031,0.4375757940977936,-0.027548440457440985,-0.36636907624032705,-0.8646039134052423,0.2838806505065017,0.44284182063337696,0.4795737061655059,-0.9491077305285371,-0.3928195868988941,-0.3532797760152865
0.7622962107698571,0.1562750293572643,0.20579877674032604,-0.03160778970015119,-0.833685747169143,0.7082913299663596,-1.0025147816546525,-0.8215400278267337,0.5356392515944265,-0.5172429643833476,-0.7485799991455626,0.9217971135534403,0.81178058749033,1.1103154284305232,-0.12363145960526947,0.9777125431230934,0.09771611067080453,-0.9609139315472571,1.1976994142721777,-0.3073839016907832,0.4519401722466424,0.7150344925770671,0.7472271894080592,-0.9451123162690166,0.9079898423986742,0.31891602870608904,-0.8427678137637417,-0.018602006378169954,-0.8508898060035864,-0.676529367374511,-0.2502519950872598,-0.703379932921951,1.608565376804864,-0.7197148361743393,-0.09837231331611565,-0.9741682509851848,-0.40382637388871256,-0.08073786597633825,-0.5352246202000598,0.564391274425193,1.1594238903163085,-0.7178977811953529,0.5881291780879137,-0.9627117308781145,-0.2322091179977024,-0.2804969150830059,-0.2966575776806269,0.6526166530281622,0.8042334155883799,-0.639378380157473
-0.2201077729924546,0.8408186537366502,-0.6814351776305559,0.048472710720997396,0.7483753689724381,0.5901530331199031,0.3790363685325389,-0.9021499805046788,0.6895547229893118,-0.9856093323047436,-0.463374670263304,-0.2632030341576066,0.4071120284545722,0.8872936055896724,0.6528502454167567,0.5562488468269494,0.15205532584973816,-0.25645360127689415,1.0729958123066932,0.09463794262069743,-0.6653499258889285,-0.4808533399383893,0.8108479000374689,-0.6590598159738048,0.3866125362807907,-0.09836207246655164,-0.3792574854851603,0.6646956434045471,0.7248519062648053,0.7978152323933101,-0.6516375600185864,0.3580446050799985,1.9821536613840054,-0.9740066645174806,0.3306153350561216,-0.782418768921936,0.8974332038347707,-0.21815115057452222,-0.7078459177103479,0.8124505853897743,1.5235215998124816,-0.4398196212267073,0.8129819807483807,-0.06227155147899238,-0.8876637337817692,-0.7598041305037351,0.6157168680977964,0.3807318266677426,1.054119131195654,-0.4470183685013486
-0.7938115958450154,-0.7853301306540793,-0.16257358363272228,0.16722754833719827,-0.029308410393104212,0.6308352506161482,0.20136904619820276,-0.809167824599608,-0.26116069190929914,0.7534317072667993,-0.8639708524236827,-0.567026207016849,-0.803499176946133,1.0107562387670455,0.17323101286665593,0.7306224030179224,0.8054828253559241,0.9802515693135103,0.2239575337858256,-0.49997171467037416,-0.7741567292661193,0.6906850409606863,-0.6092374723473618,-0.8696757804688303,-0.062456703147889925,-0.4140762367716255,-0.5069575687119634,-0.8312144830123441,-0.873946820729817,-0.09528521003271016,-1.7218690132022285,-0.6505418817248163,1.7431194340559077,-0.8740840471044866,-0.3277114314638678,0.8601314279485734,0.5554220620633324,-0.42624443865647876,-0.016016994380559868,-0.6179796958250325,0.7284580917196638,0.6096059337801604,0.5615990813280549,0.33195107192553186,0.11300268648050892,-0.004374727188088679,0.6112562458843207,0.7670296622609871,0.028774142737903952,-0.586276576298997
0.17984659571009615,-0.9713602735269283,-0.14374869000201873,-0.6692317044897702,1.024403233276386,0.9626000642635795,0.596906937900568,-0.23999856227349145,0.2592890911357149,0.467960828332886,0.7899347736750315,0.8581858296658419,-0.8809533565311696,0.8831342253727634,0.5944710648362864,-0.3296196546607964,1.087745321211351,-0.5476899416865728,1.34699822769005,-0.609822435483236,0.9930934000796188,0.7014692976697652,-0.8744712394919741,0.05335453822157186,0.15695858454164907,-0.7582870885182276,-0.7645390615626528,-0.8954000940595923,-0.553713889239773,0.2640587484756735,-1.1538415869000325,0.01898469038493151,2.7934309836017306,0.21405509561540612,0.38717989008724535,0.4415143011004512,0.21427612674407148,-0.31532302421405883,0.5440647353017656,-0.4094369251721339,0.3318100116843689,-0.5492047221537529,0.7044454833025819,-1.1661765383834026,0.705064933005477,-0.942469719803169,-0.1138838335009178,0.059083565998440286,-0.10905280735342607,0.21835886192880816
0.3913731995236796,-0.3325817364849518,-0.049987385590808654,-0.8936881708427896,0.3383437091074925,0.6537829847257121,-0.39891036337891894,-0.8098904774866232,-0.5946571024318262,0.3002850707778841,0.053282963707972385,0.17146965614806642,0.5876774406707045,0.42366983163275956,-0.39897530398710135,0.14079963140707724,1.1593762284791627,-0.7030827563234963,-0.2501417173402111,-0.5301876799042816,0.11348627285268541,0.7565061515354933,-0.3757473366641325,-0.939441096229712,0.5565125051568559,0.5659419126682463,-0.28765615666756716,-0.7906800593384494,0.5489619771251807,0.8879737592221428,-0.46924446490778327,-0.47722303946419814,1.4347968668331512,0.22644341323728617,0.844988922118765,-0.05293635658749439,-0.6461275588495641,0.7027402128379227,0.6228475512043574,0.5884382285523321,0.5448350858470334,-0.08525390908607282,-0.40030898411351024,-0.5234572877741811,-0.7302740203894581,0.09483856276374787,0.4053308378068177,0.29237762373256543,-0.10934358913264779,-0.4722060237927529
-0.25668268708546715,-0.9909205403392581,0.6048586743856103,-1.0375949812920253,-0.3012654047111475,0.5158308449955912,-0.8830347263782281,-0.20757830314913092,-0.3411950207199832,0.8567339640907273,-0.9395453004603802,-0.7332219405952003,0.6791251143255297,0.8074492459026064,-0.3739605849261842,0.6057745166520275,1.45184761466303,-0.7297986604179316,1.2487965406299875,0.43835021495987014,-0.15339738643212658,-0.3440612505379403,0.3320007203231515,0.9441685628051059,0.34395581783616586,-0.15368927141503913,0.7120819867940247,0.025120410410366546,-0.33311339141688634,0.6486034615711462,-2.032477054680175,0.7943412614619489,1.1816899741055849,0.29647465341989715,0.3308817952241674,-0.19871020600384817,-0.09040873307791308,0.536730581534585,0.9715503663295184,0.5166683074960338,1.762910479093958,-0.5880528654990084,0.4947414837284986,-1.3160226666522192,0.062780021248525,-0.6928509186832781,-0.9660218161222645,0.027323687949950944,0.2734996448543596,0.7953878038373547
-0.9546306154075176,0.6619345881960463,0.2888693158530744,-0.3490600941302273,-0.8765460819834289,0.6917982745900382,0.5618651168438138,-0.5018265821452506,-0.9365244823979482,0.539605248318968,0.6046224902472468,-0.3548769135414259,-0.17281152172062528,-0.2609967810821368,-0.5462554933318746,0.48948941669503176,-0.028800122659351782,0.848540187605739,0.10502511968207141,-0.43289868951040195,0.7147902274699559,-0.2686336506434478,-0.31882798634796905,-0.8034809616295937,-0.2604630573837937,-0.15954801347604844,-0.3307516854703355,-0.6004858951929761,-0.47370201424223635,0.8999225666512963,-1.456346761224384,0.5589053469400168,3.5204658722826307,0.06585804722073556,-0.33683488971872977,1.0141982974780406,-0.7571995329287041,-0.04197299548451758,-0.20667330494460606,-0.5347259286492838,-0.06128517395617235,0.9128728707763115,-0.18373901705140028,0.30405324906859255,-0.4873518698662913,0.9784784559491798,0.5097077140970749,0.8110414322675431,0.7685641418679326,0.4213401631546746
-0.4219104145082313,-0.4185289788114598,0.3805910007505421,-0.8931783314527455,-0.11840727833289898,0.25819061840670365,0.12361303744611432,-0.5272365515250644,-0.4943913660508815,-0.010590247140639495,0.03268488820386528,-0.30667148447335024,-0.5163203881773121,-0.508285628067236,-1.0366996746378547,-0.2313626962077141,0.8698582096842786,-0.7006948601428606,0.3413894618039505,-0.019177857338787813,0.5593923209793119,0.366938536139189,-0.8009847874187841,0.9756297256606719,0.4525062625729781,0.9369260493441821,0.6860060630964991,0.3884576180142309,-0.312213254297055,-0.36616271928194755,-0.5616686825493163,0.6368568959572446,1.600538242904779,-0.8230942308838513,0.7101971428207294,0.9957104289283842,-0.3546131461028675,-0.5583330666767055,0.8448160261418157,0.9553719588539376,1.0945917651181012,0.2859015481180765,-0.44018011012150066,-1.1754547575524272,-0.2308008560024193,0.7658343983850278,-0.3723526525639712,0.5148016533488499,0.4897337563661724,0.2624246866370066
0.9192977859011414,0.4063766340787482,0.10261967844789148,0.13970613376740823,-0.09804034250934365,0.6268072245477267,-0.9918913871542254,0.10051482836348144,0.9377745503350486,0.9414247683178371,0.8211571012951645,0.9674813378079143,-0.6582204927202652,-0.17954088890541417,-0.5273310519472508,0.0966861451457699,0.23308908132517542,-0.7673961033189657,1.105862830744728,-0.5522004369068135,-0.2294002160756701,-0.32290137401318775,0.2270601450042256,0.25365802458139786,0.636895557991447,0.18505983747858382,-0.388391150108876,-0.7450033975787297,-0.011058379910221055,-0.8932547341474473,-1.5366757488678777,-0.5013472943663589,0.588598879378531,-0.5242984587510416,0.8736726541723877,-0.9202880416875276,0.6195034088542166,0.46757241597232846,0.11334504483277016,-0.42433706157514084,0.3028995763717698,0.41139250553074413,-0.7227634893145886,-0.4788482859535004,-0.5342309244758496,-0.4300305516311355,-0.3614658845954987,-0.07871850941991798,0.5647233678223893,0.5068361676483218
0.6987327496362455,0.21580573877813922,0.6322259609263603,-0.6463886172867139,0.7643426256117251,-0.2626376246524455,-0.09824563826403639,-0.9242907795216673,0.41305248813220596,0.18213011106268706,0.4422432981913074,-0.184448748761023,-0.2727414284661353,1.49099598628728,0.2578849694723966,-0.40821515689829047,0.772090146317966,0.19396628139521213,0.7278037105997475,-0.5194312469710188,-0.7901373613964159,0.6570711451874499,-0.6572149010082871,0.1905050285452277,0.017516050641779118,0.2613839543024617,0.8474689382630763,-0.09824493868415987,0.8859543539409994,-0.21598507691141036,-0.967423290876366,0.913804971738894,2.6028058135145233,-0.5783503038396156,-0.5831288712686505,-0.697870611278581,-0.8871361085478182,0.8257676919209831,-0.34127709906610904,-0.15008353986193387,0.31881314040372516,0.7110890710355013,0.860736269998459,-0.6500980696904034,0.5602706632776546,-0.3297505774697162,0.10532882862072188,-0.12614960706997408,0.5756852121636069,0.6801449752013097
-0.2883732800539082,-0.6479193527033423,-0.49787643833201706,-0.6301199847288129,0.7434625323076296,-0.8932041193830754,-0.12184059944954233,-0.004655385502877298,0.6361333834952018,0.3117218217991362,0.9762107689980355,0.8483948485647842,0.6878115516696948,0.1992151403841503,-0.5037114034353919,-0.4057232461689539,0.8445113708824554,0.0026452305413844674,-0.3567728681965198,0.09252827458156289,0.1668524267581798,-0.195879946575293,-0.3371974571607445,-0.2901431264260422,0.04491232351327148,0.35489208710437625,0.3666168323150821,0.49839514613988883,0.7955719514488978,1.0280709449061076,0.24575028051946607,0.2726508895422251,0.7384960714727358,-0.6555059388940749,0.9310310664508648,-0.7464214411417278,0.719462920577437,0.6420744020357206,0.005117059939771204,-0.8799707078200987,0.711870683105693,-0.3843723255801453,0.41013321504344513,0.5253666953129368,-0.4212844436929164,-0.4302564971341649,0.522106955056009,-0.43061205266909114,0.9148413661693321,-0.1452591247377348
0.4049541063902561,0.32773654011584785,0.7533388342256843,-0.3439672190190532,-0.2302977927975741,0.2530788430431023,0.019027250844852288,0.32240743422504353,-0.8247311730385415,-0.05412849821185966,0.06258809480418884,-0.32594131718706254,0.08430787479113738,0.8719165653514196,0.31288759747115585,0.3300489636444569,0.2885445113034482,0.5270643054645168,1.3728417984507588,-0.5266058425888454,0.8773667495817572,0.7164672411406076,0.6229415270062397,-0.7244800376686888,-0.8355836599858422,-0.8719203804578085,-0.7231164586332121,-1.096833750370186,-0.5686744716090771,-0.42449001470714354,-0.511231045470976,0.9164597058848801,-0.04419282643281627,0.19604804124851322,0.14133458738515772,0.4068427340396966,-0.9834836178217021,-0.1193696038184817,0.27646892115744437,-0.0432101436368924,-0.3191103434723318,0.8200659955982428,0.6590569561383443,-0.763460587586822,0.1580068912429334,-0.11438562333142714,0.41601390593715487,0.2157945175303551,-0.6188443908578192,-0.2203064340128382
-0.47919444014209706,0.17741088886134238,0.9758901645000224,-0.10630402559810044,-0.7296408236358337,0.7978809038038527,-0.4654988096465276,-0.04734074229121165,-0.16437174999110182,0.15588540407087217,-0.7090955836468237,0.28151061204216676,0.8490989075203421,-0.39027092207880343,0.42245589083396684,0.6055318863008197,-0.3475385726848319,0.1787874934951327,-0.00042953823822282263,-0.8400448557717696,-0.5295245808262435,-0.07841591596513213,0.4578742372344659,0.178162927335757,-0.3588552991961163,-0.490700321666439,0.09519862810596211,0.25940136037784156,0.6868777712861288,-0.06495999127511268,-1.9008173606588386,0.004708841878524874,1.8794460320069992,-0.4825622783274303,-0.03317181285720115,-0.6541190302205387,-0.3668597569635909,-0.15049844284131544,-0.2578367904975369,-0.6657126736468967,0.4613991557051886,0.946842691707537,0.5956585852615072,-0.6094569273059993,-0.5332073726973822,-0.5521066620113099,-0.14370964447504173,-0.7999128358231541,0.2790353460126733,0.4189732578820399
-0.30534380071122,0.15207328243268814,0.12262657300609961,0.18495737520281272,0.8430947943438939,-0.492710061317234,0.4322551862447134,0.3606763537808052,-0.6315019616947745,0.041001322684539605,-0.6171113264338546,0.0643447898860574,0.18408949155890184,0.718025842635949,-0.639318741939473,0.47403593558238205,0.3060283278480022,0.3167933361226061,0.4395824809391561,0.3123966787338172,0.3942493020713329,0.7754368201380257,-0.8011163174457514,-0.6109797989182167,0.7909813120568318,-0.9055074198526255,-0.5686485151408857,0.27566391573741483,0.7098453194888616,0.08860412616038306,-0.14312388971466114,0.7102942583743501,0.4341188948002859,-0.9837488833138788,0.4053928774895513,-0.7596263797182671,-0.5733670980017979,0.525925200041725,0.8718677358834332,0.7545564771528674,1.2077218002980308,-0.197513932177275,-0.31753775184580013,0.5471726486328768,0.931829225952282,-0.921603420051118,0.40082915461623236,-0.3141110719093673,0.3668579497840062,-0.6884997039022653
-0.6975856894725774,0.31352504825910454,0.6206314414191204,-0.0443492926590556,1.029059229084709,-0.06307776562094822,-0.6665031449161127,-0.9945666013304946,-0.3198118958786228,-0.1391351612057622,-0.8908171513219966,-0.9373864214593938,-0.015672227838727574,0.4401778005528256,0.26675510560378096,-0.3087804031918354,0.2588319912036539,-0.8780995115928624,-0.03511876909816801,-0.4720646675613942,0.8431487266951921,0.16922684547440234,0.7399381488254732,0.6824953137706571,-0.469619532943101,0.24118711957296587,-0.8576126226519095,0.3992609421913872,-0.17470365964113838,0.8802520902579373,-1.4466820619354068,0.6657337274247875,-0.6801011333719759,-0.5987152580544479,-0.4822059813367225,0.7597101085111087,-0.20024154389141682,-0.5187746019806443,-0.1297944063443055,0.07915420145431912,-0.0888379376546592,-0.8766931661128908,-0.9059723860874664,0.6451447973451859,-0.8304845337448374,0.4766113014268868,0.6866812908652464,0.4004741513724639,-0.41342589761634035,0.419216611406855
0.8755370845989356,-0.3016418303791288,0.40136196006207064,0.6153687015815263,0.24143966627560284,0.5589355130171105,-0.3828671887792089,-0.32139466759035457,0.5282339895108578,-1.0360413595463167,0.30389832046803483,-0.3670875801031727,-0.8130746703945824,-0.0926537146569323,0.6430043810270895,-0.2506235952141845,-0.3914956607479555,-0.04601387093930874,0.6659044386078445,-0.9273759221999952,0.29824888588308796,-0.8996888945954937,-0.989121238329808,0.9000192569900208,0.7562941595916939,0.6041347305080703,0.6742927791312897,-0.05816553095321818,-0.27039366660266534,-0.39434514496264295,1.3386919756220375,-0.1915047039261514,-1.5245114203058738,-0.1321023321152377,-0.8874269901209133,0.9821338910880547,-0.13794473469398993,-0.2815530909133217,-0.1862965869267837,0.5469676075005765,0.49744679764376576,-0.7416757379604504,0.29861476680843335,-0.7519523881826982,-0.6471066609109264,-0.6228702527618063,-1.0336877521631795,-0.5393168047661173,1.0263331223326941,0.24457866429517902
-0.9234374089796574,0.5145445816038584,-0.17713459618372787,0.5568463031963605,0.1508602544827043,-0.9459509977723578,0.6466196051563922,-0.6880967127708468,0.6547045431318735,0.48016149891848453,0.5850823033962319,-0.7947908025838389,0.5568263709958778,-0.2201534136206148,0.29349458469225237,-0.003188117663972439,0.18262365762257332,0.778437688363014,-1.0757878951115354,0.5250167468626641,0.3812776601696407,-0.4443264020389768,-0.10253769589773948,0.26872022566462617,0.7047601249058268,0.4304687677515327,-0.1411805661570912,-0.9308794789077056,0.04258584445959162,-0.5937678477888444,-0.34790629403700507,0.6485533233710777,-0.7589746271830629,-0.697756208498135,-0.5117325933780991,1.0380678966773085,-0.5405967206005613,-0.070459912218813,0.10123280875717658,0.26574470662699395,-0.040857252953716956,0.25248040288074114,-0.34356166805015115,-0.5195632238770523,-0.25937791673499333,-0.18709273865839843,-0.6896906067390659,1.0036635487599557,-0.24431552169789575,-0.3815294554831041
0.2219928437510128,-0.14440317071881056,-0.07241404789370903,0.29047848819496697,0.7084690853772242,0.7762302730707143,-0.6745776504585874,0.6321381243207466,0.4072513825795715,0.8537095345009941,0.26008782070975844,-0.6163033560468248,0.6749822773180062,-0.14496518917585213,-0.5660328053096167,0.6901308078216709,0.5606981313850976,-0.809589615970801,0.06300813629814749,0.5385328008562772,0.5466596629138218,-0.463156708490561,0.6593013811674492,-0.01581627233437807,0.14623895430878156,-0.6505372036951514,0.6937459464395309,-0.4560395655868106,0.94516382904693,-1.0778549898974992,2.4422453978901726,-0.017282133028082146,-2.093583641009701,0.6027179190772078,-0.5544052368400585,0.49211826831796585,0.5714556369077411,-0.350167675686313,-0.3661050267787522,0.8981039352381112,-0.6064532589441304,-0.9984535003363803,-0.5758204293620648,-0.4799229270097956,-0.019937478809349034,-0.4917990794473459,-0.9108518782747093,-0.921359416337949,0.0025903232396864238,1.0862400933444125
0.4356117807626766,0.8866565812474968,-0.23756945889127665,-0.2031819871126847,0.1665194550529195,-0.07118429975726633,0.0559278362016702,-0.28830197068468694,-0.5232626821569057,0.8942499571482748,-0.1205280763829326,0.15129494354401263,0.18123003939908253,-0.89687138306614,-0.027294991917521962,0.49462667051759657,0.6240718189700758,-0.6068444472135849,-0.028642589366388943,0.8328083033741034,-0.3979116285461616,-0.8225608487790536,-0.5352117877235194,-0.21888779812148998,-0.6768097016762188,0.42188577146285294,0.7839711195936832,0.47566322212840306,-0.06748352480784828,0.7232951699195571,2.4070742790779796,0.5319975860017014,-1.6855894700862897,0.4284086940136673,-0.48458576053732283,-0.7025860280902257,0.6919091673810945,0.28862874523015636,-0.5583174223287358,-0.5181490038208184,0.31819240730923376,0.3530730490691352,-0.18729464208030752,0.8499011875923271,0.2662950310383953,-0.10329611196330607,0.50452160654751,-0.529313899636635,0.7369266464786384,-0.662356765554141
0.7917105576924698,-0.0421757005007629,0.487990432169007,0.2675073762528856,-0.7903698547799641,0.3356946315131125,0.7864724140369275,-0.18566571994494355,0.2054072558688307,-0.7022596833202197,0.4182930918814777,-0.607094473478534,-0.9456271632385777,0.3713338852859711,-0.7084065397137648,-0.3805815574479075,-1.1263079320492804,-0.4650893360472738,-0.9518024527918785,0.6413664410850544,0.7676017470881061,-0.24807638345610555,-0.4360521083518647,-0.4924468271735259,0.5491336876665528,0.42383530928953816,-0.036376854579636554,-0.7906039403389171,0.30828379923402255,-0.03888735690895346,1.4211569319741695,0.411415067847093,-1.8703567378128798,-0.7107977631296077,0.8120857761051727,0.5048031153925023,-0.25520308210267356,-0.7407457519996788,0.6766336849378105,-0.5755121505639869,0.34591193906922196,-0.37395184692765304,0.6049525498885833,-0.477005477265924,-0.715893981552501,-0.43796663471549885,-0.9727493541689846,-0.8623419019299853,0.17300007011746016,-0.5476314375536669
-0.10644682270798564,1.0348396104669642,0.03264193803895979,0.759975619752618,0.48098595333132643,-0.6941658865391839,0.42400426551735204,-0.4414940353067996,-0.8311686177159533,-0.6507767244569524,0.8680287182363479,0.9578836662431669,0.4485489437831388,0.5094084825242468,0.262894383247627,-0.5656950770667084,-1.3726091132284528,-0.8556041040012334,-1.3198709278158718,-0.3757480582909362,0.40032086540698025,0.06761081078594473,0.6753228921534692,-0.8187467367426147,-0.3872070614962797,-0.5403159551845854,0.9691120524421847,0.23882281437061254,0.6136161357523511,-0.5826582913364126,1.1465310052806432,0.08520976899642321,-0.7781783100569998,-0.9783424799779812,-0.6188141443087368,0.26336976795995903,-0.8984812406226627,0.5591810290057302,-0.7488127402158398,0.004495487293323492,0.6237626250331461,0.017659772067360722,0.8014664283437694,0.7325519332296755,-0.1575867063810306,0.5083899508490891,0.784851011695663,0.0546048195035487,0.9408448891670275,0.9294726669479925
1.027387813264668,0.24361788577121185,0.7494916920930823,-1.0005795247757312,0.02411351704897107,0.3069067579679599,0.5350363074952111,-0.5135661437892288,-0.509981383261128,-0.38374051260847947,0.27828363462293587,0.3842782236810166,-0.4647404789697694,0.49928321647200025,0.862539945475269,-0.6487050541880199,-0.23870698310995872,0.7762200324868608,-0.37749026183575557,-0.5518295015411292,-0.23824654289496747,-0.6826743606137855,0.28793718867798246,0.4610179395052392,0.5362521374545808,-0.4060454943945531,-0.9382681753223684,0.29454892532866933,0.593217366299314,-1.121122271581378,1.898523218567012,0.06430286123113639,-0.9807751479118596,0.06230934455771299,0.8220242399340593,-0.6963974630945288,0.8760359221417882,-0.7135891001445468,-0.24189569623196133,0.42999910138500097,-0.06639703639825417,-0.6309170424901253,-0.5088340165523236,0.32784930910911947,0.3317220251260241,-0.32322220033305127,0.6745292732259415,0.45763529748099435,-0.26024720456401057,1.0204264044482958
0.9493420638201158,0.16025731452943628,-0.155484430734107,-0.17165679634272682,-0.8591186466595385,0.730717197459209,-0.4209088116101717,-0.6405964333021331,0.7074647707323616,-0.48102638305388057,0.23136462514388662,-0.8749865712696953,0.8234991802626396,0.27566660439936785,-0.38486792190298025,-0.25927142601267944,0.9451081630357736,-0.8334073888628265,-1.4623680992884731,-0.5387012367773601,0.6898472127580383,0.42294703337494227,0.8742110251993483,-0.9551195857929512,-0.343241168892727,-0.3318403492482268,0.25188402340111793,0.11165747985856747,0.19102726095609296,-0.5247980522476551,0.9040179428135865,-0.6200684778884369,-1.0303659789997321,0.3308394719484507,0.6531024166527244,0.7417833098161983,0.04687968296664907,0.6362673478374463,0.4208001843654987,0.7908405975941021,1.0149545842491765,0.9150302665840168,-0.21498815050630304,-0.5750510649580729,0.38017062657604667,0.47991570312770293,-0.6442867191209638,0.1367935127335738,0.18050355623916517,0.39808889657893115
-0.07767123768516807,-0.152149578708008,0.19426518926940547,-0.9440453445805289,-1.021245891724912,-0.8194888190742863,0.3831499556872999,-0.33286288985860335,-0.870839539245919,-0.049476020950133606,0.4940819006837806,0.002689093955014906,0.5665973865187318,-1.0653452522987934,-0.8169315749017227,0.31260577577664744,0.0011970830201539476,-0.8097612954654538,-0.48171716349022015,-0.030142789526156576,0.8610233407363765,0.8300667329236954,0.045632592536221935,-0.2964812652533974,-0.26927741124478893,-0.034465841375987426,-0.474263817220063,-0.5409394462124849,-0.3523093334694751,0.10665588949839835,0.7623047651024955,-0.26579567609785265,0.1399709078301909,0.41752553567244355,-0.94029455759778,-0.6491978466968321,-0.23622563218609724,-0.7380689923932671,-0.024455112527541033,-0.8055367512962855,1.23436532642602,-0.1025523857135617,0.4490404206794461,0.1577680850501073,0.02700253957994422,-0.08507717861005179,-0.9782648649370216,0.2802088160643636,0.894746280515268,0.12694444167998858
-0.3279716056138669,0.5055597737661325,0.07018033224893203,-0.39602620303147734,-1.0750088187487385,0.7348977214196992,-0.7952533658186135,-0.798877023080979,0.44289012089145163,0.8243754688912851,0.8908992101016882,0.017656221180808184,-0.5394112940723925,0.3201757891861083,-0.6872873268816433,0.5868573322569285,-0.3583268073422122,-0.06815088470780785,0.13102178080346152,0.6422759410423061,-0.585259319874425,0.7217949562542186,0.13702154473867068,-0.498801287513311,0.43849427196635066,0.5334011951036961,-0.7206019592636094,-0.9895549319198965,-0.2347298696614335,0.4876750585216292,-0.17863802186249308,0.0345641091903705,-1.1322145019362821,-0.25066461107454335,0.5759981962469117,-0.608721120561496,0.5905789662076146,0.9221658869820962,-0.12863569182956522,-0.6423476116224196,0.8653444293982888,-0.991489468414558,0.6643203673778233,-0.7830661326543444,0.8270512850676175,-0.887816330211701,-1.0408431464950028,0.8857622282011278,1.0390556663265236,-0.11451127260579873
-0.2373698268272921,0.11934563523861862,0.4991577905012094,-0.6808624207795133,-0.2429367071971551,0.8246522370755622,-0.08421631801990181,0.09394202168213996,0.26830206732948053,-0.6276700269208583,0.6356771502632709,-0.060690298716056454,0.46398042826771296,0.41384927144466604,0.3133863512998941,-0.15974512294872117,0.7552091854700101,-0.0010881223099172333,0.5671499166194376,1.081656511978923,-0.9403823432456222,0.3856052373560702,-0.14713009082266265,-0.5945051796335349,0.6834036006989086,0.23327147814900487,0.6342125298944944,-0.08099315856357545,-0.6444597911528124,-0.8001461346760532,-0.24832371324429495,-0.7142270978540919,0.8222154553709565,0.2422559289928047,-0.9786839168854414,-0.7818369223763229,-0.5851123006313412,-0.008531648417680972,-0.1425827913018419,-0.06675218679041232,0.6956575497572282,0.5745551988452525,-0.40199092627921307,-0.1509586562621753,-0.1741801160105294,-0.7651984073171089,0.002429821176073542,-0.8851255935636102,-0.6453449475506116,0.1478615350937264
-0.7526638123940865,-0.18204530395736507,-0.40063454227802214,0.5605070418216473,0.30569451346201776,0.6425759604901075,-0.6858686060915228,-0.550689071406299,-0.47199226965729746,-0.8531165793902978,0.24688986421697065,0.878930374576671,-0.3756122121952128,0.24240665658680108,-0.4523365044081314,0.1396789522134167,0.6472729159459029,1.0404301789302013,-0.01724077429900348,-0.5378231851166864,0.802645457275636,0.8080276295418922,-0.48100183067842495,0.6645201852626552,0.956238964378879,-0.06678054521724022,0.31080341986424087,-0.028313089070259784,0.09098676924585235,-0.6400812094796164,-0.952237903505283,0.7309209014328972,1.6866818035999833,0.9062357344715366,-0.7589963788371143,-0.48536635306326675,-0.3551488698306981,0.8161784322539359,-0.07810516075498182,0.9868365261750512,1.09249250127291,-0.7501185856346496,-0.6060159599165789,0.17450940444662208,-0.8561052467055239,0.6636400471647889,0.8003855330415405,0.4817518438293007,0.8280997764485751,-0.579710503803547
-0.21481356664484816,-0.3742418905932972,1.2195297800680172,0.39924594957919085,-0.8230981850814204,-0.3832156495475299,-0.4505726426436053,-0.19493732493254698,-0.9691577274443436,-0.5682534957267664,-0.004399897663974472,0.9394631268519054,-0.6097313919390043,0.2677489725706634,0.8861256198865829,-0.207502566931919,0.10935049835245483,-0.43873589409042213,0.47043631971638955,0.1929498346128171,-0.9510174933346985,0.14667492035463434,-0.515001687825551,-0.5790523643726853,-0.2981637459704143,-0.4260754867814583,-0.0039435250859549105,0.5771864383689173,-0.29908260538934417,-0.13546870343172182,-0.9063611865926917,0.3040755027485206,1.7581361677363672,0.27519504111753845,0.4725009149588363,-0.7241751689315707,-0.10226438840101951,-0.8697863524594843,0.08705038339480708,-0.28673071696317964,0.16744707992518057,-0.6365056790424956,-0.039493223186420616,0.8704778094653179,0.2684500588838879,-0.04835042880232313,0.36895238076386205,-0.01721257978606224,0.6940781229744479,-0.6798772120718016
