0.9638453970241941,-0.14352088405701224,-0.7429137398434602,0.8557639341057324,-0.7071719027155078,-0.9432423736506363,-0.4231895427888339,0.5965260046481716,-0.7631927661223473,0.7669312594698319,-0.8429930474138855,0.89036987170616,-0.6367544005474024,0.873769175748697,-0.6519464905113068,-0.245981051265022,0.7731945868475008,0.6933351569280131,0.585266052019524,-0.9098141289510687,0.21190704357737955,0.4221574457034588,-0.3425909507430691,-0.6585751907392629,0.7827111922519726,0.5053856011465305,0.00162292510566453,0.8361024387606467,-0.469280505889624,0.0803640635794115,-0.2807576253199262,0.5579497146926143,-0.011880646273497608,0.8594057020340619,0.016793364556737966,0.9787652498547093,-0.33504662559489473,-0.1288295195293142,-0.38883446682928813,-0.6183075295382332,0.29125111639749,0.27071030802834417,-0.5802862507116987,0.28857880396136726,0.14375133227049275,-0.24535229221320864,0.26846344745796735,-0.47250809800508686,0.5301214181654111,0.8358071250311744
-0.647054087758734,0.4693666719495795,-0.2818329487440224,-0.2066552139884037,-0.4333725983574913,0.027365671768632027,0.7574414713448842,0.5065892819354006,-0.24198145445407082,0.8032602058693219,0.29216125339787247,-0.31956980401484447,-0.8388413263514387,0.6069045593424298,-0.5065465658825571,-0.6718517104790476,0.25589020629599424,0.5529193266304507,0.17163382741248456,-0.990431077660559,0.310299679144485,-0.13786071159913438,-0.3365823306048056,-0.22644194186017275,-0.147692084983562,-0.06413008456485259,-0.716851166463731,-0.8806457115107218,-0.67677260696001,0.5168197041402702,0.20901467743439028,-0.955652807494313,0.9539601934683247,-0.8454949344302516,-0.3684822425204932,-0.05033741043908824,-0.3145380743990618,-0.44441848261803896,0.19866068873220755,-0.06709826773642591,-0.23832757011247174,-0.1851748871507536,-0.35189380943617765,-0.6189402366825209,0.6067358455233932,0.8280048346648156,0.30346918144189106,-0.6179409442198224,0.2808371986728312,-0.08982715503455752
-0.35566660122234195,0.19088195710440903,-0.041136617362742545,-0.07144303310701783,-0.8261539443364195,-0.6169478768072215,-0.4583706977954959,-0.5817665157459009,0.8195574013137429,-0.35954034728097795,-0.9464094332643926,0.9107377621096611,0.5451026368614701,0.3546295209176171,0.7055294119149476,0.8165255141920095,0.8621123563477263,-0.8148063235844706,-0.15119688228997918,-0.3001556887241511,0.6033664801654562,-0.6716864096178969,0.5906830580493384,0.9913692101442625,-0.4627625456153608,-0.1673330834044654,-0.7728660429871916,0.705089588173499,-0.632068575773944,-0.2241942287361396,0.030727846964595518,0.03215915897415489,-0.7870681863434709,0.9778819679457962,0.8346440865237256,0.3210163468858065,-0.3663437210483843,0.2666137634140865,0.8644097759504691,-0.5303158502894235,0.23936544856646635,-0.8195522945801288,0.573280347148938,0.5394737671859267,-0.8099812743938892,-0.9880816644146202,-0.41408913576127604,-0.27305026833136115,-0.9045242206408028,-0.5007767995658872
0.9511506053309706,0.30982697293323536,-0.15198500346514743,-0.34387498708503195,0.0860284935113349,0.37951936381377804,-0.4932275051045578,0.3928757520759877,-0.17830340623082608,0.4105428230537872,0.7585836505696193,0.6413284644853968,0.4917107886100046,0.5885244326620435,-0.5205520192473322,-0.8468044095727805,0.11674530578930031,-0.3653670283403119,-0.8288886861169606,0.7221204855803931,0.690157198186819,0.005213017035111789,-0.7455871136350865,0.691180196547432,0.6600350140911153,-0.20078614902449898,0.164570098015409,-0.9008352312179914,0.963439772688877,0.4411236634586435,-0.05797294823366206,0.6258555486701295,0.027085838012660957,0.4541490116186965,-0.33589971781196415,-0.058302452173494945,-0.060139774762487885,-0.38456832095739824,0.2511802761300077,-0.1523121736887576,-0.9274266867791243,0.23816904788230597,-0.9775139420818115,0.6329170475811354,-0.1866605576014967,-0.7805430299541839,0.8208704348777519,-0.9464529604335199,0.6085664381076166,0.4620305504361164
0.2059180060539706,0.4792260238416707,-0.27112732613020574,-0.8221215817156681,0.843369763096458,0.19614870379980964,0.3317177389195545,-0.16083291148682421,0.417142582030236,-0.4084524476832112,-0.9043381566612222,-0.7605239360497562,0.99991540404802,0.6336419880743162,0.08159348254158527,0.36539337007182404,0.27684005965809766,-0.9958594307320284,0.32855286258373884,-0.22584981788337077,-0.5356750423810084,-0.1500120462202763,-0.17344360614555987,0.0011434175952773629,0.3603430860037681,0.04338720387048567,0.4558899826458358,0.4622411050365576,0.7173307152807517,0.8138260613903725,-0.3084650654411385,-0.06982779118188553,0.4257544820466207,0.512103420128839,0.5945919276771842,0.6036680249874995,-0.6819306547777919,0.515816326160441,0.3203687137847695,0.314285237823121,0.9232090634792619,-0.2146194572355017,0.7762155426515789,0.1336189424830363,-0.9317870504532824,0.8396010137906827,0.39446103659895637,-0.42515334444082686,-0.2648753756751068,0.35244499122223316
0.610092757353259,-0.6224399983137888,0.08778207612882827,0.02384388196830345,-0.21595779890290534,0.14781431972330705,0.7126645186781725,0.7089161244735878,0.7745178013549127,-0.7560715701889401,-0.981311563728164,0.7094508059560943,0.6580875083355363,-0.009299674473547515,0.8942318130990061,-0.42620773013064595,0.6367255699632351,-0.7748120060060274,-0.9843038502103314,0.6868016948898729,-0.27651468186424044,-0.41541652976851595,-0.01015722751653847,-0.2593574863983129,0.0359510185112063,0.5103668153804706,-0.0847441539272934,-0.45662716741437603,-0.042691669406275334,-0.8008777594574107,0.05946299518631526,-0.09448499920112918,-0.5842427951992295,-0.6508850630207027,0.7217693555281103,-0.7671876217469343,0.548765383070991,0.06444381369470364,-0.9132588834703161,0.5832141093254838,0.5293831074643921,-0.7920761555336863,-0.6494817304280364,-0.38089541481691735,-0.9888073892761721,0.21692803619481382,0.5271768712844108,0.6902786070069562,0.458859190728946,-0.19266965829265126
0.2548102822696894,0.027809044068079602,-0.3201978805887634,-0.44128738880048235,-0.30082124959317147,0.7809482221068244,0.8567094166673869,0.5609240768728868,-0.35289686935547926,-0.1840497785524191,-0.7298147007079282,-0.6677689769864835,0.8240215160929977,0.9198349668771921,-0.5083560169010902,0.7753015200381708,0.5476700175016953,0.8169495177218739,0.8457388385905531,-0.4070399575712639,0.9043458093780898,0.8998242650857922,-0.39614458186287604,-0.8111129232466602,0.7918421808605625,-0.10071780160256882,-0.3839855643114912,0.6384436028651049,0.05626066402680474,-0.008268924617212847,0.5634348678472051,0.4834698887789719,-0.42548324542493776,-0.33773406277186646,-0.5421984465409578,0.5088946924664681,0.3199772155958075,0.0755695747238424,0.1177755606654719,0.11751264099537329,-0.09705005400392563,0.005402581038758902,-0.04617020648657644,-0.47018008433021397,0.38910489117247815,0.4815698015019604,0.9207238112266917,-0.12874638676624117,-0.777744834681853,0.9503659777814137
-0.06805333050310913,0.5437672164496031,0.298043871715153,-0.520278850798084,-0.051008345623641094,0.3375338567033582,-0.3316973892053592,-0.4832608399040481,-0.2614854378928304,-0.6587375021771811,-0.6993937699380498,0.11583415145539211,-0.41254049749092003,-0.9793582281404027,-0.8811570833032969,0.5711907095658019,-0.46783372462517325,0.28889484760638595,-0.973858289786742,0.17400763252987783,-0.8900468119195777,0.7021812827391988,0.1648315662040548,-0.15357297277015514,-0.4375252361860076,0.9412898435984258,0.006313386255082376,0.6681701325631967,-0.20469776234491532,0.3293587997235631,-0.7101510574641288,-0.22151703538097822,0.32173955241164076,0.3277865034007149,-0.17748812016989524,0.030568103173496897,0.26115719423081585,0.7388875168938149,0.1881903118764684,-0.5137035795695787,0.054053957421203114,-0.38692558247779973,0.17220028784785724,0.10028645275585701,-0.4049990035372635,0.7352727965379827,-0.1432052681414132,0.2532689983541586,-0.5615382797671138,-0.39548721253163177
0.25309882107616966,-0.4106047527822111,-0.12158537983904272,-0.5601363574694096,-0.42621094531007486,-0.20714844654277076,-0.21495000993265578,-0.9703865552919594,-0.1967747531244214,-0.9003151069857535,0.08333374967157803,-0.06275071909906682,-0.19404775995572598,-0.21177528567506165,0.29712191726891957,0.4616625790732246,0.8924574825857948,-0.9201304978781583,-0.6592363021379768,0.5564044105752163,0.5794534154886666,0.8218302084032719,0.9667758747687053,0.6381413010090078,0.40757229363607717,0.4051170643660993,-0.12666600780104864,-0.8198604194733256,-0.919670247316142,-0.784791200387066,0.9384320405070284,-0.7417058007325911,-0.32672465734988865,-0.20970471235959998,0.6335896211595777,-0.3804860813196862,0.41092302575968864,0.05235040032416427,-0.7225621923394574,0.9888093959737217,0.5095661128408413,0.4042046461806722,0.0028761949263923503,0.9391011403560927,-0.5465543384252144,-0.26777902686186417,0.1852639203111358,0.10923498968552359,-0.40424992564633255,0.780765406010685
0.06299948562377577,-0.4025898110545665,-0.49259438501302977,0.8724351178498352,0.012323171078357786,0.8254676837768649,-0.87212956378491,0.038847972346230164,-0.2289967384307039,-0.9166137815843323,-0.3558116359246435,0.12230629574965746,0.052898609505865335,0.21207557691967915,-0.6508127454311032,0.030704794589489937,0.649149904235188,0.2596716632200883,0.6629817052706181,0.020325024671115743,-0.8284344680609785,0.5894189141784704,0.8484726499073569,0.905265905727852,0.5640167827663517,-0.11580726841033318,-0.35441012460430077,-0.9137038740574295,-0.6624842652437183,0.08242084371631153,0.9738478865515316,0.4500560642568233,0.5444018020351374,-0.11523495801477224,0.8502968804801958,-0.24925778735550475,0.998685556022796,0.914878512696063,-0.7315398723737802,0.08160956782738615,0.9765231030061611,-0.11229028302512212,-0.7919577266583907,-0.5082217177901583,0.045210495161939424,0.8918479849989136,-0.1510866063524764,0.14468212659570745,0.10349606392011534,0.8539128588021182
-0.8719228121359736,0.24155896449612846,-0.7264092197494203,-0.3614267571565798,0.3736855853744667,-0.008956298340451307,-0.0920790417731372,0.886567130817673,0.674361267939136,-0.5604522004750031,-0.6852754194259868,0.33352173257867923,0.4099834610026568,0.5444530913437577,-0.6653338569923757,0.7999964526115707,0.0005397037431098539,0.7801775229494538,-0.2915037594593056,0.5064261216656843,-0.08358004123278906,0.6757153956912045,0.1670615590387715,0.6067701131030275,0.4657483000284556,-0.5584200896062764,-0.8341264929686955,0.6970843000141709,0.467413901939573,0.0025237919744006687,0.5307751492123757,-0.47165365744479626,-0.11862957951249486,-0.0016170909334352057,-0.7192672625963761,-0.4174080427650294,-0.25918253207707376,0.3507077260726764,0.7320159020562325,-0.26382103452183336,-0.2861769083182869,0.5674339192932759,-0.007193400967851815,0.07953751734618575,-0.40087058898396877,0.13524856210073355,0.8622047071989032,0.2046390904910863,-0.5988340901964242,0.35074264941592903
-0.18057682911980455,0.8392914874273458,0.8004166692066124,-0.5539463340742198,0.988955311035295,0.19933399112995398,-0.20495257319398708,-0.029208892389174346,-0.9887814111806907,-0.909398277990529,0.027537887779616854,-0.6277179235215202,0.46644917634403227,-0.8736689463546894,0.46692852761674697,0.3793048083895545,-0.21615368983613992,0.8973035917240848,0.5961121683623897,0.9036706726401268,-0.8539229906264222,0.2311548933186296,-0.9373425597976125,-0.020235821726088066,-0.34322387965130075,0.038445790739549124,0.5007320730045057,0.7224919773353428,-0.3058516589886838,0.9638502540377492,-0.03978939763856981,-0.6568896550813182,-0.24929126625358067,0.3086092346073417,-0.8363560415995918,-0.9933959108358661,-0.9901495041740168,0.49686258473856526,-0.4042965861831306,-0.00510591384228154,-0.24200904835660197,0.7690562530252597,0.8989271052741803,0.27825445668807514,-0.9749477753510085,0.5359451797054545,-0.7158313276202737,0.6125476161965905,-0.15079258369580228,0.9166444837963131
-0.9047510421701509,-0.6466141889593026,-0.014771199325011697,-0.465680567313873,0.22055171160935583,-0.9436042035298821,-0.4726383106317297,0.7695104230324687,-0.32721788160523824,-0.9650518878660738,-0.04885649887037957,-0.13279764244912373,-0.8908842469159817,0.46718218799244926,-0.9116770595518764,0.19248215547196834,0.46134376376229824,-0.5312190244096269,-0.7504136993759538,0.7029116228172139,0.424785879989648,0.5977022112938932,-0.10658628515440227,0.4746194849145089,-0.33797947920048255,0.08945072358841188,0.2404048373993639,-0.3531953582459171,0.04498282793104935,-0.1315301830758503,0.3377575776695231,-0.3326842960533558,0.12097640515615071,0.34615596788748304,-0.907636290910503,0.4067235566945857,-0.10028764198238993,0.6112681253259744,0.2580195020550502,-0.23818607896304567,0.4255824513929253,-0.8820342806555814,0.872567373122927,-0.530414048089529,0.9973653287822205,0.6738302998682759,0.465655525508999,0.8294750998653609,0.23377963876937813,-0.5031793041731328
-0.05474749443292559,0.11382747420927564,0.64434857913533,-0.21306002442183136,0.33907804211611436,0.9229990257320482,-0.7685286514439047,0.6089667438723209,-0.15006444150285791,0.5109590084997829,0.8678613478764682,0.334193252226607,0.605406264632669,-0.19143330824448002,0.4549412352863358,0.31746809370395246,-0.8535462464845545,0.27741094892481943,-0.8229492705876656,-0.025384956431474093,-0.8294631575688298,0.7639381504946432,0.8400501499925882,-0.8597032852716431,0.6212408383549423,-0.3157150098768218,-0.4631937701927059,-0.6457849131178925,-0.8619232901835184,0.8263471177163504,-0.5094299544567468,0.08675170965336465,0.6399017931855309,0.47475111930596425,-0.1506116828080759,-0.8908031523972365,0.512510574055258,-0.7484981516292689,0.07389804397905819,-0.3905038946610111,-0.6000318696764494,0.47109639877049303,0.9527321207325267,-0.9890298964732878,0.17668417491098976,0.23367389222196644,0.3810997775071542,0.5625997229763268,-0.9334145959218371,0.8826559681199688
-0.33359705902639614,0.3368755437968045,-0.3634164282123752,-0.8600089733659828,0.5152257997389894,-0.07420534320831196,0.9003139476738461,-0.21710724932730607,0.955456118295798,0.5685998189216124,-0.44111754920334334,0.04975400942262931,0.8909447425182347,0.681549201558773,0.6685335363491131,0.07550291562185663,-0.19146599959943478,-0.24098263929352415,0.8844067591807835,0.39810256206456196,0.41020487416143836,0.8180720769073137,0.6947444496487732,0.7628829385019074,0.3938688309214652,0.1954624334288818,0.039798301643168,0.19891121132203093,0.5517422417195385,0.7911455690841805,-0.8773724545309182,-0.24475362591188232,-0.31358020687201604,-0.5433071292494955,-0.7376951876455591,-0.0607335621783085,0.21306895903022838,-0.8967219830961529,0.1145976303243289,-0.9658405149739125,-0.5391591355075376,0.3102505142535341,0.23895506826598378,0.22194810448417968,-0.7859322225897896,-0.10196966832432897,-0.7388342587166983,0.6321732212544495,-0.2517664058593062,-0.07742300783261657
0.10125520548660683,-0.9290152677507182,-0.7828392063818552,0.8744106524114854,0.21122364846763508,0.8878071512372122,0.8319017597228698,0.2849672695215847,-0.4479494999247754,-0.9518321210209827,0.7933184812112907,0.9961399642223688,-0.34953891666156,-0.9528761375927361,-0.922405878201911,0.23144798412545242,-0.723964754603733,-0.940303500826814,0.9491711839581882,-0.18809688275482728,0.9495242715787543,-0.8847752538029612,0.49085381145420215,-0.7370462346613605,0.752154673078954,-0.7555270659858339,-0.6541659750915017,-0.29321606216966456,0.29371635001370955,0.9696819849881144,0.3271560037640391,0.25395619113026313,0.5907010054837417,0.6361779151279411,0.38104592852987607,-0.020710083050579087,0.6793585955192284,-0.6625359506510501,-0.31718321703816166,0.9232450244681747,-0.6211801968001369,0.8990497292938878,0.9577379961824992,0.9208744303309553,-0.7757575365993102,-0.9962346440843112,0.7656310765928658,-0.07712662639229007,-0.17120023554695551,0.6972068464671181
-0.5973220651718055,-0.027053454893261275,-0.6069815642824912,0.5322259696605193,-0.0648200436229639,-0.7203011366185377,0.8374810625204449,0.14391416795916234,0.8430952593767929,-0.6712943530159488,-0.0763360825424505,0.28636253848871485,0.35536142277347793,-0.300390927468395,0.05374166838019434,0.8962302162169754,-0.3110960552200617,-0.5085465914357786,-0.6585148490970789,0.7780487791577726,-0.9513837262965974,0.7632820157924504,0.44124064822477127,-0.6913906317897724,0.27657901860725953,0.008251165451608977,-0.11541976892973904,0.38168317203595126,0.7354693567291014,0.9769242568776766,0.9877774585293533,0.5527396733064146,-0.3164124645674089,0.41856961495384726,-0.8575915755121958,0.09837358901237159,-0.7810172613457766,0.05980844752915582,0.8615218745007474,0.3042102040191266,-0.17419273825904813,-0.2060026518681013,-0.5464158136472607,0.6007204319227253,0.5885955856841484,0.4162805796433062,0.8677786816013242,0.3325926817894863,-0.6866584192346521,-0.07195480473843396
-0.39356466547459923,-0.2650853804362543,0.12379879629422508,-0.09267898343265057,0.39439915909285495,0.42751889361570716,0.19840890333005912,0.2192847112844294,-0.9124655892730664,-0.24045191302760238,-0.39330789551597756,-0.3200646246149884,0.4679707890043453,0.8586883550195961,-0.7463002787959149,-0.249993590473936,-0.5504355186011437,-0.7233376836432184,0.8050864468805612,-0.9507947020835876,-0.17346144182405976,0.6243552220902602,0.4013010688641995,0.39929111129153616,-0.8560587864815205,-0.6673761769279442,-0.803396940982518,-0.7559935436591888,-0.28368784785977186,-0.09034605687641872,0.761577743914891,0.259516352699784,-0.35058893352448994,-0.6868099086660063,0.2082324670306871,-0.010696775413714277,0.7909885733742493,-0.9173837292248613,0.7373796604563123,0.8532467586095905,0.8433145968775151,0.8597936333218963,0.1011521075329842,0.46710759359783394,-0.5263121995890235,0.7778504016373178,0.006178108851023767,-0.45989639351064937,0.6216800361458863,-0.05222847903105843
-0.41608088157441614,0.4068894431483674,-0.9908950424275215,0.23752052760162568,0.7070029309597654,-0.44658441408378713,0.3850914938093899,-0.7537709629263981,-0.11784861338650443,-0.7566321159118256,0.7039746103205149,0.6099668054438551,0.14850972943979723,0.7133488758118453,-0.6023288648714741,-0.37267647418666594,-0.5235516651974153,0.15415311944068433,-0.2542598973317952,0.04052584010150284,0.593168199969953,0.9854541524468601,-0.09082000357177711,-0.7784367835842702,0.0832097078130225,0.457740660170214,0.6269669745677291,-0.17567383512251522,-0.07414538913872804,-0.39785493137212846,-0.495121811718255,0.11356579253804766,-0.8935865411949808,-0.5888824139115946,0.24507754078258515,-0.36972036084629867,0.9597170396413766,0.7560360802576357,0.47898367760322313,-0.7039630445692685,0.2803431092409283,-0.4908513677579659,0.9419123147071407,-0.7030963866076465,0.3896399902941038,0.11490070020966803,-0.3414393159413389,0.07843720301813673,-0.0034214069836214778,-0.06030807203413602
-0.2019755311134399,0.36677622115411956,-0.833679800664002,0.9222007527494822,-0.14440018694300105,-0.7472108251919884,-0.6612004758300535,-0.24171705758786388,0.5658145230856901,0.8139676099892145,-0.9076394988936332,0.9459098181656295,-0.7436959623325011,0.9634641886147708,0.8020151512010235,0.5219888870196419,0.49562610182072675,-0.10240901899423938,0.8989431447058059,-0.21487534375939865,0.6153804563608333,0.34334761749603804,-0.07309628813993052,0.08341141263944607,0.7851770526012474,-0.22658142689720973,0.38463594547442825,0.0053361227621848695,0.09415004652802561,0.2639815073088774,-0.873554346795794,0.5081340056105456,-0.908811465149192,0.9376163302808604,0.7250275058705259,-0.43167267475999516,-0.3697383873444109,-0.09490513622059338,0.986456856846009,-0.39239241051086726,-0.6653004783637823,-0.8440392143258051,0.34841332589938445,0.05473179949781726,0.8892466846081282,0.5054540880915667,0.5868957442235813,0.954181474369033,-0.4347198769591005,0.570241849507651
0.7865831206522206,-0.2653980251235707,0.015174444445797297,-0.5040837532156485,-0.8614468667894534,-0.43599119419639487,-0.3940926824656975,0.9694286136975799,-0.624452824728585,-0.8449392317946035,0.6155088758988873,0.5849161914622845,-0.35675522845284924,-0.4243183078885876,0.5774127999406261,-0.6117524842183452,-0.6712349461041663,-0.8365859762468857,-0.7379184877056123,0.496809122395549,-0.6565126059847147,-0.37530226830404245,0.3529310778676611,0.6811249015027379,0.4759866883463765,-0.21053005135123348,0.8269485911875871,0.39173794623035096,0.7053710452344298,0.1770954674096865,0.9466318527038556,-0.2770067077928142,-0.9846904669396048,0.29830573117746517,0.3471722133390154,-0.007361576840016371,0.18926571538837433,0.8921950563240999,0.06996761229942716,0.7487727274958443,0.230942295230118,-0.40996809609137563,-0.8031610329317743,0.8673137448842277,-0.8923507733610219,0.9422473053894211,-0.8431377831576089,-0.676876789768748,-0.3579814972290084,0.8503817044936316
0.716567374292888,0.6745445959146389,0.24075143606678406,0.6728486353232643,0.7770045222395963,0.42015513828554885,0.2592100760560785,0.925527326130615,-0.9847815004024112,0.8368997973079849,0.2358742198930881,0.348599683803962,-0.046698828665695524,0.7370005563447436,0.470020096956542,-0.6360842867876404,-0.10573707689197442,-0.5619755181212924,0.3254635733634853,-0.36267632152868534,-0.6990490732455359,-0.2871547281451956,0.8661102463114195,0.8402987642988209,0.8279990713326906,-0.48415397583891173,-0.6102010212885848,0.06647914047065007,0.9859226820977941,0.908974564261228,-0.4643507264085114,-0.2358000069427152,0.267401128176063,-0.011886166538448872,0.005368099689551653,0.8114607248263113,0.6731531530258154,-0.3027408282793058,0.8917646879107901,0.4641696183767804,-0.7536381449852838,0.050662224926800836,0.6530668807807269,0.06541636474239731,0.22429327915304953,-0.09899442736795094,-0.5931272865577701,0.9179968032358867,-0.6881493626789272,0.7935620344319673
-0.8084125062758135,-0.6824662480170254,0.5389228005409367,-0.733705639709434,0.24272202520484698,-0.332572173186544,0.4455207526778412,-0.7668927352525003,0.21036105853932985,-0.8292615688711084,-0.26783576105495477,0.492762925648379,-0.6065821303484329,0.3546835440197351,-0.4542848909569749,-0.40259857638341656,0.22414394629573953,0.37768067591932486,0.2722756551753682,-0.854355087502793,0.7908063066162622,0.3132887557919035,-0.04384329072974358,-0.09487900521809989,0.28895141213057685,-0.1472073389533366,-0.8015441743230486,0.7786223207769423,0.8910021467520326,-0.8097856466237693,-0.03705907044422907,0.7210291940335973,0.20494317377434346,-0.876182442306107,-0.22630231810433388,-0.9964655505053064,-0.7009717039729577,0.3548969616337253,0.7595393766254064,0.41488643781242496,-0.314332146935447,0.8558550949525533,-0.2960112856370113,0.5660029054807088,-0.7250039720076268,0.7860662836809889,0.23339334923029686,-0.091381059941123,-0.5319682207846688,-0.2649644452239336
0.8319497444961217,-0.22428415624193376,0.7500774237898158,-0.3576914174974414,0.8061569532582958,-0.9113575788695767,0.1521631514100924,-0.129530623830298,-0.8443694583478967,0.30067102324619854,-0.6505778878096816,-0.8851369673478612,0.6507023020716443,0.8453978054418774,0.11511064410875593,0.5568966424666947,-0.6423913527709832,0.06474343047123987,-0.520247379861776,0.6757348007017833,0.1505574359473807,0.6262705359924576,-0.38471847106639445,-0.8625254190052419,-0.9976645097466,0.7105037849925308,0.6906393301562177,0.5564315457160599,0.5113989814781277,-0.29207032496805585,-0.4024002840535327,0.9420732961015147,0.9472720097165834,-0.0682977358534822,-0.9513481125563011,0.9155003015828875,-0.7815834428627777,0.5222226514852571,0.24961476820996642,0.6044182955971469,-0.09483027592391757,-0.12400095015961199,-0.9922788979349925,-0.4868845472412091,0.20728376775916146,0.4858693030802008,-0.5554308401104434,0.5445962258454771,-0.3094116571489849,-0.5081960944869177
0.15294164286376988,0.4766296607445958,-0.7429960024370914,-0.2171165331815159,0.023666786129440065,0.710913044074878,-0.9412710075061994,-0.5361404663078,-0.8166216870646907,0.0903891881434139,-0.6369872413653035,-0.7974866992631711,0.9751290056171943,-0.6039213238752902,-0.025333415173830365,0.3854802177713025,-0.5696498586874019,-0.07372726442165878,0.7885102679002775,0.38558934492253405,-0.9651831511125993,-0.1487785108819739,0.2640777901211474,-0.5390466426097619,0.8062447524353276,0.8594582123956188,0.44944855100296854,-0.4146420508019151,-0.04243564331084049,-0.8653021847415475,-0.7211817398764028,-0.025227860592944906,0.2418667100395988,-0.3369366081752858,-0.7191223642603083,-0.5647402485366037,0.18689135530953738,-0.21675031254588228,0.3025211031067604,-0.442382774692879,-0.5203265146562196,0.6792044629471253,-0.4884788032661064,0.023739829262494516,-0.6299467614846872,0.5459079770848853,-0.38297682693724966,0.5733073474877651,0.9933920581566628,0.3250306936418388
0.3169828891242037,-0.7720470348837064,0.2634465391813664,-0.9240225130978875,-0.5783673246025935,0.14579187919175385,0.34193969637766375,-0.21495035025729226,-0.6970791910140001,0.10280659746447451,0.3523066073554939,-0.11642774496387187,-0.6440344664091431,0.7235020041043941,0.07641837990923384,-0.821864870449351,-0.7082687224485522,0.6946258176481961,0.13707557559710637,0.4786725383910869,-0.7600801265458763,-0.11060345333665855,0.5711723867372223,0.710839843510585,-0.30860164596322326,-0.05220328785820616,0.40086572026371825,0.306285619237874,0.14310290072712006,0.8527224366286325,-0.8247730859634806,-0.5386681291541043,-0.904155140738218,-0.03023601593693348,0.8401475652785186,-0.86895074166271,-0.5502925472845289,-0.6693136638452905,-0.09698343115408281,-0.6485308054885572,0.603112457508549,0.4706169400063289,-0.0770285004405381,0.33714217698073756,-0.4183505031509046,-0.8835723946253443,-0.5549362795636472,0.13025502131513855,0.0038884504225970007,-0.5150582735843978
-0.217388084696707,-0.9573880272364668,0.41190344170269855,0.5961638990498224,0.5642087614727394,-0.2666965804953265,-0.4918237103956743,0.14618613393084523,-0.17347867128250183,-0.4136974574970078,0.7790830259808657,-0.06062161258996146,-0.2668877381051904,-0.823405066018504,0.30981538097461014,0.7552716886960678,-0.39657656069801095,0.32848142709972783,0.3822890779615844,0.9194503216213226,0.1918373398351444,0.9817338340842748,0.8426190117520759,-0.28859201561645875,-0.0302639593087336,0.0002421590374852567,-0.3874999927600935,-0.47292333368486084,0.8218698361376664,-0.8338685875820104,-0.2814036884786564,-0.3434056669035639,-0.3370454897380467,-0.4511335160935679,0.8216545980305602,-0.33205206219667693,0.3421227486851385,0.22938819635273067,0.6798823794545609,0.5143362189154685,-0.684928389764727,-0.27726052143412827,-0.1053114856599976,-0.3538846972622315,-0.750675240984659,-0.020258209118478976,0.9513638239171422,-0.6961996406071239,0.8195532235867794,-0.17127317887333204
0.4340630889009678,-0.10877686419527133,-0.6064068492988303,0.9675746606884938,0.12140866063780476,0.2688509077498017,-0.037795700763993856,-0.8977162830782097,-0.9094668720878069,0.614505646645795,0.6977319005611254,0.4346423962721858,-0.8982514814132156,0.2862665642298349,0.06743551070811682,-0.6950665596422554,0.2471665397418331,0.47626692693203265,0.08986379952694967,0.9504256661041278,-0.8314300163215091,0.5942149153122815,0.526379909866665,-0.5631288157724421,0.667696192079438,0.04796553168912754,-0.5485005329738908,-0.5230752917547796,-0.2712280403122648,0.8026457764368516,0.547263299195212,0.8489678765029609,0.40533129263473877,0.32119897370872985,-0.5717587849176801,-0.5146448977701815,0.7746969798438259,0.82902754899501,-0.22880923180601098,-0.15143530645589032,-0.434828405493229,-0.4806262329370955,-0.36349831430053103,0.5569728992216066,0.48483633127050607,0.04250607397283901,0.2532849456653512,0.8208096002967847,-0.3143408188399014,-0.018249162726784784
0.3168681978935235,-0.27337558362674486,0.5731487034036911,-0.09658507733016564,-0.38299916284880253,0.36315754695904046,0.3815268645324581,0.5352871370969289,-0.0565541574564018,-0.5319004139638706,0.1667687745641242,-0.9968818011674152,0.7078555512787055,0.23917821277794027,-0.15599181603294043,-0.9895614331830763,0.044435255995301626,-0.10423660674477508,-0.0014152732974669346,0.14976670923302293,0.2970167856713075,0.05259232584934814,-0.579284857287079,0.13045222333621742,-0.8905157721503169,0.744085805660372,-0.46524716179807224,-0.6796807443067974,-0.5832365319915346,-0.45039467015075996,-0.05560407877073403,0.5192025315146094,0.9053695020650621,-0.9209596567362477,0.3275018375179909,0.5423912231762704,0.6501389275420592,-0.6842011170852683,-0.08177387305688,-0.18893109161005983,0.28942067301953267,-0.5098061596553098,0.4576090460333275,-0.5055270740288726,-0.3260198058270779,-0.4079054886513188,0.1368570463857165,-0.9327929271699872,0.9796798518974642,-0.8693180956691863
0.9874501010992267,0.8273754315927153,-0.672795424709683,0.4303966204933385,0.23144888905515826,-0.004024826464657183,-0.24215330897407117,-0.26436868236674815,0.587316758384668,-0.08247792307447355,-0.7288194232805691,0.5905316125786282,-0.8589773712226744,-0.2810386931006842,0.49343943334122675,-0.4178159547298571,-0.020954828819930493,0.2762703141074896,-0.2255551772390545,-0.6113914247233257,0.13614927069685445,0.16172984526564305,0.6912694694826971,0.9638450958269338,0.1616151727831604,0.5090559259298632,0.7766521203771776,0.49760916361438445,0.8900055319912045,0.37856469803551884,-0.43695112221037735,-0.6527197083700617,-0.41008808336418123,0.35109535335684183,-0.7692281435579832,-0.1869556839523212,0.24605305372085662,0.045100459813894656,0.2439622315811334,0.19705695586040772,0.9194960853139855,-0.5648474510668108,0.05917053012873752,-0.3022240388496601,-0.8540548489586709,0.34140038802808315,-0.8495575401296929,-0.6154702934276408,0.13174954787833548,0.12305041388283977
-0.33631948218153374,0.22671405569454828,0.2899145559635412,0.8300620830128498,-0.9117953262860248,0.9448981118118805,0.009815930593017441,0.6498640521765191,0.5776133749081725,0.7153239745995534,0.30260744350195423,-0.9754572031858669,-0.21913737850764214,0.9247576341693626,-0.5894810939230373,-0.16925710809917016,-0.764053345787832,-0.0038604451676657048,-0.7899456377750004,0.24366040161097902,-0.2832146685078527,-0.06417905620305797,-0.9553666611774428,0.621304524524946,-0.07971973613712957,-0.6043236776872257,-0.42073042005478856,0.024898313556437568,-0.8795581971978642,-0.2513778727725894,0.8213904811211746,-0.9247089607582301,0.55255861553099,0.16255299781424448,-0.060396129287635936,-0.19261420572927435,0.5625787469457125,-0.37679079795156223,-0.7513258651812479,0.20104020976535575,-0.7237287085306839,-0.9276228987350834,0.9707155705349956,0.4695357665153579,0.17465083956523098,-0.9062265637348719,-0.021770979262335732,-0.9732780401515848,0.9382514843269878,0.37389629884050135
-0.7483596099345418,-0.8574304486214083,-0.9899296181355287,0.8820422313213383,0.8951886079986335,-0.6401100598137629,0.7965025812904202,0.7668143419245489,0.8485363191481369,0.9074019861648983,-0.5693164221009859,-0.06005416071874481,-0.8777440379449354,0.9831511319015842,-0.08295633773747313,0.2855638423757695,-0.7690094820599246,-0.836894864097293,0.2718026113027239,-0.8751393276107949,-0.6886418887966927,0.020536689163910493,0.8361746445189866,-0.006134037951523563,-0.9409055000336093,0.3869600665762769,-0.7147779939192602,-0.23504012832215404,0.4181419487269976,0.9234036076184328,0.1068271161327985,-0.23137479129634708,0.5982896656305418,-0.7558991913481676,0.5041258711508166,-0.7437573326881457,-0.43164672725651954,0.0009245573832349363,-0.33584481257346854,-0.7294016696689501,0.49227330318767515,-0.6307886599734335,-0.5051598590116382,-0.7528246524939377,-0.6759893214424368,0.21680503115778682,0.3868403057528227,-0.42350588544974455,-0.09574218615134455,-0.8260832055414161
-0.10236705680023594,-0.32657737828381406,0.3294747001796736,0.1695777572087327,0.2854529477977358,-0.9986861814451803,0.11537109077327412,-0.25682929298302526,0.9118069850518332,-0.3292818929009407,-0.17091972040711068,-0.8089374532802703,-0.06032965946797253,-0.3408307459034282,-0.5420273516769848,0.5264921239937487,0.39945660382712245,0.13896966885422812,0.6608452104123081,0.6258188373504942,-0.6375096699851034,0.46230067091417426,-0.6331075267857954,0.1035575275365147,0.7845701312757059,0.7882858309382679,0.9324329919697539,-0.09209362867277626,0.3193887754165139,0.2646558886879199,-0.9121775318802273,-0.4812468199512434,0.9192336758112822,0.8704248920924104,0.8536078367233776,-0.6534372721453269,0.1855173831003123,-0.21104939529453315,0.9242720012531179,0.9309475883867018,-0.32584899527857436,0.28054234420183366,0.3235655835480751,-0.9940969515535542,0.27150689588242616,-0.6971292634031371,-0.5124347201949945,0.6000964633094178,0.08779405898350101,-0.12446349933092793
-0.8283780902524996,0.4624668031872603,0.9006571599861394,0.5112653844418861,-0.9897269767192742,-0.47859090070912846,-0.08891518088942607,-0.31942039127561384,-0.20483191787877497,0.203058119054774,-0.4338926188451431,0.9249430405167293,0.620681916644004,-0.5815253438570227,-0.20676481224008203,0.6698372284265965,-0.6230683183851049,0.9559649034547973,0.4366963072645792,-0.749463560312758,0.6527874025281063,-0.9810142851012216,-0.37405538253188586,-0.5629241438047663,0.055645301135938796,0.17224648083635397,-0.6430974682306619,-0.2083979529479798,0.5512945151294505,-0.3563087625929937,0.01625786526847517,0.7574297845129623,0.6112313212498266,0.6138262235801075,-0.9715115853814592,-0.27968347374097735,0.2599224734264268,0.5939657964693577,0.7586940850666417,-0.3767688642583281,0.0027863657056111935,-0.5698634481959429,0.8755470654840172,-0.017630506302618865,-0.9703662028102031,0.995053527104461,0.6439645525578882,-0.8978178753171399,-0.910937253319734,-0.49272473215497625
-0.2084390953767975,-0.30342903224947015,0.9081401170515008,-0.1615126786779918,-0.407062717729585,0.42738499444944944,0.9179661442799828,-0.05466779163465063,-0.21615127105035004,0.8120740683265095,-0.6831169563398957,0.15307930609078213,0.0968082097577927,-0.7923797773627504,-0.9456919830636608,0.4422852375592903,-0.35210158496422284,0.7289969281776748,-0.895809003934368,0.8959951511808429,-0.38758828472782936,-0.867117505619007,-0.3804114832320342,-0.9876189360739418,-0.12286454264009017,-0.9471103214280978,-0.7506714389524708,-0.3647089416035667,0.06395257477239225,0.7009623093339675,-0.917628199816537,-0.09898888055795285,0.8995717368549544,0.021502911754509246,0.16430876822967277,-0.43783850164452975,0.4839702061022939,0.431742520521319,0.507193211456931,-0.8357016247805819,-0.08295789132384379,0.25267783428959534,-0.9959004652769602,0.4096905504024404,0.783396321726255,0.6515798057402057,-0.531131795116839,0.8339013623476721,-0.33737646653522957,0.028178355735747562
0.4810768037984804,0.4839016485778075,0.21004997212073873,-0.4230976081058824,0.1978066918835263,0.07846225914332006,-0.31761186900325733,-0.7581531409372078,0.6695731142051784,-0.21040642750971628,0.41500379820617583,-0.8985360218529665,-0.8570540819186739,-0.9566076474305888,-0.49371859837381327,-0.9220007768105335,0.18215464587659824,-0.16649674812268,0.7041335364492511,0.0816437050095491,-0.881979933859614,0.6733061468800944,-0.9642651957198543,0.40465865845231774,-0.32772290360748646,0.09318697433140599,0.15098718053238525,0.4096501810051798,-0.817396900647393,0.0501402685784742,0.46385278256854034,-0.3288043195385213,0.0302242680707705,0.5492940211473669,0.8866064411471661,0.6797428633783693,-0.7695242457345106,0.40220892037384604,0.6383459951719818,0.4846958047113493,-0.8532193517303284,0.3884278273799979,0.9398183154262859,0.7612376802690866,-0.33551196921306914,0.4897154133855188,-0.8055796712089052,-0.5131446362930087,-0.5071016463803886,-0.36048137920744705
-0.20399610100928178,-0.5573643929305733,0.16159439456187652,0.030845098532714776,-0.1451445634380817,0.22877659714678433,0.5837417689622093,0.4702529774066869,0.2756712639065597,-0.8997793960048658,0.9739240243984196,-0.5930834308645874,-0.1386188621136153,-0.5804506815875111,-0.6704984634662235,-0.5526488910770586,0.6701180629236145,0.4044030433348481,-0.34102295334090627,-0.1512514052055779,0.021344686935693913,0.8183062900942414,0.0054948624390357415,-0.48106589122130405,-0.0919567734006328,-0.15236627700360905,-0.711601480232636,0.9450352937188182,-0.4231809380968,-0.014219588157336482,-0.06968000087794546,0.8637637130973834,0.3920002134258982,0.11223689814935478,0.4215550761331506,-0.8749379439449181,0.38891595729215245,0.4688868742725705,-0.6981034421791761,-0.6988496779521233,-0.31986265914140755,-0.029587399666210823,0.9516045514654433,0.4772353852029393,0.8733401586622187,-0.4520670785566192,0.05485500254731779,-0.895969905112199,-0.9170793606839776,0.7215324851971502
0.9257260582764361,-0.6186112129831226,-0.3840633673694598,0.5450846043090675,0.42056177945142703,0.9693402017867214,-0.47645418696641617,0.313702681965376,-0.7820843613756354,0.20974875811322147,0.2796020203041746,0.3349056804521443,-0.23705570394739472,0.36565026329059647,-0.7177047396511075,0.09077188701282701,0.732257442502167,-0.007657115802990555,0.6462864627958307,-0.8911155840798622,0.7666583763266651,-0.310300061615589,0.5542381114802504,0.9758467492736078,0.8715333566699105,0.5690995937509142,0.25374801921241874,0.9082786343197831,0.8279629019067842,-0.3972940598994198,0.7189930365464792,0.9859820275433016,0.20649066550438977,0.25640934613896127,-0.04223699969826866,-0.2653937151716793,0.167938797116143,0.589980460986887,-0.30292902662610677,-0.13818623758484316,-0.2794014501806452,0.14449476346498147,0.006665539456012892,0.24761107849676744,-0.90425805039752,0.30228200766759017,0.9332416602260039,0.1396065892063062,-0.6454861296065992,0.8534343347890749
0.5051565714331071,-0.7418007785612083,-0.6982719551316191,-0.10044845733596297,-0.7833132839824729,0.823266449749168,0.6249666718520677,-0.08274878887987736,-0.5600181477563493,-0.4094685981336057,-0.2165081134187974,-0.9682702744198858,-0.13398375945072327,-0.5719806945875967,-0.4071054823741801,-0.49277812353588135,0.7699492374845615,-0.09557742690852156,0.12743879309844564,-0.48371761340069885,0.8101977044827071,0.7777105579739995,-0.9965612200197849,0.10104554743249905,0.7875971718525545,0.473818648681093,-0.974754746647729,0.7812929850599276,0.5178794206844152,-0.7818802152954322,0.721821242546696,0.5810388451026177,0.45081899191112407,-0.7618732998515635,-0.19194486282897238,0.7398031898945888,0.7868650090945536,0.4476419915118187,-0.48689148840202845,-0.7972163477841087,0.45868086163620103,-0.5162725704386543,-0.09555093020161365,0.20560633025997332,-0.8589323654982572,0.7422771402394416,0.9689092183776993,-0.8977322425625095,0.3814034911728479,-0.8884591411872756
0.34382333771724405,-0.1586624130704517,-0.03322798344502553,0.7008456121647805,-0.1554950974981164,-0.08721348569772513,-0.17556190982415343,0.7426875853977779,-0.8001352742715053,0.7003063491161131,0.10667732774890804,0.044025725230691704,-0.48259401708452265,0.017587969399733283,0.6917708664834937,-0.971398992784849,-0.9693958528430201,-0.17354453415313065,-0.27101657667670154,0.7927080900883396,-0.5738086384604523,-0.8358263726676097,0.8727920027105979,0.21115272078043845,0.15526276477413947,0.4253234869613778,0.18647044835791138,-0.15614159534561156,-0.8894322046482921,0.142287775900517,-0.7822280986397173,0.9040775397522185,-0.43970530625178483,-0.6440215428512246,0.6780376591612747,0.5990265753041554,0.9057566629797631,-0.6354374011723364,0.48212259531993196,-0.23321549552368226,0.28291944246756806,-0.5257935046838479,-0.015287083180160366,-0.9069475082623065,-0.9270885511393223,-0.9203261869357072,-0.5905138213377147,0.44083968363425763,-0.21150453020390803,0.27195075466625784
-0.8801308965033646,0.3306637414105005,0.09721893644502433,-0.02015026793040242,-0.5625130143620718,-0.4307553706503,-0.9934464445785105,0.4631496550705011,-0.6972825798894173,-0.5145000390897321,0.44453285237523477,0.06251191432652847,-0.20850499071263007,-0.49152143370701296,-0.542435484392254,0.7235209685199813,-0.6964265339299914,0.3287950462145164,0.5262353863231636,-0.019776513427738673,0.6589550474288319,0.0294898585071377,0.6960241895895419,0.5083529926876066,0.02582922254169895,-0.21174197467013456,-0.06162172357933027,-0.22355699504469917,0.30623965261570907,0.09486244673614341,-0.4469304866403917,-0.7560772254616113,0.21459128933512883,-0.6349538743922719,0.2248693146483649,-0.7168888116107103,0.9896781328628702,0.040105978031320655,-0.730811579304407,-0.3472140965817542,-0.5616911796618111,0.7064269604628995,-0.28242287005281885,-0.10744424625175075,-0.6127230270824209,-0.5215023740159442,0.7997752360176131,0.3055221100024914,0.19826079534026264,0.11105422851966662
-0.2805027404370347,0.2919694326267336,0.0868981861613084,0.9109347878805437,-0.7845391154392068,-0.46276256308226527,0.9849409240708437,0.3904933114127279,-0.6024185329465152,-0.5245320975500939,-0.5954032884186236,0.25195110042568514,-0.6813862657301736,0.05656655198847871,-0.20734905692407002,-0.297221234696019,0.7830125106111397,-0.5437463114967682,0.9325966118237863,-0.7997134713822507,-0.9178636844090132,-0.4156246123258669,0.20207272827407963,-0.9415233078391658,-0.6952805898815277,0.9453766363272436,0.44237738165997265,-0.5144227995526895,-0.10866730290913629,0.2976277214946985,-0.07117040148901399,-0.13374521561255626,0.08819611447048592,-0.6711301406142053,-0.5919108548918731,-0.17852311367211227,-0.6927296804764592,-0.5861748544232889,0.10295135762473984,0.5009592490073513,-0.8756956778499083,-0.1388992748918333,0.29739165447566107,-0.9652108977607605,-0.7095829864784563,0.09421109590215393,0.03387439714846763,-0.7228789387315289,-0.7203022669112256,0.559687656809035
-0.3027914855044589,0.27332675874783274,-0.9891300391100828,-0.03443093598542224,-0.5743302410836024,0.48729284264748385,0.2812083949369727,-0.6774018419064114,0.3365003744286166,0.42713275839790166,0.31693214422325866,-0.11486167197428054,0.02930856890470246,0.6823533549664309,-0.5860027483755275,0.6676876125358605,-0.9700994828323454,-0.7677289088269154,0.606086597976816,-0.3432067762749924,0.7742742923265984,-0.5451916116161197,0.8426080241796268,0.05178515413189322,-0.9045237089821523,0.48975101049393066,-0.3248282740756261,0.7798260427673801,0.3356651779750881,0.3390159798917244,-0.25142922425677117,0.7713886507622967,-0.699559117932131,-0.23569654687271613,-0.6608812167505708,0.8368310644558768,0.5931883338263435,-0.8185498168165417,-0.6857377224804371,0.281609886849884,0.8912345107161597,0.9498527211156969,-0.48320401728236795,0.31435362477472484,0.44836899813547737,-0.0951342610295407,0.7938759666882381,-0.94898141222954,-0.4713367942087603,0.8913967228397632
-0.51719065728217,-0.026629197672929816,0.06670311573063725,0.9965853323367034,0.886813117006361,0.799455711034719,0.5986002213060916,-0.25327523958018405,-0.29637706858323665,0.47351897750161664,-0.8625019118473495,-0.1256854134235813,0.23629558394501227,-0.36518602576460446,0.021092985345689597,-0.9212870515504551,-0.47367765331502987,0.019020011050302377,0.675456990083529,0.0815792425569778,0.758714255525686,0.40388533314946595,-0.14778684829547073,0.3297735862561517,-0.49089451695608965,-0.6962635035597505,-0.010482971370547212,0.9691037550534005,0.8698386580072316,-0.5144868894690114,-0.17236122533594367,-0.5355891446806322,-0.2066172656352412,-0.13549216870196346,-0.40624642514473364,-0.02665677049534043,0.9505232952452894,0.9050897202600193,-0.5677050813914862,-0.19029838545736555,-0.15338229621430866,-0.7812276593298557,-0.012781901571677357,0.9201811836086219,0.9947958390640769,0.3355597517474119,-0.5949325199501462,-0.7758180678657955,-0.984810697111264,-0.952772618418643
0.17493633031013844,0.7159379467224345,-0.4236537731074751,-0.5472851630553833,0.3118652095696707,-0.1370024854201286,-0.18742177586210218,0.3959904680013091,-0.225546246323446,0.11464826380856386,0.7761405588096422,-0.8089769171865066,0.1400181731513409,-0.9076929731294034,0.9868285912248973,0.9399161814122661,0.7284569260347025,0.17130344150357713,0.37089793249115544,0.6758274670830928,-0.13491635177820194,0.8820357804127764,-0.23514653161317645,0.954754431806664,-0.8803223072055143,-0.3852640941016702,-0.9847058930214656,0.1583735656452533,-0.42980592518711425,-0.03577634515332484,0.12089088891782362,0.6931662941080065,0.27579273276578753,-0.20995585346100465,0.7063013686091946,0.20916754695332096,0.38944743846782937,0.8577284756129169,-0.4552741449763945,-0.7964482673480008,-0.5234075145993682,-0.4611967720397123,0.3948279240624697,0.1650856895446774,-0.8575821753826758,-0.8597724846071985,-0.5160605693961866,0.274633001497675,-0.41636632216116,-0.5688221967666705
-0.12994575074513992,0.32019785093263187,-0.6158389594805601,0.04039703182743004,0.7315794767269964,0.9819241348582651,0.32170327651871744,0.952192891369141,-0.17877376803976808,0.746663129849516,-0.10996589734289841,-0.33138426535915544,-0.012466579787305587,0.5654507888333656,0.7906837286119994,0.14376085484009482,-0.11748153698271013,-0.27424327881735033,0.12946090679733702,-0.7832731252852336,-0.5251522244486619,0.3494360527735002,0.5216905528865947,-0.7681420227595039,-0.84273702788934,0.7384152683551501,0.9441480562361324,0.4855268304992295,0.1690321012842677,0.6007778627925123,-0.0970766569610001,0.3832987679547173,0.7469789891258479,0.9290528566231486,0.621970913616742,-0.06453609669138427,0.3843606424957934,-0.8345138471934618,-0.06088721575710798,0.7213594462442611,-0.7015127830359024,-0.4532907593788875,-0.30972437462457225,-0.3091271925522142,-0.7428708788102789,-0.5230048229212065,-0.7415035671942345,-0.5909487240656007,0.036046885699167475,0.6674751956589255
0.22221635310280063,-0.4703515961254353,0.8543530167021974,0.6389938122159509,-0.9378101138970087,0.18546967523990499,0.5167477619364009,-0.9455171644538991,0.8667807375247238,0.3299912038402364,-0.07272480517339786,0.3340176105746926,0.6001461407836419,0.4919301347463736,0.7530247360394736,-0.7866458412777415,0.8206980654823776,-0.0910838232552933,-0.519328674001046,0.75407503254525,-0.6279805818190567,0.653666880296279,-0.9408422111378708,0.8838013394396776,0.626365099377489,-0.8140525967347649,0.8075537684433981,0.9988599594837096,0.5124176037504189,-0.1322549113940623,0.897643591335071,0.4327360972360068,-0.2105707661593973,0.9571919621381108,0.29716249634202274,0.28845960319171926,-0.7279227491040778,-0.3579414620539412,0.37997017831530266,-0.6387205857261982,-0.7352187880873309,-0.41711176357190105,-0.7211302677043717,-0.10803477426661634,-0.8947372015564458,0.8475120630714945,0.4512904179805389,-0.002207886287359573,-0.0028185377853160443,-0.8314578289701162
-0.22318634661744552,0.7997375022018613,0.7160130871909796,-0.752925025041456,0.32188221376190806,0.41185671556168313,0.39379206307038905,0.597451579494007,0.4396293743853925,0.9585894694181196,-0.09740311203745533,0.049022171450670005,-0.5638986854769595,0.9379290356495651,-0.49103274318866186,-0.027404028090074695,0.22522539810433162,-0.7594203112715662,0.6450065896316097,-0.3350836651244812,0.7548620804925178,-0.19690740940148133,0.4277132015967471,0.39980510540175074,0.30062844352812135,-0.3356625112132422,-0.7361186967762318,0.7847261301482237,0.9366090295746305,0.24772542148111332,0.5407178662000954,0.7477864552240916,-0.5402867986775677,0.11338564920623706,-0.926698531306767,-0.261343371159266,0.72138802009682,-0.805639358003229,0.9387936765996924,0.04937251723454783,-0.7277084084979084,-0.8088102423393815,0.9638876475414775,-0.7500391152419573,-0.945838306602587,-0.9024834135598185,-0.5852226874952806,-0.45784138860224977,-0.6359021991766911,-0.07434258470149313
-0.23653767079501442,-0.5617487618177218,-0.8333150108634046,-0.29153223823616536,0.010432911696183766,0.16756421587633175,-0.8024639894648253,0.18877655548864836,-0.11253434720255584,0.6304794151425084,-0.8727833324546452,0.8036094198774735,0.9183238986090091,-0.620277565926203,-0.8942209454474375,-0.11321685821766758,-0.9907397338920099,-0.53592930054991,0.3616220403347121,0.6717924154158923,-0.2997436535854705,0.5276591684418981,0.5747476481038251,0.3074621483907344,-0.12419765443136921,0.011191703917519336,0.8694915607224565,-0.7972501280696531,-0.23635507874012474,-0.8141730154827481,0.23701861466153928,0.6848577720008844,0.587426325032276,0.9022734785622212,-0.6646094277511787,-0.5612016345521943,0.8539308123414807,-0.6111194171700595,0.8098306577021109,-0.436859203745258,0.1375893181714002,-0.10568174562421528,0.6107189896949748,0.44491548875510667,0.0645134265054671,-0.5762065201977568,0.24411294360278035,-0.029807012954955026,-0.4612415220426308,0.9956591546986897
0.4577756242910589,0.436428249714195,0.6305263525161063,0.45025190373438106,0.5091397769734202,-0.21293760390830485,0.45445813773093113,-0.36693024374871785,0.2242406734136111,0.5244642538135221,-0.270607204706136,0.8432960690604528,-0.7548411413807911,-0.41082727133097396,-0.5622648810920364,-0.3889508061365673,0.07537336574514397,0.21940980422668122,0.5846015940461959,0.793505176067458,-0.6411506937091611,0.42952485083429726,-0.35704649295087476,0.040323744556870156,-0.9143363465976442,-0.395336325857483,-0.39648244272926625,-0.16900592890784216,0.10980775807062626,0.14759154352987547,0.6185069098425219,-0.38131035500152055,0.6878847341959687,-0.07510007348808889,0.3203130790626463,-0.8547870070070764,0.99918078754525,-0.8184292315357987,-0.7805944201079473,-0.25702824245551625,-0.9576697556968741,0.4969761931157133,-0.01739205396083432,0.3022192938804521,-0.24423164075308057,0.9100430850582736,-0.5623338023505194,0.43656908261213434,0.9070805577901476,0.664915532016908
0.9136125004203542,-0.9535576816538249,-0.9048671560987183,-0.369887767891353,0.9543272592155413,0.47454217273440846,0.3290084092870479,0.3848579874775604,-0.4279393094295967,0.17643660126822658,-0.4921247202083149,0.23329826549612487,0.9756202933357634,0.42073470613777986,0.6293337349847663,0.7401130648488538,-0.5825540885387539,-0.806042618088994,-0.6580114315877008,-0.5385188442290635,-0.7279862028774368,-0.08218839927207944,-0.6281710807268347,-0.709134467541399,-0.884674161665281,-0.5466158715408614,-0.7715046954906952,0.8773357242747578,-0.34490726245352654,-0.8508611587709746,-0.9219569773459859,0.4199242137396294,0.5466254682587458,-0.5745865177411857,-0.4864106886101426,-0.503088514937013,-0.408838242082049,-0.9905658357793671,0.2828415495589127,-0.2979508496135068,-0.563353252375965,-0.6923122054737316,-0.7258681179150934,-0.7814304491710189,0.21883160447047123,-0.1003972119416362,-0.9367798917344664,-0.677215410886925,-0.913069255887946,-0.8670979757381713
0.9561104974290368,-0.23018198180395133,-0.7002351692696697,-0.5557231142941683,0.200704213117623,-0.299495712252017,0.5430879510634747,0.6972185824587923,-0.944084736579761,-0.6200250197376874,0.5140172076015044,-0.38273550574428916,-0.6299938319186424,0.47466285173503864,0.9545197339065292,0.7711263414931336,-0.28121460407729704,0.41290841021849745,0.7066897594707066,-0.41280031665940964,-0.48043591746603787,-0.18711742261487652,-0.8049143082756206,0.43445547272334784,0.018790718976545717,0.8431458589779051,0.5375873700474596,-0.30021446750604264,-0.5069270324717715,0.9897964100654477,-0.09956266645983058,0.37149777505543213,-0.8025604695835359,0.9196798697528575,-0.41920667567202685,0.7819172599525245,-0.42993193989009537,0.3390169824779471,-0.3981253719458886,0.08660989964382848,0.009925475663064787,0.20237005112433026,-0.5129228116880461,0.8900367117409471,0.7066455647863934,-0.2532890450508126,-0.5726082081275384,0.05800667937492299,-0.7316159715609437,-0.06020644067147751
-0.21095282472533383,0.36871742049623724,-0.11292347559681659,0.10870590000632896,0.8393772315646868,-0.24161625419838295,0.7666305036827434,0.34183078885218043,-0.38944977572506967,-0.18073121925145852,0.8931369989963254,-0.35620015624560863,-0.3827230552769152,-0.7936970021882499,-0.31402285829921706,-0.34394585052362614,-0.640220542212324,0.23627202890811205,0.12855274069927847,-0.15234433549319704,-0.3731363835340663,-0.781810553294788,-0.2874708039410221,-0.6386788164516899,-0.6705620247749626,-0.048694745463703226,-0.6506322620098145,0.08668911957048264,0.08666314499191718,0.05954685217145583,-0.45473421438943085,-0.6563615802121651,0.667195426211201,-0.2510453424273622,-0.10025124056137247,0.5315407022673424,0.7339020250681033,0.2532691999271559,0.08922726085536603,0.13406213852288518,-0.03374566192130379,0.4705981112505626,0.47163521883539083,-0.20759862695678044,-0.08952586932478979,0.07354974597003883,0.6325389953471348,-0.6638681830968665,0.6766442668575554,0.7780260895039828
-0.6187420909155488,0.47718935344544644,0.130802520092005,0.32317500124927756,-0.1291375493374639,-0.9399858984624153,-0.6474226426792764,0.19299460135236413,0.41812027566823906,0.8816250620773038,0.17924957771219352,-0.7829602696855295,-0.4755907317147984,0.426066340730865,0.28064677573098096,-0.956087599367087,0.2551087767325223,0.6094802272664404,0.35018780155765616,0.9601801831967238,0.09185205824865628,0.03376581274057777,0.24879042423633801,-0.744553671440227,-0.142667125335046,-0.8586225254144881,-0.506936734268414,0.41068843430901136,0.6449672045278922,0.27478066944017465,0.9563602889413301,0.9294356303976454,0.6969533900585021,0.883665324591552,-0.5722385228042867,0.5631822922006905,-0.027415945629960747,-0.2818676810539038,-0.670192096454668,-0.550367434503453,0.604213681006944,-0.6557255339213237,-0.7067935282671388,-0.0853452024371193,-0.49451431515776156,-0.8516027632036035,0.5216234481671935,-0.06107970546902464,0.614459091671697,-0.5107484565403105
-0.2947685407829216,0.22444427808606804,-0.5524622894380802,0.2315944706957661,-0.32393615977755785,0.6388422420960306,-0.6893576033520411,0.44680163129225525,-0.5840801049628329,0.4616223964980316,-0.6425562066809752,-0.009954301859360637,0.6839370004455885,0.9444992423046598,-0.9810323256009466,0.18554822080274325,-0.35221158937293673,0.2995216091349675,0.5098517399021408,0.011687382340775154,0.9618133755032143,-0.48226296853815964,-0.6344471692629446,0.07630547977259605,-0.7524374599012352,0.19318007042878071,-0.25998831116437904,0.09064357241311749,0.22116295158090893,-0.08842680146188964,-0.8630344802091875,0.0990379665228569,0.10264148089339775,-0.04451595170563272,-0.7808202313537801,0.30821008849836107,-0.7599019237132295,-0.536908899740213,-0.8813203987290047,-0.8562979608442801,-0.40714863851777017,-0.09106681713282638,0.9163377337428509,0.5231232728268905,-0.6629812330590898,-0.2322171065525348,-0.7066868770670902,0.13654809876276974,-0.6777991923052304,0.15653726662306156
0.25359423996523955,0.31922422037457476,0.0813371800626862,0.2933045099660847,-0.3764614673311111,0.7469432437552217,0.9996935289403551,0.6313544076550535,-0.07407160761202336,-0.8964710561218028,-0.3638644149740481,0.46695861394943905,-0.8466419410889983,-0.1762502916947395,0.10065777482092653,-0.3405539092651809,0.48103842305277056,-0.7506205323409072,-0.925876510690125,-0.4650050126786345,-0.00847932650460248,0.7022633163490736,-0.3210998144100553,0.0932696982216834,0.0517512051082375,-0.009918987471906004,-0.06976876852050085,0.4572881547713795,0.8668981562063953,0.8398549133721581,0.7709752960461406,0.4463310467867796,0.6441936097959378,0.34366992914453054,0.10398061179982221,0.3328528272174449,-0.17124414750311712,-0.1550639566687282,0.5801483001348052,0.8594772855358583,0.8697194427723342,-0.8728184839356915,0.7710696664348744,0.5647479775620471,0.4389093208562257,-0.46021984532015014,-0.19950570079454433,-0.42139995179115475,0.3455613089804169,0.01073734757678313
0.27910942416609485,0.9831954700490717,0.5617580918005254,0.6556760666837873,-0.3518231603363613,-0.08152258112635413,-0.33939814630163856,0.4465806999120119,0.6968109283196651,-0.9829692014989392,-0.43279243211365315,0.337027473800108,0.8611435972362074,-0.4350907938856523,0.47694751914424516,0.11016308553417775,-0.11670950468773256,-0.5779134605191659,0.5791879702897348,0.23821709341172526,0.8271354395530423,0.5617269640185889,-0.026897247860676488,0.03905715175079538,0.8527382842785907,0.5127158594338779,0.4948175867989354,0.9787705110803597,-0.8271834370888512,0.2784572898886505,0.08087227437449407,-0.688461054325281,-0.9891299354961294,0.28047945481489833,0.9969713079006188,0.3370698153801819,0.9955921473136222,0.41512143215795416,-0.3892396272504456,0.47115923944305294,0.6899954861685106,-0.2851352642985163,0.5534819843482679,-0.5794757649250112,-0.5558393000141488,-0.9132957848515851,0.634594707785316,-0.17917856871845383,-0.9533671158028131,0.4800540979925588
-0.7567198675910023,-0.1882307204620416,0.6669633035182231,-0.5029740257336751,0.007985023641518874,-0.0350089706272626,0.40466420518302704,0.27040384893735125,-0.31140896766007087,0.6442866595841552,0.9203103207218307,0.8503887604045145,0.491079840027311,0.9688417096248232,0.17071497802477154,0.9138563244379797,-0.07729194623155855,0.38753482422777874,-0.16827489670438456,-0.723611496694005,-0.6219559201862666,-0.5165463927207007,0.32418058541847283,-0.6498756475325886,0.4338899413407036,0.30889907313051057,0.018265518448756568,-0.05112686827354107,0.07578052921042333,-0.6487418025791102,-0.71359382067451,-0.776658357337687,0.7921696806795305,-0.003192358399373041,0.18820852744514982,0.8362512252496012,-0.8845391292187437,0.8900030400668948,-0.79653520228615,-0.4160657363333412,-0.88006147301031,-0.5315989693397504,-0.03047789382663324,0.9482828535782919,-0.20501673248456753,-0.7198734503413864,-0.6362604690934796,0.2018537783123413,0.4691402310086512,-0.02779800301726021
-0.43460703432126246,0.12691014001800538,-0.41234865074998894,0.47018427330458934,0.20758119810992492,0.03558642987350469,-0.03748827595257587,0.051352884213064276,-0.28052546267358003,-0.7970048076974574,0.6966526230464046,0.5996244126072362,0.35695007906979115,0.5168689511276614,0.0099153144148596,0.979487793871046,0.18263879582294207,0.45238781976356424,0.5328158859996414,0.9134315027659161,0.14824975985228717,0.5182700915910513,0.3123841133811982,-0.8334396246490263,0.3204999318490587,0.7897547772290274,-0.5057663681718563,0.5086906459269344,0.6512257212448235,0.09030433310267505,-0.3385631812845743,0.829278570735421,0.06805099143006244,-0.9672271948919066,-0.8562723872940311,0.08594887623167402,0.24232349616108062,0.37113537186475254,-0.14955009760597926,-0.3664631672411549,-0.04177127460466934,-0.8121458590509876,0.22382412062276302,-0.3010752882039339,-0.6115793065918175,0.03574859293559107,-0.2976619596405856,-0.010003639502643713,0.32191045990930045,-0.930508735006725
-0.8265103700541461,-0.8097120889296896,0.7129823225395443,-0.6502620153556435,0.454201186632883,-0.25874401228146104,-0.5819684161084611,-0.2581908563790881,-0.897676983921213,0.3661486484208518,-0.1797468993661394,-0.5159170404907473,0.8178971535854364,0.5058122900682599,0.07749276849210696,-0.4528567599365563,-0.7972198809187271,-0.8093195828081579,-0.7802121641893092,0.46266679894435836,-0.9902128055524703,-0.27121549519170873,-0.23561875759029094,-0.40828906996233505,-0.1923057077751077,-0.24443369618068467,-0.6108028512302816,-0.19311476769873615,0.32245519592913563,-0.5961207364666143,-0.7352375180452325,0.8351562704601709,-0.4490937882534244,0.291562280670015,-0.20965521507335316,-0.45099915254303546,0.10484392717891444,-0.6038414212981348,0.9449016972870828,-0.8004648483438104,-0.06642064000791215,0.444533980917581,0.7682898997125918,-0.7797443387147139,0.35944697793635894,-0.7958374707485262,0.10655138012971277,0.06599059964240495,0.6024279591559369,-0.009003915759268066
-0.5589987032800972,-0.9767968689813171,0.7507404204229648,0.2152521317363485,-0.07295988059390734,-0.5151036437511505,-0.7013970128431892,0.38937841001138407,-0.21303253835745195,0.02820386203383851,0.3610383605761416,0.4763149646220156,0.08870968810406021,-0.33148152424025745,0.07457535655157166,-0.2600460702138643,0.6120236514090428,0.9104065397742306,0.44267579063791984,-0.35575382372366304,-0.9010858495784696,-0.729250891913052,-0.001757548042760737,0.70472879267737,0.5997696947870165,-0.29048435621849955,-0.46711866349687436,0.6221303286116643,0.03978137701989748,0.1560721649406832,0.8737807319436217,0.004533335268167349,0.9929516155905087,0.5030723731001356,-0.6847939897652816,0.22217198580383446,-0.746172505404263,0.19690071156551747,-0.34042018664317686,-0.8087408954671517,0.5248378886431022,0.26807687724962526,0.046482119166308844,-0.3401291656798945,-0.12019631784611517,0.6500522498306484,-0.6353733466949544,-0.10027449638677555,0.729515563519411,-0.4071442417100357
0.6457327681207354,0.9958783975194466,0.7613401394374404,-0.3336770749176762,0.47918939874978905,-0.8219031966961774,0.9662794095220035,-0.5226496544398224,-0.24434141876960058,-0.8204957761180678,-0.8814374688674377,0.13298390662317316,-0.7723199839371176,-0.483918076170734,0.021915481117860347,-0.6261651566996682,-0.6105916688443371,-0.9074727128671838,-0.7725447520109893,0.8038976315655899,-0.4412750478950419,0.8179021322938255,-0.8175992828868924,0.056930859429947245,-0.40032272283057335,0.5263490150313799,-0.4750742494360344,-0.7010926618183624,0.563828353127653,-0.7837114999309985,0.11130543631805734,-0.4592437331497571,0.26078222882196833,0.736344629151936,0.5698106503007425,-0.5623111188152281,0.7824530033999031,-0.05544479205656372,-0.9863474239163862,-0.40012859588884486,0.6823884897524176,0.22684353522563816,-0.06138999740883189,-0.46623868810780145,0.861729326390783,0.7405653011762128,-0.33889416138660655,-0.2299995636298411,-0.20138504808726332,-0.23924715495823956
-0.2903029441135194,-0.8518874135281456,0.19273303839799905,0.3070506220707515,0.054383262911469776,-0.1679882205002552,-0.8662341788628998,-0.3278303925061673,-0.40410611669388685,0.6741446665219647,-0.593085090943393,0.799561049566526,-0.44165871662430356,0.9814352416941032,-0.3567640729157877,-0.4966422645546318,-0.9879446105975914,-0.39743020905115434,0.5381234914072324,-0.13102667982794525,0.4947724151731243,-0.9654928149988601,-0.4164993669983921,0.20800628630607854,0.30279050693600573,-0.4442759081492441,-0.013156851426284533,-0.4663897751284374,-0.5900834192211042,0.4332439737777677,-0.49630241581072543,0.8357068000202442,0.9210232010146201,0.6235633170501158,-0.8384298878581632,0.7327447750794324,0.015204641636451077,-0.22653774147394157,0.9832569626393688,-0.7156860889241017,0.3576447196667465,-0.0047960481185684856,-0.6658767282345147,-0.4969023330305993,-0.41778779382188513,-0.8114622855823063,-0.9588679849800109,-0.941994000936187,-0.8709873824372468,-0.4070393800556341
0.17770324555830053,0.8823823195957998,-0.07459998889652353,-0.6290989414640326,-0.5559241916846206,-0.8866619413345107,-0.010729439169090638,0.34522716042549706,-0.3750686331421167,0.6030856657479874,-0.6623732048029144,-0.9691767586956231,-0.0700380429126164,-0.7379628551700456,-0.6218659298569064,-0.28475479009777005,-0.809463715450014,-0.9418633158195173,-0.9279556025521314,-0.6359027847437269,0.34585459527748397,-0.7512214977003658,0.19174202541636243,0.7857636863925667,0.20842506350810686,0.3668938180560175,-0.750547758185592,0.6140768719763322,0.46430377102461884,0.3130279434982812,0.18016895644307718,-0.6936455677560308,0.028636047850974067,0.7263124885535569,-0.9435123764121266,0.41232359343025504,-0.1602710177900757,-0.31080859467517474,-0.3397478792172641,0.1992588929592195,-0.42133796076814156,-0.7919660974547486,0.7237065647708646,0.6288672035351656,-0.7716126680253715,-0.7153217857066039,-0.010887779399282427,0.6953977300094661,-0.5497065489658218,-0.8883780893794724
0.2871530013117153,0.24083365508807097,-0.23554108525894257,-0.5070063181473102,-0.48516707162048867,0.9419476726808439,0.34382545607007453,0.21571185591139497,-0.7501013836323384,0.8655996057957732,-0.25173512428541966,-0.8914246003268355,-0.7644822964932532,-0.36940785094277573,-0.048515949700208005,0.4251840325569689,0.5265786286932468,-0.8319761880250925,-0.8588360895302447,-0.2386933350122229,-0.4923289948835786,0.3621670170447435,0.7155478424755284,-0.6248409460373455,0.0685517437271318,-0.2578919649344209,-0.5488001265243353,-0.43261327495507995,0.4335787408711055,-0.10909327284606984,-0.6394838113362846,-0.5793952376281782,0.959110799851988,-0.12220856089920973,0.3679229883841858,0.5184778856808624,-0.28830622751574175,0.12407938987438638,0.6138268985623379,-0.31096200429284104,0.9469309217553555,0.47594299544508567,-0.45948984331469955,0.7040668837510481,0.013315669141567898,0.351239625369129,0.8073024149588173,-0.8643029586052019,-0.9867192371109728,-0.3030945873411278
-0.43965842117188214,-0.05539388846298077,0.16097629487773424,-0.6751431773508751,-0.7934556508592776,0.3001987779185159,-0.6626445120779195,-0.3946219760075925,0.3150217626436549,-0.30000956742249985,0.5822337870978185,0.8270091447429507,0.0893890062655689,0.3871598933926105,0.616911920314057,-0.09914565042181123,-0.36321053162478467,-0.4598487567757159,0.5598649082702815,0.43357211821086583,0.368002799388774,-0.35090655613398214,-0.15040263114640118,0.13446891115949777,-0.5278459913628897,0.13875077453027296,0.2333631039168249,0.7558202264638847,0.15167054205740704,-0.5784791483862793,0.960848823938455,0.5274427041758105,-0.3890648949479716,-0.09414897161020819,0.7725886161072487,0.900079258191872,-0.8722904067616085,-0.19246441550097115,0.19658999692783363,-0.3855373053233777,0.07544959524961736,-0.6773964085766065,-0.4317722341361334,-0.8880243883804558,-0.8296739144663638,-0.5121395926619204,0.8297603224056929,0.11123715634404219,-0.14229231577460277,-0.5546197241443097
-0.677777360841186,-0.4071308644128382,0.7156073458797757,-0.3726799144580456,0.7515771058832605,0.042294832304348606,-0.5589212070200071,0.18016108926640917,0.0494059486124141,0.24784039227170906,-0.59580729058477,-0.8218725358903092,-0.6223333334158043,0.34351471143479695,0.7610954270071413,0.8829698037177928,0.48186934885285626,0.7074208949993472,-0.9255520106210938,-0.3744851259569738,0.2621394706366511,-0.44045565989105295,-0.9899928362093043,-0.6013756786519833,-0.9779659063477399,-0.7788091778201405,-0.4875331534679076,0.10044930918138006,-0.20438989366353033,-0.413502981861364,0.326522353818992,0.8043502264666142,-0.46485069745638496,0.3947226443079953,0.8675250179758897,-0.6480764135534655,0.6191943709442377,0.3805793078237718,-0.27519510562902794,-0.09784285930705194,0.6210838931780165,-0.02254111288042182,0.7442994603200198,-0.3361563519923799,-0.8108630597274866,0.6658317530198354,0.3089108641048163,0.18506039423954068,0.6763502460751655,0.8413274617930276
-0.2762332348772555,0.1501299835327432,-0.4766973366077156,0.5681682358005131,0.12352610059516489,0.12144753807678355,-0.9441708624533041,0.531188015842419,-0.2257308476172466,0.3930086987776662,-0.44361221562106923,-0.44187534548932295,-0.6199910239543059,0.1537188156350724,0.3364288678109201,0.6464796070149106,-0.5043371668081643,-0.29918781591143906,0.07919557452741754,-0.33434867251867617,-0.8448048257068836,0.7916797764610991,-0.5391174613486562,0.5968685440942876,-0.8529965683404475,0.06899338183818482,-0.252940500110969,-0.8953802704031227,0.24375234319131822,0.7235889925304505,-0.8372419581894448,-0.038562302277240224,0.5497184524481715,-0.7806224109662997,0.00024000760295195267,0.13577404924630876,0.14896886852490854,0.4270288256339696,-0.14269237549829172,-0.8721120240831146,-0.6705068972797453,0.16466871420126405,0.12906742252907832,-0.9696458459435517,-0.8035784741136076,0.30978285305131725,0.18242683732105702,-0.9632404841848297,0.44121374898513166,-0.7861479211395708
0.9276768803614266,-0.6725461521123002,0.06979624620424185,0.436510777863779,-0.6705862728894934,-0.7865807854037024,-0.8582467375508589,-0.4735418439276905,-0.6477582174369397,0.668318409332873,-0.5624595835977712,0.5575086086970961,0.7703069041844363,0.29356244252116737,-0.5403456872690744,0.6655794754018463,0.8418131196428282,0.6551458437129152,-0.6699712795368818,-0.8103542698133782,-0.7332171055404685,-0.6038132527343778,0.06520542675390373,0.7322974939615747,0.9194624185147384,0.8495231594677198,0.8818006154339154,0.3697710324659653,0.2675552168555133,-0.0952500220138387,0.5917233849719562,0.10450571735845682,0.43563830556079264,0.7210101870924538,0.87596668166134,0.11128997397191731,-0.05323488795271247,0.301153558584754,-0.24193770615393184,-0.03957089478766129,0.39119412016708255,0.3890213473270503,-0.7660677582100585,0.5419774915294175,0.6429892784140883,0.4921020783415352,0.5588388651926193,-0.19820860205440904,0.557926507169255,0.3841602929125888
-0.8121908867412209,0.6220385198763052,0.32246112971357976,-0.7026557201371244,0.17205203791344437,-0.8801462112417517,-0.1464336656462213,0.3578795043914218,0.7572232655509993,0.8812456774199261,-0.8466145162591687,0.08198399350833396,0.48573966126661405,-0.43437355156431323,0.14781303414034885,-0.1253397209524335,-0.982305898116204,-0.3986237569985286,0.6164163191195423,-0.9205818153170996,0.47546732727744,0.9970967661304373,0.5532168061419581,-0.379282177955374,-0.5660061342256845,0.596759172242501,0.27798679991146924,0.9711511820771253,0.40173143182919036,-0.9475147630768144,-0.4138338759727189,-0.8099007697785864,-0.4062229021578002,-0.5235307432699586,0.992078560413782,-0.23251482686881553,-0.7450184374094471,0.2936096818325036,-0.624372344419025,-0.7505275267200668,0.4994680016486347,0.6098316670222198,0.017092920962911484,0.23959232732592173,-0.6541497282514104,-0.30493416775439997,0.06923343808564275,-0.9337596711627361,-0.2938359758855076,0.04226844146317543
-0.9202399176583828,-0.6122272644790187,-0.31769722339928974,0.09785842800857258,-0.9018434387960422,0.6608793980856505,0.6517480332725337,0.2860812816432463,0.6741042363567746,0.15091347277976508,0.5300560730681964,-0.851321102722234,-0.32318054806367313,0.6881692173771912,0.8366289391456492,0.7030068259510128,0.23090573980391738,-0.6658089172194109,0.26724717564529255,-0.827857709677724,0.09743639726365694,-0.18971403920201213,0.2262998338851403,-0.8816480772424121,-0.6594080926806675,-0.023398802667248586,-0.4703336307848006,0.27896863334696775,0.008975529122381531,0.8571508127875345,0.7133346078121376,0.5092876873538408,-0.9803320492941664,-0.6743369843301834,0.03317967967026636,-0.6986837665100778,0.5635097166400476,-0.8571151947786046,-0.4878063657067613,-0.1381648291540224,0.8160329502964132,-0.19863847798343848,-0.3052192947221576,0.5898367650715062,0.49226674869149767,-0.6200173597233033,0.4867257207643343,-0.047889782316000495,0.18649651390886557,0.6271898578207074
0.9551033113855684,0.35664561675631967,-0.6998258362897068,-0.6164374367111428,0.9906022464538516,-0.550330746740214,0.2739146542124994,-0.46626031801983936,-0.3266560635372495,-0.087880720712739,-0.9792637569994478,0.6743877298673445,0.834536911094949,0.9146076001376597,0.44050329811358047,-0.53893896296097,0.03487266424120716,-0.9992837551696137,-0.17118689878306514,0.110014838332269,-0.8340281638279835,-0.7676105329600903,-0.8545197625953259,0.31401942062427324,0.02091694975083125,0.04767468901037053,-0.6542754823825988,0.22645698410889015,-0.7191969491053493,0.48638759553164257,-0.7363597683129666,-0.7743455681116567,0.09297609709325927,0.020632256946611194,-0.9676191241533523,0.14486845871689935,0.27292795911789336,0.01992252305997677,-0.35348747534281244,0.6682871191184057,-0.6957528917758926,0.22436926755908748,0.7785282165132038,-0.6863905929808019,-0.30159089156110797,-0.6100151456276379,-0.3261972263771502,-0.40387980081169195,0.9901509325842287,-0.8363759495961665
-0.30121153409876344,-0.05458105976100591,-0.6440504617449551,0.6274297705755242,0.27728642664727876,-0.9316140308927401,0.09343927921042094,0.8877348508331802,0.718912992314674,0.19587288968486294,-0.5952148773132349,0.970704529728625,-0.016738893257167153,-0.7614067952651913,0.062190444667649114,-0.01292971771095519,-0.5445704946471817,0.6483420434977168,-0.6976057105755565,-0.7933396798003226,0.13485953285541175,0.800581896379639,0.4878260797033791,-0.8686034197118021,-0.5006966910573525,-0.09224783428776828,-0.9247022946761344,-0.1600694138844877,-0.3517073367353929,-0.1018756324862834,-0.5861947236942994,0.887261574427001,0.053050218172066566,-0.02841485595817339,0.8817036892327628,-0.9902964159997087,-0.8089159756431731,0.9655397508399021,0.29229376105232674,0.7271690119506036,-0.7211125073589689,0.82225084365274,0.45394744900782,0.6797506438990147,0.817412566183497,0.7871431130160211,-0.665545324864903,0.12377985409268277,0.26235927465444453,0.1875811224512538
-0.18404012573896433,-0.07253337194002907,-0.3397473103089671,-0.7781827098438188,0.047013739415296296,-0.9000975710896678,0.3903884921475168,0.5568979830799027,-0.9029007135304963,0.5334680911507824,0.283210587649642,-0.17774377862813362,-0.6840542660854595,-0.7413305208625804,0.6678489017179795,-0.9016611734560709,-0.5642741596195169,0.3718572582697146,-0.3734214599426151,-0.14899584274775313,0.8931269007424636,0.9148341278722045,-0.2262892604723019,0.8343876345819703,0.4659182236234417,-0.2851242182208321,0.2267066482446456,0.33900460009264166,0.8587108486808923,-0.7189404773387787,-0.3723564701306392,-0.9034916122219673,-0.0815154279210819,0.04280896328704631,-0.9849714654027097,-0.30344650827687414,0.4567398574184418,0.1609117915886541,0.5806442541389725,-0.7889199325206719,-0.11099335224201201,-0.26446242065312797,-0.7503689577827475,0.9407253609336917,-0.46241986967409276,-0.593905023841039,0.28760538269559044,-0.0809298392706771,-0.2083573479725941,0.1827274080040674
-0.6702604608471924,0.49550951580822844,0.8092191048166376,0.7470623063099511,-0.40317936983038605,0.9417237909855316,0.5424659662585022,-0.07775621751948436,0.9586452968890818,0.35078905457148124,-0.12092309933208223,-0.3774400791174146,0.3534338656454814,0.16997817730180853,0.9014726076177972,0.8480726997833784,0.7496420141546617,-0.8686378664270002,0.2727759398416122,0.9683069428117529,0.11397905309730894,0.9858168417102965,0.38814022850063634,-0.3087542140136349,-0.8594872555840692,0.020797364624746684,-0.3350321776180062,0.5123268160356833,0.3215568961171248,0.7403465612701088,-0.6551278059342159,0.3169442711750867,0.890217116491181,-0.4672703001630084,-0.9871672327805442,0.1414381776892577,0.8657445943045393,-0.12531685321517816,0.2384283444042291,0.0850233907532777,-0.24763255269041695,0.9624557990997742,0.411114024473229,0.08002366333470379,-0.4717160591611874,-0.3407468601683451,0.7261482432018601,0.2406079841980524,0.34049610529808383,0.3082467262368006
-0.7953643138334492,-0.3206971120836337,0.861775285176165,0.48814316662446156,0.3994495972760608,0.5248914819695778,-0.39646476067893954,-0.48312639309396643,0.22373329311551204,-0.46546119912838957,0.2962902282129962,-0.525846496478363,-0.6466056574629258,0.9877639840052547,0.2602249503389725,0.23914102943218563,0.5432827858689788,-0.9016741666289919,0.7433845511055126,0.9921521731686468,0.3026851021223729,0.12537750517840585,-0.8197785152814401,-0.3762729689822275,0.4192344566717716,-0.31082671620136904,-0.6823720673682628,-0.27269363991798057,-0.905515535132264,0.283476276518148,0.6473034375777638,-0.5663697298895685,-0.26832928542540657,0.2294403722552435,0.598473694103815,-0.6435361476978092,0.6819059792776102,-0.7778725527194961,0.7571383095470152,-0.004128285892114891,-0.5156412711658699,-0.3042541092413742,-0.49432220339601796,0.9312318351105527,0.5559627313766321,-0.46070024019116473,0.6670935555240428,-0.4012831915437386,0.5984221522540141,-0.654125112836202
-0.2697576392755714,0.8465506221261897,-0.5079038237371708,0.7016815193972163,0.8071947768103666,-0.30898442452654906,-0.2260145870718442,0.13724022798821522,-0.06400606581045087,0.6531455101374221,-0.33017201313784406,-0.32177253419591567,0.6310698348740288,0.9963543601974653,0.6769147277337221,-0.88900186419595,0.9323285053954988,0.9919179394538207,0.04544564555433572,-0.31516890995642244,0.13417994512544473,-0.9831978048726779,0.6249101920833777,0.6146532054938951,-0.4475312768141415,0.590287235103175,0.968931594500557,-0.22332823272428504,-0.20159661503198079,0.8588424738895446,-0.8892798095547958,-0.20395390175314443,-0.30077028475102463,-0.6655037060989677,-0.5140046813240321,-0.8826368037807024,-0.1885616087407027,-0.48307580885721446,-0.7744979023872376,0.6032805206060124,0.47362457456496443,-0.1769950626498179,-0.11141326616400693,-0.5812974925973086,0.9780277769570018,-0.8089989090718439,0.8621737004399856,-0.9133704293519773,-0.3819403439973089,-0.24620702234251646
-0.9986749890418819,-0.7611986242865221,-0.11724685900171639,-0.2670885419485344,0.2607889887002629,-0.5545730804264344,-0.38821485537811706,0.9437274835125964,-0.015680270099627913,0.1469828033037197,-0.3873114126624786,0.23600091144073188,-0.6730664107626461,0.12791260494343948,-0.049357133176147316,-0.4235163945922442,-0.31696513554041184,-0.4575546237671181,0.5125080589404304,0.7587515323141157,0.37777296848132325,0.9765745463813212,0.5937767806373748,-0.7264502162950925,0.4587175769209595,-0.4931732693858597,0.8905549094130845,-0.33255371787394516,0.5978400469726745,-0.178630644536666,0.35673125666091376,-0.8280522080830987,-0.5340736174919726,-0.21189193372743864,0.3593042443521861,0.6874445416419753,-0.10757250932943996,-0.646747475438209,0.6931505912447504,-0.5855443849818922,0.7031473271868698,0.8790532001145944,-0.8690402492472123,0.6157355545117885,-0.2800113030214394,-0.7271197508790415,-0.7262248047687128,-0.33889006583170167,-0.09676277598392902,0.41189494529613435
0.4768001213737263,0.8506694456638744,0.9711738109410741,-0.424678700335292,-0.4386758889385005,-0.07899850233305428,0.7552942571167015,-0.6486762417043868,-0.9962284867067097,0.6036585822810961,0.8758123947349274,-0.04145857870249858,0.4227761525575876,-0.8991646820463841,0.2886987892075077,0.08932201008707474,0.9535538666541767,0.8550837263591285,-0.7058146676344697,0.0764890849550659,0.07909780666885613,0.20787726834264164,0.8368686650219513,-0.7348112568714453,0.6368143462350779,-0.2981859867299599,-0.42553445858090766,-0.10964303900389838,0.0275157979048003,-0.8134253867463377,-0.5759835838989688,-0.9355965475609848,0.8301291503565069,0.04279878107199275,-0.3425006479022443,0.6596421763380422,0.07460781694396368,0.13732221542367007,-0.7530253354316718,-0.4470979992193208,-0.6824634432384952,0.8498346379300847,-0.3079065747170123,0.10950872579688642,0.1783302673185495,-0.8665507961607776,0.01226679747594528,-0.7288730578558472,0.35642750773106724,-0.06269197322445474
-0.6123235896836022,-0.31550724584415535,-0.34146043643387025,0.4339375126156817,-0.8631436217617068,0.14070158905919583,0.6662625783355922,-0.3457310360326099,0.4249774876135056,-0.25547832044421137,0.9050266928771575,0.7807944064560489,-0.9341996433897336,0.30717128881447087,0.7203053264467525,-0.5933076996557864,0.25402548442552053,0.875290004434361,0.7338967259298778,0.8345035793794519,-0.45818174839530346,0.7215808562842548,0.8550156662365597,-0.3343200538952915,-0.998117649519008,-0.209285018320171,0.8101407017874077,0.5940397055259394,0.4240340381783553,0.8909197975512604,-0.5619694573658629,0.125886545309304,0.7501454471378955,-0.6008437957251663,0.08546595724041939,0.05810847885398318,-0.9205934611253966,-0.24991818943860877,-0.8931163147887102,-0.7308718415343696,-0.4400001125269831,0.17155186706896963,0.23483895292256185,-0.6067124039490658,0.45783307624859526,-0.8758628091302946,-0.8513866921989637,-0.0791622710734401,-0.1999752591859859,0.023682289009099522
-0.3751162171546052,0.2344975110260531,-0.9190848293799686,-0.27830567891541547,0.8996001020298138,-0.28848880871889904,0.15438888452250166,-0.9721879744450747,-0.9974413743776301,0.1590469629709328,0.15071774492693712,0.15135456806032443,0.040733476929214696,-0.7998068967924564,-0.5968531454568621,-0.7219912151785522,0.8337609090381973,0.8410420981579471,-0.6152689577765899,-0.3194200022148964,-0.19340076255676686,0.9506533361227661,-0.5647573264673434,-0.7682371452419354,0.5767346650650367,0.9541773329466652,0.8179736436874288,0.06295753486214928,0.22265487315784838,-0.6013700143713413,-0.16037466047895077,0.8131676335431657,0.7567522746382185,-0.1261720346573958,0.000515057259766305,0.945322622915753,0.3516810024063072,0.9329730506370706,0.041471771668200375,-0.046175463369253045,-0.6134136558765084,0.8045096782833628,-0.953581160595144,-0.2347737165498509,0.3963663425696099,0.25415150167952094,-0.9031323638217915,0.19192061753358802,-0.982370064297751,0.08433688188339616
-0.5294402347273869,-0.8910268431169898,-0.6130043433708581,-0.874099022917364,0.15821665363549986,-0.3017029835442465,0.4821685007789597,0.40454832872833657,0.4166501504019795,-0.20820907446706005,0.8316559059723119,0.2298182261836863,-0.4835371247186141,0.7786892712326778,-0.6358850044434494,-0.2721183276581004,-0.5890330287921856,-0.25817991596034473,-0.6711714767837348,0.9825543152324173,-0.6322519510712111,-0.22610303891699435,0.30908506687327486,-0.36257406567647976,-0.9629977348884986,-0.8867423266443982,-0.1943625936699548,0.18533594350587757,-0.8803923947415945,0.08997898519967129,0.1080485212329283,-0.9291980441256363,-0.838738867308873,-0.24651536485096404,-0.2528934115322464,0.5607669958140341,0.4651327896589762,0.2069323866067746,-0.5791684949784591,0.7943122421973545,0.41286662934806984,-0.8727194115523856,-0.4119394189779255,-0.22326912128801335,-0.7181415111557142,0.5581183265745367,-0.613680924699565,0.2753262175579485,0.15420436232994428,0.27620970591841265
-0.5183282147199325,-0.6670167601194789,0.8776168766023368,-0.7405541886147835,-0.1281490293280807,-0.803607986986347,0.8094523332026006,0.8919829276198835,-0.44101854893880876,0.037218024423646745,0.8846007576467999,0.5325814938637835,-0.6887204910556363,0.18585250995402214,-0.7636414942814367,-0.7966282628519831,0.5644037728680695,0.9937306871521927,0.8359860342466806,0.5860390253330786,0.8006496687370646,0.03686892322314683,-0.7654918852526732,0.5787647051475099,-0.21251430262953963,-0.13218751489796243,0.925636901966504,0.7336986437232176,0.9663219521201696,-0.1236090085549083,0.5153680725299177,0.6550963821961355,-0.8045122555815448,0.9392975714236614,0.3124023723259939,-0.6389535943675707,-0.12302542266138261,0.07603916460018623,0.22825034813928036,-0.9254663194589267,-0.9574159286420242,-0.7251549038303852,-0.8323552469090666,-0.3207528205654736,-0.5636226310078595,-0.6548110316605306,-0.46400671318349296,0.8262294973178351,-0.03423631852008424,0.6364003634658942
0.7879529360750893,0.11370414943304274,0.2563994421873722,0.27654404961298307,0.06549318743847232,0.6159191367045883,0.45912337657668034,0.6956542913073475,-0.2545069385657517,0.7391869264766223,-0.23237107119584033,0.3633456824982527,0.7800467485070213,0.6298776223541467,-0.3696780488903769,-0.4925157230233074,-0.5518240154349495,-0.5401301578897263,0.9982152596743246,-0.23242843378448064,0.38755256819133754,-0.20217190277543862,-0.9676238211045803,-0.7625832303288989,-0.001500110096148366,0.5008667409617337,-0.42088587186315685,0.8442153829911264,-0.47005504633919815,0.5324983986514419,-0.20898248211879245,0.9489594882553476,-0.2924129705880649,0.4278696805173633,0.45870890662596875,-0.09478461229759161,0.16212758651518167,-0.5017538451524707,0.5205088228230697,0.9379226656153788,-0.6364700309534145,0.30401921179264235,0.15586110076373794,-0.922765259701171,-0.1773525190636892,0.1267393287583648,0.5050341380168092,0.7287670045909376,0.8936010651309181,0.26824988017272056
0.7191672758468625,-0.5192863295052826,-0.8608380788841253,0.16014230578251454,-0.7071122335792921,-0.5333641905654328,-0.2291317813629885,-0.8842011959866615,0.5694120646832699,-0.6189536537886887,-0.3942717126034482,-0.5959733118297926,0.5815451890821665,-0.9400974883799751,-0.6123284510539577,-0.9315637224294584,-0.19223205753124017,0.8035455502075722,0.6828052214307719,-0.4557472783290605,0.16899652659612274,-0.770729989259928,-0.6128063970835695,-0.945005652096144,0.5148135755524664,-0.9557531102215893,-0.04423683156456504,-0.3272568523079993,-0.9464300389398079,0.03628893888983753,0.018782082808565304,-0.6828245131844585,-0.7286410332083165,-0.4833500688702793,-0.44456339545417034,-0.4054138777488523,0.5094316131616833,0.36430516775777455,0.1917901591828558,-0.9190903918062822,-0.4077057465812757,-0.3204797369029505,-0.20366422905655124,-0.8662044455306881,0.9543377571484263,-0.8371507633078767,0.42130115983642613,0.44831152142724184,-0.08007475270387054,-0.07348423722571462
0.253807120760433,0.9390126530566998,0.024909867122296925,0.7942597507638632,0.1082284230271261,0.7342977653170619,0.46800628773280295,-0.5709938944989404,0.9850401661167085,0.16366518307051214,-0.5086670666136548,0.711956835625068,0.3486998286993147,-0.04912398185282085,0.009425288263638532,0.5632728530994655,-0.07415290244450123,-0.3918552905783671,-0.44095572521734083,0.47643328448434674,-0.23437067002917755,0.20262866580573824,0.1372805107886278,0.5221511560727589,-0.4774440694894403,0.85091774069359,-0.3822767073709483,0.80028791105244,-0.34137398868227387,0.6524496495364532,0.10557754603912572,-0.139371576529151,0.8242418863972965,-0.41068997406813024,0.623965706168258,-0.4780093963965577,0.2620740236928222,0.27663499608308795,0.38221831854249044,-0.7306128756245912,-0.4499568032395025,0.8119793324802542,-0.3178626698911884,0.09356009664045861,-0.3824024440080377,-0.6435238487035214,-0.18931247228175418,0.7516864538200062,-0.07703402609312349,0.5545008625660375
0.6369596648482844,0.7215582016957401,-0.5798988988118327,-0.7154768241095278,-0.8580977886721631,-0.19783808466542263,0.09504610192115259,-0.14418872251690606,-0.21704001113684046,-0.2735718823102915,-0.6225692113732952,-0.9937277832804343,0.4240453751325619,-0.2768045948462051,-0.5164844407415538,-0.8603436233633799,0.25611833722549926,0.01978961879120522,-0.945259276525757,0.8445779299130871,0.12311244783833875,0.5826481325252448,-0.7096913346330789,-0.3692365096873166,0.6653989044031899,0.4810350860375,-0.8054238297099628,0.7254641505441379,-0.05839334617408409,0.47586875436200604,-0.5656553435811771,0.49865167786469,-0.9779372493836743,0.7110972294686868,-0.1330171909782546,-0.585050125690986,0.012434668379852631,0.390234350284981,0.4363967933840235,-0.4223702903303782,-0.8708756212971079,-0.6291721149404788,-0.7106923135916497,-0.40330214751003923,-0.6276118266115761,-0.5930326938074053,0.3010433080520515,-0.982905781778772,0.6260244983954019,-0.7548317362254735
0.9547240180760067,0.8428425732021493,0.08351214247592942,-0.721391623940065,-0.6906693190054464,0.4082045229846133,0.12340585228415746,-0.6587580846233786,-0.32978109832900326,-0.4978811923314075,-0.2012376306393272,-0.5981692233926255,0.953020379781967,-0.6124427945742538,0.9901971212680367,-0.9778139044617422,0.9274069302921231,-0.9246175263614232,0.9307343474982467,0.33111101846294966,-0.11896987758943656,-0.12610346138518846,-0.21098418808567398,0.4891321243374839,0.7707378136926415,0.4899437451678017,-0.9666760545681292,-0.6032449381341849,0.6974772912100684,-0.14726409489773484,-0.1103523204206589,-0.9810976064035599,-0.695825903358245,-0.9450237606620336,0.45105284598109596,0.5451363863066457,0.07904246762358746,0.456617426640188,-0.44684902990746933,-0.46522502558152323,-0.7540507090589763,-0.9309242223715049,-0.1701537963019063,0.5160694898387315,0.3767080083082468,0.6415034298015829,0.750721857890647,-0.7279802679023063,-0.8991348893845136,0.36566832894082857
-0.39544427103422397,0.3298740722342276,-0.601096507451701,0.04798966940211247,0.5088634070718671,-0.3185393232052617,0.7552450422126687,-0.39430257734497853,0.018349028323857985,0.07313999288944673,-0.34121915039005213,0.7258714381239862,-0.5252321518930801,-0.6948181261293448,-0.886173832673354,0.031052362238133235,-0.3670587280948254,-0.1663536742166669,-0.43381083668302056,0.27178151999556854,-0.4088548817115647,0.7959871720517051,0.7963010078395147,-0.20607654595760838,0.4852587870760493,0.4696594497523897,0.6936447080205727,-0.5719572118434578,0.09940289738444741,-0.1709717823730348,0.6212461857601986,-0.9562517365570198,-0.022584002876551268,0.7571606336277904,0.7044444167655834,0.5464104835970568,-0.8792289840488516,0.2728725252125489,-0.183826277016231,0.8081266262771086,-0.8827615845496362,0.7877541321046087,-0.947923010637772,0.32522559002635665,-0.3945041750263766,-0.14353429677074647,-0.9965800426620761,-0.6318533791917066,0.7308176909650543,-0.39357359178475626
-0.5982239596872435,0.01557646126547807,0.5903683280155958,0.06436828064093114,-0.007585262095914702,-0.3281716037042548,0.6845599324351871,0.5378594989239208,0.4498199975390401,-0.10970656255880407,0.13658743262250939,0.008371993810360467,-0.7938835264021293,-0.3865623462772244,-0.8971535656379797,0.6379501496282284,0.31873374611335825,-0.029227365740487676,0.4999623747917131,-0.6417183663907845,0.9772026495209587,0.652161676651916,0.6187367071700816,0.2743377037284501,-0.22151463933543436,-0.598305804104238,0.7183079067102026,0.31392697955655346,-0.9242567465377164,0.6268773004277332,0.35012339766564826,-0.0815726717124422,0.8477639448716161,0.6395305070384205,0.042052679301684215,0.09745691727635064,0.5486823574940592,-0.7428576705130882,0.867702143049053,-0.695234991834618,-0.3397516755067612,0.3622528794821511,-0.5198876234026438,0.8695216939690175,0.7764695562896256,0.7866192060719306,0.2231694739272484,0.1632058477788173,0.9138553187511086,-0.4273046533609771
0.8882326178821142,-0.7681042122448896,0.054431778372412754,0.8356955131517958,0.9861550953167628,-0.15142847293448547,0.8422700985475587,0.03581594335477767,0.53574964639902,0.4270251433662988,-0.6367196550502933,0.19998262035551417,0.6437943195020623,0.2868663957630594,-0.12239444490877949,0.48544352974108596,0.19869964024774467,-0.24519563077679285,0.5494132964013575,-0.3247580423859957,-0.12534851457952756,-0.030489213066735688,-0.10880238201169834,0.3947740254074288,0.981786313042735,0.4739183196389666,-0.27274882382586885,-0.9480074352001738,-0.34561397791396387,0.5366269153323656,0.13853274704482754,-0.9822954347338403,-0.5541295680953958,-0.1415702798532349,0.24977519181703367,0.6636888016530622,-0.4245214394788701,-0.46380721539291814,-0.13113716412249088,0.5355316059874923,0.41415121899008456,-0.016325396127747194,-0.9299753855935153,0.2925617067792231,-0.8495188267695222,0.019384851607637255,0.22766277072781826,0.7385590056806464,-0.2715986477853145,0.044095262126658596
-0.8042605050786791,0.7164666354278667,-0.5332797883993764,-0.9531658342035131,-0.6035276902291994,-0.10442116481612751,0.14960331127767945,0.6491403982816915,-0.6195769367117587,0.483179655072025,0.27418016548679147,-0.987568624963734,0.2980537243635639,-0.4776004300476545,0.3704428967269018,0.3922045871168566,0.04697913540772414,0.7451879077496131,-0.858085224032042,0.10241989393380613,-0.7520633793962928,0.4910844821298277,0.6893977452374331,-0.6987846605793869,0.22504115067065655,-0.7441108991946723,-0.39064703606082407,0.44490958522040946,0.02615982455558974,-0.06487409354067453,-0.7033786912724342,0.7117498607266244,-0.2743270512923772,-0.8701604215346233,-0.15468529164892264,0.09117477264189067,-0.497877110620483,-0.35618498229511764,-0.32693404570872475,0.21126024415955502,-0.07542631591005111,-0.5459008711177529,0.09500318858745205,-0.21778372563628057,-0.5082302037716789,0.2502511981642569,-0.19198788829634295,0.7847331797100244,-0.4884337037179969,-0.450864786654011
0.6639252777402753,0.0711783331214133,-0.056513499423573865,-0.9839903289235453,-0.5904280039369153,-0.07382733241469608,-0.676006949843933,0.8599163264254823,0.5430398344504321,0.8731689407061308,0.4021769512175475,0.7668388113821645,-0.9905294922888608,0.733366801311019,0.4113391661093072,0.5479483969598589,-0.8250334611356268,-0.12871926560533242,-0.3507399050806712,-0.6164170451672538,-0.62672116502654,-0.9284079889419878,-0.1757986774716691,0.5607292009054342,0.9316545952412965,0.04611771724042557,0.9276517483960809,0.5124240608669726,-0.15920222094564263,0.7697050219437737,-0.8359984290731525,0.018824768603168063,-0.5281902688616799,-0.8868780774691539,0.530844379916207,0.2005487858904138,-0.21896371034575068,0.9082156139657678,-0.8929314779798713,0.8777406311802063,-0.1768080291229822,0.3774177758758698,-0.6035206923783133,-0.31634865418662883,0.45695726583646523,-0.6713931909219091,0.02865834336666806,-0.5037940730000501,0.829775413943603,-0.41737242243614214
0.4043826799172894,0.6938168655976179,0.6745986357349155,0.23023776218489866,-0.13965620654730038,0.7071364943122924,-0.16920325508372813,0.7522934418095611,-0.4652502421972179,-0.04288321165717901,0.4875513691630381,0.4370723289497438,-0.8604982887436888,0.6631089015824372,0.8101167512418885,-0.24410027614182084,-0.49013620477798436,-0.9994108117510203,0.6957324462153592,-0.9675963440736657,0.58874500883246,-0.6076756517836851,0.2766259016300099,-0.36450865180970493,0.9675437198449325,0.9841560395123844,0.5951292931360489,-0.5014690985214534,-0.5947836026023756,-0.38614730866421576,-0.791810805365501,0.9169249816561696,-0.6739005775964722,0.25755977807800534,0.6670719706979129,0.17146153575234435,-0.608278072166883,-0.5173304082315924,-0.2444778623909314,-0.5029689544556677,-0.9904482308371717,-0.9951382247731931,-0.9124873336686498,0.14659897556940327,0.8828261838114162,0.6363675193471432,-0.03092097988883824,-0.23181660777217428,0.5021624892940904,0.9328989170727044
-0.9197061727486479,-0.7811670423035606,-0.7187871098760781,-0.9851881269158422,0.06999398372152466,-0.4484650517954011,-0.4740235302893713,-0.12822748635958092,-0.1800525985224729,-0.7556150814164911,-0.2521556876917236,0.6075455319257662,0.1577027833923379,0.9703904247547694,0.5523653496737978,0.9125600160270383,-0.006562883529400487,-0.8278326003764691,0.037063543822789535,-0.7466601375886388,-0.013751456319546773,0.93715785764853,-0.37750104338717105,-0.2719292892886491,-0.09799087460838163,0.6109539535967741,-0.5345206638346631,-0.03907024890819388,-0.2400055020292543,0.6754885283324018,-0.5089913092885081,0.9718295452128866,0.36510510203533053,0.6643910509429702,0.785187955484065,-0.844173545196196,-0.3073631856967791,-0.43196336649148515,0.8915176925666984,-0.004484868386815166,-0.734977497592859,0.9110572307997006,-0.12017682859461776,-0.2039142157540933,0.2960651686951786,0.5241970122756271,-0.2141058460858306,0.8671288149523588,-0.32997003664814994,-0.7292120979657838
-0.12540220932713497,-0.21897614343335603,0.03413833148717571,0.5061906867969707,-0.19584567012656495,0.4246570797776317,-0.6944355019707554,-0.01215413564211032,0.53663858000526,-0.28840466827401856,-0.16332135228048528,-0.5573579353679964,0.6185736339398561,-0.12091699884432205,0.6382527508698367,-0.8807344658019143,-0.7841518318830888,0.1448575009376597,0.29005459439579806,-0.48206281660214245,0.6408934783618291,0.9236282659181763,-0.4892268923959856,0.6725300457363075,-0.4650022382161858,-0.20119344999345457,-0.3556273607373145,-0.22808682144303327,0.5020217655850342,-0.9157796859941449,0.30424298658107696,-0.9126364156009281,-0.5400731423618118,-0.36438168513529745,-0.7998024965895945,0.6789785246780496,-0.21629804816742704,-0.724699007827672,0.49856991085126245,-0.26703544033086424,0.5352414284933203,0.3598832261941317,-0.09115998968682237,-0.1034503524432977,0.8175749430744048,0.8185879899907982,-0.5758968422392611,0.8105048332282345,-0.07588281927108553,-0.38109048410754554
0.48191727403356344,-0.9234849255275205,-0.17183389016311312,-0.3608672258307126,-0.5958323022730138,0.3101311193574321,0.6466922106419275,-0.6019367088636306,-0.9317296297098581,0.24749056998797836,0.8391184347738307,0.5926451054208169,0.5384444906454854,-0.6513379004724569,0.3793926599126859,0.5207396975688615,-0.11843393601759555,-0.33977143759849315,0.4629896100060876,0.17523994790376873,-0.5863658932166349,0.7879765440081031,0.3167910516639909,-0.319665604540295,0.21939969775514756,-0.750471565794682,-0.39940069293939207,0.10013145521712152,-0.5441878688758914,0.3406058423677353,-0.47683256159143894,0.5636741004226483,0.3476392655489594,-0.9557593354070966,0.4351410850608167,-0.3003776098025063,-0.25439528136738987,0.1803764931296974,-0.47714035999152593,0.998608288941039,-0.6200124474810503,-0.5594822822155333,0.29816070411381934,-0.5335081739740459,-0.9770880096108477,0.4082970223595702,0.5583632429338313,0.715318827159455,-0.7092195017638419,-0.37881774241028576
-0.3648839164865303,0.025597634585488582,0.4402625789494585,0.37815177719519044,0.7385155503954696,0.6422391461383268,0.13566961240993525,-0.8648733850592748,-0.39902058462846934,0.5943282638197898,0.658038697823681,0.6322313713350736,0.6101901903154657,-0.4709939390915966,-0.404092579909203,-0.08259738225714874,0.31786737404466137,0.39569160518144075,-0.37418159520826744,0.12239361928581516,-0.740615714290808,0.062165346651991915,0.008223247807559009,-0.0430958456495405,0.7947157657778816,0.8534695807110212,0.8965976404558295,0.05263136853533035,-0.777996361790313,0.23896154241968692,0.10776467168095671,-0.756333063007103,0.5322305993994537,0.17032828798408606,0.9329706084047847,0.17592108086088354,0.2972280864383928,-0.2165033037424301,-0.9849281118814002,0.9397994137536232,0.3365374740063978,-0.3810569011108813,0.5430035728725162,-0.48010163151303276,-0.7020855941894891,-0.5614494686018567,-0.31928098271307004,-0.41394002955886333,0.805531269283612,0.9753823148380308
-0.0016494351466321833,-0.7355113941037268,-0.41272699885160447,0.10045639405109075,0.8067887030112348,0.4297543697778635,-0.1610677825207557,0.4684514643119363,0.18089697128707027,0.8716501747688601,-0.07687000057611693,0.5124341448018839,-0.16206607021166264,0.9490280818406593,0.05120585462600591,-0.5336906963787917,-0.933474636408674,0.617066152986526,-0.9663927028253108,0.6440382705252273,0.4468376867878977,-0.5369547162833191,-0.7115457871649619,-0.1941003463175378,0.6327470920718898,-0.8199916154208415,-0.1861126413330637,0.720188885406008,0.5079112469078211,-0.6977045986620686,0.1540990876535837,0.5673596009165683,-0.010379073401789674,-0.8698973436912895,0.6106728820386207,-0.8620225715349187,-0.759873069128209,0.7648006807310225,0.4680319390098161,0.4497086574507947,-0.7829090140140096,-0.5636286588502676,0.9710209290977707,0.45761510031667174,-0.9803933002443234,0.4531197883658006,0.9510811425927663,0.18173698450061448,0.6198935570326642,-0.5413818423894552
0.16779609144873597,0.3286406860429384,0.6481749646713261,-0.611708099147969,0.24648932902727982,0.9967982979296315,-0.7685932250433535,0.7227951253292653,0.14091113590009008,0.7032244576200696,-0.017401720897746165,-0.6098316680840227,-0.5412224516054154,-0.665555511503626,-0.8702672823376592,0.5618018887635893,0.11401070996530938,-0.31694581769505015,-0.029977654421213362,-0.786373606462404,-0.5497353588525945,-0.9596532325368246,-0.20496881744458995,-0.6789118756887698,-0.644268830797674,-0.14054834468682864,-0.830306242846917,0.0014789199058119484,-0.972483504984268,0.8508510096194744,-0.6982457893788364,0.7578568649360118,0.8687233775840584,-0.7954752820463944,-0.046026708974222674,0.6925831946763796,-0.21653250199455254,0.7963284968853236,-0.6015171055480989,-0.4636434547904227,0.8111685971859148,0.07308341863651935,0.5291322890619212,0.03090239955236096,0.41486658454649383,0.9329103793561331,-0.9465123754116188,0.9995314376100051,-0.004854857748964991,-0.14541125189408588
0.14052326019344852,0.11093638196539102,-0.870353874856888,-0.44670677801485115,-0.4479403666514724,0.8581317442041612,-0.30244279225281445,-0.34711501009201606,0.49566259327271145,-0.41414291242627244,0.945802614036066,-0.46765572918230625,0.5529207942119558,0.9766759637810829,0.9039846697941665,0.8913067482577545,0.2600815426931856,-0.5655392150247397,0.0847128839828285,-0.793623596252068,-0.5101045478556638,0.37827828290246046,0.07431827167491478,-0.18824360098051862,0.8873152294495766,0.829191766120453,-0.1910118324370288,0.3936172434619034,0.8230203875180396,-0.6854301390630905,0.91111689419755,0.9277424197063832,0.1419150491000979,-0.2991445272316673,0.9013390018708132,0.7407636368676344,-0.7690279190816748,-0.4988717772263799,-0.9317263776296923,0.34409218864538405,0.583622299876799,0.7409750037926774,0.40440487855969753,0.4643145924199169,-0.21722297296938786,-0.20280807184613892,0.8929781527381482,0.37087435063702057,0.4982307237725646,0.5576132015348911
