-0.08399184997314635,0.5606405156558266,0.9810088906591689,0.34581659754211536,-0.2910911399465418,0.5760444149972686,0.9535087490995809,0.3079127589445726,0.7031140481390581,-0.024746281778053825,0.5503875628825539,0.40551076704312616,-0.8604159254610539,0.5458985263217367,0.7076335216356212,0.970963897704289,0.8763734459609378,-0.46498616099208767,-0.8654690382956446,-0.5977465314220121,-0.6386544979121136,-0.041687596721323716,0.7383893398899204,0.2933958968110991,-0.8746937821007348,0.590838180496865,-0.9146003972828057,-0.6091427791884332,-0.33405382519324356,-0.04290288632265804,-0.7508054895756147,-0.01805274383846922,0.293633237712001,-0.582283866920322,0.008333032091641823,0.8597610024467531,0.09293936490781851,0.2844701886611426,-0.6100351360895501,-0.7225195263789199,0.520013958667675,-0.2364520147010215,-0.7720752996475021,0.2922770880409856,0.7125786015600157,0.5422387438802679,-0.3131997016571775,0.2360316966703473,0.5917179290885161,0.8224358368803334
0.6173063138362322,0.5788365007143649,-0.10723364984900208,-0.15072871715602643,0.8507217016610983,0.6040179325949783,0.8761478218307832,0.6511378277155783,-0.06768753719338305,0.9130245029445867,-0.41989077291784505,0.36698629088943313,0.07245523024269485,0.4624254814343204,-0.5995543683484337,-0.9591745254902027,0.2317008635267459,-0.8156681076536295,0.6312072691915822,-0.6373335907844692,-0.359264263148557,0.12772204903502582,0.9094577482613081,-0.995548637675006,0.8788348699832274,-0.049738902219409575,-0.926638631793475,0.4231728124996488,-0.8893765635715613,0.20283945283905114,0.3748049795070537,0.9627965079996665,0.36591155869188696,0.7616133168984612,0.787741239754644,0.10949255007769143,-0.4318828057547739,-0.7062100042139299,-0.11308497466739109,0.7575999496548133,0.08186711811546799,0.964662402845583,-0.05572521331634994,-0.97046097369697,-0.5238322094332506,0.9714845106659636,-0.5824559945257286,-0.4561806380649057,-0.7196099280758824,0.7968280755689824
-0.18541174257262483,-0.6226869037773027,0.8373196408597232,0.2029515959793834,-0.19058001601317742,-0.740204377736123,-0.20037070386996125,0.144491265615867,-0.6947759562799152,-0.7773890782847324,0.05692030515765756,-0.015062890346783098,-0.2252690032023109,0.42267403930905245,-0.407216414628196,0.538135195056808,-0.8083013853868084,0.5259166145971721,0.49446867981905485,-0.8284002111629898,0.799605989510927,-0.8691302118156298,-0.9442831451508183,-0.8644918413174701,0.8145270166681529,0.9137069027280164,-0.6159918361359122,-0.38173874061930335,0.9889337876404506,-0.027014553000164088,0.23739531010771364,-0.9528745398837617,0.8173833851266419,0.4386152989987324,-0.9982124549870742,-0.38742005961352777,0.6581384690618421,0.05323636976971169,0.954681629038941,0.06618554184052994,0.9670439585852231,-0.15947335788758032,0.9061680965811192,-0.06745876835344722,0.6275122355932813,-0.3463932772648093,-0.7303651444912712,0.22693881543200078,-0.5718118367206053,-0.9264004182200656
-0.0027814029618145053,-0.9316078425548617,0.07175028335660927,-0.6944016606251779,0.012748756316417253,-0.01694036879386218,0.08024821055328835,0.8114540058592076,0.10163078617388377,-0.5850069462412401,0.1679669528736426,0.882287849725539,-0.2567771051199361,-0.42789714431634973,-0.020715032921169718,-0.21337241762766335,-0.21852600310697157,-0.7478615843791921,0.302769764459192,0.873956682699031,-0.2310809112653397,-0.4130534006655675,-0.6414695642757542,0.4195242353467954,-0.620008446253662,-0.3296130840093716,0.3236177468378215,-0.04574931137862093,-0.9116457872680053,0.7002253003793016,0.9928258373777198,-0.7959619850171624,0.29836395741917787,-0.18057368321942546,0.8962133039586178,0.8137022652717826,-0.546863127416012,0.09283344767411184,0.87294412936316,0.2518181928792843,0.24989381404198008,-0.2904998882454064,-0.8218811019142894,0.22723729992831576,-0.08018561777499877,-0.6493969414598362,0.05036908199718404,0.6768936478543319,-0.6079734636374851,0.8807771329250773
0.2644961295074747,-0.6815917623257872,-0.6661825464880082,-0.7239616004325202,-0.23023814158025924,0.6855245262275311,-0.784422904105371,-0.706663724764261,-0.14289356782929286,-0.09866422599392044,0.6825647307509622,-0.19679211902051785,-0.1449678248013173,-0.8845177361712373,-0.22608830022511417,0.5858158796862989,0.6550818266246337,0.6582501686730357,-0.4105842891445167,0.5119931193191567,-0.8677758786004238,-0.3471989180211158,-0.6854597282160185,-0.12780238216404072,0.7918146424926171,0.6273024922555988,0.5983261860920986,-0.8874922259322741,0.6956798517849262,-0.24617333895147409,0.46543370824175145,0.6897724450406302,-0.4623151775617025,0.805965222506976,0.10635812184358573,0.4636896331704905,0.717382554800905,-0.5101096426463105,-0.697336888820413,-0.039920169550079265,0.6927583459417278,-0.39046857285830194,0.328269006626295,0.896916739437025,0.8460471772918802,0.6415662711721459,0.9379480203915724,0.3518739886048867,-0.04624693584260209,-0.8038661490341701
0.9063419071267567,-0.9987535028342015,-0.9035070574085511,-0.7770162883226553,-0.4605706898896388,0.30491402117244415,0.8469534909172698,0.4520114743627911,-0.6374508615262786,0.54499115060558,0.3510915831110327,-0.8917525712727472,0.9999055197672885,0.07244712265504394,0.31729845130363066,0.008465042861175331,-0.15097590878400735,0.798297094158856,-0.1054433565085261,0.5013031906419132,0.5067267842991986,-0.7630673691108982,-0.5052121645935456,-0.1873771505869879,0.012446198125427022,-0.5141445619661216,-0.7870204266017182,0.5934935573601298,-0.7627621033501764,-0.31380399319988295,0.5179135800073502,0.037759627888230396,-0.5782788285150997,0.8055886212545902,-0.7945971865882886,0.02203672173954352,0.7697820678744884,0.6168872527439911,-0.5633388934231814,-0.5908879511967339,-0.3835538144213343,-0.697767936728143,0.5400055384404384,0.8009799808400816,-0.8940929975906466,-0.23517499743480896,-0.9375731640659182,0.3240169697598161,0.03281536270047081,-0.13022446252326592
-0.4702900726852586,-0.6029264064153955,-0.32489853640018607,-0.7272803108834889,-0.31726258294422593,0.649178233462642,-0.009332506875372015,-0.4968951408607195,-0.7637288154139621,-0.315140613518923,0.3931164752451506,-0.6744650586677132,0.5758121499856558,-0.616253840185825,0.29127149735256297,-0.014016539860933652,-0.941503264246315,0.516173134583605,-0.2595451075322259,-0.32725404342939335,0.9460570388304071,0.8374056802055377,0.7107314898929864,-0.5784096795445721,0.7811689293660331,-0.21058447623599097,0.7156753563025277,-0.6678397804543005,-0.9089908054551792,-0.45994116052388545,-0.7181233366735351,-0.9508016452866257,0.48447110638126967,0.49500520757955,-0.3539649672068136,-0.36120650221643613,0.06680701683579204,0.8134976458242343,0.866361457848167,0.5111085157431703,-0.2131990515167288,-0.8719716689306342,0.14953537841871256,-0.26303275293033657,-0.9362590023201749,-0.07679508442936844,0.8712277348630172,-0.16942424939453782,-0.7501763367819482,0.5093891630280025
-0.6325795408989917,0.7403003813026227,-0.8740136333684084,-0.08616431066178343,0.24633128903856427,-0.9448343345838215,0.05335216572603796,0.20391939228046752,-0.6216263393519422,0.21618637648621097,0.9753042752366224,-0.7023496048887988,0.6465389729778924,-0.7429552589817658,0.9490680540266019,-0.49658031983380857,-0.32316110021117184,0.09220609269300273,-0.10762704902974407,-0.41578651874453654,0.27766998076851457,0.046872679275918205,-0.5533366536863352,-0.5440071058196371,0.43957226899412083,-0.28053833814950924,0.9641108172228721,0.8233329869547555,0.2665762826945657,-0.9377440682792239,-0.9502350926911133,0.13838349993695453,-0.9095696527003534,0.6266730072324476,-0.11639827623490073,0.36848977364548996,0.6089668761785982,-0.6381698933086262,0.41249370243209393,0.4711930635509268,-0.43239418440432276,-0.9653573442371282,0.0992831162901503,0.7400662578610057,0.2767517863878366,0.9486896417351267,0.29123820866715555,0.06793552827633698,0.776476634105146,0.6812594602378346
-0.06752305426593841,-0.5793023153029015,0.6454181081727032,-0.09337641304014754,0.149343212763565,-0.9275785768539274,0.8797881967699406,-0.9563186995759263,0.08763814913337653,-0.2568203092248974,-0.10588187332026744,-0.5720203173651306,-0.7722158862444692,-0.3957310482471501,-0.08913264879188709,-0.35731635828783626,0.6121450624463738,-0.040503939935740974,-0.09798843964566006,0.9402983287864105,0.21811589405055398,-0.7795908605608057,0.4404808022419605,-0.6372938020166217,-0.0674449343876582,-0.3726861847716564,0.5485883618717099,0.04864703463001918,-0.5736536071497195,-0.9148832195602135,0.27547024126316155,-0.7000077992053522,-0.7270370114087796,-0.8954697010785342,0.41770465722354666,-0.3939096179060875,-0.9535992686582181,0.21958707934507504,-0.5024516949860491,0.12316594816083581,0.5182834159161174,-0.2808750650341447,-0.29799426757891956,-0.003097649520053758,-0.995867482835533,0.13787292802554274,0.5610168683823095,-0.07977268716376817,-0.7476761254400779,0.473174807157712
-0.7312393064086349,0.07514875523188358,-0.016516664350369914,0.05870943387779748,0.7306217317142165,-0.26789979083473503,0.8590897042510365,-0.7386613025402611,0.5138391207745088,0.11851476244090564,-0.6670763752008494,-0.1022706864551145,0.9237169918449322,0.8596526730753599,-0.38648313308812676,-0.6704102641489836,-0.8801205395054273,-0.9395035473331562,0.026851336473418974,-0.39041992080831556,0.9446438119168444,0.07980216421656217,0.8268928615630408,0.0631571670984673,0.4352335910313315,-0.8946154250725372,-0.23979003213406347,0.28593720053613314,-0.5863122194539415,-0.45342395438725447,0.3973514232580695,-0.5896583509959928,-0.10206819906559039,-0.7350053357755747,0.8083711007986822,0.47372298579605676,0.6819272530744959,0.6058566423540173,-0.4485939337743372,-0.8290128418024358,-0.28013472045066956,0.5511023505834538,-0.9045941057279413,-0.9464049306386441,-0.6951012074471192,-0.9427297216458512,0.0952783363919486,0.48419579900539234,0.838480513645338,0.8836142716752903
0.18501672813379366,-0.55145457625915,-0.779588217148275,-0.914644023228424,-0.9672182381578083,0.42710435465405405,0.8761027375079545,-0.5228444266029997,-0.09564038427598331,0.18519038975381819,-0.8352313286931907,-0.5228626546849934,0.5427671763421578,0.43167844442432624,-0.12183395689830534,0.8399501499389114,-0.0356128552391245,-0.7014912810844075,-0.6835835178660588,-0.03107487844986867,-0.2603100611374811,-0.04189519006738329,-0.37843553917482076,-0.319303540951726,-0.2353582411676136,0.5416863776614819,-0.6971805342769177,-0.8664931224816564,-0.16601154527404371,-0.25076941175805556,-0.24908844103911165,-0.5366125730309133,-0.6420398254443992,0.8046107093152274,-0.7012346527448496,0.2970384971121136,-0.27833202269702007,-0.03716074532069469,0.17205238287784452,-0.711618895875632,0.27814420535350415,-0.9697091161776353,0.15093857464079574,-0.0532080235325163,-0.17073878182373348,0.8457708608225952,0.9128639801589817,0.7620556459101079,0.20690812770446276,0.9967351000869964
0.8850426018698715,-0.9524696023215697,0.8714832060071191,-0.09977708688360598,0.47418083801441113,0.6794626669353859,-0.2229713483786695,0.2239040393033408,-0.3895575404391248,-0.00606899310142317,-0.8812462757868381,0.32427113502839866,0.6930475758361805,0.045747464658272396,0.7770750533756088,0.3147438719268536,-0.7709333188336566,-0.8445273272778139,0.18227263069893207,0.383388049094307,0.4439880427978945,-0.9922922985987376,0.062168123343775084,-0.3244005610717797,0.7424518893520814,0.21020214262699877,0.8478361993327527,0.5485444144461972,0.2501173402920178,0.30877358272779976,-0.22476892325441056,-0.1243553404640243,0.3519080907496346,0.5707176519326388,0.2518050906701733,0.12562169946051838,-0.9742011347522758,0.23619914706739353,-0.28769952270987753,0.4419855803724999,-0.04252302291761545,0.16214189753314434,0.2703369880469709,0.09936286421217466,-0.1256870758462757,-0.28689966086623453,0.47495765221833597,-0.9392291673775499,0.7871818227540117,-0.3874981441951406
-0.6968855359354859,-0.20807863627339596,-0.39805535510677015,0.2257936689582487,-0.6883206035075529,-0.5285825126905115,-0.9453028284312575,-0.08493371851420906,-0.1988768718739512,0.8111047668040295,-0.9717266161578632,0.48573581206428884,-0.44990471633615703,0.44817523458822917,-0.12345780294602837,-0.0194157751534495,-0.6026389885225478,0.8526495518931296,0.14323384466447053,0.850981455662466,0.18322142160804855,-0.0579199577398396,0.9676200699977454,0.7557144061850686,-0.31808707367976075,-0.8313240002317214,0.6832365851410307,-0.028523772992676832,0.9925701552482116,-0.8326694750764748,-0.8193579803353431,-0.6347684129712374,0.4518437036048648,0.6269353275701749,-0.48417705964035407,-0.8776480355508539,0.725784523504514,0.9722548821892245,-0.8191828999128905,-0.6236405758466861,-0.8338334804201948,0.9111570901252805,0.8549548174257211,0.15068450931245636,-0.6595171142334083,0.7177488288802073,0.6547449574059361,-0.36332740173233247,-0.8158234718510291,0.740287475996964
0.8937536346191098,0.7470518229259785,0.5725993630374274,0.08849772451602322,0.4049056246652296,-0.40463459960522263,-0.8399157859960127,0.8533110608120469,0.674894545186895,0.6794891260447522,0.20696120795829798,0.21614709097334894,-0.07830182467078728,0.3798540207003823,0.9786943137907401,-0.6176113643751107,-0.4652515515810177,-0.35024258365883454,-0.2726437400634183,0.48461376654641697,-0.808632702554513,0.9838616675640504,-0.4522043972862675,0.6839323783979191,-0.23436380551253022,-0.20784323136549165,-0.2529745252827753,0.9846268409752693,0.41081035684745804,0.8789985946969444,0.9973384138737226,-0.14682810783765265,-0.5864604440284904,0.658462348396721,-0.1678686582784863,0.1880844233220974,0.36050953693744026,-0.3042141821913015,-0.5246319390039822,0.8692362249900943,-0.7672963438589598,0.2441204624622818,0.016641895750144298,0.0846635887854359,0.4573932394868008,0.6977700359843058,-0.8253006329221638,-0.40868042416841255,-0.35204334041076835,-0.9780779166687921
0.21286504332269507,0.9758951439055935,0.46726586926020064,0.7984627733731704,0.005665852064642873,-0.06343368618158363,-0.5150637824250442,0.9377546302908506,0.7964548093011834,-0.5521493087398056,0.14220730460216302,0.4067081544074944,0.1646108413651992,0.24254493132922184,-0.16811760978932166,0.13563677293260468,0.1712990391202811,-0.30247640251674646,-0.6680725682072689,-0.8793452251392517,-0.2837787335123607,0.658132964637355,-0.28388832786826435,-0.6722882524776828,0.018749984486190363,0.37616249698525417,0.016660236712204957,-0.460338106360363,0.7046126682605774,0.9862606500601304,0.008432989557568438,-0.6949149529085364,0.8094517967524759,-0.07275594659377271,-0.49041135036274575,0.41557615922815416,0.8719032222821989,0.08467497167430782,-0.9765973904315466,-0.24742625267537932,-0.3328809445455293,0.7136831809796979,0.6416231977098239,-0.9228056950964789,-0.23556288412639226,-0.6908110575773472,-0.3417758280231611,0.7095678669578317,-0.8482537628272804,-0.06846775539595296
-0.14467659353254736,0.23026396451595,-0.8481816426003187,-0.3955749564854666,0.8595285249054339,-0.691410318110812,-0.5747306853538561,-0.01953402027955853,0.8265353208800588,0.12188552564593425,0.12157634227472247,0.6706285105355392,-0.6738339061095188,-0.23019102089857935,0.9439882775935333,0.478423081739932,0.3345332014222252,0.29478148301167717,0.9290749747203766,-0.8842181535579291,-0.7542272633627456,0.3859267437561733,-0.49601984194411897,-0.1093370512441102,-0.35918913657222695,0.7165796308450445,0.11403117806760787,-0.882286580883746,0.3210980947603529,-0.26329333854219783,0.6912478911694567,0.06684464065537254,-0.9039316018473981,-0.1764808120315392,-0.9235312945678161,-0.929313442020001,-0.35081581936341255,-0.607425133805491,-0.18724595329654936,-0.7810988622946932,-0.3206930322637209,0.4094331931844326,0.905560105087491,-0.13821837914053337,0.2519477878698829,-0.6294715640486266,-0.9975916926833727,0.3099072292319176,-0.9826032906760792,0.8148283265289129
0.30646707079813196,0.14045397328170162,0.8448792388826494,0.8394805363856626,-0.8083481382983535,0.6969178922506721,0.5085127741248188,-0.13589090099790024,0.8946659612494715,0.5979275173281405,0.6711063509430286,-0.62646402994586,0.256426245057383,-0.043374328712615484,0.5240425120909329,0.48056519908567574,0.40407032188899106,0.7665967187614643,-0.026393941156201195,-0.9661258780835682,-0.29921217904224184,0.8907644382601079,-0.5813494518831303,-0.2473429683612023,-0.027944215457589072,0.6696978451024117,-0.7184649307701996,0.806231645388054,0.842275767515011,-0.98089953734083,0.6644228518098623,0.3336908319471379,0.7736961481101762,-0.4900214893776903,0.5661155051514561,-0.9303134007457976,-0.17230265940002065,-0.11752382467580613,-0.6875893218954793,-0.12918740206119905,0.8489567443868241,0.15647748668925066,0.4185677550004191,0.057259136980570835,0.27092528681753014,0.8556606724985573,-0.9665766211336997,-0.4666723502419169,-0.6665306263322447,0.3988747776446673
0.6823885495850708,-0.900688624523865,0.5932956770838835,-0.9882655781606664,0.2748205572946847,-0.9068923908445459,0.28688552312530013,0.2849659578160617,0.1469158977551911,0.5322365709620146,-0.9510178734292063,0.9021493559557602,-0.594627411035429,-0.7944175151696484,-0.1480695033079117,0.6672050027906752,-0.27443031827818243,-0.5053124301120219,0.25734399025744603,0.9278507057340591,-0.029545779247404647,0.47798258199474586,-0.04797475103834459,0.6229596804455169,-0.7431585533053287,-0.908657234237678,0.3865232146083678,0.27387691572955875,0.3961996721649321,0.552938850423369,0.7910607019849762,-0.8521140327530935,-0.04800850190814643,0.28398234002150735,-0.07506247974427083,-0.7168897185180941,-0.6811228521353474,0.18222363850049883,-0.7186810101357056,0.23150285993264774,0.9977634770057907,-0.2827873321606972,-0.7859893272557823,0.11498436163570336,-0.959385653427342,0.28027862657505964,-0.3364337848925767,-0.2665645604175536,-0.3185596056693798,0.9639638673798867
-0.2134635244466968,-0.8469413703904293,0.4976003253341027,-0.092999168028426,-0.9376784327422121,-0.19526855337917914,-0.16243279335936367,-0.5414500402944599,-0.15984444115523477,0.18156363255846353,-0.4310123203020273,0.8596631528009716,-0.17560212867334968,0.8183759343329142,0.36407941210738615,0.2240831942321746,0.7226690266338709,0.12915751149464627,0.3826021902563228,0.4051946858747718,0.3161606922045581,-0.06923351493251584,0.33679782938349834,0.06737444376551527,-0.13095655372707316,-0.6303723671566145,0.4426188901595802,-0.2828340515496818,0.578864925625061,0.20019267818467612,0.07727161917317416,0.048517844534561094,0.4165495580622396,-0.26857854612690835,-0.6639376017639478,0.25960565992376894,-0.5641594665806497,-0.8141271433264535,0.2087232515724735,0.20323024089068276,-0.02012423129488361,0.9279602769847337,0.43262311349326266,0.973217583282224,0.8047825721204247,-0.9429749199268859,-0.9032843200809787,-0.9131681664711949,-0.7024575173197947,-0.2941978158018107
-0.12580915288426575,0.4235839237807596,-0.9347938813899397,0.8787936075892384,0.3317010790128554,-0.8722601476791673,0.799864786613461,0.15196574499008364,-0.7434459398144388,0.29474681435424643,-0.5903828856043007,0.1345813599098581,-0.5183373233448939,0.2905646764918872,-0.7627648143696267,-0.7195119905794567,-0.383343748748341,-0.33357650608100964,-0.7747155338708807,-0.7599685940446844,0.5838619156729551,-0.23643768995096526,-0.5634028526265646,0.799156557316421,-0.4450777116011915,-0.88601212733247,0.2816692610070043,-0.21563949300736485,0.924847195117412,0.8023358650298719,-0.2761644641505897,0.38599122028436905,0.1153429061563589,0.8432538797582628,0.6986320612314794,0.05692007437183455,-0.28116523092098045,-0.4068898830502229,-0.6929775148358516,0.4347189016942068,-0.9060785016213577,0.0400175361331373,-0.16171773091235464,-0.568535658545457,-0.2726849094786701,-0.9045078889590472,0.7016386550271551,-0.18697093860158698,0.06368711356555634,-0.24186128543410657
0.5060654538095808,-0.8533509382509857,-0.42509949378299094,-0.603626006555213,-0.6713225322259403,0.4557922970816093,-0.42447038400759196,0.6951715247728211,-0.15460889304466807,-0.72550974270894,0.3503535208934607,-0.4020337712117442,0.22942416733918514,0.23170242125129936,-0.530991449637054,0.4559962166491176,-0.7835332898674309,-0.37305020325631433,-0.8008556473283902,0.6113918118504645,-0.5020403493128024,-0.3088183222887645,-0.5465063224555813,0.4985827523110574,0.9265776148257352,0.5825261668127142,-0.3923583960834971,-0.17592128773757754,-0.6962896837741008,-0.7439979271931778,-0.5611026575743461,0.10270058302144891,-0.9020736241277026,0.2550105885791176,0.32386123428011315,-0.4660539246115605,0.5287700197022555,0.6670864239229244,-0.462776881315478,0.9106215120879565,-0.3795170061447328,0.5994915499822034,-0.5414685712296606,-0.5961804372428711,0.26805910925243204,-0.6045484179705661,-0.6057165442096072,0.2656506218261431,-0.18822216243831424,-0.22383318130204655
-0.10346641025739756,-0.8713463417700585,0.2723122989901259,0.8209916136080374,0.014746780591945341,0.8911889380983317,-0.5513126464405087,0.021936331478985327,-0.31933368799843953,0.2455110816831655,0.27388582119065474,-0.025966236379965868,0.9243729626726908,0.27257704193596743,-0.6747507251089296,0.7681443366293979,-0.5046427558181388,0.6139366787832925,-0.715918708202269,0.7811133240320158,0.10657042491961355,-0.4659870478277388,-0.42279605163946343,0.18239839240548916,0.8676961837203228,0.7276850504482504,-0.22824597905403488,-0.47803779404814395,0.1537739162449151,-0.32635135215378086,0.16758649084994792,-0.9258295943193169,0.29496407142421277,-0.6011295037520578,0.2017836938582911,0.37512902610339294,0.4814810697051022,0.3596532786042643,0.5920044607457516,0.2394333365051452,-0.7452341183811534,-0.6092067711668472,-0.39326076663388754,0.9545436102880185,0.6572278916301102,0.28410863634962835,-0.9728488196162277,0.5786390350188138,-0.09783476371564881,-0.8743112527970612
0.0855126428129459,0.9730201746489576,0.0813112589335756,0.13245470974224616,-0.42634017544535163,-0.18443046029024857,0.9019148520702778,0.047109404754388295,-0.579823665116195,-0.5595568134946436,-0.8606604641200968,-0.04762375622919057,0.5482004274592809,-0.30358972477390267,-0.16557529861831466,-0.17228774043606143,-0.1677846947814815,0.970965665014757,-0.06300940028380775,0.7114653227623651,0.6629624071373773,-0.18021490058100575,-0.6813635759363167,0.03227735252703667,0.7542251891901597,0.09195734753678353,0.7285209815521537,0.2325275228349013,-0.0917117401615466,0.9725697943681528,-0.0029343826954092433,-0.24110229362321522,-0.6923882376244949,-0.5308604703145564,-0.35132313617750455,0.7994277112036158,-0.6838341249792657,0.814488627671301,-0.32881412184072245,0.33417351234683446,0.8939498988740481,-0.05877417183120659,-0.4527352870697977,-0.6282881245196994,-0.9951552965977941,-0.038927203603630556,0.7910737456713358,0.6144305391518123,-0.058298195925299945,-0.7387591493696309
0.8381860633227,0.47917045772782696,-0.7327702060512399,0.4657926975039688,0.4370654651242475,-0.4833409039830153,-0.862824768649317,0.15630759867101462,-0.7950502896717394,-0.0029237627186241566,0.41784740434543965,0.37271993878013265,0.4955398125674617,0.43999041776398096,-0.5524229507514163,0.04656999699172937,-0.5270249927438171,0.7108694155158698,-0.9186191076714355,0.9745499871950157,-0.11002627446981195,0.596039565252459,0.9627586145054383,-0.07684440215332977,0.49002498760969615,0.5314473258302999,0.2033033058027367,0.029856285285341455,0.9310119088185349,0.1751353319550094,-0.6876063962025633,0.8842303801657703,0.9230655050252158,0.20019994642250838,0.6579901420643555,0.14888249863287795,0.7224260654833757,-0.8867687914287654,0.2797530199756677,0.46373434885892706,-0.6030301029349373,-0.8133131280204898,0.4914309647776587,0.1420459034580719,-0.5155689206975287,-0.7267166013100556,0.5598522630678678,0.4759616540949043,0.7505742877310239,0.48751280413049713
-0.44632674785355597,-0.8870318606229887,0.4661053728658773,-0.7471620239024322,-0.5238186643888553,0.7503880269416795,-0.40162090180434407,0.5101984327575602,0.9788032532672223,0.9013706393620493,-0.5540597631098536,0.958773147220155,-0.0003888873080268862,0.15272656985371103,0.9163416561608078,0.23969625579800957,-0.05861466592396791,0.8756384775755255,-0.5675117215235956,-0.7337540439936264,-0.2082817344527801,0.09810332364415109,0.4366985272297317,-0.19208458969222741,0.7954904165987786,-0.8850763293357581,0.5812306344958231,-0.9209500016016496,-0.35204459899508356,-0.03724459931656732,-0.4647957234678014,-0.22510946128528708,0.9005893157106297,0.9950161768851775,-0.7366955390834411,-0.16831277744359008,0.975141816640075,0.14232835973560654,-0.8799065105246123,0.9100392981411414,-0.8051100553257725,0.43278935532107654,0.9194482058486634,-0.8870972096528534,0.8280293465113029,-0.6170664862041022,0.6188544063345092,-0.1286098678008033,0.6025531063289904,-0.9080310282234191
-0.9685852156557335,0.5798490903466971,-0.012332729309559975,0.8128036202698529,0.6904573594730433,-0.7787410506305636,0.7625204557812483,0.6964630693705893,0.5564540365138503,0.7886747929680163,0.2837743908292849,0.5225570700322908,-0.2687940800293368,-0.28148416123750386,0.14857007070208872,0.9418180632147503,-0.7806357910838544,0.8802139097435817,-0.8167048580054612,0.9407644109503618,0.7498943626861246,0.30086411180330386,0.34858011182593274,-0.07177086030050384,-0.2582933032314709,-0.08565019920810268,-0.9573194104265139,0.42054587688097655,-0.09163282376158699,-0.9593743204873312,-0.5446990303276499,0.0756502513733629,0.196661217602784,0.11555822212354594,0.1210914508904316,0.47563453176064396,-0.3250277360617895,-0.15764618831533628,-0.5216744325132706,-0.7391947484875522,0.1731198656327948,-0.7135508923716071,0.8654732607252889,-0.2737237359898441,0.9133592696028651,0.4041702590584334,-0.5123462352843121,0.13981149888489874,-0.7472653379802213,0.08455468336389627
-0.009751244756896149,0.8149856268307912,0.1740945112186162,-0.4799145285589136,0.7173983206566832,-0.4702526005895481,-0.5591865197513483,0.7535402484976075,0.41297930428841745,0.13176776430332326,0.7605730630040081,-0.575712860279164,-0.3440347448342439,-0.5243014775390406,-0.08915811577055555,0.6624672295285866,-0.6521274376661216,-0.6692472209932676,-0.09912144579598192,-0.07230910496774279,-0.6219312983800315,-0.8197202375622895,-0.339745709203621,-0.9358954083922066,0.5543009191233927,-0.27113742461498114,0.8071228409987472,-0.29135802062924443,0.6722420722031233,-0.6342045744822171,-0.7162750493647844,0.684236064718359,0.361704292610766,0.03967968700489233,0.6528891794155819,0.10450851489930646,0.9103061114565834,-0.26609797396719814,-0.6927670239258253,0.7388725955928003,-0.7429301379332891,-0.8940844071084993,-0.5441451278341145,-0.6564976738994349,0.9602469885350354,0.6239242550665497,0.645870706610697,-0.22340321058217727,-0.9594787276954706,-0.23935371583189013
-0.03411733579129772,0.008519129933524439,-0.3721337130054714,-0.5110318884704651,0.3906838447794272,-0.15265269856696562,0.369401981951083,0.8686753629749768,0.6808632450162236,0.31362418333028086,-0.34552111769559546,-0.27181051071197326,0.05417520589332814,-0.021294054406295837,0.43228580187965304,-0.6621455468996795,0.696147492377381,-0.5320415082074542,0.07626616599790925,-0.32535225875532336,-0.8666190528380048,-0.1030743462009166,0.3610947051240133,0.26469127629172917,0.8356688886452142,0.8329888987562939,0.2363695309913918,-0.20006796629293777,-0.8016783487836154,0.683885740148983,-0.737466627590193,-0.8388230932183723,-0.9197766973434982,-0.48885084569617354,-0.7041538543365133,-0.7115885863697063,-0.16934568132214733,0.4471826699252083,0.13396710753399843,0.22145586652600657,-0.26271835761721263,0.16876702185830317,-0.8839415699579648,-0.07235686956922815,0.991195874067143,0.6639488925870579,-0.17559554901516206,-0.9346192461832187,-0.24093693615410294,-0.48347019391946067
-0.32366757793212886,0.6096564662678482,-0.7014769529914661,0.3476576427355763,-0.225494946546563,0.6321793747167193,-0.4384616739754357,0.23642309406791884,0.2899666834497113,-0.1926788023026702,-0.8810141603422308,0.769940011035875,-0.4545357231680559,-0.0861569215722866,-0.39983780163812466,0.8509658417022864,-0.740592781036409,0.16620603391653133,-0.4877191324720329,-0.2390242792008752,0.9106624964451142,0.5325262947586967,-0.7270606534629339,0.9833036435095174,0.7462391699410132,-0.791361613866354,-0.9264736036666896,0.14557419454641085,0.6873979979988991,0.36432418954659473,-0.37953687346023923,0.8794219522816911,-0.6254548018712262,0.29771145836116386,-0.21006189795870067,-0.07330215492854697,0.9987984293931258,-0.620398287864507,0.22410610924124363,0.6224220338697806,0.6340525314038682,0.6721756293197659,0.3958691125274706,-0.792598336657919,0.014983950453301476,-0.4353339578497678,-0.29805110771748744,-0.821198465602614,-0.018834537745230806,-0.2183023885414106
-0.34045686214984394,0.4204322002240751,-0.5148028773063984,-0.5110661378227929,-0.6143359095563355,-0.8335010870220181,0.5317288024221499,-0.7310184331751222,0.035138183833081316,-0.2973783005057018,0.7900307674745253,-0.5741762192894109,0.5484409796200511,0.3250695343584479,0.047523942802624175,-0.9382983264173658,-0.2681586390116586,0.8564287907007685,-0.8453147778267146,-0.5956461223093135,-0.08208091213378355,-0.2898970682364542,0.41621024874011214,-0.10679755923362078,0.7703829444167213,-0.38700544942838155,-0.5135973884491165,0.48895260499549753,-0.5884922597943362,0.8690835179117558,0.2199308494876221,0.7253316633083529,0.2670255137772226,-0.07531917656192766,0.2572381892345743,-0.6972676601756774,0.6740210598731607,-0.7764892165652617,0.05960228884074881,0.44600976110141466,-0.8590582967634084,0.16294397876515843,-0.10153774208359578,0.8112674791891026,0.46643210468978125,-0.7772570404769716,0.9347061826600533,-0.7600545181731876,-0.1122187799892791,0.8866645734287133
-0.03681394646539271,0.78464109730938,-0.7278681003703121,-0.3304513062445674,-0.3732677413769777,-0.5272500528182533,0.6188165695834077,-0.7097049359773946,-0.18530766587727232,0.8591622462098278,0.9446451355223567,0.7380103362137486,0.21835081635260833,-0.5899232857276338,0.5131915579898022,0.7129252269586724,0.23861010051818465,0.9520667825919487,-0.9120415860009883,-0.5165685101311402,0.25124317164509735,-0.03051168946504823,0.35242314487434967,0.441735085363155,0.062419494818049204,-0.27052756238177667,-0.6799531599887177,-0.591522849466723,0.9544127524437308,-0.570179913849709,0.8474430321525565,-0.3482546000792406,0.6944497117101437,0.24685463952490383,-0.31229928755552716,-0.8983450907014887,-0.596922646376264,0.4180464506275213,0.028163272663107586,-0.9849235778746527,-0.6530384451765576,-0.7996285196502912,-0.6006409778557324,0.8678619172807022,0.6323448414220433,-0.5407598693935374,0.28213565235839577,-0.6375942804537562,-0.3587083298843031,0.6940343579418591
0.40097510728354857,0.6347460096757013,0.41797492229183175,-0.9649244689193678,-0.876509329574381,0.3493235382447937,0.937820453128701,-0.6081676663539138,0.5716308010902356,0.940569682908617,0.3319905951899862,-0.5725107769630976,-0.5840661690932455,-0.8934692915620519,0.8179194168476562,-0.14168704376389263,-0.8321487129288191,0.356308297415725,-0.0266403913916875,-0.6334377473629619,-0.4069562711789434,-0.27020297945939087,0.10181634827957498,-0.11862036328047865,0.13853538362497408,-0.5986452076892429,-0.9149602992418716,-0.24097770401015806,0.17574017135763387,-0.18893559600580856,-0.16441354108458217,-0.6721038794597616,-0.3087883885377114,-0.5516221798681837,-0.4654674448189827,-0.2116868610721887,0.2643344227482616,0.5980391135742573,0.22060707181002648,0.37882033638908696,-0.27586504740001294,0.12687659357408454,-0.6928194920834942,0.07711667984383497,-0.863282561446934,0.3728362129547579,-0.8020866117425604,0.01298811016033441,-0.7129221070795044,-0.7869543658015276
0.5568425407184225,0.9011962933743718,-0.4588818861482362,0.10615249073188882,0.13744339212011558,0.888318805929411,0.010980035498489582,-0.37149132564913667,-0.10751935565149495,0.8534758536799936,0.5278792362393105,-0.8107838833167377,-0.2692983291695207,-0.46281576536081315,0.5998459032346825,0.08003910145206872,0.606834480979299,-0.1565472474713866,-0.6826483462278423,-0.7915854436944928,-0.263953776472453,0.2565769899391347,0.9436975450177629,-0.759457293582992,0.20694812678055785,0.40895592256448077,-0.4854268143063628,-0.7943022881856998,0.2828970675879241,0.9851636639321206,0.910031793019511,-0.40784595714989036,0.8761330071167636,0.7983553675283437,-0.14413119486563564,0.3866526251267315,0.08209621089722563,0.8975098593193643,-0.6894849362419476,0.9326893343481846,-0.6854182639567894,-0.3289909044601409,0.6052998454840435,0.7836626953971378,0.5371242966556501,-0.5471341888034015,0.025672874989922545,-0.5481180410734021,0.6747687992064398,-0.9212611103532903
-0.5547299487150947,-0.5365118235974853,-0.7285700543856574,0.3871873275171739,-0.19056651765867028,0.5348788108049007,-0.3840528781935659,-0.07477931231187929,0.15273657240279037,-0.10663937564199699,-0.5246655211951746,-0.07215358519263593,-0.1749075568766948,-0.3063225883838935,0.8626123331061971,0.8791013452635598,0.5874951427736673,-0.8663863981326108,-0.14556867919771221,0.862523963876046,-0.23507150818047928,-0.5525515163386046,0.319756950110055,-0.34720605740706223,0.8280257485154965,0.04937447944119888,-0.7760334946076979,-0.3593664766981708,-0.9858119194671094,-0.04420986061006926,0.7630654521178124,-0.6826573651365392,0.8362799602187411,0.9954945149164806,-0.1632387184494445,-0.07023959074061947,0.09489200394048536,0.3318836243608124,0.2165539693819004,-0.4050521972277311,0.3076195266149355,0.9715913752955491,0.19084126409812074,0.15796761190799458,-0.4675979471383004,0.7196253862530645,-0.09592919201265826,0.2317629997042714,-0.727675374226885,-0.8720162698470066
-0.8943941689625203,-0.41773736836133,0.4564546130611369,-0.766188345604285,-0.7371601762311885,0.33214871408895164,-0.3419281603891148,-0.39558290397022766,-0.3209783667426718,0.23528013830338212,-0.7304420174572426,-0.16947172318807047,0.11090377011481023,-0.03951924921748262,-0.8578575129712723,-0.3292534161281512,0.730657900858747,0.36319078976931085,-0.18823240139772945,0.22923674487611467,-0.3293794708234732,0.037462921819000905,0.8309130887859284,-0.15024228704949816,0.2971593139435893,0.5578739949124519,-0.9473275923544316,-0.6398847855616719,0.18557584361886537,0.09210334349868365,0.19186301399483507,-0.8137218243308525,-0.26544536248177175,0.8681766445798096,-0.3795516140607603,-0.5609668685919088,-0.046289811925650404,0.1746240187814242,0.5875188697810468,-0.49326907989346647,-0.5353836453440973,0.3849396361247738,-0.6404261429218312,0.03575821465437168,-0.8098388681029574,-0.5012549536463567,0.04057660773466809,0.44381465479646043,0.12088608281717372,0.7935453597031237
0.5545405757549325,-0.007022590865923384,0.5156238475930789,-0.6319498969682789,-0.232082483366287,-0.983695297935239,0.4723340601774594,-0.43395506330333233,0.14777333289785288,-0.351702978907074,-0.5259233211975881,-0.08810818193373982,-0.38066615235673384,-0.09035068994163564,0.6601686695639333,0.19589431607600893,0.30124073789981265,-0.2969806752369507,0.9212642908976104,-0.46370487091678647,0.8630250156194502,0.5103092949454989,0.45530000072185617,0.5073461135605465,0.8326774037948403,0.3943086332431941,-0.9770658045554855,-0.441737547949268,-0.9177429684625306,-0.5922831654043725,0.922401297155947,-0.6672848944247476,0.9677511411417304,-0.5261161339049831,-0.9988073518910373,-0.12195852291763976,-0.9737152690862665,0.19526935268776302,-0.20292566775626397,0.20417611161971505,-0.4543135635989901,0.47376231476302066,0.16313236226136218,0.4841795223598232,-0.09510859410654082,0.9739165665173132,0.3193521104588578,0.7264429425303185,-0.4783474927252117,0.8879460000985939
0.2831239405054792,0.8883248102809722,-0.3602151424082759,0.23783653538997107,0.07419270956568946,-0.022451362531374808,-0.6233006278752574,0.015485404508486345,0.15196748645019753,0.5695731308295879,-0.732110696018404,-0.9325223853487414,-0.45953901513179896,0.01716198396376556,0.6682642428350718,0.4966526799787754,0.727004472333731,0.24957056791029553,-0.6988609244830125,0.3953398498460836,0.7145061557879179,-0.18074427928148928,0.11980221392728996,0.0823384763494106,-0.08061366464317865,-0.13174200557491833,0.11931859204472828,0.9102485997123814,0.3053358647094222,0.7997186763725049,0.8172590543794127,0.29026437917351633,-0.15610829903102985,0.01769247583986422,-0.39007252190967323,-0.399847849418969,-0.3754438830441311,0.6227961135485908,-0.17614046075751444,0.4487073436268141,0.38388819544347075,0.9031757563368252,0.8414201117097622,-0.35694270583368415,-0.8907434076602622,-0.21195042291195898,-0.9218332492280237,-0.7669834134270245,-0.3143971791226178,0.6860480990878274
-0.8894974129333167,0.01349524729818552,-0.2755266379544328,0.5374406760466004,0.4922021564231206,0.6727945809005865,0.8890105685780569,-0.36973016306576045,-0.00503818329181227,-0.09112263382048102,-0.44445801465223467,-0.2597147054181578,0.875024642713727,-0.638292047710349,-0.1302470294016067,-0.43123351426553114,0.3868739495944704,0.7159978672202307,0.10893903515010239,0.033986065976992386,-0.2897313055598544,0.10068712144916891,-0.7709548776707787,0.2816875852052123,0.15748211925817512,0.6619668995300325,0.28983438241829107,0.2953570691986036,0.6982794266975736,-0.1807412504164293,-0.14609877094849644,-0.3425218229780852,-0.14880056685959808,0.0056773151089065665,0.050677615117521,-0.9356688850831578,0.7487464569454212,-0.6121103913564861,0.34283245559337827,0.4951635492178911,0.9983664484892768,0.7652986125046892,-0.539089016318741,-0.8869952209916153,-0.3963966650438533,0.9846453565070359,-0.9962149741726813,-0.8535304280631973,-0.023508131474188065,0.4010723423440704
-0.3785722083102834,-0.9894977793543673,-0.5099031397799694,0.6766698859231245,0.7439338421846617,0.5848310281153918,-0.23130881955444005,-0.9880173222657543,0.22013968633220848,-0.6443048208379205,-0.8192409019071974,-0.3732889668003384,-0.6024614672916826,-0.3000602587833304,-0.11793980400265913,-0.21853874915063487,0.8638268436501017,0.39036336645248215,0.2316348633248918,-0.30429765414467114,0.846351945271333,-0.4812670176032616,-0.025470687538265535,0.5518032118695535,0.911564195935508,-0.4720777715704838,-0.10548649394582832,-0.33704275456374366,0.031419177905399165,-0.08089622957576026,0.8315946211705655,0.11439055498100903,-0.6409564428555405,0.8906647633273966,0.6027975383954073,0.7599435830963805,0.5251438359963291,0.3341331600536418,-0.41732375152751133,-0.9582043444201204,0.403199650233113,-0.28757390230828095,0.21647754416410347,0.9190675878029648,0.6103005511444226,-0.9896641852804822,0.32872661825300675,-0.5583186565685477,-0.5821305975368561,0.8630224989000732
0.5421059708349218,0.43978865506302256,0.1852755277999325,-0.9264173773090988,-0.4418505953766009,0.8964681623992807,0.5629297708742743,0.5133996558472655,-0.482614878922342,0.07035083803801112,-0.5290901347115236,0.3560603576174044,0.45582740897232565,0.8781800700067693,0.4732097850549829,-0.33413115214173283,0.3889079143063138,-0.3572531444457856,-0.21346655765443145,-0.0011367783684664845,-0.09003257318472457,-0.45499737128435513,-0.6233587498399424,-0.1753505048893198,0.44572894613219427,0.5220685035941772,0.15924478065758674,-0.8569901391295338,-0.5095796111477441,-0.8038657714505358,0.1969513718686111,0.38644908198406414,-0.5171787050953643,0.6268437230959834,0.49361314731983785,0.7611097669208652,-0.7756713221721098,-0.9378468762232011,-0.6308165811614894,-0.1200398601189685,0.32388043871057837,-0.5721603894469197,0.17919395780765535,-0.9301316525509751,-0.23897381210414625,-0.3302293266968227,0.5586027635475506,0.18417080333471614,0.5240756966361211,-0.22090347412646572
-0.2651165654008145,-0.7883931973664009,-0.777569657636843,0.8743222359949929,0.0552808636305302,-0.1966635142750126,-0.8834627628594206,0.5492777087533622,-0.897282605911123,-0.1829481913532931,0.19771281217696834,-0.5922696940900384,0.1871714573517146,-0.932694060202243,0.3840199596798123,-0.5530684421468663,-0.8199882343673576,0.61036800799815,0.3930860106660131,0.47502058642933953,-0.6511775060312254,0.09921815936692169,-0.74823966558501,0.8180179518152171,-0.32783188696055365,-0.23779857698714135,0.2572306338321908,0.6418521730474939,-0.27813471753558905,-0.8668236141719151,0.11708561377106819,0.5512722992607177,0.6480518186467237,0.27187522943264275,-0.9089296500664756,0.1059884414583756,-0.5152182850873575,0.960554374494439,0.4154780142294844,0.5357505039373506,-0.7504349951868092,-0.7925196055219292,0.1673051901126008,-0.31160122110241395,0.3182095165432215,-0.02485795036263294,0.8002459844720939,-0.3377226358243237,0.13164447351901287,-0.8224511013800413
0.7215655992799087,0.44432875640318603,0.1754052946829583,-0.6004150781584379,-0.2544647645076221,-0.20756538607815833,-0.17898261482503164,0.02603143100886829,0.18467169691558194,-0.9999698168354254,0.8554242650372287,0.5665621957133874,0.12984813558925234,-0.7046420724876306,-0.545733048902522,0.3662293596100553,0.4171993899787856,0.03805929725747337,0.5738048303049726,0.0050998499490432225,-0.2266773698467387,0.8932190108557694,0.33578673208383314,0.48569088019040796,0.11960529891877902,0.41916054109097667,0.06587854803333248,0.10019927597309564,0.17504038717840242,-0.06314811523561781,-0.5441854511584749,0.37376083397303095,-0.64962621979305,0.7852767072442549,0.17387212690169485,-0.7265467171716614,-0.7659884994740596,0.11071295329363595,-0.102491935397517,0.6281138200974922,-0.7789719488363356,-0.9879194480113362,-0.26885362168738114,0.9716649892761564,-0.6010444304157819,-0.35038440648585645,-0.9430574818384092,0.05136708811577828,-0.3586619256878657,0.7605286182313503
0.8449134224694567,-0.7754287912543293,0.6653819248443725,0.10956579827873758,0.7881566871844167,0.6471840449867681,0.43176796150970054,-0.14026551208431914,-0.974689479238137,0.3350289671942157,-0.44222623656250226,-0.142607621295619,-0.5627024881326672,0.6931891840309733,0.8338071567168325,-0.610622167516188,-0.3510872370619832,0.19574513157290552,-0.2507093672423303,-0.17429163629083755,-0.4147165323907882,0.07663376574352021,-0.027240895705593182,-0.884583040115032,0.7768285580392713,0.39447805988144846,0.4872542392926694,-0.8499447750657427,-0.4389558694800728,-0.4596271037280386,0.7054543131856761,-0.6889410201198504,0.026729696514316226,0.659766566085629,-0.6566264482221364,-0.052847947543406604,0.2756593180165835,-0.9689200268802631,0.5545347844432381,-0.8512930177179081,0.39787087849764435,0.4477345086555269,0.7486757816599603,0.31341882440467106,0.02784578126521009,0.9642348760869803,-0.5694763788777316,-0.26450739429089765,0.5142347073313323,-0.015578264956735977
-0.33190942050405425,-0.8874904914949407,0.4994329481281511,0.994665138633113,0.7889482934617654,0.7048257891031977,-0.5776980102918293,0.848889049306191,-0.8632315365009429,0.45932251246717104,0.29117130290914606,-0.9769598862490553,0.9967842524036887,-0.7867836602048259,-0.2460750748605569,-0.5613171421793189,0.08959728148140755,0.4551901976617143,0.507004851652247,0.9323979528004483,0.7303669140104203,-0.573306100870205,0.007573840315559854,-0.3842336381811027,-0.009837193047343318,-0.8516552870081883,0.13543701021430465,0.4567252596082806,0.8102076652364005,0.419843925385903,-0.25768584445931597,0.3657313519079126,-0.5709018881525442,0.6991715480566315,0.9542119027266606,-0.019442793477637887,-0.5311682653911232,0.05383318979990648,-0.6426440478043067,-0.422026146390009,-0.2842220940471487,0.9467128171067668,-0.11230673578701555,0.8266113611999082,0.5152893721428182,0.2749221122630323,0.81049926927501,0.7214350498628532,0.21865876040683463,0.7185455324193283
-0.025882242156761825,-0.27105725916279455,-0.7000023870269491,-0.6398307907545004,-0.16043704424513405,-0.5711885033014249,0.1342356753558327,0.8720810819349871,0.06629994510805548,0.44310258198802277,0.7107752940718036,0.6690701485449392,0.5541734249861939,-0.5537256646532538,-0.8636185909484729,0.9139305212512666,0.02061186650342417,-0.9374350677892134,-0.5688113388895527,0.43914841860217413,-0.5316557150668852,-0.5240149333193816,0.5749501406728977,-0.9003529416199714,0.018562268265699622,-0.21520850774961386,0.46172717728947776,0.7992594374513229,0.625274879131542,-0.014217576540768051,-0.33949567270377157,-0.24335069928539255,0.6686475057511492,-0.26382782648924774,0.46959228959563026,0.7079577586787276,0.11785814812105977,-0.04016091729170912,-0.3874862114435498,-0.9165866545431344,-0.04374598130684948,0.4996320797364888,0.24780758163851035,0.012295811082622565,-0.3576646610229045,-0.5769492670327436,-0.7850376771044622,0.4930463555733078,-0.0772490789013296,0.007407403209723551
-0.6673371362000512,-0.46454510497247237,0.36697742707383185,0.6601542791594234,-0.37815776397664913,-0.8557276105365109,0.575072906223605,0.6773579212013402,0.9925082200457621,0.7993152055802006,0.23727800859045378,-0.8209081053003539,0.2924418129557135,-0.8082678567093405,-0.4250663075176754,0.8098987334155434,-0.7872874669728988,0.47177258838738634,0.9155381629861215,-0.16633334363636476,-0.10860220239171747,-0.1940282139003725,0.5748304828586087,-0.5084992036862298,0.26255463909521415,0.30303683683083305,-0.3920321959652664,-0.10547431228136062,0.04123924367063969,-0.4668368036095981,0.6596635468261869,0.9002017572136171,-0.10595557871815231,-0.07489529869134837,0.9143735949915058,-0.7520472046199899,0.6368572686554509,-0.4684315150218773,-0.7127358621442211,-0.3511116345189861,-0.8213346014513458,-0.8711968754448567,-0.06572963837592205,-0.0688686448633985,0.4158723721352774,0.3887685191926199,0.5016143788395705,-0.8285436138463484,-0.19983470776695045,0.6677232846711711
0.32541086911769135,-0.23802863732174717,0.0657672089539113,-0.49534544460515584,-0.721167469813902,0.39249794661218795,-0.7098761561682454,-0.4081171521298391,-0.7029902015491741,-0.9827696679490059,-0.51446371539296,0.37037099395785733,0.9923935351081037,-0.777269188458046,0.9165309600024379,0.6999878975729696,0.8629332422850264,0.4283388438901061,0.49010368043714614,-0.5430152370396506,0.275235924598597,-0.4558607217598718,0.37094586323677536,0.4899685853257184,-0.044407095751958,-0.3067058478325918,-0.9854921988470958,-0.7647990406299082,0.8794963891172984,0.30837591444777024,-0.4400708890823468,-0.33280097297320943,-0.12917608586667417,0.5845744899637205,-0.5573354063705733,0.433145032686603,0.12087702101576125,-0.39689770400535096,-0.507526292810485,-0.3657409492647511,0.9092077875305435,0.3183999017719681,0.19314652959682177,-0.26647337594923437,-0.897269400651086,-0.6538223992565628,0.5972147281575857,-0.6104508817578034,-0.9140934150708868,0.12518754942989518
-0.6821145402152647,0.05750481745414837,0.03421853986025725,-0.9084454684875953,-0.8310799443646634,-0.7847457883667363,0.07237857973749673,0.026490370400263252,-0.7113012115657349,-0.9028255161251816,-0.1960153020758203,-0.7705393117216168,-0.4380776919173467,-0.644794977809821,-0.32197980231527157,-0.39576325943398805,-0.4152677490258815,-0.7858561324881074,-0.8332571969554629,-0.44266956506136523,0.19115880313955846,-0.6052857129616055,-0.1211668327239569,-0.30204432393767433,0.989981985450546,0.5516063238818856,-0.6919722609193367,0.8394903155773172,0.8079463004788806,0.6192912304193869,0.17360742957491504,-0.3546063341765391,0.594699475888164,-0.019733759446931565,0.46843565012347776,-0.8304934599431197,-0.7766536745287028,0.8079791175225113,0.4607309000447888,0.7113886481871305,0.5863999929334512,0.1493215961320954,-0.06681913476842383,0.844012332008073,0.28843579072922476,0.5376690574697792,0.28040470471483636,-0.28504151746940154,-0.3195856050596092,-0.39909271109717537
0.7821828490057603,-0.8137447698237315,0.41357843063332755,0.5577322796914557,-0.3581075613274364,-0.1881379526078667,0.4479113166222276,0.4645009166506485,-0.31863755171614805,0.9593117973345519,0.39721059213609,-0.7227902325800505,0.19599980132411488,-0.6205829017786945,0.21304842426617698,-0.6036470976584162,0.5056122414548965,-0.18185099684877493,0.3742678611480027,0.7267838532459661,-0.11173535843677074,-0.5014333042644538,0.8585119243081848,0.7505775842417747,-0.6901461457282695,-0.7772888513530744,-0.8433858567037616,-0.2720828001087666,-0.8405219960259641,-0.12527532503605343,-0.13937626367773726,-0.5833414451151296,-0.42012013633044953,-0.9615297353934722,-0.8054974499777631,0.26174692836799274,0.7584097475869631,0.5928387320116223,0.03790585592434881,0.16128598624105728,0.8863716800440271,-0.3511478141843041,-0.5726050648961108,0.0949552951031527,0.4476412536709282,-0.6100468303876104,-0.5955083076825324,0.242663604398609,-0.42647334362469225,0.3199534262780509
0.9497986292636923,0.08596242526270326,0.8071533939303568,0.5314037230752637,0.18689788952371356,0.8366648667091618,-0.6156223698425077,-0.6316296063391583,0.8262487166372391,0.018642985889488095,-0.05072203320121138,0.13708926966930257,0.37715168142093203,0.8399636231893011,0.5807489239581927,-0.7050469817302986,0.6435526200883798,-0.35766409846205993,0.36268836820415906,-0.539201818136694,0.6784813480423839,0.07991276837489447,0.18727394300992561,-0.2941866441688029,-0.417371423355802,-0.8883910455960219,-0.37652289432364316,0.4951784446063989,-0.6665131255444156,0.6241116898338666,0.6692339551534752,0.7274820673446255,-0.024135130960640794,-0.9242242536182949,0.4457177330792399,0.5115801363256997,-0.010246391665284849,0.8879700444023414,0.3918602771282851,-0.11039946037125503,0.18580097732199907,-0.6353347924775916,-0.6358313103222013,0.3313400540829654,-0.665597145094581,0.42824996292009276,0.895687158919773,-0.4462923597496262,-0.3852076031669359,-0.8700317913045726
-0.546268261876376,-0.08888671172410656,0.25328857067313637,0.7834838492674474,0.3712875407346564,0.6131011045241057,-0.478909807475391,0.5585516972249082,0.17759728844917122,-0.3649836415531236,-0.45026900058143826,0.7938361676294162,0.8861334493283822,-0.5174062720577773,-0.8872103314827424,-0.5043517894889245,0.5629977034504825,-0.18576203102900846,-0.005607715916741363,-0.10740811114703219,0.46016119743335515,-0.7914332730146212,0.03724554072773856,0.987465611283535,-0.48387894989063673,-0.6301178340531992,0.10378659272903756,-0.9732100323572088,-0.14585045484350956,-0.5674079107541097,-0.4724205137562668,0.04751758316267196,0.03502193187675107,0.25367349417267915,0.37154353869298373,0.4215001047841209,-0.18091275398320583,-0.9061501976931425,-0.1774208723919367,0.5783918182444571,0.7178031772906873,-0.7573788514976554,-0.86343250019174,0.019964534554642865,-0.41972512124354633,0.2554691382547254,0.1386504752610802,0.2622352696663319,-0.846010259803153,-0.5909610297431586
-0.29807465283772616,-0.051069150045890854,-0.26938969860599393,0.21224782478811766,0.23714575551647255,-0.7586632030831179,-0.39883429982816143,0.7163418748320173,0.3303426366261487,-0.3668526739525919,0.6924716846341425,0.8734082458498107,-0.061018069321830626,0.619188712181175,0.6645729025683992,-0.9160756843323526,0.17904602947200465,0.9121883537817072,0.36426546346118027,0.7295821045994771,0.9963150307078981,0.6782352063475474,-0.6688940683242778,-0.14049387447323713,0.9610210253872159,-0.46590779701743246,-0.6179177877593003,-0.029761057324615203,-0.644313784693709,0.04163081274987246,-0.7570902445163133,0.5943192810051001,0.23198766370462132,-0.308024642481458,0.060351510245655215,0.0007014481048780441,-0.9095172668950934,0.24332569532311954,-0.05116816019347703,-0.566299214639236,0.5819739699633557,0.04499423808088032,-0.6681802508874181,0.6867119961511492,-0.4354610169303543,-0.8871284079883653,-0.6756898479523029,-0.6867176167585808,-0.26858730641936557,-0.5880616535588787
0.3479490206746664,-0.23292541217627838,-0.8074283587657418,0.6075252261235491,-0.4021593108010383,0.7047613431721569,-0.5025138818600415,-0.98007529226827,0.7934723240739959,-0.3278622457195194,0.9072885826555301,-0.7964020986267769,-0.6297611570913855,-0.162655057351902,0.9291366144043581,0.9052766468233221,-0.06300591039195602,-0.11069376737446857,0.04204224896633091,0.18524881006617733,0.2921977578228515,0.5802229958753615,0.4044283359795978,-0.45177391447152726,-0.7110685027039705,0.322059148184749,0.44729654550083653,0.6649947525672287,0.7895234763036375,-0.954285296541658,0.8452318533993709,-0.36903582334049223,0.8437882282850735,0.7166046701146747,-0.4827338165098819,0.8867466150116586,0.047619487739422706,0.2528164358866606,0.754809022024422,-0.17962607372525385,0.5249496187775834,-0.2772043444367993,-0.789465572252728,-0.7103329452826406,-0.47721137184371387,-0.9102177881719915,-0.4352382408666463,0.44790323918611963,-0.7797920473055587,-0.2771633642663782
0.250936790893849,0.5447248109484293,-0.09060443577225119,0.2174999764073896,0.6727181940738697,0.42884724218892345,-0.21523558273723387,0.1574173890130951,0.9656962825084059,0.6468738641379682,0.16019988674302688,0.21924662079450064,-0.5355267115800031,-0.5186120149281193,-0.7169367831685025,-0.6897185078429064,0.4284484645182908,-0.0015668284264169774,-0.8674196578880022,-0.7797587134732895,-0.04941641260933516,0.6692576410329071,-0.05231695813773041,-0.588365451546552,0.13427542207870535,0.6170880896442555,-0.8747898688145882,-0.4261479626186515,0.24425041596133001,-0.4921772470434955,-0.7620345780504226,-0.17485389803784868,-0.572249322410862,-0.9773355861764915,0.8693149795445745,0.4107023512101291,-0.6952160370245779,-0.47936328627335456,0.6594144708354129,0.7276891497522112,-0.9294630179786216,-0.30257395149084354,0.17680928571616672,-0.524920914219924,-0.984793485377978,0.31654273932992094,-0.884444339260479,0.5990508843125201,0.009425012417669243,0.2250314164580165
0.875821331562807,-0.3396624049264897,-0.751590747532374,0.8538134549500127,-0.3167800439264594,0.926547367022271,0.06638127480341816,-0.20876960217224028,-0.18121436479026154,0.6387236948039432,0.9343267875228396,0.5159800261098407,0.13540721772002262,-0.8560652115503631,0.07037623574883722,0.7297001786441454,0.4804326728154257,0.9228445312003198,0.12959792395889913,-0.7263110507250261,-0.192733739528679,-0.7771661648631513,0.42008249372634,-0.7013257946223571,-0.6323682350155629,0.06356688618197415,-0.5757141667525161,-0.11503577361799977,0.3992522003194344,0.5703298729151145,0.6405137976298059,-0.7827079953460295,0.1911254695682384,0.24376110536006135,0.6434823712908893,-0.8636318170212935,-0.09987174726390746,-0.6853581059888263,0.6474716154059473,-0.48495017987946054,0.10145714782826043,-0.9760665817308894,-0.2859078518548731,-0.8949468312340173,0.0014534049090560996,-0.029469642166021992,-0.9132452180949284,0.1653639938212803,0.6797590146966487,-0.27985013012279447
0.7368302770384836,0.09586680346510157,0.42487789235091244,-0.20539766197750564,-0.37189033495601054,0.9427284569494264,0.38961885475275415,0.09773958526708637,-0.479165964005852,0.618056751356418,-0.6969698543820708,-0.12652397002042715,0.40639052143396037,-0.7954378911258555,-0.9710021512134657,0.7268876683745096,-0.6763751895605322,0.21445336598017406,0.8032613837792629,-0.8764591769333183,0.010643669312520032,-0.7038242085729247,0.3586507014010081,-0.3989067265813373,-0.5155076156342514,-0.04640071682548075,0.8988370899730916,0.7833186737601406,-0.5449751659236977,0.8162239109473504,0.0722112806553874,0.5540024827786058,0.4634999535134261,-0.08423373230980069,-0.15630076045151287,-0.47882859028799674,-0.5106511053515764,-0.8806905480353581,0.3979697658823599,-0.32520073088524903,0.7400995567882874,0.5795843962993857,-0.9678811610831276,0.12964496239451395,0.4888313463033278,-0.3736962644349384,0.5915407675880873,0.47721184451462595,-0.6267671119607411,-0.787632748333014
-0.0950589460164668,0.18695063006042967,-0.2714502958299132,-0.056694369712447124,-0.2346131843810103,-0.4853621362049936,-0.7278342486318163,-0.33504617170977535,-0.41465980409095393,-0.25780051386071023,-0.06032889518922724,-0.7363288859211548,0.5987962164207407,0.5942289676716477,0.3799856445342257,0.9750781230143013,-0.24952951766526033,-0.5556981785225866,-0.531296133780427,0.960696278345075,-0.5988955773634462,0.8320261670692511,0.8760365109701389,0.25990890088236396,0.5295970984931982,0.2828397853677982,-0.567357306901553,0.11193844370830608,-0.7370428918370134,-0.41133350600475393,0.7557784118233115,0.8472979729989178,-0.6384336461672719,0.20986579781293313,0.5589392837878008,0.46466327789372086,0.028006149120877177,-0.044074488191886196,0.4266052144498581,0.5405833885741073,0.30057739602924194,-0.7780547987121876,0.7902700123709875,0.577644198586093,-0.9497755872588747,-0.5057831967076892,0.8027226080296701,-0.70055018955316,0.8328094548406039,0.740856566450503
-0.9847644704997734,0.49288138105723434,-0.9166327016868762,0.23875151970299435,0.5048083354643844,0.6701272888370049,0.8485761238800767,-0.8301476128505124,-0.5440696446005349,-0.33582374006513227,0.02239499928512856,0.5391554039136347,-0.9765791873740478,-0.9664917810876374,-0.14609348018015333,0.16160758116971374,0.24455305689034046,-0.9684632533245392,-0.8373847458086596,0.9330593123756192,-0.621431837922705,0.8797841669433165,-0.20061776168660628,-0.6979425533132886,0.4122471138586856,0.7225596204880034,-0.6899905952846337,0.8198986355539166,-0.5782573547932451,0.9234128952145034,-0.24463450101696982,-0.12328993753176509,0.9603422222501632,0.7657064590597533,-0.40161231383462637,-0.2204281812786376,0.5155973569068237,-0.949820193307245,0.445280906930544,0.6098201272325039,0.3172703968416538,0.39391938483274724,0.4363815048570471,-0.7021092112505327,-0.86049547059584,0.7582534485820852,-0.25856299336393607,-0.37372148267954786,-0.3321070890259398,0.6524851353896401
0.7998203630039048,-0.8091089332838733,-0.6438724695508294,0.13862959930465746,0.7262002609374586,-0.6296750173042778,0.9729385129693089,-0.22451109241928668,-0.1622871003549119,-0.9546344458610934,-0.06862710664585492,0.8385852447403229,-0.7491301366916866,0.5601504129946223,-0.0040005959784881195,0.011600215079832998,-0.8178331587589402,-0.9126229564296235,0.5272986452691053,0.9694034933141977,0.9184025663370972,0.3634158889368422,0.9873336543593332,-0.5884648411612552,0.25863019141893295,-0.45772063198666535,0.41963604648405806,0.34764416986464974,0.677601948435642,0.9616890648919599,-0.8206910994065387,-0.4582349532785637,-0.9399345638262347,-0.9637959849927313,-0.057819523037540566,-0.9211504199691273,0.480934979837477,-0.7275729014234565,0.47493340879006474,-0.34341457969901124,-0.2441193112090977,-0.15458135978678922,0.32516658780222385,-0.6083829983430996,0.4185141815377409,0.5241545786175471,0.8646341480843406,0.3915515955284584,0.762502488931323,-0.5264541184625363
-0.33207703502902663,0.7659419077075841,0.5211751685205982,-0.2728571956929936,-0.24108090549525718,0.03600432788557517,-0.849607369569246,-0.6167875492590731,0.6036129859639626,-0.15544718654509992,0.9066823046502746,-0.49026350474249025,-0.8891828283900722,-0.14301743433386216,0.14904287197848487,-0.5726722085376371,-0.49476299852496,-0.3303917379922747,0.03275549319136717,0.5364600411116541,-0.692361259427583,-0.6225154381235888,-0.5090923536167186,0.8769666904754491,0.6062445464886111,0.14937413264551214,0.0028151809578538245,-0.07460662256240103,0.2059697867815894,0.7524132241984268,-0.9037869406199369,-0.9047076241076445,-0.792389090044733,-0.7182714178120421,0.20494395959490996,-0.41190555906555193,0.21137680790710422,-0.33274452208530914,-0.5465715607563432,-0.8194611078284072,0.8271161263440459,0.5413073878859316,-0.5396000906386342,-0.7327321017878696,0.7120873012780206,0.7630116575294671,0.2097302662058782,-0.13721640532347623,0.5201422572482212,0.5475792863079312
0.2398969489538214,-0.8545251328369348,0.5952440218060345,-0.827324216363075,-0.10892475050656314,0.8250493260100047,-0.8876474924950716,-0.4410930651228524,-0.2282898890179863,-0.8350889225990235,0.7097643806961014,0.8459698702676774,0.44962134686587885,-0.048385437082303806,0.43763692196851467,-0.6635191944033599,-0.8409191506856524,-0.5964984600995695,0.43120385007293605,0.19553166182377935,0.40367411305025125,0.627874785167362,0.9915282352144447,-0.8346738244706101,0.7877431049852158,-0.039443179746000645,0.7165662396408291,-0.2697175787135565,-0.60130976601198,0.9094962174143518,0.4009548335731328,0.42095190708982544,-0.41110870281424705,0.29027973807807184,-0.7885835681875913,0.4985119340361387,0.6253799275495876,0.870800845850879,0.8062424239300362,-0.8444026504470783,0.10373601551249256,0.27554538272036,-0.9255295811801939,0.2941017576771833,0.773839018640721,0.17301501303650824,0.29600438604231516,0.19817051302771194,0.8057347681622092,0.5085181106938778
0.2052021943981005,-0.22773468574955225,-0.2884507059177611,0.3991121557871492,0.40513649183770295,0.795843709830213,-0.3617826002849839,-0.4825111243499953,0.025849695045837895,-0.35756826974727274,0.004669999226163957,0.7815241438941529,0.3252441214426518,0.1241904123325902,0.8604722078400548,-0.3724396818540803,0.8561673964423463,-0.5067710063935746,0.521015405047703,0.7522460246192808,-0.2547918240687025,-0.1980945370611692,0.03921439271529448,-0.9553699504797993,-0.39194539232297954,-0.4496346112553372,-0.45799567289633936,-0.8797031502152094,0.7177041433476289,-0.8939198530908247,-0.2742324820484786,0.22376239469088044,-0.6001209825783597,0.9709948926855626,0.5386812706379965,-0.908530561426443,0.6540911146953795,-0.3051800141113754,0.04683432265907783,-0.9405200050127933,0.8066017570164825,0.8386118909003559,-0.05173254474955735,0.5126003709938246,0.9401534915282576,0.5595073366992162,-0.6223732701503134,-0.9608167937448664,-0.07330391481816712,-0.5570749344554867
0.4147778937585066,-0.009955095659748503,0.5940141323439627,0.6027497209763159,-0.9509963261428225,-0.9048206566216954,0.10099217831060481,-0.08511217530827009,-0.9854352684432164,-0.5238854601247521,0.6827447154526849,0.2779268602593037,-0.8925367925695773,0.8892265423985989,0.34077847275736894,-0.3248533634917242,0.9163554441121065,-0.48040953890129123,0.21001881900935815,-0.6733766305134191,0.3733690462732774,-0.003939963746036335,0.329090310134712,-0.9800738881730461,0.6551072413754422,-0.618944996510589,0.9773424419921936,0.384714103148012,0.36868640217493454,0.9935223284973831,-0.10122662036675278,0.19555181968528002,-0.9156386553876129,0.33524171889364696,-0.6544246409508462,0.45283966597836733,0.16202460738043634,-0.5660998498030139,0.0994553801759569,0.562874561646173,-0.43765629249299853,0.37954040926031485,0.8024345133771152,0.2376933864847548,0.7883169385700382,0.3972179887120002,0.14027505093002357,0.39544678075808304,-0.5923766621524461,0.5576837744539227
-0.7557321996821553,-0.9856245699280243,0.2593015441576054,-0.04433260614143697,0.8659724238397464,-0.0093176353267026,-0.10940991080309614,-0.7684458808441015,0.0018718325657461898,0.32478525881356723,0.3105008785400596,0.742136503619552,-0.6338817329819076,-0.6838086889940851,0.18430138286301656,-0.5733705049304556,-0.1886079754555754,0.0737004820199385,0.3416709399939287,0.14421688456450033,-0.0466716009792032,-0.7193336493394287,0.8559297541365056,-0.5423512262680068,0.3979005662706503,-0.36591026457642994,0.16913033484797624,-0.55726032968931,0.4201589201330307,0.32161851542312103,-0.524034278029134,0.5870452135168139,0.8547629167420966,-0.015422969391980734,0.22519852779627736,0.4240443086300141,-0.6320509974457471,0.6468167049395562,-0.17570298737487444,0.5637333109239017,0.7494460777173158,-0.3873837753694028,0.08416301243390667,0.5511795657753347,-0.5104845572918284,-0.9885815262460959,-0.08680849115027678,-0.10298115004602759,-0.8924108665120486,0.34367599417689365
-0.3021907684194488,0.8202688536820841,-0.6613550055614532,-0.5760864200296479,0.8511773941691766,0.10524394774365087,-0.22468814702142115,-0.16134238366818565,-0.6579524116110073,0.053271641583273466,-0.007643351400016818,0.046403903022003146,-0.3995601693259949,0.050495231749261515,-0.49299630529728855,-0.8485020262339399,0.5435674519161123,-0.36158559014497393,0.1207399053495164,-0.09518587604677531,-0.6400561650836938,0.983375825157499,0.3777290643966462,0.6370624710730831,-0.3836005987522636,0.21019886603713867,-0.01888564597138709,0.933009385277409,0.37048854409890786,0.10455526536122584,-0.7891473148308892,-0.283801825991973,-0.3708111803860462,-0.2628623637992825,0.19548779323555632,-0.7640657129749576,0.06869398328463339,0.21793787285724342,0.8452831562352957,0.45880357725002574,-0.9963163876538905,0.7469458915593375,0.26015091320467343,0.651931006135505,0.6864248025943646,-0.44691258086223773,-0.7712701312228383,0.016255717666894376,0.29395335647243237,-0.30665109393804946
-0.22370676160195113,-0.9480749207241501,-0.38863212484060805,0.23795757625770275,0.03043201735554424,-0.08440335685310163,0.1503771130705408,0.3925241707594608,0.494441846012328,-0.1728068262439848,-0.6253261282633237,0.503202342127798,0.5192979309673228,-0.8521138389593279,-0.44802638325364497,0.7980535859658676,0.45470345975339954,-0.8465957568609391,-0.15428149820328207,-0.8050382454015177,-0.4606465103477445,-0.27525543375879524,-0.7257395838383464,0.9186793493089154,-0.19415425750226567,0.6264389360178959,-0.9737535763417765,-0.9284413141725949,-0.05551802428406749,0.9475856932981126,-0.15683163814137124,-0.9828385561068064,0.8604778552265526,0.15320547797063677,0.7648560709762484,0.6597129989151975,-0.27226496898636565,-0.9177381236841164,-0.9112050181661743,0.9023041037184866,0.7029868119181146,0.9982624439225648,-0.12199349646127211,-0.3057534691722793,0.3390704018491504,0.8514320654330745,-0.8083303219540808,-0.650959455908647,0.7496832978739744,-0.6567965166706813
0.4692209461100859,0.35246768441217236,-0.10534770855194431,-0.17388994267701008,-0.25543660996284157,-0.004751818299788879,0.12717410223492776,-0.588709667913171,-0.3420263223608023,0.15400030415150867,-0.8487382214783376,0.43306240822342756,-0.7157916153623597,-0.819878919507593,0.3177312939373417,-0.5048251639972616,0.6367449467921623,-0.7142063538052702,0.9202528472865793,-0.15475396649542572,0.32891352505711,0.9153865773025373,0.18139056362643868,0.7118781789128242,0.12586093332422654,0.8321104654153554,0.14318442386006847,0.3220402740808336,0.0014151676607517816,0.5422442572061164,-0.057960770231170855,0.5210189413434868,-0.5947805234211694,-0.4898419915000686,-0.2603833742888101,0.3394434283718446,-0.9318239836475068,-0.7015350138306461,-0.437761064357432,-0.914404543082735,-0.24777994844181783,-0.5201938263702705,-0.5228696727325046,-0.1420299198844277,0.8557186274236411,-0.20352386158092806,-0.9731207942960013,0.852108821641512,0.5729010211818549,0.9062185722119653
-0.7832333665655573,0.6058008925678161,-0.8645125860078371,-0.6878915652110605,-0.2562517064896884,-0.043449958942917255,-0.7116764769357357,-0.6189555574958949,0.3805698091277724,-0.8667605968444033,-0.4429258475446113,-0.5273314319988988,-0.710408495846964,0.06368850258578529,0.5867532612027735,-0.5600216827907257,-0.48290196943611785,-0.6093573553301642,-0.7656586148302738,0.9153366317686956,-0.2475990236389949,0.1791980714680026,0.009758622938605743,-0.453929302564015,-0.010077821607037962,0.7930767234906808,-0.8986119717336108,0.8417612074602654,-0.6985483443873115,0.14884986489674468,-0.4482639655310541,-0.1139604943220699,0.9630766545684775,0.22443673050144308,-0.03557985183296242,0.4725711743440072,-0.23917555604236274,-0.7504116062263141,0.4131869010793524,0.25527203750839333,-0.8666232262659065,-0.43832019783277776,-0.23497989459361845,-0.6826072879728852,0.4517015547056299,0.6385420192712951,-0.44654870337282315,-0.41447819557881416,-0.7868180780727418,0.7403444268935364
-0.07967858383089066,-0.12593498643390988,0.8968925384384053,0.7132117881449972,0.8415606981366716,0.7642496336273018,-0.46332194662990367,0.41804116633604316,0.2897840405386428,0.8665879440526368,0.5118142919442205,-0.37303704251818437,0.4323457161789116,-0.05736918362787047,-0.26495530663700095,0.9787317093448517,0.595685815725826,0.36966347436139135,-0.35632195871304595,-0.8125053099831286,-0.2068500131408828,0.6064479745880479,-0.2830243992781367,-0.20503820784141558,-0.5367687708157362,0.11884308816151712,-0.7040366585921368,0.7246714516877188,-0.5340010064999137,0.3562924697619706,-0.15127814459002153,0.47929995222240385,0.14035164505042652,0.19419647499275794,-0.8351762707847296,0.8850807493203067,0.059591810329839845,0.8100074349002234,-0.698893800851482,-0.51733599263214,-0.22706322603562112,0.6265830869954663,0.7600698856502088,0.6496611986450774,0.47941135347079933,0.3877830311344488,-0.7182767019801137,0.318319634792956,-0.3912034628200841,0.11047492860984665
-0.7683406859178603,0.8756658677472229,0.5543476957937172,-0.8017680711647495,0.6219872173243403,-0.7477900195021833,0.13790958202878756,0.9671688089838631,-0.7109730583926549,0.44804672722390493,0.6828705759831162,0.4506576349730903,-0.08098762271940241,-0.23018833740582068,-0.995113756572548,-0.651846022956893,-0.1933422631065852,-0.9320527187149685,-0.9497961794559748,0.09826804455715255,0.07893017915995937,0.8237504605803911,-0.7522059079255039,0.5275080795563262,0.34351736978888536,0.12098833709511447,-0.4836514810358581,0.39390271683122713,0.7313744247932766,0.8703088214717218,-0.7272878095094162,0.9916307427514451,0.5842665018517097,0.6794103141740439,0.599629115867226,-0.20637728889040163,-0.7906027282095285,0.4523146268943884,0.9159515916735326,-0.6890521410210414,0.46448200068722545,0.4254187012326095,0.22057270235322735,-0.047824206978057004,0.6362050134292943,-0.8543777385996748,0.5711511710561833,-0.8032428905172356,0.5683933260425499,0.5623901642047197
-0.4931871644585022,0.6099590152742711,0.7923913186407244,-0.7751264727770549,-0.06781950037880757,-0.8945219616192907,0.6221653464363328,0.6057190900532362,0.7369762522105504,0.1827034709006632,-0.9980203055347262,0.5756187030487097,-0.23055278873766705,-0.22812272659440314,0.9991805813670356,0.5044795149557106,0.5325763903387335,0.35986883748766096,-0.5712562074330747,-0.7909981518512244,-0.0853274684186609,0.3471244662766547,-0.8259313230473587,-0.8657901326263759,-0.1595475623987338,-0.36305433643798246,0.33212218596936005,0.34689727823178684,-0.16023056520676737,0.37024784623183027,-0.4270857647147034,-0.7127308107208765,0.6819286693695592,0.9841830911717088,-0.22382588474996978,-0.21671931354508112,0.5817745041669732,-0.187940330304879,0.21832249167034445,0.979716214292371,-0.8299660119768131,-0.5130297851443993,0.6586703423622076,0.573557671973922,-0.842632717525472,-0.6898584705978019,-0.4887702773003608,0.8388513135737039,0.6286706708723032,-0.27509865993201277
-0.9167119835117362,-0.5560735676253625,0.15568216651792222,-0.2854928829203218,0.6949835190979282,-0.688525397390336,-0.41281504314278394,0.6455330253237979,0.3910400580248321,0.11216102525787364,-0.4177446701433897,0.18115894208465988,0.70578623145731,-0.5147535076303253,0.41399832678463466,-0.41661871346160073,0.18647285248380652,0.432406624836873,0.37958098008474295,0.6016309478554955,0.013266244288148377,0.9498961161441056,0.005135698597200866,-0.6358904366786636,-0.8972420520818993,0.26714143507544563,0.07352661716244968,0.3931283416914968,-0.7057150185041797,-0.7905083993688286,-0.28776361029156405,0.4362481037519548,0.5498680111645329,0.9030170486571784,-0.28068172776834843,0.4826641001919785,-0.8484251141745383,-0.569623717083913,0.6488202052393542,-0.20372137003239665,-0.16823309572394174,0.581353981925388,0.25412604798018934,-0.4986431942644711,0.7002008473571902,-0.6772055102579889,0.8328661199019325,0.7280484187082676,-0.5202877258507991,0.02533493351632754
0.5441100033901964,-0.41923878998807707,-0.009680477035744928,-0.5583462752307646,0.0020394904637367484,-0.871620489021806,-0.5346465400264336,0.30921134235912695,-0.5822615348313143,-0.8188181981406826,-0.24750630454551004,-0.4576548681998348,-0.5559275436278954,-0.9793284263871542,0.5794698425715687,-0.17499337153147998,0.8610873770438742,0.8925332634545605,0.4718849711860629,-0.48369692188709257,0.1811679185957884,-0.17418899879634409,0.572096137132208,0.014701273201677911,-0.12502217035783914,-0.06567978450461864,-0.6556787608207874,-0.01129261580936125,0.9506263022188768,0.9985061194858992,-0.8065611421995955,-0.07375918149293925,0.7894942748030482,-0.27455962237894926,-0.7576114178948716,-0.9044829707550177,0.12450990634259884,0.641879909240687,0.7591236709387208,-0.4555239350631377,0.8890658470755397,-0.03491262716761634,-0.07669245174258243,-0.43327655393127784,0.33793294779570315,0.05631421520613655,-0.9606179022490019,-0.5247271957912433,0.8047756508286801,-0.9175954931565411
0.08132747804665097,0.41429931082434956,0.9575474450791055,-0.2883982947583018,-0.2026417333357231,0.0732344057594948,0.3918320714915653,-0.795611701625317,-0.5799075613807457,-0.4708544880547857,0.9594615030285312,0.4066016374151791,0.011485479887049954,0.9258354291012486,-0.3239225336567071,-0.9093718248684571,0.13259948586376058,-0.08039100326796333,-0.27961972092825715,0.5863462203042445,-0.21504645778002685,-0.7169257248358676,0.5669674942836224,0.2379664801817033,-0.45853507637515534,-0.6254957530401941,0.667403962146349,0.2817313206605139,-0.955706640647725,-0.7315419917609596,0.5422530164165518,0.5923350652398012,0.004325767693433846,0.8902652741951733,-0.971802041820092,0.6848641413894283,0.5451377667467757,-0.295846471025331,-0.5218919941324327,-0.4593956466739402,0.5595948208592804,-0.6311014445718283,0.8762846985415121,-0.45246071823397127,0.8314590559681558,0.8425206315617016,0.34659598579251794,0.16784988312524007,0.19612014102459996,-0.16693471396234372
-0.6036155999262407,-0.23420497117838368,0.6124916080214984,-0.03604221972463528,0.9853129615168047,0.9678185285274498,0.524098425163742,0.75190541733307,-0.5165451559721664,0.26039092719551726,-0.40973118118544305,-0.08483486463966516,-0.16988760566655003,-0.6977460819122601,0.1387094635712116,-0.14654910177286062,-0.3558178745431282,-0.917546954549131,-0.20744443947649482,0.4212964715230305,-0.0916362479021201,-0.9427617512143449,0.6049328044487369,-0.9149363014861804,0.8663452168299377,0.5043982912854186,0.009941302038337985,-0.5389779237516277,-0.45807503273119676,-0.018606774280772065,0.5412675530305281,0.9280495029343705,-0.27964134770336657,0.6786943012854713,-0.6251852265047072,-0.5500969068389908,0.9630055935175047,0.43097300257042437,0.3359358115127429,0.6924539657203881,0.49702143219729544,-0.22847869548135324,0.4046155245321509,-0.6280541226751263,0.023397255115181315,0.8813410195461727,0.04316595027855108,0.3199819502345811,-0.6949977847276209,-0.6752455548756069
0.4173109074650936,0.25017336557736447,-0.5290653020051255,0.34295335548494577,0.8857851955612309,0.8625780118027226,-0.4637151608971396,0.1671981692193707,0.7869545503219189,-0.6636224866352385,-0.13577531881318383,-0.8787447133312367,-0.27234060546639727,-0.7146907359785961,0.6969654165961473,-0.4482725732024674,0.7066678548507848,-0.39044310377603375,-0.6480009275205497,-0.3649252745975272,-0.25887776534076246,-0.8692233075492366,-0.48536226946577665,-0.07208502302339581,-0.7411354754221355,0.1283196871554575,-0.39371493268734015,-0.7658995209945783,-0.5956906312519595,-0.9456021053574097,-0.38578413677392465,-0.16493215660306537,-0.5909915626495168,-0.9041886776759616,0.710281483370485,0.14659401487215595,0.8078296949788693,0.8886283407565142,0.5474563618482456,0.6563885126689362,0.7400006329253176,-0.7937595052970673,-0.19927713393580027,0.9270243744133656,-0.897400389768953,-0.5949724074041088,0.28112222651597496,-0.6002103975067419,-0.7265202403178835,-0.8145176214782979
-0.0565870063830467,0.8583534745681894,-0.6630008431674209,0.08531904866760931,-0.8767029443582766,-0.255012153020161,0.5344617299567479,-0.510955124830965,-0.9856722808799652,-0.9764054467237654,-0.7534071545994232,0.8770223270026739,0.3609376430377602,0.03871416263581562,0.10231508271941259,0.7189203185853414,-0.30212815574761054,-0.9207371292051365,-0.7062898907581443,-0.5927860992089418,-0.6560151579384634,0.297545385066334,-0.742982756994559,-0.9785749160982223,-0.9082862013446636,-0.7037158744268852,-0.01757100756402319,0.22129212875331017,-0.39415976327631386,0.38006165425507565,0.2249876537734805,0.33532364060183995,0.24777453507412073,0.5234943346552434,0.9864620518946331,-0.1342060763132139,0.683748112201465,-0.8663045300882934,0.2628789208736194,0.8007785952016997,-0.028866833150265947,-0.2814088567874544,0.7562696834965846,0.7470936229282766,0.7588842602070701,0.2588817408423528,-0.12591416452503235,-0.5529861520656185,0.897856872770602,-0.629352853287459
-0.46677128041602123,0.07870795510810091,-0.26247764477952806,0.7567620032053428,-0.950438254846264,0.8343914992460156,-0.05458930042587673,0.90029172052949,-0.7893712605859026,0.8095420912543241,0.04708081832156863,-0.24426874492204176,-0.9248681004682134,-0.009179623126525649,-0.820442849245963,0.4278764873148523,0.851450662634319,-0.25998020334653116,-0.05197728493147313,-0.8185519248160645,0.6095014043696758,-0.27503076565601015,0.3464237817117438,0.08442391242108094,-0.47394834920087425,0.6291237703595167,-0.48136618969740363,-0.3467165140751691,-0.2630505034654802,-0.994275309027762,0.764476969134213,-0.9583207731930237,0.5225721793421545,-0.8029363003795982,-0.13120135972517344,0.46139608635141194,-0.6424950280026603,0.053051454884765814,0.9130400338628201,-0.10985783090863088,0.565841847934688,0.00813924091408802,0.739756650987884,-0.624406267930914,-0.8181443632382037,-0.29860684806072757,-0.9070318503375424,-0.06767318450462723,-0.2664198422735875,-0.03373085674218923
-0.7255202490474298,0.05663097879467649,-0.04456554377384758,-0.14547731368716454,-0.23302866609391326,-0.46742759927052124,-0.3995270785578865,-0.399499882111386,-0.630706771269174,-0.05189494466075628,-0.9637568771142391,-0.1693808198763247,-0.1522159750962766,-0.025070050527471577,-0.16574596891853077,0.400816394020738,0.49877169036480884,-0.4145724546883488,0.2061263707791453,-0.7635995442171994,0.8887870026275617,0.05351873376106431,0.15070556035624383,0.5061878658325822,-0.2830000854758974,-0.5926592048047221,-0.44528134759947413,0.07758534254127047,-0.9053746766923814,-0.31515443336344584,-0.5114222088865097,-0.5624346690256976,-0.10793941014620823,-0.8222693370051836,0.25197469191752186,-0.1462234038372079,-0.11307195758142541,0.1877831544451659,0.7325292070322006,-0.5305531068601671,-0.9857888757152038,0.352154835601329,-0.8778595085551526,0.6506116730181833,-0.2764181872762884,0.42714599390357044,-0.9399381742251854,-0.5995981428576649,-0.8767290601478779,0.7761702583698429
-0.21296611694075696,0.7084872818854356,-0.18211284684022788,-0.7977923484700876,-0.23139576319472033,0.3922352656240998,-0.9341320887715652,0.9040413476732501,0.3099926553140586,0.7958899267032885,-0.0435672622367963,0.8497912536255722,0.4553459722168348,0.6222747195872869,0.6185885818000497,0.7427670712992603,0.9161282305229794,0.9744784038839996,0.36042580206927255,-0.7192311631053233,0.42367410608269185,0.4289320770241031,-0.47062783267747155,0.07309432106362501,0.07137158485474593,-0.46243309645606856,-0.030032443842448853,0.23613404409505612,-0.8213929934255402,-0.7875410747380249,0.5258942750598902,0.5572025820837682,-0.6310763289529528,0.6294870711056746,-0.5096873221515271,-0.23445780308757092,-0.912179583679716,-0.09402392405137772,-0.04841214889789569,-0.663928812626515,0.7092444232725187,0.5679406695323187,-0.005620594882692731,-0.020445139190606754,0.6224146804208518,-0.0026306416486083783,0.3544362157688865,0.27105083335374724,0.31959937289101836,0.5899896892575959
0.5986584929078531,-0.5953562289962651,-0.03693074500611382,0.9913578389627398,-0.3527370191222994,-0.6356723593848297,0.01674477230858029,0.47689540656234863,0.7762680769602498,-0.5982942619616604,0.3437723751494913,0.12329165429764555,-0.4596717089398814,0.6556927962846172,-0.01955671602315323,0.726553642770528,-0.05514058625399454,-0.10909848745520356,0.6684843649710862,0.6637641874979633,0.218793788275912,-0.13669284881790278,0.9230389872692963,-0.21880378271696543,-0.054643169926052004,-0.6811604303788121,0.4292950783421807,0.23413523897029886,0.8432644056671927,-0.2448634463434597,-0.5190617920615264,0.9212582943519149,0.35137727831302346,-0.322364845863478,-0.9085456974185832,-0.13118681913708352,0.1746631984814202,0.2626559365955703,-0.5313302706783665,-0.11593417756172597,0.08004690129757153,0.8002861110486628,0.5944553620412079,-0.3948557622543515,-0.6426032914086429,0.1169598473012129,0.8806996851525559,0.9805929893095696,-0.43716621097586805,-0.6312482570149626
0.4339084286879482,-0.11251539870667426,-0.25100180999805644,-0.22012339671580305,0.9320716229461059,-0.8786621180971991,0.4336637386687051,0.05159138864164947,-0.5608528162318567,0.26790589217271443,0.20673364774991365,0.9601474082811015,0.49374085370283083,-0.45573469169428127,0.6673820239454707,-0.818012490403472,-0.7853775357151381,-0.06874002786330202,0.4881756394112987,-0.5751961042386237,-0.3056784526175397,0.5508617709315571,-0.7724832725263758,0.5009520808065395,0.45692845676452,0.4191505975348053,-0.007627274995333666,-0.36344887177846097,-0.9692703129105821,0.22505090831728125,0.42516465028629113,-0.5451383838642303,-0.8799092876343794,-0.3962706130426674,0.6015022689715901,-0.190008543512865,0.29174685891850916,0.44777742133755216,0.9678240113905895,0.9650169064570322,-0.8137086565272712,-0.5449278609331989,-0.04308790824460218,0.07778851507277529,0.039002141943821456,0.42356134919279376,0.43100388722490346,-0.30783193947818965,0.3361768979436466,-0.1909982715055072
0.8775832073705592,-0.43795635471698013,0.926661203684158,-0.9990470702243156,0.17666646321611024,0.05824417488919864,-0.9429277852248091,0.4777279743630163,0.16189823103726064,-0.9536195434083841,0.5409013094819569,0.29147111719308005,-0.1925234001406927,-0.2933911912920899,-0.06519109540666479,-0.5657410028539149,-0.9912077010546007,0.38777511112431917,0.8417332284465476,0.05862723758792354,-0.39027776189383345,-0.8993599583303511,-0.7026742957909591,-0.4340993931632634,-0.015060521233398072,-0.9834466036337084,0.13507320799903377,-0.11502331571390845,0.25958001385078966,-0.8871621995410516,0.9108067681238551,-0.7153394453576714,0.19132888807795712,-0.8072986259280029,-0.5162597506443647,-0.6713757035220725,0.6010455088247807,-0.8002861677384282,-0.38344856122300885,0.4216286611249771,-0.7953920954718615,0.02425261302611792,-0.8122280623774081,0.3526056102000983,-0.7581227080783454,-0.47593239888986283,-0.918995921299601,-0.8149312415583259,0.25009353678261526,0.18460852238756165
0.26269362589375655,0.14091599047216452,-0.9322992265642308,0.9179171764892661,0.9602004470347744,-0.621144076027185,0.7218742659005467,0.1040354385603216,-0.3413037342719294,-0.377860775741939,-0.6808180929055371,0.23300589425381824,0.34310324273266735,-0.6747754968699182,0.8982853105188661,-0.02025790775395986,-0.4107445306841617,-0.25943713714760686,0.22592767751171772,-0.4033815108618263,0.19142822744953414,0.09982177849731688,-0.8916683692511581,0.5700526959379533,-0.9028692201180583,-0.4600077761386484,0.6860942226742326,0.437819998017818,0.7560114775629642,0.5441325853070231,-0.3644576820564065,-0.8431190523944607,-0.5315605559197054,-0.3114698808761429,0.3142116369606943,-0.8513083358622726,0.014372545737276643,-0.9581894271842407,0.6692057180072193,-0.31370486608510983,-0.5070595422632346,-0.5943960157501113,0.9360875552953118,0.47085688655742275,-0.3033953741165055,-0.056155466932078735,0.38075793297197713,-0.01694618210107257,-0.6376537588363188,-0.8449801030991504
-0.6063604356426154,-0.14190433197214003,0.45275096390247216,-0.9180168038895433,0.576619615734398,0.242167346307134,-0.4486683928817734,-0.9005200048102175,0.9993314330332119,-0.4778420220623576,-0.939581735432606,-0.6132138093388375,0.4430804476049144,0.4803502772739935,0.5876220428645744,-0.8532081118810003,0.8225765333588506,-0.4571518272412066,0.04259837506709585,-0.7528499245627196,-0.656666904970663,-0.6460333796762296,-0.8321042208698493,0.9690517260911623,0.6473640352369838,0.38364550620902915,0.4964045401232742,0.796483804602209,-0.0538177761867934,-0.25704137766572266,-0.776751875116529,-0.281330030625242,-0.8604642363578385,-0.49671258981456,-0.19325873235641455,-0.07361167844003125,-0.3069069871411044,-0.668594977354877,0.7487126164408674,-0.0660214914854459,0.6718542154005952,-0.026167608236327133,0.780613289798659,0.6288201641689859,-0.524550318625374,-0.7370146088172499,-0.9874516152716899,-0.8390645235175376,0.8683113556354334,0.3224951941771985
-0.7553619389168613,-0.9981573004570746,-0.4498400776735597,0.886028323348422,0.3874015779116299,0.3237500755213091,-0.04644325270369287,0.6204494228587757,-0.8817803617069686,0.8084348014459517,-0.7607182323841564,-0.5515224255631344,-0.5854967655142722,-0.2344026652457305,-0.5883044900170507,0.07460339670368754,-0.34710430964461303,-0.9873600609667039,0.5884002819706895,-0.661928378475657,0.6031156939874444,0.32716606136754645,0.6415420490840118,-0.5537146181463841,0.5515293359983234,-0.6624734154461496,-0.45263098271552105,-0.823699817406578,-0.2994813948880696,0.045621902938370096,0.3843817449636976,-0.004030236035708179,0.807017741416813,0.3611529226565371,-0.23351017911017102,-0.45019648988443695,0.2826043792034514,-0.2482916213256291,-0.002752417349903169,-0.9246931212542226,-0.07779921841404192,-0.9334528708091528,0.04194318608089831,-0.20970852311435273,-0.4673602408493458,-0.46116072771781824,-0.12014670815962836,-0.8743196248818841,0.81226100205002,0.5329486403347131
-0.9578607370313106,-0.12088901208935643,0.7705498049498369,-0.5523364541369179,-0.6065217778637062,0.132614024230723,-0.653088180527776,0.7771751379885443,0.8056294629622442,0.8751442372941459,0.010727494602093435,-0.8839367968936921,-0.4917871381950545,0.3625109552036626,0.19467838526129733,-0.3647533386996743,-0.04898066485264807,0.4929490541492636,-0.9800901330016906,0.9878364239426417,-0.7989771457910876,-0.023833447326291335,0.49880378048138785,-0.5675556348419319,-0.7836734855760547,-0.1373973672402048,-0.4445159620678464,-0.08729803268371672,-0.20920249164740268,-0.1928751101132441,-0.3220526944033155,-0.6131153957318476,-0.75673013501884,0.015988569566631528,-0.6325946427114677,-0.48391888745242506,-0.16708108195651672,0.7157101709240379,0.4810043327285106,-0.1789945094221519,0.18795268360333894,-0.9154700693566897,0.9944559362377146,-0.506902631841193,-0.9688185201417461,0.6996382244403538,-0.7416891645053124,0.7278019447773667,-0.54895379281934,0.6805502231109138
-0.47140717540432053,0.8553762781734534,-0.5465463294247441,0.39966634364071285,-0.36681933704621517,-0.5261275623754662,-0.6756229625461317,-0.10096920455990233,-0.9683833109251917,-0.5147129753648035,-0.036959884159346035,-0.7120163234011238,0.10070844283030456,0.9607950750259915,0.1661814707481114,0.6071507116907933,-0.6552878632622993,-0.4134362333563386,0.9562705198218243,-0.8352627966592125,-0.9094112489725988,0.04540444694457324,0.13159624871410358,0.6543233679742564,0.1633131392003545,0.5442690665026888,-0.49080206198260623,-0.7799792766632454,-0.17013473269347945,0.6742476883123576,0.7985164942449587,-0.5975199351888715,-0.45724010258040515,0.8661696351523267,-0.7327229635059634,-0.4388464285898033,0.17767812803783622,-0.5315706062305916,-0.358671627617442,0.2652870764813866,0.7231502333465906,-0.6388822936321764,0.8912444776230075,-0.0386579274911355,-0.7835478030316199,0.092216961112073,0.8578254165157079,-0.49779726062474794,0.33421831924285117,-0.7339266534124738
0.6324010846921706,0.1698421910744622,0.47811081318006365,-0.5580199678707757,0.6209213482180632,0.7692556714756166,-0.11268316049173965,-0.47211160785683115,0.5700026718898354,-0.0026665011397126737,0.4254027573111262,-0.14093689054418712,0.45852517239454127,-0.7187643353408608,-0.7071622735971858,-0.9731749906140009,-0.30586191680473596,-0.12622964827819694,0.7802253062149798,0.4132901417684356,0.894499876135127,-0.07238896929200234,-0.5702494812110357,0.9564075852308014,0.5810355564636634,-0.7706238386734476,-0.5757494080066589,0.40685534130496914,0.5022542492915637,0.8238220629784034,-0.41656736632114066,-0.37849666754978073,0.8634294281896175,-0.5829174034814734,-0.9142506575795718,0.8874378763954792,-0.26334431851412343,-0.5289947404878734,-0.7772180939016772,-0.6576730292020325,0.26198041029750874,-0.3004539140035024,0.16519561186611897,-0.40659534202521375,-0.6983862495498618,0.3564183635272712,0.48228633502767915,-0.7267015673008232,-0.8604022904781831,-0.46497732087647237
0.20878023486940656,0.5394944438614085,-0.26233173297476564,-0.19808574432461445,0.539107562240448,0.5075453753353554,-0.06052526273286474,0.9974337053601386,-0.3670078820230478,0.21696979747034817,0.5042943574797487,0.3546021048586603,0.9317313573374713,0.9999760237693012,-0.9082798551382192,-0.5431339889006598,0.6884616277745507,0.6889711299506254,-0.6196410730999407,-0.5380701931811538,-0.33339826789482996,0.5862935002731559,-0.979464424110553,0.503581679145569,-0.5989416540195394,-0.55519183691223,0.4649053592034482,0.16839577526470106,0.8595554661665051,0.9570414430920287,0.5679613918974165,-0.4953671030128173,0.5383786058102472,-0.21425537874419942,0.28433132606338596,-0.914963170813242,-0.17122062211374522,-0.9061095712933818,-0.4283899421291455,0.8076016008046447,0.9563023926539015,-0.9476023570367226,-0.3605921093517638,-0.9719571833961261,0.41949548789179747,-0.7386816577366772,-0.23188679258331435,0.010312573301458072,0.18119249692658645,0.2874380655154283
-0.3914846767545028,-0.5851569486711524,-0.788817404722617,-0.025279160552960644,-0.715459718761252,-0.502418269884265,0.3722873399056129,-0.2514208906616313,-0.35402173075691734,0.7055170101449647,-0.19204658439431055,0.2662917380698103,-0.6224557178011715,0.5211520110268095,-0.6737508475070727,-0.03368067515717821,0.7539400597434021,0.6891538729535898,-0.7701545431394187,-0.34732871588643044,-0.36072738246222713,-0.36792690075039114,0.9285579219728832,-0.8174127194325655,0.3170939896972872,0.11759743324591976,-0.5539858446952425,-0.7139037783473905,0.3420799796119218,-0.17943936597126076,-0.4120431903964439,0.9556192298212273,-0.015064924242606081,-0.9605937098844117,0.5487951035943234,0.8057636370377151,0.028953178697291304,0.3140536749496321,0.057138775895480776,-0.37285182535909767,0.5360661846612091,-0.5536905692695347,0.4422246659982765,0.4793030737060051,0.6834225009577966,0.2056415217645875,0.9351872799279001,-0.4898988995143493,-0.1584021455011555,-0.7602210972584794
0.40951986115447525,-0.782908349865779,-0.531645095358381,-0.7260367062548508,-0.27090533345382783,0.5487910350881363,0.4029593983570908,0.4312593478401433,-0.39139409969109273,-0.023238195719365806,0.5934494179476826,-0.7498965244491025,0.9698944064455339,-0.6584907537294289,0.27000071995303954,0.22597922857198605,0.8717300831069619,-0.5964285468409983,0.11627277591988738,-0.7373522529034027,-0.33255258098338514,-0.26524034137413355,0.3378198105080693,0.12730115507474227,-0.9229582321692753,0.5619101361549764,-0.2632162536346727,0.6220469532025179,0.6603984078839216,-0.30801861961570653,-0.46910512510169555,-0.4584727809571003,0.9967898563558096,0.09332295415974112,0.9940769454362297,0.5027664992885802,0.3748785390401933,0.6786025581904563,-0.7113118267804454,-0.8351124610526548,0.9620766640363094,0.40870521928457726,-0.08075322364374793,-0.20409755304830468,-0.7267852074638432,-0.17894047985207817,0.12212992107207754,0.07254063539986388,-0.37721873106402315,-0.7232737295340333
-0.5672219132413594,-0.5548512605032845,0.7643467593758305,0.9292084700468637,-0.36316125634886653,-0.30649897051326125,0.8435917168974661,-0.22716239885233336,-0.8417550700839537,0.6602003828089253,0.5458368993604056,-0.2488628892145952,0.9315077887791825,0.5677547906414809,-0.7690502425949739,-0.32281715135028044,-0.8360639909635588,-0.6211274328361234,0.3539270290254095,0.12656213353798573,-0.29594817867304823,-0.7506039282613914,-0.6312990443275245,-0.20038837189119463,0.7890858356073529,0.33713965373089727,0.31706012800427363,0.6635535380513584,-0.9914051497899234,0.4201200122094886,0.9767539055228632,-0.12150111709702316,0.335951371702888,-0.6310833058722483,0.3622149732425939,-0.17145613954940342,-0.9496184518845097,-0.6487120806307388,0.3518249895493448,0.8947017358231032,-0.8266154401108228,-0.8082725296592297,0.10591555034714373,0.8476256194924294,-0.41642891454733055,-0.872475975591595,0.6620430149867861,-0.42827683034008035,0.26693593855493114,0.6165546639744341
-0.136291999755908,0.2936060114191509,-0.9451650228782631,-0.14895224389212136,0.39551928583130924,-0.7418304724487889,-0.38544949250086824,0.6741146332502989,0.008185303724936532,-0.24686320480313761,0.39636067064484737,0.3546817592517739,0.7385523033881509,-0.2884319185581178,-0.7238848819686476,-0.7698382631597239,-0.9736798410969356,-0.8558118263408364,-0.1967086894756881,-0.9998786739854976,0.6430015694361202,0.817744307662455,0.23247113662267804,0.7732548104212075,-0.7956085081120584,-0.714152398412507,0.4200838098227231,0.0481687100371051,-0.7998472234363304,0.544954970173617,0.37212945418925303,-0.16665721607143236,-0.8843610989513211,-0.64201685009195,0.9367536895205614,-0.4579631111061613,-0.5208306564207827,-0.3204444309166372,-0.6006636269218342,-0.36918490421945804,-0.6107756949694468,0.742108393319641,0.35568920915676405,0.090703309690918,-0.8118700419146376,-0.44122944824996135,-0.14167181702561527,-0.9221608194878312,0.577844147297556,-0.9159360083382968
0.7972757837035431,-0.7030525166614049,-0.0059714598562595755,-0.7795871231925454,0.3291281323846862,0.8499475228058443,0.12460204978157452,-0.5285325167481828,-0.987405261468355,0.21402724143229546,0.1892066824177382,0.9310997382814847,0.3672934577786635,-0.5618317274547615,0.1128119524851594,-0.6399792853663606,0.010981328686520575,0.3614513615188405,-0.7465768623534017,-0.7726737426306959,-0.3882608905345216,0.46328315612866755,-0.6105154709259116,-0.014150916187635199,-0.4511713821696016,-0.9015381646175532,-0.38803047378233,-0.7856086674659188,-0.24168973532931903,0.4049445940575569,0.9262251821522581,0.19082072203147504,0.7642051944727617,0.8347548259888843,-0.9923753429514302,0.5506075385126638,-0.09081335400456336,-0.6638766558922211,-0.08270459925764706,-0.44363137644083694,-0.2063875805751305,0.11994896286643508,-0.16829774118794683,-0.4269268846730061,-0.5469269932588487,-0.8595587477976722,0.18150715291289787,0.9227194795573003,0.3066783595839493,0.8818282682926893
0.2578476857720119,0.8354658079584666,0.16559325374964518,-0.23009950365829268,-0.13717729184975835,-0.9538211166983557,0.27927676113139077,0.7790281612212253,-0.649775363308356,-0.47972875501252765,-0.2516515115355106,0.38715442276788004,0.6184224184858557,0.6954564706112247,0.6445751721465017,0.1252810802946247,0.050280221942168524,0.9251240408961534,0.06918705181989815,-0.11942245562348475,-0.8375227900249347,-0.9401522070279071,-0.4322220783985572,0.7810218554581355,0.776553360271271,-0.3990635829483249,-0.03740387824700464,0.32739899326603106,-0.03426427433834167,0.5431177627133096,-0.6570704320510832,0.32211295346916435,0.3938316148241816,-0.49121955571561327,-0.726531930926372,-0.17872015462574153,-0.8434503985364962,0.5707063170670869,0.4419086812867391,0.5694970353685562,0.5640118365480974,0.35787655847334554,0.012039288280297322,-0.49602689979352255,0.28103053246215426,0.6668111473230035,0.5047643754541511,-0.5528651524690633,0.41719597247486484,0.33937317269032874
-0.5285356668343519,0.500958876127357,-0.41583451504171187,-0.030967700214180494,-0.7622735936861726,-0.09213605200097741,0.6338304107070625,-0.9581983732895236,0.614457553054144,-0.472305905687347,0.9533807033513706,-0.7301992062444974,-0.9278596682929624,-0.26525764647487926,-0.8356125287602374,0.5670936256191237,0.6371375259548606,0.6372432893055804,-0.378322547450507,-0.7374391987844062,0.27726782705357145,-0.06657718631219911,-0.9722646811193489,-0.037127284796739546,0.301733290146069,0.0021005293196683095,0.2900213383753901,-0.3377840133290807,0.3845164042494421,-0.4179822053252813,-0.7893151957309005,-0.4549517087443925,-0.6684745411237119,-0.4740917146091763,0.5582053505772939,0.09289328038345512,0.8739073991665753,0.7199844569552791,0.9586588444940152,0.9949660171531052,0.3965930959988546,0.9029025411567688,-0.3597871798473802,0.05335555698548733,-0.3420192140810878,0.7043378638801628,-0.21323100129397066,-0.5681088419551253,-0.3542447531048448,0.5020494879944352
0.8872277842403608,-0.6225894961570617,-0.16140514104994796,0.26920380186719517,-0.07084678161214586,0.28468417834170867,-0.38681923190277123,0.7829859766860918,0.48964160815718827,-0.6382301572805722,0.7651007561967106,-0.8764628031167537,0.8177654920189057,0.5665492059739856,-0.35653256219861296,0.1717323523132176,-0.08090986529848743,0.6907224216876758,0.49840917254733486,0.07566045325503623,0.9587023064813439,-0.33651212406613507,0.7062420514120925,-0.2883891164178731,0.17709412134144153,0.48385389190376726,0.06631546402281474,0.8688625950151085,-0.5101469609687036,-0.21619513377492594,-0.3122611787952033,-0.5901129370175328,0.8043926185917183,0.29824909537288957,0.4935503446670999,-0.3373026582939569,0.4321992119399345,0.17787120402269319,-0.2315090933221171,-0.9719310596639797,0.11721992379616686,-0.736291262314795,0.7900090884800695,0.8091832757646266,0.594687501803926,-0.4306462251869383,-0.20138064841966474,0.9001783931793886,0.2307164497932399,0.5946760417324957
-0.6867284322590421,0.4087052227870086,-0.4394398906473962,0.2559991514538418,-0.7844420038614565,0.34318705806410066,-0.47853340240678854,0.8248649070390006,-0.6668543271652556,0.8509946750603351,-0.8761122262289929,-0.996662500645914,-0.7381517630187124,-0.14490413730584017,0.2556430631808986,0.08877616118029874,0.22595532877458258,-0.6217558267818714,0.0290569690485748,-0.40227188858811813,-0.28764363962293227,-0.24446983539147238,-0.003813054740793187,-0.06970996171112942,0.16403857173809133,-0.4735460454582501,0.5108904359387395,0.640244770163377,-0.8100285658887197,-0.662781055908201,-0.5799962173929007,-0.8184113108800302,0.11398805252119859,-0.5615859427306698,0.13315571047970098,-0.2077235390843194,0.9605317968780571,-0.5313285381718332,-0.36016283861744713,0.26065106687544204,-0.07699133170907013,0.816469141635675,0.19306472765366978,-0.7717167000225048,-0.7566759900201867,-0.7024469951806331,0.1003991033171201,0.5989815902493342,0.5246086209589791,-0.8238500891670147
0.44905322283317295,-0.8286477621273256,0.781978231321078,0.912690305279243,0.9536276685945834,0.8271762989985285,-0.7778721320421218,-0.364956990319269,0.13835896333591413,0.11587396268881245,0.08616207511860108,0.290949775136349,-0.14287674439570242,-0.015848398867428615,-0.48308821984016515,0.1943215431252855,0.017838145341710243,-0.6779923491619462,0.3791872153130702,-0.14682801834788228,-0.3926663462581179,-0.31520974649747624,0.7599283896766735,-0.12576033846751433,0.16577609818338046,0.37728347991949596,0.40898072505601923,-0.011442362619239588,-0.8883682859009043,-0.517720215258156,0.09669196698423022,0.4488860449984249,0.03893642681586573,-0.17392249997827802,0.842537051821177,0.7001823867087101,-0.1667822929652376,0.2761358424896384,0.701010877132266,-0.8482364403252756,-0.6942178763148905,-0.00467764881474475,0.05732133020975949,-0.6123752447859384,0.7500542654950054,0.4753452016814811,0.0671698236424072,0.8226940170562433,0.7845727835040798,0.06079279329053089
0.36192117476435615,-0.43081919738870134,0.8698158125685648,0.16538935413277833,0.9835408645405491,0.4610475648456043,-0.9165360685354987,-0.09974763597125602,-0.7949122892196602,0.08173649747008704,0.2965851577335349,-0.026500449430355344,0.7912029423631112,0.4819816594542957,0.0704206616913452,0.8861339733435749,-0.6713313961326567,0.6625623775934343,-0.7643244477418951,-0.9196231210897527,-0.2285222497135443,0.24242513363919738,-0.8458791983623059,-0.05053789590448421,-0.6057687649442973,0.29090304288712954,-0.9353837402453073,-0.06754417565573101,-0.228673862820176,-0.2032977488083535,0.403647587814043,-0.6576646146799182,-0.8412000263010214,-0.2842678144170038,0.6331929853415759,0.42022101503147313,0.5695004637598644,0.648619896399058,0.3523221545789861,0.6926430620478174,0.9594153804199235,-0.37909193038391586,0.6827715661243065,0.15383037585293335,0.2052735332207427,0.7585707875655713,0.3854390623221876,0.3531594966717011,-0.5230736090279244,0.9057313780013848
