0.6787846694514477,0.5912920034481343,-0.043690951203993224,0.5003908875574343,-1.07715371990681,0.44600071872584196,0.6492346752318776,1.7554657427749607,0.5520707057966044,0.7210702822257836,0.005446342253407689,-0.8447806213422494,-0.17420157504583075,0.3513305471929824,-2.9859394008908304,0.50752812149842,0.1949132307118752,0.07594705632376055,-0.12072660993441649,0.02781357045721432,-0.5132692778440989,0.6658032391108973,0.15890053073003124,-0.9265153048002956,0.9094700190291372,0.15726882394911668,0.6866709311625716,0.858531192248395,-0.7797622224191866,-0.33628451452765806,0.7046632999019709,-0.5820745384592877,0.15058253889900583,-0.45272056463194865,-0.37035786651091185,-0.7684972343692597,0.8071772829185997,-0.8527913492340571,0.7153574024867498,-0.26413975274680584,0.1542436323422509,0.8246089108694054,-0.11695810561944514,-0.2876215857338623,-0.5478941463064572,-1.5657895377950475,-0.7633741657919777,0.2379981942118548,1.2098667650264323,-0.024343491401815708
0.9258089377493011,0.64733915389128,-0.7234655013537898,0.5837559037457606,-0.13137364289764183,-0.14802035929293353,-0.7949423090790695,-0.1612532262327982,-0.7630551846370444,-0.7155008071037461,0.506483765144768,0.16668383388673516,-0.27629758204128474,0.2724813157567642,-2.93012358083943,-0.7057724623345957,-0.402451628576731,1.6579382752425011,0.524504906581884,-0.14508891828072443,0.2895752011749438,-0.3988048990146544,0.3198462025072892,-0.7085387382715035,-0.4183480873806951,-0.6404352085440158,0.03603678857807371,0.6091498686401066,-0.007658075566822216,0.4833167152601174,0.27595916720014374,0.7392520877546297,-0.017409469007880415,0.384430196846905,-0.2935444193870793,1.000408334876048,0.09369704800297675,0.8774286924444905,-0.8570379482944445,0.889980496297399,0.21960001045197886,0.7318966186438502,0.8315697415143639,-0.2158197896982882,-0.23436510664909743,0.15549919403914708,0.4539426241568039,-0.05300085588627791,0.759122856694093,0.08848375626072448
0.8640969683885291,-0.13830473660987527,0.18337139901853727,0.6802269027034945,0.30734153537745246,0.9746914967143696,0.3934578459723395,0.5557312011926093,0.3291328114165473,1.0105400629856158,-0.5063949355362745,-0.3597050217127818,0.5820510408431826,-0.009247341790859953,-1.761773287752602,0.4201477249502535,-0.7866593202736623,1.626375623250358,-0.7449201276908347,-0.3958576470907392,0.6336904860290768,0.8938918234225367,-0.8246535580741511,0.7730881106240918,-0.7061979965805774,0.011098573818396225,0.23163655073757203,0.9206235971646151,-1.2666959524634314,-0.35353400646393995,0.5059202421049455,-0.7730363688828961,0.8698718236668918,-0.01388682217438099,-0.9543297969404113,0.945167589851794,0.4943478452223815,0.6125075758006283,0.7704578386758921,0.5047179529632159,0.2533053983669453,1.3857131154078706,0.9086719726225998,-1.0309167017290393,0.4740654370570651,-1.3047421584294336,0.961825022922897,0.92513394094032,1.3484895427040586,-1.5499409520879273
-0.22191551081523903,-0.7133387920084588,0.11930361845231484,-0.027498972411004276,0.6446204988361128,0.2140445769318563,-0.37700385590944724,1.292909285078163,0.5832850526892097,-0.15654869727773812,-0.12063694660281975,0.7040078150970375,0.3172028672965924,0.33988464548347375,-1.7833298643271902,-0.2252713576194077,0.3575034103467041,-0.014257017914887787,-0.3857730787191699,0.6124828454312372,0.761348726397196,0.2270822525709509,-0.060729744008950946,-0.34418382399577596,-0.6048660006237625,0.4729238788801588,-0.4449993741406461,0.6372481294086225,-0.2613320681236462,-0.29970307511595634,-0.9667392791188592,0.8439324456508195,-0.6279482950332916,0.5824153086547861,0.18945386077347554,-0.0888474960878241,-0.7146776002561702,-0.910200818033086,-0.9135865432762859,-0.444567346048684,0.7796625824986145,1.1746044914471365,-0.4503091061826299,0.5681530955652594,-0.16922185297315775,0.38399994582263797,0.8564048261364319,-0.47185000087907686,0.5230281542195768,-0.015413312427607585
-0.016374566854322765,-0.6856264624516137,-0.6892060749530509,-0.5942541936192716,-0.10206252244698635,0.5270089067548531,-0.4726809273589534,0.03640196491725007,0.5164291933334422,-0.23719501935971735,-0.821799300675696,0.318833266628557,-0.9591783424159249,-0.18052989220874058,-1.4549952925213272,-0.598904243188457,0.37347828389223214,0.02563172735359429,-0.3685334528478769,0.4748346915954816,-0.46121069909997503,-0.41556197233499415,-0.022109547500875817,-0.964388134631646,-0.09630329450989185,-0.8424185121091782,-0.14871139184858617,0.6752814082812539,-0.3949344854548676,0.2921076696794862,-0.9288157648487492,0.8647972380040645,-0.7353327307350349,-0.15105455499104026,-0.26618131945253504,1.0216025173588281,0.7527122060107918,-0.330942192253849,0.09384723541934671,-0.04266309471053579,-0.7295369085391101,1.4197042600572651,0.37422950580479025,-1.0121010113329194,-0.7266805196963408,-1.0211067155128752,-0.3228015894787212,0.8707950209556682,0.6020262788437842,-1.1178322848577422
-0.6983838963443804,-0.35115515056154745,-0.44095848795049924,0.23882108837772148,-0.5304063876495262,0.19893519534187848,-0.9311620188582933,0.8111991748786218,-0.019025709757122138,-0.5165993177706696,0.5015550713658954,0.7293266879193603,-0.12746713773516466,-0.9037658661733458,-2.044059570100202,-0.6912197775844682,0.5768017392192266,0.2098057811559998,-0.5127279335247014,0.27371858215686506,-0.34636402523404164,-0.17946254711844517,-0.6846986215847899,-0.786347293826412,-0.805473247352439,-0.5704859334133499,0.4055471096982124,-0.2738355321274293,0.21496383442994998,-0.182910729476472,-0.05107779302392874,-0.5394968114834127,0.8467064299255516,0.20984311177907075,0.6140796763299536,0.856305095008378,0.8472189856115948,-0.3835746106724341,0.3996543284725385,0.07189262854242984,0.13293855972537974,-0.03063665600085138,0.9812496615194833,-0.5928835448663754,0.17728360289923134,-0.70371394977143,0.9444040332950281,-0.16194106713057976,1.4555189352374556,0.19906501367661197
-0.34588114987051416,-0.28741474566465486,-0.8502457907837919,0.31059507018942256,0.6912676479434635,-0.7236058859449495,-0.9927506145229923,0.5450317942094977,0.1651753733004876,0.7794751987166088,0.2834772614508404,0.07143391143215595,-0.030683940441322506,0.5008723151673292,0.11359994293063608,0.3076602763454799,0.11530470148163488,0.55020822704811,0.6250171582784265,-0.5907143845548621,0.3646183857882517,0.6879171257872073,0.6452093399398928,-0.5157956634021371,-0.633596355381833,-0.8681802325864817,-0.023632788970789926,0.6971543650669456,-0.33564447700910605,1.0832627892230993,-0.5879176786999148,0.7778460199209347,-0.9539136664757745,0.8958964019696041,0.1364083175498169,-0.17323955269244104,-0.4995008340097345,0.26062053030826327,0.11566882223135033,0.02091741516634539,-0.08552487859140318,0.539426158321227,0.12770174356627986,0.8877529137939081,-0.22640533232937515,0.5136829116029018,0.8692592151232492,-0.5317259863913169,0.8280242617969529,-0.869114184998751
-0.1639409859406301,0.3290546422192197,0.028479940965643383,0.4333032973296954,1.150270234091061,0.9625793567387444,0.5269314939787078,-0.18590059167241121,0.9980237343754531,0.15985271784655317,0.15275885572998937,-0.6627097142877199,0.458817702583765,-0.4418429245322602,-0.7607652280611062,-0.1623607604752889,-0.4542329623637375,0.1963051613586043,0.7563388252597919,-0.7392802244229262,-0.05566217126162157,-0.7099365588568316,0.05868648164282383,-0.05647714731985838,-0.29887215779964244,0.4680875769020849,0.36010188046693564,0.45578045470568535,0.8605168132820243,-0.8405161549736395,0.722710528763439,0.6403263566417977,0.2049990413102484,0.15859349974907855,-0.4870616743523194,-0.3897232715801804,0.5324858813596786,0.5946668803057467,-0.4662630484798194,-0.68424919253615,-0.9512072753169212,-0.04844938508654919,-0.16428405326232265,-0.2564896434182952,-0.30405388067508166,-1.03931151985617,0.33875550855798753,0.09908916919389335,-0.2775506509706785,-0.02901648732902116
0.7504506614640892,0.7575105434281797,-0.45455257615126266,-0.7676705570073457,0.297398344039885,-0.8202780284047189,-0.26522434960553043,-0.016322002883702977,-0.6249850475475682,-0.1612841163589266,0.7940258629775047,0.722116931402855,-0.8444986046536128,0.5821197046789112,0.2090707898065691,-1.0126530847191986,-0.29550413745793,0.22953095128273615,0.27037508897054674,0.6832463266005308,-0.8624629183261975,0.3041096377410468,0.3870237271837009,0.6840047270736973,-0.9657318732079342,-0.8480892522522498,0.5040247473719118,-0.3664188125317367,-0.2314311913493153,-0.27221516507412424,-0.55699794997974,-0.011841592035727209,0.23171431565169295,0.8177998366456205,0.5096383225634487,1.1469977819886552,-0.46368732002297103,0.24723749367844208,-0.6160484166364985,0.5222575710639352,0.7738644236072585,0.6932630939800185,0.7825140472338095,-0.9444303847267131,0.5986754821914115,-0.1250213501366445,0.6546197782466258,0.7940704089612051,0.05341514900112907,-0.8959272766634958
-0.2904778499897189,-0.5863347558637757,-0.8909457057220094,0.04591447914280608,-0.3237358498312063,0.6716258978059034,-0.062343899550627864,-0.7965079703221801,-0.31154062632126794,-0.10067460253249368,0.5838720625490476,-0.8859486414561585,0.2057377985027601,0.7108339977574604,-0.9078229703474008,-0.16711427384591016,0.1807306539735065,-1.0564735706923292,-0.30621043297951706,-0.20810462384322964,-0.8769079754636295,0.2926811341855564,-0.7622204820593051,-0.29861305659441845,0.9084829951011741,-1.0218088093797788,0.6971379028748306,0.7219189487796215,-0.33872793938619894,0.8252596272839141,0.13335373519049837,0.19065792850207575,-0.07908123423557785,-0.4801806596121795,0.14485459860682462,0.007776159152614835,0.39451729865900675,0.11239823420813726,-0.9954362759412669,0.9627078125222903,-0.7202675462769825,0.6880394412919142,-1.0003788721679152,-0.369033517616737,0.7196621529874218,-0.6550627141632416,-0.7759349217521128,-0.11507306755268787,0.024267321650268885,-0.755289231221671
0.35731018098411343,0.24295069817847897,0.4020039249683572,-0.6536402007674529,0.9919025742488919,0.08905318614729509,0.22560985555888874,-0.2294353333235527,0.28681989676797254,-0.671482400321049,0.3009446315365294,0.46544399774923334,0.7435724727963661,0.2839390153318781,1.5825756688771986,-0.43269918793636414,-0.0018132935391167746,-1.11859696972127,0.025157516685925134,-0.22691831414852712,0.2682012244780102,-0.37351767342660347,-1.0294926868850418,-0.641815494447547,0.4169897040508162,0.10107991277196966,-0.3116280713187924,0.059939216791510826,0.013731265504045494,0.08083575376074857,-0.8111399132988376,-0.10107659337284076,0.22816536479579025,0.620885684678804,-0.8207414552739176,0.4990772542650892,-0.7866623903910144,0.7872566913219304,0.15663035531938832,0.9485162190374928,-0.47871544715453646,-1.0939671351727713,0.5335805568917203,0.24060062007548752,0.5412143423252089,1.351688396354854,-0.081871455445884,0.8967311342932953,-0.9211432067761451,-0.3288578493004538
0.127616255354173,0.48081683257260294,-0.0689208544144061,-0.23427095022987385,0.7041452009117529,0.3976381737565762,0.12222997061092936,-0.37804971400503334,0.020493964977781044,0.714337787290531,0.87727203611205,-0.45813835242715956,-0.1479626694192242,-0.48059667099772235,0.5317066774190405,-0.9434124296196049,0.7728256098546644,0.08047928468369472,0.0814950394430973,0.6254431764396168,0.04900253154543579,0.8745937198499019,0.7869383369570299,-0.08462400378838447,-0.5472778957065056,0.36365201290867244,-0.578366817115545,-0.042593551697520673,0.3437207246174274,-0.10440257956512031,-0.6886034394009768,-0.8514230853357828,-0.8188672726267583,0.4015346658452517,0.4587542577675126,1.0774376272617818,-0.04936454577409642,0.5824916122981617,-0.9833511771176066,-0.9426848191272496,-0.35258631930531253,-1.1005297644526626,-0.28717013989310736,-0.5191817772016878,-0.08746089904294177,1.2947587867638917,-0.010914567535537708,0.4765434966060204,-1.2657349491602445,0.535498814243656
-0.549219770361012,0.11808967965607145,-0.30642341749584895,0.017560561571716097,1.4758588610723475,-0.9699030994777482,-0.7978574113487141,-1.0489482238709613,-0.7594603479459109,-0.1501086439660034,-0.13387148206608518,0.16660567040138355,-0.9460744659831185,0.6041772906493144,0.45579232756595406,-0.6521668805242756,0.12842400423123368,-0.017601516887141823,-0.6857021314256063,-0.14389106860544015,0.6528054486827115,-0.5610456334750548,-0.3067778565490051,0.1370425769068889,-0.35356849941833707,-0.16279572593828062,-0.29119403669055466,0.04436820848804613,-0.15318592974633,-0.8196670246048455,0.9919992260784153,-0.11260730395958526,0.04098199132480617,1.1324201953267599,-0.3459018135787866,0.1352875545182725,0.9336373815409871,0.6615927422702386,0.36881183073265467,-0.5755696004724162,-0.4591097807895868,-1.1081163804827638,0.9591627847297117,0.06918122235784534,-0.6125218485293255,0.1028819862259336,-0.31233172973082235,0.726839165056476,-0.012510485955245749,1.3799051871225512
0.7845915009220966,1.2016418830337614,-0.7032261352940365,-0.01623735236696378,1.4996790435457934,0.6479382549352987,-0.036779226232830406,0.3868512569961024,1.043327773442884,0.8000720635474883,-0.11222065434368723,-0.16605964688146108,0.5363700558449526,1.0760252816411333,1.7441594616771394,-0.9008453642736785,0.6176539292705576,-1.3056124631816464,0.5821673435985025,0.2805565095412502,-0.3411875590152205,-0.6523970963662273,-0.27531739327725224,-0.837914968119599,-0.9787272205335998,-1.2827958832885258,-0.7132675037402245,0.3377005936459829,1.5978536837889596,0.7926268506340904,-0.7342198720526842,-0.5711572759482063,-0.05222876160336323,0.04564170150962856,-0.12106681602354975,-0.22094052529805766,-0.44026769095301405,0.29074496934679145,-0.40465403819401535,0.42828106846142505,0.4685270115881844,-0.9524071615792606,0.1364151056901764,0.16602173259623682,-0.37100578254098004,1.875456085174057,-0.9852871168566543,0.5295852840951198,-0.7667863972971666,-0.3417211259759454
0.28803174513301866,0.09330777696762467,-0.6931836102810746,0.005118725450278313,-0.22333017446875683,-0.7078523000525612,0.20650165839477694,-0.6618974299927023,0.15421719308386658,0.8331386499101907,0.6791858029804445,-0.21601910545238215,-0.8888862992623578,0.577219136733182,1.0360323378440977,-0.9589571047252995,-0.9370292866671066,-1.1801286446767714,0.2829619087623844,0.6941710843655975,-0.07329598179103962,-0.10370968423277212,0.42793374082656954,0.1904519509524449,-0.993062151172683,-0.7434683552505177,0.48371270566056873,-0.41993977285488365,0.0070594702221957895,0.609412278146742,-0.12513741940599307,0.6466931841541995,-0.6879157419584484,0.5643123815940873,0.6955607126508018,1.1097906271199114,0.7982142690649306,-0.4156286205972702,-0.849971927098084,0.2042975314175526,0.851376595654568,-0.038524603738782366,-0.19113679871967656,-0.9943970676698869,0.040462434964213714,0.5203918678548682,-0.5573727504768715,-0.4152088253651589,-0.02724500730510936,1.4880576436175708
-0.8719792903534154,-0.273434102249873,-0.11921454958755089,0.41537201258549933,1.744216046010625,0.3116893747300598,0.9318862683791332,-0.13918875835399794,0.9490825450361725,0.7116517581482819,-0.9272577041187872,0.0865717821478066,-0.7045974313740961,-0.05665110386623026,0.6050179603826251,-0.7712894336903661,-0.28966767618262745,-1.4614734501669822,0.6605151945630453,-0.3297828218308493,-0.21786983606015806,0.47292641743152597,-0.6006982350209757,0.5632517654214134,-0.06162488701119407,-1.3264505836322833,-0.007033408504953882,-0.9340199724404504,1.4628815962582362,0.22726451297644465,-0.5124550233924731,0.613396697826772,0.23254232535921635,1.6764816208897053,0.8176758900539336,0.7754877467082485,0.342633109067428,-0.11525030676993146,-0.6832328023665641,-0.33028293540240017,-0.7534698194590523,-1.5144218191114425,0.5343976135716875,0.8814271554058295,0.046954398092956796,1.2411824190583194,0.1177865481466472,-0.366339409359066,-1.1568469374795987,0.6329114105265311
-0.03964854566663638,-0.4975062866923563,-0.07959109149357045,0.8375045782221261,1.3939090010044997,-0.65158402110254,0.7423756134328572,-0.38715692955181547,0.9782855265823965,1.0490145663856056,0.24047679480511544,-0.12437431564400392,0.48410200452303565,0.5032939694038052,0.8377635504013436,0.22109667520775994,0.6587718697876143,-1.5377449026367345,0.4058492818712226,0.33511605298956965,0.33154581557551077,0.8499220966533613,0.8291149299003632,-0.6067855143732114,-0.6022891948804175,-0.03133829277330712,0.6224884560397468,0.7442662829696873,1.3366975195047635,-0.3193344981070228,0.3990156033216103,0.9362288365866247,-0.4501839049780403,1.2971688407964266,0.8899486096449724,0.6288961788644807,0.09058498900375259,-0.6897996314496636,0.3341508174694148,0.6882042547134619,-0.10993794659210998,0.046645762060474286,0.16793852154646216,-0.2570697537287266,0.5929214933862258,1.976250289394501,0.4663976192175745,0.3526816459556241,-1.7647579073955941,0.37512467267604954
-0.5608876312441097,0.4766328500422079,-0.21025651947387322,-0.793244871827465,-0.15615051238294125,-0.20833481417864408,0.6435093719901669,-1.2372081467820328,-0.576382506594799,0.8110299506556529,-0.29934783121250474,0.5233948657529872,-0.5537013459455163,0.7394393286525497,1.0211507754748126,0.7927219345416437,0.8799821391699649,-1.688924425962581,0.40581223887557877,-0.8484663769428685,0.49667481441303163,0.9578535591084483,-0.025509060955478273,-0.06478856656057755,-0.9408477316943453,-1.2589570085906574,-0.7905781365996666,-0.8510391805680487,-0.24778668441083387,1.0389813049009011,-0.4408168109111347,0.5231459577254027,-0.7147216867412653,1.5006644530536093,0.6895719573630947,0.5071294867242797,-0.4535280158989825,0.38417021610718216,-0.717223587673156,0.15023123959136275,0.5608193611627209,-1.5050167705242479,0.9030137520340805,-0.7072980872485426,0.9108477613884894,0.6777383467654312,0.07514409512758294,0.7178010345505449,-1.4687071354935501,1.2042231356640791
-0.5306064544425344,0.9483146946603703,0.9033668733620241,0.5037172443288874,0.7086472694197269,-0.6471077187312171,-0.3421959793907891,-0.5732783135329792,-0.6954559301098128,-0.7719006947843249,0.5369173880333182,-0.7819734437383968,-0.8109428896048699,0.9400220909703532,2.280461221389881,0.1202399774206373,-0.4838013951080087,0.015082543771060724,0.19531751364275787,0.390817901278732,0.5902465743275561,-0.3523730960319018,0.5845506617365778,0.7712642254555708,0.17295409604096432,0.07622292674374025,-0.5700112899811252,-0.18837427075043195,1.1121915730915097,1.0460550745098849,0.9253087156102071,-0.27925257292017075,-0.03815789696457147,2.2273123000112625,0.580739792201011,0.9336380935025007,0.7768377411831131,0.5701600547437083,-0.051252542088005365,-0.14950517993501417,0.6571145894591641,-0.2334854800718663,0.7579645516917692,0.7527081389281557,0.7853718282008935,1.7052277333590458,0.8461191403336421,-0.33419239911644927,-1.132475812811199,1.524746135724856
-0.09411413182228381,0.8869990755473928,0.1434672297239981,-0.46598482462168445,0.8278878935045562,-0.8201810050633962,-0.6903286396813276,-1.5221443860305706,-0.659964474354063,-0.6428912384145502,0.5495410442574085,0.5542241323465558,-0.2162638856099142,0.9717136378289487,1.479144238432917,-0.8923705772182716,0.4602241449889506,-0.3109687877729387,0.19792468765660767,-0.07915895228688433,0.621754404131254,0.2525003532822221,-0.12618753458588597,-0.9395530542514335,-0.9883282491733755,-0.6875987739775041,0.31686494738456694,-0.3528946085788951,0.6563365334806198,-0.4882272364214814,0.22445489557148987,0.1513210789082947,-0.12041099359198092,0.6771490154425643,-1.0550878097555572,0.6159683621232612,-0.8232396414368872,-0.8584399395126592,0.308031395864453,-0.5546867381142294,0.8088592038237675,-1.0707585193902402,-0.1715855071001879,0.41062314818148377,-0.2739228782645507,0.8300826185794591,-0.5284232930133789,-0.8487351809578904,-2.117109989493421,-0.10759070393887374
0.7633243742567425,-0.3984473168475202,0.9264053559846918,0.30114653154559046,1.9892757454278451,-0.0015983980877949274,-0.5586114384866632,-1.3416320633559564,0.04733656624016355,-0.6260733674680377,-0.8956750307498123,-0.9001609747562458,0.9509618931082628,0.9207382922222523,0.8865590311592624,0.3906740291517141,-0.02639720161724509,-0.6073968931565583,0.5454831233117063,-1.0021760774952442,0.6673202188711871,-0.38964727702437624,-0.17909339417663955,-0.8029203811896938,0.7517817327712546,-0.4802740856109008,-0.027204528370781685,-0.0684629785673165,0.6473547040651968,-0.22172371019618148,-0.1134936522869396,0.909395756709586,-0.1326468950139591,1.2032123557896248,0.5970288684545335,0.009093857865564617,0.46189277036238435,0.14298757895006836,-0.34745513511233495,0.3436958538904959,0.5657950801625955,-1.557506374518845,-0.2031707807831105,0.6222887778927549,-0.16994570076379098,1.982181275321322,-0.43087837498176573,0.07831105147332025,-1.8833457816325714,0.3354439414210461
-0.9975586215098146,-0.12974788846067328,0.8705104467331047,-0.006573505715768813,1.9766514650620717,-0.7092958433473525,-0.5786191906876995,-1.40337910418011,-0.1366372277508732,-0.4505027628454348,0.975201177984608,-0.8441424820152273,0.8864944544371621,-0.4134280123681629,2.122491042199768,-0.04087889661355278,-0.2257289105589758,-1.680714212296584,-0.594500618198549,0.4212200772244266,-0.9018454803387005,0.531487520120521,0.8520575727964915,0.3878294885121937,0.2680836072924624,-1.659377581192425,0.8875576237375425,0.28519520677138677,1.557645796903891,-0.09814268069643327,0.9979262267625525,-0.7851301041880909,0.7869360842956006,0.41064095645548226,-0.22750627812280153,0.34892135286670256,0.5321548307039343,-0.7368018105114732,0.6639603463621659,-0.3224173434234092,-0.8996407910091742,-1.72404331844994,0.898328756169866,0.9263449009167346,-0.21473580656893157,2.332100630868147,0.15403063356058327,-0.5682907071478176,-2.268124246865067,1.1118624315295567
0.9620457879424448,-0.6114302864533351,0.4620599763944164,0.518388392775338,1.4772120581295642,-0.38053860787154786,0.11538449868500913,-0.9943899807552744,-0.1719919267044852,-0.5533352929335771,0.33058490607216856,-0.577287772938232,0.7896023875503336,-0.19208818952865797,1.1418677429144262,0.7711578315395208,0.49572387170860077,-1.2896277166521282,0.5297206216412352,0.6140733886643316,-0.3185529958785397,-0.7125903084226907,-0.38337740033092754,0.17791866488769362,-0.17611503478935875,-0.3839919552272411,0.60242386469625,0.06150654611601215,1.1689470664272588,-0.29370807332318594,0.5305397220956773,-0.5891181835589856,-0.9935769957184104,1.1360166789576323,0.16544272991281475,-0.27319744999056006,-0.9091648493527326,0.023539022896928306,0.4728959063368075,0.03336937152359117,0.8407899220437209,-0.6390696991386667,0.34753943925936354,-0.47985714299489524,0.06953708620810889,0.4365924285321517,-0.9206927136255165,0.5507768705534252,-1.7944660145242255,1.5340381905060987
0.20300571373082232,-0.14430518391051067,-0.3055079109295188,-0.5378948823646951,1.5354774261492918,-0.4355692274723161,-0.6987299704155926,-0.8145258173190053,-0.6630168773592243,0.5251483704380641,0.9382338446072404,-0.24460880795563533,-0.04657213729621422,-0.05084103469757995,0.696920139086956,-0.41463356519836575,0.5292065137372773,0.11515629261639274,-0.18221982375654433,-1.0326194698178743,0.8698603922839852,0.5309889056039993,-0.5953898043122682,0.4010648453928499,0.8092445607142685,-1.0320043269635444,-0.3033597687156737,0.22253394109583852,0.832200053284508,0.44876117532442994,-0.06447050079104705,-0.9341197337733045,-0.24352866911732332,1.2620128638631827,-0.8151467907690347,-0.44515638101777055,-0.4783604210302457,-0.07729059132909578,0.4121766911131084,0.9225098267742463,-0.25110228973043414,-0.13908019738680438,0.24480594982426607,-0.44792765617518776,-0.19997484898209586,1.2003444679817645,-0.05369890696240269,-0.618549682847731,-1.9995359007669569,-0.11871762386953505
0.4283696452090515,0.7044423022413261,0.9617548757690458,-0.824803989578406,1.3117917568960558,-0.5149612377705244,-0.7686776839562395,-1.7292852997579142,0.43947628676977624,0.11836777908432929,0.6768937931324113,0.29257390080947565,0.3372754663837399,0.350017900697379,-0.04452932894858093,0.8435666414507058,-0.9743704644307036,-0.044703574423415875,0.7262991597023436,-0.15446782584456561,-0.14051313305058008,0.27345999789385783,-0.043267184909799666,0.400591042223419,0.3700345927416346,-0.48559409840745277,-0.9806911907601412,-0.9461207633919595,1.2835878063803403,0.7914156630343822,0.4352876981582429,-0.10579779008826835,-0.5816824894500299,1.729768933808681,0.6701110845953696,0.2755104873607866,0.39324660270937134,0.5570037371137972,0.26530788510695924,-0.5316232228912958,-0.14633510338003178,-0.7950885901345824,-0.9637691651470727,0.02290335138665664,-0.4724383479754167,1.0028450916028075,-0.6152680611355517,-0.8490687322193393,-1.190676347364147,0.4706841476766781
-0.617361137303471,0.14758043492396897,0.11843572770832221,0.7651784485727039,1.7924756799039296,-0.9581049945121864,0.22203889406318758,-0.5160317635113354,0.7766961586346088,0.4590960271833273,-0.06533105365382758,0.8807366217443752,-0.31500211214184537,0.6577543421681874,0.906567206833264,-0.8052533809837888,-0.7015025081740649,-1.2733180357229978,-0.3627728625672223,-1.071232340568516,0.6310582445507755,0.5345318092214263,-0.8644906275145569,0.3832847484279255,0.7889218263281862,0.23144595337002288,0.0512986107576605,0.5544083082007955,1.255780945437645,1.0056254545196865,-0.785587657495822,0.45187049409451235,-1.11150558659369,0.6976214988976467,-0.03536124613405081,-0.3191233509863043,-0.4585539305614644,0.20538146962423562,-0.11331918241480982,-0.28363013314026186,-0.3964139045792867,-0.36040070821830367,0.6347577069936599,0.7620798148090029,0.08699841209506849,1.678613376820004,0.4561452876087961,-1.063246044925559,-0.9811238321114865,0.8297907776498651
0.56048461992709,0.6292163149130867,0.6440278723214357,1.03939072808493,1.1092293216210356,-0.6496052445348159,-0.5180170355007696,-0.8555929614154086,-0.1499442734309704,0.6693897928925572,0.9961184668477833,-0.06202824458297722,0.29142218573329354,0.10416131463045565,1.0503791304746453,-0.5257832041468037,-0.45041805204706337,0.24213918288793487,0.7525017298317066,0.033265516589079905,-0.5999906082890528,0.04217994365630112,0.5433322723297551,0.5612943109702314,0.9658548397762402,-0.9899856835245887,-0.938429754070014,-0.888106990725437,-0.48911308704816037,0.5886639782410233,-0.17811534601542095,-0.12352291080440041,-0.6974386931913594,1.1041988427769216,-0.5010072274659401,-0.5601874013723085,0.5920592808849606,0.07238261866780736,0.727773897199077,-0.28126553715365493,-0.9150006343154694,-1.314689059905314,0.5075713146624924,-0.3104861087657812,0.4108865621542047,0.08137053078440422,0.46568069937850587,-0.017060767685131522,-0.21457703283478852,0.007141996611592754
0.08234017584371008,0.29274803211244677,-0.8388082819152127,0.3599977063791194,1.6093731652074181,-0.8330942229274643,0.4750175807493837,-0.17299200612211874,0.2551153541494339,-0.53452239600916,-0.22484810143600922,0.9923280694965817,-0.3756120411068249,1.0599885448226676,0.4162188193556652,0.6312758759440907,0.7680417483070001,-0.7725277908607142,-0.5335355775671461,0.6825862451482629,-0.6268276434006002,0.5047285963594699,0.3794745845987749,-0.14902450229404707,-0.6888613698392698,0.08430534069037068,0.0969026700832275,-0.8984619577519843,1.1459490491646194,-0.24182929890612442,0.7917516548030513,-0.20986458947594955,-0.7468524924766212,0.5808718706265191,0.12529449398009235,-0.8195050397855154,0.7634291799034864,0.7376721359973744,0.10197736484941987,1.0119316224411115,-0.1574459466645677,-1.6315698360009057,0.28985371295198836,0.47334498269935993,0.1159172839425052,-0.05385001494416583,-0.7924840500715902,0.5406593632483491,-1.4665903506852893,-0.6837144890793556
-0.7073345335395702,-0.7255868930832237,-0.5920930713076525,0.9790839811813603,1.6246506472166935,-0.8759365697337029,-0.26097124573008473,-0.8819221507514223,0.007965458422637113,-0.12601481724588304,-0.417784853046723,0.8605423833027218,-0.5069270106735927,0.20371034609005229,-0.5439731516602252,0.9933501377674843,-0.4090076993430918,0.636519160623503,-0.5961453878400892,-0.9364591148436948,0.5143921106103442,0.12501334833029765,0.4454180632697223,-0.2695937478045788,-0.08219442166903604,-0.05832510708920958,-0.6210748155327611,0.8541563710165537,0.8210175142896814,1.259017736076839,0.5734011552247649,0.8224308312110561,-0.4849981697271219,1.8331605152291452,-0.7647593968096501,-0.5372364837062142,-0.6832135911679255,-0.031144642272758476,-0.795043185104249,0.5468885726739843,0.48286567264658226,-1.4658848987249171,0.4426945453562464,-0.49954704186165466,0.20773129941385327,-0.11186004593457237,-0.6482098070316813,-1.097103995757383,0.13720660159724937,-0.6302122274018489
-0.05912468776081524,0.344979936702435,0.33391542116911016,0.329848939189058,0.7681006036529225,-0.8794532736580836,0.7823575463273887,-0.02884483355602371,-0.22834763182925666,0.9690073856149363,-0.2986554633837875,-0.8744248541605083,0.9948353028199928,1.0941783120439073,0.19285860591019827,-0.6256542109612262,0.669511984322656,0.7443231655282535,0.13428884102969604,0.5713909082389352,0.6712489752787121,0.991937416814112,0.7570892782017827,0.17851846020373988,-0.7948290060354086,-0.013026331023302208,-0.6665265972151425,-0.9750394089716317,-0.5775584154804214,-0.6982575457421846,-0.7126251730565282,-0.967960545055166,-0.9704880810365278,-0.10113239071867801,0.5099903610593969,0.9093010007391681,-0.3901879766786449,0.10437026815356472,-0.982313890530816,0.13895095341831518,0.9339943531098323,0.1522144635544536,-0.840461016124055,0.920900273559331,-0.7761600269669076,0.4176035088348852,-0.03348286377045198,0.7761531954719509,0.8255137227061949,-0.5102042680199828
0.17168379227709898,0.8836482987115745,0.06063084674215459,-0.30942053808063236,0.047561807047141656,1.0064514251206935,0.16420539749605384,1.1965917993440494,0.5910552484616748,0.19816689223468023,-0.7996086605204556,0.5778649869090123,0.08919502521327732,-0.7198700953539381,-1.7313889063464807,0.4028388783699917,-0.32745222441277655,1.0574202481173702,-0.5978815354394361,-0.4379780203802292,-0.38639238465140974,0.8117036077067582,-0.35631929657603395,0.5332156191936669,-0.40553816172834134,0.32511397657749896,-0.8258933757221845,-0.2836266946839094,-1.1806188110813058,0.4749400490686429,0.26816934893541383,-0.07499658729325305,0.5649822205224606,-0.6625101408718916,-0.49688834485911637,-0.7953986199139668,0.3026505987167668,0.3485629036281806,-0.4179870591774893,0.10224393624882692,0.33004587892097076,0.060780947068551416,0.7096746044123493,-0.41675157724485773,-0.005073374693697177,-0.03629927892119266,-0.23207304942584148,0.8372069738688227,1.5914771729005168,-0.5874044441044077
-0.8961798539540112,-0.5063862896707981,0.07550423088444556,-0.0548414325983446,0.6009848410687132,-0.6358134726245034,0.3258786003029972,0.6837805959924245,0.7139257237359912,0.25840635685917174,0.16310805926820904,0.16950402723173005,0.049632328578966704,0.7338205097815242,-1.497995593880066,0.6581255059706951,0.23195722077867773,0.4569550383638487,-0.6242254011234812,-0.4671998734290723,0.5868872814534605,-0.4637513990104159,0.05181950149371407,-0.3995609686433868,0.17742650448400685,0.7000859682581636,-0.30421165917057214,0.7361091404119623,0.15059119980012345,0.14808999616678195,-0.8700261658676366,0.8849260739438568,0.07979073544505114,-1.3688633920066073,0.17585777834745916,0.9934761333564044,0.3066699508588457,0.271964881135825,-0.12682533175658717,-0.4226989839946108,-0.49846765727439385,0.668447558646653,-0.3061947564697679,-0.8054864023770008,0.18911624821161532,-0.8346768341910331,0.5648002259094211,-0.11933613335861207,0.6801785594623402,0.14637819588798182
-0.8403155740031152,0.4169353111594459,-0.012589338095836884,-0.83589552798539,-0.960120180481766,0.7554025253232525,-0.9059102311064413,1.4677282304467025,0.951437972771097,-0.24440411317458385,0.23882227166266337,0.6902345372040023,0.811537579713792,-0.5739249085331739,-1.3515186367201435,-0.7712642349152821,-0.03340460047545858,0.607770794528574,-0.049757659463690165,-0.7613313183824086,0.5682724852546562,0.9627419288754341,0.9331545941990422,0.4106276735307245,-0.32135229594895676,0.7475123404549383,0.45217204522516596,-0.5368955090343926,-1.2476661447971953,0.3005770731013192,-0.2637017766074791,-0.8204956664559075,0.08408712862530245,-0.8775056140416133,-0.3058844860728717,0.485009032879442,0.27333659083030387,-0.8798817873630344,0.928680841379483,-0.38219913501175906,0.3487693758813369,0.6706161511458516,-0.9060451582049938,0.3939761254335403,1.0563091150238382,-1.0522437954469823,-0.19737435668715086,-0.3391169249600474,1.9450906886973789,-0.44375891942465767
0.607743380359787,0.24620938095810715,-0.6214316982213031,-0.6325167867233117,-0.3024870137895155,0.5253381798098494,-0.5446943359736444,1.5681061143294373,-0.24751502648335075,-0.17818705134657165,0.786031102347644,0.03007151715865344,-0.3283342275204885,0.4290527112006117,-2.0746919171978657,-0.9819056336490241,-0.8432730464535632,0.8057374029953719,-0.1338145236053286,0.17282618192799293,0.25006915931343654,-0.9933298358864061,0.785989230337019,0.7467484932279155,-0.3944002581194367,-0.6534714807359447,0.6168516990020624,-0.2721269610068379,-0.8997857287457486,-0.12612485249671282,0.17723276686448278,0.6902728365504411,-0.4035670277576367,-0.9370362455503002,0.7854867715869627,0.5240810460511773,1.026421104640226,-0.5091765938451239,-0.08731178874735368,0.2511342877853201,0.7671458940790455,0.4985527165041935,-0.19832254636993965,-1.1093427228687383,-0.5836809769324264,-0.3266585366947028,-0.5377335345021547,0.9870712681675559,0.8502995309925091,-1.0471642151385345
0.9578075686397146,-0.6159107904323946,-0.6509939999518329,-0.5509905721043992,0.9273444964915977,-0.7470945139662215,0.29345456026642985,0.45152568670554805,0.5396105684695407,-0.559810944065776,0.6716626324728898,0.9463782964090576,-0.6654812263614689,0.31392885063641596,-1.3239525435429067,-0.782383396106038,0.563562168373341,0.7411824136389953,-0.6499874990117261,-0.8037691564910334,0.1257838401002384,-0.3491790589672835,-0.8994158369838289,0.7184252468416332,0.6833230229428668,-0.32217401152923597,0.1954387187022139,-0.5546534725430985,-0.672288097387929,-0.2608103929057126,-0.21536821458073552,-0.29569784542123306,0.9859546267609952,-0.8885504950523581,0.4569003861296686,-0.4428286664985009,-0.6345279880089877,-0.05692427916094366,-0.763217156587646,0.013970520908154944,-0.9107155994885834,0.7105966333414102,0.4088032963044353,0.23708474954401557,-0.43181887783666134,0.12213513282729568,-0.5806706996860038,0.11848574398139704,0.8433515189696258,-0.5955672619022022
-0.6694463986896814,0.4980330008188774,0.022868817846669373,0.610498176293502,0.12456740715211434,0.09607239735094382,-0.12461368142132888,0.8386381404396498,-0.24855560380261751,-0.32336265669023284,-0.6420073215414808,-0.400955782365766,-0.4410797600704253,-0.8985733292120627,-1.713968308815891,0.5806312401188178,0.47280203522005976,-0.5471647745235291,0.2376058493766003,0.8217613822883855,-0.4722857945639444,-0.07059378637646253,-0.8674236835592876,0.4643832228692994,-0.36169987279022736,-0.5328082074337921,-0.41324166344459495,0.1674966163061262,0.8335076885213568,0.5724429093811072,-0.6809786679251386,-0.5719761027318719,0.5861375523119683,0.4159111201300511,-0.4756853602716062,-0.4236609445051779,-0.8024751962801366,-0.8340946725230154,0.6480032733921592,-0.8096430377513103,-0.5203841283351115,0.4783264759787055,-0.38119199017705463,0.8054116066966112,0.2989019888236739,-0.04319941116374923,0.11023185835210544,-0.9613321832251552,0.2930578488938253,0.2735933239600291
0.46660181839855136,0.8270231891386516,0.5648638627248534,-0.6858135873104243,-0.2864392447241601,-0.39141313044166837,0.25712757756455734,0.9852810102622235,-0.3159860594075594,-0.46536240456225153,0.5538689097272225,-0.6251832206855568,-0.22675646663147864,-0.4390708281036122,-0.49607155675976267,-0.6520230076369977,-0.31127149163311346,0.47324419659284817,-0.09777056769083331,0.8426205740150119,-0.19632080292718065,0.9118957911600678,-0.9826287930549487,0.34944823706664746,-0.15989019238238525,0.18047960907406166,-0.5277166161588224,0.9468350779475374,-0.8501129176561596,0.2336713839659748,0.5923115734075914,0.2642786543301021,-0.869768623537934,0.8123178108410027,-0.9504919636722504,-0.5430643624507138,-0.6642560127686754,-0.9588882833476383,0.5620573495760165,0.3778305303821906,-0.5375071248975879,1.4396065937305313,0.5236187251748093,-0.06398584282376403,0.039535632136180755,-0.6542649735580581,0.8929538084849444,-0.08654995826825433,0.9601498416745369,0.05485665704414917
-0.8128422187982743,-0.7471775991183688,-0.06597084917545067,0.42952296663104417,0.29658187650462964,-0.2572772141046194,-0.4792106830444297,0.6809017290139161,-0.9454279504585934,0.6408492167833554,0.5924302251288763,0.21930845144711825,-0.15973944025544845,0.24642876666041696,-0.49815087940207153,0.47471313692442035,0.00370838596171491,0.9970288909540423,-0.5852791166807164,0.9962600818255958,0.8455610824815775,0.9420670284269534,0.25913398051170927,0.37549483702786607,0.4388744610108056,-0.7741088138369169,-0.7245376990525555,0.9925676415891558,0.9641970435900363,-0.8828960853617037,0.9871102464719661,-0.46256448659736116,0.9861572099212984,0.7165066460324508,0.3785047996563113,1.1478569954784932,-0.08561498337539204,0.33010889424919565,-0.23320090318809422,-0.16739957486398718,-0.0817718859398984,0.676716462882614,-0.8979400432005347,0.568135743440484,0.5758706446784969,0.7027503482030916,0.701338234555223,0.9607955473102162,-0.7010435738219593,0.46746272798253274
-0.7591368360314309,-0.3033897168042901,-0.0961798203285478,-0.4649449827713583,-0.0750125485001842,-0.11077835101334907,0.7987146092719758,-0.41977477246912615,-0.45448016954454773,0.47440326711502023,0.812094720042793,0.3807567166903944,0.5349687783089213,0.5837260808949639,-0.11775286229466961,0.9147612807781285,0.014656036338129497,0.3718134391477323,0.7897564977741337,-0.0885410717288987,-0.8487890731702996,0.5675005565236163,0.03516261756219982,0.8837622168395397,-0.9046188569146864,-1.3089788785686307,0.31189345513709754,-0.5627937019182906,1.1987433423355534,-0.6634351814295985,0.05952042842139107,-0.07399780912481944,0.8711456800200967,1.3644819476161734,0.10659203607563429,-0.619484841327298,-0.07356294211503317,-0.28999817639441844,-0.030298080021307336,-1.0117706638739918,-0.8896514620233938,0.2268028243817883,0.12281431653961997,0.8837641832928288,0.7428402660590129,0.9882810638212364,0.5631536121535043,-0.5380450052443796,0.5198593861765715,0.46934368918509045
0.6622452895745591,-0.2740099755011618,0.8114028305819643,0.8292545917320652,0.21815326354980602,0.651327878593628,0.6554604792929856,0.8512332783240227,-0.3428556512520309,-0.45843116438790804,-0.9679239371601084,-0.6609853055058651,-0.37616312289165904,0.4192833444727818,-0.6974486267792378,-0.5278528160581271,0.3060232016231066,-0.048535935765560145,0.1562887134388041,-0.931780723173508,-1.0089478186711522,-0.3203707255570449,-0.4977395841605882,-0.3814549871148052,-0.08157031616377045,-0.026569420839675086,0.6527469154727802,-0.7652253986005035,-0.17608383180746717,-0.5962530989266338,0.2593863905691827,0.7868798869014916,-0.22512833698571463,1.2384372272031987,0.6113075343118415,-0.04826307782968268,0.14556705257594688,-0.5929145091570482,0.9995356801286486,0.09261905635172783,-0.12899416460229432,-0.4641302348719799,0.4659193422982643,0.2472443461066867,0.4465887252260009,0.48669939559425246,0.1693740323192727,-0.06505428316277163,0.11005934173693564,-0.5653598155478121
0.39029344667607807,0.6405384955391434,0.06128068406499935,0.7026125400566715,1.5735341737894264,-0.14991210446454878,0.21075151271971462,-0.11164485370069496,-0.35152393597674453,0.7303744979127851,0.5056647073949143,0.699875386527526,-0.5488082107475868,-0.6804810748731009,-0.28738771337185626,-0.6773648095044501,-0.5038406695398601,-1.1474695063189833,0.20671988126527852,1.0175177086855383,-0.7127487703978014,-0.7051176385355812,-1.0000051170693542,0.9847449685333441,0.14261920203782832,-0.25392130619185993,0.1483272342312643,0.12175609961213946,0.9631074804115247,0.4629125898000599,-0.2556281125012109,0.2621793148112155,0.38065021792142356,0.653190512931714,0.3086567270796034,-0.4149410786359012,-0.7515708304916664,-0.3559490029343059,-0.8232570036473948,-0.020510414088680397,0.8570333807421348,-0.5304563941844807,-0.8097318388390521,-0.5741407664918754,-0.25067160258904897,0.5726204035544454,0.3214429146943224,-0.5427146693758013,-0.3758075528948413,0.8562500047924483
-1.0079037211492399,-0.4314055361953537,-0.25110996967536925,0.3250369905640476,-0.25400194754187067,0.6251297989070381,-0.7621564973669844,-0.22580912548100676,0.8395218649738547,0.4851025499802921,0.6430597457872873,-0.6021601768213463,0.7152394285778294,1.1467328654098665,0.5586999880735432,-0.5321845384764703,0.4300532289467486,-0.4322797882662016,0.42436458329885524,-0.6057905952102492,-0.24416386567350018,-0.16928205678008243,-0.6881181290449113,-0.1645781544270612,0.2624715431752429,-1.1717380018231536,-0.3859560728627188,0.9223073757947321,-0.32675396557509767,0.22927746000313712,0.011472279889356812,-0.37678838106799367,-0.15195414835269822,1.7324867430849809,-0.842876099921859,0.11445555606990435,0.06534509104160371,-0.49615229859315085,-0.8370362312254696,0.7389680934017668,0.513810759507204,0.45018714766610374,-0.29555745073993794,0.023408622041851283,-0.19907132852561696,1.2772425875768327,0.0409062958260212,0.7143919364912831,-1.0220848660102468,0.7361538417996121
0.5868764962649058,0.6474566247303528,0.7457072073672572,0.673924650326789,1.3587776634834494,-0.1021596143097696,0.10849806310522171,-0.6092606374039553,0.02073869367979341,0.5222896035265556,0.549943064549202,-0.9700088841406381,0.513426472597467,1.1616280145716964,0.29600855349029565,0.6632544239155753,-0.33357453655395464,-1.0598923358288024,0.33020355865377715,0.3792522986952505,-0.975573064499902,-0.18562609958939916,0.8415573033557284,0.8016372132973627,0.9352053639827749,0.1838171150482516,-0.4909245570098052,0.7298754624768933,0.4248323411774407,-0.6378593780596519,-0.7165694586806783,0.7131212222047031,-0.688811175798399,-0.0401398639934267,0.8020633032290393,-0.71366915885921,-0.8015102256319034,-0.5076421200098898,-0.687584894771763,-0.8755978723385474,0.04236487813582394,-0.2087918969970584,-0.3392756262043333,0.385969485848229,-0.4418390248573318,1.2029066226284886,-0.6721193415994821,0.14614231174460354,-0.46852345120054023,1.1908466668425446
0.2802380767221456,0.3459569285711028,0.2223582299125595,-0.5780749773535672,-0.007325012380757772,0.6360096865715585,0.7721253512077699,-1.2602079108848976,-0.701802161906511,0.9637067224864351,0.9225045536292096,0.7684318060198778,-0.6870161353720934,0.961660052034361,0.4739318229611251,-0.24256268736020695,-0.1407065200413997,0.03374880422780132,-0.11600997818581986,0.11373204196089245,0.26999246675557437,0.27764420873117107,0.8717851445192556,0.34361934563465835,-0.11833136544393022,-1.3301294674994204,0.1313145279744863,-0.3988846262969732,1.122998356278685,-0.8071368496776024,0.46302706825030726,-0.9231157143727658,0.7533638075077548,0.7024751858530869,0.8246245294969964,0.5726778549524931,-0.8580792659705646,-0.7098884925041462,-0.015371976692257415,0.7431530946984796,0.6005369523663336,0.5715317035481003,-0.09072160845642013,0.894465229997391,-0.18225230535646764,1.8652781629142516,-0.016897473932682493,0.5758517600207085,-0.07971930917519093,1.4102762130598399
-0.9605938089523542,0.15487447624807443,0.04624394129857629,-0.6437769411965687,0.6522838819896839,-1.029041298869131,0.8912863059007353,0.0505170060480599,-0.6025267877483153,-0.1353644493373112,-0.1162032613555221,0.16081903464928055,0.7025506878987073,0.03113582387507897,1.7507581572519493,-0.5978898434575989,-0.23953365498318396,-0.7405272305836542,0.8446141464562503,-0.16449010387796958,-0.6197660318599555,0.22218557224577865,-0.21385245116792181,0.8011963747616323,0.7406789522965025,-0.7263342562067828,0.34549874542834974,-0.3064404712620866,0.6630553193876652,-0.6629495249894714,0.6088556562616216,0.6206560567849644,-0.7646812748365429,0.7395452126828288,-0.09761253491417637,0.5350114850073976,-0.9160366275674949,-0.04099831369981742,0.7712502492753777,-0.11311297398513158,0.03303864896029563,-1.0485519506042784,0.29640697930270765,-0.947719673323126,0.06934957062026391,0.7472180874709379,0.8395283481649907,-1.0737021051658806,-0.3545541395598016,0.8711943770766777
-0.582380016242844,0.031042875988648896,-0.8125995455306729,0.9007740243974939,0.11850849689872624,0.14017423411458868,0.07974496641238653,0.07874132056604102,1.0200313220537212,-0.6123775198936763,0.45652542498114973,-0.6772595072991932,-0.1833882594286933,0.45844105539649954,2.6761910595659537,-0.021189432502452567,-0.21228304897169262,-1.2794485234551454,-0.18154609575719308,0.8442986203671254,-0.8778175174277284,-0.4402801994111811,0.4408832417215981,-0.501531394209076,0.4947650246527073,-1.0829236193793697,0.48953319151728203,0.1611717081909851,0.1121092484375106,-0.6335357042681701,0.6895804059072571,-0.8069609467859651,-0.5892947990148735,0.7618177744935821,0.2236034737308601,1.1653995008063025,0.38178898686517587,0.8078202819515976,-0.7127919196341916,-0.8373752645682336,0.9949181988523185,-1.1792324624129993,0.3679696573426105,-0.6783429165382743,-0.6902920863357412,1.2703434863535255,0.4559080544110992,0.5715827776375881,-0.8692160234762882,1.0619695008378451
-0.17623775653319768,1.2460379983281125,0.4544357675002341,0.44861867845541087,1.6486866409022152,0.49983928390145205,-0.07866854521213329,-0.9456841296200552,-0.8883882498035006,0.4138944854064791,1.0192120603823007,0.7855183234785588,0.42993084105746826,-0.4611216984567377,0.7220810607414233,-0.458779356603085,-0.2346384571297159,-0.5715475130599783,1.1220558239691492,-1.0350315652494182,-0.6069245441448485,-0.791511899802268,-0.6225473382455196,-0.5289179578313001,0.6299902623183784,-1.1082875015068974,0.2534089443159631,0.054791794217776434,-0.2314985409481098,-0.14383262200730135,-0.7706687974457233,0.3156529226751196,-0.8689546633306091,0.6573733217094755,-0.43895628833702877,-0.5376164578788732,-0.8125566698110371,0.8387466098991916,0.2583231318848245,0.18500896018333748,-0.10887396839377289,0.145856298279271,0.9624078318865559,-0.4634003228373764,-0.3884528227797956,1.695236744047448,-1.028533484481392,-1.0353901573928808,-1.7512289518968684,0.354036603224021
-0.6610659250840856,1.2105503244480482,-0.7839600995610139,-0.08061144235665266,0.974206568815221,0.17113628876784157,-0.30090827263645714,-0.5904995740068714,0.8834529197511067,0.16056757520338336,-0.6370512845823099,0.5695181754740811,0.5237782463671393,1.1076766679953893,2.5753810032617652,0.2209561543378678,0.18608286795771534,-1.8656578733244595,0.02071581382898022,0.8767301266272683,-0.502805422649709,-0.11721964923424978,-0.6192977158186436,0.826403464482158,0.3652291210589546,-1.092253063355647,-0.0383168748365983,0.7026185535390602,1.0496183922411793,-0.42912945582742806,0.5252980313977657,-0.8699515060629647,0.6090945405739273,1.3907140963828533,-0.8227563878394685,-0.13633097868205743,0.34157413461286257,-0.8163668196764652,-0.8183979923317349,-0.017969200700698944,0.7948791763619583,-0.8187590105784932,-0.6009849106885077,-0.606732586959727,-0.7960780163653908,1.4266736581095154,0.663676141471195,-0.3307357974737963,-0.5986174135346911,-0.14457230778266092
0.4809171322088144,0.6389985778432896,0.37562057712803104,-0.5427499712271865,0.6439410048522075,-0.490163888560767,0.7150663974959847,-0.024827299741190495,-0.2992214392184557,1.080187109212234,-0.7058143772211968,0.8276010078993701,0.21237964170962836,-0.4528067393946908,0.9061383766222112,-0.06878099421808338,-0.018277577330205953,-0.8674459817575504,0.7940528010050101,-0.9434322273317685,0.293449474209735,0.4802151966541603,0.2582743098893309,-0.04774633768612695,-0.12542680954682395,-1.2654376534768668,-0.4336510839063681,-0.3146540247933086,1.6466109548515897,0.18121760752571794,-0.03140597184374238,-0.12643263709668742,0.8381367208662223,2.214541006242644,-0.7728835797510298,0.9290505403906932,-0.7804363341246894,0.9778049144933878,-0.13050481289461172,-0.7320308192516062,-0.3677431334994557,-0.14247620694242374,0.19235552453636753,0.20399854440904713,0.5237186275405254,2.178140860524716,-0.43433211060134863,0.49342512390898113,-0.8445749855177018,1.0340621134574706
0.47833399142956906,0.8081747744106227,0.4114218792098425,0.4500446053804022,1.311198964205607,-0.03001114299728619,-0.5911117163597011,-0.9373354416456997,-0.39600155375731183,0.08961821471316357,0.8938060863619841,0.08975189104231505,-0.5960090841194411,-0.5744074674353569,2.3109206363665904,0.6442413312501838,-0.8554941149096119,-1.0916870874500515,0.12788074313872896,-0.7951011639462955,0.39772770509389727,-0.16859872564189476,-0.9628190819303561,-0.8544251270232949,0.6904048717770457,0.07979631537719808,-0.7284717702161138,0.13565303473788037,0.9704006739187636,-0.5216462871131485,0.4205842265445195,-0.7953435447255298,0.8332500386275041,1.952508304664154,0.2217852456351932,-0.06179363759732007,-0.9279729811518399,-0.6680607654654609,0.7660968831460452,0.006998593267770661,0.33859192202611443,-0.4007754843204215,0.57468649506405,0.9510160064711896,-0.475978257325654,1.2347836079248864,0.7452096663352735,-0.6698990507106286,-0.20706018615057764,1.4126053299817192
0.9462820757210771,0.8520876633628806,0.25525641726514725,0.6580268701452188,1.2030950668173728,-0.11642090187652383,0.7868503451443302,-0.09897247899290715,-0.6198348971839142,0.7946695471242429,0.8622055225786502,-0.9054902613292805,-0.11378888046366142,0.9413226410743407,0.8007145619184345,0.6760658967012015,-0.7878111108145838,-0.7172668780473714,-0.6639127955713927,-1.101409923009312,-0.8618623780312902,-0.7116304568722255,-0.3424393226307072,0.03207707841694988,-0.835749646424514,-1.5082012426979752,-0.030221623134917868,-0.7819246503763304,-0.20761289433149982,-0.111028064071972,0.812903573451999,-0.5109443593029402,-0.12735732618645204,1.4416311473447263,-0.1573822574126921,-0.19217495213855595,0.021688468034323834,-0.2959916086324555,-0.3608326886551815,-0.15379397320142843,0.5535005774377443,-1.614819482187123,0.9298258919629746,-0.08416955376698138,0.4576045099550736,1.5652582116514762,-0.80896750323756,0.13619250952885928,-2.110873446268032,0.5273401496300717
-0.8162703905902532,0.09654412680667158,-0.6405730934229898,-0.569576702621702,1.4557329849508986,0.031693990822881914,-0.03100355388716424,-0.8379675262932719,-0.6924935777259272,0.470379042741463,0.26552978568560565,-0.28994553575699167,0.40746967082585295,-0.1575400056021586,1.3621906731414808,-0.17517032842715047,0.26809761830100787,-1.1716334173970921,-0.37056119820055416,0.041066652067606874,-0.7729805663711088,-0.7245742014737919,0.9937931088010789,0.9680668630648332,0.13936228122471567,-0.39948790721378136,0.4040066868835363,0.6058190563267423,0.9078125210026526,0.046313954663732775,0.44727727604070694,-0.02485170511223526,0.3338381825093518,1.846010440756698,0.02027864578805423,0.7598372123667955,-0.04289178546040299,0.04922980529692041,0.17500825394277464,0.9145142248920195,0.03295369010951062,-1.71219553217669,-0.1518578528597491,-0.07763406994306903,-0.5134800869829571,2.1955128978169705,-1.098428468722672,-0.896159779066673,-1.0854652387005195,1.1247211263908417
0.5262655058353176,0.276377518983963,-0.41685025159213274,-0.539459138269203,1.7517222372599166,0.23676356229227685,0.16102821307784873,-1.045153397697353,-0.9577770658419823,1.0774039316157293,-0.7712385514162778,0.19071994166358375,0.7658762063374809,0.8387567474735063,1.9690153988195513,-0.44711910813053524,-0.3758963535773223,-0.5071751245324524,0.16776745830846582,0.7464015526537895,-0.857726211196478,0.3306270114083997,0.9908622164802153,0.8444844772291491,-0.12965156415358453,-0.3369290416113484,-0.40201276107414774,0.18090066161779342,0.7414182328658953,-0.482743046529014,0.44068261222459554,0.7384316902695919,-0.2215925543478652,1.0659027729740236,-1.1022627587222282,-0.33625874807849493,-0.8429675001508454,-0.048054647341859144,-0.4114479016739016,-0.8710971775991381,0.7416112505791536,-0.523113032244874,-0.012792619000704318,-0.6951260080877336,-0.41829355414381897,1.3136289928461815,-1.1166967175771323,0.5665959455608364,-1.8909743369002538,1.492786400361785
-0.8346008069608943,0.15727637593091984,-0.2939460647707849,-0.04680937418702929,1.7371872511916018,0.1271949392367647,0.4190946855207634,-1.7370629340175756,-0.7192301899721735,0.32306436308868236,-0.37220134225897367,-0.7061852765908846,0.7085613345732951,1.2912254774379481,0.5169595636006061,-0.43337616120064976,-0.7868458342514927,-1.217931973009321,-0.5055546913824648,0.40276866563822067,0.32519487998321855,-0.13758742305009292,-0.2498557416803164,0.6287041023715529,0.7532254756467943,-0.9866265791714757,-0.8064544224867105,-1.0757652178655475,-0.35060237942491945,-0.5671103487060788,-0.11259384219258595,-0.03399436782332534,-0.9949468544519271,1.4431636245622945,0.5764200613091215,0.3355957773962612,-0.9433845179664562,0.5043518421851539,0.7571629895241163,0.15835409918258497,0.16041611922295618,-0.9934422800214842,0.0959810077215415,0.0038948578300532517,0.19497207307736378,0.7446369284284596,-0.40745758741565863,-0.9001657189334806,-1.4758516248608007,0.01086484533282761
0.6947416162382916,0.3460157171203802,-0.3915424652768725,0.36745763390109515,0.74651454131977,0.2101821889936135,-0.5646590642400016,-1.7829630521453768,-0.5848841609483104,0.11554697888915363,0.3509112234113028,-0.44293906489778845,0.1836121459234813,0.6586794391785232,0.7244185161664325,-0.03447569026412883,-0.44405916572908455,-0.6796215871855332,0.374548009955264,-0.29916289116280254,0.6864591339574214,-0.1827032538776764,0.7969153522435997,-0.528656309018267,-0.9309134562288786,-0.6613492951532329,-0.5832650115648608,0.8115715923608918,-0.08466991593801478,-0.4841242110761596,-0.8635201017762139,-0.021893422750202476,-0.7574264169783108,1.861505489236399,0.6889449355907904,-0.7206919540451117,0.05837320410855185,-0.7383945506577136,0.14891812792208212,0.696481240365648,0.029093427154161217,-1.0229141106399922,0.8844686613924954,0.3424828435032989,-0.06010349346262729,2.0012081261837227,-0.3969081891228568,-0.47567537195235865,-1.9818213405904412,0.007913178012735651
-0.8304915933122191,0.526099841846107,-0.7658743273652643,0.550350832765844,-0.029476090840040357,-0.8107236490016542,-0.834991568248392,-0.8617581179976013,0.02509972304024462,0.8148366145483823,-0.5378739441488994,0.13108601556083577,0.9073852181324829,-0.11333956157899391,0.21353470380926107,-0.525655930782934,-0.2535977970202464,0.04121688954482573,0.5862554327298198,-0.3884738820295971,-0.32748764645905587,0.9418191325078253,0.09862091196255289,0.009973254708368734,-0.4571766401222498,-0.600625078331499,0.7873513036478365,0.513103015277316,0.06166274618704582,0.2494874573034229,-0.39658953380030687,0.5580154054549745,-1.0862232614520413,1.6368880691368604,0.48044341013602,0.9064196504262125,0.6539856800599417,0.34488415737646,-0.42268948182660865,-0.6690267778226301,0.5763407150663218,-0.9291067082373452,-0.4051172471780403,-0.07385649193667378,-0.5085399375540746,0.7809697812086748,0.5779639195262576,-0.19708492543772946,-1.8924747674861029,0.21030888199647546
0.6282783857986082,0.7185222580970075,0.6606072297513192,-0.6604569846591333,0.11838438913821829,-0.411178969278811,0.8289702028974683,-0.8187437931694781,0.46833761131057844,-0.9012373321503049,0.2876516670929007,-0.8288034467069427,0.41600123816045365,-0.8044529712083575,0.05144172226614856,1.0227860885552498,0.025050032683461787,0.3253901467255841,0.762140057270149,-1.0411856657637601,-0.4418448139778285,0.6770220460794865,0.6302882950339589,0.5620409419535592,-0.7818974129312004,-0.8132637721773902,0.2632259577105073,0.337144251405862,0.5458053672405311,0.3447839720951074,0.817140928501467,-0.04198507187862036,-1.0793571650856022,0.6899891444508763,0.5250056277997909,0.867843630768403,0.615387929119099,0.32976775438924555,0.43832412758730976,0.37559199908984175,0.5600311261158044,0.009156096500855785,0.06961413273424763,0.47910871829350554,0.036548152028356214,0.9038708807738828,-0.6513423859134864,-1.086706096802139,-0.37923449638340206,0.15552417434458693
0.8439321285712372,0.2867589463131674,0.32191217591179255,0.735741723794114,0.3261168782424579,0.3424984832921595,1.0389517474134946,-0.6656028837353899,-0.8778560366901016,0.9533593720866197,0.10983235621028808,-0.8137923626352578,-0.9074720944846361,-0.6249704325918374,0.5428939522040274,0.31685439052622033,-0.579921845075345,0.45190776664189664,0.25492089321951067,0.7265847916569718,-0.4444026048658406,0.04921888234684393,-0.8436523362512405,0.16716176301785468,0.9398996032323603,-1.0847795134645029,0.3162790392444998,-0.6524954556078839,-0.582274904213552,0.35392150800362765,0.22433794018555056,0.853238960262337,0.008103979599257738,1.2448419356963223,-0.8004655288700245,0.7625079729202712,-0.8523906475891707,-0.3968674038900638,-0.793080862923098,-0.3645467038639878,-0.37866144672956736,-0.7111477809384974,0.30310163543004875,-0.6573993155769305,-0.429735636100749,0.7756453511531447,0.0949598171037182,0.1812729501059322,-1.681476347325202,-0.12524652829837402
0.7336357913525504,-0.14420556286791344,0.7663362657857881,0.6243593729007731,1.3798997124172379,-0.8841970872872581,0.5270137916522583,-0.8207489977841648,0.5323016981709129,-0.0743105882707822,0.9413352342451718,-0.6533011798179373,0.7546837687655689,1.0649480670939855,0.47147857991235764,-0.304289344207808,-0.7863313253834686,-0.6483347158256072,-0.6353023251742187,-0.41475337451810373,-0.32404344554072423,0.810443355073518,-0.0569484220868874,-0.2977354752310777,0.780983257278672,-0.27962558000816856,-0.656484052317514,-0.568461444428517,0.19955531480008168,0.5163655390825812,-0.09043716619667969,0.4929484988082688,-0.12118849719802997,1.7539511764571876,0.7851251652189574,-0.9295584255584185,0.17703111776696637,-0.10983459972834758,-0.987037371162018,0.7239243321152419,0.14227011796832087,-0.7286172289434212,-0.8800487006318816,-0.6882520416253015,0.4644317673290974,0.5122735310871841,-0.26977296193210676,0.2599539915842628,-0.6130010233762733,0.5555592651051903
0.14008331386204878,-0.5983092589690504,-0.4842557864992516,-0.01392005728635177,1.4700318202903047,-0.6179865455676531,-0.37615086790701735,0.019443480723639096,-0.17020012448677982,-0.837398886634414,0.3794803518641519,0.6955227819277287,0.5524158734950372,0.1294698834988686,0.6248066661673539,0.35550029117727544,-1.0179391196983032,1.0853722147405256,-0.8885727346846735,0.38889081351170857,0.22594442511723928,-0.7398958388226073,0.4133751992938775,-0.3977160171746231,0.5588800728495513,0.008471720343099457,-0.9970146607253297,-1.0068660950457133,-1.046124383473708,-0.2182376102884207,-0.26645418029704326,0.7894203913109356,0.22386139953917544,-0.22031507602458753,-0.7897938990588557,0.0779318723671925,0.6193564583140879,0.10981218394908425,0.2878333356221897,-0.11608078602161594,0.7193738357419973,-1.121675737233316,-0.1815278447963516,-0.14373826318451569,0.27075442920485365,-0.9847251022006512,0.8643359482725557,-0.027120874011707534,-0.9673239964332597,-0.33361975824980206
0.37224378363929783,-0.5761173810918256,0.9560476960890469,-0.3642527999315745,-0.9352955560179488,0.28030719198200194,0.23968906536014925,1.5429105824259914,-0.6990469186358633,1.006080821101264,0.9768499908651398,0.8659417600530955,0.3428016956297832,-0.5313819382970558,-1.8635143711635165,0.5419497822131331,0.28056873616573996,0.22752593447017,0.9352199835237761,0.9148390368338833,-0.5628185766453527,0.6189786421388602,0.47425040828434406,0.45366783444482217,-0.25479416815072126,-0.055623003678146474,-0.9289024090184126,-0.10678121229636253,-0.4062116369169037,-0.4175789540199954,0.7581267539369514,0.2442372951965382,0.8754575662631893,-0.571622175051172,1.0052082095146249,-0.06067271620029924,-0.6553001864660551,-1.010807955657855,-0.5078298147082345,0.3002162515296991,0.607102827567445,0.13524328738269387,0.31984026984413927,0.44461527735034034,0.2100983173571207,-0.5680908553206364,-0.3044240020221736,0.2902678086777726,1.7031417873293384,0.06463903560124255
0.14077850651186372,0.570248806544317,-0.24733904956988603,0.24336683791441255,-0.9686157895732256,-0.5914120210941383,-0.345423700494036,1.2643655939663552,-0.7411900074674284,-0.4943427004063373,-0.7374465571757114,-0.3245442806006005,0.0634286132318029,0.11146534737395376,-2.5344183818460944,-0.4178052631417634,0.14733581798401196,0.23641225326068344,0.21917478308278093,0.2004545990931698,0.18914511589075672,-0.22490318744094082,-0.41703770469991513,0.973186672610014,0.8743330759855504,0.40070229817688163,-0.8410885771364844,-0.26727809297479543,-0.3208922814800118,0.08643717689630567,0.5677747922627315,0.09477064777635921,-0.8986771742656738,-1.4384261521754438,0.1881931224811717,0.8067754386036292,0.4909524124891865,0.26011531087959233,-0.6116964175071472,-0.039551058410525884,0.4205641245719307,-0.10959567891385495,-0.42417352053254476,0.28148534598119285,0.7780857775433355,-1.4813830955505085,-0.5939539174127911,0.2228400828516886,1.7790925846115522,-0.5383722073164606
-0.3924951396138104,0.420443941748297,0.8222368706705804,0.41500097767835187,-0.5585336336426093,-0.22126124803203726,0.7530768679725728,0.7212530365311477,1.0194505715112483,0.6895665224223805,-0.3427204293913492,0.15685596608344976,-0.7787296041981885,0.15764344697586535,-0.7466451615459505,0.8612621584738812,0.226840956463462,1.415674646965712,-0.6874035542456116,-0.25260601515183023,-0.49243256899063154,0.04086260724614556,-0.8087923660738968,-0.36935511926002834,0.4580555487706189,-0.262068746411566,-0.23820992376423109,0.384149532698541,-0.8486244873689905,-0.6195049589592071,0.08211267741382759,0.543538698796791,0.9677844072440923,0.11621974132893352,-0.2793556940208358,-0.04294165634422111,-0.3473407312221571,-0.6696700550192463,-0.3655131381062385,0.300826481807018,-0.14683056909817752,-0.1438366072135702,-0.32201536997850155,-0.542325504396892,0.8898721727165144,-1.2875439447477384,0.5533134618925877,0.7113205175614842,0.5963013475454267,-1.196521881077996
-0.17358795010073233,-0.446756070792786,-0.2644191257017805,0.7922468404394034,0.6419254515735617,-0.6769539961486993,-1.0315664188109053,0.5446504920083786,-0.1554334182788895,0.7869465915921416,0.3525511792356496,0.1650122244161494,-0.5619426757120627,0.509198023059551,-0.6333516920504276,-0.5226088228154089,-0.7399209731633075,0.1405178460463015,0.051469205893883874,0.8031357824845907,-0.6378252816708401,0.059977817868789536,-0.12777581365054846,0.33435847376484434,-0.22608296095569524,-0.3498623727872175,0.8132437239341789,0.19015506362500262,-0.08213207892032919,-0.822663462339773,0.7138617546876131,0.9709502516714205,0.9783747573420567,-1.493695694233744,-0.006466748854240809,-0.809918736137529,-0.67769452749682,0.6622151556601139,0.6372498745337885,-0.6253241650317908,0.38591804804898666,0.2491132546729144,-0.48037628660901655,-0.10193639112480443,-0.5599423204965506,-1.0348305455129037,0.12324042915213854,-0.37000798207598584,1.2462599383627668,0.32233920956911105
0.2311405599417815,0.09652985359265538,-0.35026604377115694,-0.4570261593267856,1.0268797983399187,0.0504018783190281,-0.42041671231162725,-0.0987700935882319,-0.6082552829194192,-0.420226920908768,-0.6590970171917658,0.8550391551603498,-0.34495053811333215,-0.040298186946502675,-2.072716984101868,0.9334299314312451,0.8642234708531932,0.20733550769887577,0.5380865473439225,0.7828202126482353,0.40855756669233173,-0.20399262921975256,0.03464894913831454,-0.5372256186295151,-0.9697889523326428,-0.34511132562321445,0.6845955816560082,0.825378825156646,-0.12968532079198705,0.4189774295664993,0.7756274678100947,-0.9346354320997524,-0.7063814643563542,0.4539256711338058,0.07000515706669122,0.5295427507239494,-0.26084629009446136,0.5836817455854506,0.9350603677318691,-0.1935831592458836,-0.4772154624875779,1.338850072564519,-0.11123234192026023,0.5969842446230528,0.7316577482143478,-0.487722092986332,0.8893479053645169,0.7128646588092609,0.3615664333227442,-0.9490106412626073
0.7753714895041603,0.8194349254293645,0.9195548796187486,-0.561059764544665,-0.10227265794999822,-0.6232061703700872,-1.0832583060383172,0.6559083296450178,0.39678035718488947,0.40111991901911187,-0.9051695911277478,0.39707016772620457,0.3356182072945294,-0.46182374542351196,-0.8434749457938839,0.4995261391825442,0.5634611141039529,0.1592057657295513,-0.704644488285475,0.44167029584326833,-0.9650912126970116,0.6693740844849472,-0.4401415683362463,0.7538502061171444,0.7760773823685662,0.22321385055576717,0.37100116265950656,0.5379015268686616,0.746472661177835,-0.45079796813063755,0.8765377796017105,0.8118061697420014,-0.5478897068508024,-1.2273362073698155,-0.013426289542897296,-0.03298354613036451,-0.5485374071427771,-0.5482165437852473,-0.31727766696173276,-0.47202872296908766,-1.0292615637644198,-0.16740527320928755,0.8407640735835697,-0.8525038837026195,-0.40791363511889195,-1.3252797731378112,-0.5442286141360047,0.35359564193552684,-0.30090565042529893,-0.8881062002152115
-0.06269967007109917,-0.5777904746568648,0.5306184741798784,-0.7378013567799887,1.1175333691646432,0.793352353277192,0.10600364738769127,0.3428220160708129,0.8373340188429168,-0.11987664788289504,0.5123571618209121,-0.04880695092996704,0.39961955760523876,-0.15024512715647803,-0.036783254153455625,0.4031180893009686,0.14052534750114992,-0.6543538202151116,0.7467573818779076,-0.3602350467093939,-0.42141500593252385,-0.3760378998383013,0.5717618225451366,0.11377397340483858,0.938556140400371,-1.073538125578708,0.7490303413627167,0.10474519699904428,0.12878084885295793,-0.3148801292797734,0.33020301543034636,0.5496866053044308,0.6540173322656996,0.7834830697832267,-0.04543511784550197,0.019089300135435743,0.17237597082464906,0.826456122963347,0.09124677472895368,-0.1233993450935907,-0.20814791699133373,0.6098739797003951,0.5111962582802817,0.5973564329453038,0.8384932863330743,-0.45225876324631653,-0.6330924100548498,0.5850713383028755,-0.6621528355616159,0.6734380297416394
-0.6251290878908282,-0.4848187438873117,-0.14859754548085888,0.7979841148615112,0.030746072257912444,0.10973287988048509,0.6757184193591755,1.188507509603352,-0.6805707972181694,-0.34881929412399215,-0.48727241712919755,0.9436104732080465,0.5372595674260179,0.2560435236058085,-1.2490142298535052,-0.3105507647198131,0.6223811860448587,0.5499005162406813,0.671118334326415,-0.48920052525925173,0.9433873134713803,-0.40719321437286404,-0.9390835949061731,0.1310755141390211,-0.3928617977852239,0.25151325375188077,-0.9858186798356265,0.4263955865116383,-0.5702565698786618,0.34646249075999136,-0.14954465017695673,0.4555318116295905,-0.2797155191673112,0.7122261656456514,-0.31108058436650626,1.1299278540022193,0.09916944878518923,-0.16016755576683656,0.8539915411331039,0.7947928090433822,0.21103892067810526,1.0359447171207237,0.22480312677096081,-0.2557300814653281,0.8892774408735443,0.28830535855308953,0.3091905807470059,1.0013822379143895,0.01992484903369215,0.2825144086504508
-0.6238191609239803,0.6432582789456074,-0.8989780894078282,-0.5971742374526259,0.35334688815689735,0.07796046420972706,0.34698644717408145,0.5738911716647335,0.6782271602912072,0.6834025399282309,-0.3187247775202384,-0.7340668309232914,0.354246764612971,-0.5405432073033928,0.035253177831948174,-1.03237020174985,0.7562798109728666,0.028686582850501602,-0.9883586725158119,-0.7562903218453694,-0.7432123329736137,0.6294962994461546,-0.5602610840735418,-0.39309968483056923,0.9116096999785216,-0.5706002892455015,-0.6241313956423711,0.1382329771421961,0.2787279044343712,-0.8626412897595017,-0.22207132477782826,0.014387969494852135,-0.8987356029041965,1.1710072315525653,0.5234688714857123,0.1951407856705111,0.24267105141628278,-0.9570814616174658,0.22994957253148057,-0.2801926073532985,-0.407795901472153,0.08237471123973836,-0.8075783831818352,-0.5593015014880727,-0.7979201011940376,-0.048461160904411195,0.4716782757676786,0.7923098341605512,-0.9395056894852788,1.1916922730100177
0.9214753329556502,-0.444466092040218,-0.5352640096890249,-0.25614990812982974,1.0694138331760483,-0.5018690709476548,0.5195534753580712,-0.2755534920562888,0.8828405499351137,-0.2767039472060366,0.03971692447644934,0.6731009644652336,0.4369406944708856,0.9474964467862385,-0.6004221041220147,0.6091348660211494,-0.14155072624088622,-0.2729704985253974,-0.049572161386388716,0.08194512532902595,0.947658652599727,0.7395123706211973,-0.28748338816180935,-0.7316721759366108,-0.6965782616692927,-0.5165843613085961,0.5905361913587422,-0.23145421621458145,0.31287879652267897,0.14279825568090207,-0.7547738501284742,0.5487964433260132,0.43944600605168976,-0.18831362029129226,-0.11671697020571901,0.7284705912610403,-0.6530125056674474,0.69736916469547,0.20845085193247628,-0.6507003051688963,-0.1616796807922784,-0.015353946956131261,-0.30881096813275805,-0.4299310487798493,-0.010085925350466986,1.5034371736422625,0.6044622996514278,-0.10063812959233696,-1.1566668616912201,1.0036791026683727
-0.8200300426489906,0.9564432111488799,-0.8086391151832074,-0.12414571766742365,1.2765721103106837,0.4807576498413211,0.27215500336069465,-0.603142430782753,0.6685137112524003,1.0219800506473775,0.15275353070287082,0.5572672171617928,-0.23892552967635858,0.5446882696628814,0.10865747368146031,0.5696540063503952,0.05087349948512031,-0.569915859433794,0.46881695576321625,-0.46244735429501166,-0.24589730752626734,0.2079314633436225,0.026501965204375,-0.6985897363583147,-0.5176185836501356,0.13708029584991058,-0.5811764196415985,-0.7767328630094208,-0.5590955447161072,0.7484260107710085,0.8336080503505248,-0.16951012474703347,-0.41647685954524394,-0.3190755372012703,0.0671940741651139,0.15621322547336094,0.6551025306211489,0.44564323274252754,0.08916051506857152,0.7809437755401781,-0.344775760914522,0.08752847765369175,0.8923844312720776,0.6987882986642286,0.5842483794607508,0.5678651476519955,-0.5007736706907263,-0.5836073358249615,-0.9875390258765215,-0.29081107076280927
-0.715535256397911,0.3555993988316788,0.6166364221310316,-1.0043067038768763,0.7302679396080618,-0.910540483635019,-0.34671047809176514,0.1430052295118236,0.5297150059007113,-0.5070227257528336,0.7310368065974646,-0.19195319270429176,-0.5811211445774574,-0.5088072528499847,0.03128516861855109,0.9392846475554,0.17720126178820597,-1.0430115731597471,-0.08264109264590815,0.06919020669466243,0.6228066361330962,0.4478268962113823,0.4708537794008267,0.6304178787866995,-0.15232721511208255,-1.3318335552621783,0.10197440919372794,0.4368068326662887,-0.22477135909471496,-0.691830126610711,-0.7699182938150462,0.37339208595844725,-0.5428562388558011,1.20083547090112,-0.9363735300779041,-0.0508576608165403,-0.006981189413135716,0.6408394283166629,0.1570072959978993,0.7027306886158585,-0.10509078317895922,0.22566723339243605,0.40588621813102654,0.4040808441613269,-0.9002992056902301,-0.21704054849045415,0.6694580840355908,-1.0530171553793541,-0.26869487550958676,0.9867626308080295
0.3046729742090637,0.3122497689463422,-0.8103406986564968,-0.004456880178361735,1.4002623472538296,-0.24914833358152635,-0.5045479200340061,-0.3667003972688381,1.0322182037409755,0.8024963309895381,-0.7820697641851319,-0.6408584486356425,0.9117992407914156,-0.7755196178380395,1.51677628877539,0.5069832952543698,0.509663498297623,-0.24565069202804846,0.9760510730687357,-0.971729768538871,-0.2262359341221775,-0.8072028776039086,-0.9681655563625462,-0.7704349618784556,0.16108939264663777,-1.6088846439271103,0.604770909426335,0.010063623330880407,1.2674154815003449,0.4726066140003505,-0.901264826725703,-0.7043152391333284,0.16132526836231145,0.9960115438058117,-0.5410645237840787,-0.128739757722618,0.8780883801351188,0.6025630445650735,0.803916847389501,-0.6217003859721711,-0.3356057836277722,0.310320744065884,-0.49937583223761334,-0.3435551567163394,0.1742025204766703,1.45792345775838,0.22161141985208563,0.02516175542439791,0.030236293674027713,-0.3194319943544723
-0.6296617796980788,-0.4790884464488632,-0.8898607306025028,0.35177359340987485,1.2696190844663973,-0.552360377847539,-0.22183253600149017,0.3211150760794327,0.49065317102538697,0.038463343694038477,-0.9236320150902836,0.006821928511739573,-0.7827270976258391,0.10078973095209412,0.3191567956064028,-0.31987910203295267,0.9409905781245708,0.27891584366246736,0.6196024520338429,0.22624987462202972,0.640439174315045,-0.907207209434667,-0.44583668101817553,-0.7718976256062345,0.8558035552095341,-1.4866022532903376,0.13949374420073463,0.10461252849213215,0.6343072225372249,-0.4694619731321097,-0.6451507259188206,0.9853146384700016,0.2772026537415596,-0.27772813440820954,0.25552118792302125,-0.29435366272559377,-0.6591546539658037,0.7568347240976028,-0.6956536711307969,0.30833052644720615,-0.762494366356981,0.6644348798198192,0.804079569794679,-1.0041815226740785,-0.13601739966155127,0.4167285321870658,0.5127313349640427,-0.7444967123787086,0.15350108422898068,0.8717087742026738
-0.1823353835277621,1.1495430896925598,0.013937447825301734,0.5478403936869913,-0.17854813963937496,0.23596002326320806,-0.11286463633527014,-0.5223031024989652,0.25561566998153457,-0.021167365189519578,-0.5725899064207081,-0.6168168059654973,-0.9824609321475921,0.27129026985248267,1.5886940938982128,0.6149290604481973,0.05034895962602374,-0.9552440975318006,-0.712643946686955,0.022361395756079348,-0.6551767363351584,0.9840618515515748,-0.8476885808445354,0.8662016771885308,-0.7628255333700263,-0.5333163584121877,-0.15073772472050423,-0.32639171202281847,1.0153450197362137,1.054814180552116,0.9668098678601895,0.7586106313857082,-0.718514805273199,1.0879897822205011,-0.33992093194166495,1.266727764619179,0.5320201996433531,0.04331167382119344,-0.9225211714512594,0.3086362801908602,-0.01898840845954047,-1.1370874872852095,0.5838830375500774,0.4730961245371143,-0.5178078288683374,0.48670212558292275,0.11825027948983785,0.3024375297525293,-0.7296867296660463,-0.14500003257442637
0.9609531610414083,-0.15970007590011276,0.8859773949784986,0.8603523873247549,0.8365058852053139,0.007984593265898881,-0.6066989106402274,-1.283055285842491,0.13794148701203043,-0.7166752927114606,-0.49599268387425066,-0.20700906881054687,0.6179053841177465,-0.6820621842726098,0.4440905034448587,-0.9290089313880078,-0.8821496074792808,-0.9942821077944363,0.6454843467257,0.17641717037491828,-0.6978235705714719,-0.469574023409725,0.4764145679780238,0.82952563092953,-0.8765422935189975,-0.6282614421018723,-0.22875804706862612,-0.557642039514173,0.6405916257615255,0.1449054741595093,-0.20187926648226415,0.7682874975099181,0.37021159391232733,1.1397401557472846,-0.6465602750243825,-0.2377744360157605,0.08535922602984454,-0.9980123610925478,-0.4002496269863668,0.6797042716103148,0.7413792503595729,-0.5137358984566501,0.7860165355287164,-0.5665549897081884,0.11223588924716268,0.8400712323540216,-0.06424932858591895,-0.5086359096968912,-0.4011204009880128,-0.09828246595241381
0.9842460007118843,0.5727176424052026,-0.36414543109930986,-0.803432569138772,1.491455314511103,-0.4985252741008658,-0.710422484854222,0.5853268766297167,-0.0250072514449728,0.12566129228467332,-0.7828221704443808,-0.24283095105249566,0.9009903405534505,-0.36668142039668644,2.049020906103157,-0.6343845328935005,-0.16056626809585056,0.03410722004887888,0.8938886484067539,0.39910989715201467,-0.3516513020481526,-0.5180926867719199,-0.5765789714419105,0.2606665916811048,0.923222780904566,-1.421666441066346,0.9832662830099951,-0.3270343559212778,0.4490650714075716,-0.39291099129123835,0.4604031931696921,0.7317395006051534,0.040329801826096454,0.7779664179906345,-0.06214937565309428,-0.5288621041899961,-0.5313127238295176,0.41565312143286637,0.7237332419574629,0.49736380798534113,0.7611294203637179,-0.05139361006988158,-0.16993467700193704,0.05676646933765076,0.30631621461693026,2.0068579807026254,-0.804438138282957,-0.6712416406871194,-0.626304622704176,0.7515849240834369
0.10155879516016314,0.03358491916590632,0.5272155959183638,0.27334832156308264,1.2609844654867126,0.1725551363790938,0.9445375324281156,0.10059622220334233,0.872085387264518,0.5206671541988566,-0.3608207044655289,0.014632318604913833,-0.6466013528968342,0.11041327628928459,1.9318309110029372,0.9547102619291907,-0.06056515612271344,0.10146742085871689,1.1347635285123714,-0.3471183985299889,0.26813119504415456,0.056044725286363145,-0.15623144810661097,0.7511404198448912,-0.14620738631668723,-0.5628773700883771,0.34038339366735926,0.42898780825559035,1.3845758854374823,-0.13514803806182557,0.34035618802434636,-0.7290005632165296,0.6600217458698358,0.8106345690724731,-0.45768512542872775,-0.24026628146723356,0.2945148387043131,-0.34326670472477916,0.3482412138592001,0.9746545933078617,0.4643402740617725,0.03522459056875989,0.7837962187430327,-0.7297265174916017,-0.682549143566271,0.9221439736205157,0.723845191219658,-0.017140159998180766,-0.474879135510506,1.4634975310532767
0.04353330140573647,-0.44447539700296324,0.4007258558207339,0.7621647246110951,0.4484491391614946,0.3468380966196042,-0.015549540552883497,-0.6268624089761912,-0.9316823122923723,0.5814322071861364,0.35638846090725795,0.767902458753939,1.0204605055828189,0.9368056188317649,1.5221595146106077,-0.4960270614441061,0.387164925418421,-0.7586184222758858,1.2178430969841443,-0.9501457894225406,-0.4836290323403161,-0.9756319003730916,-0.3882837927703008,0.781152125401848,-0.9838595642508952,-0.013598791053346443,0.1302509164260251,-0.2664080225648176,-0.036683420923756156,-0.6373466022117111,-0.5230994871240714,0.03679060512162169,0.7409098844815022,0.2667588527437369,-0.010452976641012607,1.222534116332154,-0.12491414218389425,-0.1429800925476689,-0.6246887519372545,-0.26594383474960037,-0.4795137206456942,-0.824371513683822,0.6330704192869979,-0.12955173883945406,0.3469560984786003,1.7190390733011214,-0.7761701567457916,-0.5453117630134909,-2.2789453996087046,0.5319246871465878
-0.2006468112504829,0.840719514528674,0.4201550607904504,-0.11600935153299874,0.6600372793257571,0.037448439055766475,-0.43046263804584656,-1.0423519068936855,-0.4705760782323914,-0.2743647205404821,-0.09340261352078526,-0.04877339968367933,0.18707756659456673,0.6473044433554498,1.1398097348984821,0.9065629129555297,0.2176674225214987,-0.08682385022589403,0.9246410011024792,0.4556752657982984,0.48562945535202773,0.4931669534270159,0.8420459126304091,0.20730875302612464,0.1924358537244522,0.04781640878759054,-0.2420229310640919,-0.9636916093431248,0.030193620864637383,0.30730172571751957,0.8695596069411206,0.8908186156413144,-0.9105461459639415,0.6148994524856694,-0.31982373595328606,-0.5342527661978467,-0.32127594905637946,0.7585045128511859,-0.3139519814690533,0.30112673362944364,0.4136638416766867,-0.7739208054027221,-0.3452599531459561,0.6707885718834949,0.17135533117881135,1.3927643352855394,0.6111267688317125,-0.2684496753226333,-2.4233471769697794,0.9469622623112556
-0.29792739490289966,-0.6591242379643983,-0.2489170552765044,-0.5815652339109901,-0.08475629879792025,0.3068234709808614,0.4863109015806664,0.05285327279581907,-0.04905617122949012,0.5594217654380509,-0.36757481586125057,-0.7436978660001298,-0.5280136755279324,-0.28802065475932714,1.6344083631002415,-0.06789940770347533,0.20325137291208611,-1.0454335928324852,0.8839360690673345,0.13162267442221917,-0.2209682837243039,-0.5727342536063216,0.010864651671621872,0.5880203844057357,0.23106201729715004,-0.5494090383072173,0.6662253313217974,-0.17799417205336185,1.3387446937722391,-0.051147698987397586,-0.37665024268888553,-0.13501281209390104,-0.4198874784122236,1.693420752071385,-0.0060946869004612075,-0.7212581375514856,-0.6042351182938087,0.0006415443988399122,-0.12251721112006544,0.7428560099085172,-0.5255179090709807,-0.34674956438631893,-0.9092965506844146,0.9842539444706072,0.1648922068909245,0.9110471109877825,-0.5447222331916755,-0.5802707403196937,-0.880296851213738,0.3948484797801923
0.2076420047362067,0.08897828409306259,-0.12737513386132554,-0.42803555148679157,0.050024397697165615,0.6317135392197164,1.0624821616007014,-1.5194656835608318,0.32005600148407576,0.4522624275687515,-0.4567071314756255,-0.4394148883071169,0.7130925053277779,0.4806790286709061,1.046241981203345,-0.309351319895597,-0.5347093060738856,-1.2484071495565336,0.4897843177718184,0.30192274184664336,-0.7045535742300978,0.32989369605407515,-0.9384279177710332,0.9533469429278546,-0.6193735412730902,-0.8913034087470026,0.18934951540846803,0.8490445260896562,0.5985910425031629,0.2877241058851706,0.4898021974752285,-0.27055297146783686,-1.0011113896856816,0.25933092664618435,0.1622274405419738,-0.4333823694455114,-0.43788069640452937,-0.884873002725346,-0.5185027756719263,0.30048491764817964,-0.21591574456394474,-1.2269379616673766,-0.2573090085901107,0.39680867973798334,0.3716684120442468,0.15973100374811514,-0.3686278957729667,0.0023523144106389225,-0.408414422973343,-0.10487644930052431
-0.691248359150509,0.24099134016204407,-0.7216093127968838,0.44148626709486605,0.7634276030483199,-1.1487829253286455,-0.07278098467283248,-0.8957824821646951,-0.9069366166989523,0.09160941349276272,0.4831140456167885,-0.7614030259271266,0.8814818312421908,1.2724178658630354,1.3209449063740941,0.9399430692602001,-0.4911526284063998,-1.7876356628612424,-0.155794374299789,-0.2617554262151945,-0.2626332128289896,0.10463311755757762,-0.34111696603788594,-0.2638312543556449,-0.5274688683958507,-0.9674637720134063,-0.6128459051702271,0.09734093888186494,0.5731735651268929,0.27574674406795513,-0.1108046013732759,-0.6298634521839662,0.27020343056055224,1.5233996546911868,-0.8244238133668853,-0.04116255637494844,-0.909005269385964,0.15208162677020068,0.45389219673554976,-0.6196337065319237,-0.6978390522276195,-0.05369984317180898,0.13602292618567638,0.7234700112830401,-0.5396374291842415,1.4259987695813932,0.12686573671147544,0.582268796339299,-0.8643630032047043,0.6793722287443579
0.7453324024861161,1.0098149896672828,-0.7608521670508736,0.860521058874645,0.25633325326919765,-0.9245569682925864,0.6275537391765765,-1.208800093843441,0.2984336840757658,0.7494808479809097,0.9222709532852662,0.24526403415826278,-0.8672596751907226,0.5072529062293445,0.9090406178175937,-0.7047911054703362,-0.7610668290290411,-1.6913491753870789,1.1208749778137947,0.5192979675773799,-0.5754415145829399,0.7291092903192041,0.6452640514987847,-0.09879650300869049,0.098740670812705,-0.5154151428543189,0.30499771436430156,0.11842960438567844,0.8190520758823523,1.147516976719147,-0.23734309768778722,0.5961431985375207,0.02705175320624382,1.7984714991509179,0.6280505336790071,-0.6674473911285068,0.07572726175314747,-0.8928964638853044,-0.6787152243707917,0.7625405719905615,-0.017003470466856397,-1.4517034813461898,0.06069891949835423,0.07009869217634955,0.7073805437766744,1.0476762883822253,-0.6714816385416932,-0.7913331652776957,-0.4980741900962672,0.8229513227031126
-0.02256831337259589,0.0003644355090252904,0.7219898236909512,0.00927268931199733,0.20512412994166834,-0.59766375564641,0.40190898420022375,-0.25629467757328317,-0.3798830565563866,0.3413763570407357,-0.6596736803348777,1.031843794206021,0.9218394299157917,0.335889271597851,0.46832741829939517,-0.3599895662863194,0.545568663091066,-1.0783488797131693,0.8390760563001551,0.2058343447078076,-0.5799982535034339,-0.1911002005032132,-0.6021771398482526,0.9856610856268112,0.8325400309109455,-0.6746913769833314,-0.1593540482330865,0.8677612696467865,1.0089413561126765,0.001752369822119663,0.5584243570017255,0.2360383765449439,0.006894580234025217,1.0685282671452818,-0.6557416123340071,0.3727741572343361,-0.9463370415847201,0.9204744832751999,-0.976972219051242,-0.08545692289319701,1.016954777892786,-1.5424372355775045,-0.24153232988604423,0.594510570791311,0.40464461018702785,0.780016280517987,0.6396349665070284,0.48625775851989833,-1.5000384347697469,-0.08569864233924157
0.986611521723372,-0.01125551223712736,0.40316908489333214,-0.648918200910722,1.3946097232092043,-0.45257101396443467,1.040645676553267,-0.8946814205304714,0.7001679930750886,0.17707288097576812,0.04937316134926759,0.015607044547054593,-0.41360076798929724,-0.4379984422096681,0.16015724310138654,-0.9266368715738286,-0.3208792595611185,-0.6907349596631772,0.3646515039977939,0.19163685772062888,0.8940144647164672,-0.9978537367159172,0.8481773128455783,0.31055298465248116,-0.36730558645618816,-1.0142138188694634,0.0024835803678993156,0.5272054740532413,0.2676677261694891,-0.12810744138907496,-0.08711488889421609,-0.9492552024323501,-0.09449226318283888,1.3214105970387402,-0.2563557742419012,0.4420572274071835,-0.6216273504498578,0.1720501127419806,0.13746547677403248,0.5424575794729598,-0.3202618532788492,-0.4230170962897428,-0.1905256328352758,0.8538665490237988,0.43762826226390833,1.800978330325452,-0.17920319504295076,0.5937245698125986,-1.7095817693112667,0.6035619296807658
0.11099632418100348,-0.161063928811217,0.42878521440282263,0.8457028727603462,1.625211179253804,-0.16924438182956653,0.3264286319235254,-0.2548816885695046,0.5438624997153648,0.8675972548708326,-0.07993142167190227,-0.3802234178336472,0.920296285297171,-0.6623402263647206,1.6882507375227138,0.6106070170138338,-0.12797427692828617,-0.8363968835614631,0.6611062988510753,-0.6142920733237935,0.052424128591341386,-0.9192428640829623,-0.7882146098470973,0.2825265538698049,-0.24416803899109513,-1.0343987067653797,0.6164610419324991,0.7683650008433744,1.1041700289872076,0.0861617409887076,0.49387236138424,-0.5506452374933207,0.3738993487913093,0.705292196937262,0.2918121846814089,-0.5356711179370119,0.47354245927672206,-0.02053434547499686,0.9029394916796063,0.4251116385758011,0.8549065158053912,-1.0145055038857174,-0.39086428773081117,1.1215997893609873,0.7409170406419928,0.01601717573565664,-0.2728900952802373,0.5013464348532577,-1.667656706630483,1.0932052953580862
-0.8916626074007937,-0.14709732797999978,-0.5831232034248185,-0.8196881196115581,1.6658950371862247,0.5973628230011039,0.9901695236318188,-1.516067907072981,-0.1497032464358135,0.9757309470512435,0.2725628892591898,0.22754285615083183,0.1186146977496331,-0.2616913761591675,0.9823777452482647,0.666798235662242,-0.646879346062566,-0.40901990563541535,-0.9724611663512648,0.44668696159579296,-0.5780201825460247,-0.10553243945600767,0.9391047147556154,0.6049659238031077,-0.025583927453722233,0.6178499596355994,-0.7460662014360876,-1.062623119332944,0.7461701117639509,-0.12811119903222112,-0.7622846802979785,-0.6525154178729934,-0.5254358484385009,0.9572948974766056,-0.765063257882617,-0.9027675621004305,-0.7034826468800799,-0.007695193334540692,0.20105255922221008,-0.6715130679360938,0.362126088014417,-0.11523665967992476,0.2519409105818201,0.5123764108443246,0.3328738816779404,1.4132057545281527,-0.575374227489913,-0.14687871947647488,-1.3618848831587942,0.4853898402553319
0.5030692505021956,-0.3434435300728895,-0.8013027833643485,-0.6204457041177919,0.07526968750970972,-0.036079301508697405,-0.3153770340041051,-1.3803017570746194,0.24178189824577595,0.7768290815764568,0.7835897352513816,-0.7327077410397032,0.6512673367706299,-0.4931348324257406,0.5413547416801794,-0.3056922579460144,-0.5730649122339078,0.2511367790266317,-0.47114931875254756,-0.18681175018051333,0.550603935171623,-0.5599163514554933,0.9339325137339718,-0.01322390833946899,0.33503549589838827,-0.8187942905208235,0.20205467568098462,-0.4597356856778055,-0.15348774114677038,0.6596322951380523,0.798746901003782,0.16933336756996883,-0.8216315800339683,0.7636104157514718,-0.7085906941916574,0.8888871371937278,0.7963817497287631,-0.34859099220809164,0.9400174881125977,0.5433795772267712,0.12732912931652957,-1.0921643334291282,0.6431909342870725,0.31318451502719263,-0.48179327319106824,-0.0904556016513822,0.4505523745351289,-0.36528613953264355,0.4138981618094393,0.711246062153194
0.22345002310579617,0.138857641668535,0.0254405430071087,0.6233156606623075,0.8651445110421716,-0.6610340713508573,-0.806800073602665,-0.6329620253261645,0.6775009652563363,0.7172002525317837,0.8885040962562291,-0.7640932966822699,0.7276425729115735,-0.4387678029193628,0.22476816913733125,-0.23766826699181715,0.678851317396644,-0.149276585754834,-0.43713268352235457,0.511924249240674,-0.7252623193217915,-0.9118744786205568,1.0056213192350538,0.1688044891923619,0.6822700424111875,-0.7042705842866577,-0.6092681997142374,-0.9847166371854079,-0.3992166131155163,1.249713503809933,0.6133056270875584,0.37978081026302407,-0.6595631949310223,0.16832713477899688,-0.11674900071614078,-0.31692596348115853,0.09210015354728632,0.9002154022962433,-0.6027417346994195,0.40153243809385036,0.15626158811255755,-0.3096891729064454,-0.266105501062959,-0.1030985026973347,0.13370289492488252,-0.5843669568881444,0.7814039925361109,0.3512473657873318,-0.46119281487382235,-0.9426222896851604
0.9084684341399902,0.010265588594532396,-0.18245518738451602,-0.517061342442667,0.17107965528271823,0.8372152365894747,-0.21558198407836476,1.2985961054621808,0.13088228877331004,-0.15454733891955416,0.8618848729899491,0.29058081043092016,0.4349858165592016,-0.7430942389734172,-1.1205400807637413,-0.06808642130161828,-0.8794041592055417,0.19510152078775606,0.6189419297980777,-0.25589344776775336,0.19206980924390316,-0.5769230347562453,-0.6510341487448441,0.45378189635207244,-0.27485178650501074,0.5138303758087801,0.7663855919493898,0.14942873856573605,-0.5365986520777382,1.0452369873491174,0.4857218641236242,-0.1484644552820028,-0.5776770870041384,0.5121456673842836,-0.3528394460037127,0.9409351620178551,-0.14412483903656487,-0.5845049308096418,0.7671254172637227,-0.8725968473157587,-0.46983243333163677,0.02760249567832342,0.06678941180299804,-0.5174463369351595,0.8707295215448818,-1.1046357898061263,-0.6785128509274359,0.7576632297198894,0.2489287385604135,-0.20005495389805275
0.9749934654387783,-0.8716223207117871,0.20396501090295957,0.06712216659334522,0.8758268543326098,0.9155686568910016,-0.06498663327707606,0.9243928967004472,0.18454797679394824,0.26201449719691877,-0.6732382634625889,0.7654520535981464,0.8476528580059477,0.9278181467629764,-1.5543741608264434,-0.319900817378181,-0.6235687364409066,0.938275738348587,-0.17699576963175406,0.7776818364705351,0.5390260764877061,-0.9616509174598068,-0.4446008430601599,0.7086923161610765,-0.6977304437618774,-0.821228773459663,-0.25757506278809017,-0.3835182250127828,0.4786888783608653,-0.8995385088065571,0.6816991387931948,0.781867638179338,0.13708058344248028,0.07285233752672733,0.11582679443291398,-0.19178992165055803,0.16198003471301184,0.0479635982057476,-0.5223015589820879,-0.04575131113346903,-0.9836617388464061,1.0896395073739755,-0.904782647621531,0.52783971377376,0.9473160043168661,-0.8004894558006729,0.26097971916200685,0.17178187340650497,0.3894187934635746,-0.2941270849992491
0.05014979032852096,-0.5660836515525636,0.6246970931559199,-0.7094056622670651,-0.1326573902078183,-0.7832859999739852,0.5347272246428049,0.8692782994115287,0.15939986855835256,-0.17499049416945292,0.7161939408932547,-0.02411454769771033,-0.2745178034156702,0.697608601955868,-2.579389934575287,-0.18647342548557033,-0.5844185653876216,-0.18981157078891137,-0.2754555747106877,-0.4026184328842859,-0.9833249727086346,-0.5303329762868644,0.5002078301931796,-0.7384154629130134,-1.0007078219717875,-0.5056882682107211,-0.29631396348991934,-0.04684063407412769,-0.2741602485791689,-0.7794326930268788,-0.17687803943960617,-0.6871763755275521,0.08895845873304133,0.05948057999772762,-0.7835080352691814,-0.611732474051361,-0.28345540716592593,0.18252793702366105,-0.5676011667490847,0.7171727964529515,-0.7275501394415399,1.5066443379190004,0.007946923373266338,-0.022644023895338948,0.6706985698351654,-1.4674040407248703,0.3347362605619183,0.4210003168431771,1.6814545987911473,-0.26381363789194956
-0.25932118402169807,-0.19752904661856732,-0.31495625517538073,-0.9421436261855801,-0.18659270738826977,0.3433545187342798,-0.528705306495701,1.5202499281090425,-0.7415462620085849,0.9211399510462633,-0.5446230933558598,-0.13420517858258285,-0.005576312931564038,-0.6626432492558296,-1.9922233595651455,-0.11772362423898963,-0.37695874523128053,0.4165688718220988,0.5760453271948162,-0.19555136014197122,-0.5665860484608829,0.5135617031008914,-0.651376368434209,0.7117026698275375,0.5647118044207009,-0.11881357671683877,-1.0017000702111283,-0.35736261516224727,0.1560414433242072,-0.600936146740227,-0.43625485817912396,-0.7108193292465611,0.24297317825288203,0.03610750031881249,-0.12092242131300997,0.1133924893030402,0.6384939126983967,-0.03615452597538106,0.4422096639160529,0.9355580463002184,-0.9631877456245249,0.05803465037734338,-0.26836286749074684,-0.31288100924579376,1.0317245703935494,-0.39478581994152845,-0.06100426542471835,-0.04434049367929547,1.2887298470908464,-1.438737863248433
-0.12813792947876843,-0.38462629456485303,0.5961281668860838,-0.5101276652927446,1.104817511939084,-0.4118074713063105,-0.6334177189640213,-0.32203771979423035,-0.6867218544037835,-0.6096423486480727,-0.4707052341988282,0.12742406388334004,-0.24720921387309452,-0.43852438171845143,-0.31668060939991705,-0.3632158497963689,-0.39295106670812757,1.1651551925840316,-0.9801465611027758,-0.31034229681242015,0.604545115859976,-0.5087181588538701,-0.22727594430265383,0.10346202712628683,0.2915176093950502,-0.8439318647120966,-0.9052897542818723,-0.01482263371539265,-0.11639560134888896,-0.004073156862810811,-0.8739805204736162,-0.309984647827807,0.8976841842494477,-0.9681976915058089,0.623020458160549,0.8151487693517702,-0.30369959131454066,-0.16966490806016662,0.739978866035608,-0.3015294141600286,0.6753200014507676,0.07652287608020816,-0.628176249500176,0.9041331349290727,1.0520073491842103,0.4324938518259248,0.3866119728030166,0.38005563337738546,0.7080272194878784,-0.7432418303227007
0.3248395193626826,0.8012871249639274,-0.22982031166522532,0.4805050127698501,1.039005394169401,0.8748220369685722,0.3691321464303587,-0.7703030795864504,-0.589199141317093,-0.7687146835234125,-0.9477636962250134,0.8407347136720036,0.7784080559542161,0.09434191054046095,-0.648989306969981,-0.3075306516410924,-0.5101706887123154,-0.45815218782517686,0.3066411414207099,-0.8080423072964116,0.654092371388004,-0.33289522353291756,0.8944043690643092,0.8569789315943448,0.5237221741914622,-0.7601998017837148,0.38408959512521257,-0.9709387619336279,-0.6917114178076168,0.4389036843327328,-0.8881658177336279,-0.15977611556419014,-0.27395921882993984,0.6815850322557498,-0.005795459457823833,0.8383046151022977,-0.9572439313964243,-0.6238021474014699,-0.8393788449575367,0.32213956390210324,-0.5222068483696627,0.04069227908438439,-0.29508063845437593,0.7814479437826019,-0.48729044574931485,0.4933246092939129,-0.2410599697717084,-0.5706808000651314,0.8985016351791979,-0.036968337662530174
0.6523748740532296,-0.18548932925645426,-0.49564564175258,0.7205873904446309,-0.5814079781481996,0.36987323281575263,0.8091193903845755,1.044458666900732,-0.9207779825590965,-0.12377579270607347,-0.9439418547498698,0.03144334639037496,-1.0689152080453297,0.15959764201867238,-0.5315624677226215,-0.5284729708829874,-0.0483754332319913,0.48839324358908487,0.5072132389153287,0.9023090032477498,0.12603891880034562,-0.17950787296614132,-0.0846923218721831,-0.9301708311528214,0.5961635347039201,0.14858437564966887,-0.590537374926212,0.057850136001348626,0.7910845594130315,-0.9913050876447888,0.9753463744724817,-0.2526277744180485,-0.2502590568250952,-0.646664609101907,-0.5268219207361396,0.3315879564800623,-0.7820169399913555,-0.18558893086192602,0.732063277189013,0.09569892712416186,-0.27669283006138995,0.23362295867678334,-0.13299225299876824,-0.8122045622187406,-0.6105990436895552,0.7509047631662304,1.0010685206311436,-0.9808964993988659,0.730382871564741,-0.7813213032573343
0.39870786371741734,-0.34618718612860383,-0.27748314791520534,0.7159867773333117,-0.3070345118932088,-0.6953604557622198,-0.561470462653151,0.01482191624369105,-0.7900877614273575,-0.2615978571745903,-0.8227660979207533,0.10248786545535465,0.7897423793546886,0.8429187547741632,-0.6115357749414998,-0.6824059824830739,0.41005052972126615,0.18352835855829921,0.2105112732512728,-0.08859463067872314,-0.2628700934439131,0.9889357988562236,-0.4042360653210468,-0.3693064572744929,-0.05605412163068433,-0.8773018052385957,0.040562790449099995,-0.37914578967727686,0.7182380575680575,-0.6273417319953084,-0.8947088967751361,1.0153186930444442,-0.1664801973989003,0.8567856209365017,-0.40736673328622325,0.8786272677552973,-0.5481730753090396,-0.13601254441408248,-0.838895775190119,-0.36843639441837095,-0.22501316876246197,1.312682108525064,0.4208739275784644,0.9056838659811794,0.057398245774933895,-0.2844678632010024,-0.9076866782780303,-0.2641263343473367,0.7504527882688286,0.8956414878383849
-0.8231752790179911,0.27749553582424114,-0.21169254606885357,0.7379970965282663,-0.43632007197726436,-0.43811248858385743,-0.2862880389859105,0.5702157245167945,-0.7213953069652901,0.3565254310187354,0.9009158713980062,0.3304824748472686,0.5949544411842381,0.35003057294022066,-0.16666547713009094,0.12059531113382635,-0.16524406532322175,0.5384460132979447,-0.9521679682572222,0.7370495502998692,-0.6291486214103931,-0.09260427391603276,-0.29952494728880785,0.7291288110520528,-0.5362981314768316,-0.7298371662347578,0.22441256877541618,-0.7532673561805959,1.1566379127821806,0.5877140569794341,-0.06653333417868335,0.649282355085472,-0.6013735148320254,-0.22423295794022016,0.4098508217090074,0.8112022668493285,-0.46552933546198355,0.8885582613168101,-0.3271354717560842,0.8240552756539591,-0.3923309738582275,0.8132047446974547,-0.036148322490872825,-0.3162954208172448,0.09632387920036717,1.0716695862710706,-0.9479526016007555,-0.16270492311821083,0.5736663304218727,-0.2809339135242266
0.6365317874993246,-0.8107684832736054,-0.699340406653624,-1.039858859754646,0.5824616374935017,-0.3761642418671551,0.5982060133224956,-0.22694278097419404,-0.1597304317606637,0.8428672775453872,-0.9429946434849243,-0.17962951917944953,-0.2833397001334333,0.32671463522008765,1.189940390754336,0.4939607058561538,0.3882626908351742,-0.5338199381243168,0.5661132903457685,1.0755759606653696,-0.6472534095605942,-0.1468614193717342,-0.5386861074319588,0.7994383976783271,-0.2044223803338234,-1.2318698073446022,0.2874028485507648,-0.1506598448580348,-0.6785002241537026,-0.493615791001876,0.44788923008402837,0.8484014545919475,-0.2929844460135813,1.179816656479731,0.49336825435255255,-0.23770584870092026,0.5460752056674979,-0.586814663165081,-0.81112933141557,-0.882088398936676,0.189209876253154,-0.3936651165933734,0.23874360797555164,-0.9064820698179175,1.0132015599126774,-0.04310692474264961,-0.9545876553105516,0.5910103480389234,0.6526240651168568,0.11506686143286467
-0.061969191811527866,0.7308038632449766,-0.8651246635842973,-0.7601118976754027,1.1658956572477586,0.857000972486217,-1.0847567789657644,-0.867009935622008,0.7924493218594595,-0.06583774183238748,0.7532564488725397,-0.646833321726515,0.12176605854373786,-0.46004226950727195,1.1000344212993922,0.4102672228088702,-0.29045965697231263,-1.2832547012040112,-0.6418679401078687,-0.5189399251598121,0.39466910209279055,-0.7811193275244294,-0.9203362275583337,-0.44133417902880656,0.24642420706847915,-1.1607972255561736,-0.39303611565327945,0.3643608793485745,-0.2861844862636528,0.4074520632034221,0.04966203340261796,-0.5364276717428369,0.6965392847230852,0.6559236603584303,0.6171674596396939,0.8433394667953211,0.6770001620473377,0.7179561386605636,0.923774002803421,-0.029044523952051204,-0.7079587058468515,0.2072759720762656,0.15319183678763765,-0.1687721276717692,0.9656137129033631,-0.288455609540609,0.11548494775588611,0.8853587084812278,0.10683742171283385,0.3899602975993675
