0.874549673385327,-0.1100644332497909,-0.5825522129183006,0.6700196594305494,-0.007690554046345275,0.5912547450648614,-0.7807273687266494,-0.1538720463137017,-0.33859755134712194,-0.4235295672498994,-0.06269648617949643,-0.78652065882962,-0.8058571309978816,0.7351051503882041,0.723031205771458,0.7620021311422494,0.9193063009222232,0.5532827615353638,-0.94523426761005,0.9909223101657124,-0.9856226930478027,0.8007905701015835,0.07554381293519144,0.6304915897082164,0.9607362201386492,0.44744644133990047,-0.2568393719911689,-0.6268379783898689,0.725534526926631,0.7672365589369162,0.3871483492059531,0.18765238965785244,0.18002611588199596,0.16152481750788297,-0.8697560766931994,0.06897565934176286,-0.5237181892251858,0.015908280967832596,-0.9604805154947761,-0.9006208861279483,0.17091992536129305,0.06588824332283058,0.9174214884896033,0.5212279834727759,0.8007284403098193,0.9864808215057189,-0.5434487282934252,0.7527193782505142,0.8042074632199672,-0.20265974749366394,0.3706842217748109,-0.6372673851050985,0.9076530891936674,-0.24841742506909842,0.45797838304189653,-0.19303427606666462,0.21027141462488544,0.6917178110607552,0.8707267103403805,-0.5744737361288464,0.6488982185038591,0.2844837070344743,0.7598906791084836,0.9760182221250334,-0.2794823538275466,0.1529552333188511,0.1231608208158107,-0.3822962870910997,0.9439029046627619,0.3703922516824233,-0.23104024985864596,-0.9502441907558744,-0.6702763141042559,-0.7634918223102013,0.6261724984804835
-0.014792917996269434,0.6203883041711511,0.6070572832968876,0.9697953541381659,-0.12321663904316724,0.670614825815807,-0.7250522613601655,-0.2747416508632695,-0.4302628714865897,-0.23654482455632794,0.5319313342235187,-0.8289517508262232,-0.5619843833113505,0.8770136556835124,0.32099341600849074,-0.678892643079602,-0.9753739089734396,0.24789051867594894,-0.9120691026185548,0.014573317367400649,-0.8420549455744262,-0.32660433512739573,0.1388065174393355,-0.39958623661835263,-0.9613715581536962,0.8385449917371806,0.39396414538075886,-0.9560688912984137,-0.3960938564843534,0.7348792511282135,-0.6353664830292001,-0.22033376524470613,0.40347107098093504,-0.298731148075345,-0.09769757103310435,0.44440696177108896,0.0931638753036141,0.015611195878355973,0.1828066296673491,-0.624620702253663,-0.6193022209718865,-0.6803823766104524,-0.7143942471770713,0.021399145628101884,0.1945281486102787,0.054173418272818415,0.5505551972484847,-0.8457955265938021,0.5904238653814586,0.3741890498380772,0.7692194506207175,0.8338009836154575,0.975995080974226,-0.8483529809420768,0.29528904105194415,0.6029806294424654,-0.4150481381828924,-0.9275204710748346,0.8691188239274752,0.9251644244695244,0.5594081285619964,0.26868679840220555,-0.5225813332058883,-0.9841259835059653,-0.3267600636710679,-0.7784014511336701,0.08879043323816914,0.7922534268841867,-0.8141323738828168,0.1298786694520903,0.3069876615864658,-0.04723125703236465,-0.09349306073026369,0.679704033726655,-0.07224203118816515
0.22490288143445192,-0.44126446503275657,-0.8306214643219056,-0.6929973911878047,-0.08693156418153641,0.06482145387219326,-0.7947915859562875,-0.8411366336032197,-0.008048625202319718,0.3117164621741583,-0.8323204372707335,-0.5478208856682623,0.5625904636569501,-0.493089437937034,-0.9650649116805657,0.1585883952707077,-0.11266629302489631,0.48976873797858894,-0.014255914677842634,-0.8982216464606407,0.7937892701436365,-0.1073256342972323,-0.8507501425605364,0.5551870394703423,0.8056852961596651,-0.9357376192693118,0.4473332204699356,-0.18457364271565987,-0.18330932094218982,-0.8091148703609011,-0.45181792318274727,0.7909477447914425,-0.9825118241205073,-0.41295111003315793,0.4795488278652669,-0.06060396769031549,-0.13980772356402418,-0.5207852497965966,0.32651581212664244,-0.9797242319899742,-0.20119321136549884,-0.06353365268867106,0.3583061810296993,-0.6501756752763321,0.12963885391783705,-0.5062254480569047,0.38006077148149386,-0.2899409925543735,0.8851371358097521,0.7826147293049716,-0.8944549279294799,-0.6102535388100739,-0.5486088922728704,-0.9283624783037394,-0.31019819577633,0.5894518840137937,0.011733760872633258,-0.48173245190981545,-0.7068241852366307,0.36690373941780147,-0.5125430778729011,-0.4679388383117949,-0.6440673427620863,-0.8709925014046318,0.5548921812875135,-0.8175803657140809,-0.6593491597522986,-0.7112042856649136,0.8032749969332993,-0.8879476051754607,0.5933813395131358,-0.6115490578405579,-0.8747937630784954,0.7066078278097818,0.6784200938966772
-0.15677380162783466,-0.3253083181904483,0.08929993883153277,0.4144179917573061,0.2851766897854693,-0.6942197820262233,0.6376008925376861,-0.14704344232080277,0.7970971846424102,-0.8642320342856883,-0.1759440197196251,0.8867139065208471,-0.4167901510632916,-0.09582660684770074,0.12903617140193732,0.7903432896150778,0.5244414407270133,0.18385382512219645,0.2957505144990093,1.0126966466255836,-0.07035361693025295,-0.6585050815724796,-0.44123282077089965,-0.6505018748204777,0.8028294866587746,-0.08974857697842664,-0.2577564532908224,-0.5360042057733596,-0.8579964220144577,-0.797633606028256,0.9034905713761646,-0.8054137440651521,-0.14108857098450575,0.08068495297942477,-0.02964957426855957,-0.02034155744392212,0.585427070459343,-0.6314253988268896,-0.10895687708075574,-0.031011418024530446,0.5771986250639521,0.024845303036114045,0.911871317425443,0.483073932956085,-0.7062248541794738,0.22795879132700736,0.9742297185837367,0.663286977987219,0.7877799309747348,-0.44287205488366616,-0.45280868725243445,0.004872500489360464,0.36856056708497703,0.42014241156930415,-0.9740821552160075,0.8451283800772855,0.5432479049274423,-0.9117708821781102,-0.6929708088687787,0.7876234855197252,-0.6838442753913491,-0.26200683483274084,0.26926774080259064,-0.2701775777838401,0.08062144875347044,-0.9997956220976375,0.7093413506319166,0.06007867033470201,-0.35935584106021196,-0.06694519191827268,-0.001434836804455307,0.22077855261135035,0.5163860032008772,-0.8657980695637145,-0.6055453526793511
-0.4099789198502655,-0.059039142368156355,0.3593926736368396,-0.4856632133781419,0.22163674312917123,-0.42844582748284465,-0.940786537761549,0.35946397513184,0.39625525215083307,0.3412094523361613,0.8540730176367108,0.5390066843135859,-0.43928469535073456,0.8107719534569434,0.6072001328808176,-0.23127062765745313,0.76614188361293,0.7992598099907837,0.941731471916454,0.25711275776596926,0.8064612625780263,-0.2979075918436327,0.5813644566411312,-0.5430894114266227,-0.3185015058618644,0.5903254051065493,-0.3240746764059771,-0.6722470740085439,-0.6981196441961478,0.20220666392474598,-0.21657282208614992,0.23259583778727963,0.6869828043594894,0.7680293301853943,-0.15911081856317894,-0.3090947549953343,0.21626422437325882,0.3934880901743701,-0.07584034465377242,0.6987863108397699,0.4244066638586857,-0.8814781185595898,0.41392455659584415,0.26714705950266954,0.6066801716462549,0.4167769981759173,-0.633991460808854,0.22162442686960224,-0.2901663891331111,0.7720480528745292,0.4560062719160169,-0.6376163609931813,-0.9345495429301613,-0.793880424252864,0.32942906881752904,-0.30722268412825693,0.597509302384097,0.32219902819422164,0.6552526690442235,-0.5686036953535243,-0.3012418678511679,-0.27622603436528126,0.6391684749743719,0.4579944583836859,0.19245684082252512,-0.13999265555400664,-0.9706223127182041,-0.21524343433438253,0.13088013089328163,-0.39537573392137904,-0.25541209231158934,0.22112162050323583,0.7270602002675355,-0.20594907321822845,0.986267199059717
0.7831825532753232,0.8791442567232036,-0.5347035765297041,-0.015835648364744256,-0.2099745663430967,-0.20275181544277132,0.30256331553070925,-0.06380337191392448,-0.7383022212391159,0.9302865738598699,-0.20187045371870413,0.9821068990815304,0.40965897631558995,0.28638948666141195,-0.6078650227570827,0.6499385360224545,0.33308698033383366,0.046816091518231066,-0.3913671980672176,-0.13918355293813195,0.4764708292006774,0.28392088456639686,0.9381500585971815,-0.9465553676374446,0.3440583039554647,0.9465490288334117,0.21073227034137812,-0.5675412013367914,-0.5206540804711774,0.9900463687996204,-0.28522430716116765,-0.3897654992950319,-0.8293836987148897,-0.532043820762234,-0.1878592834057881,0.16779026691500398,-0.716459955268012,0.1893241525199372,0.6319904539623994,-0.7059726968843698,-0.23873220487925986,0.8883459985794356,0.06008881985908618,0.931707942379853,0.9522601268849723,-0.09108051373656835,0.10311795578619098,-0.13618404764597605,-0.036569869166282395,-0.47946435986015123,-0.7674007842241376,-0.7185759784344049,0.15438771558153214,0.6369059269063388,0.7450981422905338,0.5325425040849902,0.712747043988622,-0.4211390366018062,-0.18426524487636206,0.40822222470059466,-0.36576627030757386,0.5217216894607215,-0.881867083768069,0.842479240743737,-0.3268306947683041,-0.5951513766977432,-0.395041810491914,-0.5201033276652549,-0.40289849280133067,-0.17348382568990509,-0.8008909661232348,0.857952029634238,-0.8495206435064057,0.3191299120133384,-0.6836017596377991
-0.28989611535084303,-0.19757087952805638,-0.7938163191534312,-0.6776673929465924,-0.06901160846776168,-0.021383422359295128,-0.5829865615802504,-0.6587714752334548,-0.8147449979295492,0.6354516472927654,-0.6222885041478499,-0.030672978248014047,-0.9044641660577423,-0.7285680908318029,0.436828036619076,-0.7706343270918599,-0.7309241937248898,-0.38507768539769316,-0.5659010200296177,0.22964626647156094,0.9920446777459606,-0.43396424145887347,-0.4649044399281561,0.27251824082526677,-0.0465290161207935,0.41826582001062673,-0.9730958598589244,-0.11860605725894287,0.6098043367070907,-0.9281286697217112,-0.2722694443490916,-0.40779502940956935,0.4938063582732245,0.17585680219552896,-0.6929176638842491,-0.8232251447559937,0.20127253560562752,-0.6960032131282604,-1.0435901755073063,0.810986764420405,-0.9081319618287506,-0.9802107570856631,0.18243396130031317,0.8676103985644602,0.9899725402359063,-0.34714980708281656,0.9755535425418401,-0.5918081906177735,0.4593376094162695,0.14016750877953985,-0.2964645872830732,-0.15919181195944823,0.17343324196416451,-0.6921410678613068,0.5740874435370052,-0.9935348965915928,0.5865526933787918,0.04258112774345326,-0.7913531608065555,0.45750721426398167,0.9730915301556606,0.4195753043556074,-0.3153946902861548,0.7971395679910226,0.7160106760001209,0.47757317209613687,0.8719394549437822,-0.06013644186309669,-0.9399150646194475,0.8953056104701012,-0.3526402994297399,0.004123925535817986,0.04601322798753283,0.016684820581172342,0.9094469685499258
-0.012792471254424436,-0.8516421796729753,0.5402779690329397,0.969296588187635,0.34093549173094734,-0.1450245039554795,-0.014220864648971378,0.8731209925500408,-0.5580418872940972,-0.6080480420581573,-0.8464317732442806,-0.6262042744128131,0.34565446474408745,0.019929578046150156,-0.05630415470910736,-0.6389142861890372,0.6662459770812534,-0.6381675868290256,-0.025170223144448545,-0.9057092192397674,0.32798519162137696,-0.7011507361223952,-0.017453882668530107,0.8382208957281367,0.6346651918241131,-0.1638354999740509,0.08686853158454641,-0.778032539872391,-0.4300786803160319,-0.4041597410407911,-0.25441722810853157,0.2952312478763069,-0.1554886421885391,0.20533610148379192,-0.6128081784993231,0.7298411306201784,0.07847754744605501,0.0998004489896443,-0.38273569578626926,-0.0887753659307785,-0.9017497483628707,0.551922237141436,-0.958162793163514,0.15037659036638412,-0.22776563362515012,-0.003201061771892164,-0.238434810673883,-0.020926458531172604,-0.5152511066539145,0.11476855103496138,0.44965250230130155,0.8922908261509658,-0.38184121151374545,0.6158082843720175,-0.23283940330036115,0.17122062812997288,0.6497024810901293,0.851019051265536,-0.29908194556544776,0.27479730283986753,-0.7319375815295098,-0.09942343838961286,-0.2031688079626483,0.09172091832324053,0.9030106677005191,0.4205654897788489,0.9216199546236116,-0.14226527421964902,0.1828417570937869,0.7275123433614045,-0.5408868500494531,-0.6726160897165527,-0.7544209530378041,0.8151328397255392,-0.6925399589032916
0.01091440460784516,-0.02303975494390157,-0.6396895839879385,0.8767499402083885,-0.09501669471342451,-0.6103406752521554,-0.37650168732145406,0.8904780006587713,0.4046472380154941,-0.5566039941877666,0.7471236450684775,0.19934209309930628,0.6765075473035221,-0.9213575015532255,0.9063515746943402,0.4901418302944159,-0.7301863822663037,-0.4091144710003789,0.4387290645955398,0.05210769457707849,-0.8784033683220709,0.07744931900308248,0.7376973229539949,0.16236964180197103,0.1776721728273837,0.3769145045050223,-0.6978130234972463,0.34173597140753564,0.4413417059004649,-0.7543577193116189,0.6021732793841215,-0.0898203566577288,-0.6918828997792472,0.5196889436674696,0.46689004236419573,-0.11652983836453212,0.5874842695742425,0.4499563458555725,0.6813442374686238,-0.983486716795389,-0.5101296078575172,-0.17588033724196503,-0.8208310503449494,0.7781211178326382,0.34970671342733844,-0.9821591026403734,-0.853232901456943,-0.6284457158306416,-0.8696043945282672,0.9491668790986353,-0.1687166201830605,-0.4823681826215053,0.5537469186912459,0.6171614046414808,0.18582733366173237,-0.6116532188904322,-0.4072107092878261,0.8281850512972745,0.6747989788388463,-0.3770035427447718,-0.438086944499824,-0.10521937981697659,-0.5813909918921135,-0.5679050406525531,-0.9528380908234796,-0.6118488723738148,-0.06511067072989217,-0.4137693691351381,0.7893564779212399,0.8822912921752933,0.6036598944120926,-0.7781396147815514,0.005334054444503279,0.6519710530855368,-0.027535209705869368
0.48357400155610347,-0.10098358738563928,0.1954643387111958,0.09916293022826846,-0.9996567277663005,0.517352414186326,0.872491799300218,-0.12121143044130536,-0.6710972886646362,0.26912462687072275,-0.9958723108413857,-0.8300066352019059,0.14402108891712248,-0.6293374552115256,0.7640214031831514,0.5725884224961292,0.29103799079790454,0.2646279807835583,0.042047795807500975,-0.4647960441314723,0.4850748205007066,0.5271482232076184,0.7498936845098434,0.12746800280366186,-0.7312533997296463,-0.49450803044663283,-0.35385421912210224,0.7829802460907163,0.9244352835551409,0.3118562921742618,-0.32928025223963037,0.8985278109004403,-0.9763049708358561,0.8171151816133729,0.44282964549103815,-0.6110660959868262,-0.7944966343850803,-0.4301796620032269,-0.46103017363431553,-0.772013956011231,0.6702153702196647,-0.48262640277727026,-0.35229073608212264,0.4719362035538972,-0.8083619837199937,0.5485045520090751,-0.5764920668761544,0.42650295177049835,-0.17019892677660517,0.37858174598019545,0.042452069171943156,-0.10270635815230468,0.5703670735980371,0.2286728560047572,0.8111257686749268,-0.3468526830493644,0.932168120103508,-0.20313336588395808,0.26000661226985855,0.6046093254852062,-0.2929220534935833,0.212520374000574,-0.5853312467167302,0.9687256529667074,0.821561298216738,-0.08837477817987359,-0.40285390338650945,0.17432661054770146,0.8210494539036226,0.9374470779109857,-0.4319877642797291,-0.4563032227177594,-0.5334534296673858,-0.8753778088745574,0.7781561145317505
-0.568746471417102,0.8723998946568096,0.41274007333089197,-0.15782349120020914,-0.005083580053172838,-0.8135444125658808,0.7076227961616796,0.4723969637423837,0.0029848235739929536,0.9127167156286649,-0.3869433770863843,-0.38068709804768275,-0.4198660574206544,-0.925518874847363,-0.8968505696404204,0.19704834675415897,-0.742536292188007,-0.18900620557168432,-0.10915570258335569,-0.9112607469516374,0.9829868050522855,-0.6555483834202547,-0.9175368125359564,0.8178796074265761,0.5875402571927804,0.006740399467799266,-0.3901289671902829,0.3369432098195398,-0.6341731763815588,0.5024301574552688,-0.35939120767228483,0.16664912082641098,0.7874732958268474,-0.40515049113627644,0.18027582779434126,-0.9551900764597417,-0.48229160834586793,-0.46492843191814515,0.1638637008647548,0.30952409920078255,-0.8921512706227857,-0.6391713209412652,-0.876393143769545,-0.42915703642820274,-0.6735845519864957,0.3943182431976972,0.22832826217383392,0.1415310547375167,0.8570552656031326,-0.011106427169455703,-0.6389606861385067,-0.07842096561409609,0.41960242711777995,0.9043298004664949,-0.35551193721845853,0.8047675266914944,0.19105501119683072,-0.6021302695953982,0.06019667025594647,-0.08075221934791002,-0.11186548849056653,-0.012622988378202981,-0.028714001717664615,-0.9063703685996017,0.9719408430505291,0.7434584324638122,0.44294691015938337,0.21962025884012015,-0.5704906739051513,-0.012054937108047219,-0.1184453852693697,-0.6294637425634704,0.7948701910145589,0.2977766880139885,0.5495254834068358
-0.35743144539875044,-0.007432915663949717,0.7952803523807542,-0.9926360895077634,0.9881675803121229,0.7642103257083949,-0.5353855515484712,0.21780719700089685,0.5560748140353905,-0.5396059722959353,-0.9502634720830099,-0.21132573120818984,0.5964390737327203,-0.4182604504762693,-0.1919766664241525,0.17055261784527287,0.37425390248628926,0.2578407349192363,0.41329677590676267,-0.1154933583162135,-0.9676746649921529,0.37914881839959497,0.23478767334147557,-0.6771056133156416,0.534415557866145,0.7444589839285317,0.1931894375052741,-0.638075066486818,0.9698176277924833,-0.009769285075284377,-0.17514219146419022,0.3131147323481717,0.8378806842392823,-0.8005002199737478,0.7011337147222171,-0.2979926117700226,0.10889382924757919,0.6820046822654701,0.8432098289711615,-0.5130392137202848,-0.9038863241308757,-0.28332647617144147,0.8120440936191696,-0.32062595140643996,-0.8225424774733635,0.7845823628338314,-0.34104101460535613,0.958315323023829,-0.8935800455470633,0.16045748172970498,0.2926010767807253,-0.6902635683640072,0.19389508478781278,0.24709087199091423,0.6061734092533425,0.4429929469440751,0.8978970794947154,0.3234300603314981,0.10143867859014252,0.6413801239500679,0.7228607346657712,-0.09394811021805559,-0.13037965844207727,-0.2734959145983747,0.3371237013684363,0.9544057384000721,0.9020152827080138,-0.5464305187996797,0.5555195632046664,0.10280159882879106,-0.49072002956443667,0.33699779500059246,-0.5903151497172148,-0.8950723181552618,0.9061194413213242
0.664792898804431,-0.03480378140075858,0.06474278001370457,0.9571772407922383,-0.670171156378577,0.28259483864155555,0.28187670702987405,0.7840242552631421,-0.09443283430234493,0.5825408762493364,-0.4622632866101403,0.5155791109773363,-0.9175086387738112,-0.10427724062419978,0.1033619549993781,-0.011648586821821611,0.9789698993039425,0.0555649876475856,0.3609571710889602,0.45522145226682387,0.1832115937895312,-0.06939915389451809,-0.9735192199818983,0.3635230977811577,0.5611353112741981,-0.1795518259971854,-0.9574190614623067,-0.7513035251835036,0.9441019994557949,0.23093180265566982,0.8313721918971589,0.8016530656657812,0.365547217570614,-0.17300996257770243,0.29520337266353097,-0.8467819573620888,-0.23757041738244652,0.1995877259119861,-0.15526584156348047,-0.8635310474158343,-0.589494880677719,-0.26930908217784677,-0.8823336295023668,-0.30950623036794395,-0.13087490045664613,-0.996271774212424,0.345470454469064,-0.4902445192320546,-0.31518539104195903,-0.4166690567770569,-0.565725311870835,0.2211975529231911,0.44234601793570083,-0.6895193916511483,0.3196164702613708,-0.01520094843804915,0.14796131487706937,-0.4526320678473201,0.7738535749582025,-0.2386815867537823,-0.4097436817840684,0.3198790745951084,0.07150851220310456,-0.18460832077311753,-0.7202051857528337,0.31510769019371104,0.7629833996762249,0.9018965465983433,-0.9985893762541495,0.7735901885929961,0.8096037384997926,-0.8240979229068619,-0.9820924245178005,-0.529478004003271,-0.16825321468794427
-0.20212373250367444,0.6257940612595292,-0.8062174211688992,0.4792287768298986,0.14051924103001973,-0.6411052937889252,-1.0081135130611267,-0.13580175772434075,-0.657698384265149,-0.17163413772044336,0.3277518468060028,-0.12244700214239765,-0.9277476471545907,-0.9622292690947971,-0.9329301219793936,-0.39554737671139456,0.025617942736081104,0.8791702407328884,0.5252539736405547,0.39048700744947296,0.3090045194037096,0.8952907266445967,0.722650069411934,-0.10851621098405512,0.5133598434821431,-0.8665238803194103,0.22861019837267677,-0.9251355930589741,0.4044054593018065,-0.5561704386978713,-0.1777063007669309,0.044513583266562545,0.3600460849457526,0.061664539955434965,-0.2199968783193708,0.743654350050067,0.4912289325649864,-0.5247002177808519,0.1554835291307803,0.049641370218095816,-0.31830903881640765,-0.5420644212504494,-0.5442323203004513,0.4639342402596196,0.9423888285785028,-0.8140920659643186,0.6462704354326735,0.9534849924894574,0.7096434495985252,-0.5764767241696144,-0.09967758031062657,-0.8236418036887868,0.9450453763557809,0.5493904497231744,-0.3133479715634425,-0.934883181625717,0.7240822587175529,-0.4053853032622086,-0.16233187332571197,0.8440006991062466,0.39837043840747915,0.20297539024008032,-0.7848969394732526,0.3812699034625988,-0.13848114986885096,0.7719054277505765,-0.2063807804210004,0.7743030460105934,0.2523048576394813,-0.28569023091378365,-0.6468117856568993,-0.7732956137388182,-0.14498912493432403,-0.33003069112095584,0.12212566772834994
-0.7672981755069905,-0.650057937734634,-0.4107964391327868,-0.19054373948785797,-0.31689041581709554,-0.7615012474888896,0.7810471656867418,-0.15928305017058944,-0.034994285492951735,-0.2067192924662705,-0.03187190756396314,-0.03756181055147038,-0.7269590264265196,-0.14901896297613032,0.013685910965901077,0.2836400424981312,0.7293111823099336,-0.9266390224901826,-0.5906869004803664,-0.8010266050199062,0.911193232753354,-0.4907172381058264,0.5925032412472265,0.699689014140701,0.46039783565740827,0.6834777724834696,-0.012747531196271486,-0.6218331264332678,-0.1714937444543084,0.13098601768514997,0.826930085436518,0.02182178808298915,0.5022796607504494,0.9582738319207207,0.908789675370672,-0.276977414751655,-0.4465111938243684,0.15349603296890463,0.9823087503656193,-0.49489942596238146,-0.07522667189170465,-0.6877733347176216,-0.7104565202904296,-0.5206201379880547,-0.623488768301345,-0.6482806726989184,-0.7467739057099361,-0.7698851650354868,-0.09788270067734169,-0.8917029260255664,0.056854014093928464,0.9314764185571844,0.8254278903401548,0.20447389217555245,0.4442308349703341,-0.1039580804896363,0.9328863692833927,0.3504347996358917,0.8802479136152577,-0.4420299097549982,-0.5707110229331809,-0.9210506163935611,0.6514655768310711,-0.4483083105418389,-0.22895153088637477,-0.7828068490125059,-0.3475099792906112,-0.6762219075063091,-0.8276152320734772,-0.5827966309869531,-0.8858633414863554,-0.5140520002495926,-0.2916154100557129,0.1312852250749845,-0.35122207528711247
0.40370376139313213,-0.749963835979552,-0.49053367736470577,0.9673511847506998,0.7373467031023349,0.03748853878809215,-0.5075139347771447,-0.19434086490061195,0.23812965248659168,0.14433801760351153,-0.17397159440890536,0.6311445871482898,0.9413896266945907,-0.9932319367260357,0.5467024541117967,0.9890266114570423,-0.8842150476391859,-0.3583233203679098,-0.7641105372044376,-0.4341755387876427,0.9887703712358725,0.7417787954502864,-0.6473944564854751,-0.31993919686701144,0.5963899814486153,0.9758692936885741,0.06970182612898086,-0.7082341343957187,0.01519092845470358,0.5395964450068201,-0.9152941900332836,0.5350355431415313,0.843121041685635,-0.9140287810282332,0.25793294250276033,-0.07719624649618109,0.11302842045575791,0.7275261094588097,-0.728390776741104,0.3814683147495361,-0.7640495986820791,-0.9925848466537712,-0.29674985312423224,-0.31259803917867546,0.8158841462152296,-0.6550889288695639,-0.18737146544738886,-0.20944910898681318,0.0718544397547727,0.8747976727697644,-0.10642854693127825,0.9582498993016387,-0.1849333887631797,0.4563328686233583,0.04369372530395988,-0.12806586958297378,-0.9906630805615274,0.8466691225263687,-0.5209205891070704,-0.8350754908183765,-0.3064296018697765,0.9317891144299405,-0.13448307922879366,0.2213569576798209,-0.9699721412214293,0.6099176572005756,0.2015546802945065,-0.6304459694759031,-0.4325176905702052,-0.5677203871699664,-0.19087507523428876,0.5269625878878398,-0.14263604657614823,-0.6084309982480691,-0.6293872886706889
0.4051749739751941,-0.5629439180964468,-0.6089534819669817,0.679982324013007,-0.6963654198696341,0.21889352357730282,0.21749611302710734,-0.48731269733574245,-0.7249958517365762,-0.9352210079122514,0.20740436655671154,-0.07411593259226862,0.09318140266258697,-0.9397108369965627,0.02105818313271097,-0.8444973620100003,0.5626665190987024,-0.025753794300593134,0.6313755273367436,0.886092131462004,-0.770654404611826,0.7081543971056337,-0.5616630745801409,0.01072259456604837,0.6537528631545775,0.8345371236034879,-0.4972306423253647,-0.665023521915537,0.52095084672736,0.7789760122944774,0.7044704941738963,-0.09730285689347666,-0.8715696962647888,-0.005377949484781651,0.5297397467657615,-0.7987864031148723,0.2864438203947669,-0.09811891593178912,-0.5629142228396368,0.8360075221125008,-0.2976371091531394,0.3125153410660112,-0.05517723368970709,-0.42648395958183005,0.5450584880962529,0.050590503321543086,-0.7691817181744295,0.4139264486525748,-0.07246593104052437,-0.9406236727667233,0.41174323417045433,0.2981049443749288,-0.48166254718394536,-0.9265697046908005,0.6909862150074658,0.0009355209962110667,-0.05858994598599663,0.9234049025144067,-0.20813863854790796,-0.33467067622888,0.7123585256095567,-0.5288144412530793,-0.8080731548216867,0.8508868151498727,0.5680158545070789,0.31097507474821995,0.16156045231064295,0.4474941764616459,-0.18142242996054958,0.6895996810904751,0.702159123876279,-0.45056345000530834,-0.9228099954715279,-0.10236964422939929,-0.3556242295947088
0.99063696038963,0.9694071448334305,-0.3764927076127101,-0.4094284840768048,0.4817728961742166,-0.3592118921123055,-0.3171165524217189,-0.41561013774459227,-0.8228889648412079,-0.8311524258170525,-0.2752768440552582,0.400652468861722,-0.36865597749217455,0.8530464686307713,-0.5501731143115552,-0.77320697495144,-0.9805886185352731,0.989055834440491,-0.36741985253673143,-0.07788048770254627,0.8672199349361551,0.6161748644702557,-0.37437076106338457,-0.99276160430866,0.03391679092969968,-0.2797986555550765,0.5223325798770311,-0.3083198999134922,-0.3414599881905874,-0.6487643376469243,0.33412464916819407,0.9921681484937138,0.5477918592743114,-0.32271284769779085,0.7087043215332006,0.979652800636383,0.41093489536327704,0.9198303780274261,-0.6213463264953719,-0.554407885539965,0.3453274351938568,-0.5811286524451966,-0.11728568153041342,-0.029550673055159567,0.066497774243231,-0.12478256518207853,0.037432060385440606,0.5727804178586681,0.958764367978158,-0.8572636884970073,0.30908798767049916,0.19030054652391148,0.18722577241821153,-0.8048526769616476,0.11047558805085468,0.9570913848232141,0.3376558307828196,-0.7490534612946699,0.06795932459918705,0.19133551928709797,-0.3672217122652575,0.2806593103587114,0.2057412611111419,0.796382415029623,-0.0032407021382587203,0.12374596004829551,0.4352131427124928,-0.7079965680088581,0.39881802996112337,0.07002427087120631,-0.9242077176044984,0.7276650120209187,0.25113289506576925,-0.7801791491079918,-0.33840499297405896
0.357685578608156,0.09351956440399128,0.5324260467692072,-0.9223473949841947,-0.3457258787928702,-0.2557789514414377,0.9478082425077619,0.8058328689910882,0.15644025992721583,0.7420536345380223,0.753326543030433,-0.5071342895902402,0.5522303587283844,-0.6698977867130154,-0.5450927187068944,-0.2553819617677823,-0.9247532207492599,-0.17981044628842546,0.005391703805361411,0.6780250895830411,-0.13071944208956643,-0.6176810894789164,0.8621323803074522,-0.7661670430705338,0.6145569533433116,-0.22824221385281948,-0.9668049947171559,0.012317665406839881,0.9258015200342555,0.8267197459196413,-0.6548299028847809,0.9544957075616269,0.34555851750200045,-0.017089550361564013,-0.03203907119092256,-0.6681873577666969,0.6140373869336451,0.009966606055275303,0.661693636437401,-0.8785634802301664,0.8630385116989455,0.9110724309587086,-0.9678250924519811,0.36033438788104705,0.8488409297532483,-0.5440440504370269,0.4683135205970925,-0.21907485548107714,-0.24101952808484334,0.7689595201771737,-0.8139321513258564,-0.7409084605626692,-0.8638484860847551,-0.8522550132256805,0.741943518455096,0.8537749489267673,-0.1896035677914203,-0.19206251517171807,0.016538390257678337,0.22234541088235196,-0.4199078158416457,-0.5963376014011037,-0.7977686121164236,0.29669814708278963,-0.5125944858268643,-0.44234910626034346,0.4611012479506574,-0.9823888471040952,-0.7302665461123367,0.020035978069767618,-0.6729985394981031,0.5764368659307874,0.48722824706828144,-0.5224443140313806,-0.6424956789492456
0.6794819859306467,-0.33507766866254546,0.0412350308746804,0.36268349389674137,0.4380610290703366,0.14078462946692033,0.927285722127143,-0.6191695730313348,-0.8456631799905999,0.18190004172610896,0.9448660300432316,-0.2660349390355369,-0.9867179417520111,0.48105065528339197,-0.661424129246802,0.24009297477863345,-0.03403773784409836,0.84157605298917,-0.6202384781740553,0.0017415033895585312,-0.9935383579613106,-0.5956161495844152,0.07977532094121259,-0.7767342426659756,0.5644746532801623,0.8482611678513556,-0.6777446146506728,-0.46372414794480965,-0.7934981531527102,0.19605390265252648,-0.7126782682336347,-0.3735564508147094,-0.8221220125477287,0.8942392873131231,-0.9478543427328242,0.6703248096223747,-0.8736348400142967,-0.3122572659543164,-0.259141513660645,0.7856433581810461,-0.12989907628232877,0.058763424854953526,-0.5025294171936903,-0.3571373012345817,-0.060342873470204776,-0.8557273461878532,0.32262352898216806,-0.5920861578914486,-0.86078841963725,0.8278414356175475,-0.4042368465452049,-0.4370777503350303,0.22755120096147,0.8776267817838945,0.6261157793852655,-0.38401570188536666,-0.5039733223282342,0.9170274895736117,0.31602223782256245,-0.9121693263804979,0.8647253623134126,0.3939600492404924,-0.3175309822953258,-0.09024867101789213,-0.18843541835904523,-0.4988779702843789,0.9871944527331972,0.3275453810128505,0.5725298194815055,0.3013167631174662,0.9193293543674652,-0.18209350075313005,-0.5414453173362535,-0.48455448641664356,0.6222945133425413
-0.5255293224849663,0.26021806146354653,-0.826444850050899,-0.3018990208411371,0.7867022420187403,0.4394563234880145,0.6264578642940919,-0.12448205204257262,-0.3785302652717598,0.9910407457649806,0.8415959835793841,0.04091455490388339,0.8670864739743201,-0.9597857697372856,-0.534316694525637,-0.17640101118247062,-0.9657454571817071,0.7902259593018972,-0.9667790514303541,-0.16240734944695231,-0.8590420715584418,0.37148989291105133,0.4207860654871011,-0.40223506727199804,0.13775637325848022,-0.2610297665941432,0.26149082920139843,0.04544440933725642,-0.8196883433731486,-0.12976124465280786,-0.8948586729293739,0.5813274301316976,-0.7810396791760035,-0.19635159614356212,0.8861957244114841,0.28121304960648896,0.4632909511307051,-0.8282136673792512,0.9425165495169525,0.32261973931724375,0.8380370117159054,-0.4486508875695888,0.7658288094790857,0.2095943346495352,-0.5344299234964414,-0.7198710974304431,0.008879572007654086,0.9236249797893025,0.46687706873823015,0.07952722934201976,-0.8031688637100516,0.9357623242481333,0.5082739002129619,0.07863973757743553,-0.12368600447188578,-0.05275598322599621,-0.1945028573910658,0.30472674602709854,0.5799371863538082,-0.12125081714791469,0.6209461301448599,-0.935483914982302,-0.8058903540510105,0.3530828129919424,0.5987674785921536,-0.7821632056483946,-0.8362875887368806,0.5747803245895979,-0.023985242573340566,-0.9169934168199195,0.9435321189689277,-0.07423802921667517,0.4539198791927849,-0.5006232382218951,0.996152234924444
0.36312480104473804,0.7578569058923398,0.22272766586191295,0.6942637770539112,0.8113204365184576,-0.8076180110309009,-0.7219142381227246,0.04002837228648968,0.028769342629708344,-0.06084459335086503,0.4684177731211833,0.8046648234283295,-0.7990740499179222,0.7258303132778383,-0.16370030401484237,0.14068784120355207,0.09795567252462034,-0.31096123733339637,-0.5285099550400408,-0.5358800827912422,0.8328030771888754,0.23913092887097218,-0.20121549893571442,-0.19895727613580735,-0.15415333738148831,0.5714434102346133,-0.8070768389425695,-0.44442475238569534,-0.5668468926507526,-0.6006377863795066,0.31897238784559756,-0.401416471816065,-0.45809284742878453,-0.5982130926268042,0.3451660121291154,0.8507004181490317,0.9666075648612286,0.7962609998250826,0.7115312869658219,-0.8306063286993023,0.9010117056297134,-0.11613692499951954,0.6699921575048473,0.3889436267720881,-0.68642689605302,-0.3859187333670716,-0.8731911838780732,-0.26408421545557215,-0.8950206299543989,0.3162105334944151,0.5098967188886214,0.5475117081545583,0.6060178653956645,0.42310061586173614,-0.09523988805593456,-0.06912592460033878,-0.7447719875161644,0.04962750767658467,0.11293717182718312,0.042857075083290445,0.19206176352104565,-0.8793598276884879,-0.38273102782839513,0.742397949510648,-0.8557563091226463,0.28541901329682995,0.361249569726494,-0.9637401200938115,0.9966557421320015,0.9564517074642314,-0.49178975310516276,0.26748025859307734,-0.16283743137184922,-0.5667651194634848,0.34067586661346594
-0.24664914601990376,0.7879828137604556,0.8834793832312796,0.7626622467608132,-0.0452762251013586,-0.7743348389041279,-0.03302208641771514,0.38315942209684944,0.7346514561330115,0.9573410257120251,0.6245212420359244,0.8518789716067564,0.7957692017207089,-0.2803396502702107,0.10900671562649296,-0.3839590976743297,0.7356068407464583,-0.5733975028508481,-0.4982560502832778,0.7065620924664449,-0.8327185814879517,0.5509126272256153,0.9072483982672015,-0.11583217929441092,0.2658776269391543,0.16536696502066475,0.7402073147690224,0.4907814185124237,-0.462847010410936,-0.5033645991707739,0.48958962190630056,0.01496172486384363,-0.4903356653408099,0.07843421082798449,-0.6510668485440191,0.10010022792576025,0.12541289041250425,-0.2166781411106794,-0.5698745088514969,0.49442661943626015,-0.1877300137220326,-0.5631513900806802,-0.7060745560760879,0.3279066728345117,-0.7581393202167247,0.575195983712307,0.2648383471765039,-0.5209071970668353,-0.3991677253587206,-0.802632068374482,-0.19860216665817834,0.07629290863310516,0.4095846900062189,-0.27662130365451687,0.6081330451657719,0.12231731215092584,0.29184220986715703,0.5907094675984936,0.38679589574885176,0.75855893542292,-0.7025428920190776,-0.5496645556265529,0.935010177263713,-0.3261611084805473,-0.7675912544361352,0.2093251442832385,-0.8279554238287429,0.2978204235364961,0.20452534072781656,-0.8535348694160111,-0.5024584135926281,-0.9471346669999045,-0.4762851569057406,0.4613855687729424,0.7505329716085289
-0.5592085996455555,-0.32880326603582594,-0.9192665990320309,0.08761558418900724,-0.4940259349918458,0.2921095549580222,0.09335525685050423,0.1904983359655643,-0.5265153851696937,-0.5110724037069582,0.2032581606703636,-0.8578492405287962,0.1027146730371051,0.04282824807530508,-0.4077412274416836,-0.4821515600018178,0.16701549568892468,-0.9111954922576045,-0.08785235343640012,-0.2802223142640334,-0.0018249819635156725,-0.3819486150776163,0.06152281500388034,0.7041088043865951,-0.4391760576450415,-0.8868910172736302,0.7780295756878338,-0.06497381943922431,-0.17829454607930337,0.4741861579940172,0.9570306289171443,0.6289815088399957,-0.44703684405367194,-0.69007674154582,0.7090928923474673,-0.2547998945015894,-0.06736696386638659,0.13135074903747224,0.6197141542025559,-0.9352254913387142,-0.2825191127910942,0.9422343905915241,-0.09870219756945896,-0.7885513280066168,0.7330225931387223,-0.23985859654740097,-0.42825715386564717,-0.6629924640966256,0.9229099677019201,0.6126870376091416,0.2365646874117592,-0.2634049201027744,-0.41138733911296327,-0.4330248734713849,0.9309649666656716,0.3637524498683577,0.28349785450167464,-0.9715651494560972,0.09465615899591967,-0.27072725275451576,0.3678779354149292,-0.3735117645934126,-0.7511704424799691,0.49710753721709694,0.10060619797761153,-0.7484289731985566,0.058319054746285286,-0.5036062093115803,0.7512737325362812,0.21774682202800288,-0.8776135193405201,0.7232807564619305,0.027640190990030934,-0.1489674563845496,-0.20000664863551906
0.8934116721514769,0.37566703605838964,0.37088443562228246,-0.9450692230110137,0.3814104769165274,-0.5348851741002464,-0.7034321590775313,0.11576473253415444,-0.4724954166622434,0.5752467427145425,0.664645345717403,-0.7993151857395582,-0.8325190147872472,0.9539102833484789,-0.003725944651353935,0.7110255273818881,-0.46734597891419605,-0.8623002753177772,-0.32900585839469654,0.05226527151057602,0.5436244130445885,0.754406617856862,-0.14382957437335853,0.12142288052853119,0.690873848701102,0.8287689108880935,-0.06350946620216574,0.599810399734649,-0.5208897932817411,0.4603585771979084,0.8822141048809949,0.2646086327539231,0.1823234836180884,-0.23305328225263272,0.5716958571296102,0.6375160798272649,0.03960469059122296,-0.39945688149519976,0.24019392783967988,0.32509006288489395,-0.25156668048984154,0.35656639392526834,0.284629839417995,-0.9653202259692218,0.7673208990479905,0.24979587004357506,0.3596760661133981,-0.6925625274895886,-0.8744175160640254,0.2617138960768804,-0.6503215954744099,-0.615627933952549,-0.3809692392955475,-0.13421541132335646,0.5387812125645421,-0.952086406294741,0.7897445340564053,0.5539656274818201,0.1951772635191814,-0.7380932933604065,-0.41860754158743024,0.766843555613252,0.8954558714664098,-0.7755419506330513,0.4324044236496887,-0.1026243359731403,-0.09960168109686716,-0.34868945023749975,-0.7457843422690182,0.46604035243208086,-0.2214549330719673,0.5076449323698595,-0.5871090009519188,0.8465811132657072,0.46446722899778636
-0.6203426635239995,0.003408896875401343,0.6424120568372051,-0.8088172183145163,0.9275396538578767,0.9174404723812827,0.04722101364646723,-0.7990775443668906,0.8868344433775187,0.14769472669205738,-0.8720724601917297,-0.0619499941181981,-0.6456126862934494,0.8134200847233302,0.9070355791367679,0.45386767042856324,-0.6632958523931153,-0.47161246505147136,-0.7223805489218363,0.5655298793771154,0.9759222873252652,0.11369692559857399,-0.8224518444921628,-0.4443310603944955,0.3372760315198795,-0.1679067570573734,0.3395423560477459,-0.0031942047678213143,-0.07685536871671457,-0.7358408548704696,0.4564983088888241,-0.3821913431704058,-0.039376401181617934,-0.6174307867644264,0.18634151515026068,-0.4390202439149596,-0.8745437174969929,0.9651335858596234,-0.38316608847865036,-0.2463298100745822,-0.7065846768058528,-0.5815239025937929,-0.8013900225958813,0.5576251079366992,0.29988298218807224,-0.07034091827192589,-0.10959234590931634,0.19031573504833815,0.9966178974749849,-0.7863789964260886,0.46429615355899967,-0.2399853377192505,0.8330440846461425,0.29509248524155673,-0.7552190693423012,0.11270112987721255,0.9377730463244085,-0.4837915976488707,-0.04854958331102798,-1.0061846391929468,0.8146835272754342,0.6834775435771373,0.4196360843279991,-0.6255677587342747,-0.4675520904334001,0.9743690862149703,-0.5141045869950582,-0.7870230781173628,0.9796739123321953,-0.4992188848782006,-0.45086337290550466,0.5734141293133669,0.458192420957093,0.2379095991607115,-0.9173912950615527
-0.6006522150324585,-0.7822477647948971,-0.45894075107864146,0.9145099644661251,0.182399638560825,-0.6790117625192109,0.5951140625525789,0.06342919661382025,-0.8902457985305039,-0.13656880475145233,0.7617185869036351,-0.4897079119028843,0.6341858980873941,-0.5703149396999369,-0.7251685964577145,-0.13244088010274666,-0.3089582374835206,-0.8065378554078202,0.367180244784725,0.389569883537917,-0.7077130255950731,0.4422411275422325,0.8623389035483078,-0.32443109148051996,0.08297252471550562,-0.7036763025142229,0.46216076989494426,-0.7617420145740491,-0.39125368721330217,-0.8353662058914878,0.9633446552193151,0.749953585639851,-0.9795062199287843,0.6876443567377092,-0.8206885673363773,-0.9471963079603655,0.25674746219767886,0.3805513975738267,0.6514405300550866,-0.9781484474340845,-0.11766094171429244,0.994208848222352,-0.6390085555560125,-0.9175206212871265,-0.6195340120713929,0.15054103849930742,-0.055804081279581606,-0.6371746903717634,-0.42583890316097023,0.9461747362600544,-0.11247357066559817,0.05490737629803062,0.1405292362779916,0.7931294399896429,-0.26278723601176274,0.550235079673807,-0.6035213946474425,0.8494358434407676,-0.021856456566145734,0.9318059602657827,0.20462694155895939,-0.11690816311774184,-0.8939884901053331,0.06486667913305397,-0.7656593750208084,0.8053153795891046,0.4221160852363287,0.7514803581854781,0.002895081263278873,-0.5637773548877157,-0.8305801754871828,-0.7592616260507774,0.4978750913177486,-0.7252670169161177,-0.2795252928905308
0.8164225020427657,0.7453515837884069,-0.5909088481184138,-0.11414295289728363,0.9529079562135798,-0.2367386355110706,-0.7981131623538449,0.7743119876123872,0.12457341008752654,0.9747214499659074,-0.636688374271348,0.2830089900101928,-0.98884755016506,-0.6043197496622776,0.38880994677282765,0.6622792851032965,0.10742651381854096,-0.6074469956034237,0.023244451516281864,0.7279366251346071,-0.4478848882151389,0.9363266280601902,0.0370806154535549,0.9998267630787702,-0.06985842351964794,-0.23632007927318258,0.3679833326539589,0.3891080089644168,0.4638400039674125,-0.024087481534472842,0.7503094904001536,0.33475220548097606,0.8270334307441501,0.4153592225847847,0.3689825860096417,0.8157070828865102,0.26808210616943257,-0.2755150645112092,-0.15122444359590245,0.3987952034248854,-0.3034553090064253,-0.17672207278211108,0.5664725866269738,0.17686364197851065,-0.5769820660658297,0.49824156183448753,0.7357723567072195,0.759033583806482,-0.2486349023728353,0.6641848370702,-0.9739158994601373,0.549734150092072,-0.2348035532115767,0.0780903548464346,-0.4350166590450674,-0.0644371032671831,-0.6228227629523301,0.19279984345451168,0.2604702919854238,0.7497390925646508,0.5056092742889965,0.8237403514155804,0.08849695706675738,-0.12258294811897465,-0.3245832208129712,0.6017514370805322,0.7011101727207727,0.4114675189110938,-0.33743912532122944,0.16877358754904417,-0.45431977959823794,0.4498664241600798,0.5186054817705258,-0.6949224933703668,-0.10191125317162587
0.11538785789640083,0.17499116623348615,0.226793477357521,-0.5238911243409942,-0.9200149259425189,-0.6106654265423255,-0.5919373904766361,-0.6081772983910928,0.5835653225517068,0.33840447011910063,0.737248056584222,0.49154338257615504,0.9938541418657912,-0.5527035377416728,-0.8355954564276227,0.13153413788316795,0.582612937283022,0.4693738509461897,0.0018131743451604621,-0.23046060150824435,-0.07264967833848805,0.6116074092608362,0.4531627140169733,-0.5810648880756236,-0.5754805994695144,-0.26059681409077035,0.2383466056567146,0.36903063151211346,-0.6546871597179316,-0.31326893062222594,-0.1548836185550946,-0.8364135987125461,0.8439793539260311,0.5895204303882517,-0.42455957452567106,0.12284179237872499,0.3382427345948104,0.0424188217390436,0.6462361425202883,0.5741803926743143,0.24307058535722492,0.5485801454083504,-0.23373162058800223,0.008521073685319083,-0.5742378390945356,-0.21821006197211423,-0.46127286606889045,-0.9921285350920306,0.8853825271237467,0.9298344631987354,0.5546966445476312,0.06698213317605979,0.26469116046936064,-0.44351694350548315,-0.6417168490620276,-0.26987164618302056,0.5467505174710316,-0.6475565614956758,0.6089006730879495,0.45307436651468547,0.8511074059495275,-0.8766754759896309,0.25833224472987426,-0.6433469023154363,0.2995949092888111,0.830730076819587,0.8662983846647105,-0.8919653689458539,-0.5726864446262647,0.5091589656302811,-0.8328498525721049,-0.8404605129323623,0.5171010232274422,-0.17620577428719308,-0.8459610542938396
-0.38958357721879405,0.9665459851112209,0.733705062310178,0.7384841505603812,0.4576373966580766,-0.5747610013653586,0.0711016340988457,0.6483171166539606,0.7351975556818785,-0.3205751289751383,0.10636216152211168,-0.8247848600300216,-0.112387263307701,0.16662708600319723,-0.9842019999089301,0.22599025654453525,0.44711376299904865,0.9458910562610001,-0.3909388267525861,-0.10690447680598864,0.9268689058930009,0.20406013082321073,-0.661148809900003,0.7161180069279223,0.9201681442434607,0.6241608959942812,-0.8336850472842482,0.7943535842408992,0.0962789061423414,-0.23421502680582365,-0.8929533318211323,0.20290163737044886,-0.1366230157163071,0.017756547047205563,0.4075843353299916,-0.2486666683091191,0.7243950184110605,0.631091512664346,1.0405401019232587,0.5551780487502089,0.8246630953993825,-0.15819838293036576,-0.4685746982005699,-0.87152691562877,-0.013816209381316074,-0.3497395904789359,0.289928174573731,0.455766030803252,0.506556950430651,-0.6344511686630027,-0.7216470543387747,0.44185666728504586,-0.2326404233133102,0.8929347685234856,-0.48691451736182295,0.2041168460498989,-0.4416527952736311,-0.25034966208734927,-0.2596453130216329,-0.16403747016178694,-0.8418877638402017,0.6445423108127641,0.39199599965781223,0.1234514330863209,0.46364168777880144,-0.6885353689275465,0.927383584672097,-0.5886332291755013,-0.6475991507727847,-0.1038787593795167,0.09096830645100368,-0.9188765682486574,0.6152050550269962,0.19096606728227683,0.18702133159482534
0.3013359761360224,-0.5802291475481505,0.34453918592409966,-0.5499182683900301,-0.886991098249713,0.9392040629545106,0.22301984113659043,-0.22569737177233884,0.6393263829494613,-0.2542958904156408,0.6107633118011935,-0.4460108740835666,0.6379996868495071,0.8118452526051306,0.3895727855270536,-0.33284461017405037,-0.5598428696098748,0.3163284559244681,0.06172606360596799,0.822470973473543,-0.9988375853925255,-0.23478026491530207,-0.3345825874538125,-0.4579759996468898,-0.3613172709186944,0.1675207673637955,0.7783355853797396,-0.3857918665564016,-0.4086471205382815,0.38995579434867245,0.02459798780624061,-0.9690445188477409,0.8287352824901323,0.8818166057767876,-0.18654701348823355,0.833580793278,0.017960431474337037,-0.7863118567876765,-0.7769485760425164,0.2657794240715096,0.34310389633034927,-0.9444082125721146,-0.9177679576481905,-0.6893527728741382,0.36230914995975616,0.13815486088286555,0.8073660026201106,-0.13990141535916134,0.48984236833213624,-0.8282177248046115,-0.5470810317251587,-0.08862928438723272,0.7726668639106606,-0.4683322539573773,0.8425757954336974,0.518613010251267,-0.8970353222815354,0.9189874654183209,0.7282892731400745,0.5289769131370726,0.8470744784062987,0.1086562238165735,0.14574532094257509,0.409031629167814,0.22801764184386,-0.6900337363605946,0.8357363072381501,0.34526707856191485,-0.8702082614944857,0.40728960109736256,0.30656982539303007,0.7706346458637305,-0.2567786864670812,0.2989687786090952,-0.13405641074724087
-0.8055388507578518,0.9416873517216152,0.20651940068260985,0.63941280072781,0.6912341116395445,0.6291668532128027,0.8883375197377408,0.06745641499065018,-0.1300190702317877,-0.11348904555163075,-0.7555895635228617,-0.9119111770150676,0.06988249477477126,-0.061697869233006984,-0.24051834555649196,0.470716530884144,-0.5523462992047151,-0.5295191351080092,-0.7677492215000712,-0.9241017777803838,0.6406348816487167,0.09680843533424777,0.3599636703615123,0.2244027374387883,-0.6252420390682182,-0.45554662043650623,-0.3778233593144541,0.5827148777502487,0.518817909079263,-0.3213120221300734,-0.12890481478885796,-0.5770022962832261,-0.3291978310692725,0.8596085550721285,0.17552039099203326,-0.36503973344593427,0.6298780129701311,0.790631629633758,0.6933626473600748,-0.11998892983879475,0.7679718150120747,-0.1354777982622867,-0.24203090486770637,0.9010639378735068,0.9651923672071826,-0.19215448903879903,0.022675429191049652,-0.957940090278415,-0.8066217893506761,0.9988263872494223,-0.16441532316334972,0.15455538537763316,-0.8652849671554685,-0.7758808480027901,-0.7705840318882357,-0.9954629501203711,0.7625840966403737,0.1959228371590089,0.8509385396998117,-0.8265100592326406,0.42151358710199044,-0.7645989661327975,-0.8872810011986279,0.9025982007936345,0.8538596911522135,0.334511732991369,0.16891388396746118,-0.3287698518038774,0.9197806566180142,0.2272237697878412,0.5491854361226618,0.01730928165136298,-0.47314668265067367,-0.695623678412946,0.8644950400626853
-0.453205744125578,0.2328620638563339,-0.29078142815296343,-0.032882767109748655,-0.6640478161845094,0.36938719745370086,-0.14699888886135457,-0.35958954033229795,-0.9841549032506658,0.874566711272664,-0.9191786849533893,-0.36164746567780215,0.3366203604874102,-0.1373672764036456,0.16515002791723746,0.9812776217131308,-0.6276724996008649,-0.6105443634966764,-0.05121763985537726,-0.7556846332197052,-0.22610027025490298,0.8858174879041095,0.917697704897673,-0.8010055662231466,0.021829435757262948,-0.15924780879562095,0.6662552174436143,0.18690020763356813,0.6786374098266869,-0.3659435832802815,-0.9095560170007061,0.5606784588060234,0.7910134912091056,-0.5960628404967343,0.10517418877987872,0.694467623787104,-0.9429957280297027,0.566841962669682,0.7673781726388893,-0.883521594828229,-0.22571960544180097,0.9858516255376427,-0.23470290940657612,0.40472663064507036,0.21197611849877748,0.9286999957637375,-0.4590676333064724,0.929428573997546,0.8515289968950239,0.9700816276911598,-0.7567707825470951,0.4677010801692898,-0.8788682251833327,-0.1875086730393917,0.7417966922546702,-0.6725075671500688,-0.4398948267144561,0.02388866019889887,0.8104863918162143,-0.9253278366683302,0.8378527723115513,-0.3031982413507341,-0.881862798648112,0.8134126294616428,-0.6314439875985359,-0.9978499068085669,-0.21733635111340352,-0.3647825558378744,0.21332157833922352,-0.4445762387952307,-0.5940050618431961,-0.5262770665035824,0.003069758165720974,-0.6661300072421308,0.31081139008582176
-0.8349202372500187,-0.01995099148209074,0.7408757858989184,-0.4548583719832092,-0.24643160531417632,0.11342526425328656,0.5139956898820421,0.29532267661177547,-0.6372490389140896,-0.9271750170791329,-0.790385351538815,-0.01869520864751088,-0.5493101309034119,-0.49752311799601934,0.7678499987806927,-0.1491167711381903,0.24477601098974872,-0.020176503680649868,-0.4353674724071348,-0.8023015972755733,0.7771391442199469,0.9791144966228587,0.7117497027124573,-0.2561769622459774,-0.7820581144812986,-0.4565710329872172,0.6271949758002396,0.9071870077664701,-0.38170123994591676,-0.7890569759850874,-0.6074371836055087,-0.17227889730985543,0.5784869375014418,0.3482395417521515,0.23638322567271008,0.7150148848946377,-0.27734600086555866,0.6403342238235195,0.11938402157921664,0.8523042285864757,-0.21909119360055312,0.31482529288694205,-0.11809917939723742,0.5951788364352164,0.11936046296513843,-0.8397344264329112,0.562005755965277,-0.4311376965865469,0.11358577897483453,-0.8444587730191956,0.48267252498624674,-0.4744914162536701,-0.15758556089938355,0.3645383809130149,0.5051904000537818,-0.3089430731096639,0.06623942988493906,0.531105007404966,-0.6178240158018197,-0.47530325991016276,-0.44429986785663883,-0.6089236421886743,-0.3380182866873431,-0.5605307741957594,-0.7366313218208473,0.9464460248865137,0.8852281928925029,-0.2576520756371752,0.3526336880144108,0.1291630848232091,-0.43826244760135336,0.7504540166742081,0.9239160439353161,0.07380230577451356,-0.8180933330433217
0.08241181638806708,-0.2558930339880225,0.7773070350201576,-0.01852546463037426,-0.4682821988812707,-0.7013251210842977,0.766060793485992,0.6096214328936869,-0.7872160277985549,0.30000943215397946,-0.42126940489991344,-0.387151428187748,-0.6458139347950649,-0.1468435271094116,-0.23811817774574814,-0.14550427476364752,-0.6810187184334924,-0.8681986369964965,-0.26192317162613754,-0.2911493296427953,-0.911651823006282,-0.5780503403549206,0.46646265534481063,0.8510279627564337,-0.9717643945856482,0.3344382815216094,0.6664542794839483,0.22558209377227084,-0.6348272966913567,0.17368616639124607,0.9577736703786436,-0.3642542732599447,-0.8633887687269103,0.1554850621180469,0.738741375673014,-0.6922910204579463,-0.289544958859632,0.8377454722453362,0.3962996520652396,0.7003985043062789,-0.7195998136400883,0.42718850148370463,0.23060278823095853,0.7057117639860475,-0.35989645354108624,0.7168728574758296,0.6316965268953402,0.9466149871328977,-0.7303450951163741,-0.17356076743363585,-0.3689737535280435,-0.15446860291744846,-0.06367979365966059,-0.22858688604828029,0.21862765186297856,0.779971225865434,-0.9459069594785137,0.2660811409422356,-0.9425734981455718,0.6747920048668049,0.6151802261351013,0.0004918034534644285,-0.7331687787240289,-0.8499074467797241,-0.3067585136520175,0.5002628900647669,-0.10277101999350921,-0.9192187554145681,0.6671664398538812,-0.6302727070783044,-0.7133530634153148,-0.21838614067632836,-0.6101295828395311,0.41630157750389973,-0.49367610816251917
0.9260589648232828,0.7425597621011615,-0.17495233737097976,0.1762068264082444,0.6014454455039776,-0.6202163026766586,-0.799835167844941,0.20591675740205784,0.09029388625082413,0.7906311985715649,-0.3551782724012278,0.5512021298816904,0.3279967726850807,-0.6509772113330172,0.2653921128342445,-0.1503230116061881,-0.2709362280168773,0.2523844928226638,-0.6421230037757184,-0.04911591577143941,-0.32323552259880123,-0.3607001315745415,-0.6029504420442311,0.7568350475291554,0.34971636036507664,-0.27341839503638204,0.6758520753002611,0.5244683880894758,-0.6534321229933878,0.607667799824389,0.6610879934878414,0.12809061590642848,-0.17995776496968627,0.9483824972833023,-0.8268935120320693,-0.40870585649309865,0.34354632430925364,-0.7312748058995837,0.4154624039422485,0.903635340121981,0.14720640880440425,-0.47218300715186684,-0.20024193581828864,-0.010192835982054529,-0.17091907732125147,-0.1928979459024679,-0.58743240737619,0.6169064996070941,-0.3234313670469104,-0.8663150950671563,-0.8505974761895371,0.6264328095994112,-0.37461607993384743,-0.3236022612864176,0.18438227163779658,0.8314568540673061,0.10872050432717181,-0.11147744461233285,0.4535301387845934,0.515451547847507,-0.4169952058494924,0.4948198784590206,-0.39325644231689644,0.4582860386026253,-0.07149835154035454,0.7421893759844042,0.12068723409438971,0.037865137431653484,-0.6524162907257197,0.7265822686251593,-0.3238454304426583,-0.4646630221533122,-0.1425872665640663,-0.44944935993615276,-0.045672179888148944
-0.1984080211887462,-0.19472031276500015,-0.9453644388427676,0.9344450849893317,0.158839178648101,-0.6175383014830905,0.5849321197037506,0.1050809171184515,0.006488634430354911,0.777775812896479,0.5462847443571763,0.28984070780724613,-0.3338465271274812,-0.2689881598034201,0.02415215463381767,0.7616416232739966,0.07243878197353203,-0.009649486608036524,-0.44948734212992986,0.9890909292633054,-0.9397472677400771,0.06796273812595603,-0.18224777254625701,-0.270782578535318,0.36233306551061245,0.6281082874784553,-0.7385328855767778,-0.7133728957981149,-0.20996585787628483,-0.3567347851581597,0.7211131683831673,0.0294434881756342,0.6377818315700128,0.578826721588922,0.16274424611094832,0.702821421225384,-0.010949534729009763,0.3969861010818498,-0.4507601833480603,0.9292684669329297,0.03008791040089585,0.35430393746045097,0.5286218767998052,-0.8420047305897274,-0.2182964073595651,-0.6608204153254569,-0.5523394388548862,0.31512623728049194,-0.04878432413351442,-0.8340638613405901,-0.3771413747506563,0.3678360643730204,-0.8777383658635184,0.5406873485956366,-0.9234223384158953,0.08409573902857484,0.1860996261285191,-0.11065276243061839,0.7534104822954553,-0.728441634988782,0.8318027358866507,0.24692110648843277,-0.6460231558548681,-0.2580983341781909,-0.3098988993667511,-0.5828793163221417,-0.581557478105811,-0.9868412549502773,-0.5185956300899145,0.2626404364585176,0.1757404076349543,0.27259670427454974,0.7523750021557751,0.9822494444133191,0.15966045462224407
-0.14769469320312006,0.9656411212664734,-0.12152808698469122,-0.8049115387008866,-0.2669495468914135,0.3213863155355455,-0.5449187818855663,-0.5984181320974957,-0.6118902215359909,-0.44225777399664856,0.29712870090959587,-0.028624162583648027,0.028086929254544687,-0.07244151544370174,-0.4288776782416717,0.8923655499467603,-0.4346666974542513,0.35022045920551514,0.19084690418270292,-0.7769992752072443,-0.6913909596278823,0.3063285295215628,-0.4972181644381541,-0.7259154567743958,-0.056776356274039375,-0.6857853235369741,0.7005033183901432,0.1475929650749344,0.7352273230545086,0.6368294374939577,0.5537410987185506,0.27679832390801906,-0.3226344847492861,0.38884297828357944,0.44141680083137524,0.7844820827775462,0.6323633395532124,0.6642991978324269,-0.2680838647844939,-0.3956058095166207,-0.19918450666653453,0.6154551371746255,0.3862056021224046,0.04518791480078223,-0.2624319821666648,0.9565528397144951,0.7427213228986765,-0.46725189994817695,-0.9919566392912498,0.14761535303542633,-0.48769903651956636,-0.84003670408872,0.28373647511597455,0.11328037297363852,-0.6933355581563605,-0.15914384300557105,-0.6254391784897185,0.20759089700751757,0.39886284428561297,-0.9320667098709798,-0.016434703763996132,0.9161794624621729,0.5835123175590634,-0.43145543315119156,-0.2806697069064623,-0.8535883562333845,0.731798605695713,-0.4691753467788522,-0.396778304340258,-0.40227625506840803,0.6416253102892105,-0.7836339756995035,-0.05450466130217713,-0.3521349602370932,0.9592567297358424
0.8109865641092138,-0.6309838555644011,0.2522152549085656,0.9242716513371166,0.9473779000137538,0.43687011389493174,0.7915177919206164,0.018834978616054168,0.02122069357852956,-0.15702119018643546,0.6078018871388736,0.9674069377126042,-0.3878142194850096,0.5285199411802519,0.16835999552126554,0.3998939272561311,-0.7114950644734243,-0.20798985307636758,-0.47415116365914933,-0.7122554319688563,0.3926421025805937,-0.4187125312570284,-0.045640889419054295,0.713407515032736,-0.9059156930673736,0.3266368455535725,0.041151774482990955,-0.5822479119142592,0.5452019984549942,-0.9544062464138815,0.5092918908074796,0.08661868193932634,0.09885803146157454,-0.7281976260025811,0.21394393064774608,0.9099301072992828,-0.7958698692915777,-0.013187477387122231,-0.5671198629907187,0.13557036357927035,-0.49627275286427236,0.8135166887907826,0.052384082467327585,-0.8462925256805455,-0.061475042120898694,0.4783255196666677,-0.3462069990156046,-0.23927450256179492,0.22221751083113844,0.2755957757307516,-0.3273675068468585,0.2109002020419248,-0.3674871956444936,0.9742296680858998,0.6228199762071029,0.2933893372461074,0.11075841517564228,0.44372095162569836,0.4877831610213749,0.04488762756220212,-0.3853020662545459,0.4010265504152466,-0.13000509986217137,0.4358611588639899,0.008798969852014473,-0.45172196511176976,0.6941037885140459,-0.010137759984799363,0.8991156501205061,-0.11798561655129511,-0.6896784202670814,0.8980792743741992,-0.09008949820090119,-0.8212925889296722,-0.1586743567560509
-0.36364803925148337,-0.9809669911367059,0.01427448453342565,-0.8057710229015628,-0.5038776386450898,-0.3855612504990698,-0.6630506362290451,-0.08562091341235487,-0.8312405864267466,0.8406150902190471,0.40428966620176787,-0.737721271222225,-0.7051851677390217,-0.38306671251971885,-0.41385525107208415,-0.011997639789600448,0.23435568167573007,-0.8246765320941783,-0.7418155314017094,-0.7576352515468899,0.21851184483533628,0.6666565393494845,-0.7783498229269509,0.6704023969486665,-0.7644192395094186,0.429662277355332,0.854180478113515,0.8703251105866281,-0.7877843087553478,0.935481139880881,-0.2967283457027547,-0.5831960977646929,0.021428156244636228,-0.6952454003594123,0.2934733427170331,0.6062214118121761,0.9920586142542062,-0.9093985672922692,0.3630364016379277,0.507247461574659,-0.8402033312033457,-0.04235295649546381,0.382488425022886,0.16676962254430547,0.1563811610331973,0.8139222639473926,-0.4233879322303323,-0.9690423872901505,0.6108974957535915,0.0045132409892412705,-0.24940349617192029,-0.42519106250809363,0.819441438936649,-0.32644348751584007,-0.4002140691526694,-0.1566471523863799,-0.5724076883459238,0.8698120820542572,0.2175638265347053,1.067730315224379,-0.4982647093800886,-0.5672646611714977,0.07915028567837924,-0.4088992992309976,0.36264096018422487,-0.16421628408662856,0.8481736528169178,0.8971041962474771,-0.17981510109073312,0.76577041854263,-0.5669686938993571,0.4836551040966088,0.3925119857790347,0.09572248657905716,-0.8565195182412864
-0.350869144369789,0.08372076128020459,0.24462595462940115,-0.530738376562411,-0.2903447767654561,0.7938049743707261,-1.0664174303230696,0.0320257346198006,0.5383141377677232,-0.43605458911325135,0.2470275391304643,-0.2694488961310728,0.6963020601687496,-0.8370900786995505,0.8644630760248898,0.5861593306985325,0.9641625158533905,-0.4977305218355809,-0.903363925261084,-0.6880555862849013,-0.9618433784109678,0.36559505081141264,0.43912247350100514,-0.044635095310185384,-0.8117927543502145,0.3903028591964335,-0.8815220933828182,0.241053268503666,0.5153993106441855,-0.802274095255778,-0.368732919377417,0.010048691451813252,-0.5991915626971873,0.5615969117702435,-0.2234478568585894,0.6980713497056369,0.4837631922247392,-0.19028909595734192,-1.0027785170858354,0.8376535837263034,0.851636246405564,0.4601173394697896,-0.9250084995180046,-0.5726711810241591,0.6927785642017871,0.3042844762941159,0.05357811582514507,0.9990184278323193,-0.6016138082776877,0.10745056032129208,0.19329969375892753,-0.8379531530546387,0.11326342646120019,0.037292716505325944,-0.479663741132965,0.6696571044248238,0.309132450437028,0.13090740202453174,-0.4075309927564657,-0.2731931995261178,-0.5406443318965222,0.746827833271786,-0.13076793576605283,-0.4526425241763515,-0.266675728585449,0.38336229330447286,0.790528765507679,0.16574938817592758,0.7505265740358066,-0.8372014589636226,-0.8420775432677918,0.5372438596126073,-0.6824250420834282,-0.7222606370984996,-0.7761741117948641
0.8437987375838244,-0.6041897696977293,-0.6333086337413503,-0.6072991485338075,-0.4066623519814897,-0.5580054914291674,-0.8491094141862785,-0.7182184126798522,0.934597427257842,0.34212216449881777,0.7456201414977637,-0.17774163186070338,0.5496836366160675,0.6605933426141998,-0.8304870620673067,0.6398878704697565,0.4822722991539703,0.35845201240653385,-0.45563303622100465,-0.13892043022941583,-0.11629829223368636,0.8628200868283857,0.9089519620209507,-0.4060841526762302,0.9430122101073113,0.98404864699373,0.04628874923996032,0.3165780782059915,0.6007206059241357,0.0068636690381271665,0.8522894972503935,0.7540059434239238,0.5995336892342832,0.05791625375489988,0.6738421448069242,-0.6150010725963284,0.7158261519097114,-0.6467485111285279,0.8660744594642313,0.9675780715463753,-0.5019328485886444,0.9138345806882149,-0.20479041370909082,0.46860736297932976,-0.6778875057589574,-0.4906150547276455,-0.1037309990767158,-0.3607926190335488,-0.3746005280141357,0.10618325698431533,-0.49598831934867166,-0.26666430062705215,-0.63060519881101,-0.8098358058330423,-0.17224087714884756,-0.023870897233965533,-0.3785848130293993,0.21740788704015407,-0.3323549580660368,-0.631590590235795,-0.9525028307213479,0.24952660413099484,0.730233723745117,-0.028954701271189175,-0.8976949528395144,0.8312539868734986,0.26424476227449256,0.696247496649842,0.36491473409446945,0.2224529783012733,-0.41012365927811884,0.07292440609680925,0.014000546270387949,0.7088479800376889,0.024246169987006058
0.23120648345623968,-0.7195995305572561,0.9891159789814915,-0.5129023404669318,-0.8413614527270418,0.18125590997835642,-0.3498744450443938,-0.03558749034720853,0.5981674537145112,-0.2934509061541357,0.529348932991456,-0.5488952918332235,-0.7523251868538333,0.7572669363162043,-0.92180602957811,-0.5570341999532867,-0.16111213826168333,-0.049751578862534555,0.06338921120419437,-0.8444900847760232,0.4633801412493986,0.18891770981002926,-0.16834279310754163,0.6221802099669604,0.16921494345927468,0.3744314604867247,0.1394040955530626,-0.7117000459047111,-0.1369539349690695,0.6075683200291562,0.8481637873962621,0.032988049805768735,0.6162290668338154,-0.795927252697988,0.7632377173680946,-0.11701588034785841,0.04023896584652834,0.599011795986175,0.47961820131797206,0.4414892268281872,-0.5387601229221572,0.38062800992213686,0.897407414100937,0.7554986894058565,-0.3230356715015175,-0.44175548588304847,0.9046004652433299,0.2954558675351407,-0.015731863512379714,0.46368498780653394,0.4075683920712237,0.08499189520945932,-0.3688129307358749,0.7835989449296907,0.19757931729853775,-0.9055450664016167,-0.5123177066128695,0.8179376808380054,-0.20972849348268852,0.7321353451950082,-0.26893910306787394,0.24504117502724398,-0.056937644786080904,-0.4583852772551016,-0.5723339054857551,-0.1294548866329829,-0.7216778780646276,-0.41551605537471176,-0.9502958691164403,-0.9111270479128583,-0.4588968704171983,-0.20740441835432008,-0.8172845942947612,0.963678510427034,-0.992310198534212
0.22114716917642616,-0.5636779373874643,0.15873098485578221,0.6122690102799566,0.18080009035911132,-0.13216485715128679,-0.5078961040772036,0.15974859866769534,-0.07102838247791887,0.9812919490417322,-0.8744572058262063,0.39687010058276173,0.36601654403208456,0.18532748137688146,-0.9043098284611064,-0.07505114724026946,-0.13493708878142635,-0.8278438006300032,-0.6268466797605363,0.27042281099002474,0.48919504872309233,0.27951918342484394,0.2962552868058438,0.114907518714561,-0.6732491271801095,0.5855775623980336,0.9589406151776199,-0.5975645717798856,-0.31758671284257534,0.23377338262403036,0.8389569248570284,0.5677743023199714,-0.09540371781212924,-0.7379461774096269,0.3344030604037096,-0.41506455657928815,0.7218704686773092,-0.05208287024883926,0.1353683474980607,-0.41895589740230826,-0.37337477771703725,0.3609441213940411,-0.6483110075001466,0.8084635361938375,-0.7840165316489481,-0.3930719345862388,-0.9958110965376775,-0.5101834340528635,0.4059349906818147,-0.3175306398650646,0.6629870203842189,-0.3027561785848297,0.9170211046208036,-0.17657151147323133,0.7899051974257655,-0.8015871592742561,-0.1668047178397318,0.7098402722998668,-0.26228835575431414,0.5983284947636984,-0.2777450620245034,0.843256854130902,0.9853931680216013,-0.19834944437689733,-0.5634234484894074,0.0952044323803052,0.951762607351484,0.5417316150173044,0.7152946009591532,0.1929336313853506,0.9875754117176957,0.7905766066292695,0.20872908465169585,-0.6990975884825263,-0.10821123274439065
0.09634634428578319,-0.5586714336200883,-0.0027641824529270574,-0.4720777778850284,0.11079452177457673,0.9375084481114693,0.7266889177426336,0.44367936581528883,-0.3290701585631058,-0.6680623991656881,0.5124730457403353,0.678729279477063,0.004708201115057696,-0.7271791103579812,-0.4878014069922138,-0.6108605794712685,-0.8069371640522651,0.9743744907365164,-0.549950964629746,1.003152480187171,-0.41967130630053556,0.7030534620662456,-0.009796405962851267,-0.24746425009370251,0.17676193063953088,0.7273674635078249,0.22771239465582904,-0.5447756832575762,-0.3035735843967408,0.5382757204690424,0.6392115196848703,-0.4586675518895199,-0.39271829241248435,0.08677367808939664,0.08229369358738702,0.4516700533522251,-0.6998696613023888,0.9593378460675803,-0.34562324135298106,-0.03258441837743108,0.8277014623247368,-0.3284369934249918,-0.2712273565945665,0.06837067684411748,0.5163172092438482,0.06765900461606712,0.5305163667628303,-0.1505137479928896,0.969275196586122,-0.2412748632199732,-0.13709720128459696,-0.35510742882054397,-0.15664294246198074,-0.7422357308375134,0.6684253606835387,-0.4060482207978439,-0.05289987203162413,-0.2588172693190211,0.3373073879735463,-0.3294007228668328,-0.4901374062434708,0.6799716859085346,0.8551050354242818,0.004400553145258109,-0.008647463081777022,0.33614860712271244,-0.06412287060037686,-0.4856460008579296,-0.6286516643268348,-0.8800672582895327,-0.581203330678898,-0.5377875230658606,0.4749194475688174,0.5106268947912259,0.705241053782043
-0.5023844047893657,0.6682812169176077,-0.48795817406151915,-0.35977544194400607,0.2597402998635514,0.6515666064858706,0.3098186960101706,0.18499668981907658,0.7213207941261129,-0.4414157148760826,-0.31370239421342094,0.8891410083279431,0.5604765411977676,-0.6811640316610041,-0.9123614244530874,-0.47303498206913114,-0.5446886750987141,0.6793057364070146,0.9332759903747563,0.37171862231161407,-0.5404111379097724,0.7132841332332969,0.847621523146089,-0.48957685386838423,0.35184890753455966,-0.861075821130744,0.7565878818700609,-0.8064034894083236,0.4149115861631064,0.7766084898343856,0.788911153243324,0.9959300627795172,-0.23428077126032762,-0.3580058624947054,0.8589941976698245,0.8260717816969647,-0.8932617370568977,0.7732644840855659,-0.01154984263908392,-0.4886130746051231,0.38378508868230177,-0.9837483770403583,-0.20181278772485273,0.7609970622385182,0.9173743508941415,-0.8359978127042946,-0.3666865804457571,0.8069837618511794,0.6788542316141066,-0.3317162258418285,0.3636164257469868,-0.9734975313163371,0.9723550841680729,-0.8359505403258606,-0.674947343644461,-0.8465245833175556,-0.18325992024346469,0.4840522859975545,-0.5344978133207761,-0.37458113666657306,0.3901878416498626,0.7727576357714921,0.5692253318184054,-0.98700143741013,-0.5351895912252591,0.8674958287090546,-0.1029765704076447,0.3567819147852838,0.5705416372864417,-0.6748713727876323,-0.5643365588930792,-0.025014985633228615,0.626231688613556,0.9271381654361186,0.06976757536238518
-0.46733316231586525,-0.4726373198685419,-0.6988606267380449,0.20459388565046444,0.7879498392976648,-0.4884866967122097,-0.19191677289443518,-0.8870086585448258,-0.9223753428723738,0.5153102361912455,-0.13854061871406537,0.4655089441850402,0.46740083652133985,0.3410766596285923,0.2109138910181223,-0.9037637280146444,-0.24763937999026844,0.16350390104045992,0.40221068848857877,-0.6954210262423779,0.4665552406136411,0.9955958299713003,-0.6765183037938955,0.44921236915086626,-0.9691202878363516,-0.7674719813897943,-0.2882771342670989,-0.22669075547443646,-0.5088707574356626,-0.2966291772639406,-0.7648928500149393,-0.22446467367429473,0.47582608205988847,0.8649674707392006,0.7570412118484849,-0.15161719829640094,0.4712217479840018,0.9426109445660444,-0.7000867500187354,-0.560772279468272,-0.31631899360487925,0.946513772663352,-0.2945730814979913,-0.15686036902922787,0.23148931935512695,0.5773420206457502,-0.19135549325932835,0.4226251588395842,0.9920344513895707,-0.2880506906885022,0.10669513329460527,0.39787716880288726,-0.8457384165239844,-0.6305532530801597,-0.24825368069211778,0.5175043322054338,-0.9735411932174756,-0.922966119541929,-0.8102070764780792,-0.5123616113333627,-0.4034535624841463,-0.8291334162491772,0.46205619464189374,0.04065408960524331,-0.43697191029805105,0.360820388621409,-0.03176058297268869,0.6575231900363492,0.7748247885765585,-0.14425787694754788,-0.27114426920294477,-0.1264954800537221,0.10220604397315886,-0.9460782733655372,0.8390256402631097
0.9655151357878792,-0.12434030868486431,0.6902143064485576,0.31626075445221974,0.3156780137312158,-0.8944093348967709,0.6657452269499485,0.8826582773410137,0.7963918477520817,-0.30015473998313136,0.3714633901722689,-0.2801458990479871,-0.4372552691669872,0.7422272962905035,0.7191449023909496,-0.7365456899403415,-0.19754010667552444,0.6553571179724444,-0.035276222803839644,0.5392795610476844,-0.1681521198798049,-0.4284486226768823,0.22087079446654406,-0.9866246041306921,0.6018539787785279,0.9410660685869412,0.5947602600876256,0.4527405124883373,0.2192198531936582,-0.8093280162242046,-0.6251683478359906,0.3118384030179742,0.6343386501640527,-0.11487254932483688,-0.20691839546618992,0.6706810256369891,0.39919239657137046,0.9226986016982017,-0.7974033427589888,0.545308005288385,0.33573424768818005,-0.5440175669758958,0.7215865429742973,-0.2859822348220802,0.07031998168818632,0.057727799858851,0.03760817183583051,-0.9539773401362548,0.9348043452681892,0.8822704143957404,-0.39330780647860086,0.963459561949204,0.8150903348621418,-0.7869577006896366,-0.5061404466714485,-0.6366453921157311,0.610394970881167,-0.5976663173357931,0.8798524483642377,-0.6516107650481936,-0.706239626970728,0.2572031593135924,-0.5324805975024255,-0.5830468366974697,0.2638073736242868,-0.4043434125014754,-0.4005635534936771,0.8065622813174573,0.5847484976443121,-0.32296510049123967,0.6841774076195001,0.6357740907889237,0.46194391522788214,0.011048017300996636,-0.7177353886388667
-0.6095066917838304,-0.47167534089620394,-0.7621651362712177,-0.3107325881982973,-0.9549856708627158,0.09609820024820061,-0.3218017998167279,0.39532316683008806,0.02208857653536351,0.4536051303295565,0.0003366677963054445,-0.01735156147798183,-0.5281603345375745,0.2601153224007032,-0.9454940224233026,0.061499839180597336,0.4772436423949715,-0.8149120109917856,-0.8297337851133816,0.7006429305442607,0.31943455035631096,-0.6121246593195315,0.8976622997810673,0.787722084572402,-0.724411239156834,0.9756717381018245,-0.8365942812179948,0.7277614992185991,0.7032373315649706,0.3411360998160214,0.688695828016117,-0.7601842509497259,0.9648913194459101,-0.5754598595574998,0.914582745298944,-0.26289966902351647,-0.05133322769417711,-0.38219845402319386,-0.6195202535117125,-0.11396763508271057,0.9327688092506963,0.7590649092150229,-0.5891823434257574,-0.5361687495478576,0.8915558076035102,-0.2868642446909676,0.9485111172771575,-0.15164208075904917,-0.29009962491558355,0.06769179406074832,0.6499984523932149,0.9297205165478756,-0.8529111773978635,-0.016486833588302705,-0.6421206507083518,0.8645084001202504,0.5310532240683142,0.11537489382507135,-0.7372214438552042,0.9679655335553784,0.30717763648496627,-0.38296358428228167,0.9605805938528929,-0.14460261783107842,-0.9919500051250779,-0.734720243983165,0.11556110886005629,-0.8782813084307656,-0.40941395785761425,0.5506749873334872,0.8750774194942227,-0.5451161694335599,-0.6746014554372863,-0.32248309907697054,-0.1823479970017986
0.7473302296985429,-0.6494375227475043,-0.07382262852126562,0.3091991189989921,0.14232165878903738,0.46456934861448884,-0.6651471493887691,0.5680669139084548,0.8522823897604425,-0.8140673020071691,0.7140750025675109,-0.12178830970963252,0.8367998314483415,-0.23192705113846085,0.17458148861962328,0.10574372228109186,0.4624777273016815,-0.30126178827417577,0.04446180088846728,0.13333503209138478,0.5560536178710426,-0.32533255217523027,-0.5392959485090206,0.7706391540984935,-0.09294085232709803,-0.33228472772955747,-0.39273586738813243,-0.11571577160788002,0.603540546547928,0.3145619312203402,-0.11493980096808244,0.9313011726092494,0.023667494956826636,-0.782042343814563,0.6269293820458116,-0.7833199542181185,0.37886986744080264,0.8070018473285877,0.6908780875666882,0.24707277899937055,-0.24395951840818833,-0.2951108148861882,-0.25599748115851423,0.6088346748846175,0.8332636470196817,0.7212568817410814,-0.8315442492684048,-0.14502148526263972,-0.38493835443006674,-0.03711687650708808,-0.984023301551415,0.035849183178727324,-0.6521290822504207,-0.682761242236307,0.1973000969139871,-0.9061776716822323,0.748143694008341,0.002999920240828225,0.8078885982620662,0.20635469510152238,-0.443988158081037,-0.20316282674269184,-0.9434434252366537,0.04180436023014414,-0.8737112357880312,0.6838998383519965,-0.02486404911904786,0.4489979529990989,-0.06625352337633911,-0.15089802507481934,-0.5817143234876645,0.017233373833641975,0.8308022321002205,-0.3471438427011122,-0.4068085674398418
0.9505999524433221,0.31113206366615337,0.10770347569306617,0.9906650878636701,0.8317379363568392,0.017102648764998472,-0.18365490053088873,0.1552729223315383,-0.02929638930554153,0.7505017970758328,0.7393586816191587,0.39511577868036557,0.34121292532018577,-0.12489517075525094,-0.532268213369755,0.6584540639544979,-0.8532903293775895,-0.9925779522078911,-0.21177981404503401,0.90463544303906,-0.2782743196282278,0.5691843409761759,0.33353279929845026,0.9771867602450642,0.7712290669872697,0.17002736341715174,0.31940028383664665,0.16739759319063685,-0.9150165248934645,-0.9127836442387323,0.07999947277783406,-0.6244946958632531,0.2880734189536245,0.6704612622856881,0.8707751643750814,0.36868806186596004,-0.03340004096675559,0.2870276571907826,-0.9917408581406691,-0.08590230949499107,0.3299352884570392,-0.09088797903943746,0.3591672013698746,0.6452129469742037,0.6325419326689413,-0.6686829672682839,0.8024616659485918,-0.24875334964376944,-0.22523747854069928,-0.16960600439552864,0.9045545108701802,-0.7533754232277613,0.7365659675519921,0.6651957744606525,0.30294208379176474,-0.46083040500304656,-0.9183138849644338,-0.9190419026647603,0.902140021797862,0.5980956094634453,0.3037060029485512,-0.34164404293609835,0.878433436989854,0.0727400415856122,0.958831945352279,-0.7781591712784532,-0.08314353831169925,-0.5085293188546834,0.786929865375678,-0.9459188897112524,0.32773777008462074,-0.4501135793908803,-0.3245907129395056,-0.08681475127319419,-0.4641818068135535
0.05217020574665986,-0.7400297591240885,0.08691649293532468,0.9506910105137948,0.4874375935041219,0.9791785164756027,-0.6163987356035512,0.04779786847052764,-0.3411140950642979,0.5876636856205322,-0.959802045461885,-0.21156863936075612,0.3372214913590596,0.39360010340736934,0.09738446235171734,0.7768646359042215,-0.7014540581265808,-0.9117088430990488,0.5574557471294189,-0.3887721551685876,-0.9877290727974591,-0.815976086757737,-0.7770001592977968,-0.32031489286357245,-0.1738672223329722,0.04469778512331231,0.6444812749704147,0.556904384241571,0.18605052071873257,0.6082474163734489,0.5273864382455492,-0.6530341921546245,0.21830718850967654,0.9807293643778647,0.8845595910982837,-0.4728731993853667,-0.2601540398292185,0.3972726792126842,0.310939648749485,0.33293920547563366,-0.9356611130660922,-0.4927278964879262,0.10455740721715498,-0.5114314564487957,-0.6259763960071527,0.9780674175647592,0.49444475390054327,0.6647533588915195,0.5887781634547533,0.1870366474603656,-0.4832385996091444,-0.7831851816036371,0.7777774579731661,-0.004632309915671661,0.6545759078716274,-0.010978060438020142,-0.7366339882360275,-0.7377474239856938,-0.9296862317942063,-0.9549371842618243,-0.1296733836304939,-0.7391725131404472,-0.8015889204728609,0.817067153820859,0.7394720036168775,-0.8258052007020807,-0.6986478768149195,-0.4736061728326216,-0.568185810339727,-0.06116029164955916,0.0038558831336665362,-0.7760653588555764,-0.4757384901059492,-0.2011924208456022,-0.7845829741797032
-0.36691758983274536,0.9235506632917125,-0.2289095249730164,0.8083549053382071,0.9947905779398161,0.026858846864740507,-0.5135142910558019,-0.10269187060486866,0.29664638324447845,0.4795962139692724,0.8270071742127276,0.21163241425340562,0.9481080305315044,-0.9919268716123304,-0.3455732719611741,0.5443927232947575,0.012513464230984999,-0.7954690681975668,-0.04149458027903016,-0.8470781254935249,0.41968808932168533,-0.15565166224863547,-0.8552539063059952,0.2643275028271505,-0.45948629746179015,0.8950212744342613,-0.6209314500511998,0.09643176669062495,-0.5691876254894324,-0.8015472906806443,0.16093011988841102,0.9923440469959398,0.3582990434376253,0.6830212961697562,-0.7458186628206147,0.19939410973565982,-0.17271662908382768,-0.43030126009143926,0.9544264764105714,0.6248449353583762,0.43195916001410706,-0.25304960072943256,0.2986915194643247,0.22062074009287483,-0.9240719965640894,-0.1916113246702573,-0.9869649985639909,-0.738975041915606,0.05295289931639434,0.7182175601329989,-0.09092942492121332,-0.6843514408084314,0.3520507920198486,0.5270551978788014,-0.8221131222239235,-0.4659573571272828,0.688937620515119,-0.7026930848838037,0.31448408134789363,0.3393247778559949,0.6098004670468228,-0.9039681750144509,-0.13332396395689314,0.02305419547331852,0.32936928797814213,0.38791290221708374,0.3392776282577816,-0.5321789084487861,0.8474255853281798,0.7940438911146496,0.3780719093980516,0.8579536187074225,0.5371055502091581,0.01204926752448088,0.1132959148598062
0.9801298626184304,0.3349804213375928,-0.3746049034167786,0.7803850906895146,0.10546161286182794,-0.004042971925301238,-0.20810615647034134,-0.7873474463608345,-0.37464295173088114,0.7198008444979753,-0.9919447583970492,0.3565296153223401,-0.1890479676240222,0.07720185564835265,-0.20059969818923928,-0.2867326038271864,-0.4542612212341141,-0.6098231406465268,-0.4861408371141307,0.7674755352461963,-0.4011623985078129,0.4545917998651207,0.8003083216545388,0.4041552086222968,0.022624715974129572,0.18746922999082838,0.8342845569606901,0.3763751325531368,-0.12322233111408523,0.3747185047071801,0.08204680074374061,-0.019636937798280654,0.21125133875801608,-0.2408874262323,0.1686444482860288,-0.22090051264093527,0.3513484371104539,-0.3012316489476118,0.03763300093252793,-0.30248339444326233,-0.834267296417184,-0.008083702466412606,-0.5909570410006797,-0.5451070253057898,-0.8095845156111301,0.5411265894142878,-0.9360540454332993,0.022950608291043704,0.08821712744341745,0.9555176224400551,-0.4039435105150933,0.0024847472595259613,-0.023521445131034182,-0.5076015578667636,0.7762923028049444,-0.40298879413099065,0.6654031978467047,0.6974889739599556,-0.5585748459996163,0.723798832714797,0.37102050100932027,0.11664713859567777,-0.9944022408495553,-0.7643857709356037,0.7327411201575817,0.3607055127471767,0.4643015244395125,-0.8961937135045115,-0.17805934108307636,0.3085752157843227,-0.4176329018615486,0.1525087987173338,0.7322540527336211,0.09501370473116595,0.8634413756232571
-0.7427269220176561,0.21863756024690767,0.6353407604317577,-0.8132047349167435,-0.3280172923988689,-0.9747058202771993,0.5659883958645913,-0.04835321907202872,0.20821908891099083,-0.6031423876933041,0.9029107103159034,0.527697094997117,-0.37685267353508556,0.596577550236434,0.26051068020766555,0.48571104085125616,-0.21256846689541026,-0.341032482726972,0.7137529721195925,-0.8117320836225601,0.21714862797955883,-0.3360266834563227,0.6082603549823937,0.006446239772442656,-0.1133603957374229,-0.42132251355342126,0.7813663356024505,0.9731444157492886,-0.8848063479291841,-0.4239426178132711,-0.22708742887113295,0.03917006494177735,-0.9026320399187282,0.5834500715605608,0.9010555190655042,0.43617414485349654,0.1754963923009478,0.34697176815589903,-0.9474814248897553,-0.26038681012069326,0.9737116648368328,-0.09236661081054034,0.25248724925661936,0.10976231354052723,-0.5376315338589314,-0.8477862710777245,0.2318145627666108,0.3196366565108256,0.38531986256655487,-0.2100280441311161,0.9598415034609333,0.9683018438300225,0.31034479842576435,0.2063630865866516,0.9444041233658286,-0.7757501177871838,0.7788755826338379,0.7106299718309695,-0.939338535549949,-0.4676375313053542,0.21508991840704692,0.31183526318485927,0.7833454686463801,-0.6186869007370619,-0.8374272583243204,-0.06185731641476673,-0.3773719520361547,-0.19475254820610055,-0.46463227642570953,0.5327754875683192,0.1558630344126732,0.7182924687544301,0.5513009937922329,0.3579865107222229,-0.43125021056590324
-0.9328884987655512,0.9371756120042607,0.3985668202894651,0.6349205627989761,-0.8711913831998612,-0.8933712301901913,-0.5099780297031379,-0.3875779935589276,-0.5420119754254497,0.6333300215483176,-0.7793546802739484,0.2979666672482845,0.11360722486693853,-0.10619874197777227,0.617462399680877,-0.529946347462621,-0.6828766030806224,0.8910544441285889,-0.9118261020169082,0.21246506161903136,-0.6423042033868593,0.9358210639516031,-0.27339678566677944,0.6416674588736135,-0.29066208352859696,0.7373426942519923,-0.6562779518097674,0.5476825589330928,0.6045929873412227,0.1397930012960108,-0.5845067212425556,0.268051545119572,-0.677053939340327,-0.16333011828912,0.6302010720884025,0.49600846038558105,0.32998594814041304,0.13337542096463834,0.004265732126003252,0.9294926719041082,0.7198924547468232,-0.01833404897898519,0.6706651118344062,-0.04185131788807381,-0.3246489896715981,0.08888555240426735,-0.539098767752296,0.8793579612883045,0.9337714605068641,-0.652629073243236,-0.7429441268433608,-0.7425015006547513,0.5871542789178694,0.026601145930523127,-0.031778370504565556,0.8137671476487239,-0.15252464539761673,0.7799398349970552,-0.7982206657993188,0.40436961659988585,0.23444260842747386,0.2534230689011767,0.985765017316876,-0.3762030241805201,0.6529358060792426,0.43343047603053353,0.03521552931208841,-0.5586469479801335,-0.8724491961569912,-0.9551727887220124,-0.046918942878624165,0.10209083819604661,0.680195952089272,-0.6407335354892079,0.5547301760005998
0.3618411967643206,1.0027585492785216,0.6321613812696328,0.6458654039034311,-0.04593200178427854,-0.6108010451079083,0.8243180264645414,-0.9095630036659631,0.3436159694903278,0.9647415085811581,-0.7680938570392478,0.8120628443627225,0.4130714966071443,-0.4598202291695543,-0.5613730016755535,-0.9700643306168218,0.33858526591606636,-0.8767889459043628,-0.7113253632117184,0.993909616058134,0.1598342021927736,0.8865500972575756,-0.14366472203555133,-0.82946546063335,0.066226614554547,0.9914276207444824,-0.2129324984965668,-0.1414987300681574,-0.29063391646860887,0.7970453640955388,-0.17395076836599013,-0.5170421716331204,0.0418035120644516,-0.7739762388725465,-0.5967127482886517,0.10630215422163211,-0.6735741956932034,0.6130354903399213,0.7437464857921607,-0.8223347243196438,-0.1306606590365511,0.2865911315351242,-0.8701433650318976,0.13952366083323295,0.32891694195098903,-0.34199517928881024,0.9374293569822241,0.06150836640915222,-0.7801186776255331,-0.7235175913895205,0.4473583622510518,0.10227220856509657,-0.5797499536708028,-0.695337926781971,0.6674987033259462,0.34509811396393164,-0.00014975053771318372,0.76137764488059,0.599953278037236,-0.003286089709722531,0.938680541482067,-0.9385336817317005,-0.07962831255735277,-0.31639363219147876,0.897144236656135,-0.1620285742734836,0.7361515773041574,0.5822498750446441,0.4758666321561657,0.38524774307213383,-0.7126394156567153,0.3868798023938921,0.49439617463084495,0.029793658022646108,0.909599484496181
-0.35354710740506967,0.31898832470729,-0.1866004493346217,0.34059073208948315,0.1979261975392935,0.9376572461178764,-0.4176770750760193,0.13312690296631727,0.652794405846882,-0.7917228427825447,-0.023595671581278586,0.6763018110424273,-0.9996096943521919,-0.0799517124501156,-0.5509499549986511,0.6206655055333119,-0.3143327369214997,-0.3523333505406266,-0.1109745897557887,-0.757043936246001,-0.01970054981556931,-0.2962767488290951,-0.7356809923685268,-0.22813114171970406,-0.8423793995324366,-0.2524477705283452,-0.13830182060268262,0.931269818218297,-0.6868566445997948,0.4519781469554519,0.40896947245035364,0.25220735628091023,0.6660539662893795,-0.006941695342262019,-0.4997634237739755,-0.3992614380737503,0.26593655015553724,0.6759303746731543,0.17818365064616903,0.7918380483203006,-0.11746210910152305,-0.017250848963736357,-0.4034115672602508,0.41122954017611196,-0.07050049139960562,-0.4709495991731367,-0.6707055047080235,-0.35832242059169334,0.9070604536675986,0.8695165109359878,0.7049261004881703,0.13608723199846767,0.7717506927411961,-0.24302289780331818,0.4336565259578879,-0.11886698600312708,0.7910046006760157,-0.71833226356138,-0.6958124406898124,-0.35210895733641095,-0.6058684559355046,-0.4751425424468125,-0.001976982090787712,-0.9538848014632534,0.8094412132205011,0.7534305573972363,0.7399185573988939,-0.8772086644721214,-0.29511464954855593,0.8037917568923059,-0.2029581989506855,0.23604296458483662,-0.9133451493604529,-0.590325201938992,0.8739925759330116
-0.48686017711640156,-0.5617885149588069,-0.27049559171831133,-0.7776279826265724,0.2566171809895378,-0.9458497257501831,0.781949440799324,-0.791173078918922,0.2812001505576391,0.08198244925320079,0.7075606605397743,0.8319172398358986,-0.5832833645714975,-0.5559662230626484,0.26368298534474444,0.5290388915654187,-0.871062988246169,0.31624916938643194,0.6633899578881444,0.6157444563778462,-0.15631962821263035,0.8516219232120813,-0.9047666640312576,-0.1754812355049927,-0.9599772998106593,0.339006162286193,-0.6209367210409473,0.11495979372036837,-0.9093959421673307,-0.8143549047992067,-0.09890756823716815,-0.9897554063588709,-0.9643282790407308,-0.5995481474741878,0.22674285816299392,-0.856295153016708,-0.4223747611891736,0.2666069243722939,-0.4712304857720402,0.6035666910243153,-0.10999605504216946,0.2508874948044558,-0.8747975951504515,-0.4619037954002229,0.2341615160724999,0.8854665175348742,-0.552792022133602,0.9101326718858945,0.4331988338783386,0.11670617405121302,-0.11003221934401672,-0.36013380537067335,-0.5411389833224898,0.16023807720684757,-0.09741775285153995,0.8973702107533491,0.16550506838405893,0.995137796217126,0.19100514961772963,0.5158021909453323,-0.07455357290379663,-0.47614375987630764,0.6293872957593651,-0.2585598446913788,-0.8716802377152757,-0.4173544790599415,0.5102250990340538,-0.35817890064163416,-0.705138065283663,-0.8203571158374544,-0.5028849019378575,0.19226111290157635,-0.14863516893882628,-0.8711586373281638,0.024856971638794734
-0.25126852361993046,0.7935609707717987,0.41713183722473407,0.2473050457699202,-0.14266079949017635,0.2900282915685683,-0.21718149954590224,-0.6478693688442432,0.21973612639720322,-0.6007719005557369,-0.9044025564858518,-0.06970169857256457,-0.6095415689411222,-0.2956172702737565,0.5856058236871748,0.28779283456859145,-0.48915924882755984,0.6790015767161883,0.46285400566143703,0.7610207968195044,0.2861699085475611,0.37467633947449297,0.02099270581096556,-0.3684588116465794,-0.6865136924502058,0.7199239343440297,0.08065753742469314,-0.748943350603266,0.7882122024582974,-0.4388517673440149,0.9045012066505672,-0.5022769607175077,-0.06546071527034014,0.45785444255280744,0.6253819132611669,0.47232049445353097,-0.18121347253343384,0.16566390186503732,-0.7280055382492546,-0.07076586691602128,-0.057104486269578744,0.20864227159777907,-0.11998285869558105,0.8094885439805891,0.7092534395982194,-0.7956049943093689,-0.03000605218610742,0.3226917534672801,0.08546076827494856,-0.5739281699972499,-0.0798022821455152,0.26814607532455786,0.18294253157118606,-0.20704751090706458,0.4620323978913651,-0.5308679407842105,0.6788106375982912,-0.9768855858450922,-0.7108035405074372,0.6507278663394485,0.2377613085936505,0.6152869345279907,0.8327630230245704,0.020350903358542123,-0.7803840919265624,-0.6295347848311811,0.7871157462783667,0.6979748740043934,-0.6089173422015238,-0.30347867773368903,-0.9484792010913743,0.7183110446494879,0.6122787299928528,0.9472035719621804,-0.6233362762820307
-0.9713912498045648,0.8349232289345541,0.16315293352352775,0.9875521467588354,0.2439990474415485,-0.8127164769569593,-0.14054527548878212,-0.40587255867153765,0.2585415908989375,0.21276438407051512,-0.25856645867745964,-0.9457081456802783,-0.3732813345490897,-0.045255206579428,0.38833689345863376,-0.6369507454112685,-0.42177934256681227,-0.9828986748991485,0.9755008353888114,-0.3477928820399872,-0.7909967061805697,0.3730411983944212,-0.6207239059684031,-0.5163968695645393,0.9783446143110648,0.24014367672918152,-0.8053442313509414,-0.5280820192551549,0.5417839288355981,-0.28293870041230895,0.10671072814994234,0.6075503187341451,0.14540824593947727,-0.9547821854446386,-0.7753884617974871,-0.7524376480106744,0.20613978143202277,-0.5501887855431197,0.21915589986578254,0.6549038204609231,0.4707735992075117,-0.9334601725760768,-0.6559260055392432,-0.6553554315339616,-0.4606870842512302,0.6542887642762037,-0.11803675727341198,-0.3165042824873111,-0.42862032220648577,-0.18917763182597014,0.7862848304343854,0.5727340913970226,0.9366374391168286,0.012494962578699524,-0.7712802394088597,0.5204442700251277,0.8913311732504333,0.0713977263856562,0.9583936161099565,-0.6145672503193772,0.27410805177636227,-0.7367508644629585,0.6158733187575357,0.2173231063197478,-0.1373819391914332,-0.49301874200095264,-0.24916757409199927,0.4415572694288589,0.35349046851482135,-0.055288369136333435,-0.3474770254968188,0.3427569324014232,0.4780032492701079,-0.7183770209385253,0.05345093408154796
0.4439824507893205,-0.3799473887422602,0.8656888895793761,-0.7119422706279781,-0.7987617339845863,-0.6737179200307674,-0.5127430385234335,0.19904469602654362,-0.7700285770493123,-0.15066645455804614,-0.7092804536302315,0.46554954813521343,0.47447102627676063,0.37318294380597994,-0.6171471993417554,-0.8345545976970253,0.3615964847386288,0.2929361753520938,0.8853690703001953,0.6784649730648983,-0.4522731255021937,0.18309218739302788,-0.3420972284702194,-0.11186227711330808,-0.5908381441125268,0.5318889262422111,-0.7182790252091045,0.4100748382948237,-0.16258937926453063,0.21487141091178594,-0.8715812379723216,0.3542742615102169,0.679431249141186,0.6634136750916412,0.1765923226746224,-0.10253366056864405,0.7379273598468892,-0.305301868770273,-0.37017057933291664,0.2632994882526378,-0.4706932154559175,-0.9619187439879178,-0.9926163562073578,0.21391293171735434,-0.6379403498290072,0.07863827134332928,-0.11980341042611767,-0.20668998522598328,0.26942178072794504,-0.9142892204520127,0.037654116693380354,-0.6928056774170135,0.16948882627198994,-0.4127452255978022,0.9496187427433168,0.7071618500214929,0.37181026710043,0.9111991312452392,0.709845536025325,-0.18417475721269932,-0.07505647304736603,0.04766340859412691,0.8401655072206655,0.09754064194251266,0.705360176838701,-0.5911205628921193,0.7844223673221915,0.24873912934234152,0.21541428096120735,0.8278212308679354,-0.4945440648367461,-0.0071701327898748895,-0.6699152502635302,-0.8195474201315126,0.1814336007705675
0.08564170267469642,0.17709191626708481,0.40114284427962543,-0.12637312031388784,0.2642132801020303,-0.4803539988347658,-0.9529495625157255,0.13291502005001038,-0.7404617307834653,-0.27298865073659034,-0.08860629517060548,-0.6819725902720107,-0.7134307959078803,-0.7202225970033574,0.8962206428145678,0.8101064939867957,0.5073336026729217,0.4904004374204239,-0.920536277407793,-0.1863896742540735,0.3705349301782984,-0.11867260099755629,0.7833677334868402,0.4238931975570064,0.5677518733010221,0.3464068106782859,-0.9942564333179639,0.03334390284460426,0.7651297790419974,-0.34859963638243147,-0.26659743839333455,0.8902360871836529,-0.441734638828042,0.5130960805350657,-0.6203971995933194,0.30720659736423317,-0.28978463087514067,1.0009085494636063,-0.31739027407219256,0.246975222900163,0.6665227859041738,0.847077332577001,-0.8696973646606537,-0.9087508912063769,-0.6639211690654181,-0.5845043575958091,0.29211070811827566,0.32383011195436184,-0.804421287811596,-0.4506818799338741,-0.6370852214229736,-0.03967432550802708,0.4509789213729035,0.2365664146800168,0.6170067390088494,-0.47721794493265857,-0.3215893937151077,0.19053087359934606,-0.30994833940074695,0.8560062317295805,0.20912252416550994,0.6844811474895897,0.6398244051332357,-0.7991888186121081,-0.17491659505938859,0.2748903357503787,-0.5298778731650156,0.33246716070358956,-0.5859318086629713,-0.1948323426550193,0.6229058326438607,0.24258960516854386,-0.4596705790360692,-0.9881262044914326,0.4327702182823863
0.38493346768617126,-0.7330128239947492,-0.04551473491546776,0.9909485445705479,0.41945075511376484,0.2480587127041894,-0.8849856740631901,-0.07486168566038079,0.925297350387167,-0.5322637420461611,-0.23738296095454534,0.6907399427412542,-0.1284512468080426,-0.1263951745590905,-0.8104847132084433,0.7403685155870359,-0.6127578528748433,-0.37739376720921336,-0.9350012903502173,-0.8628569368132502,-0.728961376605634,-0.44813331700551406,-0.30327322796156786,-0.49127261007584244,-0.12104768454834643,-0.8760721847045653,0.5393159769518495,-0.8247894225905018,0.5142361392512643,-0.5048222921001171,0.4292394421374356,-0.9477063707885723,-0.18938025260720762,-0.6684271389712784,0.6899310374694205,-0.4889003798701511,0.7089210118043127,0.04238765816275107,0.5113540973003815,-0.8488262352777658,-0.8683587683926888,0.11875455696750914,-0.28422638475062745,0.7686845213015028,-0.4720856446793881,-0.8858636540969809,-0.7188083858949031,-0.5774008373713945,-0.031807033602603695,-0.979899223827511,-0.15507578294162339,0.14277573572632415,0.39270544309268557,0.5384497639738068,0.07543080413572985,-0.16107419193082445,-0.9658114381005362,0.040642888035966655,-0.8559709459770874,0.8921588143556028,-0.4480163402379228,-0.20051980721690998,-0.5427702912353246,-0.6844656333672644,-0.9165123950410169,0.24143354302268236,-0.2603743422499624,-0.8172524016183941,-0.13266382669909468,-0.9260124951075502,0.2810429490365497,-0.6097770059096137,0.02963423281915932,0.4644424239611357,-0.2125489089715683
0.6926187167005394,0.08987248616520999,0.0774699190151505,0.9256246828286834,0.44366491988118567,-0.7278212054158433,0.7395291881162317,-0.8242146664600648,0.19758582780844883,0.21998650974253953,0.9245623435107215,0.5577705374343307,-0.5421129599679169,-0.3781031961854065,0.38495732313576425,0.6818300148366062,-0.01045078797012839,-0.8347728804048554,-0.8947518999853981,0.7692679480308416,-0.03810527527453461,-0.6274860831088449,-0.26954598748798714,0.33278103503662737,0.18956020712417787,0.7765817821379382,0.036467250048643575,0.5799019606665686,-0.11157719845510945,-0.7149789454111285,0.8510978208053689,-0.8873091119877066,-0.9797579380169228,-0.6625967275246201,-0.7994624411867817,-0.02588382163893674,0.2556201317814753,0.9868875179875849,-0.9331994832636195,-0.6926472885463252,0.38280497572222344,-0.6302086046060472,-0.7195962445111168,0.6096232330149379,0.5045405059416247,-0.20820437591055022,0.5934261451164436,0.7551135783842803,-0.4745399255745826,-0.4286648328429985,0.7997793111409404,-0.6743957532372744,0.33043961120973914,0.6086348617583888,-0.1473270824110365,-0.3386423234641488,-0.011612814631697235,0.5504789831075871,-0.7527160808981647,0.613517835271938,-0.5674003775460883,0.6087256636991043,0.5967454407341849,-0.06235477566567692,-0.9925851445940813,0.815741645505393,-0.33791807602592516,-0.06877674685793268,-0.3700213136370121,0.10019269666027697,0.6884710977592418,-0.8955376045501418,0.44888761685315387,0.4204722756298172,-0.10277242752188669
0.964715421958008,0.6053424078423181,0.1466934876064186,-0.47270697465795264,-0.57268272579289,0.7336395786187312,-0.21710752128145414,-0.02967787616703902,0.9072309131132077,-0.9581227884809993,0.8105020446246587,0.5883270996537074,0.19653353004543112,-0.18006190877067196,0.8537923417164037,0.5805928085731094,0.3747665243812605,0.18669250480440422,-0.19503363682482802,-0.6015484882929856,-0.17912687391355298,0.38638281060325225,-0.9675215640034115,0.45724454430315126,-0.7095021716418627,-0.44597077378440425,0.7766687002815349,-0.14559784149762361,-0.09799806183207883,0.826176176621556,-0.031277562524623506,-0.9889177087661309,0.5466082774094975,0.6217706550144001,-0.3540084763495791,0.11546792144146628,-0.3965923423053538,0.08558427566298388,0.4501234298812909,0.08150560754082803,0.8438167316104904,-0.27489392648768163,-0.9142904385879501,0.8445286170982266,0.9681046216162807,-0.48011319357933213,-0.011248541594646694,-0.026019010842935796,0.7711399643974136,0.30053382486412683,0.13732346953198107,0.1588179564420416,-0.7736303804972083,0.8915313766784965,-0.58689630529109,-0.09598041506419133,-0.7366163039035623,-0.1710153457802068,0.8646023453685985,-0.7505837767441433,0.9072528176531082,0.4703852496101002,0.03021921130989731,-0.5161546618584054,0.7223348873881418,-0.14680901501140423,-0.5885433295213147,-0.6723108445017673,0.5644524484455817,-0.9791224009614639,-0.3550544600340262,0.6953418957301039,0.47217401928230784,-0.34614133504062844,-0.8525507843420224
0.9316344271982564,-0.43911091137794195,-0.7397345339130099,-0.21837728701921402,0.7935736140577365,-0.4445250943943669,0.03439496736628285,-0.22297682548965694,0.8268370972337232,-0.6809687028864757,0.23240654841038053,-0.586590452031204,-0.7607083260684918,0.5712322696301079,-0.5729021736937726,-0.29071331005802026,-0.9344378035590515,-0.00805190196598583,0.705644352328334,-0.06509019781407721,-0.02173341117132992,-0.5559004951625005,0.2955131266689119,-0.10509844478946083,0.2806649631196304,-0.626796166439151,-0.9927632932957305,-0.06266480019411623,-0.7819269246542389,-0.2631816238212334,-0.02605746257374048,-0.32329592822184217,-0.6138857462597787,-0.13017685513287053,-0.33216796584890346,-0.016825103342180615,0.42442994521244415,0.01859600563575059,1.0513481205614001,-0.2853488829402168,-0.00864081584244678,0.04333123936890887,-0.985517112406876,0.4316507007701431,0.7594819446341194,0.9535419360373264,-0.46100981069505964,-0.7404663008866913,0.5376746569753462,0.14570703084186476,-0.6387776632484399,0.8946418957352407,-0.4516420666693801,0.8539307745373828,-0.09933090154993542,-0.8399831683403568,0.4397970481772934,0.44659335653366844,-0.5131494668133062,0.6656370276454417,-0.9521902166782381,0.35237444694106734,0.3595139938963725,-0.03464616081022458,-0.23328568395665591,-0.2818324297709697,-0.10941512941976293,-0.6693377154841516,-0.43255578506967773,0.577749799143377,-0.6983338852537998,-0.21346641708296865,0.2937109395882387,-0.45279131565508257,-0.6941148346389903
