-0.5316067522688946,0.5902318882959453,-0.2118793769632897,-0.7983325337792536,-1.0356849102262407,0.2807626317818671,-0.48874582922042487,0.7540090571651905,0.3185220339892819,-0.04139001285011642,0.541126307918997,0.7826572514092978,-0.7084707960889278,0.23822470909989646,0.9168182424141952,0.22852307131899785,-0.7918887276178145,-0.036541029422415786,-0.911685273696796,-0.8159041810682776,0.7705859426397139,0.800217970085818,-1.057118556356827,-0.2678462367918982,0.4956224448148759,-0.3575798478935779,-0.5918024256570029,0.13110349405487376,0.2685346545118289,-0.07210836581631581,-0.4444193985894973,-0.3230496240225056,0.6679127964207999,0.46566694016197757,-0.3787347546160232,0.7399509152304008,-0.33663096488982686,-2.120353348282294,-0.46381067542474697,0.9346464683828508,-0.45978411238967537,-0.20492010194130533,-0.5806127100438507,-0.8324872486327184,-0.4241462876062072,0.047076140717443815,-0.6025713877036509,-1.7126799771604775,0.05645376094530631,-0.2908953446455414,-0.4269962297761303,-0.15624172785706034,0.014654432208287696,0.462876474590087,0.19652796509543055,0.8878111865564907,0.7159598295388445,0.6462616226957744,-1.00053417613901,0.4428397705566089,-0.14665157818268118,0.32536065811496684,-0.4095741589297019,-0.4439455095741165,0.7650917604106634,0.5909402631273681,0.12630481375167682,-0.41815055424587555,-0.9160591463243597,-0.03145028508908522,0.5473476745392678,0.5954252979593005,0.17029041590707544,0.10322149743378807,0.5773313557387685
0.7176438601654658,-0.3182077912081889,0.8643549532723289,0.3641063836067414,-0.48746577374355604,-0.8592888191730839,-0.2632763365403714,-0.3915896515432235,-0.23771122087693172,-0.4288562615912453,-0.8670802189535938,-0.919675741934746,0.027105346248847254,-0.14601082241635724,-0.6717740502136311,0.45236637885807374,0.40790152857558626,-0.0669688474156024,0.987304776039824,0.25411952783719904,0.3327091839906184,-0.13478814211185974,-0.913698673050063,0.7121564700874796,-0.0026339661229543084,0.3208439649768006,-0.40389822912429896,0.2552125346196118,0.9273337318548697,-0.8282876771698843,-0.8406798211013043,-0.31571347162920893,0.3859888889168547,-0.709202386710026,0.3558933067062149,0.39627257117503767,-0.5790625574289289,-1.2556650244457968,0.8264143439766376,-0.026893225382983537,-0.03370999603027545,-0.7012387596167405,-0.8253871887072812,-0.1450118733062983,0.7809846573506701,0.2338837935507908,0.7935539826962973,-1.213759750011859,0.9517514206093176,-0.9338667766840155,0.18901215582193942,-0.5423630725984023,0.8239434288364095,-0.3538314598549665,-0.2515213174546493,-0.11657940190346383,0.426193364109858,-0.02098180997105229,-0.8381873587638813,-0.15923345895006258,-0.5629886436399305,-0.6031487610104939,-0.8686144542634313,-0.5542728159071374,-0.5634796678642479,0.44356498694370894,0.21884970217667063,0.8645554316960178,-0.8106167852401366,-0.4444288215059073,1.1938935026423936,-0.5114161375948152,0.74948739796469,0.5805639790244543,0.25596439423102924
0.11213431030564672,-0.5187415652966227,-0.32826556505766374,0.7575956782022859,0.08411336737322794,-0.7598572741859587,-0.8474739360623013,-0.5841511677407223,0.14162697553189316,-0.5492734088831381,0.045560378978848314,-0.7284046727574365,0.34545099240834687,-0.547566073572873,-0.37617395602615233,-0.9433948021088412,-0.8471167914084354,0.0374788204879071,-0.19615587246167632,-0.055303858571416224,0.5902699484416442,-0.8684450784510918,-0.24471169778213342,-0.09091269146452077,-0.3351776360178443,-0.40862933300421506,-0.11350326733236991,1.0235702550135313,0.004968003731903806,-0.7177484550586836,-0.546726754941712,0.7890948570659055,-0.6893893557634396,0.5368766275035558,0.3116971858710221,0.7420084398425507,-0.5391519902061893,-0.7420822045536337,-0.2061958170228797,-0.899115880263092,-0.7921042336342481,0.367477349673018,-0.6284706221060157,0.02862364425685496,0.5359908636366683,-0.9809566777865808,-0.3704630857234238,-1.665063526459472,-0.5789775694173,0.48898197201539956,0.19110293188593222,0.2728761977713014,0.757947117724872,-0.7368136501456598,0.5955028463009011,0.8310833600993985,0.8699870501387141,0.6601325183697232,-0.5646060042962195,0.0913303737528711,0.06018872975157436,-0.6350050760494381,-0.2503710901924147,-0.7210665688997091,-0.10579624005129906,0.2304533423419355,-0.6573317611179523,-0.5464870627013726,0.47706538872751875,0.3539497708664503,-0.3458968662038464,0.46419319241576595,0.04916813970051004,1.4219016479305637,-0.13835939596295507
0.10301517034159954,0.7876389296173858,-0.49253375245360015,0.812816141701812,-0.39575635130635484,-0.9288577213086783,0.12992773555096368,0.9706220004436236,0.5692707672542509,0.40755248278947814,0.797395815751342,-0.4408530737005937,-0.886939533859755,-0.7713239095829773,0.894295482111942,-0.3852495644660548,-0.218953908158464,0.08654014562286576,-0.5270769678658719,-0.07212998452500882,0.9498069262420211,-0.981358282341367,0.24465062583128064,-0.8609210054650562,-0.6324046087839209,0.75018169078403,0.918936876849622,-0.0352421750046012,-0.9638377132849181,0.9837529952441165,0.031239604995011994,0.6095751984407773,0.2742747538621727,-0.6636929617790964,0.941274385442581,0.895371448933598,0.9292140503998622,0.13223107214441296,0.8431441966606585,0.8740199968823296,-0.8392100541621418,-0.6441360350516352,-0.044946267750173755,0.559602337513366,0.8860445122982468,-0.1993141814176801,0.6313964377852671,-0.2256235191742447,0.7449431492385454,-0.8547844017266797,0.08629605860161776,-0.5431225992477021,0.362648275070326,0.4253338859296283,0.35003868141398287,0.32784886871355773,1.4106696614134469,0.4610125016922971,0.8761052975387825,0.27670165490126325,-0.17963505686135198,-0.2267794428361366,0.5421074232043509,-0.804286776355569,-0.2577092521233259,-0.6439791619552272,0.7308805847841511,0.5317162890919003,-0.7139310343141776,0.019091957893461547,-0.12374156838425075,-1.2161261943591535,-0.24827683415238933,1.1182615886107685,-0.04639625334267327
-0.45490373925532906,-0.9542131799396666,0.5571226908101219,-0.29751395740451436,-0.06686218641813646,0.614913512081189,0.30344964589314033,0.31568335221744265,0.5591117848746024,-0.23652396676871834,-0.867848292699779,0.14460936954353978,0.1356061014800596,0.6830605120173477,-0.09131166126462108,0.7322013953151366,0.8356893556789752,0.7555589636518273,0.8397379408371601,-0.118317689917686,0.2542174887052236,0.02957720670926162,-0.5505858806166976,-0.675451960511338,-1.0497047288163466,-0.9835494274884786,0.6209014820327827,-0.0585409926451118,-0.2795301012430328,-0.2186195348974336,-0.6942362522465411,0.8184742224295758,-0.423436193961756,-0.899939927605608,0.8826289230567599,-0.9144893237005056,0.2912332847334734,0.11908307068334635,-0.02624036996992408,-0.9515104856834603,-0.6076653356189666,-0.9364945169123233,-0.30738781992415337,-0.19014281892639825,0.8435214502456359,0.8825737000063517,0.4433176315154,0.15033108113791688,-0.8209263227197109,-0.8436934678446705,0.6162249015147266,0.476093322221926,0.0830602428500254,-0.015065016406555833,-0.1562174732550754,0.9221179372631916,0.7468228642861584,0.36105534033155645,-0.9829346264947793,0.6560826637148296,0.9223948915901277,-0.10342963863922662,-0.13084437721239378,0.5836077410234985,-0.5473383700782846,0.95447858109978,0.2680187353892233,0.6506957614422194,0.7334130512418343,-0.5513286092405025,0.7724486382909097,-1.1310627431537303,-0.9792214565215693,0.06654046052251877,0.17066451126836898
-0.1292008533803529,-0.8370140539603216,0.7198149150367631,0.32666806253201924,0.7290447273995213,-1.0169000893895686,-0.25430913315692205,-0.28805886979622436,-0.46749432143281633,0.2938448732517958,1.0091438651661198,0.14613834631671999,-0.13080067522034264,0.7191977162989689,-0.08493178777039588,-0.5386942855438623,0.12452361320745241,0.6324580944441413,0.38453448256660605,-0.6672329867070531,-0.17777666224117597,-0.5489496803832433,0.8906451492348807,-0.7188730745313804,-0.5380552588154316,-0.01054953537582711,0.37463755653586744,-0.49945083643536525,0.43220342392214595,-0.5619907497240604,-0.09854324398860621,0.06400937927042835,-0.13012340960729865,0.8448462478135677,0.08760708275149753,0.8438480903021129,0.9477656807959137,-0.6652770533610046,0.9561407653223006,0.5709439053410698,0.04017868146625445,0.8143263406526512,-0.9946697415639826,-0.9509175304909863,0.7663416715473306,-0.30194415261967095,-0.5120670347844575,-1.3482486695323461,-0.26349158237546527,-0.6542901161428133,-0.6385142217237684,0.5581188784540921,-0.2639189709790667,-0.11546425835747527,0.6541411879360612,-0.5280458556233979,-0.40510962727059474,-0.6728168407959,-0.8691468727229772,-0.3246419642909243,0.8266037249501159,-0.6339983241960295,-0.0903212016303368,0.5334234244060788,0.2117877728692035,0.9884061670433014,0.0965279772752213,-0.46669811250140214,-0.1078438097830461,-0.2566918090156823,-0.6952012119089515,0.556144557566705,-0.15131984105169963,1.05772552821292,-0.930195526805418
0.503541488987146,0.951310275341642,0.07221509000883916,-0.28840024472233516,0.33342837398660186,0.19544812744150641,0.5376529726580254,0.8658133290442938,0.7747935611080152,0.8768210512360304,-0.6460323370632349,0.21581078422115488,0.5432696943286907,-0.22016130492062458,-0.6561411663327047,0.5853342644499444,0.015366201555495123,-0.13773489507076192,0.839171154668639,-0.6001110720222304,0.8773651483719787,-0.5679620699915899,-0.11950378404446528,0.18247598878823362,-0.44903193162008287,-0.1946744280731661,0.643111747732394,1.069190898124249,-0.28120113466898905,0.3306395031333043,-0.9786107242103084,0.030598015342130934,0.630840385018689,0.6529978840498409,0.8094776677613728,-0.8625726499251084,-0.23201074124650822,-0.06303456256005692,0.5014292073446918,-0.015588655181730937,-0.795125336745565,-0.2858075042497804,0.8936179468129875,0.34983923732438865,0.2463921841470434,-0.06128338781912713,0.32543044901221885,-0.4207296332427121,-0.3227391298045278,-0.18398062913524682,0.8350300484845016,-0.9978206752274136,-0.6135215061775112,-0.5026824440750236,0.8019634267559128,0.5844660479785065,1.1446244924507287,0.05907529440521817,-0.4057491795839212,-0.4710823231762056,0.9639098078327728,0.024894632052123025,-0.5464829479045398,0.3492222085539512,0.13382006679856195,-0.7269426811255512,-0.25588174932678137,0.617801759432128,-0.5432983467013621,0.4894206396783838,-0.5495558556476068,0.7392464479968748,-0.5954361861260137,0.3277055758558704,0.8328922491927175
0.859515544511296,0.42727550316072044,-0.2764945856634006,-0.2907131899730232,-1.0578468189525438,0.8600706379823702,0.21303675464181365,0.1934138840938604,0.8139477590483555,-0.3866885705162842,0.29925917840160793,-0.5608753014895167,0.38699942355779854,0.8713736030045947,-0.20886269190026263,0.4033059292515012,0.05904089499677083,0.23870362180472737,-0.8994213316969852,-0.2825811408192369,-0.5622312888567624,0.8880354132696742,-0.8368888224185606,0.8930965707870637,0.385065581740436,-0.11669517419412954,-0.8919151998844729,1.0552296358238522,-0.3585388785897389,0.48388055379390327,0.171801648424857,0.94003830910469,-0.35679029333770407,-0.41857478599008235,0.1609499438583173,-0.7733330447291307,0.006070824222170707,-0.7537896385027485,0.7183715844490007,-0.25495445912638515,-0.5812802847154108,-0.2229824414733764,-0.3967416684392588,-0.934793573433837,-0.6344467037230821,0.5790067414650543,-0.004840339213129396,-0.5276926049011762,0.2998662284641639,0.9154579825990113,-0.11107949074602035,-0.960414842705634,-0.16260578864694128,-0.6196417110507513,0.3196762613060533,-0.9677329829574921,0.6186247155838597,-0.4948780110581083,-1.1384637106714997,-0.7722300353721546,0.19986074996144162,0.14106674550077267,-0.0846695663496491,-0.6266249234690737,0.2972023574541299,0.9929978205423772,0.573809393795934,-0.788188124117081,0.48027006295381,-0.2808030909858729,-0.09764942006599954,-1.209063788395671,0.16569662519760983,0.4733216147506357,0.2558134674725458
0.4801603661772353,-0.7315053120557308,-0.7319865213553518,-0.36401957562250975,-1.0212947411194804,0.5305620943591088,0.20585077529716062,0.7427527444872819,-0.4359513179205649,-0.2526460929667028,-0.6635787059133494,-0.15407258683507793,-0.5701737037332855,-0.5533750005581716,0.8749763387211507,0.48567816297045324,0.02485886996603978,-0.2522758523104765,-0.6691411060502425,-0.04803736724425149,-0.9796779599457415,0.8122785690901705,0.28372703135427185,-0.3444518902302264,-0.805438315185825,-0.6802247573851872,-0.5918332891092425,0.43150829130521295,-0.36877956312063886,0.9903443018779631,-0.43497869236495074,-0.08267821343013956,-0.13980547156342513,0.8247497099197305,-0.3126339470545642,-0.5192867727377276,0.03825489982357366,-0.9445350606698437,0.6066115342013402,0.7063667220231453,0.09572352993712405,-0.6861298895914103,-0.8369801574474044,0.772081271897045,0.7261033137800319,0.3847356273797145,-0.3680721985570674,-1.375650415102138,0.1595596526238083,0.4065606539156564,0.9913197049089499,0.7991574899983968,-0.1222110554378869,0.7967847772482036,-0.910496493843859,-0.5103551975399165,-0.4169827103751649,0.6451927142229096,-0.18272478032803802,0.8872996881377786,-0.9337557351235285,-0.5231581881045911,0.6669725508483756,-0.8416798526136545,0.10896393155749028,-0.5274727564579353,-0.13273481289463465,-0.49142651573693513,-0.47231083181473,0.20432903066236327,1.0338845120262352,-1.2679280917438516,0.574310462393341,0.27175853383902016,0.1929409796340583
0.38902949160220024,0.29813628416987614,-0.8204535359733699,-0.1265030854427199,0.29839204793402213,0.7822232912749324,0.1649980690622285,-0.020191870405397428,0.2559175276710915,-0.1915687511252143,0.8131692995355768,-0.055111927751385154,0.5610931785739557,-0.3662319218960796,0.3121561952183047,-0.042442241103971885,0.020749026788437333,0.6532970690848853,-0.2592480228538413,-0.3486001879973818,0.21396846809996065,0.23910220719727496,0.5568191279366875,0.9195482677923502,-0.7468215425762462,-0.8202495863297876,0.32906758528337143,0.23091750921540138,-0.37703979645853714,-0.8893755598463964,-0.05744620658710055,-0.08323755505769147,-0.5360433713759772,0.9133979498327661,0.1710027998912202,0.7511486354732939,-0.7085954312580472,0.48436357339840574,-0.9089121123728191,0.5963877971499145,0.051896456082099966,0.41961103521636317,-0.27340172783980515,0.38050946488643916,-0.2153197490026742,0.5685153072867635,0.9177379238430269,0.5303466532972545,-0.7959758304845164,-0.2808058157830268,0.9096564794973234,0.19283478445227148,0.3785575848239169,0.3013407550617079,-0.6062197984424976,0.1935202423517351,1.0241631527244541,-0.1517453530895477,-0.27962689765644977,-0.699726919758797,0.02446331047353269,0.12012850602310073,-0.7846852952614594,-0.782084284958498,0.6785757889776173,-0.9813053632481964,-0.006737390110754063,0.6711441626669875,-0.7906687327448567,0.6121779531486707,0.8475555933901122,0.44954956469657803,0.8205227763634605,0.5030344688280017,0.06366665524551479
-0.881694305978531,-0.6225903783467054,0.1517402884617783,0.04709624488219568,-0.5253373281421874,-0.5916562194038494,0.6876494507338844,-0.764160804854928,-0.8607872772590354,0.49506609971793614,0.7469209562034834,0.9904849093268429,-0.5262026087040644,-0.6299734175161366,0.810805135447165,-0.400870052101203,-0.4327083688865913,0.49099690642693117,-0.7165327893159233,0.03387862608788255,0.10644482098241366,0.22838501691701,-0.1298598845686729,0.4748523129046396,-0.6205527714722857,-0.22271049167502224,0.261844664054564,0.7212914310607812,0.6363085214577554,-0.08862989977477573,0.12001003255596292,0.08648359523771042,-0.12717385741799225,0.12784441580062741,-0.4233419796440141,-0.06524027040812026,0.9119781755300524,-0.686114701852961,-0.684871517788027,0.04158938490714258,-0.5016576481302533,-0.8336300962471479,0.34817829556724916,-0.6697636926053226,0.5865240614074243,0.2733122203544412,-0.7568306435147072,-0.8873800016193013,0.09934793603182221,-0.46121342377001656,0.5210806706127121,-0.9551938802071683,0.9863045316947694,0.96506290753726,0.29915975487945423,-0.5427034135680308,-0.38620605589995005,-0.9602989752305294,-0.045544341781107354,-0.9846202462069258,-0.312099116543053,0.5099298794322925,-0.07937375266578692,-0.06307858580043872,0.583699479632799,0.10704433551118155,0.8437945260955837,-0.133138079214611,0.47206098454596607,-0.9644573447457303,0.3548098032228481,0.3927038182868896,-0.8746327194093062,0.40052067136001973,0.04360307506784859
-0.9680211558616301,-0.11913661999382519,-0.43332477583903806,0.09408711223917564,-1.0009748767494897,0.3983599871160206,0.061258377383862334,0.031594705177449,0.29432588914612423,-0.9741374347527497,-0.11707089463871365,0.6860381056919251,-0.4950027037299858,0.9783162483244127,-0.905411480603364,0.21777096160132364,-0.9008768507845877,-0.7104037918971758,-0.10554797096603005,0.8307019054676419,0.4067748775672622,-0.925356202903217,0.9150251185854352,0.2315660367801998,0.25585499724607025,-0.3787658005475945,-0.83118096405466,-0.020399643340354406,-0.4196607395099289,-0.3776719953878664,0.4943984557542737,0.7650263101596343,-0.07955188239794671,-0.33249570829044084,0.6312395097565098,0.6672827219319243,-0.12431647928669899,-0.2831477439824978,-0.43175943688908097,-0.23856108218741742,0.4216672170221378,0.1818994314230484,-0.6390709426632573,-0.2978816705078052,0.7113569743493746,-0.2506709169757612,0.2604574142498248,0.30471790885953626,-0.45102671562530544,0.07676275218674887,-0.6644366101617719,-0.20816623406018064,0.2712254813629729,-0.21571789778947378,0.8504873178020985,-0.4207494560064877,-0.5019095844781755,-0.42272635408964127,-0.3665361235220236,0.03035084010072129,0.908795171206462,0.6641319019706334,-0.45169456534743774,-0.4620572420166121,0.7126356889911128,-0.7074055668478497,0.653851321053326,-0.4997754373946433,0.23186056832073867,-0.0800735366900461,0.7987945539205431,0.509457103153609,0.5854687274447532,0.3122496474817818,0.020804456944222574
-0.38837150625369055,-0.2663695619842367,-0.4515190903836326,0.5334653255379874,0.7570980430861246,-0.5900912512951622,-0.6392087844594948,0.5339068713696544,0.8453002297255656,-0.5171048512869556,-0.29000870204349277,0.24469643170797267,0.7047604233400979,-0.7393808027172135,0.7187239255036711,0.6457276543662738,0.5894248265666816,-0.2529095636196259,0.32352528298576044,-0.23656400475823763,-0.5566286654745743,-0.46820017569603034,-0.5664392561158198,0.5049427525748804,-0.8470645520027867,0.7985660346472504,0.6635250600419905,0.13881327120514728,0.8181324067448027,0.7058018930740041,0.08546732015573841,0.6335190388292384,0.16447379313963226,-0.7361333240577044,0.32487969170192993,0.6981333584638739,0.25807333807863847,0.0556943085266314,-0.08969895647955393,-0.34381572865955934,0.49640105156301173,0.6860849578468443,-0.2612941346410288,0.06372797419458227,-0.5017131620748421,0.0038759159194907983,0.7194618654211689,0.2695439843016935,-0.7844950562681707,-0.8105839748779969,-0.54271814636016,-0.03425495366342433,0.06970943999378842,-0.8423765503758781,-0.011325302344850734,-0.6597532446827197,-0.07614153374619058,-0.6029798560852976,-0.9051952268585933,0.003020403938362542,-0.48605878061056906,0.06470534499821302,0.5585676263275536,0.6924807710115873,0.9554114020014131,0.13731802616895425,0.3895941548111415,0.10321428024001239,-0.3520320044298815,0.7867734806184803,0.9253480464936634,-0.8121043500375904,0.696448024330547,-0.2057559726907446,0.594653734402662
-0.9436698502862764,0.20672300392814286,-0.4143588729612626,0.8261857855057506,-0.7014344095813461,0.6354823450609975,-0.747287361379647,-0.49035671284636406,-0.46822847592429556,-0.4741093222652703,0.41818752575937884,-0.5709518022878332,-0.3433212416950979,-0.953037489907188,-0.0836823774445913,-0.3510463037360797,-0.9292625595534175,0.5027357195227752,-1.0027644404031975,-0.588251291271133,-0.8847254572402012,0.24910064626333958,0.9578968120850875,0.3220328280185748,-0.5460530701488172,-0.06120119382137296,0.5817582419571242,1.1022339295927266,0.8669586357688609,-0.010985609128005249,-0.7824555124613317,0.506551275044037,-0.3379567191204261,0.8932881594152212,0.7966679134489909,0.5223757920849178,-0.7039915321201475,-0.43426919597060765,0.6097569078304667,-0.3752114667758644,0.09225273409153054,-0.5394286299530527,-0.5049412997849034,-0.30149088348857755,0.5247019156721104,0.8148356767643448,-0.08640808466313361,-0.4345770958473426,0.7264329135816658,0.7177154315197697,0.8440119680712794,-0.9288022935970498,-0.3486306062130919,0.6471831297156735,0.3539441831296036,-0.1805281801657169,-0.24039005421441237,-0.43664823752832915,-0.5557816437987296,-0.3334962027595735,0.24380015117447518,-0.458724341559172,0.3576351566742585,0.09676265531278097,0.5837832482042223,0.6110881103517122,0.8135873411744979,-0.18361964338268097,0.4513325376487388,-0.9068884332023676,0.9265399941627417,-1.0343906853610536,-0.9155095344328424,1.325313681828849,-0.81952127786881
-0.6148523626191312,0.8762640640172794,-0.2814458406917967,0.3870912308081149,-0.14443710828577494,-0.5937459735685585,-0.3074794325262439,-0.4438184400358465,-0.3439156019234287,-0.2846680868584841,-0.8934248605312354,0.5128671433664669,0.20823252845099163,0.40937855806606605,0.7855499151338556,0.6036260235230545,0.5964164946586186,0.2235351491760452,-0.3915757168995432,-0.7258982627126062,-0.2829950648570545,-0.4057249309587582,0.1849962917363119,-0.12608696878606288,0.43006435409457133,-0.7464881684038043,0.9504956019855532,0.7483490907746527,0.6844692813694893,-0.0510468713186468,0.5048518749869788,0.6656355251261824,-0.37301170059596955,0.8686004911465329,-0.9768875665864856,0.1680794275023981,0.58407391971969,0.19719733267515974,0.027022279343093543,-0.2022717731099832,-0.5272675343291414,0.5296085019372605,-0.23396985037765738,-0.3870748193598869,0.6667598796996149,-0.26933271701497435,0.41934310839946576,-1.1318203408016032,-0.31726059884118873,0.07617663265375732,0.8501221807794651,-0.9273579218512297,0.9425459966852044,-0.5132644170752798,-0.7741380756312126,-0.5578836864483601,0.4931442699088,0.1084464171745767,0.2818280584401122,0.1494153979586829,0.9991910392121289,-0.7433226007908487,0.7176655127918005,-0.960717888353977,0.07161491618996049,-0.13724715669219142,-0.09972952708706721,-0.8007318343953091,0.9752942403754578,-0.7008211285633278,0.04072092699139596,-0.32960539045908077,0.2997917288421659,0.7382287804933061,-0.9630105216040319
0.9647207060393862,-0.2748629997095234,-0.26336102694643126,0.6385838411063062,0.2171551717457047,0.26154128380579084,-0.5790913768796049,0.8327094690505328,-0.22882697550660333,-0.5579349127127577,0.4888114252395153,0.23602713700948497,-0.7829024372435339,0.19338011903978744,0.7618902556169339,-0.9933302350364331,0.41326732184344905,-0.6586973394905086,-0.1481821013253171,-0.10483250489253298,-0.7452171007487752,-0.9264907556136407,-0.7143403069058406,0.2715940584037669,0.1703734858450358,-0.2402568539317978,-0.8825913608998156,-0.13102208004945629,-0.42675496692542253,0.7304839763201217,0.8435999815077586,0.8257685786876054,0.5997331456452901,-0.8018033261952892,0.9463716631666602,-0.600034809181309,0.648589044627718,-1.0532470453013403,-0.6715084718415576,-0.8854832731943508,0.9955933666708788,0.9807520929760845,-0.22700762466139338,-0.03001067878369061,0.47602018098786153,-0.6574565685181828,0.5557913736661841,0.10487507222100446,-0.728850486649891,0.10110283412007004,-0.006352824023039587,0.37662158492386844,0.41833455781372697,-0.6282617514382767,-0.09470488991484774,0.06439657608251391,-0.06566959152198454,0.3780720394033937,-0.8999131189849986,-0.6300369777124627,0.713324800975462,-0.7798626160698909,-0.9707239858713845,0.46301714147285133,-0.20127103294995546,-0.4716858317864632,-0.07735045131863064,-0.09991097686045744,-0.11037510493707901,-0.5021794536167876,0.8672665633509167,-0.7686873978175948,-0.35427125609967675,-0.45415897033523567,0.7414034304678836
0.8811289980359236,0.5850100112726031,0.030857105361193793,-0.32275152734323204,0.31020973632576354,-0.05005747511666681,0.9668179222096076,-0.7220226282562617,0.7784142868532427,-0.15228149540551458,-0.7603413233824092,-0.6969182110814253,0.8511446796782084,0.6098125574957578,0.12953541483021294,0.10648994471885614,-0.16666329435636043,0.7032470147752299,0.7502609782322065,-0.7864255121238864,-0.9984792603199268,0.5311698670537607,-0.35624656234906094,0.8226289348290176,-0.32701004302935016,-0.6752595895819992,0.49248243919633217,0.7855544740587574,0.3925752803931768,-0.662676961302942,-0.5118124356396547,0.6288320757528434,-0.6520244143633966,-0.5906031926432166,-0.6420782117537346,-0.9758171489947576,-0.8472344063212807,0.6853954901806871,-0.2867055692809286,0.5992197294508541,0.3164401655114551,0.5336570282116546,-0.35620461477664206,-0.6086800649533205,-0.7629781381976565,-0.20143559025538485,0.4594226217034745,0.6901230871268355,0.6049407714064788,-0.7977117352193689,0.9051502875664066,-0.4609595258050091,-0.2877072746715196,0.3924562091042555,-0.8650868283032263,0.9858091907466703,-0.4887579567185075,0.26889266968805164,-0.5911161640837045,0.06878160489350287,-0.721710149787487,0.07941528979184154,0.0017477610150010599,0.13357296478850253,0.25797017871871275,-0.3466104445878139,-0.10773200153839772,0.015418327613861497,-0.6464847614130298,-0.09346606495605425,-0.20846847524709192,-1.3086234127731777,-0.47821895903121997,-0.6438201636519627,0.8241372682363638
-0.9536092842874224,-0.888218374425495,-0.6649681632424803,0.3666649618858792,-0.047495340661562656,0.47441429699318927,-0.42486843922453293,0.706064200105652,0.7166082118019139,0.30067027615763414,0.8467362769589625,-0.1423809739528287,-0.3403071254541604,-0.8749672077845932,0.028853090881252833,0.9717368316136609,-0.2805432617330047,0.9683027061210808,0.739444956671998,-0.8116650869825467,0.8846925006148181,0.9641576265442712,-0.016581693420463086,-0.36358560018163827,-0.4965165864141895,-0.6567342695962411,-0.9179802541236225,-0.1763791054322807,-0.07876006233997714,0.8742098143638233,-0.7515395738862842,-0.0593979341313342,-0.24411248278011613,-0.8627978050362137,0.7182175811618997,0.595321332386852,-0.3167552204912212,0.20204734907960997,0.8044480766672899,-0.32136467046477374,0.6339078545759579,-0.22236087215432537,0.06535772078319904,-0.829240074280757,0.3566581526078422,0.02392904779727822,-0.8302709588344763,0.15812001512883989,0.45457033873085484,-0.22689029596775015,-0.9548941519863688,0.9742500772084375,-0.1930978609809548,0.630014855878785,0.4533741368906567,-0.8938326510670385,-1.01200052229893,0.82157418794107,0.36491379588488415,0.1696340444670594,-0.840549127952569,-0.29168725763387754,-0.8024127246109503,0.7897419511420882,-0.5812608410476005,0.8867612254977525,-0.680722866488255,0.1748941598945894,-0.2130381005372854,-0.756170841127411,-0.4710657036810647,0.43038493280395423,-0.8007255967574675,0.5399729962994448,0.28297796917511286
0.8290568988875979,-0.561968491726106,0.4074929210559424,0.019802639343982027,0.6077393313759508,-0.48402237399855796,0.491236432407726,0.7359830621082761,0.624157316720824,0.12252613656000923,-0.6583934840468785,-0.08683153617366278,0.030128434967898018,-0.4961487400782059,-0.4557060273899605,-0.061229735288961064,0.8088535675282035,-0.359628678279253,-0.2743556171359141,0.7779617663814802,0.9489893249040264,0.5040018104240085,-0.5858898924441651,0.346892753866357,0.8367001995649549,-0.7586731840719507,0.4773436378802117,0.7054064413443217,0.3203169849449568,-0.865194614919299,0.006832965377191094,0.15351899873497038,0.05285126178414745,-0.22720533855468145,0.5746448026784445,-0.9453112464789692,-0.17308054616176632,-0.31343165278780133,-0.12350684369887933,0.44086829017100804,0.3632417915601045,0.7633552887471005,-0.787766219081853,-0.6633915145295544,-0.3638777327972706,0.5196745110862485,-0.5189948156702174,-0.2238886854623156,0.3705924645514457,-0.6822771043563606,0.6717975839792986,-0.8468787047791888,0.5060233979592099,-0.4854550322202807,-0.4283186567464933,-0.7428019223209391,-0.2488593057241546,0.0011852506558468765,-0.7639016367260641,-0.8637534254658257,-0.8760805061624299,0.4668107161297258,-0.5416464927382494,-0.634055478037397,-0.25974985044351534,0.7246898046081393,-0.3091881505192459,-0.8579971564838974,-0.009698430109516373,0.022480052826432124,0.1428164883197426,0.33960393536065364,-0.3740306444479577,0.7286131259930199,-0.5612071840936385
-0.8181456580665382,-0.44600470133994746,-0.24582700879936567,0.07581977701605135,0.3574050656995734,0.28214954114263907,0.240081020842699,-0.27923316746197435,0.28133894927616776,0.38832645159107704,-0.5301423718211203,-0.504039459208436,0.4709774842712693,0.32786911402068714,-0.6112369856943858,0.7753068648520366,-0.7738405459882319,0.33606923972766256,0.41249744565353424,0.48070532321214626,-0.19609755408320015,0.07415073782775448,1.0507573029903803,-0.9276182602184806,-0.7525239225293967,0.5172924632101662,0.48615765761659274,-0.11106878560349503,-0.614530806405337,0.4343807254857139,-0.5196524354189573,-0.6791313620117411,-0.12249505348521823,-0.4020170981966807,0.9395678363211986,-0.09230212749582664,-0.7188511786341598,0.8614037737771454,0.6053326162552034,0.341858296837266,0.9022141126553433,0.16111535356557702,-0.23261909041591783,0.5617931306550138,-0.5608531548817285,0.8775471136513805,-0.07290882526254205,-0.38881196868545015,0.36567887024718154,-0.11512487680572728,0.4023024380906659,-0.6422701897092449,-0.6297564858875151,-0.0918348946189363,-0.38190628710849145,0.5460780816266698,0.3029903080208177,0.33301271763879153,-1.0175520094870598,0.14925030795489286,0.06140680640764061,0.8374392881040331,0.2217920462151034,0.032929643474262686,-0.05430816320054245,0.7345097327936709,0.7840058960986107,0.5861780640767581,-0.9480953524907799,0.3497873235060195,0.6010306099304985,0.2122597690739152,-0.670705446117196,-0.08512194179465259,0.7664889513422605
0.2751454168623443,-0.6869190164681549,-0.4105125027727225,1.0422998542518092,0.7884332720231308,-0.7185792744256486,0.44676309660420144,-0.1396998140731007,-0.9538403972278066,-0.36579751197521465,0.566627494373833,0.6978042282744535,-0.9007979452441764,0.6325329540392137,-0.5679952939027881,0.08604594303816586,0.8658661475220617,0.26402618615662654,0.7850192427554437,-0.26795607694401374,0.24168800821240344,-0.7413990681733029,-0.1312467578884969,-0.6216550341380156,0.8733448305999577,0.9715709514603893,-0.023901704552533598,-0.863735119941929,0.5818517668144805,-0.6184347928024004,-0.28330113588407185,0.8275332910146169,0.7489111625292594,-0.2978815443786101,0.9585287730130962,-0.823537067353998,0.2903677108582767,0.5762322562538389,-0.7369773239250955,0.5313882367021202,-0.9337984457028164,0.7889609164287188,0.33549021836785353,-0.534382381476422,-0.5954106705962277,-0.38639289922237796,0.282635827695277,-0.6330205357072575,0.6270774089697025,-0.3172140016361478,-0.11967634227251042,-0.21225359367139846,0.9730696026452066,0.04358117457358117,0.8432804785974354,0.08048479667826426,-0.6121511834862385,-0.14559207105841937,0.19256952915906028,-0.7911835108275868,0.06909935313747824,-0.6335153534995958,-1.0135504789941163,-0.04848296770597495,-0.04633561565363589,0.2869721171047906,-0.7131882911885028,1.034207332090556,-0.7631847289176666,0.11573139531434416,-0.7150541220695072,0.07899080327428004,0.45902295477998073,0.3644804310602708,0.4627509260942
0.8857781845239722,-0.30503378675949944,0.5814403512481983,-0.45848848002420733,-0.1142737587866329,-0.35936953645644054,0.6805858819455989,-0.9819811755600784,0.7288112443047863,0.37690844206270896,0.7803942431478205,0.5072380788929437,0.31435912980255504,-0.6830742816798028,0.03436721959622217,0.20322279800229293,-0.29787690751054735,-0.881471356329889,-0.40729385850948935,-0.6195020192065293,0.43101938252029504,-0.30821472796926896,1.0053463408608598,-0.5714036673308991,0.14436517722764955,0.7941100281496328,-0.32893479165026906,-0.0858269454948905,1.0090606186456714,0.7327976259685601,-0.1018168543321432,0.214953229642399,-0.29191421615069635,-0.6906192105583459,0.4161918546233023,0.4407658209337771,0.9029303365917228,1.4655118609681017,0.23577360780747889,0.5568850129365946,-0.17939093795607333,-0.730335649735712,-0.702373082204541,0.05030445130282083,-0.802497385440694,-0.07693894823854658,-0.42606554032700855,0.555438069577637,-0.17540980549232763,-0.15005085838503768,0.33223065708997945,-0.4881595220843551,0.2494406908581336,0.1778971699069854,0.23073952043857404,0.19278356943522365,-0.20189489995285984,-0.23112110185620224,-0.5481569751585064,0.9463735891515691,-0.13377986733340125,0.19744715422950795,0.2528577663375464,-0.06896520549520778,0.14485825724486293,0.4993103978463083,-0.314644850581559,0.8612255070871132,-0.07492027477842103,0.7134502109495098,0.654351241480745,-0.9926017574681077,0.002349803288050078,-1.3698031202357577,-0.4075776674529957
0.3415038831802062,0.9034921633557506,-0.7063935820313971,-0.2254076659852998,-0.7475277554516286,0.5497172574995208,0.16847787857700056,0.284081877809848,0.3824875510593595,0.9887570664716051,0.19420867922761453,-0.09252232238156576,-0.8690510346746657,0.401570540416556,0.6568780580096742,-0.5027613681866879,-0.1317888904276904,-0.6426473297962539,0.9431401326405292,-0.8035009908290732,-0.050195941307397976,-0.3531560922636998,-0.04338072908587185,0.9788843598598714,0.01593877233698758,-0.18833916417708513,0.34657528876050436,-0.04703793369819066,0.9440340279803571,-0.5837284712761969,-0.7820960714264679,0.2862658595724162,0.8251307767807049,0.011072009006579165,0.47205901728763305,0.23865809288582568,-0.6029866112122134,0.245082734562203,-0.34366815377853477,0.9208298641148799,0.8795143003289171,0.2539852904615221,0.06929896843688198,-0.4207590162316607,0.8931490263473014,0.8187258301688,0.481614463530597,1.1811353770245374,-0.7491044951364928,-0.7566715174880511,0.10642339091506832,-0.23161644256775557,-0.4245012521198782,-0.09770811194215237,-0.33441958558290974,-0.7359634623753852,-1.21612774773803,0.24671413262859185,0.48726931153418046,-0.7945886694848381,0.09515778236472405,-0.9986276275978799,-0.44826832036732417,-0.9127233528607185,-0.8126087822216039,0.2814912749243172,0.5039290825976962,-0.11150998929904168,-0.32792055292577776,-0.8058978038152024,0.8316801326826545,-1.0455789576308907,-0.2847905188484763,-0.001002193866506183,-0.2497033649427651
-0.6371664175901994,0.63520754970581,-0.9157844996870319,0.6663903868105058,-0.8162816593822331,0.746902508128548,0.7443079116387492,-0.4075090148304949,-0.9671668200490522,0.9667434262522848,0.6418677190937903,0.9221044462151012,-0.6476798116533574,0.9971325269502448,-0.4953792849224126,-0.7299982926676178,-0.8231024568960388,-0.6829456944268635,-0.425356501693031,-0.5802968084576988,-0.35655364847291343,0.011927715371140138,1.2960665017770623,0.4116154171961582,0.7012017161671363,0.11936621689125416,-0.9324236827156042,-0.018291248379361316,0.3015535543677754,0.8634471924677242,0.8244083069518239,-0.3127676564245369,0.09077857107348887,0.527810089669236,-0.7148163398021274,0.09033201566061645,-0.9716919237635474,1.1375172097409794,0.24021662478496728,-0.11330300606674308,0.9934915543278251,0.8911306472075449,-0.6057905110146491,0.2561847155694047,-0.6248862422681735,0.8506172586993762,-0.6861913825017194,0.12217670326105969,0.5320289946097844,-0.9028578067282237,-0.8656838660766771,0.6333799207427918,-0.3675879874422252,-0.32575729904977513,-0.8501153383744511,-0.07412191493765936,-1.3965040563623077,-0.47765973265750483,-0.9912161747119924,-0.872497035827816,-0.5308588820516977,0.8787841758671888,0.016956368701888054,-0.8956675137220401,0.41369886925050103,-0.3329968178735802,0.08016950794770127,-0.3315406209631392,0.10551664192704746,-0.582837069011615,-0.7062494953627094,0.1277589268329349,0.36975463130438957,-1.157193847961681,-0.01948117074666705
-0.11097140027817239,0.8898538933476535,0.7994965681226691,0.48395608392385586,0.014484578895891926,0.7586020120572027,-0.5901055458917002,-0.31706475105262333,0.9130867424978293,-0.12235809719857382,0.2949481237477315,0.5887110943305291,0.9567108428370358,0.760368572862355,-0.013207519917336458,0.7421358856739143,-0.7540600099419372,0.9926619859539003,0.18514038632518678,-0.22988590603739323,-0.6703152220273415,-0.7375792002672155,0.2107214747110923,0.35632296328055646,-0.3053402570725834,0.6152330349168522,-0.4052949952314091,0.8736012416064014,-0.3374622913087303,0.7382476233626429,-0.05995239204250921,0.4240744920318945,-0.5217807601263148,0.7773748247168861,0.24915061330163166,-0.44912054833151865,-0.8588372820111123,0.8520144120194355,0.6454096454690895,-0.93156118704709,-0.273046591832125,0.7478769052839616,0.7337993889875778,-0.5391464284030437,0.7795020603996563,0.09713804266185844,-0.7010645036212437,0.9390664000344981,0.42309321530149235,-0.2749039364855873,-0.9873744293602679,0.8155219136962552,-0.13654692959624687,-0.8426961900880223,-0.8980929671385296,-0.8135849598791016,-1.474923584032189,0.33179000130524733,0.037458757454030364,-0.5232326635894178,-0.07898032383867264,-0.2105964983692788,1.025064738873558,-0.907537282258682,0.2745018578217848,-0.34753892737055536,-1.0253167988072918,0.7149874005425866,-0.9560458131100406,-0.3123193564517196,0.5456397526885328,-0.7248498364993022,0.7416891109543214,0.16899133558490678,-0.868507750232481
0.2150674898684927,-0.6124287660654102,0.5680466278552817,-0.011419726479564076,-0.6077547481536091,0.7264779682057113,-0.21182875545266097,0.5853019212495965,-0.994253283810598,0.2797648459763843,-0.6074546770276641,-0.586453142528052,1.0008306435299208,-0.6830755541605832,-0.7994726586177844,1.1697809632942997,0.9621305475385393,-0.9360547596893164,0.2704815533602732,-0.09972755132094697,-0.8593619111105175,0.3930614895434154,0.7524068623764746,-0.959989331650781,0.9342970629427234,0.3539841933450298,-0.34310742610553024,0.4640645331578717,-0.280008347750476,-0.9869110801496137,0.12730831095858555,0.761409044070147,0.9765794429271007,-0.23965257807517523,0.14954993219161303,-0.49422003623033206,-0.7347998727569509,-0.17113995486761238,-1.009147074687467,-0.528943394619701,0.11385272732290842,0.5299922197157079,0.1994265741435977,-0.2344988279144077,-0.13414716369219615,-0.1062649229201695,0.19769377771170854,0.036381912876341065,0.004083989268054821,0.5486331902679601,0.12556555879749043,0.6139186756028778,0.5469689612484383,0.46025009974586617,-0.3582827065464062,0.9792320878685299,0.18636475245333192,0.1702196972342292,-0.5776849940992682,0.5862176344316204,-0.9480181877383224,-0.7722385856786911,0.7484168987597103,-0.576840457886159,-0.743525597883437,-0.9061985100207276,0.2964539664866269,-0.23508457897648286,-0.31551542951688505,-0.287746615680496,-0.4617775300984271,0.3870378320502009,0.6930135739528301,0.32021860934477087,0.42198188256941366
-1.011710697421575,-0.4294933820371642,0.5661369640935746,-0.316512283997098,-0.134796062245445,-0.521868004729445,0.42036821035696464,0.09117197002901826,-0.37001273788942546,-0.7770575603507585,0.9727148662543651,0.920365213797521,0.4493350567711584,-0.9174388736623871,0.10893525327785815,-0.5375871097026704,-0.6972502172517101,0.5341317797637789,-0.44316339922595366,0.3232298884263869,0.5987832402084188,0.6271228454651632,-0.42512595382150864,0.09124633662022379,0.2845732229784755,-0.6754258959997811,-0.3934364883175136,0.5175891336770903,-0.5233499018830926,0.7440199225959805,0.9166943302222116,-0.7152540756447137,-0.2640206111414477,-0.11326849575756553,-0.3830485332813724,-0.5464809760184406,-0.5720830895336075,-0.33608149774611235,0.26361999786860885,-0.3040333054539121,0.865704877027399,0.7834546157803527,-0.9327498268199327,-0.7809172413466964,-0.7470007901253405,0.2595173446343123,0.5805877516209574,0.6175648903122103,0.49654042695551065,0.875020199163183,-0.28690007420752567,-0.9888552274508173,0.5624169007322791,-0.7336723242282972,-0.46299876917319993,-0.5222431021186084,-0.4403782193865333,0.8585731580547454,-0.7295596613021689,-0.6507092757828957,-0.7174653294922765,-0.09127350834552217,0.519664774792534,-0.11052276766557635,0.867144949292925,0.2844639859344113,-0.3032929525052275,0.5830538881169285,0.45441640790380433,-0.5219670782159471,0.4129374918808827,0.6360033653198054,0.2594137355618562,-0.8050324813130187,0.08543505300537309
-0.42108872207783726,-0.43148519459323886,0.7506803773371034,0.5691327617818613,0.7045947791330582,0.5735235880474963,-0.6489760341481697,-0.48973978904738175,0.6750498563939781,0.25928606785069763,0.4608842452690109,0.05332370598546775,0.46303652243352195,-0.5272217166619835,-0.6146098971985836,-0.018986098432067996,-0.48519201176425036,0.9864235855008989,0.254190504566083,0.17910478421935577,0.7508480581198543,0.5162495551598307,0.6348751276430676,0.6936824452983789,-0.10625170463006434,-0.7463483039691974,-0.4873921845708757,-1.022549567530568,-0.3285911172279062,0.6172582483725196,-0.6947666872265968,0.017662951515805627,-0.9295292513447421,-0.38549778409314356,-0.08678721269264665,-0.377184040330006,-0.33405025311751285,0.3175462713867047,-0.2097516117188876,-0.6622711748653134,-0.7569625528961453,0.41610234117640116,-0.7588469205279537,0.29578187039441883,-0.0527436043089271,-0.6238506403692711,0.22243141311717593,1.2853401780166662,-0.9127016500822916,0.13384923995984632,-0.30808614325542594,-0.05459197907429292,0.8586476838555595,0.022107496882642033,-0.6450703373033753,0.25704238941568663,0.09137102334124383,0.8888619819469148,0.20662934574576053,0.9495719685499996,-0.9568599235235267,-0.8718988998257853,-0.198933633706301,0.5819585448042738,-0.5021375577632864,-0.07521846721688315,0.4619871361926023,0.22854397982206254,-0.8153569817170415,-0.3788071686920728,0.4042089599967864,-0.6717788630049201,-0.3841716655904019,-0.12868871817190003,0.2838944693148338
0.22812584432088528,-0.5669698824328926,-0.19732579274272,-0.7907957574120774,-0.4978221687369454,0.034992559708504775,0.5894530316180268,0.06089793005510882,-0.9976233037830182,-0.10650468497069872,-0.5943109218028682,0.9381086448173401,-0.6202167102216685,-0.7546585046669481,-0.6137025632182795,0.22143049433495982,0.6491685210605806,0.24021976668865655,-0.6125247322880147,0.7434457999771655,0.5851305521980695,0.4199909165397489,0.8299897040167448,-0.9045651344699441,0.9667484495284566,0.11575284189125143,0.6220351765988922,-0.047666447354909,0.8569263746036562,-0.34194427557899687,0.24753364745987294,0.5203571888888433,-0.6054839004843465,-0.43928019630615334,-0.08168950967480682,-0.4380355947665576,0.4959683968886324,-0.16021529538020296,-0.1154924921893689,-0.3812402196982031,0.7038792613929992,0.8216266355283987,0.3083442469624452,-0.26512794878756374,-0.30664883482927235,0.042031382417941715,-0.6180974075162251,1.0220188852832535,-0.8209700111882489,-0.5214756972340288,0.07545832652789397,0.3303391277917746,-0.23427458117795022,-0.2324960853085374,0.11199506587967986,0.2579002174251925,-0.1450928267976776,0.9443891110761128,0.4661539785819258,-0.08387223416797858,-0.7688443367724574,0.7563453948676837,-0.765132862480326,0.024081262329915924,-0.810844855385097,0.9479855679100432,0.2489825812020018,0.7403034475222003,0.27433830800543374,-0.2509456129044274,-0.1863014385410415,-0.5575818853315524,-0.27328157529417574,-0.16150450145023632,0.9211250684797557
-0.4020976091547715,-0.2970333467751015,-0.9278586304608211,1.0805417688074805,-0.5340371248011234,-0.37678959292091774,0.7384503357725539,-0.7420114730681273,0.9557203158612674,0.022378147132190617,-0.1700821450947516,-0.5750261370534586,-0.05330603862566962,-0.5472783826750736,0.19266735099383764,-0.4657694056748031,0.7408665446395907,0.49927096467785775,0.2880028755860366,-0.016042199209366836,-0.3909728709047452,-0.2538408421604597,1.0662171804983904,-0.6181351183297622,0.7767356491610855,-0.9186976815456187,-0.8187605225257917,0.20105446154592932,0.39631020612988704,-0.8481412018894131,0.9267853307395898,0.43118823021271907,0.8060191523576214,-0.00615568992591847,0.0239150010881259,-0.4576579192112826,-0.800022317924515,0.3870832271697218,0.8738979288935328,-0.28662348887706346,0.004581815650726345,-0.31676072762234136,0.5485867862654903,-0.5497494377387813,-0.2905914187393825,-0.2645868116141721,0.9115533136544842,-0.2855204811950026,-0.7547886637462686,-0.9850957891572761,-0.68396082263268,-0.43953128354809173,0.7514329379515436,0.6683776996105523,-0.7609179210080428,-0.3107784904511407,-0.24412769023775382,0.26420972585667585,-0.6446991234287924,0.2894996235649699,0.1440589787785233,0.8029507433329858,0.6495209026523417,-0.7226571190072973,0.4664631804565951,-0.2586490984318263,-0.3849281620840393,0.3306568398755595,-0.7298094773716443,-0.9554860080111799,-0.39588013157208535,-0.36575847074188544,0.28754661938673093,-1.429782445983033,0.26647848833400417
0.712894076488039,0.9138699267508462,-0.2084832109404311,1.075619489633381,-0.1597709183660695,-0.22176594477770184,-0.39073381409364843,0.47960609105987523,0.5693663263199882,-0.07875407626179225,-0.29840577173764593,-0.13293642835935127,-0.7029786093323325,0.04728913471095756,-0.8082271525404939,0.7212905240522375,-0.28854872286226546,0.2415275540347747,-0.25262559022101966,-0.6961159591902693,-0.871751353636366,-0.7092567546279845,0.8995106265382431,-0.02636017298199927,0.6420615606336578,-0.23571320502841478,-0.025560256247036207,0.7281405808217778,0.07390137203516549,-0.981459329745347,-0.17018160585015618,0.6467668698827126,0.6294986470353447,0.1745280922622727,-0.7800076747682809,-0.5724448473884223,-0.653140850022715,0.1259323090092207,-0.1501223299213187,-0.26236946174086495,-0.4320739427279797,-0.5246144356588345,0.31743681970496346,-0.9291218105555014,-0.058282727728853644,0.06378845094240351,-0.07459447166461391,1.001607220122463,0.3648677738477784,0.2520272598758035,0.4038454030734865,-1.000046441229538,0.36892961696402565,0.44272147108111043,-0.8207080110662178,-0.5621993003482431,-0.7867381893763346,0.4813956110068558,0.6051353203912687,0.0071727790858118826,0.7908217866911729,0.28767678134808133,0.08322330689285395,-0.6391445659066515,0.1748754782146468,-0.8627513068541857,0.08139511363075516,0.9081073395730993,0.9397204154606509,0.6587202676796667,-0.3030358255422348,-1.2230694222493346,-0.40441505007917217,-1.077401055542848,0.0014669895433572287
0.4622736712734062,0.965680204901652,0.6697882720550645,0.26823332997411775,0.22307995862233065,0.22974157957776908,-0.6595850741182195,-0.6381393120570645,0.690374521580006,0.12987843619727976,0.9990389449658443,-0.293238677134035,-0.6653173123526952,-0.966321580633704,-0.4504821859006737,-0.7198797002740881,-0.5595658945220909,-0.9067793013099068,-0.6967188432462386,-0.017786758695543685,-0.6209226218805721,0.36529630297348537,0.4949295473697546,-0.49881463399441867,1.1053909013592145,0.5682760429976195,0.5597549966003288,-0.768559817628163,0.4500939219817624,-0.013206550031589222,-0.9595664049370699,0.9851757816797113,0.818751846020886,-0.7041473654076235,0.16760291316328885,0.43541540965313785,0.36885859102661944,-0.03556718099057107,-0.24350028568935148,-0.20024565970591293,-0.7024027950662355,-0.7546705552965643,0.5022573434055603,0.5672701937969263,-0.8712533437829983,0.04180806505795123,1.0040606320342567,-0.42930225609433775,0.9020079806020522,-0.8248992950200982,0.6026874590072262,0.9298315210588233,-0.3287195382616466,-0.29978379709686087,-0.9586554479980777,-0.5077216190259474,-1.2777866630000039,-0.7819568490683708,-0.7076923980840931,-0.9542965979236451,-0.11805912732170186,-0.7678733555123533,-0.18648443025250788,-0.5590343684636074,0.48817125420654267,-0.08249139905489201,-0.6493209853710985,0.194086620365043,0.8601518152572492,0.3236260651807747,0.2982366029368612,-1.0403953230518095,1.0349148523372018,-0.6477828634050169,-0.2087583717706686
-0.9911115526596407,0.4431409825551226,-0.2092622050416398,0.38585633256810214,-0.7020556044408556,-0.32295020247104306,-0.1590729455795808,0.5104719092914038,0.9289729429154615,-1.0031846176466108,-0.4569639919936306,-0.30563056449085446,-0.6623245159775768,0.2138525344062434,-0.421799017900434,0.6725804156342824,0.11497121960562996,0.6754086737222599,-0.23951154147118767,-0.08798990685282883,0.4390287989862788,-0.694118782983089,-0.12471955580800215,-0.6137930413496421,1.130886436353557,-0.8648087507118059,0.8935054111846334,0.9491801466720108,0.4684333620647832,-0.3916378066889043,0.5711218331625237,0.45942712140675324,0.38803305893174006,-0.7411324504285632,-0.8594142287762979,-1.103039375567535,0.4218790476259471,1.1806562716226956,-0.26367491222243294,0.603831602240447,0.04893860474194431,-0.5729278525296094,-0.5927587560490353,0.6712106279722462,-0.9611379514578028,0.25696016541227884,0.3407140015908951,1.1623087898139852,0.30751416233713,-0.5213344326041082,-0.27080789468299127,0.47236812403337675,0.9936418375267605,0.7477565321534578,0.5936972170610119,0.42894614969652195,-0.8405363101950675,-0.6140727229105402,0.13450368108381663,-0.6525775388946683,0.7448000572123071,-0.382728443350427,0.7724688708649423,0.5558925961948366,0.6032934406097703,0.09342051866699866,0.8700068650020654,-0.7545122432368518,0.4143796106999698,-0.788807823490199,-0.5662124074996493,-0.28019914383272826,-0.004826518581052239,-1.3795714241216106,-0.2416657028061949
0.8405393733285403,0.450994311380185,-0.26664195961216125,-0.2120222707136871,0.4574394656845874,0.8403545009634101,0.4824503587580481,-0.43364877118526085,0.5401096160374498,0.8151987529990524,-0.25831437046113237,0.0148928175143501,-0.3413785175515719,0.9149046003037995,0.30826075007460185,1.2038805436607984,-0.6456820418105165,0.5031577503529652,-0.7241386223263929,0.5810470090906452,-0.042262030147409126,0.8631033617993695,-0.5946597304128417,-0.04532318318310387,0.5672407870159277,0.03639269965875952,-0.14689151069968068,-0.4676407762295445,-0.7576068320495344,-0.24697378122259225,0.6053663110777296,-0.4973844087169494,0.4892371043056765,-0.591108508635831,-0.12885016065538463,0.06842227558821104,0.6309407475079615,0.7130495854579484,-0.7734714253504203,-0.6267148855263933,0.8088434978053429,0.8010589711191842,-0.4508396099797935,0.5266549902550629,0.8137777998489621,-0.8933042090661375,0.5604561834351011,0.812022853369189,-0.7929622465057177,-0.3842300477294462,0.5330308574347228,0.6714370543805233,-0.8000306180119598,0.18693929781085955,0.46236112501383075,0.9352442138379431,-0.3382720685549234,-1.0016810334293778,-0.4177409341269855,0.32226449789605033,0.006771414927854703,0.1518894874491849,0.23106005114859046,0.8771245303753157,0.44846058414339623,0.6491136349860923,0.3844412936975383,0.4141945552011836,-0.7180602773490028,0.982710912673647,-0.4399388906525491,0.17112435906693552,0.43254089367899456,-0.4732013845361427,0.5297590459566829
0.7346180648936464,-0.7557908304889379,0.5799410024036231,-0.252006684153356,-0.9027464122421809,-0.85758897188405,-0.5760746272088507,-0.266677888070385,0.40171247385639547,-0.15590087103327713,-0.5738547133880714,0.273693896454163,-0.052336067631665185,0.20468369746618642,-0.8931712730103515,1.178947423318357,-0.2944978498726997,-0.8157971043531405,0.6952148991637547,-0.45827444222647845,0.5402743976615153,-0.3310481977627647,-0.38891573665870893,-0.4372160194503936,0.8194755849210005,-0.8381820840994605,0.6905117725983437,-0.9689580391771125,0.7773627927986113,-0.1625527200092923,-0.6778196881632833,-0.661500634607975,-0.46045469129063804,0.11519433733052489,0.1436613419383396,-0.9782249564129407,0.2846983749414202,0.484953915487781,0.2184296280323604,0.1723388219246871,0.8849578706139164,0.14680002857037974,0.28901566186894445,-0.4763090994771253,0.6074538301051822,0.2803408173200218,0.17375131972684663,-0.8654744307731481,-0.27350960074397535,0.14717390785851267,-0.288761033931329,0.31813442278161597,0.694200123474025,0.11796826890708974,-0.5365272650464346,0.4137722770485366,0.5619138705598447,-0.3656538166579485,0.24459261475889219,-0.6869166552374139,0.1961591826080717,0.4699082517294884,-0.19016547888120722,-0.49236210792050517,-0.1837487452130787,0.8321194664677389,-0.4791395117122138,-0.9983529742115067,-0.7058779944171889,-0.6144901825484563,-1.0772183543839924,0.7408153802039632,-0.11188082709319096,0.23895142981577402,0.014152118800732945
0.1690855852227512,-0.304992689631181,-0.21753674437195558,0.7456251068960468,-0.7168585710120774,-0.41968790679471096,-0.7779887479490661,-0.9668826841819145,-0.3447522444838544,-0.4860412031806284,0.46969308273637345,-0.9133307973686532,-0.16081505087536663,-0.5083118839620262,-0.7886316253484316,1.2022087476537289,-0.9072312054020624,0.9069199694037329,-0.6824298397569467,0.2633470737873091,0.02844650800719039,-0.42035840456289836,0.009039381935867499,0.09853100026420801,0.16257062960354923,0.6445527899232147,-0.05860473983496663,-0.38367206607453536,-0.6808022542174854,0.7107459192641088,-0.06712925192658606,0.5669167687892969,0.8826739599114584,0.8604218683966717,-0.9837419903746879,0.5866987800923459,-0.546565408136171,-0.5636204037992587,0.6863924442001675,-0.11528911135557401,0.21899500646961126,0.5506370745193842,-0.5416428685028458,-0.5302986133276746,0.7274643813297639,0.2157724950206164,0.7780800277102518,-0.1285484080075311,-0.16764076327998578,0.9299812010084959,-0.2377720679202152,0.6611926191485089,0.7643819388347772,0.3895274439641203,0.34267291737489375,-0.8410490958140239,0.6762617545155037,-0.3597297414679024,-0.7650962943116495,-0.64668629966993,-0.6938432058261574,-0.7666493318335583,-0.9907858251271269,0.41239322353687263,0.5074031073535346,0.08568212529345733,0.40785176921215854,0.6569387175500345,0.42386594814876216,-0.7029812234374213,-0.25235742069405315,-0.6868810380096955,-0.5978150606062417,0.605858106973621,0.5859128459270168
-0.47173239091490254,-0.14318225067591336,0.2557567596492432,0.6797178443678434,-0.04642395145120425,0.39076571620447326,0.1559925896285417,0.36605248694621,-0.31972691065846587,-0.6813268244684039,0.08643224109973734,0.6195267141788169,-0.03620860096016334,0.6758849763550104,-0.38199936081554753,-0.14052202294391053,-0.8821657755150654,-0.005890070578895775,0.29525903341374243,0.8011089412826481,0.5446802013978975,-0.6172368519852585,-0.6721238151946574,-0.9285845445919562,0.8276675405467951,-0.9449372201814895,-0.08504160813488745,0.9355911858613214,0.5611565073582229,-0.38684023334330603,0.6088420834632341,0.3290217284410881,0.8573053991906594,0.49335753258612197,0.1566776181132884,-0.0047186928025702325,-0.6255788346182469,-0.09247280902185136,-0.5596589794396412,-0.0158341699881886,0.9157055339099568,0.017194903433869736,-0.505228955350042,0.4555263593876105,-0.2056251293981165,-0.1578246158680088,0.6343503065343828,0.8970629464074157,0.646574475902113,-0.9862827573937788,-0.545890830881836,0.44458561389106405,-0.08654997777604818,0.7442848285587723,-0.9233865152780067,0.7572128627681218,0.7985458033364553,-0.17564213733904266,-1.0322773832985404,-0.30117022285300377,0.8469108593183735,-0.033052170503606745,-0.3722562640469688,1.0100535879946604,0.8380089346852805,0.5544981518639283,-0.5268742901382376,0.8907750881845232,-0.23332536213033928,-0.8072467021297829,0.35505852077821654,0.18503734377101524,0.56623631011135,0.868523275205669,0.5758822851688149
0.6053619622603159,0.45126861053837053,0.6696773050348569,-0.513889998746618,0.4451135264362931,0.24150834479081634,-0.6332519102511409,-0.6700606639096666,0.273947709024294,-0.3116866429461922,-0.4210419057917932,-0.10500585828194246,0.1982597608973224,0.3539579613537611,0.6569052224887929,0.2468550903769917,0.9777893268818689,0.7100796198764451,-0.09402425150017983,-0.6296944885366051,-0.5424758332531496,0.39846972341457904,-0.6168963201314023,-0.7986440619017141,-0.4816337770389378,-0.9738271626307687,-0.9233381290902904,0.2683296886336755,0.7115431246172049,-0.9739954289556365,-0.8552613539851988,-0.9116497624997082,-0.768476891160415,-0.7338513527799937,-0.5071168060531112,0.9357101799362573,0.17920992437208003,-0.9094219398453973,-0.32225645227375016,0.7686997293660679,0.4150333754973498,-0.03962342527214672,0.018100323047826047,0.5442757244704679,1.0292617326457778,-0.5276739060556209,0.4752086687308996,-0.97874524311464,0.7671084866852359,-0.5422800319473741,0.487645605504451,0.38715733750219256,-0.35896384106460943,0.2800326684246107,-0.25503766849661963,0.6987021934499047,0.1801866223848991,-0.5619340313407993,0.8878346528323919,0.6156599677540152,0.2910374145984664,0.6150018682689148,0.47026235334332456,0.6725454013488382,0.952289446138333,-0.4875480644136981,0.26851517150335874,0.7370779902465409,-0.1703274659952514,-0.1467153591496999,0.9052713500827146,-0.9098194997717425,-0.9672944758138288,-0.40255945107109276,0.9892308320456847
0.6657006341946954,0.3641006598912911,-0.43547200944155356,0.6090019639809651,0.5167481526694079,-0.25959765551057506,0.5588746572588854,0.535778474164856,-0.9863942553843175,0.6839398392973914,-0.1262046568519499,-0.14434269124236618,-0.8496319578814187,-0.3976318686584505,-0.8729938619815307,0.5731899807431038,0.9770055359986274,0.12182690022663224,0.5932097397088324,-0.8486457236218324,-0.32440413240975685,-0.7713094113983912,-1.0512693244426197,-0.8617353774532402,0.5582668397322024,0.9250910287278866,-0.8188656739576019,-0.9675848943076072,-0.24475019628701644,-0.9192301530900434,-0.4747724160634424,-0.7262534607509181,0.15525508954295428,-0.08125406948865777,0.034019944416610326,0.44944170700560243,-0.24837683905971886,-0.8242264336902955,0.051800171185094564,-0.7358554154612171,0.25097683646823576,0.82590114194867,0.39546564461802797,0.8259929030505873,-0.2296651617658442,-0.5775126517823423,0.5576425383758453,0.06868003000191732,-0.09851526400892384,0.450814614671433,-0.3593475385185812,-0.21386152065126743,-0.605978872514383,0.22198986762981554,-0.43619174524702053,0.9501429460610308,0.18877694302553696,-0.559746552247014,-0.05145755268911171,0.5347897371666621,-0.04094748519484049,-0.6762084480399304,-0.03126869421709592,0.42073244776602986,0.39022789212298037,0.8157373642783259,0.14133287075353737,-0.3426619621018038,-0.7855163248303857,-0.846120810605991,0.3586082031782225,0.2450057612911065,0.6609432807092543,0.11483594759081173,0.22056509163109447
0.9580974177730506,-0.50936503782877,0.2923893712490893,-0.8455632763394832,-0.017483505131182887,-0.06983658146420872,0.35116965032697284,-0.11460393026059965,0.9603966875915675,-0.905921002166456,0.6138878481344303,0.2136625652681261,-0.0484952976544007,0.03565514096874222,-0.13571296809804403,-0.7107293684472376,0.6632780848900544,-0.2797572304252427,0.13565001227953974,0.28498387933784414,-0.4610146745636084,-0.5199392783923613,-0.6653561075255162,0.8631026712182872,-0.7520955427248909,-0.2646971320636787,-0.3528131363547193,0.5363741680345171,-0.6388770858404405,-0.720155928528692,-0.02953836617321906,-0.9373903550366267,-1.0560830366796887,-0.6473905288211282,0.7234427383984914,0.4916922861143626,-0.654751213542042,-0.6833732221607993,-0.019349604737024753,-0.40609216002804693,-0.6058856061228243,-0.031219022724859668,-0.11961249359127014,-0.13321724547664204,-0.38292027207654167,-0.09267160913748608,-0.3576471607215315,-1.6231799057628142,-0.08361386500526959,0.12823823338198684,-0.2530494690811764,-0.3165405402758989,0.28935934804445984,-0.9039606855950438,0.07885545631444636,-0.5915134181558543,1.3704647730429638,0.3502495252349411,-0.2843245839711325,-0.43351578325366946,0.4360368787427763,-0.5179560762553194,-1.0477391218813314,-0.5613770923857685,0.9375438661940624,-0.3497000220386653,0.16930050880165906,0.8780685449118352,0.4779182442601748,0.08057811919890129,0.07889928388196057,-0.06857896057053454,0.08331291334702481,-0.6720820547162305,-0.8737099938526055
0.5155100063147542,-0.23779024369377205,-0.24949029181811877,0.802961184642378,-1.071409079672633,-0.1272161362342706,-0.051942784119894,-0.17207263445095797,-0.7025473437100154,-0.8587953325120009,-0.5117447953920493,0.3550339369455108,0.2715132480643523,0.9206489184341566,0.8679686861986079,-0.6533835230201479,-0.9345707887794544,-0.125284524290249,-0.661784485129475,0.4014219121418215,0.6340178880276591,0.017331699333159794,0.7762409671366813,0.22262467990870727,-0.48485126933878864,-0.23950048710934801,-0.43692090205029,-0.025504473351292575,-0.17887667101559193,0.3380585362291911,-0.7829231768491836,-0.7697244182570913,-0.5538132587274893,-0.5296084361250646,0.05769652547721741,0.9815184200261767,-0.741401090641411,-0.39074894718831643,0.41681443298712684,0.1151113378016168,-0.7972715202389045,0.34440927009164035,0.25765929554972583,0.20390330196412215,0.1594795658937354,-0.9668064706213048,-0.6099143163597515,-1.1826329371020794,0.8304657253906055,-0.7567694670779872,0.44588361908568136,-0.08831099582637633,-0.9999187671375792,-0.2019025173311708,-0.6772359121627971,0.746145444334162,0.8970884288566796,0.5678357314979385,-0.09295192905071917,-0.7349271360404309,-0.5596696969340544,-0.9012723567979826,0.7913240650543331,0.31410158855992654,-0.22774587538448016,0.2192512194696359,0.5588088082125668,0.7394290279702623,-0.8954484242996468,0.3656901921844586,0.4290335973564614,-0.5182057833534833,0.294272853096005,-0.17710749533493442,-0.3924061174760839
0.895833772944796,0.8638324559595363,-0.5108937758491501,-0.41328057543440516,-0.6132263992139005,0.5880665871665276,0.5381548258834825,0.84366876655891,0.033807602117746305,-0.7842154165127475,-0.5509783088494016,-0.814097433387599,-0.3172529974035973,-0.9070281338601266,0.6997199452369757,0.6730352510206191,0.4372317962588413,0.3654144926329438,-0.015409231864551828,-0.7308585434371424,-0.8357577085223747,0.445477076810293,0.7325449824405132,0.016074117307294855,-1.0159757011930035,0.2536042474627245,0.6286370623633297,0.7605474008614064,-0.5118476778488203,0.6265842348890202,0.21040140724670411,-0.1386679734906756,-0.3477348921401065,0.1425657535279219,0.9459573016303969,0.8961909689276657,0.48336740179095006,-1.7904414847568868,0.9265155709623405,-0.726153966081209,0.6853279875911077,-0.3622818669398533,0.8559019127379859,0.6604377336316034,-0.827327384742385,0.7731774366343149,0.1508666781859491,0.15445766624262297,0.016908482920351645,-0.4961560029481292,0.5605717530266775,-0.7489401974421728,0.29746602735305877,-0.07774215616896009,-0.4005854754795548,-0.7562988039530224,0.0464994128594494,0.3794860876202908,-1.0030197697226493,0.9231096622211458,-0.8160775341248381,0.6894758699795047,-1.1604851728205585,0.3510094096813155,0.15493766934102982,0.20671237029514353,-0.07646024040200988,-0.865412874598869,0.42381669963851204,0.3411223021558121,0.00810037534863082,-0.05743781071780673,0.08493815210922012,0.09042226917948239,-0.140576494839632
-0.5501364114614212,-0.3767934269275603,0.8496293245178251,-0.08403673901105133,0.42335646879158517,-0.08931360620998767,-0.8585312381183049,0.812351527291953,-0.4579942336660356,-0.7371827625800321,0.6494824835056748,-0.9431068421290493,-0.8822730481060675,-0.17387488673020987,-0.32629023666693263,0.38813669518901345,-0.4916673493625296,0.09400333317645021,-0.9153425613476933,-0.1761504235027492,0.8589827229879154,0.02104279370225497,0.6169713641639388,-0.9493614917148249,-0.8822011749006764,-0.30231418747580124,-0.3918590418130985,0.06958336427178469,0.006551247559186674,0.8942930651581015,-0.9355145840003699,0.8173733835556456,-0.7414861232937152,-0.5361589522896052,0.5581380964383412,0.5570463853931775,-0.8307929203392264,-1.9485684534302798,-0.31501402286436087,0.10583480074310113,-0.40477489254219434,0.07482941185018674,0.5292850763850461,-0.7751401206069147,0.6345756848244246,0.6779291033944692,0.9503870156701821,0.09755256867975257,-0.3265909905515187,-0.7662232721162034,0.9782353937970504,-0.9802662742042457,0.309753895540699,0.49642239531610044,-0.35117460205103274,0.8009101851963176,1.8181178264792284,-0.04115459457887113,-0.493772569934869,0.9713460477090384,0.1236816421081543,-0.7337752692573073,-0.9338080913345885,0.14602012118350144,0.05446497338530841,0.8148047170715239,-0.7294621171105483,-0.5384010429900106,-0.6853688991274343,0.4260100177798182,-0.2737378743893745,-1.1200827871773194,-0.24290608681127915,0.63921668326246,0.3118085572788189
0.3825892917884467,0.20213363271993617,-0.03675044418419211,-0.8020889203290504,0.32140031837695426,-0.7535658838105038,0.4079696760039883,0.9849961946927236,0.8618735906570338,0.27208100590305623,0.3483883498308696,0.47774042166280023,-0.9903761308689796,-0.3988139990072998,0.5166923743837861,-1.0461656953997245,0.6843146896881924,0.8266766167613243,-0.2842802011101621,0.020345689249779756,0.5236549445065809,-0.25788495065708844,-0.5187704709096697,-0.7563463070759873,-0.4408609005695712,0.30617225763077904,0.4042340726626878,0.13442816597821325,0.9543895972757568,0.9432782660946328,-0.3814126268823544,-0.08910350097078924,-0.5568478480340685,-0.7626084901862197,-0.9310761295783578,0.4663263899211044,-0.4868531636806612,0.07081470462132598,0.18874507168149973,-0.7942803591432146,0.1752858955297257,0.4805302936063047,-0.622636585843172,0.9498275039344107,-0.15764375906523517,-0.926036533391596,-0.735258207926017,-0.7577296790940398,-0.6755861306388555,0.44051263754340547,0.7724873430435949,0.040180677848063034,-0.9791934030451684,-0.5548331566260916,0.2569896660845688,0.11821306759129267,0.6507753181969281,-0.9996360678508014,-0.059252374830885426,-0.25643925543195867,-0.7292998017350728,0.4613827234836109,-0.6121767518115265,0.20454923837884714,-0.18432482204573183,0.47446512538234586,-0.5138027400436307,-0.8868308813176421,-0.1594073862864998,-0.452636402819081,0.3419397474694223,-0.2850093962944648,-0.7131019048831142,0.4024413969778907,0.11478854995454772
-0.7895718904624739,0.1367928650836953,-0.020054844339992335,-0.871589943750383,-0.942461480447365,-0.026125737211633183,0.6652909112669717,0.5027345616139494,-0.3430742891424947,-0.23530021591209221,0.9272165896343392,0.16457319860686853,-0.6144431261124819,0.8711517802551318,-0.17067797968649556,0.5998529636900244,-0.07644636752235924,0.033277712512633194,-0.7579735180749884,-0.8942134541780734,-0.6243439935170352,-0.10629493066200894,-0.6807707837240061,-0.9689219177101868,-0.9651896113921541,-0.11426246855223071,-0.7228726185463968,-0.49847413001968305,-0.9853737887110554,0.28408280810098835,-0.9287105228443939,0.9205068731244234,0.09822560111162,0.4632246887237026,-0.8345921444626018,0.5899328786952,0.9291814706418675,-0.045972304617359454,0.668765692716111,-0.021608135106177127,-0.5596502803590533,0.6123444779626601,-0.6247684281145028,0.4482893312775445,0.45355123529539604,-0.3351620259873591,-0.9311354676500888,0.20503296957006353,0.38313729957745635,0.6248612336099599,0.29638435804016877,0.9649648955279743,-0.28328844449852475,0.3568891266336358,-0.6845247397736389,-0.9890982108965021,0.905361600357035,-0.9795331954596936,-0.5687457592270568,-0.7180932343925607,0.10618618071152491,-0.9386444899820879,0.016104830740581947,-0.6197496520291829,-0.5848765907860753,0.24933356519598132,-0.08855742622813444,-0.6771072072110241,-0.39504413603893895,0.5562272678002959,-0.25215284395642146,-0.8223476785062203,0.5716182038054886,1.4155023655152013,0.126023411717592
0.6642690083559732,-0.47587387237610324,-0.09832817619318873,0.0381871091283175,-0.3552504615160276,0.8808874060247224,-0.21071364353015823,0.6452836054144603,0.8974918887626393,0.8926311977128831,-0.7386290539481414,-0.9497744960584457,-0.336902777852997,-0.12780986266341415,-0.16171012706133314,0.5588380696929804,-0.11811132348872942,0.7512460393883013,0.6594256943325819,-0.8694836429742414,-0.5109840038804961,-0.18440334555995408,-0.739072239897172,-0.2374165270252357,-0.4909815915193676,-0.19952469571944606,-0.24270057310080193,-0.4086782403903755,0.8239351154615457,0.31721874043930476,0.8546606389000634,0.2691523473931964,0.9090657521457854,0.790215609122106,-0.6069224378150985,0.29722962238854894,0.11430925844165017,-0.009134555332691897,-0.8563037457679414,0.28597922830562444,-0.3275837320296257,-0.9967800793621056,0.010591122585094061,0.23214515336521732,0.7541534999473877,-0.5861387392679722,-0.6715916610143547,0.14130707750551488,0.2588729394999953,-0.6137353767714354,-0.9234307031093971,0.1954338002473271,0.4090508538064349,-0.9951842784640816,-0.6842098187097233,-0.4820705585290975,-0.36293755418494833,-0.3137169243037723,-0.5346390246111739,0.2229033466025777,-0.17781557537682816,-0.26889581256388423,-0.22858695036797105,0.49630149471244733,-0.4318335649526406,0.12234300625883758,0.5389415650442897,-0.42363702741063036,0.17258670091308523,0.031561752847591454,-0.01640777877641351,-0.31006111732601155,0.5109147287184127,0.48746219363215576,-0.2334884958946477
0.25524874578934337,-0.7245042419020266,-0.28519851339506036,-0.015888663545642737,-0.9968979001736276,0.43416501751916925,-0.2042363166275653,0.05638106461544543,-0.471440969996837,-0.5746531938024203,0.5239535266372919,-0.052088898403950125,-0.7042787831338115,0.24463925726272154,-0.48250744360939374,0.02354250203954428,0.7732801427848889,0.7670565826110599,-0.43658685040111544,0.06371956178176652,0.3567061894217611,0.05267693342732359,-0.18385640648003843,-0.8929944121119617,-0.41416931247341143,-0.7856835133268804,-0.895620922622512,0.15684211063315295,-0.09175582644431617,0.9679868220548233,-0.6464315418973753,-0.7680935966488726,0.21108953305093311,-0.2898209668872996,-0.7678559055445155,0.18164521129838102,-0.9318321255662969,-1.2874569761316381,-0.04446609394060789,0.43517633838350883,0.6475184339148761,0.6197677025322615,-0.9081427660373415,-0.6662840955080501,-0.03203627664296741,-0.4292158665665599,-0.11466284714967642,0.3911680613059636,-0.09020276323182172,-0.6798754197158638,-0.5340449797953608,0.753092333314606,0.7708615026516757,-0.27241794715181356,0.7961428695833859,-0.5467485993889882,-0.5406445629768377,0.5887834171424888,-0.8875833971092826,-0.5881451023333958,0.4952375829456804,0.6227507808682653,-0.8947263019862238,0.9014091658997347,-0.9274796191386315,-0.7205915679108443,-0.05999747127823232,0.625070534993206,-0.4438998121079515,0.30979206318631275,-0.026996482982715356,0.4862890402879754,-0.8067371914122452,-0.39807682566309927,0.15323679839063803
-0.4596354128294151,0.9232895127531852,-0.5045999215987798,-0.40681839260973485,-0.0297142239917978,0.7346480616169572,-0.9165112971823133,0.6722937607489677,-0.47045763991708495,0.8586682542309807,-0.17324680496917153,-0.5904072945537122,-0.15805023885977174,0.5661344643841343,0.2480296044457269,0.7004540555892375,-0.9787830025992066,-0.6958880084045596,-0.9925795747407428,-0.3213757247831527,0.048252825159883383,-0.1447703051957318,-0.20698372203458376,0.7228479262383477,-1.126136179004375,-0.5270675975998438,-0.3007483784049975,-0.741194978268829,0.7606203786027592,-0.023705321410796447,-0.3762977849939019,0.7367790089986844,0.7820602108331086,-0.7062070556848792,-0.14836537803404937,-0.2865442137324852,0.06308567837087042,0.07811368007094688,-0.3360657126362912,-0.8787647460545075,0.9891900325056567,-0.928310128104429,-0.4754037390956477,0.49085652096684734,-0.7363402112494841,-0.7424948213593995,0.1746650965938417,-0.08150705353849812,0.8456656068950438,-0.21429274218267247,-0.4479355302708797,0.4035879946094433,0.1373947886371637,0.7984142854044862,-0.7032941562868872,0.9085402342181881,0.6721520908882548,0.5849322956243885,-0.15218390240212193,-0.237523825971197,0.3000985183693179,-0.2231201212783646,-0.15576550596045977,0.86145443518402,-0.9595228674273091,0.002810687102205438,-0.3553435122248624,0.7245353417404796,-0.5046854799439356,0.5014186028429335,0.6045331831358955,-0.2583877727254905,-0.026004404953117947,-0.37006650573543753,0.7850011977751168
-0.09000711404865486,-0.031395137995718886,0.6814701831404844,-0.340401463113005,0.8514767555143594,-0.6871215161625452,0.6360480386319448,-0.31672660804458663,-0.17178846765277916,-0.6316003240516522,-0.05383103126893014,-0.9643842063165025,0.051580458225232086,-0.6057538296873511,0.5159602074162595,-0.27459718119431803,-0.8689661435815533,0.08113985715855795,0.5889791838685613,-0.4097480266501532,0.4156760533321588,-0.5010911202332365,-0.6501823761814055,-0.4436673593586751,-0.8720823433082312,0.7785654968313607,0.9682171705474021,0.8004772337762015,0.8217857837697989,-0.04408528521170453,0.04195635864332297,0.7877595491242787,-1.0118718207647053,-0.8499371141696065,0.0600912886618082,-0.9107923848975342,0.08891438437567614,-0.01781315818296194,-0.913119196070961,-0.9295780492568161,-0.4181840836057606,0.10512336608796422,-0.9829118148136735,-0.19491172983587227,0.1570854039625649,-0.7197501723981224,0.8822650023517493,-0.7140005247265743,0.602160496313967,0.8154796334969197,0.37898966583158983,-0.7715171778322091,0.06163464363221519,0.07464475220680726,0.18586103214076338,-0.8964139115576238,1.0329817632286777,0.9016544673997706,-1.072575886112345,-0.697998726798235,-0.9380570806019013,0.6382218453968879,-1.051702628622202,0.6515281775801203,0.6017707767515201,0.9082694240533349,-0.7341243234401208,-0.4137601735117806,0.13152053203838632,-0.41283782407622327,-0.782356166135514,-0.4102209472138974,-0.6492496176289394,0.4950760199897188,-0.02476963248159943
0.656535848049665,0.2721278764114454,0.30243391355635885,-0.6230787739513902,0.48540097092932305,-0.38775756608202827,0.12537741456346502,-0.1589607833969977,0.7479355845820425,-0.006799076511485674,0.9394539046879558,0.35982646422337156,-0.8991944469028295,0.12345074302646167,-0.4776439617991748,0.6208654230329715,-0.8893768188093738,0.03904246865293589,0.24540645591990548,-0.44410734673363195,-0.23291071305733402,-0.499088790808575,-0.4781216499177439,-0.3373546524370964,-0.08448194286358324,-0.7079765107357626,-0.5694675992602171,0.7847421259043298,-0.8764067852152413,-0.05798483956684617,-0.1965856267024155,-0.19447669754746344,-0.48609566123328113,-0.6887993180056521,-0.07125677045344062,-0.7264151253503695,0.5738462670681381,-0.9014729797095392,0.2244521144481733,0.5198166613559917,-0.5385592766215064,0.10172322543796641,0.8753933436689084,-0.6705995022791627,-0.6506357618469644,-0.42391878937188937,-0.6093074114600003,-0.0021831756359458362,-0.9866212316170173,0.16952500108410554,-0.6403262726058946,-0.6033904434672105,-0.180816257374714,0.193948024706583,0.8989000251282416,-0.8429216011411509,-0.6784711884356661,-0.6958687991850635,0.3793224079955909,-0.4609970555601313,0.7993750674549602,-0.3958807609907727,-1.057701006210744,-0.9816227517064752,-0.7197810960924168,0.58009089701325,-0.17472428096498108,-0.4754139026284526,0.1982802064647786,0.07199194515259698,0.981589948902412,-0.08233198022332275,0.29045365895583364,0.3334999686927167,-0.6714193281733257
-0.09129321804938412,0.4446125838576645,-0.07197355339136347,0.7250012929138283,-0.7352879670767518,-0.14650945172179608,0.9544590661619488,0.46450879693334823,0.2893609126137392,0.5902374602928885,-0.821250963002293,0.8340171854924003,0.4269003009774695,-0.4099959637701846,-0.8823560021051621,-1.030358880842048,0.4707062701554571,0.7021172534363481,0.0814948285971508,0.6391674505107353,0.9309328280467405,-0.05106683699811143,0.3924600199341634,0.6227221161210559,-0.38392458268957186,-0.6751707022158493,-0.7837213265782144,-0.224036200674705,-0.8589780289457233,-0.9889754971095118,-0.7153880994328473,0.5485047257711924,0.16939781424165318,-0.015355899462437098,-0.20246808899214577,0.2397668739968623,0.29437874154671934,-0.38581024282361825,0.3863918178335932,-0.7688666896133372,0.208214908311338,0.28890414117498,-0.25760503778367055,-0.1668652243635802,0.44169939916270884,0.6812919319794188,0.9275227442304917,0.12674176455197764,-0.1334851418709036,0.34125753806911696,-0.13640338972434488,0.8036261256443628,-0.22914282540054526,0.501204999326729,-0.07038457278837107,0.6590197423404789,-0.6715850344446926,-0.7231264182994157,-0.8474347082122868,-0.06059890113375721,-0.13147459719539578,-0.5590432627983923,0.21860967698908548,-0.7541052161798873,0.6052392604970642,0.5317991046406279,0.925839068832835,0.04695328116151055,0.5064597201648586,0.3213476975966835,0.5972645318083081,-1.1556056939854469,-0.7554437607688712,0.2691144301192462,0.5262446200376892
-0.7826683290551346,-0.5047696579081996,-0.029936110723884732,-0.023265943648262663,-0.9328665680361073,-0.6352586672786291,0.1823954999354962,-0.24092847151802996,-0.6946054397465709,0.3080222520380811,-0.45503919546183796,-0.6282547522158027,-0.2245395913582173,-0.9013668357277419,0.17659357504507914,-0.7721680788610304,0.2961748628068472,0.18788194275043846,0.3421337480356107,0.24208847021662888,0.8493104396921115,0.04469561522116933,-0.5285373019491775,-0.07496935153109092,-0.7620631059235489,-0.6421559120249762,-0.8460031568201438,0.1700612074683586,0.6695578303335513,-0.9147556895216271,-0.0463772614972195,0.13775679858874357,0.47973423856985287,-0.3726096636318762,0.17098508515454186,-0.2385746057356122,0.015960435911637337,-0.567183684257073,0.6896740068788098,0.5454533522570137,-0.710521461603795,0.5607471631839374,-0.5467028692522412,0.5326370717284925,-0.4822328880624548,-0.36006672614728846,-0.8326032515395148,0.30181856169146737,-0.8098127090505319,0.8287102568807323,0.689713352879927,0.8558196249470983,0.7247201819552085,0.03267094293256803,0.6731119811153565,0.4373846582572081,-0.16422777749167927,0.7260535067984237,-0.9821413195366039,-0.7730084658577203,0.4714625464866803,-0.8952388087760798,-0.5089184800068828,-0.9567150046802813,-0.6288002232590644,0.13156756106635203,-0.967472258276852,-0.990221920687436,0.941016999018229,-0.80505261133149,-0.4562127744188042,-0.7468716008277376,0.9751393345566465,0.10577016044587881,-0.8020360619789717
0.7920979265898778,-0.061131059398355066,-0.784028269910496,0.7580036723265301,0.41883330077931974,0.9544334565209976,-0.7242288835758898,0.026795046246723343,-0.07441498653186704,0.8352709646736305,0.6444393823934915,0.8172154263162076,0.4358969427029734,-0.45759206241588046,-0.6787896649373413,0.6778799228104795,-0.4212786125300317,-0.7254001796996825,0.3714303982383386,0.7803059768267289,-0.32278127220464964,0.8796898315663678,0.45238291619464477,0.41769174975843465,-0.9507094539185447,0.5555695664613924,0.17359304690496388,-0.641112981580001,0.7414359491522905,-0.45258842612298195,-0.451798536326083,-0.8842349995380212,-1.0023016385242827,-0.459300727631804,-0.4123704613364394,-0.07760278005233125,-0.41231668293750406,-0.19186015979266413,0.33376297110565767,-0.10959868994921489,-0.7543877978697608,-0.5175226659206371,0.8510696534417667,-0.7071313902502759,0.9930263621614919,-0.6192654686512045,0.6153051185585717,0.969175617056036,-0.1096133954345137,-0.48417673537977896,0.8417643391821337,-0.3731954432109014,-0.5104229766293368,0.6338366496929979,0.5571043094347549,-0.40769934459959384,-1.0719966520672837,-0.7538423667407929,0.004404700816646435,-0.5349468336456364,0.15496541076899628,0.32558479973457966,-0.014635666183593268,0.5322384604258553,0.8197230430083232,-0.9771156462788849,0.5814756092285147,-0.6356525534730246,0.19242643095424303,-0.6197853066533019,-0.5438503747188043,-1.0363033146483058,-0.27551797494771074,0.033302945425491094,-0.9588586621274732
0.7239280450466314,0.27292562605832876,-0.8605615263177335,-0.29918073062065964,0.5236647306817281,0.04580816133200353,0.08486020240779237,0.3681023920303712,0.9683193738595416,-0.08949478125091842,-0.2367626130798915,-0.2799521288205264,0.6624146361830505,-0.5633096654821393,-0.35161074230802086,0.40037590636035586,-0.5652819205247237,0.8579887598466491,-0.3681942887380736,0.7748064764786853,0.46773319660673995,-0.19026790040681957,0.15192461101674348,0.546384032429425,0.7719199182764626,-0.2644729072866082,0.8244794210703187,-0.6956823340884386,0.6245635015270016,-0.31382826766541355,-0.5984437316984583,-0.8620448693063785,0.2609334598685727,-0.5985831206126545,-0.7888818060376361,0.0712703974555113,-0.013924413049565066,0.7670718500193755,-0.023541558232269805,-0.928666567130439,0.8672779699472254,-0.5961513267211992,-0.26164288398001995,-0.9214623433391783,-0.03165125078419227,-0.47376901604699756,0.8669600176685878,-0.7736331921551582,-0.22598010946471198,0.011510334684190823,-0.30062805478594234,0.16904160982899039,0.6708716923945034,-0.5500025677310738,0.7922755282616173,-0.6261096047731203,-0.0729693195721327,0.9268755247853651,-0.7326049854002242,0.08791598046119098,0.6754116773627497,0.1952599908379683,-0.5915469814708927,0.9070190863458961,0.6838199198283238,-0.39568830432582847,-0.3186616900739968,0.8627424519330158,-0.28880647149493316,0.821643070241188,-0.1135375062491821,-0.9675089839487336,0.6042280671750431,0.08655298180016704,-0.7733671068295267
-0.9081882381801536,-0.08761991992433076,-0.6859866484484194,0.2968833521818837,0.885909727179068,0.4662288811349306,0.2597281894041344,-0.023051092965721616,-0.23411222889596622,-0.3436444448845923,-0.5407729995340259,-0.6825062307047974,-0.23942256131199166,-0.1286702058114166,-0.9014935829490048,-0.9351986288025129,0.16917269447491065,0.29601653045318943,0.31695912981165947,0.6919391696771512,0.5327620418664235,-0.6427536462218782,0.207048822488215,-0.23843549170273046,-0.6158438447928112,-0.47674891719525453,-0.5985779834409765,0.9304754184514281,-0.8315152053083827,-0.13706479927581425,-0.8817051132352114,-0.5412444974713985,0.18512892689302915,0.4144955053791104,0.3007521440477106,0.47185289981833517,-0.5618146773411928,-0.5738654694941988,-0.656710538122235,-0.33360733613790033,0.9760542187945075,-0.6129915041378987,-0.06468505636531421,-0.7378207896116814,-0.7048649416625998,-0.6050741377196703,-0.8606149528939182,-0.7782495496788712,0.615979298956656,0.5569068757716746,0.3637937707111973,0.7413482729939386,-0.42655915835965647,-0.6029587089754366,0.16145414610398107,-0.17258102307951692,-1.1094039082437732,0.16271174074136752,-0.9005069558965556,0.08907670162054152,0.4356471335126278,0.5755083564838082,0.8700756721441408,-0.19088206688111733,0.34309412784233057,0.12963447941148948,-0.2253729344574328,-0.573085832912942,0.318067237595118,0.7425215180808328,-0.5562981553624821,-0.397602555650451,1.0386536852282897,-0.28862392927806835,0.022886479111319104
-0.5634366573997723,-0.6748038303063705,0.9835321312126009,-0.41112186858401806,-0.2681450980696246,0.304623892445302,-0.9447154211826492,0.3370087612561104,-0.6491404313647056,1.019370199123856,0.03261901527830254,-0.4251694626274616,-0.043279190478735644,-0.025404962681981367,-0.7411368941358139,-0.8327097053591203,0.06149639724241214,0.1453869815253767,-0.12774290422069234,0.7368906233695335,0.7809845154089181,0.7846022139729688,-0.03139748464990848,0.14530092802593028,0.5073614463207797,-0.7151208682369696,-0.37195980976186876,0.9951845751544731,-0.6926221313255735,0.10390698193382653,-0.2975210294040449,-0.33588497567452713,0.7320333937977949,-0.013927253429102447,0.5980291593730832,-0.09897994674961162,0.5737548987529169,0.17616324942156578,-0.523980553557169,-0.22921962860020292,-0.8127281331843235,-0.5111895418620948,0.9691857625323745,-0.8302874029305666,0.692009121575895,-0.5678060460573101,0.5498818068108297,0.6544626962152459,-0.8460026746959968,0.7204482268643924,0.36841278928682725,-0.9978578305295595,-0.8397559667965999,-0.134233089487417,-0.5738437054595737,0.8245991973466633,-1.3503176909451802,-0.10745351549867277,-1.0988273826130006,-0.8488563900762583,-0.3434866023407242,0.23702546824465714,0.7533850611629528,-0.2390557299982337,-0.894718627852347,-0.044215216304349735,-0.6479977458944978,-0.6913137621414468,-0.907882096685878,-0.2247564273888907,0.20048010780111375,0.2022660292979353,-0.6206318397283734,-0.3483052749326279,-0.3139831103512746
-0.3143373266439495,-0.3707880080167034,-0.8780556269597556,1.0016096155345287,-0.2930306414721908,-0.16707225717959934,-0.0292746822040072,-0.8898084465449859,-0.7737357360965688,-0.3820661212419342,0.4623740576794789,-0.3477866531523111,-0.8026558460762276,-0.4471315704138295,0.669149004824378,-0.4552744855295668,-0.9525121978161988,-0.06645533681616504,-0.7398883245379883,0.014334553755761028,0.8653406770366763,0.13908025042357142,0.518031881858206,0.1379447713958898,0.45242976122437123,0.0799069968622592,0.6060402552122818,0.2435921233731272,-0.7410262247236115,0.9618432984319345,0.8137739780953174,0.14874227330871595,0.7674674888182008,-0.7452791256822663,0.3630120932479002,0.14695139081369987,0.12129834412946308,0.2794100191430567,0.677299696229483,0.8563676640166507,-0.3783127113456355,-0.7504948789213126,0.8894344291139278,-0.37810376328618306,-0.3816990248561465,0.3905075469164821,-0.2699539996249959,-0.9779948285429125,-0.2857937639312311,0.15224935897940753,0.7307214589225661,0.31005907390017273,0.034034893324310464,-0.42991130814133893,-0.03847803048745957,0.8152822814355041,-0.27839373997511924,0.6920060101853956,-0.5703043236240046,0.731754224635816,0.4548671037858025,-0.24057841809960778,-0.6862421791568372,-0.631127936538868,0.8368078283845087,-0.4683507097644376,0.01665265477250366,0.4642223156900553,0.8025784218440016,0.5970998074477422,-0.5334000974992459,-0.7272297600820226,0.9715261927144396,0.03781977538595822,0.5470826697615307
0.13989433048261368,-0.31778561798826094,-0.3434063732015925,0.7471706499369023,0.7386621078806686,0.0231320392918288,0.8464655223669564,-0.3160137339907271,0.2604036741034734,0.45324104469823684,-0.09372716765305533,-0.8931149149759788,-0.9205046232239087,0.8671924802936658,-0.697348645621167,0.2935246040811655,-0.43820720064960084,-0.9907939227820782,0.7246329222493392,-0.1150182431638333,0.9861002005008576,0.7826219641060381,0.23789515100663805,-0.6752465449441708,-0.315147794359004,0.11056843240793328,0.346517579437098,-0.750406791160625,0.5450252666588117,-0.8885296333758701,-0.31165345770734854,0.8571790833493804,-0.29105680910715875,-0.5588197614289512,0.2406039118935419,0.570670671091927,-0.6279143934084501,0.26622239979446277,0.33394844321718453,-0.06891987948425625,-0.18545628495627078,0.007159341008312573,0.8445818162313271,0.8933057172413992,0.8951693307120178,0.6322248063549168,-0.17828433525317952,0.9589313148836524,0.7850369967482171,-0.9355393674607844,-0.610570850862092,0.8569143953148899,-0.39300545122462455,0.5332217289664349,0.34286877782458547,-0.1024262814302866,-1.5186481535310528,0.4855666126575297,-0.8410992762768408,-0.9231226678437463,-0.5599976668890967,-0.8179597842972472,0.8586327524252555,0.006386551129003251,0.11690154804864565,-0.43458465664499396,-0.6036698525096722,0.1408367496363995,-0.05760815243519382,0.6486321220207412,0.6490554052944005,-0.31242359564084987,0.15696972630464065,0.5219823125930628,-0.8842125094993755
0.8035841145760318,0.284470552957418,-0.6308766054535132,1.1215161068433015,-0.4328949617111286,-0.24078965632058114,-0.3009817759753863,0.7162406951667258,0.775752911770858,0.8639106817027598,-0.8815442274766193,-0.7258326679748168,0.9991929732537934,-0.9721987971732905,-0.19653258663964807,-0.6612359876767115,-0.10356780571315503,0.3093458965140621,0.15230727889730358,-0.6808894590002532,-0.33082581437330694,-0.32000207037639805,-0.4378891907918889,-0.7808331534306934,-0.8450321638338267,-0.8400782597079374,-0.8207985950271308,-0.5082686294605001,-0.6091799536298428,-0.997191052363492,0.36263568604894836,0.6278581940639413,-0.014786050813879384,0.9283377512833523,-0.4513450414057806,-0.1150992824113828,0.9044859589043639,0.919271331216128,-0.8933522837365112,0.1808858630751954,0.5876145615986713,0.6638311057091437,0.21848767755450416,0.12293395354685584,0.5773426250079341,-0.047821405085724786,-0.7446935374134579,0.13505144005846126,-0.08735300166925329,-0.26807783932810136,0.45535232395128583,-0.2290194799510038,0.6222614414824622,0.5476450369831853,0.6661559475107448,-0.2265803156200044,-1.1317366615231637,0.6657136777402662,0.49452870317419356,-0.22194293854584637,-0.2938284429078733,0.46447544913160493,-0.1277455729806252,-0.033619983848862306,-0.4433271115761021,0.023416015139167648,-0.6857244725917785,0.06283405948067282,-0.08044712571167502,-0.9551042151547442,-0.8022452787759439,0.3245793827058903,-0.7149385189976148,-0.6288125098725954,-0.35414993086535274
0.5869237684885809,0.8760537975048119,-0.9646035825476922,-0.15627809091221842,0.34679862304429104,0.5236415246265496,-0.7318939235100426,0.4752256754312846,-0.8718919137639616,0.4041424288463349,0.0014378610201217026,0.9356868709983543,0.765678712984934,-0.30096789739772306,-0.044657391393319375,-0.6316437820699373,0.6005034206534684,-0.6379299811045819,0.46540403564874167,-0.2319321135329263,-0.6426701889988308,0.6883778932816177,1.2562354216369176,0.4117108117866646,-0.7736099054309786,0.17988266633628788,-0.5974305065121586,0.9487331874565785,0.14376659375813336,0.2670660945825261,-0.8787886666909566,-0.034125772366352274,-0.290323812320237,-0.9853307040056085,-0.35864571800887346,-0.20204128861872633,0.28794351093462817,0.5151147030750463,0.31861715305010385,-0.029818631559339063,-0.30625645818535013,-0.6994129676275731,-0.7828534422487358,0.3443841719502788,-0.06444000176988814,-0.47654377243438323,0.3908539866790485,0.6221250325514676,0.36463287897836494,0.13194870712090176,-0.4033959697965084,0.30445735512004657,0.6001774992920457,0.9166037586319361,0.7621664772848946,-0.651941718247973,-1.6193037085978645,0.9039325865029272,0.046880707326653226,-0.10219947930685906,0.004424586748456751,0.5043212574299121,0.4223853594654864,0.9023148523078506,-0.12398457571070644,0.5629278823062799,0.5955164411993267,-0.7161986897195127,-0.275194751041018,0.4056541249947953,0.36313940718813165,0.5769757616422333,0.06355652211357102,-0.5725317452438629,0.5351291758558495
-0.35479496150577244,0.6507284201812075,0.03579635605749109,-0.44833230245191846,0.7088980563109915,0.0622328530117011,0.9924812294112147,0.5733122453814071,-0.726965620493242,0.9533726961101601,0.7575431124742189,-0.9368004129365393,-0.6112351331832261,0.9519607140086906,-0.0813311908466503,0.07523039226262622,0.20591732591732317,0.34542332780586055,0.6183261567408884,0.5898492441684597,-0.166898558020061,0.6833914009959282,0.976500397317812,-0.3202049963621889,0.2886719629703605,-0.004669736287390739,0.5674546258253075,-0.6546740110927785,0.339631866266748,0.4846783283265814,-0.12796433518914957,1.0499904709764543,-0.317424597123375,-0.6328290604325414,0.19700140260916102,-0.22539885259264314,-0.8332086877990362,1.232354058889662,-0.8994947787106424,-0.8876905690913088,-0.2872157083009821,0.7934065941653038,0.6881432371362806,0.410436229470688,0.7472694018205189,0.8806018416434532,0.2040973976018408,0.6195914680084849,-0.7092180526248127,-0.47112155796896005,-0.4220692709763878,0.7252592651788844,-0.8364543036734673,0.3740230423793626,0.8987530230833923,0.6093479948246406,-1.1706550565337657,0.8601219215122745,0.48339516282096673,0.10717172349032501,0.23272747747087827,-0.35317833764118317,0.5397158589548136,-0.9125077409137847,-0.9409577264492051,-0.7771549443807968,-0.3919805567560174,-0.8434451832776574,-0.24253557256801045,-0.9789825628006772,-0.07850911872279687,-0.6180834344884862,0.5088543429831064,0.07323331264265881,0.1815797964959665
-0.15055605385470314,-0.7766073476098782,0.3330909240244645,-0.6250875677153699,0.41791437144706206,0.881636130850291,-0.8599447807786406,0.0806210538156665,0.7724931005932055,-0.7933528941618666,-0.9089709368233124,0.24993378195018642,0.37695216728305536,-0.7310092019469774,0.08108426686307994,-0.244912776874578,-0.17628529356981443,-0.043659803592495876,0.4520308321581802,0.9350687343313802,-0.17534613730337925,-0.9281242412755153,0.4589956098957197,-0.018066889629427065,0.03674506081997074,0.5026976903889004,0.802353330763375,-0.1896319498480742,-0.7061082476445182,-0.884501842528775,0.7636175534569418,-0.6626653627526472,0.45446648865487504,-0.2790182210977733,-0.9109451780132074,-1.0953234941289745,0.491754680425396,1.037368817444439,0.3481742512370472,-0.47920123318495583,-0.26051464972931754,-0.49305118556043115,-0.8728642025184371,0.20207217143508116,-0.8942329909093273,0.6515872788330204,0.6970411836354067,1.0020163450355102,-0.4351893857405008,-0.3832886399250594,-0.8755613153962003,0.8538197946555823,0.1684713962325385,-0.8052205782261843,-0.21120761392261547,-0.44409929583061003,-1.3476301141450848,-0.7117447809011583,-1.0031262882994194,-0.24172025104606992,0.10875684518676158,0.5031782551371674,-0.7481635464560115,-0.4359738150475448,-0.9100502638484371,0.6025344126338023,-0.5510928602623295,0.2703042248720528,-0.4678054691253772,-0.5003631852563256,0.01843052305464474,0.16784323696550324,-0.2575771185872117,0.4287267363147383,-0.09784045643306352
0.025649677814413605,0.13850533835850412,-0.5109080578690874,-0.18153162772330517,-0.6636168691989125,-0.88222461601077,0.27160312551475413,-0.770551619124846,0.042113328362829355,0.504286383898297,0.8071827459088479,-0.1910837442825048,-0.6109686929472465,-0.9660408548754982,0.6147673029920256,0.7416894866210736,0.42742902866868865,0.5987506247144617,0.5550432807520519,0.4110846606138296,0.08367941113316084,0.823137666626952,0.37705733991037305,-0.011906437600203261,-0.4602826901387044,0.9617968313266256,0.9827603030490351,0.007415046893493039,0.2885132822623188,0.696125989713369,-0.11079162628092716,-0.4997309363567211,0.8158829253170379,-0.7304373654312583,-0.18528590437356007,-0.22633369030855446,0.14683192525284575,1.5634006989556353,0.367537418758493,0.4385733592466289,0.2035462163729358,-0.1403594731430024,0.3038522204158962,-0.6359278448576494,0.45015829108901845,-0.9909803065870506,-0.35010891521695836,0.07420860997443128,0.336263893825089,-0.1813661540472671,-0.02004133262270156,-0.8625982500273324,-0.3289101402657604,0.2945510595730457,0.7860875396688409,-0.22037210096323848,-0.2776861160921433,-0.9702327899840774,0.14519251210420425,0.04270211448445597,-0.5866283077631815,0.9471279812737934,-0.2361103074932528,-0.5091396340571087,-0.8551149057585562,-0.8338940548905963,-0.37979632354523296,0.6700300616055102,0.11889793116333222,-0.6042969999904948,-0.10432399898518449,0.32911550679393625,0.5418394453843945,-0.6078981203068946,0.42405248280019703
-0.6435061376436372,0.9861809595706479,0.6018269691455055,-0.20566378200190832,-0.30670110330209666,0.5717126772069625,-0.06996435758415771,-0.9674358046673527,0.9171293435609836,0.17375162595870444,-0.41357763363603434,-0.035941576066495076,0.7587950832897293,-0.9748898437599025,0.9649925116861772,-0.15926962541696157,-0.4923418664795967,0.045512934404348435,-0.9423522799500128,0.7709158650766195,-0.9131456549019896,0.8789979239861864,-0.35876552786879784,-0.8389556109208756,-0.3682225328615791,-0.9191563395461857,0.4268733256825288,0.761975128716734,-0.5462389583970737,-0.5087549830792382,0.11983372019842112,-0.6762257115612204,-0.31054255828381894,-1.034473865153051,0.46497798095033027,0.24090170139694647,0.7680066659030444,0.18917550391350205,0.9373241769404825,-0.6515654885541338,0.15343558710513472,-0.882513689694878,-0.8752062672351754,0.41132136206248393,-0.514704245162596,-0.12339132189672938,1.0667791267108695,0.8859132548038372,0.5091645412333957,0.8546524392237299,0.44423243001691787,-0.5829002648774587,0.359863925154411,0.5682907641128403,-0.7664168985661585,-0.6524434855702723,0.1230272681682617,-0.6053161459147104,0.6592395681186732,-0.5307271698678462,-0.2800815647836998,0.5772628857195801,0.8955201381239554,-0.8723586492839345,-0.527287382532859,0.8705375473085247,0.6296174417298694,-0.23109976839959448,0.2752465828375789,-0.7736371668593798,-0.08299408279850731,-1.1909267715205263,0.18282879996464807,-1.208729090172234,-0.9188509552638564
0.06656633626896034,-0.6812238365635327,-0.4052052750856608,-0.06769129138628864,-0.04620554572208952,0.5751122860872075,-0.9430245170554408,-0.627301120784195,-0.16314142951386448,-0.8175842318141717,0.8806787950187841,-0.9432823126741091,-0.43646560283279123,-0.9568109490389973,0.5614812830875774,0.7979299936004226,0.3687982679538916,-0.9274962234551666,-0.03544264232498932,0.30176929669315555,-0.4578497330066175,0.9837243538957882,0.005158813738861328,0.3359687782984023,0.49861319224350825,0.07590272401883348,0.3416218499653692,-0.6574568690016638,-0.1964730090900328,0.7870495077297441,0.048702661291270176,-0.10444835429552003,-0.9510696110913918,0.14510900302919635,-0.5477460381906996,-0.384837391994519,0.17343364634463612,0.7575767223186354,-0.2115950018663034,-0.6368350642572502,0.5861841291615917,0.608155074979859,-0.4053781882358299,0.8303665123688578,0.0067504494315261026,0.3684851180769963,1.0764532648085288,0.5170425671186099,0.5341685264120718,-0.6928743446587535,0.9877035970024877,-0.31590626346432393,0.9772414505117093,0.7739945726266665,-0.9023513865544593,0.44101992500763826,-1.3982477565953748,-0.894827738332654,-1.0660203774430426,0.7914787557308746,0.5182730689263291,0.040689902832572275,-0.030682844658512485,-0.31942378289206586,0.8742237811730792,0.8037835286744544,-0.3846784422876239,0.12302169879878844,0.4780221765178972,-0.8159812550946168,-0.1702793861267901,0.46027289219742146,-0.29069121901568723,-1.0984150085975128,0.21409438161362385
0.8419636657825386,0.7089871438742077,0.9161976103754185,-0.47693365465007315,-0.46113003186690227,0.6902000725732153,-0.3228952655093785,-0.011568976700440714,-0.08016080901864336,0.3638132540916791,0.6238190943137077,0.27598903660484364,-0.3424832358701498,0.08612800208742089,-0.9358002203680459,-0.3947424690887919,0.6193426545609506,0.5306356112720096,-0.0970022617226328,0.6464650579837036,-0.9826430869815207,-0.9678202731969858,0.6217379348392388,-1.0021447920647069,0.35941271667443764,0.8740507713314252,-0.5143401971155045,0.5694336579823648,0.9384048372689442,-0.4461497418357254,0.9658182827535209,0.11531200692113538,0.8868635550658128,0.13782765878613082,0.3070485158388624,-0.46256174880176354,-0.7375908378663958,-0.1586968615155138,-0.3923337772749809,0.06445731522353217,0.29369384267839665,-0.5429223856990578,0.3940634749717928,-0.8496544008640223,-0.052203002475714105,-0.3761227633283288,-0.6276484886626494,-0.4257522864482047,-0.7075582235769812,-0.07680789670110424,0.50562615837704,0.8476192810220484,0.5183788044444452,-0.31695347757401937,-1.0200436677277624,-0.34020301424201077,-0.9997133344411275,-0.08000210894331115,0.4978457923363515,-0.7317871110365989,0.5334751492554131,-0.6430020854045415,-0.2997003938576908,0.48069910762135404,-0.4536600573922456,0.8921796150276994,-0.14092061182309984,1.0391792485226734,-0.5408244210693715,0.5487964713780725,0.6274427836529138,-0.12737853211825476,1.1192221575336105,0.4655769461075097,-0.7013379814277462
0.30297940130691187,0.7162507344356273,0.9567723911775445,0.16627624918718198,0.5397984537399537,-0.2539195986675528,-0.10857621246306422,0.12799584731168914,-0.4513155119199394,0.5561021699152732,-0.0933771300084084,0.24293328640466505,-0.985011118440801,0.336034703961696,0.037830787463350064,0.7199543038115997,-0.07638233306413898,-0.18243481442474213,0.05590043498161276,-0.916116325911793,-0.9504275451577217,0.8965014842342405,0.9043735898632447,-0.3741359813436529,-0.11406545388756041,0.24117630756034653,0.8378060746103607,-0.8694423193322404,-0.793211725797715,0.5948948550842252,0.2811397581658776,0.399879486370003,-0.6461807909883157,-0.4868016639140298,0.7680665347744579,-0.38311140694411877,0.7217802713346027,1.340131500895456,0.5457802016539426,-0.7003502363502063,-0.19939626087735596,-0.986081499390699,-0.4803200497452508,0.25361544838086963,0.14276639760790016,-0.867762641326158,-0.6083681029380293,-0.42599867876486036,0.5388107020492505,-0.2780434644359387,0.9836374107701571,-0.11085904029614434,-0.3510742226367238,0.843166148641118,0.514772325157879,-0.9637770017399044,-0.16292084800351764,-0.7648743857584615,0.13109752864252108,-0.8949531374138231,-0.8023318801631282,-0.9321243318653373,0.4095964895714524,0.73457572945669,0.7516372549114732,0.020551237317882186,0.6996002068336568,-0.6170683312613509,0.6878166331336426,0.1736540947847331,-0.9513837104927537,0.13106013058188315,0.7583213033922462,-0.9452131462254201,-0.8892357005129103
