-0.8833311150885919,0.14231421351805343,-0.39551677956106995,0.7135684083272156,0.27513948762772167,0.6667187631357503,-0.08425706684416451,-0.25050801871400136,-0.1788420510263232,-0.2577860625485159,0.7704135495590042,-0.9503555679446418,-0.32298869875066877,0.7146104204116027,0.7332112295809213,-0.671998608064764,-0.9105458654003544,0.9248847893092428,0.668966427573819,0.040499154594603626,-0.24001639813881523,0.7452161955856406,-0.8992046315402155,-0.0004708770532498104,0.7147405771179086,0.09877885801765732,0.18434107487283155,-0.16989477124295307,0.7177412353889177,-0.9774118859721727,-0.3264272342815305,-0.8630093566939893,0.5790062247854982,-0.9901335473332957,0.07430153274534214,-0.6090258517256391,-0.42402726037207233,-1.2682002394005534,0.595582061124122,0.2912961008782737,0.8294408045052907,-1.215886677749514,-0.32577299447443364,-0.5216370546593306,0.27876983457871846,-0.845822911730482,-0.4086681365327265,0.13981738825485743,0.9553045677037637,0.07833581939941074,-0.5536028389430887,-0.30891493445799384,-0.873766793720742,0.8827263297533648,0.6326198407623216,0.5251883808337575,0.924575974785322,0.31863925979378377,0.3080576553231444,-0.35439448014834735,-0.6166702560709908,-0.5955487762760321,-0.6649234592863026,0.11251454143584176,0.3498886606193813,-0.7693419433885543,0.0257941754368853,-0.11098930827828865,-0.11834724956947144,-0.3913523405584837,0.6587685787993062,-0.22493062533602737,0.7816854835860165,0.9486613615090824,-0.896918579688529
-0.338623073176542,-0.4369914142533594,0.942281000522339,0.9373518932446113,-0.84936753782394,-0.8042787717274223,0.8745762689933917,-0.0947305653904837,-0.21875795161054287,-0.4640562233581486,-0.5656140222287669,-0.28684391868134534,-0.46319932700766997,-0.057130370022313526,0.6225748758234507,-0.8009859036182982,0.7011875645192508,-0.4812491127876481,-0.1448785740317408,-1.0324693032956125,-0.2614758831756908,0.037248249906709885,0.8171026835103992,0.4328789685277598,0.6607454176703884,0.9031386911117637,-0.9064089520148458,-0.10290805947713644,-0.7431847007641724,-0.5567358099428343,-0.61472666640524,1.0190115160641509,0.8615175974582984,0.9406459627889324,0.4198207204902726,0.7483555212403004,-0.9054074496938657,-0.12674062646464768,1.3385406342957022,0.07283807319779137,-0.11522767883857078,-0.7431735299524693,0.5947114220942156,0.9082874057892723,0.7785601702869246,-0.9978770579590027,-0.478486294142883,0.23215423864499204,0.6452084304974253,-0.39091815027299825,0.17897887785224056,0.8663553738489945,0.9852946230968268,-0.7895485467836324,1.3141427113319568,0.7923423511120076,0.2208564103383968,0.21164193822709754,1.106104611450551,-0.35922243054453373,-0.8015289818321232,-0.5086413789709511,0.54594751640907,-0.05716610647060807,0.3525067366072058,-1.385465403636522,-0.8749540039063883,-0.5221764170880889,-1.0686305565117133,0.03861289558547531,-0.8185965532293297,0.4490863098988955,-0.22212933916790256,0.13921864029152797,0.4567304583467088
0.29134698011266363,-0.3247064492500808,-0.16291057972247175,0.5883247622016632,-0.2128140546624712,-0.6290901602477138,0.012944847987709287,0.8883722720862677,0.6828773052557267,-0.12518928359039772,0.6942622314661117,-1.4138152969429523,0.259918447889339,-0.998344425659974,-0.1204540328362088,0.29794726198660054,0.09117610169455787,0.1042485917238967,0.6776004909837948,-0.6662415940174012,-0.19504195473407546,-0.29773086652228803,0.002878621113864892,-0.8232793543997524,0.6425511286081476,0.9284806852575171,-0.6602907528795646,0.5503783100044619,-0.8635681332944336,0.291026951843,0.7513979690042705,-0.20602337111675226,-0.2603579951688706,0.8118332461089558,-0.9413336581105896,-0.2988982883163964,-0.1526235256229623,-0.548038199085819,0.3559902147096507,-0.493756482691865,0.7675501293002356,-0.10347512579534321,-0.4129753061376023,-0.7428491456734454,0.6554578507423124,-0.1901821291370918,0.37919698396538243,0.7850090580190211,-0.49945541809055505,0.36664036829043767,0.10169165076398928,-0.9555139099385418,0.30271495371601914,0.25901869767363395,0.7398308215934055,-0.7472800124959708,0.9607734746763816,0.8217898010748164,0.37353641504529933,0.18214461978855,0.019724438193855078,0.3074538295826941,-0.2374977327971693,-0.5319656811796761,0.1577342171979249,0.22906871396487535,0.9638068111037159,0.9137862714113212,-0.6988594965316478,0.19082730499730324,-0.38935907426271243,0.21713688517026242,1.0133629295867614,0.7809967449312321,-0.376518352497168
0.9058238768054238,-0.5323983483434871,0.9950818633916712,0.32102513447245246,-0.4728744534449293,0.15731893547461703,0.07486114231076804,-0.4509717201636554,-0.3701371238827256,-0.7897459284456619,-0.7800338775465452,-0.8204734527881572,-0.709355644883594,-0.06801145192588766,-0.2245546119750091,-0.5124241591648263,0.36983944651319367,0.03656637170404818,-0.5975512671181291,0.11278465834292689,-0.6105815250504836,0.16471314009076926,0.6155336662295444,-0.2578263734651839,0.687869312249838,0.6534447329377611,-0.29897916670204855,-0.3435250313788872,-0.5852339400080423,-0.6154743952113363,0.7867148465442674,-0.333234130421148,0.9739225130204553,0.5891155403538213,-0.8081946811336506,0.37101046281796807,0.28755712097125136,0.2170751897180644,1.1986845846152756,0.6269100784535274,0.8454818432846211,0.6833887720943511,0.3967073578265304,-0.9838619610048458,-0.6703596973483948,-0.332101384221218,-0.35069952169744145,0.12667517525865674,-0.14338602828405683,0.16476467804524744,-0.8017604838771966,0.9789294649478931,0.17076662578932073,-0.5186440680699914,0.3937932364099893,0.8283045927192481,-0.011486393942053395,-0.3611084738727257,-0.8216069021223916,-0.003377547446578786,-0.39348346258561573,0.0025467580600380306,-0.826409779243657,-0.4431567776245625,-0.2833879957897984,0.637749188784948,-0.3751402678794069,-0.6637723992531331,-0.8569222579996797,0.743324607122068,-0.3024903228969165,0.21899023051093605,0.49379094645313365,-0.008630389455380345,-0.9931501395973309
-0.2009084462878437,-0.5112436357506298,0.70219218164486,-0.4234363894853955,-0.33544272401947806,-0.6110211803048519,-0.8785943204133204,0.30371087482758113,0.9061716270509821,-0.4720297411656636,-0.6929282670942011,-0.4554947942175495,-0.7520228933143439,0.21446159612822432,-1.039239706376558,0.05203627583191427,-0.33775640814694957,-0.827455755088463,0.6622030794920842,-0.5558721791757729,0.25841130275465213,0.035714747146174175,0.7684958356589564,-0.6277765159334943,-0.31158056422758046,-0.49000799876603596,0.37411804945700594,0.2898093318530512,-0.637726304150234,-0.787030052439319,-0.3955646600149782,0.2536402925542552,0.01599915956206723,0.5588040753996373,0.38464593741699005,0.8609599833785845,0.4869746537873908,0.15947172697099726,0.6439551642989187,0.29986221782587924,-0.6801386840280541,-1.1718437394988255,-0.39305532782734376,-0.2620342533718323,0.5154933362161572,-0.2677668531151533,-0.12160440786659314,-0.12875985281283092,-0.037161450564825546,0.7088711632835981,-0.18814521612985305,-0.8454941278939327,0.8660186601433267,0.9465613070188758,0.8330641167750901,-0.7933517096686932,0.680912456586601,0.8167653774279877,-0.26295514071792525,0.6196699175862657,0.3068369555849837,0.9800901320371145,0.01131478222444165,0.04199702352038303,0.49014066315899363,-0.5570209788946052,0.17539850026860893,0.2274333671957965,-0.17756933215962095,0.5202704532749368,-0.1470588224479938,-0.7857904507753567,0.2298651301464318,-0.7909111239504054,0.38219598303087027
-0.8944147792198144,-0.8390127219101952,0.467183224251307,0.36133723600844114,-0.9625849108431911,-0.9366119244323182,-0.5590372902675855,-0.7660543702997685,0.06393633777452616,0.8516780562257573,-0.7780348914847228,-0.021767514285969344,0.9355682588227888,-0.3304047639829309,0.14846529652676052,-0.30227644580556107,0.8900990541417165,-0.3023153289948841,0.816067873544152,0.7181709678916023,0.45219753768466614,-0.6696970148164082,0.5579207141793721,0.8890855781739472,0.7896050926885442,-0.7921106974066846,-0.5174190618974621,-0.77374541201599,-0.8179425105535584,0.7556789133735125,-0.4672415410773644,0.9375560133107996,-0.9002282417988545,-0.06843628069512193,-0.7561752650551758,-0.48257017597162627,-0.948452397850662,-0.8025471784226185,0.5544208949142394,-0.6821251104224909,-0.6379765023195786,-0.5873361648758938,0.4799462190541214,0.30350651541118356,-0.32130827164045284,0.7081542167011096,0.7578934634631468,0.13379182319651753,-0.3652538855222593,-0.7851402886035972,0.8273866275581735,-0.9993009458077028,0.5840275656926498,0.17266816090352122,1.2940825240636185,-0.39965447013176786,0.21206967368294996,-0.8371039360545134,-0.6433717854407289,0.5076085928262452,-0.8627349739281158,0.14303774029904298,0.6582176635902416,-0.9966896965879531,-0.6939400356342522,0.26000899130572286,0.43327463765284546,0.10561666377742067,-0.7543076086418583,0.8831709714132545,-0.9143732465677537,0.354047276102686,0.5219547144974117,-0.9859194045770192,0.2998646296571029
0.38110055269298587,-0.928726365147903,0.06212202413869065,-0.7937948825023666,0.3951308317039955,-0.914619397906967,-0.600384194645535,-0.24223934805790562,-0.2647546417596925,-0.027815169924688007,0.8082152325519496,-1.153497206969183,-0.7155223329209938,0.8712110804902451,-0.1279349293121012,0.4564931008554926,-0.19140381401245365,-0.5751972139906484,0.17837242015492935,-0.43781460955246326,-0.7906195301340646,-0.8312493740760823,-0.7733302025141282,-0.6620710328087969,0.567361016937844,-0.9004272106927077,0.8937222093974537,-0.4268336959687886,0.8576041559847126,0.36496749296401915,0.637935395391824,0.043082728633699656,-0.5183639835411477,-0.7066429611098227,0.4480137014776009,-0.9139079744679433,0.6063211395674549,-0.4293265597645224,0.05429467134564566,0.28783224533290075,0.12584586486337476,-0.5119317439131961,-0.49122134919993904,-0.7247457827940921,-0.6962415611390874,0.959423924627371,-0.8841758544112456,-0.9276960860167028,0.12725184731017972,0.20667039098699613,-0.8218858560505934,0.3204465588160913,-0.31306155193591434,0.054796051943068746,1.406589418942835,0.03545178981703516,0.3310267189672295,-0.7786682166667357,0.7845188849530799,-0.7255703334605957,0.3509456491859534,0.8108963223782811,-0.4889327500542828,0.5709176711922949,-0.04791796194721611,-0.5265466771158489,0.0263500356667944,0.741956972234837,0.31091584869510214,-0.08003466957746676,0.2609852924470976,-0.10704650261240847,0.04659880493219009,0.15446657749645448,-0.2476651312508006
-0.9221593945576841,-0.8273438387128618,-0.7700897760982884,-0.6160746453475817,-0.11722570654758463,0.06732055315904377,-0.6647903337722382,0.8517064386586802,0.8643962487388098,-0.28726916462869356,-0.753571383592216,-1.3719205100220861,-0.9274619068460971,0.37500231643194476,0.1787048942829189,1.004195963192967,-0.5701310114564403,0.6085418097903694,-0.5615052317096605,-0.09480194050309858,0.269296169703098,0.40176825240340863,0.2518474949420211,0.4604728616864958,0.43092957541739757,0.7885774697801629,-0.17666074840811696,-0.3175340469970521,0.17800233222089495,0.863926797849242,0.7860769967076745,0.24308907294121967,-0.37492769534527415,0.5320435689285788,-0.9316371652194472,0.07932264579042442,0.7030933822218086,0.4360414518601175,0.6652149405696508,-0.1622256499506228,0.2710450022647896,-0.24599763342049596,0.8278201011891387,-0.33763152840349303,0.4476920347922539,-0.7799850205693833,-0.9446487001351721,-0.5764730231048933,-0.9369532089982752,0.12573185934742892,-0.39373927288565364,0.8521226065998638,0.8892748844524014,-0.5627777538276765,0.18944900179482707,-0.9386182744177666,-0.6007831880675323,-0.6588612538273884,-0.6017815080335429,-0.9070715814457595,0.7771863502969343,-0.028442036873423882,0.5050621415943365,-0.4979406822706689,0.5867026598242234,0.47117859854924166,0.4164192958546697,0.2025899925302995,0.9147052421426941,0.4602526626681634,0.3658105033491578,-0.4217474985740657,0.9498090457344086,0.3732391985548514,0.7081219269164248
-0.8866152535837375,0.5427517267878282,0.5246409214938567,0.9109641580043935,-0.11750303987096035,0.7574430809535191,-0.5417075795275935,-0.8521508085167561,0.8817657815391503,-0.1073946184915018,-0.45496090553653584,0.2625406830537465,-0.5096277336133745,-0.058820648416599515,-0.45302277695530657,1.0119243302021033,-0.7582150274830606,0.29177557692587675,-0.11309551075536191,0.6064013259511503,0.6723928110714775,0.8460052855634983,-0.6317856698808871,-0.8974865542643621,-0.47634447486760556,0.6989116243989021,-0.7375373463438348,-0.22849346614624796,-0.6958383473232164,0.9174969712328765,0.2746044742626206,0.0574678552263404,0.5155063396844911,-0.17530848061587972,0.4621595916338996,0.4558854167350637,0.678351836674244,-0.7907022707229705,0.6751472590324845,0.9771986314956038,0.758884856091851,-0.04653510619792863,-0.21752382256170388,-0.5194198847956305,-0.15171739498640613,0.18396605832783045,-0.9370854975105726,-0.12628261848676267,-0.4818510080396021,-0.8492863345587983,-0.577064252203208,0.9376406747683321,0.2562006653578533,0.870079880306678,0.9544330207838327,-0.511457334274106,0.3256711820473987,0.24395662373838506,0.8729212053882851,0.8718617634777726,-0.3348622853708218,0.8590136175081096,0.2863147418796547,-0.2967074119753781,-0.9084488949563436,-0.013568089385013483,0.5916496502419076,-0.32067697155134445,-0.197606376067509,-0.2722534683990663,0.46207659166672915,0.9991352760659648,0.35707097042628233,-0.5160217617231332,0.24704671350400226
0.5704891514517738,-0.8616284569073619,-0.3983152009229319,0.9665157489068327,-0.15177846287263833,-1.0423633375723977,-0.25662932964460716,-0.03644807927686624,-0.6374379041089574,-0.4455492337451803,0.5687797980421675,0.5120977135032555,0.47307842693612656,-0.0685169884837719,0.10113680962177474,0.32020673222824503,-0.378208524224798,-0.46180547319673215,0.653934914437036,0.5614545567943365,-0.9568658139777714,0.726169953580267,-0.7313094685527781,0.354970082295341,0.9462440181865667,-0.42383411363396434,-0.5755177856715372,0.15981254187909638,0.5221681607518166,-0.7159557009966232,-0.5761104395696096,0.9121917912196394,-0.7148117670763119,-0.47157572190334257,-0.07899838576863566,-0.3558952402411107,-0.044551215109461854,-0.015900663869124324,1.0092809210979212,0.8575632811129571,-0.28387874147542014,0.37889539887248563,-0.9102980130438869,-0.32134324358727007,-0.8363083964603515,0.24732882139034512,0.7450917409341529,0.32097125392509757,-0.7006336093469674,0.06589644180931724,-0.5904720002415262,-0.2997887860993589,-0.46041566440649057,0.3478397218716855,-0.30928761059514975,-0.6269662615153844,0.6686495660133991,-0.37986215909224136,0.817236554105342,-0.227092871518692,0.7133576907600649,0.4651206320197555,-0.22303761732942978,-0.031132237955041726,0.6351319606508744,0.567256702346877,0.49425009679114457,-0.738288809311708,0.40874454274507693,0.03623377778545536,-0.6276646478292781,-0.6394644386826458,0.2956799327642817,-0.7291614259941749,-0.3014523510453932
-0.10517587466199847,0.3798699052354577,-0.6006656747183718,-0.1810620182968899,0.22979094966712602,-0.03528620938531637,0.46538550583642224,-0.6166913405845917,-0.795072623192668,0.5250911777541323,0.6121000890972582,-0.7896804451958807,-0.033031123864608825,-0.6625561658473419,-0.8751323641358271,-0.4749608897825785,0.020262459802316734,0.7861959716496376,-0.9317887081165056,-0.5393518507696757,-0.7869757221253705,-0.32499990592800876,-0.3246869388305681,0.35288279612081613,0.7851396342716015,-0.9969135019533186,-0.6783291570187181,0.09968530216425825,-0.688412391140358,-0.29810723241188863,-0.16189289752586303,0.03915002048539828,0.6550647584725623,0.7026825919184938,-0.7002658707912243,-0.38042181084958493,-0.8983532456672203,-0.8594284725603993,1.0807167133315343,0.49144238374431687,-0.9064936680117363,-0.9009215509249655,0.816273435742431,0.9911123362636671,-0.13569280648668672,-0.9534970839006262,-0.39659650742113367,0.3934236031265813,-0.391711780134287,-0.8993701621487653,-0.4110549098387024,0.3041035132535981,-0.992297802535644,0.5366220613157213,-0.4343226042408079,0.4488811653462265,0.6093945545257793,0.2954182609710383,0.39915193458164905,0.40744737382892654,0.1236288790807553,-0.4623685322705946,-0.2618083928117733,0.0583467946024345,-0.8701912855227557,-0.113915219533543,-0.7928083670647684,-0.4360318376475943,0.9069817918872147,0.22781461714487047,0.029745215350391842,-0.8925995375063848,0.13105044562008927,0.719623361672239,0.25129437860210563
0.8036663945905042,0.585071695827601,-0.2298481504047608,-0.5403559189808446,-0.18485868137250905,0.03810935610754403,-0.06614508171408043,-0.7573592721180074,0.8022995215215759,0.5859728016697547,-0.645272662619283,-0.4615459995984854,-0.5666779010457574,-0.13668206092186425,-0.4519010508762259,0.8076059132093606,0.6221968650461842,-0.14915835401539956,0.23860730783445652,-0.8556684855419514,-0.6850271609411099,0.9875173693549364,0.17717140733714376,-0.37004957351817475,0.9248768625416083,0.4920053604806729,-0.6825594232149123,-0.30611077260653413,-0.9677286752459303,0.9279811940362093,-0.3835854676137153,-0.24979208453548504,-0.4719381016434393,0.4069673507199255,-0.8772242738642608,-0.7895967162327736,-0.3166788054778288,0.6977862431503152,0.9405433646920133,-0.9365266353027397,-0.2300007577758619,0.17095734567005855,0.6594011590827511,-0.8937024135379277,0.14645976414963885,0.19358143332525699,-0.8522611799503851,0.2926356358481449,-0.6253739551580481,0.5521534987065936,-0.13108196025212568,0.931735728234521,-0.9193396082430435,0.22090451255693527,0.20197362827467555,-0.9167394705896366,-0.3291256566264633,-0.6790003147619158,-0.2986532368520278,0.834693208940936,0.6913110496432173,0.691743974375684,-0.8525054858732922,0.8320414530991942,0.8815546517721006,0.21598709593141405,0.8287013065526704,-0.0036298582170185057,0.2976980317656744,0.812691394601187,-0.3097449162913496,0.6377564236808293,-0.6317282735615187,-0.05477227998806342,0.18826742648065875
0.1773242082732117,-0.7352505864007661,0.9851687754353846,-0.7735068477976634,-0.08098064437102172,0.31742522338244467,-0.4773250674318685,0.8780897350080036,-0.4697215383750778,0.5600368781047418,-0.8115802254603424,-0.17973035532418635,-0.03143075534078403,-0.3855584417522711,0.38598559777628155,0.7102820213590955,-0.9678088039415589,-0.976665241565994,-0.4865022528546731,0.8368834361146278,-0.3138934710078076,0.6913561997133939,-0.6605960255289742,-0.2828465898265041,0.9219240739491648,0.39538106831893566,-0.9673304664074299,0.5218165726176623,0.67710511560624,0.6061884609342321,0.6490581828113168,0.5474597538151962,-0.6300109643161846,-0.7514145343699952,0.9652416781740001,-0.7374006902629692,-0.5145156634021278,-0.8452989475577706,-0.43960788903699893,0.5270570482704686,0.6590725615376165,0.40938938687893994,-0.128972712764285,-0.3514208163933895,0.25946647212236557,0.3014080116011948,-0.9373365219637835,-0.37039093830392905,0.4171173319584621,0.057865020915324125,0.9662261196843328,0.660354643496616,0.20806549413793948,-0.1325910145832362,-0.6176776729792066,-0.8778070265555867,0.5690968776885786,-0.8925846795749424,0.8040203110515458,0.6478152250322081,0.2942674127761674,0.9211434269132154,-0.661893128551212,-0.4550327457805651,0.1665255289471865,0.3798738244041982,-0.25084692117607793,0.29485072753706115,0.7354548611625397,0.23875230429809463,-0.4926862712070281,-0.0025816072915782824,-0.3716090059883472,-0.9541226649575312,-0.5674854435089599
0.05301211264820764,0.4749119284062338,-0.36973192156261947,-0.03004461813985382,-0.525754436726857,0.5416160933248304,-0.6650169830881706,0.8845105953927548,0.5833439763173922,-0.33858359472178257,0.8258394504249327,-0.9445362301487108,-0.3691972316654919,0.40085837791197576,0.22601394214423642,-0.6266362533254894,-0.3004135035667808,0.336992030993092,0.4787995094307821,-0.2356192311667415,0.374384741027909,0.04871050665375043,0.8917081376685755,-0.35677169213478915,0.6375049308918274,-0.6268805208885421,0.26299590565896963,-0.19154030601054847,0.5229251236032612,0.8796115351452776,-0.3693257169841169,-0.4258560600285561,-0.5247330945964991,0.1014446462962599,0.002264285452143267,-0.8620140853835243,0.5348836449039309,-0.45779713716747716,0.3358295379995772,-0.777399303039749,-0.5142531835509988,-0.24422885445983145,0.255023127679061,0.7900364779990694,-1.013058086017569,-0.2345069291374406,-0.46772399707361617,0.9302484763256869,-0.9506200018377169,-0.9329512193541346,0.16331718540168833,0.24548850019097732,0.053945051424931,0.4254448443697972,0.33921470169358187,0.35268006807431196,0.17168177555362543,-0.6965383264120419,-0.25133085535670613,-0.03258496699200805,0.40858938975447345,0.7579436787453763,0.3934948435304196,-0.7377978698172106,0.195043563827083,-0.4401832940544194,0.2520306624445581,0.06046886714990705,0.09232062965833912,0.6699601868550449,-0.5092975928972844,0.23354580926378696,-0.5860412133039404,-0.6777613722877308,-0.6686845910659445
0.9885123990521163,-0.8138675543116598,-0.011300643255098544,-0.562826524770452,-0.6151684982663115,-0.7722346036226555,0.1923584354045521,-0.24260595312936187,-0.5161838797622326,0.11486897525529004,-0.4327841796382291,1.047690042063106,-0.7224217869048403,-0.08063907707750395,0.7889375821581274,0.6686874650461264,-0.2577816017242969,0.10519318706606079,-0.8680017135135755,-0.7796942382135605,-0.6416927165573166,0.904228022548374,-0.823887160338185,0.6218455488253132,-0.08036908148185895,-0.5711303478119019,0.8399800980458816,0.304387246450317,-0.3407863813333967,-0.4567589242225216,-0.9487874003986021,-0.5815986403305906,0.73670270805158,-0.2644775188416468,0.6633249122769194,0.06692823260374015,-0.9441440506757068,-0.35418040824920516,-0.41470758128732305,0.1446018941038652,0.23318064903428526,0.6097647062718707,0.9609890618084616,-0.7318628871672901,0.6863758547827296,0.2821450233545323,0.27033838451936354,0.6513226273621243,-0.7002438426510259,-0.8439198170707118,0.06984060828554518,-0.019173287735358764,0.8593483457673359,0.4778689032237673,0.3349202576557755,-0.5482131807699695,-0.21516225317146875,-0.560914261205681,-0.8734944605318682,-0.954954198668569,0.37067915533706747,-0.22421129694362887,-0.5203712972542289,0.08365308949856555,0.6169425333830274,1.0185992628296108,0.7352529427760788,-0.8150133863548021,-0.5965530996449296,-0.23324092421202783,-0.05628049559291198,0.7418204016955237,0.6621792298539875,-0.09941275251566267,-0.136667480464525
0.5302352459478793,0.6367178824319044,-0.512098624332308,0.7751593106318996,-0.06853799674901688,0.3797591630937444,0.8105880187955656,-0.4856001177243736,-0.24571037148587885,-0.3174617934004567,0.48480752301457153,0.005759722592933855,-0.6679246060620442,-0.6309802757038728,-0.3390911600189976,-0.08693606899709864,-0.6547442225752552,-0.6355237301618917,-0.2702267867300625,-0.4979103695496735,-0.06480653600699227,-0.9496965810539773,0.6707164853819444,-0.4463440944002614,-0.007400929798944525,-0.5343126246004544,-0.36529096100797276,-0.9127281649822033,0.15652888334487197,-0.2910592983819114,0.740158265911882,-0.4834549658930669,0.6118981460089205,0.5219193131151203,-0.3460832447801944,-0.5511934030495563,0.09077590006910234,-0.8669407074081749,-0.37508299358343045,-0.2902264796988771,-0.012660550367290113,-0.42976106969159517,0.11390282123147148,0.9917507409778727,0.3138366670234493,-0.9397749462007062,0.9551661426346916,0.8034887899860742,0.1208919303857226,-0.43655786218859377,0.694497285116063,0.5680107865644807,0.1093412758733025,-0.9330144091690618,-0.41197267216028166,-0.641554871589834,-0.7231229607451946,0.5879821391086508,0.9741673864994462,0.5278309670207474,0.21760706237356184,0.4728035141298201,-0.34172337543709647,0.5105331671186356,0.9975815263718377,1.0519829001244254,-0.11439659361243512,0.9080631378814906,0.8185667220242736,0.7469023500914777,-0.9398997684097745,-0.5305664758061704,0.29516000343558635,-0.7797469293905992,0.6062293602261973
0.735436954920619,-0.00390620611591711,0.7886628137350222,-0.5390227855648071,0.8788113439989008,0.8629322893765166,0.5594619812326557,-0.9534410473802379,1.0212476327463476,-0.07255976570472458,0.7346453435858203,0.7758790840174493,-0.913842240977571,0.989356404295318,-0.7237396277072664,0.6193401501537047,-0.8011272912680466,-0.5567591436772149,-0.10676962609694068,-0.1643875548918818,-0.14587678780169747,-0.41734103315011917,-0.20143450819591194,0.3082609679829051,0.20380198325119772,0.7252410269646598,0.34696040820794816,-0.18498639383060736,0.1033374054131345,0.2966499415508597,0.16853451970206088,-0.02292746394397729,0.3433719844217676,0.5984486920290111,-0.7958160595996323,-0.7324610406875395,-0.39702903621800517,-0.6306384340954991,-0.8418326456951566,0.39026508393108617,0.4867805589094278,0.18763221550263312,0.38606710654636944,-0.7505063040559817,0.11113533553476782,-0.934820431554633,0.03409338900153309,0.1385250829724199,-0.3812625771117545,-0.5158992860093872,-0.42201775135223657,-0.364917622341978,0.8908212152114172,-0.7693606908521716,0.28538446016812263,0.7122644070036028,0.0966507443562354,-0.8290659446743932,-0.97682773068959,0.9261580149908468,-0.593990785526583,1.0029086645444583,-0.7390583664713114,-0.8326467245309329,-0.8816934473810483,-0.13378316740440746,-0.37307625396985283,0.0712677552646058,0.42527041418376216,-0.9147395075690136,0.41194659745240625,-0.8953073172055299,-0.5284157799422154,0.03411791919716372,0.3698513486043784
0.28036218756000497,0.9789132372779464,-0.5052834947300098,0.6995201449086829,0.31598606394875933,0.7754731390946313,0.7381185571944341,0.9163663342625533,-0.49526289949036245,-0.7880314572682673,-0.08365032196785464,0.49006990506465953,-0.9063781326287753,0.7403939525008522,0.4379449852762547,0.8666632003344548,0.7458034292576327,-0.9174063758112141,-0.31365230147772866,0.4289979925415037,0.6460873506441415,-0.8361138170846729,-0.368776536961403,0.16589417314856011,0.4315218875915322,0.384117925115944,-0.9643491872400124,0.995717517795245,0.17846971727863037,0.6813766748099658,0.5564896026929148,-0.22112635900414565,0.5878483574311353,0.23648032036662775,0.6182328323366982,0.5671057868093052,-0.789467628985136,-0.3509720104168116,0.19855856512689424,-0.16982773387210318,-0.6649943616157931,-0.7676981067213515,-0.13461178471276783,0.2498473843661591,-0.40506880840135717,0.7149953849178807,-0.2613365217008899,0.5585060016029484,0.5847152479863721,-0.6170993117973376,0.6665379860602388,0.3132968075448135,0.8528971925433894,-0.41340441954868573,-0.83602313188531,-0.4491418524992939,-0.45734572424303865,0.8139323148252766,0.9595427313861399,0.3126577013879841,0.3314500064858221,-0.6821276330103808,0.6601482825601648,-0.8501651446206817,9.662848937947998e-05,0.23006248379958577,0.9518494588116909,-0.0754103954557961,-0.5317932651909212,-0.6032586705473123,-1.0102310936408065,0.08408146672548611,-0.4554960719814717,0.40215593964722296,0.3959262073855928
-0.2339364455913308,0.21717805944426474,-0.5658341198930084,-0.5431940407784952,-0.17116828148540317,0.10027988960520964,-0.8339658848176525,0.7499812469611116,0.13298598255664135,0.027365973683181777,0.4938402344719102,0.006269658314853853,0.8144893701836956,-0.055883754245809256,0.9361301996932343,0.7329976388167727,-0.26618450442804953,0.6489621349937609,-0.5633779997650481,0.6600780954539561,-0.10261181922248627,0.9904857904320122,0.07707587727411969,-0.7039167375715676,-0.20987110377950444,0.20759677815541264,-0.8317099417381846,-0.09247789017051142,0.28714205682856137,0.9351622034459558,-0.772143014415629,0.5021578648232246,0.46080165749745133,0.940222029855506,-0.8582729615603594,0.19519978873968988,0.8186594078650543,0.8247267266403953,-0.41902157571368687,0.195577299818615,-0.9869646389322592,-0.4593640066083487,-0.9572159932175915,-0.41265049917368746,0.6503297442440874,-1.0031984790421733,0.7306633226949742,0.005439922638341923,-0.13452172832641157,0.8087523525722995,-0.508588654410767,-0.4260697310567049,0.6005415994433987,0.0747898700150261,0.14593526329750564,-0.6445300433243777,0.38823386835476015,-0.3850867723154251,-0.8749824611931112,0.9084862377235395,-0.3161445186810446,-0.12631688923669765,-0.8529914852080236,0.9833381887753153,0.13023221336761578,0.38209418374722065,-0.008368264571462157,-0.9465444740543991,-0.7731748117494308,-0.3440357551455577,-0.02399957846083123,-0.959113789031277,0.6398163002482309,-0.48851841744750835,-0.5577403966093347
-0.7056711849296267,0.048031117688415746,-0.12568680651093175,0.1910507729626303,0.9106989902999002,0.5291423000797378,-0.3666393958134881,-0.3535376884299727,-0.20853148103403493,0.7464189748599659,-0.3456781061675112,0.8053427426781387,0.7118753009643725,0.8419983694043343,0.14888276671941583,-0.9534563670302194,0.33054079190194197,-0.10758592457067985,0.49203978832280465,0.9248065645041204,0.7630961848569081,0.4788157978979068,-0.7177070889594291,-0.7030589148253623,0.5275492964680751,-0.5411884211210547,-0.905282989115486,-0.4113773311494284,-0.6806569698682171,0.10123988134256644,0.6690474678307641,0.15574061523360005,-0.686017275672139,0.5553514092148196,-0.9519625925100245,-0.04197536563526223,0.5544356069488869,0.2668679132791159,0.17744909639076986,0.708628258323018,0.8675438196723589,0.8471010028641706,-0.6260137863457805,0.352239237129055,0.13023831686036136,-0.8200207801380874,-0.494392219914776,-0.16001786722660774,0.1503480167991278,0.6631134480716897,-0.8856170609083874,-0.5261706230562727,0.35710263941077974,-0.7361794916038173,-1.126532753118354,-0.7268628007951372,-0.3983690394106123,-0.8903006339300589,0.12756481641683418,0.409693465712647,-0.2566028650154645,-0.523946456157982,-0.26547067245491834,0.8567194256998305,-0.11705177774453707,-0.21202862293871028,-0.27234600179912166,-0.867031782542872,-0.9263873482454166,0.35225460779057954,-0.7863154623538703,0.7492262563379386,0.3981847458571876,0.06643615170544526,-0.16675988705866987
-0.32574843621921773,-0.8800166744907689,0.6084672511352199,-0.461434739818971,-0.3736262821544907,-0.4020448843831222,0.049686860720109485,-0.01593889191958379,-0.42577731278281683,-0.014173983637351124,-0.5565461422466825,0.5114663682282627,0.23852016776783833,0.9624926719869695,0.854645630789517,0.9249172672418722,0.5496366901226483,0.7142699062490006,0.2408825585262019,0.30436059884818084,0.1773794031824053,0.5471639000438919,-0.77229835549545,0.16138944704400363,-0.7244553380313989,-0.9900627936537776,0.17361830882248058,-0.6698199151202172,-0.8557296909836274,-0.6279984224087359,0.39885785056167494,-0.1427023300963198,0.6987913992504625,-0.9015394376747159,-0.2824540253816879,-0.3222751030442117,0.44525150583610484,0.594364273743027,0.046048061601893064,-0.061246097710133535,0.34867430924927456,-0.5932899856075682,-0.14617673333216383,0.24177654820724223,0.8134335069237308,-0.500208533846458,-1.00980115319958,0.4239299334608777,0.4099612087436412,-0.36457706992995953,-0.35597896786798383,-0.6906246328724773,0.3389017362547262,-0.3225147222696882,-0.7272679479982761,-0.32237228847772126,0.5574164884471359,0.063683210953044,-0.9117676795703831,-0.14133483635709954,0.125790615057503,-0.821558122128367,0.966023894181417,0.16783271397238037,-0.3082494889141167,0.6514968587781149,-0.5625978900441897,0.6485618081760914,0.14133846523391735,0.21427925088781288,-0.4957557404715962,0.9417248945747487,-0.5433363016937035,-0.722987535950385,0.3155280181354466
-0.8631866510634627,0.7137510449054586,-0.8647244140737691,0.5273096998609041,0.32853153977199173,-0.6853247769624267,-0.26474226210680896,0.9400380408044423,0.7354886794086221,-0.10115895223176312,0.4979548295125255,-0.12572334718713327,-0.47288866285862063,0.04476767810746581,0.3036291560556426,-0.913985903711175,0.6636407035145728,0.6624336779752338,0.8363359410292437,0.19884690886691336,0.9617847645538459,-0.7644972054456296,-0.6945319468434166,0.30708262184545837,-0.8603633702878917,0.6264775783644226,-0.51680708702941,0.7843404692341702,-0.6218013206370324,-0.6685044841542198,0.8059200863254237,0.5937164251642696,-0.4972133889552128,0.23139703122708338,-0.37281383343659114,-0.3429029525136167,-0.11791886568014842,-0.13302236568666845,-1.1566455624837544,-0.8467183143303858,-0.16909062313243406,-0.5559705553869125,-0.09932652680932931,0.263892030338168,0.41626770370930805,-0.035713242039934874,-0.13852172596047557,-0.06701870828646869,-0.5007602359015172,-0.021772914343847597,-0.4127429189588414,-0.6780062354263227,-0.2893380561515491,0.7605312815857808,-0.46773694890605627,0.650166498614979,0.12072756360279473,-0.0987384752694056,0.24263011050476274,-0.079478343000175,-0.5331204170910376,-0.6272366506041106,-0.5940529833924314,-0.919298674281277,-0.20621632860412903,0.3579050403476252,0.5273222017059112,0.8271405250733714,-0.5404356764284551,-0.08182819339619407,-0.8073367825266479,-0.6764458116514309,-0.48176909602327755,-0.39543297017762435,-0.8409641438237168
0.3788674821494535,-0.8291460253255686,-0.776599692971915,-0.5149514609307136,0.18856430059272486,0.786603800428831,-0.11330396360168012,0.2970095304415316,-0.6584941914700504,-0.49141468579180203,0.4894671826092225,1.0716025723322002,-0.5037781842105833,0.22825626760265094,0.254771855355565,0.1350390977547765,-0.0980752353584854,-0.8230915404906868,-0.5664394897317093,-0.05181197353377652,0.9086163949261113,-0.094337037969888,0.9485492077506645,0.006957126623701166,0.11827874533920602,-0.2790968071493093,-0.4606571242350534,0.2679888379444749,-0.7413625779029376,0.6501974001570416,-0.07219052004151788,-0.23640342554876848,-0.9095230743055338,0.680257582196223,-0.7214857056523044,-0.3539152394418388,0.2115436789016189,-0.7396006334121061,0.5297916423307213,0.2682404670262936,0.6216910782659583,0.3271918570718848,-0.7679748158756552,-0.4029640104694972,-0.1474060210821018,0.35039346870421323,0.6457630825443462,-0.5517352894879541,-0.45468302599020816,-0.1561937597266076,0.01223402788101669,-0.44157223993997363,0.5720881901513736,0.9170606670124158,-0.9047505608691154,0.9676008073690148,0.9403478147488569,0.17730701936173374,-0.00442272637795809,-0.7462194062541184,-0.4705413991452356,0.6974068474863294,-0.31995985047636083,-0.20639960363466658,0.08853460110666819,0.3554423483453917,-0.179873370054227,-0.09633164736613944,-0.24910557508277326,0.822618472920776,-0.9942143755404079,0.5317035513467869,0.246568390121983,0.19531611297151202,-0.6283644449163422
0.29031228273850324,0.40374271910181736,0.3559901998346177,0.3537760343106226,-0.07473413857535571,-0.9376872202308553,-0.23791122231365283,0.6147368277588364,0.8155389942514009,-0.8698961314127046,0.7814465434628893,0.21443213334391534,-0.6932127745896856,0.26338282600188156,-0.13333102288262894,-0.16082761988668653,-0.6022608821384879,-0.23629315197330833,0.35052860183047996,0.5401205269058609,-0.29955412753982824,-0.1841297794086496,-0.6757253033316188,0.31816727904737296,-0.9931150012109439,0.22078660973999092,0.3316737191062891,0.5078407644067386,-0.9938885515666941,-0.6783041379646189,0.7630238482766912,-0.07856732620524698,0.4110394931093841,0.7639074895318838,-0.045847420702978633,0.3178318319775446,-0.6214706511281919,1.0272019103394923,-0.8590693014796517,0.4375304230011678,0.7082724214527216,0.12144052363123885,-0.5049470487464184,-0.1236549758973268,0.5328817797788812,0.42918078162125356,0.38407064904519395,-0.6304720327092121,0.7739348670356856,-0.7434325255116913,-0.11965370933721947,0.9659061247489393,-0.820598827941173,0.5335232767807857,-0.5071509524308453,-0.7716994241155654,0.07393388070825038,-0.9451993878512314,-1.0405204211103403,0.8601606985089801,-0.9796588936657626,-0.7700794467694673,-0.11965385832822122,-0.021566853485345854,-0.5626824686724499,-0.12954252334869937,0.5408009148546247,-0.06742218344519096,0.39575092726269656,-0.47687598226187267,-0.007771969027466104,-0.19907708142813396,-1.0166157330828522,-0.9290639228632547,-0.17987691478767212
-0.2918454953716453,-0.7616896092534715,-0.7755941487519884,-0.6619359948738776,0.4683162064713833,0.29081301746577537,-0.573472301240038,0.051582387481365295,0.9302356106642983,-1.0019991295363209,0.6823253159804579,0.9576266896051593,-0.3617633862399139,0.5614380646619269,-0.4500724275158531,-0.5174116038798128,-0.43395978656007195,-0.7552351276514395,0.8428599165977534,0.3681560318846574,0.2615819697156091,-0.7954538966722965,-0.030263429590778684,-0.840647604499938,0.07479057714380319,0.7336221910590721,0.31887169418775435,0.19409035675071537,0.49054432455468105,0.9166394894640506,0.8928517843524967,-0.31399498031538153,0.2117689357978853,-0.05822906175797047,-0.7219942153225957,0.6288892653711162,0.8652392710424961,0.5314641962016707,-1.732999369028089,-0.13591023866128343,0.40013510106155864,0.7135969671583158,-0.6688725798037045,-0.17599458005032095,-0.8519190221990505,-0.1311092582289176,-0.48214712582784036,0.8477430761242964,0.9748172350946853,0.15647482700645338,-0.7518229029615636,-0.6416435249492306,-0.15789431246911834,-0.6955891120441957,0.18563624772412524,-0.5829998464988222,-0.029986000929960906,0.29095979063128385,-0.4620833474630254,-0.9125690277330889,-0.654594170943743,0.1490634915738721,-0.9700964435198057,0.08592333071726063,-0.7381177086076784,0.2689708270854153,-0.702165498672218,-0.8235182876405026,-0.5686663811657996,0.31916392010666267,0.7830864356308498,-0.8337626555928797,0.5221206492997948,-0.16608929925128452,-0.33027090723829894
-0.764916259617088,0.03902911531444644,0.6762700104966642,0.9415909240058568,-0.18010710834605131,0.9692441115425776,-0.536879819630607,-0.15347416680469658,0.43020224736660784,0.7117155365040274,-0.48730813302442477,-0.296104009653636,-0.5162339609176996,0.5974369711633529,-0.7566117023986294,-0.00532634506098473,-0.20373197392148618,0.24015752634776766,0.7887508123933955,0.5172701321902301,-0.9037021565852227,-0.9783004364936906,0.5986701031714592,0.7969127718140863,0.10228582523093373,-1.079432190569076,-0.6611191046645275,0.1833570433838851,-0.737503934538558,0.6124294281654495,-0.520064518684476,-0.3525107365171473,0.095971019747397,-0.2869329250775565,-0.5558197306972641,0.8277810754982585,-0.5260689607287097,-0.5997703528651416,-1.2082670414829606,0.7976488968326557,-0.3382938104332474,-0.5651138118882334,0.2195827307737518,-0.01095351697351522,-0.8335597800714277,-0.5166795206277894,-0.2799374901910955,-0.1177486449475861,0.09219629785943227,-0.7649112205102155,0.048860558194132694,-0.804114163513732,-0.45746697206647935,0.5391385843827599,0.5621972928262573,0.2889656891617362,0.934520836588741,-0.5253395400415248,-0.1535136553050232,0.3546902341644166,-0.9648477189944772,0.3173223412401701,-0.8216433733813623,-0.8715284923726576,0.16801012666194998,0.3912920291294114,-0.24766517399400653,-0.928099878036524,-0.7289072849691794,0.5323075845500496,0.9219000894024907,0.30818023063818445,0.19745550391051808,-0.6650660558887146,0.20994090392593695
-0.5550470090006934,0.2724115399736936,-0.22053220637111673,0.29713793973116853,0.9045140572976598,-0.5823211774786167,-0.469148480313605,-0.23273389044543105,1.022780465475717,0.41027845821545583,-0.03038789300940975,1.58251981234287,0.6077193459579608,0.36644653562895163,0.9631386163807036,-0.5157243800822319,-0.5999006964560306,-0.8084789636485554,-0.7312122698007283,0.12091088256583511,0.4980478151974967,0.41408020813218194,0.3725701766236545,-0.8304821246256903,0.8962144778489927,0.45434627201831373,0.8195741453684027,-0.7782256705661893,-0.5284842590100405,0.36636258474191347,-0.1447697452322217,0.7712945325733546,0.18686786020017052,-0.24416179405793859,-0.6365635171369289,0.7680563142543241,-0.7798612525682924,0.32256061940143654,0.04512431092203745,-0.5474413410386242,-0.7532115761652098,0.07028859994214573,0.7124205895786069,0.21527926990555787,-0.47363447408524484,-0.37205448756749243,0.8470732092210967,0.7238562792913706,-0.24002426441410404,-0.9409092527672184,0.08354232139180372,0.1036784003233172,0.19223694361880367,-0.019437540251947005,0.005795303080951977,-0.1567584043286778,-0.35637555329913634,0.8180234487065053,0.559516930861504,0.6411049399232185,0.7772200284220122,-0.16764070138653864,-0.8670726903642475,0.6317836075308884,-0.6424780921067447,-0.1740893711883171,-0.873645498692705,-0.7320527867247887,-0.4294064843533038,-0.4830829318632396,-0.3513026487144079,0.24660671320113509,0.1245106926343393,-0.1648869387109642,0.6932894094346256
-0.9987542416860891,0.510465480922344,-0.12565008526188196,-0.735812347852547,0.6186262427175466,-0.17605515309336828,-0.6837537383926228,0.06582226022913555,0.7212911524184851,-0.027218586774135387,0.5769678972808985,1.6412920409028413,-0.8362071187211101,-0.9996181604725852,-0.0597571851172203,0.4089597999263214,-0.876940557869561,-0.7808753958935212,-0.3795734417119751,0.38666429604212094,0.1646412911474016,-0.5602042603213042,0.002394871863794773,-0.5997668830852136,-0.23853736145000298,0.24579544049660237,0.585777698432492,0.6006358027835847,-0.8825652626322102,-0.23432583732824921,0.7898959794140163,-0.1835138391850045,0.8323603147852969,-0.7964809428574966,-0.7285399818422852,0.7245593933827649,-0.43661187149792785,0.931527541991458,-0.7919603724882343,0.8624471543292024,-0.5673598809260455,-0.5007746545595537,-0.3112747323161179,-0.5074164380021271,0.6072340157777203,0.2854607335763858,0.5853912852079182,-0.22290331613914563,-0.5407168038173856,0.4398141503388806,-0.034834698841639825,-0.802533270629302,-0.8332984879780734,0.12116608194459123,0.7825640256463642,-0.9056964409304243,0.3220331168043842,-0.48970115729006897,0.8149437054952687,-0.9948963630497907,0.11891622766732482,-0.12859481700396908,-0.9940541360729563,-0.91026405723932,-0.020763566825660454,1.2701771244175373,-0.7540364692013675,0.7593174308600462,0.12580398206572602,0.24334758747574028,-0.8398300155274786,0.3402520627239312,0.6368816552230221,-0.18029264951267318,0.5170115626976997
-0.5075498498345427,0.0630744657471335,0.7547342239745927,0.6175070733375593,-0.4967668599182365,-0.5883893094021577,0.25692339775736,-0.015864984909820506,-0.17969514868956094,0.849957465863445,0.7607029314826552,1.0671182695258385,0.4689948659733655,0.5363774356077551,-0.7076664069306123,0.6923001025141483,-0.37141881939379845,0.007474963552529061,-0.12979331305350722,1.1218475508013872,-0.17007370285004197,0.6537940058281079,0.7682061995732906,0.2282694217164833,0.5075769678099453,-0.30008839961017125,0.8940770161138691,0.4997753870428116,0.18791099271866574,-0.7517555076067088,-0.024477635026456647,0.7783883424785302,0.2299853027168238,-0.537381660939505,0.18502214869309877,0.7068283587066324,-0.9180283344396489,1.1568893283839492,-1.1354789325368535,-0.9788083694484716,0.4476645859005626,-0.5469046810218599,0.4231412279764858,0.02959218702586391,0.46185944515905303,-0.028856770318476697,-0.9328750638569762,-0.7686947250419661,-0.7946812712114096,0.2327796033145599,-0.3559952710968485,-0.45483685663850476,-0.25231298377750955,-0.9704721162224325,0.6564712361928352,-0.16410055263892456,-0.9126479125584828,-0.7853924302228394,-0.33036112369566367,-0.5104913615897251,-0.9020085258687508,0.8614705742383938,0.2311815173956601,-0.8457631842781862,-0.1597914219080101,0.954915258520581,-0.1024932122267538,-0.31096389485898873,-0.9350655285752284,-0.06063706953970435,-0.2062627915998561,-0.5515754460369046,0.35051936026597236,0.5897712085295339,0.8665413723370265
0.5941272272931014,0.639804340393122,-0.24231194131458547,-0.46598544233829065,-0.9266287795959631,0.5829397646898498,0.5970395511289909,-0.3535823868287315,0.6850007837299268,-0.08650776230103457,-0.3583199731575419,0.4625937632325349,0.0999882172270934,-0.9217179908171726,-0.15709750015585383,-0.6545717857339718,0.1856496968513065,0.0014872213690526282,-0.31630168898217065,-0.2846738930910888,0.811474095025294,-0.5179761597907695,-0.7992809877374568,0.8265212490289469,-0.9973948891414538,0.03215633364128246,-0.4985819342854502,-0.7892860261634792,-0.34058068814504855,1.1114327921552412,-0.06741107327598683,-0.9135308056972303,0.44343325112608073,0.039202215625824356,-0.9924456032598422,0.3590566930715489,-0.18900682074812394,0.960865119063251,0.04887421709812823,0.3328573763935403,0.7959936006563494,-0.1732394024478777,0.7376818943156457,0.9252886163813807,0.9314565010814098,-0.9906232370950596,0.27269466957996924,-0.1716287650375593,-0.1724617978957095,-0.22949140515760152,0.34085676489199546,-0.32380660421917795,-0.3361216115750767,-0.5003431072415384,0.3292172026528183,-0.5693729539854996,0.40770847853234277,-0.3369036251427125,0.8812959942165595,-0.4867837013017316,-0.9158269062735095,-0.11039730783514434,-0.15534969795073533,-0.39251549676958675,-0.0831000590488659,0.8324111468830847,-0.25026902503044757,-0.23575151923044407,-0.4806139357295296,0.08816115639363334,-0.8614863197449514,0.0935828957048341,0.34746354259413226,0.41430273127293177,-0.39236075738096093
0.6795935804754757,0.8943684741811359,0.3781502407049311,0.42301427048903456,0.26232753518105845,0.1843463493900963,-0.34344512239714603,0.4292487661962273,0.5017506746965873,-0.7078808720319751,-0.8037677233544814,0.2943406070713338,0.7956247653781218,-0.16303802215619653,-0.8446593374877823,-1.0124047231474467,-0.34564290650016777,-0.9072408374878097,0.5454332519718199,0.8807038399032825,0.00971365362304579,-0.614657716854952,-0.6700956335181175,-0.3484372629568446,0.993626840471161,0.4380236918005819,0.5463495488396518,0.44187787532542205,0.8342533906562759,-0.5563927007282959,-0.14161685155413342,-0.41571405087437413,-0.029455569953799263,-0.7168914477544301,-0.6402704264855006,0.7601240688753066,-0.11606233943146803,0.158993551837836,-0.7999219279383405,0.2801845040030163,0.1560088570891867,-0.4964802915855128,0.46153140415988353,0.5232205402786495,0.9618200984190787,0.8815190053938033,-0.7646219349728146,-0.4561816385960505,0.45699584511132074,-0.8531788168974528,0.9068866971354499,0.5459986721793525,-0.8797323282125699,-0.24173346539169857,-0.06758898966102736,0.619469705460261,-0.5771314419411161,0.07809564623769341,-0.8030940114782248,-0.1551664728882199,-0.9722077207669083,-0.7688086133800128,-0.36630719161145014,0.7352426414010939,-0.37563361497414477,0.010905483201586928,0.6971162746893235,0.3033940555656165,0.49358126164068544,0.051185474539720985,-0.7444690101066646,-0.9301709034471628,-1.060102370310505,-0.03402938587441277,0.32813541331318846
-0.36585399348734016,-0.4018132116471977,0.7973332003936483,-0.6236641373893373,-0.4692760657516574,-0.16810488474186414,-0.9160887473341259,-0.5555930391377677,-0.22788286111736097,0.4336223639349218,0.2635834243367036,0.7346876098934872,0.30138800368639795,-0.08504018313460036,-0.2428446964727114,0.1228026211043241,-0.9242960781531486,-0.024283308004957385,0.7537015571707028,0.4053617527468219,0.017484398746223692,0.8354218194673926,-0.9097934667292104,-0.2623413618461983,-0.9859474231056082,-0.408606499155119,-0.4002251106623245,-0.5496102547872347,-0.859652909145127,-0.31768789296697114,-0.667374647545505,-0.10225145453086985,-0.19894650786417875,-0.3774076007173165,0.015434241388018839,-0.7132225633268112,-0.5903705666869798,0.8040218769371522,-1.414231441898609,0.8975554362683026,0.5579926392575497,-0.6749858192413192,-0.07442496160447003,-0.681510218134537,-0.768782439614958,-0.7247541904264426,0.9358549825859754,0.13938673081811806,-0.14443607190845612,0.5532538789149193,-0.886298241066665,0.3274126445789856,-0.07158542887482032,-0.08747507688095492,-0.6544293960916294,0.5521783394320371,0.686387580515016,0.5530784682675356,-0.8024538241704158,0.8187328938900528,0.009350855673109738,-0.6034208476928706,0.47849726552926813,-0.3372646342242876,-0.9820295921477927,0.1809751573896387,0.039194255968199365,-0.40324678308488915,0.44375289597918643,-0.9679462811158255,-0.0896134162660771,-0.8776600461017411,-0.5499681045768656,0.44941237864055683,-0.5382393380037547
0.6839227900505243,-0.3221194258667047,0.944430382533759,0.35649993970647004,-0.916654493544325,-0.8122456640992287,-0.2258513917208459,0.638577131428987,0.48717382485474386,0.7878857903498696,-0.9597166804325342,0.5411396202455043,-0.39773441547237826,-0.1612678465609604,0.8954492925277415,-0.692853389320517,-0.8904396963419651,0.08275511333346386,-0.035787774655888845,-0.08855161838623458,-0.23590936444666666,-0.6680121109521681,-0.7352010805141362,0.7237747429313347,-0.9835486960217112,-1.028625892709966,0.9655886236037555,0.06581810746356397,0.34980578895393805,0.8823538743067445,-0.41313600489596747,0.0022091428947407198,0.30562198457091033,0.6135213961350298,-0.7878183400606169,-0.07471352220351903,-0.35702210323975625,0.5182049457554545,-1.057223075179767,0.023646234506425612,0.5919698906556261,1.0635584716916708,-0.055031543197483546,-0.7450937791351286,-0.6436167193389223,0.382713121797442,-0.8806360800535576,0.5410486449729487,0.3535356648528937,-0.18314980158325192,-0.12035415992434649,0.5992953415735077,-0.9924421607748556,0.7238086108886195,-0.506851497164463,0.24526224695154997,0.4471900766294588,-0.17790822971114859,-0.5281682711814868,0.9913775385955343,0.3524935662533813,1.0421139804511763,-0.6294843647761674,0.6041069829230125,0.9034155135607091,1.150743705708862,0.8139368861799174,-0.27298669002781967,-0.6039672204757047,0.8389278079407098,-0.34316716717010803,-0.5413804605954371,0.14475987656274875,-0.14727696633218643,-0.08969972767140084
-0.7236645046713867,-0.41066636827937847,-0.8625530396123556,-0.8210538148395856,-0.25738558702852765,0.5882916503993045,0.6905384435052376,-0.7718483069541221,-0.1426726897316578,0.3457798893660723,0.8297898059684168,0.9945645246008848,0.5562099014090991,-0.9835718980491182,0.28418292154877983,-0.5742914156146689,-0.4411703913470957,0.04173050101150745,-0.2603577620365208,0.130125311936945,-0.9130398606238058,-0.7861395185876443,-0.1874744298023632,-0.7225144737942241,-0.1547009380393224,0.04131124078148619,0.22466790620263957,0.9572990917174832,-0.8518176765734723,-0.5641798111148968,-0.5962556289664129,-0.82524458508343,-0.32934425152141195,-0.2713288562169565,0.0437236304654912,0.715779560956601,-0.5764878298120653,0.08954781274774665,-1.047245022906353,-0.36387871260396115,0.591661465213493,-0.3483399681400144,-0.0799493722614257,0.974556849666715,-0.9098322879847494,0.34602954599956415,0.42045783814239457,-0.5671649315165674,-0.45444073478933694,-0.8133965652479636,-0.7765190926688058,0.3397504228424522,0.5171289790864865,0.9354741592890784,0.20977944147214772,-0.1704354822945503,0.9115802606146433,0.5908753336942906,-0.9144852355768496,0.10077007540437138,-0.8111260497320683,1.072569108078353,0.4250572756300582,-0.44946905648951596,0.8722956052790075,1.0481325167224536,-0.2535660040153821,-0.4967414654674454,-0.3572907339518522,0.2073021942696914,-0.2449671879237039,0.09154285885040796,0.36846578955472714,-0.2822046192395297,0.049314347393281575
0.6120891547127629,-0.2725759907180862,-0.9014387900515627,0.5351646356845707,-0.5150005239093889,0.0771506042792519,-0.1635160046440606,0.6988815304451174,-0.3659716417784516,-1.0004543404149115,1.008711160990074,0.09548398591272698,-0.8067767184545932,0.4110048656468513,0.6952480574720817,-0.3159620644687847,-0.7836015972890763,-0.854100068920953,0.4686347581142226,-0.7789168332784424,-0.28802132749468917,-0.9804107900773945,-0.9819801181836373,-0.9349936659038758,0.3096760179215676,0.41034187853829635,-0.8007053282801317,0.1769047266387499,-0.9787087672442569,0.5319122425145448,0.5716667593263425,-0.9720640160831937,-0.9767461193427232,-0.9128427855590022,-0.29525468325506704,0.6904190909401611,-0.1242412359903201,0.07269857050579898,0.8943766887374369,0.7172288999382147,0.2782690923174574,0.6764051152633307,-0.9648939826210027,0.866372631961371,-0.30414517585463086,-0.6864228659683951,-0.9221793560455667,-0.065361801152611,0.38625240409312783,-0.03439403216067141,0.7994425382124081,0.038177202612310994,-0.15986520378926994,0.6794756999475817,0.7409874649679482,0.7085541936395129,-0.5779543643260295,0.14277788569353578,-0.7805613657033755,-0.5054792275266727,0.48887968836511114,-0.10402515864224152,-0.945592425500858,-0.3106525467135024,0.8644949443593759,-0.278469456335367,-0.28593520346313134,0.18605547493601693,-0.4966648335669416,0.06935316849019046,-0.5549682597849577,0.09183484175823628,0.5899653135981109,-0.7940535040210479,-0.6338929248140315
-0.7518066165877707,0.40950922131013395,-0.20452375857652616,0.2176170957396679,0.5952248552524009,0.8353949482467058,0.5766244796541304,0.12880119207888496,0.9284746934998385,-0.6660806501630565,-0.7613508260791174,-0.3747954228029399,0.8541120377806967,0.7794300856463929,0.6161315604477234,-0.9071414685602098,-0.14774974574337613,-0.35847445698557917,-0.8463704526746637,0.6116133873805357,0.40241176479451685,-0.48002452039119925,0.4817602724451678,0.345120491587978,-0.7687722665103438,0.05367824391378785,0.11779843431968116,-0.10362829498426643,-0.8194412103237557,-0.9128960492834555,-0.47878130749749115,-0.2689386464412708,0.7965935228463927,0.3418591166315778,-0.5667994895155002,-0.10083914414819345,0.2361900789788293,1.0024304886089623,-0.9633457210709753,0.046029664201944195,-0.027348063984292133,-0.4183042239734293,-0.1728231565034369,-0.6299667407078864,-0.4494949171689264,0.209662434832901,0.7285160680890752,-0.7142840732968414,0.16556198145235193,-0.2634947373763904,0.012031788780659018,-0.2290323087083156,-0.8686809473889822,-0.4759523537970523,-0.2113535568894204,-0.3003928468717048,-0.1683890420146273,-0.6754509937252574,0.6812884667713873,0.8823705604633458,-0.640287619457516,0.33179443743884607,0.5306733707692723,0.08734485818354162,0.44462201718990274,0.29058106185021015,-0.41742170113996885,-0.287261949208298,0.3721999484287069,-0.6945859420796249,-0.5484898591576725,0.8227266447009656,0.664222509298308,0.1986773794693958,0.1276534336885914
0.8734701197393185,0.6845938269197019,-0.06866759690113479,-0.5065736801908485,-0.8334491375126472,-0.9918952466935625,0.3574435787209654,0.801853896185738,0.29583017830585767,-1.007849778657964,0.8940998666662382,-0.86384928914074,0.28822664058856057,0.08349480319468815,-0.26971244351683377,0.15992254060625244,-0.1903033850708299,-0.52525022958585,-0.11152078334587656,0.2197067117759031,-0.557558005255425,-0.21953910257168804,0.6418363127782811,1.0103614221675865,0.9959139842291791,0.32933757341837977,0.2533783894098428,0.7340566316336194,0.6894803603983031,0.3281060563002773,0.893555648649031,0.5541361978928775,0.5861150973049283,-0.6811445041433756,-0.4020010233758889,0.7959243955213718,0.7219536455644975,0.9986966916011719,0.6789130055462231,0.4396128802878036,0.36415825096437493,0.3729279108660419,0.21370181465121826,0.16711332021167397,0.7540377864072736,-0.37083168522547083,-0.7494458928269053,0.5515859614179266,-0.3076655344787243,0.07376381073438043,-0.4866263963127965,0.8025906413403663,0.18817607258323674,-0.9986990012596081,0.13574020342115858,-0.3102722434121922,0.41553780213184055,-0.475408018119906,-0.30832695276443667,0.8427728855570813,0.871886667575984,-0.03161120353048013,-0.7354014109879947,0.5173705181402629,0.6424735224071406,0.2494601421531068,0.6658944497060995,-0.43470209974975005,-0.649849589157226,0.80063467736541,-0.05764945643195333,-0.12020718886756909,-0.9489545037946744,0.6361657402838528,0.19406921734404586
-0.8026702096247804,-0.7148382093258114,-0.9472934671568323,-0.13516254674123016,0.756374290390319,-0.057971126352603694,-0.24273339323582788,-0.505052313369723,0.17490869198648143,0.08165069995903126,-0.866400538483043,-0.452574243943682,0.4620736687564703,-0.36594683849114107,0.5796644839547841,0.2245250009124566,0.6947347783657555,0.58740800814801,-0.9012338267959462,-1.131468239057218,-0.6089873303436852,0.23476608296020546,-0.802585170894854,0.8460628962892155,-0.4805243475782312,0.14471231696533376,-0.46265906133451246,0.782145104483363,-0.3465718480447179,-0.1283762804754675,0.4897305250744165,-0.3478270591053343,0.25676973627092725,-1.0033384989928005,-0.26151531701122044,0.6783411540251789,0.48167669404544416,0.7542454446447112,-0.522603294579282,0.7013317368044191,0.15429097466659342,0.9433370100167859,-0.8005282674079534,0.005718000583442618,-0.6887755390304452,-0.9712154960946999,-0.35970520836769576,0.7729694919379899,0.7103567245071144,0.08306425647681373,0.4620448922391446,0.26440641024001815,0.7372781869489015,-0.21499335802159725,0.05900582159695995,-0.7220678372674332,0.5475077618760529,-0.6062989479395844,-0.28542475577954485,-0.5038575763398186,-0.6042274946042349,-0.6987125736786184,-0.5119294637613178,0.9036858629884585,0.8365032063629951,-0.04320115784810516,-0.2748022538302121,0.9515493334168166,-0.904921746585402,0.4488152323454313,-0.1021425037229139,0.5855752399622773,-0.2917706997581804,-0.49828745588145823,-0.20619610440387204
0.8330395230256448,0.5606239897499901,0.727257858566697,-0.7192771860609557,0.3515436806403479,-0.5801528250261522,-0.5011074512784113,0.8001135281230956,-0.25658754567897385,0.8032692947659863,-0.30464961023089465,0.12082818004973059,0.6235822139068391,0.9010862887454691,-0.5173601533266534,-0.06853253518731667,-0.08860061366783024,-0.1988958984509837,-0.42943694182284964,-0.6814255181893178,0.04479555706750928,0.7092036317186947,0.6499642017417219,0.11095461345749157,-0.1704720222036491,0.30126446745072194,-0.045095665650694235,-0.688775063180719,-0.6822941060797837,-0.47446908431433865,0.27319386347214747,0.8745916018145621,0.8883783407139813,-0.33145379386514295,0.06646169528601878,-0.0003958134036673424,0.3568772227706245,-0.04358301231496119,0.5190785521270115,0.7210967090457937,-0.1513641854169372,0.13707558003034317,0.9382360955040101,0.8711530107099444,-0.6338712921419943,-0.5157883251332156,-0.8954460554453324,0.2939741054976368,0.9639835618214976,0.6703485595905709,0.8102631743822005,-0.9316291785671839,-0.6290230135725187,-0.2324543724901706,-0.33216609399522234,0.4199897457820651,0.377991127380367,0.18694382207949525,0.5902258339052786,0.8357455872037991,-0.32631593349285587,0.7089254691019656,-0.14886130833268055,0.39862307084544213,0.18740686545168128,-1.1369734265404854,-0.18975664762325997,-0.2511826865142026,0.796123453359099,-0.24431520678920735,0.07033261275969746,-0.14506858003442613,-0.8779954142581435,-0.11205923250770887,-0.4806777636183819
-0.35904712109762077,-0.4335883717139305,-0.7964654147788055,-0.8559156195628443,-0.5220008085108674,-0.4754483497402743,-0.7025054545532523,0.3706618189653203,0.9496885730810374,0.060783443003841545,0.33626965210452975,-0.7882933804873843,0.8557398073294515,0.3274436213383742,0.7091072752347454,-0.8107992269588782,-0.2533277100532421,0.3547065379400653,0.864686018378764,0.473363989749142,0.7197879508279794,0.6671660545743284,-0.17369203235623384,0.994156099994276,-0.9514894974394003,0.8264991153235169,0.6467961731070162,-0.39544869596803683,-0.12009928780877878,-1.1220371859316876,-0.3020618341809935,0.8149112551422144,-0.4039078759649285,-0.1772955232174459,0.7142048786587784,-0.9993426618869711,-0.9520695581566688,-0.15087558485426922,0.5675441668489687,-0.43171032155505096,0.4738611709460312,-0.5781420910477516,-0.7411846826945685,0.829913737259575,-0.6305530279834335,0.9700058553734405,-0.9703523630845976,0.6291275763673546,0.2740749790419529,-0.7740721291577354,0.6865528908506859,0.25634279304721475,-0.6268071529609497,0.8630616225156044,-0.19894787418736695,-0.33359847808944176,0.8396287362367262,0.6526196937140819,-0.9942689298038038,0.3553268620568908,0.4341406251016102,-0.6492688366702063,-0.8625970991531245,0.6633470171112553,0.850342342778846,0.4266168173684591,0.8476272033624221,-0.7534253724604328,-0.27386873351927005,0.409388113162026,-0.11285113719121478,-0.7930772195649232,-0.2996535214738807,-0.3938474819192629,0.3197289891242915
-0.9745556942193658,0.6563211590902397,0.6426570428552605,0.12863536838269346,0.4798156043101264,-0.15346666591828986,-0.5611337578749329,0.33434323495174256,-0.049352566931799194,0.3635999241223792,0.24064660390503265,-0.3359300111273567,-0.20921033194558325,-0.8597421897553932,-0.43959985866785684,0.5103993071254461,0.9881436233404084,-0.8297378658944082,-0.8488152909016451,-0.25201400320240536,-0.330705257531791,0.7211046695008271,0.27620480361649763,-0.4400747584680346,-0.26161364214978466,0.25530344618209694,-0.6583067980653944,-0.8994099670074975,0.12275540671604178,-0.8976694709067592,0.36422928900592777,-0.5171137755427745,-0.389871937522609,-0.5046741480564395,-0.266342943414277,-0.3286252288345528,0.6328724865960547,-0.5344166884852121,1.2377649940235682,-0.4728450940041219,-0.5154272711448274,-1.0660418740757125,0.7193943751415298,-0.6993291629755073,-0.058048529741096096,0.5405762391368841,0.5170101792912036,0.4967500998019602,-0.8121459576547673,-0.503468836434933,-0.4112251421889367,0.5509376799357879,-0.9140581140050008,0.14926434452552445,0.9493507377664588,0.038077880614426476,0.6880399546152227,-0.019403369817466175,-0.6589011724743825,-0.2855442625760565,0.9171745981372847,-0.11018509489317119,0.6518575547493313,-0.09314245264493243,-0.2714155425340294,0.15498311348571842,0.6865574659527234,-0.38234930951551027,0.6367167245039798,-0.47123840348399404,0.6599673955687536,-0.28690059030857956,-0.1972324345287825,0.168867668510269,0.9546529650845541
0.7534257788550475,-0.36364068211474754,-0.9779859463237264,0.5468880017533038,0.5415808081239272,0.6560592109325689,-0.722301594157011,0.4920688234521018,0.7222395462035773,0.1097037395251594,0.5154167567437626,-0.01979434023969352,0.5656836756165886,-0.42716774841078126,-0.24827538119117729,0.2831785685820725,-0.7777909862979523,-0.38352210731190306,-0.7986589430110073,-0.7785051241256323,0.013854640015656536,0.8277496456643872,-0.34374653695487367,-0.37344992581198855,-0.49249886453189484,0.23856290003398545,0.10056525671220415,-0.2672956610943641,-0.6875911600954117,0.6260642725368584,0.07835161512924416,0.05483842626316363,-0.8875324865201246,-0.9710165304133428,0.729311993396027,0.607734455264702,-0.08628092025413055,-0.17606386598799045,0.3576478023394188,0.1857719673734813,0.4740940150094331,0.060567172819285205,-0.07481353795171355,0.93420212011133,0.5857159742204792,0.334454480428128,0.5857501298765723,0.9884717219180837,0.8522948387560737,0.2467430869142805,0.8629321310017011,0.24496093945008882,0.1917015217488743,0.5530678716387736,-0.5079002754353833,0.4604130444304135,0.0659390963796551,-0.6442758006807907,-0.6533489751198787,0.4654790509083699,0.05706191820167367,-0.7801090775354167,-0.0736772461348314,0.7426155586002152,0.605872165193956,-0.2816893491650443,-0.6472324433967941,-0.824925651568087,0.5963807571681208,0.39567383463854344,0.6580161527029807,-0.8371838464055289,-0.05453656747404768,-0.2831905790391215,0.07895344787306631
0.6195081618128313,-0.8412637158921197,0.8235480302905814,0.3003489118391827,-0.563066189074824,0.7980923629659925,-0.05246894486363197,0.8242467840275142,-0.889256899222987,0.28466506488615634,0.9813299207894107,-1.132064917989412,0.3210328559260245,-0.9788926699310214,-0.15943493979687423,-0.8591887316110048,-0.7919731936865398,0.9897806173290575,-0.7297850683719282,-0.6501257248810319,0.5239276983739788,0.6513915315001964,0.9542445439764341,0.15242334821929954,-0.2994474215020377,-0.5125098371549988,-0.8070558288205023,-0.9295372415809116,-0.8637943320450147,0.0010722360161106396,0.027318927886887143,0.2583884769292437,0.4590810325354036,-0.29386286224205216,0.7486824298086001,0.7933835115147726,0.14194313766623828,-0.7530290141632128,0.6074968738059258,-0.9718527197915442,0.6562394328507339,0.23783945033452794,-0.08824656245311127,-0.9265472048636246,-0.7757115465456168,0.2850840284484455,-0.9413222963673181,0.05270564738541389,-0.8059401783640153,-0.23934974461935574,0.8676842904117287,0.956613801334567,0.6493915810719628,-0.4308168126676683,-0.2912181764105343,0.23200892039872148,0.9132667460025926,-0.06756613873970144,1.009235150194157,0.12415208642338822,0.6136505788841842,-0.1786364586224275,0.7498822398183668,0.9313946489822263,0.18349088241209446,-1.257785382667782,-0.5182119057034443,0.5654215672818993,-0.9267767549387554,-0.4892239668591625,-0.4293830453226093,-0.8733301268423279,0.5170867738583559,-0.9240087333426779,0.4743178566343641
-0.7528263455430825,-0.6956595133497425,0.9922367625076876,-0.9465884277120327,0.14840954150044952,-0.9379704170058796,-0.1788954201835147,-0.022143383820516706,-0.9188536840357735,-0.8778751056193966,0.5061592106764081,0.20092030933838168,0.7513677844808331,0.8786816384267576,-0.6599853360498084,-0.8537492657416484,-0.9402778867296714,0.3152185643395509,-0.915406226281558,-0.7119701600333985,-0.953112706334074,0.3030804531197492,-0.05268382759264315,0.7324427136731421,-0.13270043780901444,-0.34029593178110007,-0.050746634310753706,0.5567569807141676,-0.16392833449154207,0.7612518120342576,-0.7836691815285534,0.6365418664225272,0.6002063571295088,0.6505378020810525,-0.019760500338393515,0.36245559890354645,0.1120001439408253,-0.21158731919067061,0.18859095002426246,-0.1001006653008462,-0.16092317195889827,-1.0644221582461424,0.8307110427002571,-0.2708033435209064,-0.35363991866269673,-0.9539277722558522,-0.917211254482668,-0.974151694151206,-0.6565206080946864,0.26011310046842057,-0.6878661522355172,-0.5986655388962893,-0.7420277814646702,0.13047863791339098,0.5238822778761985,-0.3677645504861306,-0.019503469786798008,0.16743278942710738,-0.03165152003784031,0.11542512320448978,0.8287069685353896,-0.1618460809413561,-0.2561814823700607,-0.38549295981241194,0.22973081470849657,-0.5797554041709245,0.26682524661391405,0.13181192123734953,0.9133209540087824,0.6597048209571056,-0.7275529761693199,-0.8108284441617117,0.4034317536792666,-0.3279854521205207,-0.21342527360713412
0.8187524145556024,-0.7978339841009919,-0.00612378842327188,-0.41672284632908474,-0.6915359623671283,-0.1908674952339023,0.2943098101225605,-0.13050368529575654,-0.685326880509394,-0.6915491776343483,-0.35687459608261124,-0.5925336319168245,0.8747811350635399,-0.3595360704006433,-0.7559721792701968,0.3619436912468605,0.06036046969110709,-0.3263015055111539,0.16259714549233942,0.42795395075297876,-0.24695292909905353,-0.7225725259266168,-0.9262207546494379,-0.04198589459601589,0.14562236146640034,-0.6269820827801038,-0.8426674283770519,0.5877318000364627,0.5913681582397703,0.8138667977676403,-0.18265769216906538,-0.8724177332783385,0.9883674967356545,-0.21419558322501095,-0.4044141676030333,0.7507367764787879,-0.9243707864974304,-0.6117912691334644,0.9627296345807986,-0.0029768708829818876,-0.007835082869490088,-0.5872353686314161,0.46237956785168594,-0.7876072683784119,0.9745018637681545,-0.9459804917677608,-0.20036908017711974,0.5486404082025452,0.17328805756485605,0.0934866354463132,0.8502418771918121,0.25812558265259383,-0.24623422487581506,0.42114071557851607,0.7451480862154244,-0.8284859977944387,0.2619778322131039,-0.20167952787087437,0.7769715197223207,-0.419641605365668,0.5134247361562916,0.9925435651549481,-0.0872332191989265,-0.17382863217756314,0.9905589091128975,-1.009089700732241,-0.5570126533300755,-0.8594833121694712,0.046978680469261076,0.7742491616415231,0.8639066964023251,0.8225558103129926,0.5400439609604911,0.48913806648595853,0.34183448886012074
0.62373600180777,-0.178722901176991,0.7843340806725998,-0.4897907454585431,0.6694973501572676,-0.48946302879169684,-0.6700881005680724,-0.3196279577488124,-0.793939104831105,-0.5425378193846994,-0.22687664766058946,0.44181086844246126,0.33211957783206997,-0.21985597990621106,-0.6968144225632568,-0.7268370067004151,-0.7212980838054499,0.9639683985452725,0.46299460565198064,0.797019039609877,-0.41027208403686855,-0.5623312947387304,0.7318015039783515,0.23885018876502562,-0.01273924360888942,-0.0492665512506761,0.6635049031875486,0.9184570963526579,0.7472141244855699,0.36266802857026786,0.15329132058075942,-0.1441642905011589,-0.011354807763642828,0.2708328279084424,0.3871408882221716,-0.2970274075656279,-1.020121689528103,-1.1023487263369034,1.0192732103771074,-0.5808234167784183,-0.5851184238937687,0.09376759183916833,-0.027453730994038576,-0.6453807480910844,-0.050635259922421696,-0.8159713890047727,0.3289275313143173,-0.9774519278509946,-0.9615928310924926,-0.35792656862907807,0.6865529996759008,-0.9148573049928782,0.6591763085256714,0.23027304564346332,-0.3541499749187945,0.9134422717373408,-0.8657776021485554,-0.37736617249817533,-0.016758307773117844,0.1305119398760911,0.3700935407882007,0.7725683786618952,-0.8672448082325747,0.11751572099816197,0.4463674384435098,-0.8648631725794611,0.5573059014177311,0.1516472783143012,-0.9713270393181175,0.21427600732511165,-0.19207214387087218,-0.19204766794157888,0.44604028309019494,0.40797635804680077,0.29701822579218856
0.05021861260298051,-0.3997975801371379,-0.9652172491083537,-0.6623623814540852,0.85938578820315,-0.6931418974303001,-0.04608239663381149,0.667481968463849,-0.5118757513128828,-0.23628441691508884,0.42065503121753955,-0.6138473899520689,-0.19348716864990217,0.03753326001820699,-0.5728655128418422,0.895620243939583,-0.5431769316143819,0.8638222242448289,-0.3453312566565859,0.041224626733757284,0.06225987091876868,-0.04662702608836362,-0.7339380226706882,-0.42783206186795064,-0.41222305814625393,0.21303331523519348,0.8605691727339598,-0.03246136787795791,0.07138365604225136,0.09879291549992344,0.2311063921551439,0.26486329989891283,-0.32123874080813636,-0.8210279729606778,-0.4946181584881318,0.4191235058132754,0.0260389706759176,0.2531664485930357,0.36882632039856783,0.7442009704094343,-0.15259289991426428,-0.6168067712535082,-0.92936327893179,0.24271337854795874,0.5197123103324217,0.06053272787547717,0.6828375840487007,-0.38449601456688004,0.7135203414171856,0.01684561278655757,-0.076416757348201,0.91814398530465,-0.9001208107314923,-0.8540650994272487,0.3864941605783784,0.5858037745119994,0.6947722769006252,-0.673028625563884,-0.2856432419595451,-0.0987219193702064,0.8760120026736676,0.7749300961664417,0.11020020042627718,-0.25624306080344905,0.022320486810742387,-0.7033414097100833,-0.33110968179019257,0.6501134312248563,0.38192517222396194,-0.19459973505445952,0.3477596240886313,-0.5074513221097585,1.009181025405183,-1.004310724729582,-0.9850379225990183
0.3006126951953247,0.470809684670487,0.6988834838959419,0.7317176853729911,0.06409088151189911,0.7009436436134181,0.6125822491814251,-0.15401347001579252,0.14793556972609814,-0.4902745494504749,0.11757441099016123,0.14336913981677069,-0.6167085895320039,-0.7321539971786365,-0.7767588423924137,0.17129161928690534,-0.45468855427775057,-0.45090142834641894,-0.37619329390753947,-0.794564642707848,0.8075941787926662,0.1998000816159044,-0.3235360974935202,0.07022938817890055,-0.9768007425174441,-0.3394794335016918,-0.9618157468674698,-0.7318057437840804,0.012099543109767361,0.3424444531403404,-0.9562935549970766,0.8689042959751637,-0.05108162100524689,-0.5371640401793422,-0.33172686120887634,-0.7796754192824451,0.6639759953722651,0.13704676723358764,-0.0780934513721079,0.21558862852507882,-0.48067988652370425,0.2560268171560839,-0.23656785664926724,0.103732793271591,-1.007915359600626,-0.4412103897041959,0.7032008546244859,0.7069351237041119,-0.4051520818801462,-0.017603488176067956,-0.20520383001830544,-0.5820716866400022,0.657184944151938,-0.8616010400031427,0.08725806901623358,0.43511327244835996,-0.8823709061587456,0.18716505370487926,-0.8587635467540007,0.43524275188918166,-0.8059511314886033,0.4769252142828388,-0.19401016576316404,-0.840634247228384,-0.5161982832490402,0.6628131356456511,-0.8864321379992565,-0.7322536848463274,0.6327240422286784,-0.14977810306173261,0.7472410572625804,0.5979589113866954,-0.9546897439938193,0.9555842526987489,0.8447180171976909
0.6225599590026953,0.8653280737989425,-0.5386615827244342,0.1436781588932679,-0.6456334357459009,-0.4438347038708575,0.6931049501298712,0.928373895387311,-0.053627083675368684,-0.769507118665046,-0.8290316018756017,0.5917567463493275,0.7229179978770373,-0.06322886590331275,0.0676658445336523,0.05535659920743808,-0.5672905709603456,-0.9114812358998615,-0.1816616187478307,0.18483590334187092,-0.9350132440468041,-0.803355518257298,0.43624252651157663,-0.6941200009444255,-0.22534165736210662,-0.5913490877774664,-0.6377388427820581,0.4910421861662924,0.6848994639163138,0.781969487468407,0.23245737849127812,-0.44645920197301237,-0.4428960042411331,0.018381977151394488,0.38899223963996493,-0.6521697632980088,0.7303158631576409,-0.3654732184255871,1.2748201996116044,0.7184875928580544,0.19418340858235517,0.45605460441559853,-0.02633390418704581,-0.6012470178352466,0.464349877646456,0.38254031300718977,-0.5508615134032296,0.8576162179077534,0.9590498041898212,-0.9694576465347516,-0.2752539303278798,0.681598144301069,0.12986054638798145,0.3173640663705505,1.0611222352713598,-0.34229197622484214,-0.037408219536081096,0.9642992990510568,-0.21781037654917712,0.4194077541573919,-0.21950250276410754,0.8908038684559318,-0.5955553010352912,0.25070939993702407,-0.29986992172723603,0.8657638840033682,-0.23838278473393829,-0.48060531704626486,0.9005899063807934,0.7603488878028147,-0.6737410359339954,0.5072746826227398,-0.24520626029672996,-0.5695590298325334,-0.23881059429421064
-0.14471579918463545,0.37007091485938837,0.49834954924493696,-0.16140281168339143,-0.21711080248106973,0.4657046191038807,0.7650478558960416,0.5064677689384999,0.061531385360011716,0.8858090649708086,-0.0025007567240482092,-1.1129688225560632,-0.8257477453947796,-0.7721653213052839,-0.38339282613321257,-0.8540784200730601,-0.7734739002985365,-0.2683673909980109,-0.6324571727317927,-0.29985805268869375,0.7472983260237671,0.4620587962980115,0.6626714025617512,0.39145277966894526,-0.3548159331788681,0.03211128849015851,-0.36963141562952695,0.30315694181758934,0.5338840156633657,0.3723341589718567,0.444546577357273,0.5872513021355313,-0.0842768074537546,-0.36638639293049324,0.8041089917882376,0.3072996677887177,-0.20738239869579372,-0.7219733531147451,-0.2147639295981389,-0.64551957090063,-0.8251205375249567,-0.486242219848437,0.8133525881937234,0.5205683169699488,0.36090999098222104,0.7032889149162422,0.6179975049019002,0.6597754849285948,0.9200060451101968,0.09699631629518522,-0.9282388794536965,0.4990934582943665,-0.737542352091956,0.42424975307191043,1.2846197563931645,0.8901537422125305,0.8721713147693873,-0.19349285268299835,0.3627943868915825,-0.9737495986719158,0.07217565398141562,-0.019690217908240507,0.6871694169641477,0.48150606740481156,-0.17559849445618084,-0.02048924045036616,-0.5554947913623367,0.22095256880200229,0.5821133879366083,-0.5890689707921363,0.1010848980950054,0.663197843251641,0.6062076921091633,-1.0146677207786017,0.43929711858706866
0.650341107044126,-0.4272203074387255,0.3274332958124909,-0.49749658851408646,0.43915824456598945,-0.8508701063909502,0.2011698832980172,-0.8499282869297244,1.008656706252458,-0.765171689577312,-0.8535019643674152,-0.5741520032246992,0.0021935244651985885,0.8261553767084815,-0.7881437978921004,-0.023676505518339722,0.3795314517645614,-0.6194490236581536,0.1617626113464923,-0.3767729445214177,0.7085598089682404,0.46323118576619016,-0.9226617622574178,0.46653541133009524,0.5528143988607593,0.374327695173689,-0.8834911808602505,-0.12593806380626957,-0.6577610284418992,-0.06465543955947865,0.052754323201453325,-0.7955503018318621,-0.9861450132047006,-0.9209061581460712,0.49694828744919894,-0.8245564372732493,0.2058509213203237,-0.5367124540025934,0.5634562185230644,0.4040719261788442,-0.9961792631277319,-0.5591055186105403,0.3314616511651987,0.7793421384137206,-0.36332627629907077,0.28211609165719825,-0.46701483563931834,-0.26329430140776616,0.2115233672402958,-0.7182649746390554,-0.19260021527957277,0.12368759937132671,-0.3662097754322718,0.7494450104122405,0.18436838804433023,-0.13859479609309822,0.902903557590802,0.014219739030799572,-0.14538020852035352,-0.3247438008749581,-0.34099167752489046,0.33368103700343194,0.5412007121524071,0.9952040520728088,0.8768326179212044,-1.018523112188144,-0.4255377848570253,-0.40306988388710396,0.30462416667923614,-0.5378894200661715,-0.1508273294440403,0.6391478831417834,-0.935147412742329,0.4170040863425676,-0.9045463464054043
0.7896770187939635,-0.6018300250197023,0.6389141715241293,-0.6276771865238282,-0.648375734255893,0.16646769960521832,-0.14280153981606755,-0.8378019787729146,-0.13448095409436628,-0.34563573575366896,-0.165532225027429,0.39464278703552685,-0.056658146510253,-0.7029727611698998,-0.6702305329958274,0.6288792775754086,0.6849299047671757,-0.16949172982717906,0.524106983908832,-0.09643215275575373,0.9849107706203156,-0.12451570049449444,-0.7273917842281281,-0.6452887382600768,-0.7086120521109947,0.965575923344522,-0.504161565230251,0.6378493274073159,-0.9066613846795293,-0.8827082327364382,-0.13746499985861224,0.7775558898346043,-0.08371277126708888,0.26346720450767747,-0.8970111162254704,-0.6218227501072346,-0.4153705559628971,0.1714582172316937,1.0851424778797467,0.7170798013797262,0.19788796712300333,-0.7086555463738817,-0.4773034697279016,0.019496831868399185,0.5623496919353284,-0.5650012566854293,0.8755562354258473,-0.0768797385907191,-0.8169351255308658,-0.021453377924611137,-0.019276166499682227,0.5374714729565472,-0.7764090625412443,-0.44861459692303224,0.09613374675236067,0.019155948411864545,0.025726623424912894,-0.497173524083564,0.1903423035818945,0.5163184656803014,0.09017595163719648,-0.9381372029279725,0.2732664776284857,0.6910530297479202,-0.4060647692465026,-0.01834619381985077,0.16936444537346584,0.6450284692193219,0.8924698372115126,0.04314390547134099,0.04386533140404424,0.7531848274403209,0.7587162302286817,0.18958050092346737,0.21505340354364552
-0.7208322337419841,0.29731657822292124,-0.5164532402254981,-0.44215545150609714,-0.6678754890469768,0.4093548715505566,-0.5691884901957786,0.8587587894714193,-0.6390576854203749,0.267107594636996,0.24809900012293443,0.6674011575678452,0.06438053895336347,0.6849511971269004,-0.17183844023179626,-0.49956912389912683,0.014697198660161634,0.6597275425331477,-0.8792370256356788,-0.3202102768994967,0.3836389644851251,0.421944899846836,-0.1470698739934042,0.34095798413241274,-0.5386656733199068,-0.47651934464643914,-0.2945023870393739,-0.31943318727586256,0.2924425536093682,0.10670477109314884,-0.5111096432583789,-0.6072736938731452,0.15976429966926986,0.9282308621575903,0.22845977160373523,0.08069240200138272,0.021838079467048563,0.146858174778851,-0.2895998006346562,-0.6512482971990615,0.29267142486256775,-0.1513472673382066,0.7859858254869804,0.7518307658372594,0.6124166725199365,-0.5175689937646665,-0.8750257270872178,0.2784504884341932,-0.4483713174868751,-0.07281985703586692,-0.1022002457602714,0.34128496709442446,0.12521673309651316,0.3055775961839862,0.013270849637508698,0.5470073032073512,0.055709108785336726,-0.6489207586527371,-0.2779926544925153,-0.6139740549677789,-0.5383980443241559,-0.7658607257107166,0.8803610741547896,-0.29735062898199,0.5340326808639011,0.9787121446888819,0.747048125353872,0.8807059703460484,-0.9511129175220701,0.6174329850219903,0.025100649342362044,-0.39498296540920924,0.5136133873073399,0.40614411239480985,0.47188862560236144
0.9265803195318573,0.013872308469313156,0.49090684047912053,-0.929914498805635,-0.9747758736148684,0.6781546778219778,0.40808573694054,0.5390010506984042,0.07405174601818378,-0.4105535094064145,1.0009012357758464,1.1294820801825283,0.684751398563519,-0.5353458600090735,0.13900594154746196,-0.3011601972800991,-0.6199289687928816,-0.6770155549958066,0.17836810074013318,-0.664702277839675,0.20009243936660318,-0.2805370816818044,-0.43075451806330367,0.3482932663766611,0.03366468342049113,-0.9064052827882241,0.8594877651940027,0.80798112285942,0.013768392923878641,0.31149273481451445,-0.28191346929867095,0.8076722834248956,0.39154499846184426,0.36862220354999914,0.9716144551125232,0.8831611958833142,0.12305476688019519,0.06687747049824846,-0.6879888712070447,-0.3261239880157145,-0.8660646959257031,0.8874326079875932,-0.4881337463429257,0.8366520147323409,0.09064441533119458,0.5985816829018863,0.8955664203028074,0.9958793787850133,-0.9593662864629641,-0.8573955024932217,0.622317376304208,-0.9628819301837983,0.08061993979765343,-0.31719534625802176,-0.3060541122943609,0.1916753591200536,0.01570544064886954,-0.6505402401598799,0.6532650634643475,0.2246894681788108,0.7984789044128474,0.9034287932407348,0.008639203354209615,0.8463062791555512,0.24190157958561034,-0.018296705847246974,-0.45754583456775544,0.13317486116137472,-0.5644729661527815,0.6062540073070158,-1.0183507280561035,0.29202731558166456,-0.19401152048249495,0.40272328939320867,0.8528902546814257
0.21909749195735923,0.10924549925707208,0.626854774861322,-0.5287635985997303,0.012100000364316054,-0.4028151746556353,-0.0690816576127317,-0.8525894050187119,0.924122126812222,0.7692316201029307,-0.9291689216978297,0.9757827727492918,-0.8165028573357036,-0.13137172039652187,0.570693374708472,0.4607985599900958,-0.33630445334504866,0.8294019608281507,0.03272615866535029,0.8971969356055886,-0.39501254398451585,-0.6384438227282833,-0.3088754011645836,-0.8228639116467155,-0.05837824280290396,0.4765560828417587,-0.8889946133963912,0.26397951814413884,0.34548776807002146,0.34067303694525236,-0.5737304356789736,0.5208696644588772,-0.2842659657935793,0.41524763869358894,0.26249707234605557,0.5941319897092898,0.23192357202905367,0.9670461655166707,-0.1979689035153334,0.14152284625293274,0.2952935253751916,-0.18197778604454853,0.982431751258767,-0.028870606169190908,0.8535375085587021,0.7009282707704062,-0.961522217362049,0.1310793178599036,0.1744372984191053,0.6610978476966461,0.6286792777365262,-0.9285322604310645,-0.1859350366344225,0.5425316420757593,-0.3068495463873789,-1.0125133341050239,0.8332134223094392,-0.3171670126053634,-0.9656183507891498,-0.798980306019608,0.6714645329136829,0.7818144954060744,0.19380595036165257,0.5120953828521078,-0.5832188904118341,-0.26166227175305434,-0.9689094484220123,-0.05572480943598075,0.09083945907665493,0.3862647162758691,0.8309689935882845,0.607066856553017,-0.9827245820702334,0.7695216309689378,0.538328407380477
0.5148478531588574,-0.5583914954747148,0.11313562400975792,0.3757560011354668,0.5161088091345999,0.4789377621082063,0.4903055504364666,0.8361849399042077,-0.24632287390484064,-0.30669369112774814,-0.09611882057187565,-0.5480363813979054,-0.7081754043906618,0.8647642769310959,-0.2036813690969464,0.4276314964702936,-0.7887815449400021,-0.5160942039835921,-0.8070595742680707,-0.06146693713373098,0.2630737649929847,-0.8757264112871661,-0.1650545690705225,0.8798534269747009,0.5362917850457426,0.1020778200811376,0.3168675173422975,-0.37141883619844596,-0.9321017997641363,0.5675323426815003,-0.5969749115456231,-0.3051529016071061,-0.7044128306112367,-0.1896674390168166,-0.5090146853283943,-0.3903417684453861,0.03576813875109741,-0.02123147065306351,0.7328177319070002,-0.4908297551188159,-0.6024489234556673,1.0174885441196677,0.5371994036846578,-0.07471578248513762,0.3953694795264198,0.2665691962500634,-0.62575165588156,0.9583961063767343,-0.6882156493191577,-0.7548184799848986,-0.7516285686345485,-1.013897546463061,0.17552448702660856,-0.26996275004816056,-0.9048144316363725,-0.9998518435945742,0.5280344300252943,0.9022359273029013,-0.6949075772688826,-0.7303246529937485,0.12520938116734284,0.5877712421273548,-0.34216454880766856,-0.7233587125143353,-0.6224271506252999,0.36952586254309344,0.23811730101552372,-0.4663666842771355,-0.8805191510043745,-0.45389322242996105,0.8633600771408689,-0.33210754170867113,-1.0199965975902754,-0.4567160453741078,-0.186898701253975
-0.5586547407697815,-0.11776730595968427,0.9544090844341673,0.6737160261837892,0.2259625131423262,-0.9870805234941211,-0.8012089582675985,-0.06139754006006754,0.6695050314789016,0.4552936914332401,0.017961266252828918,0.715742478966737,-0.963889406468155,-0.6861930463226319,0.39841824840485196,-0.5242195232086463,0.24293148213774204,-0.4545570801937207,-0.5801145431709429,0.7483530836913549,0.8608060287093419,-0.5213013787421346,0.43005149373259655,-0.11727409783614438,0.892604034322737,-0.966823767756859,-0.694604064519241,0.7589704642212192,0.8462953855981373,1.1264196650525309,0.4647818950078305,0.42262845064009064,0.7135129879533563,-0.31144582883610067,0.15361189939647465,0.8235731343620808,0.9385599177667484,0.6146522919347711,-0.8397719325201659,-0.26849309103906066,-0.5481005739628951,0.8711093548275636,-0.0038637056899339843,-0.9992055469881963,0.3161666913948292,-0.7803360480771145,0.055495875498491214,-0.2887577098348739,0.6924761736039673,0.05233013245699948,0.6274618558407228,-0.6557278075335825,-0.9566633520044703,0.672235586312102,0.7476620246031103,-0.8213004034278214,0.727239946702461,0.9593279153307354,-0.4036855718478997,-0.4139058423752578,-0.03497984890123184,-0.03160928032843815,-0.34074883791303295,0.26776830846302296,-0.11040803631424762,0.5726100507331333,0.8069004874859707,1.0086270408056466,0.20617626813082177,-0.27381895255358607,-0.3086556448132701,-0.009123951770275866,-0.06927363035679585,-0.40723695987824815,-0.477369866159313
-0.26029663378588314,-0.5051178984042467,0.2827795420611586,0.9021196963677379,0.009848153063416923,-1.0025508841934572,-0.855570207762427,-0.8273537199747174,-0.23175427614256316,0.757547373811673,-0.6178979345911012,0.9735521129465068,0.21104345230901247,-0.8245354265810069,-0.5768433108635939,0.09907591113854754,-0.9348910333791877,-0.3532426745312793,0.6160007166480265,0.7078295112497364,-0.8985329659230777,0.40944493275448984,-0.9639913494593415,-0.9106350942138164,0.3220189839341341,-0.4654714039370039,0.1985503937261903,-0.8227713424152723,-0.7890642947329188,0.1963777365715799,0.18355131259739324,-0.9095055421857686,0.8304215999256161,-0.510664659324376,0.20527810525776524,-0.5022742801341402,0.7130947744493654,-0.157959167482337,-0.7162543020258927,0.1420248763044635,-0.253262492935735,0.25229626184189996,-0.5315311675620331,0.4857476554528751,-0.8005193332807619,0.7286917776765808,0.9472208593793658,-0.09854044613445485,0.4243114094788197,-0.38838049573017547,-0.3307310633934262,0.5126634476471437,0.6233795467259721,-0.7016760271732728,0.049575571412193764,0.22748685905091603,0.8748302805043308,-0.769395550245404,-0.3835754937281084,-0.6067928470213872,0.8600061429779534,-0.4249966615474716,0.7595457009103671,-0.3165976621301326,-0.9626495365508149,-0.031241132426972712,0.9329975362880597,-0.30943838213668595,0.3894447753827261,-0.18935844413949296,-0.47333671475219513,-0.9687078271855943,-0.5521079937911653,-0.4945779989869583,0.7007161559432489
0.026792134786290996,0.9769044731836795,-0.4094279228653259,0.9657046646575972,0.07135299219118568,0.25117386450402157,0.881828062662711,0.33928895056359565,-0.21933737433865902,0.8839398136876999,0.2545526237437383,1.5784878146849182,0.26754797399017577,0.6918127709274227,0.3607211960007464,-0.8759031374259145,-0.2237352659260475,-0.6797504497687008,-0.880780675903798,0.4131158331847339,0.4087450149582847,0.23512561021925815,-0.6927741295986678,0.05262758265979694,-0.7111256985471539,0.6328031592827195,0.7961625301875448,-0.1029941523937421,-0.3639894026042576,0.7906939399231286,-0.7415809813463592,0.5772104200487502,-0.47485640237460114,0.6712292317446048,0.4876641115134652,-0.09125886807692554,0.766311719286814,-0.12579791192240383,0.2410592242271677,0.7919178444115784,0.6531221230159335,-0.10640942153333716,0.45540242907209305,0.9572907753408331,0.17596159278844076,0.7035758963939828,-0.517222488892899,0.33620955064186886,0.5342698276110281,-0.5176288399095719,0.20815033095493016,-0.793931908240051,-0.9275852735551536,0.13388090543315084,0.4069630628228279,0.310344050074687,-0.11994970788863954,0.5073204196079297,0.26517485602856566,-0.023461549088660508,-0.8131845704762013,0.6045666476852896,-0.8727572973864707,0.9775315927052386,-0.24972700508151063,0.914230012146551,0.9177093050294334,1.034789372841823,-0.4226087539858019,0.43216242370079944,-0.8194238012637373,-0.061353105388948816,0.18595617754183807,0.03979297967979452,0.02364832454828162
0.18495979577701468,0.49245745990357603,-0.4631595626874906,-0.39588888939002953,-0.20870418005110372,0.8725337395837481,-0.6584250236436908,-0.6501725374825035,-0.39217992388690515,0.1425820592783207,-0.2931037067996025,0.9119966903877598,-0.1968838669114605,-0.8663331233400993,0.20520301165047242,-0.06646568425394198,-0.9950250095325156,0.5448510766899892,0.5587401957358367,-0.2898883567986633,0.27736008047747274,-0.7113783592620101,-0.43275690930954847,0.9351243363515874,0.10628478374671328,0.2640320824588629,-0.4454885488461838,-0.9277645675432444,-0.037626473752931794,0.9121589610516513,0.01845909912779872,0.855700696357787,-0.7836060088183838,1.0056650713473876,-0.061076456510188684,0.9880252358610249,0.7414630330433063,0.7359865341940293,-0.09920454215464967,0.7876365606356199,-0.5886277571341573,0.8515002583901246,-0.4511563790927803,0.33938154589712316,0.8244805193597867,-0.08268975918377067,0.7315836385525102,-0.6723984815991184,0.4031352328351642,-0.35499310251111815,0.2108049143962619,0.5330497543139531,-0.5057074214131673,0.32331880376291794,0.3706047757745412,-0.7375923053837804,-0.4581656450087211,-0.9041069691211817,-0.66531287451712,0.30754005768023507,-0.7759961160036595,-0.32713157829103723,-0.4712565414117512,0.4454311193672736,0.3415447872635062,0.1367747000019965,-0.6108020021728768,-0.2714410226342352,-0.7292352680154897,0.39547101236846494,-0.12179650343571555,0.1657416905220235,0.5206773968644527,-0.3694603065981819,0.6822681386432528
0.8008810827333542,-0.6265505215137742,-0.18402644037375376,-0.0021698295248055665,-0.31696623195560863,0.22955173623040465,-0.8438814940839234,0.4710935317487108,0.3961664629568056,0.46377782822987035,-0.023617673609930258,0.44846320500629766,-0.7737474254767001,0.47285397710229454,0.04769849488553372,0.2943600989830389,-0.9847527343146174,-0.8393901172791126,0.2563850307565362,1.1667496775620623,0.743678392395024,-0.8706371949063043,0.8475949988739314,-0.5879872239390456,-0.22555030199417783,0.2350693266204465,-0.5166442306310901,-0.8224053281081313,-0.9627682593932944,0.3534981939480036,-0.32579702084526696,-0.02378763596410729,0.259665711272638,-0.4707874413361032,-0.9339248943557569,0.18880510908927697,0.49192880721527216,0.2683427514454066,-0.20208535807215175,0.5326816399288252,0.7778810977381593,0.8166317776521357,0.5156950720512647,-0.4258707618746486,-0.9896706414578856,-0.8781717549972794,-0.6429428942969491,0.9203736612751419,-0.03726123778003499,-0.45205066313355985,0.8541620250667155,0.1263325843724497,0.7028490983622238,0.11506802651981149,-0.988482795290885,-0.3609658809625063,0.11734312383326606,-0.045247237307740024,-0.7334415267210677,-0.5426354763182215,0.9228222906468271,0.2823138360766977,-0.32227281815957287,0.11082558170193735,-0.9967798873063886,-0.327425376448099,-0.056930626067743746,-0.00529171275706498,0.4893506392956878,0.6475039642155631,0.07100553545090812,-0.6485634053031135,0.15434058714167392,0.890235764638304,0.6536254244764035
0.0629403870011279,-0.7125762327464958,0.6041754188100422,0.6678022504281883,0.603677032015709,-0.6432652373175104,-1.0300180766737381,-0.8259860038961374,0.7275708314076462,0.0767430278467616,-0.3842966318852342,0.1707679081905906,0.32237696149646744,0.2689563450682902,-0.44325674389137065,-0.7604328541327073,0.04493227456975078,-0.4597762609129298,0.20355938266154644,0.1238725405352303,-0.7149032535961286,-0.5074219399262263,-0.772706802232383,0.16070754058456843,0.9622117047267393,0.8542839580870765,0.1301673933316079,-0.44080844741559994,-0.8044118813265361,0.5193344477586634,0.6102039316704868,0.3308006964112131,-0.26427727245119653,0.3590726124267699,0.6405174920492084,-0.5637391083625042,-0.4193245405921259,0.35380713090559407,0.43674225248850856,0.5364788205894105,0.43519422487766946,-0.3376738928542459,0.8413235001499602,0.5382481055102996,-0.7320682132727548,-0.6477471134864766,0.6616178666765901,0.46554977251336344,-0.18722952925621847,-0.31834107080167523,-0.345040749832666,-0.6928561072932788,0.3283769391582712,-0.7859603166387865,0.8955469468305167,-0.8291374178801166,0.6910026156426563,0.28186376385833706,-0.9356194475481294,-0.12097113790731641,-0.8495588203700478,0.5144521069432182,0.5214561975863878,0.5058722411245348,0.17721872012163772,0.7066438192113814,-0.4102819317179557,0.09067240320782897,-0.898215965050319,-0.32109565131764795,-0.198992255766329,-0.510561684193071,-0.18750969832517297,0.3723936340651079,0.40866870403866407
0.3148869297102804,0.2711166866844678,-0.6779389884928987,0.6359730492553494,-0.6194514866334878,-0.9374972144550401,0.5891928302890213,0.7606923269825133,-0.1421400635333527,-0.28274879753561954,-0.08577638367259889,1.7932508632018063,0.8167439963795858,-0.6953648135050879,0.20275440035097764,0.07911988013097122,-0.3082243542294683,0.5500967911312377,-0.65279516119777,0.24604695880442293,0.8538662256893519,-0.1664873445960579,0.3599220873865387,0.32176195480797826,-0.9676322991885018,0.49489556912149496,0.9724919571278964,0.8703327508602599,-0.5375998178371934,-0.27667882960816403,0.63366176501361,0.7414564891343585,-0.3981829034116992,-0.7667173760416424,0.9363304922005561,-0.39446099058205886,0.04066161710370965,0.5412544336959009,-1.5925579683247095,-0.21679900491576284,0.8117221234402527,-0.10322566406676342,0.7927168091407535,0.798104147704065,-0.9780366868403528,0.603574488402472,0.3015927560916388,0.4711353549167628,-0.15996088458753527,0.05923644108163828,0.30682839710515697,-0.7674483786673153,0.06609585412570967,-0.9231704288850495,0.44754782282596184,-0.40637682357867094,0.3984703346594507,0.7494934641715431,-0.08289009177673509,-0.13973039829708062,0.4938981896972977,0.04554566352872475,0.7399564607838326,-0.8929384794717612,-0.2453722797475342,0.18065763200575916,0.7417638614782801,0.2362479565822916,0.7167269975141266,-0.689399030886173,0.762185434755223,0.30800272290430536,0.6730968208122081,0.2683945109349469,0.47440324274811724
0.2467689102010505,-0.7013397761012612,0.11425613028439582,-0.3542850175469062,-0.0683387947269757,0.4335231778345077,0.3563682788760742,0.028835070045476533,0.19018026801674,0.05240773692889266,-0.6394896021191433,-0.030562186489128115,-0.9750944523858253,0.41679375900449944,-0.6324916469643326,-0.7935954708877458,0.37464925724280596,0.2549852909987561,0.03409859882011034,0.5261845466434112,-0.9208439408062458,0.14163511572372148,-0.7965928309954673,0.21795617529128622,-0.20239464983743277,0.5435041094815517,0.2993766403200035,-0.25914933714956,0.94362537398468,0.35912055919621205,-0.7020294462238781,0.11771167021047163,-0.19782282268378665,0.9319412225436231,0.12470162140250035,-0.44251651482758664,-0.12685271734306883,0.1507211956724883,0.08057885420313132,-0.13684792082968456,0.12864267244952668,1.0925564280003313,-0.30720703248784514,0.6307402602119219,0.7105477798280255,0.15448005798206982,-0.37056806182543944,-0.28781244264390793,-0.2038491325268358,0.905956176682588,-0.7630386668473519,0.5549620669721921,-0.054763417232574205,0.27565117596682576,-0.29086515248457434,-0.6783774423740863,0.9511573160954124,-0.26304425654541486,0.650357311218779,-0.6565372210366056,0.34103814090871615,0.06393445914744124,0.6424187125232728,-0.1547787290134534,-0.02092132664660484,0.6696972697603755,-0.8506474142194725,-0.7431817271528854,-0.39381779465594846,-0.5527031649484706,-0.5252831745610418,-0.8929369633271977,0.5899864946073259,0.8133331004087653,-0.05908394671473571
0.5831507224036167,0.5647401366754451,0.5567321693963351,0.8969756937084161,0.38061470461557756,-0.010463290267342447,-0.09558798669943289,0.9812816829900796,0.2950902661357514,-0.8916160165181831,-0.04610221262232541,1.1756716714719435,0.43248894167073465,0.4876513671674384,-0.6309522324673865,0.31289790963985,-0.9280746635359154,0.9229460125353253,-0.8843383941626745,1.3531416177917999,-0.4199904910452485,0.5377056812149015,0.021064788381432973,-0.46957671290130315,-0.5947731432385723,-0.5255559740350584,-0.625558037180847,0.49689212194885424,0.8213770642941466,-0.338095749665864,1.0435840983056417,-0.3562718303385136,0.9462651448150611,0.11614159850245474,-0.13270351510465556,0.047743740117236186,0.10453120101447816,-0.0466645158630551,-0.8960425844640343,-0.7873822367083342,-0.7604607890634969,1.1280141322205621,-0.8529242823491459,-0.21762542260241913,0.056892244409362996,-0.5784536363230632,-0.9133253669349286,0.9865148443945277,0.6855240220399818,0.03071435949055742,-0.9609874926278645,-0.06343057788285984,0.8784469748112114,-0.2673703002130786,-0.5353061629680447,0.7153944716430954,0.09944497359222011,-0.1324569712143729,0.06865328728660318,-0.777515438143512,-0.5232466870978362,0.584045137318012,0.15962469707566465,0.7611056442097518,0.36316208072665956,-0.6178547519589543,0.5773240729495852,-0.8654316479188896,-0.943984179343501,-0.6319905330420058,-0.600863207763764,0.19477242925963684,-0.8351940068346706,-0.39167667146755764,-0.9200147416748079
-0.2714243321866466,-0.7270481826799426,-0.3253723787285766,0.5566468721302789,-0.9217011762806406,0.8263367790087626,0.2501904091653213,0.16511473960247228,0.5111205575459564,-0.48612784408125054,0.6297129961913439,0.3024081595627444,-0.09098351055956008,-0.21025396408571545,0.1466232951591928,0.10473725110749933,-0.7070920123203394,-0.4774098465582988,0.23492023200598888,-0.4219337093824421,0.7571511061956026,0.26549125990824696,0.15293738933976517,-0.8550091076475282,-0.1804952690812506,-0.9437373181609147,0.6747554927472277,-0.4848802919897683,-0.2871534477092952,0.7929814206937033,0.5611651945474575,0.5703942949895232,0.43996691644571634,-0.09108087396068479,0.3672990741499278,-0.7523653773721425,-0.04313853478412107,-0.6993862465200771,-0.1161900516378915,-0.712268117090059,-0.749234429827172,-0.4282591447579378,-0.15955501122647528,0.23814376197000153,0.1136416471525717,0.13902233566979189,-0.5961584846260065,-0.03841675743853514,-0.6716758612632864,-0.41475571887638785,0.3308520961119846,-0.8402757712497849,-0.23700314662784808,-0.48001061486718655,0.4010985779885413,-0.9703676548730845,-0.868725506527898,0.24322718500651797,0.4041602423895107,-0.896363664726924,0.6630251016554426,0.7278861620940243,-0.8010703849904298,-0.966933944894608,0.00564827191758096,0.5947000492414932,-0.4380989133643825,-0.5929214099563839,0.2811401736337488,-0.657028190876003,-0.43567287888240597,0.02625480375911494,0.5094269364343877,-0.9152610839715485,-0.0017941282120370642
-0.2051425333012079,0.7768894941346616,-0.7568949481680481,-0.2421118093630664,-0.5499479934816492,-0.3809311876522274,-0.14293931157159126,0.6721427647876631,0.19181392066414618,0.3509314911662487,0.6473961727122569,1.0876398437320138,0.5168721685792248,0.7772624782003443,0.7440866376404621,-0.28073269361703623,-0.8037654837961832,0.19894711588438557,0.25252250974867896,-0.2590858177824304,-0.42336193667240346,-0.7414091073641687,-0.02121221224370304,-0.8528653021843434,0.7814752253381815,0.38030831996752057,-0.17600325077676068,-0.3202765973864633,0.14466673771473124,0.8494011122909583,0.9417826888608187,0.18588041564030366,-0.6381283489855684,-0.44675587586183535,0.3008980707465912,0.37951583233436553,-0.19123825766589964,-0.39005668808074834,-1.588625850310805,0.7612438723261802,0.6433928829328991,0.9625551549929365,-0.9220480017051615,0.6715228873235287,-0.9938346939504621,-0.1668388643881018,-0.8651759090907567,0.050815869634908306,-0.8225928383949244,-0.7850948502424455,-0.26816429110060325,-0.21904237259187465,0.14846775786973693,-0.6062992186998136,0.10481938864555095,0.5424409896455692,-0.28200593205203894,-0.29634165081031555,0.4261698325415338,0.5987364353719582,-0.048716306770725644,-0.8092332362418746,-0.7172317362584836,0.9574427983668538,-0.35276549127428763,1.0035741321392513,0.0021279883146253136,0.7813560347302989,0.7937054790654327,-0.2128417445872472,0.02558808484636823,-0.07036116252551992,0.5735673807765566,0.42927025545360087,-0.09927488047707504
