-0.18703650972230818,0.06438672605830151,0.46641302033515775,-0.6996375875596976,-0.43189493993977623,-0.310818502867504,-0.5493999288556374,-0.6153072893073436,0.8783718529589063,0.5785339155112962,0.16117933850945387,-0.9077072721664059,0.9683183716705854,0.9136716707772484,0.395994947662033,0.5254539290317645,0.6143305966630631,-0.9801428385485207,0.6976833141036846,-0.4122793105156448,1.0694696448809733,1.1566488389685665,-0.6575662284347172,0.6983706856269523,0.7799402250565816,0.18249074928860995,-0.822847513756247,-0.29959421813637355,-1.2849660616506138,-0.24286726816414606,-0.08878729062806569,-0.9651052651830908,0.5740241409562958,-0.6197331427835225,0.030191055157773147,-0.8091776097719563,-0.9836105582031858,0.9137372852243806,0.7084113626308839,0.2371778530116446,-0.9172066442193948,0.15066452873071215,-0.5978174828097494,0.5972452344908548,0.13538530302633195,0.8471558515281715,0.7144181436796528,0.9498506642922241,0.2455047586212088,0.6219127632485757,-0.546428244483162,-0.40592363211065347,-0.5197873573380575,-0.9120419298731731,0.3306278936425775,0.7907378520227373,0.7186620540169101,-0.4111563379438164,-0.19497082316335276,-0.03782398767153162,0.985492574887892,0.9322808953562057,-0.4241875090756974,-0.5676819546505874,-0.3747128994492951,-0.7786624340135142,1.0321882924958932,-0.8867117219248084,-0.1041248015174661,0.15577068720431866,0.42495379452776455,-0.20667816113033902,-0.15605123146877545,-0.7748740959382029,-0.047478482296732766
0.007675337133074647,-0.5671213510755033,0.7629582329875718,0.19207657420610105,-0.1767331876545842,-0.38151028836268047,0.28377669218715457,0.9866270935926402,1.271505032243244,-0.9526935925835466,0.12729743952783057,-0.7801794784279867,0.7511134591066754,-0.5992059636772143,-0.7803037124950802,0.30333627371134175,-0.3749467409478569,-0.30897644011941905,0.4460743036284664,-0.09113284493411437,-0.0728137258615788,1.3006408029588048,-0.3117667454441586,1.0439078098586068,0.01256931191360698,-0.06112067717566869,0.579809596094457,-0.12694820886147037,-0.6045408827394183,-1.9408464385706738,-0.06023292341226331,0.5280552633469068,0.2816621132263087,0.5921449501841392,-0.5473170314306038,-0.8091178142458025,-0.5448281793760795,0.7259018950649806,0.8204276242942722,-0.13587509091351388,0.8811319291812425,1.0167425960524592,-0.3955371501277029,0.8240293440622196,-0.2160208376238274,-0.1383906007207304,0.08858528229394057,0.12114495390605814,0.5796091911226063,-0.3020380239998557,-0.2028811825281104,-0.5348755559087608,-0.21118776486486499,0.35127786201329,0.24166672631527705,0.5056745914426404,-0.037068328793000066,0.5173052122291646,0.06899220296377784,0.7964819837823637,-0.005422412515602501,0.11051605247374757,0.5481917612210497,-0.9270271656551541,0.878200641316038,-0.41961154583743215,0.6874416163680321,0.48624634340948364,0.17725580132257066,-0.6722834286607463,-0.801589763301459,0.604444424610264,0.5042188583744245,0.12328008143716948,0.8939300127381483
-0.9483975362596747,0.24812351208044425,0.6997250117650704,0.6629639666091078,-0.7324786613285993,-0.155839267443526,0.4754173079438273,0.3194620017440769,0.01714166880223599,0.8262533928596876,-0.36150550032789475,-0.646956658723549,-0.08089634445511976,0.7986963232245154,0.28108783326680886,0.44545250970983497,0.5673573085016288,-0.646069260017932,-0.4122424073675072,0.4523221882011992,0.41638307493487625,1.8000950513413994,0.3706636834693031,-0.7964749616013052,0.18610006749722777,0.7380394288030022,-0.9767346760087043,-0.9601602458648856,-0.3226102830821588,-1.2771611594579793,-0.3503407383872492,-0.7700517404409313,-0.3998622612514182,-0.9693594463607696,-0.3314363882200235,0.7347946068920204,0.6949153218051991,-0.43507238892100214,0.6825243432709499,-0.7749819957122062,-0.9986867151677574,0.35393893593343967,0.45948160469737465,-0.8269925765888533,-0.10985171618835397,0.8112079108273513,0.2540355962465728,0.22476296629168419,0.22226545132342548,0.18934087313747996,0.8925841495814559,0.257321940052696,0.4897843214112589,-0.47270619511255735,0.31389980379603905,-0.9306675286641802,0.9240516425856332,-0.16170709874366745,-0.5228323695594121,-0.362948307821315,-0.6737358434530508,-0.6819073567679975,0.5817652613748947,0.1295600743005565,0.9666858332480605,-0.06479803661213336,-0.7230429160921363,-0.6257554575986762,-0.5153244435725363,-0.6897871933778978,-0.05631674790014866,-0.567034799127117,0.85478429712882,0.28169858094448874,0.3664230113128822
-1.0407032809635741,-0.9758409560647652,-0.8940816464495819,-0.26610461871558655,-0.2947635265211748,-0.7394684168956595,0.21336872172990673,0.6333188492053516,0.24139979959567723,-0.37313743471439664,-0.40031336372785736,0.11915692973775498,-0.171377513432231,-0.11973933403014254,0.7251942512486074,0.6947231886857728,0.7978243196655485,-0.6393956461701704,-0.593158448910904,-0.15245346010324223,0.35302545001279606,-0.10742217484611218,-0.9491586831619887,-0.7357599941502254,-0.2706145806353809,0.9825107603602188,0.45480434573450573,-0.12398065895381243,-0.42710703696719693,-1.560353144138238,-0.42737521010754714,-0.737467932644096,0.9031061714420888,-0.12411157866453504,-0.8153078645708345,0.7940481012931572,-0.23557563296688017,0.22648588731265354,0.8046540557720815,-0.28791647020076316,-0.5156443452734747,0.2960633619876151,-0.23013367011125527,-0.01708995645346692,0.3285537895904425,1.3184662256988948,-0.5008293883784694,0.7945941921265638,0.2643436914224211,0.8388072727658827,-0.6993574094732986,0.6895653086035156,-0.8477325210158487,0.958306083018906,-0.4774356741365703,-1.1081416160176034,-0.7048253873113839,-0.2762408388498426,-0.28517691803951345,-0.03487091849961182,-0.18310695610149577,0.6454070779567903,-1.116732109669356,-0.5627695590556782,-0.49234231216099766,0.09016292085040666,-0.8434924868975352,0.4347025429795117,1.035619229192043,-0.025789448969760258,-0.5884052068456006,0.06431591606357254,0.9814791189419878,-0.7819093330799491,0.25889284017379594
-0.7121216233253124,-0.5302690389755992,-0.8470913082970098,-0.9850997006050244,0.5812932923087837,-0.6770210399094426,0.6723538368733409,-0.34526347496141935,0.2564060027865637,-0.23172952199253966,-0.7265700732229853,-0.9924850802955856,-0.47369194444156176,-0.6525674558593946,-0.25981533833454906,-0.5088009113307257,0.3373214684972871,0.20756394085872437,-0.9298232394332213,0.37615811265656307,1.1119916786399533,-0.4179834479639676,0.2777545545995833,-0.7572034454165407,1.1390749725293734,0.5264748438966137,-0.7267064169553117,0.3091601384737919,-0.5296016678135194,-1.3272435214692377,-0.8259625759815796,0.9495708050094853,0.6877379626278393,0.1782144534838871,-0.5749192776606069,0.009864863884221612,-0.7126803182888145,0.12134845448205406,-0.8933398786734387,-0.45328650663335324,-0.9828845472600912,0.5267730856088995,0.8346328783203862,-0.08855526952590013,0.04819240976844043,1.301249559700317,-0.70617939242503,0.5864292441983351,-0.5095144684669208,-0.8174532969419606,0.5635750467874664,-0.6245712414372698,0.7085014145525601,0.14062896039048914,0.6036453592639318,-0.540996949938387,-0.018195033441983144,0.6099755026921478,-0.4348564464105226,-0.7873358694029303,-0.08658604734748684,0.08859335359568535,0.9362972760393358,-0.38329723027275237,0.49739444613449796,0.7915474538073468,-0.8145679464788006,-0.7218524940644243,-0.03560123314742714,-0.7088301451014765,0.16473479779099032,-0.14843384187727757,-0.8235459178387263,0.4457972517122965,0.009982435502605538
1.0075151562363855,-0.7057559222193204,-0.5229142567885166,0.19230312584393333,0.7229580328618513,0.9063776899964915,0.23685147368379078,-0.21878758604530782,0.5249964256060424,-0.2702668480805141,-0.10605345001912571,0.8216183921623902,-1.0366040137132266,0.7642171791942789,-0.27715564632063083,-1.0211614605998645,-0.5918257217108382,-0.974580088448264,0.9208071975289654,-0.9807600899763247,-0.44634079211928984,-0.9859639775114764,0.07893991452059354,-0.37261555404318103,0.9103716697643505,-0.23730918296642803,0.6563671817845691,-0.6099320443831274,0.6209901211529414,-0.2500623809946167,0.17297077109265677,0.130154291486333,-0.722121027250073,0.2851232191070123,0.39979696148185595,0.5783366828250565,-0.3182501860845515,-0.008901392037023906,0.3144422412824393,0.48265154183966763,0.8162343627831677,0.9323381867250692,-0.2541825153567399,0.32868455989250295,0.0303934260668689,0.798097918744264,-0.09203422053580962,0.6225632838322978,-0.21407438824247577,0.8552446264669916,0.5021643923012052,0.8577660093300912,0.8837348811908436,-0.4365329916158437,1.02050382607716,-0.2983494038140191,0.7277894576310284,-0.3253872914350008,0.8077465029160176,0.49993537222084183,-0.9493995926710497,-0.5735102672782153,0.038804872862030285,0.6731135375039234,0.35534210374152636,0.5943955766178921,0.7826399983882457,-0.25106785661588266,-0.679580483572899,-0.09957395789204834,0.18833244564873702,-0.41073304896800866,0.26457258686088136,-0.2689731383266156,-0.35898723469487187
-1.064723231590611,-0.8676007150610773,0.18672097539456559,0.8527950535881421,0.8379250116353611,-0.45525466329064407,-0.43261273556035174,0.4369698945493379,1.135136335811729,1.1137943801522359,0.7541389477230576,0.02202927885687338,-0.6693254503350995,0.7338304663428701,0.9788532304240278,0.5277379595888528,0.11517366685374639,-0.9423243813297603,-0.3393795264265108,-0.035659997633528624,0.6288013308299365,-0.3871896803923061,-0.31335132836138907,0.08494220328330802,-0.31460430532737066,0.25363099139646317,0.3314962993855976,-0.8823220960916122,-0.5969919318461359,-1.6934133160989688,-0.17009467951646084,0.4398452388969244,-0.8630329376179009,-0.1260982971623556,0.03656291993865601,-0.2279261354505746,0.20811403671732467,0.027426530953711437,0.4113243356282322,0.5033445918237117,0.6786992544013933,0.7407706267733802,0.30469823441459754,-0.9614174801033306,-0.6128539797218562,0.3463222079995219,0.1175659712327328,0.968570025050822,0.05227314377950934,0.6286674735941489,-0.32700190003430407,-0.8196080851209603,0.0038722266895290266,-0.5417846855184427,0.9534570189150018,-0.505880951043488,-0.4736896241094446,-0.5306021057383667,-0.6251770382319962,0.40246386140232504,-0.6403259869474324,-0.5724131674114776,-0.9227174420546601,-0.3303100045744996,0.17314993738939313,0.6185578739860674,-0.5639917998447063,-0.6342535153353591,-0.38932268859478353,0.3033328745259129,-0.09681556301620169,0.6056734720768735,-0.7541504694119402,-0.26246613722200146,0.5856726927836288
0.022420681268788486,0.016324759682038167,-0.580556454812465,-0.9921111196008943,0.05982154731700822,-1.0349978512222773,-1.013600182076966,0.13499164899929111,-0.1518373902527746,0.3089326104068548,-0.9492034925495448,-0.8914845607670991,0.15554077391837218,-0.5035855587366683,-0.05782248504140287,-1.0182872029128758,-0.034024807212764845,-0.5092993077574036,0.9594541101873622,0.8896028936962197,-0.13895156964960725,-0.6537897754828979,-0.5402057866032887,-0.8763921298361551,0.29665946351986616,0.0513258123911331,-0.4561657650433824,-0.3675383328681658,0.8805987693863065,1.249554284828638,-0.03021249946913976,0.8004545238112882,-0.8541809538344373,0.5557130557546256,0.47435716998888594,-0.20219653002018426,0.17528334786543023,0.04810661651473351,0.026143421880193373,-0.040057012646329396,0.12962012546464172,0.24945104277921226,0.47680547695601516,0.9824665771726969,0.7330835907430973,-0.9712291211572678,-0.5580356285480779,0.9673050348732211,0.22172847739447116,-0.9889575460947576,0.017255363348075724,-0.5004935511219326,-0.5057979164496283,1.0039745385067202,-0.6511219761518134,-1.181689327630635,0.3646289151693573,0.28996534731479523,-0.007909862316205047,-0.49814859518491605,0.8323080134411461,-0.4861104988305293,-0.14283150518742282,-0.06464013788670576,0.2372846930988554,0.3370565310392718,-0.1973539766956535,0.6423232993625482,-0.6376233158741547,-0.42693044897596744,-0.07927892407884657,-0.9101751898576675,-0.722020326455006,-0.4853284957209403,-0.8655341859340451
0.24403885127026603,-0.7713347263860024,-0.5426151763840965,-0.4169760333896842,-0.6533255833688422,-0.7755248318675971,-0.02658916514340614,0.9722158030986866,-1.3551319568409967,-0.6139971819022245,-0.6969357655701154,0.9895674296154545,0.721850615584723,-0.16359600404060354,0.1353065272397055,-0.07710938343857329,-0.9876254850850966,-0.39200571067383766,-0.3797240712550704,-0.8657048395415067,0.6382993369152862,-0.1481564695870362,0.15874811997722466,0.4797321812387014,-0.9521182992310914,0.5544847227512195,-0.5009705339973768,-0.5570935043689277,1.1101767848904165,1.102688576453695,-0.15829530360160288,0.17496134943205116,-0.4996077451926785,1.0014921491765783,-0.8226643146945329,0.27192425885983357,-0.5683670444660034,0.288816159582317,0.5858709011864769,-0.12097460480789739,0.08248260090429248,-0.0956692633961347,-0.5733834081834356,0.28465196824663175,0.22659211916363609,-0.25060723228119564,-0.20979317147198304,-0.8925739457055569,-0.4115137618630554,0.37817464755536856,-0.11222506299863722,0.42965306022296174,1.1860625010680181,0.7062415505557017,0.695293817335503,-0.5960460066564202,0.7619056856437499,0.18517773155747413,0.5807698610280204,0.7751469622304912,0.281636723331688,-0.24079336863934017,-0.4711098730186755,0.0719290732888574,-0.3935754926745915,0.8610757124620315,-0.559548842444523,-0.5637172224663068,0.4780541397122224,0.33829440945482653,0.4689005816332326,-0.7836085721470234,-0.08495920414881993,-0.45897104227261243,-0.4436195484492825
-0.34037502112341034,0.0942252367888755,-0.47162669095300347,-0.7162785563770819,0.9169382797950044,-0.3098043793325047,-1.1608950755676941,0.3754206778252189,-0.12953639840568135,-1.0198341871808005,-0.5376997324581281,-0.8999208740431082,-0.8185059391653192,0.3958857826538478,-0.3541984496217212,0.8173540223731646,-0.23129337648753087,0.5831567302350087,0.16268048512079847,0.4139391561490374,-0.13727671481339693,-1.2568182943237458,-0.35652176080446374,-0.4001155506965822,0.8504701294258474,-0.5167466460241655,-0.7909167377449199,0.3797114414936179,0.6109324911304236,1.8247657053985094,-0.8723905522602659,-0.19463217581984835,0.6181922658710287,0.7167775013049835,-0.5799152508526361,0.8078867472922141,0.17868294017692696,-0.3039127926659397,-0.8727824543876014,0.8811481979188667,-0.6139318553471682,-0.3577691335031503,-0.24748151855100947,0.849036872694863,0.45983737256483154,-1.218539789935847,0.43136123990254127,0.02218747381997031,0.410882752307963,1.1049428421497853,0.03397741948279593,0.32310811219426555,-0.28459425782799225,0.11962938705793465,0.31108481509795977,-1.2205102385031978,0.23743916104822002,0.1770240518483673,1.0035134192887714,-0.055501990963633126,0.11071146437360432,1.1314130714184791,-0.6977170705320004,-0.15331462670081086,-0.5219544019273933,-0.09047002817558628,0.20312238505990973,0.8115392902320793,-0.06115487856301273,-0.8887446469027862,-0.4155185122018275,-0.8903827004445656,-0.9714074329322835,-0.3409542607829839,0.5759713595307293
0.5212634331717377,0.07556727589005004,0.8300493153435001,-0.39554348004292117,-0.9389618118882368,-1.0517483512245698,0.9370774350507436,0.6457628087458332,-0.7604753644654513,-0.6446776829932813,-0.5551523967471585,0.11416697832370805,-0.2844582068328764,-0.5756813766331964,-0.9843020998188404,-0.4715041723295009,0.5953062023924608,0.14367555581007316,-0.8302018792914944,-0.0272131715122726,-0.8391369760389611,-0.41224163629642213,-0.4479924130646791,0.6064910525974042,0.5466749520637497,-0.2150437010982505,-0.12843452093860092,-0.686053962460347,-0.3777768835865805,-0.1783151177849191,-0.2757851234065594,1.054992041186681,-0.7459559220082413,-0.41599889260814793,-0.08412641882762152,0.7584682980455125,0.6210089138120785,0.5525855175753014,0.8908633944530547,0.38579892922851233,-0.9889099148547863,0.5755322421952112,0.686407439990389,-0.7741384311117974,-0.9591378593380101,0.7624854264643351,-0.0879263866509016,0.811732412436065,0.17980211417314212,1.0440559792874777,-0.4942089471348547,-0.8049134778338862,-0.6912343064011135,0.2600173053552433,0.8664253974363528,-1.0273506690802063,-0.6380411682843324,0.3515537372809877,-0.8772830765624033,-0.8423479253331679,-0.7075466804509801,0.2935663135437893,0.05414485864126953,-0.6454498099854871,-0.6384755875607045,-0.791991966905458,0.45233916092840204,0.07586071602904397,0.8654791667073228,-0.4265884515767183,-0.9980136590623186,0.0662284280532606,0.5524134670110096,0.5338188714843177,0.6985603137220537
0.22896425759540298,0.3201199803370537,-0.4896482779530697,-0.8625096474687837,0.4405267172637957,0.4205221352359517,-1.0173318138496656,0.03374992688529221,0.37094688256641334,0.8826065567705321,-0.9497576167612527,0.9274127989756439,-0.7794319564703166,0.5993504351937098,-0.7922354150452625,-0.8793852432755247,-0.9566920333915984,-0.807054315345625,1.08148997015566,0.10431637528471129,0.21923800563127976,-0.9500631993023839,-0.8309135586815188,-0.08362764349453208,0.006056504661649779,0.5835993556576244,-0.5317031926353981,-0.7925581598873792,-0.6177394779254696,1.5814255598282358,-0.1466327569965279,0.7058836115537401,-0.9618357673012754,0.02358330721542836,0.6249478118686441,0.2645683100786736,0.1864788381177844,0.29129677853658437,-0.17777475801539913,0.4825337705176327,-0.5225888498455603,-1.0973229556264403,0.8251418148202762,-0.7327289782364597,0.0921637073121288,-1.3603269939505966,0.40037326975447746,-0.18562837152268685,0.8451922748878622,-0.7582558467302254,-0.32732149092885376,-0.10139576028771222,0.146816029986858,0.5665276050718698,-0.4077320131761793,0.3301334996615287,-0.9616701018494237,0.12130985678279008,-0.6370604537623101,-0.32561828345517696,0.5875485417364961,-0.14629659095797015,0.5579542554457069,-0.8667651841617654,-0.8771690596159081,0.1292083835503726,-1.0368706989056677,1.1603718136797272,-0.7811718088445647,-0.40251686744103155,-0.864611085159131,0.32379829997752835,-0.6812291662550966,1.0875630551546813,0.21073985445175308
-0.010056221253087576,-0.40936467694380096,-0.37921254963717155,0.2283038393747986,0.7913474447443865,-1.047649427283709,-0.7584419858193807,0.7400092637356847,0.2872369699866751,-0.7134422734561683,0.46958873826126757,0.8247170360774138,-0.19036645382548326,-0.04287864858375046,-0.10764325469768335,-0.27562722481883595,0.7931185077505323,0.8539673244604837,0.6900282584582226,-0.4695294984909055,0.7174872137208934,-0.35526342906816705,0.10610821621022812,-0.2518210846082522,0.03655608016995543,-0.90643017709162,0.711961525564652,0.954945420963782,0.6948065973305219,0.7288179164122144,0.30684613566097285,-0.9914760000057217,-0.35102667806349025,0.39933422689080555,0.1123219192305591,0.8922553526718078,0.6224115048675556,-0.5252650922532812,-0.806034577814444,0.7046503160462819,0.33217004511161946,0.27318411177994756,0.9862295039669243,0.38182002452360786,0.5197582629193334,0.527380259165602,0.9824997673798749,0.8558696078191931,0.41195740734917835,0.6614688964683739,-0.4198748158640395,-0.2154778474666473,0.005188645801984169,0.5151392698354881,0.3459514157324996,-0.9114819818975868,0.41473577531846306,-0.8705642655221041,0.36938710991101814,0.9097168628853396,0.7672919381645112,0.6760111935297108,-0.8122605636363618,0.1760946593796474,0.3085169058689523,-0.525764389113925,-0.9251283602095938,1.2379659309313764,0.5493473923471275,-0.48316103891347,-0.2900100525655664,0.5473554692928928,-0.5076530475180959,1.0849329643859256,-0.1269588838275528
-0.302666239697789,0.4274462862617286,0.14237428515710496,0.6361605860641634,-0.685563052929515,-1.140111064448276,-0.9389335356161215,-0.8244242417159604,-0.621288238884206,0.040884436125289844,-0.3258063639099246,-0.3546820839638829,-0.29418158890163026,-0.822842723590515,0.543734137587724,-0.5228967876698926,0.2715577111116215,-0.4855481753698636,0.8762489997799592,0.7433201081575707,0.670455210318632,0.24238296293054884,-0.5288613953308232,0.8157954718618432,0.31129999515789175,0.10109492383364377,-0.3671007720676434,0.0504247674802334,0.8914848951641853,0.31187139694925237,0.16205051837984136,-0.853046142603415,-0.007106462922075125,0.08952465206289001,0.5184562689735904,-0.4337088032397147,-0.2657634767519722,0.422037251532614,0.14928428487827564,-0.4518148604011546,-0.7255426669705768,-0.3075017059776544,0.8784298649790332,-0.3942655753521119,0.7961163326397457,-0.40700294284214017,-0.43759737053898257,0.7330565533197679,0.624977976508917,-0.511930143330091,-0.40090362620431325,-0.9271927671327718,-0.8167560325114367,0.835150443796736,-0.6098950926000009,0.24285839208911444,0.08373492224664934,0.15607770792198478,0.9814767550913392,0.3259421644972858,0.07237741271716518,0.8040596170417339,0.9079527226250802,0.028126422985671473,-0.1611809992962919,0.3204616665567364,0.8492521455116032,0.4144110591616535,-0.6803458504233971,0.436498646687522,0.830509412498176,-0.3765889697765823,-0.5017085673032303,0.11135794001603214,0.85379084258349
0.5004375991236883,0.40884997018842933,0.9954794078729767,-0.45939835879393986,-0.1125705348538418,0.24800504566658732,0.15404757659690482,-0.4094655797300563,-0.03039409485787962,0.3159125379595995,0.1817779030511948,-0.3404645134497345,0.5826367829875653,0.7376558786410067,0.2824666778184257,-0.47856935084988506,-0.5661320918692222,-0.7901324494429067,-0.2134855496504134,0.978465899565934,-0.1517601298374712,0.4460137560427885,-0.78763267918985,0.7529477417222936,0.25384052583514893,-0.010285087276975505,-0.20089118436508438,0.16110040973470469,0.5845683804711854,-0.3132570699712488,0.8000432631323621,0.9009031690031115,0.2664698192083827,0.9956020065983578,-0.41254297013227037,0.006344701559900453,0.28826012323450106,-0.38949138505136505,0.22993648530977998,0.5985505869668425,-0.2213418817800479,-1.0199796597376458,0.8866618622785828,0.6065872760150156,0.2739911174000738,-0.7258514052711655,-0.12593233745044952,-0.2978121454505434,0.5562896931860652,0.5248659899452024,-0.9086376904131558,-0.2726244099585291,0.49812699193770105,0.6296619297415416,-0.6522113398647656,-0.9590962030377019,-0.6402193159778138,-0.41096730160675293,0.6552631250022088,0.21867393609923988,-0.3013271675954926,-0.17747862290324906,0.7354758933903212,0.17383224029941696,0.680075303129014,0.6318142308619317,-0.8377055526179183,-0.17796498717823084,0.27092022844617963,-0.9368493215216115,0.5947591447347259,1.0886877307739569,0.9228820582044683,-0.21873311049138963,-0.9745776094427162
0.8237336156994869,0.5208986015994227,0.024100320070091302,-0.4090493889795631,-0.9730760779564982,0.20771807400009817,0.36682135434821533,-0.6069580189494626,-0.6594184231611775,-0.8100706532348374,-0.14376402736512128,-0.5707329886875314,-0.4183038457134462,0.9505290127464296,0.3470389667215145,0.6529073276624225,-0.3875222199073839,-0.9799008612026651,-0.9046548345211177,-0.7577005779065927,0.9583032949558646,0.9255369102078325,0.8280234671540616,0.01985665327182311,-0.495067164958753,0.6418643117854408,-0.8076265500470344,0.22882034750667093,-0.7810451556123651,0.14219383362546748,-0.9399577161704021,0.4887588716134481,-0.4529340990098402,-0.8295906678227283,0.5203926111169473,0.9799386647643842,0.349705679962874,0.7955981349422905,0.46713475930332743,0.6380232477843399,-0.1903819393962835,0.6834939505515535,0.36818926637717564,0.7816758531537109,-0.09613204978016421,-0.5556336815120863,-0.6327523906801573,0.36038266240811495,-0.447137402396945,-0.5059684976599887,0.023251665055039714,-0.37469039967069745,0.6259912532609363,-0.3435141562740337,-0.5803498616128595,0.2758376594654137,0.45285777477914413,0.9251406244064897,-0.6472422387072343,-0.15005107842054058,0.26793618155996046,-0.16479745226324877,0.8916539154536023,-0.004548658472569784,-0.8832226003919945,0.9944472103328315,-0.29976869698739406,0.7801415150412413,0.7068960183417753,0.5518785970648818,0.08542868105083676,-0.3775857533094213,-0.39441564822339464,0.9555656803886289,-0.34212770494093575
0.2038486662607654,0.6902052244215688,-0.9418298224962697,-0.29523194096304706,-0.7668062718219287,0.5979051419487403,-0.6793036233790722,-0.8510803292819273,-0.568558650821683,-0.2899764395582469,-0.2633473544213828,-0.9307964687773858,0.7106355610932127,-0.44722834780185433,0.7110881125227922,0.43603186292275736,-0.4103474461628305,0.6635076177276431,-0.23691341429852628,-0.340405508766482,-0.6547079888686314,0.10393227968121099,-0.25899482347000435,0.2144667470466372,0.10529793004995322,-0.37948064494104755,0.6814054579149726,-0.830291945386888,-0.4654014689093168,0.7587473987555932,0.2041582113494193,-0.3091601420822948,0.4769267386772117,-0.04290051199072033,0.34804811831166216,0.794716223520859,-0.976555101934285,0.62144091681132,0.5044500896658901,0.496155364209889,-0.336151509017092,-0.7141790030550662,-0.34171789095647076,0.23578354619033023,-0.34723037953589275,-0.21992953883635652,0.056317481432724206,-0.8904670427067596,-0.5588348617599629,-0.32761570063160833,0.3148725032454014,0.6600728302802501,-0.20021395772363362,-0.28636039344604003,0.40105342519992043,-0.47581721262519716,0.9675732948395755,0.3345934379338757,-0.03675909446200546,-0.1732985191040443,-0.65578783767614,0.5119520724107193,-0.412939242248041,0.3860381489442217,0.4095668830812433,-0.3445245324469627,-0.45920523145564957,0.8058921358223695,0.1996385878996936,-0.9156581364030089,-0.9535806239938898,-0.042780498482649504,0.3576849485465828,-0.8687829217965278,-0.5283898745527302
0.21953270287449414,0.8321481727077978,0.1813889489775433,0.9755810116688327,0.8026805797028067,0.76266239007765,0.22003182238827074,0.5790485192682971,0.32908098059632407,-0.10634358012240339,0.16132697187990816,0.15233255946083812,-1.0446859623247031,-0.03084121784799913,0.19236383745138647,-0.18822249756978593,-0.9069820684018585,-0.7599044889044275,0.286194738149781,0.5916655529629035,0.7036840062956037,0.9934044584585449,0.12993785956657047,-0.6471872220187018,0.9412633558243031,-0.39807990582598207,0.5863375721161834,0.4784105494918494,-0.20801331335213688,-0.7120876312651775,-0.31519675258755725,0.42797806282768563,-0.5311745415613026,0.6554777790036044,0.9623591057080919,-0.6299234373810507,0.3188120623187634,-0.8676319142188553,-0.5614168070151676,-0.15451454522687968,0.4135322939085387,0.32501813619862857,-0.7145111789285212,-0.1761621257763808,0.14255674119053943,1.1826763348644844,0.42210146920655567,-0.15786252299107165,0.03511801873366119,-1.1922812711124828,-0.866552359901383,-0.21888689719776952,-0.7241648638435008,-0.9206088861166861,-0.12313161186711967,-0.22044930833020387,-0.6814515062952039,0.24157882994469904,-0.7430593017484168,0.6547237486911829,-0.36974409541885817,-0.20763889482320477,-0.1986565962855821,0.5162118472150747,0.33814067144760457,-0.5245552786205916,-0.7998712835468423,0.6009653329214615,-0.12173076545414753,-0.3248075529380339,0.5622295966314419,-0.5859375384326676,-0.19071550214925737,0.8099723737696248,0.7267703119650919
-0.9275166462213011,0.05732597641124513,-0.3320006374287499,0.14745321404977524,0.7032521896709678,-0.3412427496522505,-0.4768907887962434,-0.395777744619027,0.05204569495449083,-1.3517399284459706,0.9058827168322501,0.49798402407131104,0.7683618783982924,-0.02500576689254859,0.5757760669993608,0.92174349344941,-0.28087501957996996,-0.6240199465349371,-0.4571912112199723,-0.24557737239262947,0.7048223082910902,0.614117653245128,0.528393059323369,0.18037439738597452,-0.25932734063574936,-0.5017300670874324,0.9373316096972156,-0.49151414644175656,-0.19418901643298836,-1.0087983287319484,-0.3289788343518597,-0.5066206583109912,-0.4281241343027556,0.3838700286784723,0.9992763630358884,-0.7671497323400852,-0.6671263538587195,-0.09160177917519756,0.8380941413757026,-0.9144302168217023,0.07642869799710732,-0.7528458731598353,-0.702132744924749,-0.9320517626122878,-0.5004629300590026,0.8234122803902351,-0.8067812090393752,-0.5243733157302698,-0.2163048925993327,-0.5206882865635651,-0.7473885990382485,0.5703487489162474,0.8026147816267561,0.4424254505263592,-0.09006037871523337,-0.11047525150416086,0.871499073774966,0.09818918826308567,0.46929215576923433,0.5320276620655506,0.6680825792711896,-0.5214141254288921,-0.6195554773913591,0.5315938359281447,0.8355935144274659,0.33290057000976425,0.9297372792992926,0.903924824142309,0.16896540135448196,0.9655720443578522,0.4022816057764555,-0.3482584940329847,0.46235325689482,0.10808079351419811,-0.7010002071591409
0.3634245697549996,0.4493751327864106,-0.27962090133925005,-0.569804258189808,0.022590452005039764,-0.3280857981435724,-0.03596225133214384,0.3308996547464255,0.4207593144358685,0.42941168766636956,-0.17859818418659165,-0.5864724146714456,-0.5934874335884059,0.22546887678535815,-0.9741804081490975,-0.9317793954078958,0.9386914555850827,0.3099206687548007,0.7425038005658541,-0.8113132589129818,0.5202960089744914,0.36657489243414026,0.2622475925654605,-0.7285404493859728,1.013271823126716,0.2193661972734522,-0.7420807269872711,-0.009849533749660093,0.8242309989371086,-1.2230590582398417,-0.9091956504599927,-0.9376694952033252,0.37738714283167957,-0.08596386114717951,0.43956549550324936,0.26970186447090405,-0.6447666370378861,0.8932867163830317,0.8372995835677037,-0.5918175326236751,-0.046939985295023315,-0.671721713172878,-0.007667275745665334,-0.6316639295842366,1.0778424254327277,1.2044521871569356,-0.6682577376385171,-0.07041013157109575,-0.4281556744547678,0.6242872814303672,-0.866644366437757,-0.9011943484098467,0.5388819192332162,0.8273172573826594,1.1524591188930566,-0.6635052490799782,-0.8291112836592063,-0.46808892516189304,0.6523525428984392,0.4189522425274727,0.6486481302461647,0.4690295836914528,0.3883488214858639,-0.5337856593107099,-0.4529460255210982,0.9749464648920594,0.6154519343505237,-0.28472565053572474,-0.5201642795850269,-0.7881854545651856,-0.4916654356564562,-0.8846291265297368,0.8754924921982149,0.25141156629602635,0.9609255976097826
0.20720649251832973,0.4604602868553697,0.6394673258369589,-0.5657139297273243,-0.05748478721735315,0.5064735500075761,-0.8073424959325256,-0.09860108990764349,-0.9746113678407525,-1.390471455269311,-0.6539431261076091,-0.17464780788948742,-0.7272714299619099,-0.01589214017642541,0.15845823855821015,0.4582108410118074,-0.20705978433008226,-0.261119385591593,0.028860428768546262,0.1666943387516887,-0.49722097272983506,0.7562715500776787,0.48176544022001405,1.0874533864420242,0.725032294240881,-0.2354537717484145,-0.5745151289525423,0.6736582473109218,1.113639475648774,-0.8333188349532029,0.1711874131972047,-0.40582549156329195,-0.8693404698520069,-0.06443069063574634,0.9326630884719256,-0.375739127190475,0.7060277890711296,-0.6338687519731,-0.6716991175559044,0.45780377068680456,0.9360598877886569,-0.38480766726116394,0.23012663702105404,0.4371876036569042,0.21984526385973427,-0.5079508176201936,-0.06165734407279318,-0.8348912571620893,0.6907913852455534,-0.33737643302600284,-0.39997680256119617,0.8113852181925482,0.6420087827505273,0.5535042804733498,-0.7338918429840082,0.32586866190352154,-0.6566152221334185,-0.24194122202173315,-0.27053189284222556,0.5109569473436727,-0.015145878615340471,0.9673179252618224,0.2960650714391207,-0.10095687805449595,-0.8542254318291034,0.7515015675948058,0.7740870659147775,-0.5152395078188918,0.8730977660801233,0.015122492861153296,-0.663153034303416,0.5612542309674603,-0.08541499609244466,0.9504577462257844,-0.12723046311541011
0.007897031733804837,-0.44675752225287857,0.6193650940043968,-0.3573043633719701,0.7586684068887128,-0.5034833730474482,0.2609092922984128,-0.4650084273232707,1.051168332029851,-0.3524549111529729,0.5644189242143877,-0.8286319894634815,0.6058260571418392,0.011258896414711355,0.8990537382041629,-0.016178979197794093,-0.06627306816398919,-0.09020628303245835,0.4533064528457196,-0.5647798466828738,-0.419611264659251,-0.4889132144376564,0.25265207219359737,0.7073141863886944,-0.8043665452958316,0.7466724913499894,-0.35439061006797445,-0.09491220628577973,-0.24728595415443969,-0.6032186605993582,-0.48291874272112933,0.9531129036051804,0.5525388739105652,0.12471384931900316,-0.8121121131747147,0.6088532860227452,0.4304897312663937,-0.40665535437068906,-0.6411647043985942,-0.8290719979594545,-0.5564815556306109,-0.3944025405345396,-0.7088849902324735,-0.7972917833937945,0.9657151674827987,0.836487456459813,-0.9549068378776677,-0.9808555830446454,0.16844772823290138,0.06961451251050665,0.6405584298294731,0.2768729475023603,-0.4579931040582848,-0.7865216136209099,0.7937214615698538,-0.4445907128084452,0.6461578826741228,-0.8393609970919523,0.7140605855495009,-0.34949353751378676,-0.6807145541419036,0.13279509128747827,0.3823941304982536,-0.6786390073680537,0.5434118062492143,-0.06706042659328475,-0.2659016261143059,0.8768642970057235,-0.24409732991458777,-0.1363449070324509,0.22941886075734125,0.21073263833915876,0.6087734675492515,0.5795970416832182,0.6430533605412512
0.3109389835691684,-0.3890077025949337,-0.8057477327507866,0.20699700953044395,0.1964517379448821,-0.7248139428217593,-0.18370116249390248,-0.972366157989381,-1.0427502548485736,-0.4264224719061627,-0.45421635907287783,-0.7600351648285449,-0.43593774476344593,0.5424626561475578,0.4961435753066106,0.5624967790140718,0.6326020992786088,0.06845882033116267,-0.4260667210954832,-0.9144088874642525,-0.9719503150580856,0.07643791769760919,-0.24633800872795136,0.8889450838236593,-0.7925316878866344,-1.0531575106164255,-0.8163196568687283,0.9772197005006681,-0.4605613567449914,-0.23966837186777395,-0.6458683818190731,-0.14996341963254778,0.16914150312716214,-0.6158785809702364,-0.5516217601390121,-0.04606779916906103,0.32723799573485624,0.8893919697431812,-0.5202278266800456,-0.3603793568379485,0.44951374162820823,0.6225391680886254,0.729446999460994,0.6126174418865903,-0.1647634710466916,0.5597192993310386,0.8868552235443575,-0.6565918242358465,-0.3675228098238734,0.8779529718932305,-0.2830998496542422,-0.5142231260295094,0.8281067308523005,-0.7094065087935977,1.0785008037448156,-0.6008751574138336,0.5834330683674873,-0.8357596384013875,0.452717801196506,-0.08816077679293048,0.16613390717821883,0.3017402664853258,0.2060021786882928,-0.9034671924655626,0.7516991579329712,0.2401583657707887,1.0031681857789096,1.014609220429094,0.6979917787098854,0.5248963558227969,-0.6869329728684052,-0.63284770251196,-0.7866048592023923,0.6177980531358354,-0.8893213569388361
0.4256478190915438,0.07678092574928683,0.3072000150311725,0.5820121812644036,-0.8021902551786786,-0.7758022173143435,0.8780214759564112,-0.958157747467113,-0.05338939969497719,-0.6132351831938013,-0.7679947642757107,0.590774629213223,-0.7068256605366785,0.5509515465438892,0.29791382443147063,-1.0084247369820492,0.9083272510488481,-0.25494252923521316,-0.4941047312286448,0.11357116114022993,-0.9392156329203722,0.6281989448886293,-0.2104315799364572,-0.9104837244924453,-0.36272519838568545,-0.9477716301187269,-0.9209021658305897,0.005439272493710468,0.8907582897144619,0.3306094219559451,-0.5433812635522577,0.06311265797680272,-0.7075620162259926,0.4171048590137559,-0.0303543826271862,0.7050435403674671,-0.07685198477795173,0.8173090745944228,-0.5275837515319005,-0.6697620685971185,0.7804681222584748,-0.4860816671903554,0.09248222700862896,-0.3716364896630237,0.6502590847387442,-0.6696739003434762,-0.06671090843734896,-0.08810131050441401,0.5075607569856904,-0.7698485018291578,0.19222606145098695,0.417328568601437,0.21031658732067768,0.01543538567756175,-0.611260958210487,-1.1165488800792744,0.03862940902261062,-0.24467995902872708,0.11011996673477883,0.5821637256574738,0.4765743188459977,-0.5020318564902349,-0.063615957346899,-0.7094951710388816,0.7178638057928513,-0.680552676222234,1.0193876378068554,0.5075998102901282,-0.8509316367033786,-0.7057258265247432,-0.226356214501942,-0.5704605844444861,-0.3881994177709692,1.062806951541629,0.052599384873662426
0.7199445661375686,0.7839489098657317,0.5586716115903437,-0.9367913848717648,-0.656754929396747,1.0246573893098565,-1.0055798894815897,0.03874138449132765,-1.038149240963891,-0.5037940876701953,-0.2554138287943404,0.9053728543217769,0.4400821131733336,-0.8072915388850042,-0.21466773218379465,0.962913763502253,0.8995015787045633,-0.31450255760886353,-0.2543793805436761,-0.9507616349699642,-0.16031183051701262,0.8802230462538344,0.1237796223707892,-0.88066091164493,-0.7165976824670774,0.22421350111780006,-0.6190325773691682,-0.9560205056065997,0.7330711102045167,-0.9533570355592095,0.17035131973621834,-0.9159273620350165,-0.12410243526570476,0.8433343407922063,-0.5891794814528737,-0.01387257600776548,-0.3097030622621292,0.03813883251418699,0.9477017709532966,-0.45769720443725054,-0.4591905901637744,0.2933972504297077,-0.6204069070829583,-0.33919785114559614,-0.6430576643883886,-0.8247030928426184,-0.8811152367087892,0.8761974571685995,-0.7843802500129489,0.8424487322177023,0.061148139133766106,0.8257982862635385,-0.2033208767689826,0.9640911750461314,-0.28899117829853427,-1.2172846257659324,0.597173060752089,0.6455531144276762,-0.5694777194485496,0.43167269156584903,0.6440460596495285,0.3172620875593338,0.39373560419137776,-0.42825257823838914,0.7356901933652502,0.9820811386482382,-0.7243554279917701,0.4393839111106343,0.8052442040973596,0.8504338855616372,0.19642373630686505,-0.356585574113216,-0.4911914176525778,1.1032104355813401,-0.2984579583786554
0.6005057644465455,-0.10738579911853186,-0.7292211726564982,-0.6902785062310047,-0.7252160275834295,0.5450268622113723,-0.979412427098427,-0.1485934273238714,0.6492502909830689,0.9547225314668668,0.2162972523903917,0.942002996547024,-0.00300078239106793,-0.3737623109361758,-0.08364866486595604,0.6417783345556555,-0.8076292325993539,-0.02159066078017471,0.4276495771120839,-0.9126902131688548,-0.8374767297158928,0.5850128476241325,-0.6928773865404738,-0.7822725956474281,-0.7959216198816421,-0.4637520354006742,0.5984311245754586,-0.15448786734355752,0.548356847348689,0.04197949839417414,0.6393248502769319,-0.07281853130164785,-0.19560025531515404,0.3960872493138185,-0.111535246875764,0.18808671016496567,-0.041907325284408284,0.5276474375254251,-0.24669303278815496,0.5029263803643516,0.5425667941912447,-0.4390408129184842,0.3585580644810679,-0.6954173089575039,-0.2779286362323236,-0.1251281359881525,-0.1721558263692209,0.11427729816797114,-0.8305166508671271,0.5769099187467897,0.8559091449644227,0.7563605952737457,0.2197979557700837,-0.2754106592756243,-0.10549013681139213,0.5003211500080438,0.5232967886011519,0.40089305233819317,0.2948356383888901,0.13756746616127152,0.06388976099199047,-0.05008461753698149,-1.0318891566779758,-0.4525134140773132,-0.5116468451220765,0.2851337727251012,-0.6824427934698357,-0.08923934603263678,0.5345742380606419,-0.39951453926792535,-0.0841547498946762,-0.49473316419704666,-0.9896568283983754,0.12399364894376518,0.8364418526044798
0.2561997224028611,0.6855152061213466,-0.44509248337613905,-0.28474973220972066,-0.4460799732576715,-0.5009486273614253,-0.1105264385678417,0.6944464458557112,-0.584117337827682,1.015933336902226,0.11644760389539859,-0.52294881637601,0.29778005325459656,0.23557595514261886,-0.7356264893331935,-0.17166203181477374,-0.8462456236830711,-0.747282730690347,-0.3218629349067942,0.7673233311989477,-0.23219197889921056,-0.23420042094001464,0.641357383361135,-0.5765459217759481,0.0463511430572804,-0.16543456683744714,0.04882256133951221,0.07492636936357902,0.2904693568877696,-0.44887052926306115,-0.8918245666220674,0.027039486974784612,-0.05634858171248442,0.9565948911278648,0.4773063243030808,0.9692540484232367,-0.5734460467460137,-0.27985287610248555,-0.4144270154539357,0.43788060643958926,-0.4013820447934431,-0.44460310153823623,-0.15516156976221374,0.15740994040586495,-0.6042139678571858,0.024796231077589295,-0.22951570079178468,0.30518905759772996,-0.07904466802486862,0.7854653155277787,-0.4233972654271039,-0.8212092245090085,-0.006538836784553318,0.7599094609232665,1.196945861213161,0.35165252290636806,0.8481589423452935,0.19006402496496885,0.18547831436349846,-0.6000070053227768,-0.9633409226594571,0.2377969014748806,0.3093577780749949,-0.3007576353947946,-0.006398730471734368,-0.270386305736106,-0.22125766327522958,-0.03624213716949671,1.0304261995744664,-0.14355358667251986,0.491761126570791,-0.6393045530233752,-0.9247994678125555,-0.006409806437532252,0.32752053078249654
0.1655854701206122,-0.021245495863192975,-0.6627679272004736,-0.4219900565642853,0.5875033520620121,-0.15793031289302298,-0.2660787936218281,0.43367533156407373,-0.04911003024936494,-0.62271867784859,0.9550970411541606,0.8241379736233541,-1.1296704682008802,-0.6731244882985605,-0.5001745975042876,-0.41378761524556057,0.9255479362115085,0.7463674965518214,0.9893182010252695,-1.0192513845514852,0.2675215089077506,-0.08451005124933916,0.0625689554260055,-0.48645315994920846,-0.48994275851569113,0.19770058658617695,-0.4778579120231564,-0.6712623098349477,0.1686787988808811,1.357558694056256,-0.5251606151574293,-0.4461185527535639,0.9383494938435986,0.9556164051866353,-0.23594593888085152,-0.9017796607139287,0.07244538142550803,-1.0703609178147828,0.7750532877544375,0.28905362187445177,0.49594456536786696,0.5634419521175039,-0.22529219844076814,0.7681702519433428,0.09815254559910958,0.03399540649163863,-0.38301328305775834,-0.6140957267055354,-0.04447138621735765,0.985679999466588,0.6627848084671144,-0.8960155466525811,-0.3683080154416876,1.0096883161206864,-0.3486196455896799,0.3436120029810347,0.5441691911195445,-0.9731398386673796,-0.8279735033512787,0.8447131964039022,0.6167467642827701,-0.5263173820454171,0.2732273359526989,-0.5910880456774983,-0.47087015024170753,0.8139878326130561,0.6002611972075412,0.0908066489726204,-0.7128179094863283,0.33214758529543464,-0.42724063197620726,0.766889118378234,-0.5746385789524152,0.012915911256005597,-0.4784027093176021
-0.3708181565041827,0.9496171012364732,-0.8747989100048452,0.7304293063139294,-0.9416892645732613,-0.34540557315421655,-0.9475981083547992,-0.6727959252037301,-0.11466667988156956,-0.07920695488656161,-0.7594513295611269,-0.55611970524689,0.7330380454538373,0.46918360641744483,-0.2309854214177744,-0.2943444950995641,0.8613453114506628,0.36587670691255786,0.24126165387228016,0.681022644920788,-0.012892562840649512,1.0247588246530333,-0.7112521645410078,0.7618379150426631,-0.3913553016908274,-0.8624017481226619,0.8109184876395513,-0.13699178439342427,1.2412644674468984,0.41517374505118476,-0.03321277258858811,-0.46509481011133097,-0.06545897492551477,0.4453903520453797,0.2951458914386195,0.7257825915528587,0.81647417923685,-0.4046584389752224,-0.24653476204715533,0.2206102409358844,0.3972258154151619,-0.46183046241469383,-0.6299611264602638,0.8807991915240614,-0.5220106920872702,-0.5618539991493368,0.6743773926070311,0.15942677392137453,-0.9337904229536718,0.9738277757204842,-0.3736947206093779,0.7498447355520017,-0.1908938032197369,-0.6229570783419023,-0.09445700746235076,-0.8340037647364328,-0.37242279421473173,-0.9670233461449611,0.4254100662585888,-0.35946916678925833,-0.32242524999258393,-0.6887965483987583,0.08145891636607748,-0.9025672302041028,-0.9456809643017552,0.8667331414934397,0.7258125352766952,-0.09633368730857954,0.7332085290635868,-0.857428867607178,0.6237358007399569,0.4639418490851721,0.3294131264730746,0.9918215220595471,0.8009213739546085
0.7722670897042745,0.8284189707356727,-0.5418377101227874,-0.48088081360198165,0.558507605192289,0.2558897602023853,0.48548304916109586,0.1331685179774703,-0.4268670778332186,0.6791863884932081,-0.6073960630239915,-0.7934754784878294,-0.8803148623164417,-0.2716636640473032,-0.9515149183921545,0.04990167698020231,-0.5756199235998161,-0.629232150777277,0.09970775828413174,0.6917648361578597,0.8964969262467353,-0.992130275128193,0.9862766364617436,-0.2138380346114787,-0.6016088996383191,0.050525306631834126,-0.3772430254741708,0.32237839836102844,0.4736216948635423,0.11334194690891045,-0.02905878908455333,1.1064862678187983,-0.4689082767399551,-0.6953555371090243,0.5239395589874707,0.15957963283131657,0.5725259537718677,0.583121357617437,-0.07146763316988036,0.8297250045194754,0.9302641650016068,-0.14288871023637512,0.7312930179531361,-0.5201150943981642,0.5309648305078427,-0.3953864976565849,-0.5875222746703338,0.9537927829456093,-0.7393889580433309,0.6011813852275393,0.25875187268665045,-0.9689859920360382,0.8914325451925006,-0.3768989915566337,0.8879300027689042,-0.043552198596712714,0.4295744479552987,-0.14916336951837703,-0.6207263125112776,0.3383068279675189,-0.87751130649459,0.5610620147462382,-0.8150598236898904,0.4651439579501917,0.9008525606622361,0.001050096153594557,-0.11496099636502047,0.1825774461367438,-0.7702312959624245,0.8511366881506459,-0.9369596913825498,-0.8559539977749978,-0.5251186848149816,0.18149164175595286,0.7958928830181516
0.8958982835998853,0.21105148648354502,0.016430718699826777,0.9843278895876858,0.7162848756265012,0.5967502221521122,-1.114846489446704,-0.635882371688694,-0.23228523849170238,-0.10809726934632301,0.48040205804717345,0.7209006951431219,-0.3835509659569864,0.8072545659270087,-0.27059297836040647,-0.054339458566242255,0.257083791026842,0.06161638321893208,0.4140553150721502,0.8325679686392761,-1.0327719493693828,0.15219477254111752,-0.6323228429130706,-0.04843513123522658,-0.6345685676885903,-0.69682309940765,-0.323779346558286,-0.9399206247145424,1.2051433122594952,1.3222502748222411,0.3381744128577901,0.9819424219938837,0.9491379938332302,0.38179337021992915,0.34235458246765066,-0.362797058437975,-0.9257469034852732,0.4068983918358763,-0.7655385007442687,-0.4421304974660465,-0.9090191556141558,-0.5670896336898318,0.5835463503234019,-0.7752390269768508,-0.4086376284411608,0.15278538136528438,-0.8426522341799799,0.9366673346597596,0.6313973610072673,0.04457612062605015,0.45570101035151334,0.3842128501033798,-0.15820622642392648,0.8683222011984799,0.7320934029936275,0.5754717523960325,-0.7005612320580349,0.017260281508937398,0.7775815758573945,0.857345499146802,0.27369422561151724,0.9750298350867163,0.40764550809369265,0.07918532494747245,0.8238438534085031,0.16628785133943666,0.6297549972442162,0.5846939589088034,-0.6797083173227353,0.9422502964705826,-0.5353582792051189,-0.26436073525603543,0.7921445708136248,-1.0684644441027453,-0.01435124572137183
-0.31311593069084115,0.21116591341457466,0.19870036339497285,0.9829256230666847,0.5416565031784291,0.5722150627580954,0.8646080005210609,0.3919602846558793,-0.34801003335289854,0.25699298403697873,-0.6815246470665598,0.6691325647704165,0.018875026011945083,0.07504730705076627,0.5933556622318404,0.7906454575766098,0.8915015884286733,-0.8582638243351494,0.06061617017478247,-0.5079379092669181,-0.5355877742390392,-0.605997456309933,-0.8068439560383889,0.986047483934363,-0.2687659276355734,-0.08324950118196359,-0.5082472577353844,-0.538726530953727,-0.1585600134200353,0.7131932083987005,0.25097083828695715,0.8038100645135766,0.8802587811287618,0.9555841204324724,-0.14949501082846445,-0.3246704472649291,-0.14087865426845647,0.3847156324200129,0.5572634734867188,-0.7318515011662879,-0.4174267577315851,-0.6936605379374456,-0.43132077332621266,-0.24217551544154334,-0.8944573301082598,0.3970333334018205,0.27160065650759135,-0.8539344947054481,0.469482035916055,0.2489811381314903,-0.7403156355403229,0.2643470857946245,-0.08527549281623102,0.7677280120049317,-1.0056164345743048,-0.2705051302105103,0.4610868980188069,-0.9309305163969688,-0.8617107688471959,0.5818340474768785,-0.5719608540719844,-0.6278574054515386,0.6377046355887723,0.11200684186824149,0.8251826999884728,0.7270587284139768,-0.5073205777309286,0.5397308512759031,0.04461079590965802,0.4287405288826506,0.33000935871883114,0.04938522429890349,0.5443840872520677,-0.8294728068601817,-0.5514016023012309
0.7053243416318827,0.39995680921398136,0.2271444595593195,0.5698163770013355,0.7062834224362009,-0.3229942375015584,-0.4851838054048153,-0.12721930895766942,0.453494009507621,0.053761574818474676,0.4762052549126723,-0.26588465224764884,0.13789630436729747,-0.6098863414348817,-0.2728006478138829,-0.10935102552935591,0.6237778765722817,0.8403279107268844,0.9148221086738103,-0.09680835704096478,-0.49511522496883426,0.27204975509701235,-0.11457463686304713,-0.23345646367738565,-0.3629023776704437,-0.8570269041752323,0.8473636665169294,0.7213662710164014,0.8158470293008694,1.2435575573908593,0.3028459387917273,1.0727571994606981,0.527746573997709,-0.22207257789794116,0.8617278342143837,0.1463835767400319,0.4845264843377267,0.82077067011517,0.414563426450955,-0.33980525205463036,-0.10828418165546297,0.11063930293883481,0.48765239115144143,0.4619272089068875,-0.8857173542420117,-0.941997080842197,-0.4027671052837691,-0.2939119487379749,0.9014761419432636,0.6741156612946624,0.3058933012904208,-0.6977698466314072,0.23598757023642236,0.7108112908871447,-0.855583841661577,-0.9986817108459477,0.960912198483057,-0.46423776391047616,0.9442318784707129,-0.7214358098785353,-0.6015807812721714,0.45218977704359903,-0.7000203548622312,-0.15616728018088696,-0.4781837751311291,0.22857086376239397,-0.871315271833631,-0.43753664722264773,-0.7282298709418286,0.7764906809202197,-0.8745029951718793,0.9019718497282426,-0.09559816751502828,-0.9698685129299719,0.0412173207141557
0.9113859182649897,0.7815163205058305,-0.33954508654860394,0.8300394044583878,0.8033870159330101,-0.06107196933820549,0.5733919126325676,-0.36805236037444244,-0.2773396751656456,-0.8807213251084005,-0.8757414340974037,-0.01903775439146138,-0.331082912456307,0.8345874740304478,0.39053308000526776,0.3631535432806961,-0.4219634685961696,-0.7015863295064202,-0.6589378847309244,0.6073672719072373,-1.4172012858821124,-1.214619898154428,-0.6256553847698049,-0.5125883924471275,0.7557038549982563,0.44056111312328905,-0.8977616741567092,-0.06111135620969727,0.21719990674142658,0.8163175860622929,0.0013059969542636779,0.9162906627981181,0.7248694494735194,0.12783794951778082,0.6289630989339681,0.38469799102612146,-0.8678635082517574,-0.2954461094284967,-0.3715240506108249,-0.652040962670039,-0.25887421441944675,-1.1090081021552667,0.04153056596481636,0.20282092191130477,-0.7082433539804357,-1.5574077012989616,0.5818611749634932,0.1943604303521683,-0.681971617046544,-0.040802249048011566,-0.08522358296695896,0.6036591010909228,1.0264221732080367,0.3114562500778916,-0.17001592570811708,-0.047138731162805515,-0.1499453801294015,0.7535961718243543,0.06778830720171451,-0.4957766150664106,0.47192109980521885,-0.6472484698186662,0.40329025758815146,-0.6206137619517735,0.21237589816147381,0.08963217317554288,-0.14063897162866318,0.647509775068348,0.2134559846895544,-0.8029557412515692,0.6092618777066466,-0.07949465216717144,0.18908620622071642,-0.8386714744458146,-0.9847075026626544
-0.11529665748035167,-0.8235196595780384,0.42680318755111274,0.20492624234616394,-0.9231212023878697,-0.5850346826054839,-0.4307535261484733,0.19765535877264484,-0.6553966280037087,0.3556235788431995,0.8177329283540128,-0.7008774148935891,-0.12568653207753006,0.9687827699948303,0.8971091458202116,0.13621420585833344,0.8474910741346462,-0.473570525136477,0.511518950753319,0.5729861816412564,-1.1747216297885836,-0.5316263786316374,0.6181112515820637,-0.42123587073717067,0.9880769768969976,0.6951341344393785,-0.7023500894946945,-0.08379833839752676,0.8207746611981508,1.7009958748358307,0.22258523383869352,0.6629428391555565,-0.6651609734473886,-0.601463538924693,-0.39032889895353085,-0.2060609326335648,-0.00782198477372528,0.04546978454718237,-0.5733940759852595,-0.8510950051623646,-0.9012039253250094,-1.0632522490524678,-0.9300294767431174,0.01606585038650377,0.530606766390844,0.5670518678406329,0.6291564525318077,0.4383713143668089,-0.785780219681096,1.102690906507531,-0.13970871613051655,0.3713965555945981,-0.19276439021412306,-0.832003241957556,-0.7663273216673906,-1.2853832166916508,-0.5112708077391986,-0.20757764988515026,0.08185313684494777,-0.3368816186151081,0.5419485795327612,0.8054681001664431,0.7553617934073141,-0.4605216195164809,0.9294010188365145,-0.5717575231223168,-0.29393535204919213,-0.5492504499814501,0.2078178430224633,-0.8003661824346737,0.7063225685162323,-0.42193613343668696,0.9951836690471684,0.9251243810123412,-0.4116824351119003
-0.8688767364869028,-0.33662461866661586,0.1448383889537465,0.7134099281404747,-0.08901545780151679,-0.33162799179634267,-0.6314611118442279,0.8894245573593306,-0.37609249070363854,0.47333656640862837,-0.584270499890128,-0.9196229411720281,0.20074138180373022,0.03389934602874841,-0.08965936489220405,0.5453970280675916,-0.6328996148052446,-0.031552302237013254,0.38083372607261395,-0.8419387596085758,-0.5240084573101514,0.6382098620515038,0.9216943581573439,0.4144761495536465,-1.0061578822710824,0.8134732524346265,-0.4765281374188957,-0.9722543183830308,-0.6027291675383087,1.6914373180566242,0.7065196357192906,-0.7062766854726253,-0.49191033036992615,0.7657222208618404,-0.7346367485267742,0.4092965407439828,0.006755491870758601,-0.7740963208719129,-0.8087212285354428,-0.9858770850572289,0.5359200390866822,-0.8412895484683355,-0.4683634053125315,-0.814668089844043,-0.4203197365497915,0.05692414555908929,-0.8064179002861784,0.16691009760605205,-0.7311347367510869,0.21159491805779992,-0.937345566117177,0.1209086979913594,1.0147560986034534,-0.07458192983677536,0.6766962457202523,-1.1316136999497621,0.18150813268003657,-0.6076864011194718,0.9097791245774336,0.12506614733771976,0.823171672124277,0.7078147774714618,0.5415744689698521,0.9022901607086959,0.6965576885376638,-0.3089344827346578,-1.0361319836002378,0.41006422029719386,0.7924143747653742,-0.20720375541844963,-0.4594830577303773,0.90656066506509,-0.714004994136075,-0.7437905353172043,-0.8773457400365793
-0.1290201576488831,0.1170644843978873,0.26891670676448887,-0.5151195434651399,-0.34512502421503605,0.736773548881519,-1.1028393300882107,-0.11961282519870063,0.9281222572787147,-0.8658233765354859,0.5163777587318243,0.4505420666873098,-0.25689586082128746,0.012514896550659713,-0.5043487220201804,0.4759962409214572,0.45411638686687245,-0.6326416108320738,-0.4093126313577778,-0.9699849829204561,-0.5633789178038816,-0.08660019199042365,-0.33017979064176806,0.06685958239687219,0.8572579459403915,-0.4523651400748018,0.5923726722113464,0.42155296997862796,-1.0532128182562028,0.42472876978250507,0.2930245133903898,-0.6293311306393775,-0.7418357887035899,-0.6857472067690847,-0.012778489159092504,0.44682097027862666,0.16442536314053968,0.8857231763806979,0.842296385397434,-0.043146458718031036,-0.47229842148935725,-0.9303822846656535,-0.8282953509802341,-0.7269620898587383,0.28207101983553795,0.3507829983090867,0.5681382687714349,0.841970590048919,-0.22916846555205392,0.629577932861594,-0.04185955376970886,-0.606967830857828,0.83982201327296,0.508045663890873,0.03153449038123843,0.9227795309075206,-0.7950083058218634,-0.5609384400310989,0.3916491046845925,0.25820776139238827,-0.3580215718595314,-0.6794253401954164,-0.5917198209730997,0.31251634742951945,-0.14962703220661158,0.6428852167153821,-0.8010474507435148,0.7781420174788256,0.2754509239633817,-0.04774691892739588,0.3423002831089436,-0.5260600437009539,-0.2996783138028291,0.5003741413858526,0.46221252171447114
0.12215326325314313,-0.2628979370221046,0.08312925428181883,-0.20583862495092828,-0.6777551016693666,0.4300839049557601,0.03005441834306745,-0.7888236445999725,-0.001248524290310611,-0.287711047591706,0.5048504367389738,-0.8066054721123863,-0.3443404272203664,0.020855646427991023,-0.3191388517610515,0.12144723244761066,-0.24355362581506776,-0.41240316126964965,0.5431859937248971,-0.6021127912934221,-0.06528355610964305,-0.05691973993972323,0.2969974599373516,-0.38327446967297124,0.1294786872452562,-0.23705326718394298,0.5665531284794917,-0.25529055017264934,-0.5279101333474132,0.28342316531051165,-0.6702889298244733,-0.550790290013573,-0.05582510483597909,-0.5907558659884626,-0.2631449606646177,0.14510885142537716,0.4440241147655368,-0.2067268127366678,-0.17661365799245649,-0.5151005161357559,-0.6605257071262917,-1.0589113188033712,-0.08854027169158539,-0.3427887365128226,1.0278442664825882,0.1801808968935914,0.7014764700629181,-0.6295439861577575,-0.08572618102717806,-0.6538075703162783,0.9086054941837137,0.8629789127332015,0.5868846251342748,0.876729662672347,0.45717485774619365,-1.0724543952395669,-0.4490722907748128,0.40252039385291755,0.909907244470291,0.09000310515731241,0.6470585585474283,1.0421838740055267,-0.39268176364350227,-0.7244829147059813,0.580996272154862,0.12646035748040196,0.3929955313892886,0.1679148848934982,-0.7533872637876518,0.14293669080160018,-0.040272137450207114,0.7488687318460749,-0.24898347316364983,0.37438977513896776,0.5191408707014757
-0.30095674937445194,0.4250608453535259,-0.4112824667277809,-0.0931215530461514,-0.6196875359201971,-0.5036910616275856,0.9623208259566051,0.57770019069598,-0.7561567252931822,0.9121086442084811,0.8774930341864027,0.9487536959174686,0.08760868745341925,-0.05794709349694584,0.8245236959979374,0.08842493264770844,-0.6688698571952422,-0.7800435036557162,-0.986124418343749,0.08465217204050501,0.22727110877499665,0.5126372172274791,-0.45153265261862235,-0.13256532791112816,0.5431898212349612,0.5618940264308837,-0.17595078154911628,-0.03902243712080396,0.09814325353992825,0.44534214607403094,-0.6318528406210006,-0.5301487448625393,0.7017777626740059,-0.531572101449144,-0.39472241590388185,0.3130494473426878,-0.20956036211978313,0.2540567113048693,0.5988594308274066,0.5857640810530075,0.9438010531019223,-0.500745408531451,-0.551087147989219,0.4771998300344683,0.4812811102306008,1.3239331217161705,0.6134596240493172,0.7815625227010456,0.14288399346503894,0.7566006985756168,0.9188719536954087,-0.16612312894697126,-0.6730016373007385,-0.187216884399649,0.004240303564980571,-0.31929587995934555,-0.7689651706814736,-0.33028298208244916,0.9008824004594704,-0.15029370788454158,-0.05721397904824411,0.5769409375102112,0.35718252592067357,0.8578107733989961,-0.14807458066588894,0.6608737523621374,0.0013869904031128934,0.8319074460391751,-0.369518585568513,0.27327765045186775,-0.15295141114741737,0.6296677961602204,-0.007782431236405125,-0.6403925646409682,-0.2211330700190751
-0.6309819475223157,0.345889549036638,0.3565707227601902,0.17901139033006247,-0.06837911885475412,0.512616078146668,0.7477985512744073,-0.9468255661226448,-0.0976592357585254,-0.1681150013956968,0.6591328145859748,-0.6947664831762028,0.09789180578332023,0.030219236136494156,-0.18503372675335916,0.7986297106916408,-0.8005187426829506,-0.13558545929482033,-0.9367938890184492,0.2989978144195582,0.5311926268402644,-0.23990862769395963,0.47607861705178245,0.6578984233856797,0.6995868326369397,-0.15231527538836262,0.6723192830608208,-0.7174355233668214,-0.66618915483273,-0.4036271652038411,-0.46321789282932535,-0.6258694111438202,0.6139621171642774,0.5515319103689981,-0.6819363718283135,-0.24048880332572864,-0.020612863814286758,-0.5134761084552889,0.7227296369479693,0.26415564877499664,0.8958318855788094,0.48233149464998654,0.30423087580967056,-0.4313271498736336,0.7707898842245186,-0.2792521643012127,0.9361588788290899,-0.3073037953969907,-0.8166946092948302,0.8086234536713317,-0.8822515564206085,0.4848160246918354,0.01687480232150384,0.394415602548151,-0.14422557026434007,0.158760330688504,-0.22138438880034328,-0.30687890401444456,0.9399763078904598,0.7526424464289685,-0.1247235122944855,-0.03154049818234511,-1.025548126479677,0.8749904596574195,-0.5209526278105595,0.9825123025973399,0.3778168397737648,1.0069327973163216,-0.9239875457511989,0.1088208633798807,-0.9778953196572283,-0.4013132351066206,0.008485789537002972,-0.18637730493059138,0.19343480461866677
-0.5607792634173574,-0.7628658393910589,0.9721666141680301,0.6498689423303652,-0.7577911575710153,-0.6947781157021483,0.247775069835525,-0.26161184238411594,-0.0035656504477553203,-0.3788889370571041,0.7078169766737955,0.7077602538994182,0.886604688324945,-0.30512845452857296,0.7079219904602406,-0.1841298282584705,-0.005706308594549513,-0.7748706226140046,0.04496914310107072,-0.16005574172029677,0.5509286681379646,-0.4678330960650431,-0.8304041100248771,0.48541636527741283,0.749241169853789,-0.9559875742428854,0.7563915511067172,-0.9215659230919799,-0.4442913890480416,-0.31099927879281375,-0.440043107445912,-0.8920052960447876,-0.8299292977698266,-0.1458899303240379,-0.2526761539463431,0.054603130234464115,0.713044317006575,-0.3963634663910652,-0.7630082287909928,0.6190089570380617,0.5471775153188684,0.3363672717791763,-0.24900955335141686,0.09474004095312515,0.44613661401151955,0.7118406783711299,-0.5416946541238409,0.21160537498424795,0.339801809664017,0.6943935263569756,-0.6956579827078346,-0.9117591617866665,0.6376052661574997,-0.48942838284533485,0.016498783114303382,-0.34756970141214377,-0.904500296280814,-0.1363376246316318,0.7438802259738495,-0.6238205529146983,0.7690636924188009,0.05464750494841232,-0.9264761712482608,0.062436661774519744,0.9306978297354991,-0.8609507806942999,-0.630898479350252,0.46600162086035135,-0.6584241662713328,0.9135699304411075,0.5207205192989877,-0.6869254930379709,-0.5083499852925032,-0.22240984871298536,0.758278820096261
-0.8258101869393847,0.4874878373230581,0.18780974981352977,0.9852496012372745,0.8910226883362866,1.0182154226075855,0.13052673396985465,0.7684583230045033,0.4944172194013075,-0.682754335741967,-0.7601259045873356,0.2277109502508946,-0.6517364949179296,-0.8681015588732611,0.7830652061269999,-0.27701080004044754,-0.6431783814272127,0.3215981408861704,-0.9839795973441015,0.9388220754064793,0.7982832544064568,1.0635163934055711,0.21364692382503553,-0.13220826475291608,-0.0171365451134185,0.0797752743598817,-0.8906154743877033,0.6334950048450797,-0.22014463412692326,-0.7900507578012987,0.6671214397529363,0.5529393005547867,-0.21239938173625916,-0.662281765793541,-0.40420558022469644,0.5635502307464186,-0.8242330884133131,0.9583723874246802,-0.9065332633720217,0.08250228831826245,0.10018956849952707,-0.5311400629878029,0.5301790605663537,0.32841543536742795,-0.08528146785812271,-0.43822707663230936,-0.649164454184557,0.8301386349729893,0.33288150562966534,-0.892765673889445,0.304282641797377,-0.5660935040060545,-0.9433668213745073,0.23116916049079744,0.3775826248945798,0.7949559756629169,-0.7763754457790616,0.6051969736981503,0.1731054936152899,-0.4286491531741822,0.5115344848573415,0.4578687385206624,0.8166735714152519,0.949111232639982,-0.49256759557197444,0.31688817726313495,0.3078147487053902,-0.2024167585789594,0.9329643080361292,-0.43399269973727694,0.9474808019482395,0.777585975604484,-0.9612427544075283,0.6119851262394805,0.10388745907126895
0.33734695840445666,-0.18573206048308802,0.2258861627085042,0.1837999464149183,-0.14343945543709405,0.6358595290570439,-0.403357004676039,0.45292068196440033,0.7399261590798508,-0.876504842716139,-0.5065527765691296,-0.47169201922754606,0.2819417376684473,0.6580413061622608,-0.7770068630792043,0.8087833980511245,-0.998992940234117,-0.6074540692222965,-0.23993095784887936,-0.38892171495954875,-0.1325610340155314,-0.4123816096274397,0.015984126057774332,-0.5836646346031903,-0.745848018028405,0.2836047889196772,-0.07948050882129638,0.7456068316695476,0.48371138893313037,-1.4563381274316032,0.9824105562920671,-0.15208733572361746,-0.3760268430303408,0.8595347576760163,-0.016639998344547772,-0.7501865295106536,0.11903355305685083,-0.12566005227835986,0.8689924581025428,0.5991716487555119,0.39469655127271475,0.9233597577742431,0.7688629820001439,-0.4311258036937683,-0.28736239212563924,-0.24995861659752824,0.9613044251405393,-0.2366592850721021,-0.44212598687607774,0.6108857235911078,0.06979577346248594,-0.7724542186724865,-0.7347565103773975,-0.7711055721496403,0.9107414203597712,-0.6932845392454935,-0.41783764604798174,0.5156119357157956,0.8633254939186369,-0.33030553290707887,0.24349196034072518,-0.28690365924596856,0.34499824315489375,0.05786994222204126,0.5037912614932603,-0.31663362393632266,-0.6245028545884191,-0.41649697879378184,-0.4076061925671534,-0.41768744301638855,-0.3589275372421198,0.3803410599886031,-0.5335763609026385,0.1611306291180772,0.40592861619678305
-0.6642844281770287,-0.4989339816645832,-0.9741347582342353,0.7209447019865091,-0.17971036622601563,-0.876854115004424,0.317068367478668,0.871631043758282,0.929217510734773,-0.12428041703313869,0.7398680193975602,-0.2522991197337373,-0.4906877908793335,-0.7669151797296018,0.26618287906904786,-1.0101574808206337,-0.17647127428540701,0.18856393426841095,-0.21804310826878345,-0.40685408512298044,1.14575828847037,-0.1220723491287169,-0.26143956772404275,0.20906856031950274,-0.521351090156096,0.8977195536006805,-0.2765876447763214,-0.9717821088303027,0.8042493830049852,0.2099348965649115,0.7346311090963192,-0.43915541943641867,-0.4165960348440058,0.049390325036924414,0.5918134952187653,0.08035172818095526,-0.7107828585174222,-0.6964104611173821,-0.25297731620893704,-0.5642834976236649,0.9221787108827817,-0.10817412163598397,0.7164534455290095,-0.3837996405740808,-0.011979929251543205,-0.1321992624694915,-0.2721212458715755,0.24676759510457738,-0.06305918111440253,0.8464395063843982,-0.4903826702262652,-0.37373347312986854,0.6525147029844126,0.2699862085384022,0.27161368103087297,-1.0648823808717929,0.5439483462886004,-0.1164884264293505,0.6261330955585359,-0.3632125750814452,-0.5846081733647882,0.19505174743300285,-0.03726765123688011,-0.22518055828910502,-0.8552947466538855,-0.4335755184111929,-0.7797985390098884,-0.298121250332019,0.0003138124964747977,-0.0984178546141857,-0.3909484044070539,0.01827125653330525,-0.4906390321561535,0.45961926439050366,0.6795111226023226
-0.33337746223107323,-0.8775652452541028,0.5338633722803773,0.44080805492957364,0.8744342765579145,0.7731031381527684,-0.10645662727791835,0.3582724197258336,-0.7136120696963597,-0.022184962103612878,0.8242904386782746,0.3005762544357951,-1.0936917770031103,-0.2386172073029811,-0.26111217232141154,-0.5001320582403043,0.034806248559082306,-0.6394645348080351,0.5130349656265004,-0.6174978745299757,-1.004414868219066,-0.7184291567244703,0.06736290859537454,0.5573027223415771,0.9723251861334178,-0.8233743467416622,0.0707322690317289,-0.447739597712967,0.8699134053496916,-0.8132306954072168,-0.31436144086139645,-1.0773470135741314,0.40864797770232764,0.8291647559301117,0.11456623873511472,-0.43408399124398395,0.3754758534634588,0.8250696387381729,-0.03566811562751137,-0.8226453685140667,-0.966075927663971,0.6305524182283732,0.8304770121712785,-0.7150166327748324,0.639414596382011,0.05579360199362846,0.8892419170568576,0.5854842807071283,0.1191320343202535,0.8628204200940831,0.9681342235923857,-0.20438227678604126,0.46725667035722807,0.37581813394412894,0.8864350298225975,-0.6674920992922149,0.32927034145167305,0.6435153919808768,-0.6657173616819839,0.8470233634895604,-0.5333937728397534,0.7068177665379357,0.21431906100176593,-0.7180763213810473,0.9462729405974857,0.46336990209330453,-0.22409463954757586,0.4033656752950875,0.4678918379723358,-0.40815293235949857,0.38228799451798173,-0.6477213720818744,-0.7403445006784363,-0.011176675040729948,-0.2503364891377896
-0.8666708794418646,-0.9589956786798719,-0.9206536759737428,-0.9859368514564215,0.6119294411745237,0.2303892054372174,0.8181169562202668,0.5122499708533509,-0.9301387610287686,-0.1755859030875489,0.39396957126647403,-0.4441298796961082,0.44080092910128565,0.2490606698154598,0.6653137007802222,0.07199962117921818,0.7425777035466974,0.2826429111131415,-0.4223885246091832,0.809034760357198,-0.12325701140318747,0.37260115006819333,0.7956775917274446,-0.5074112137368665,0.5431072581103946,-1.0178586428094905,-0.15481482661907267,-0.43527038431369225,1.036288005367692,0.7942208115205841,-0.35503577923316687,-0.40332127425467695,0.09002054275355155,0.8681969619471533,0.8025234968414163,-0.8619786571795355,-0.140273993287171,0.23843722277789184,-0.7026309632492712,-0.08419415668974521,-0.5727481152308795,-0.8372267688460355,0.5755727573133931,0.534957060467424,0.6083556049751803,-0.8587414365044471,0.539873835399462,0.6129357012161012,-0.4057090941107725,0.6683623871488942,0.3882655116413295,-0.5500451334633183,0.07574317250377559,0.03414299187451544,-0.7878274492669725,0.6061676306527842,0.6545366717693815,-0.008911315035878754,-0.8857820166345199,0.49885834689050046,-0.460224457119528,0.09562423688858845,-0.15851215587130044,-0.3242969923662328,-0.5475967768544573,0.565190066295522,-0.30845500890785166,0.3944003476559274,0.19103728373532494,0.3029583827336684,0.26620251522912924,-0.2650962173207588,0.2536978351018681,-0.274992280918279,-0.4259794000438272
0.5961134069277053,-0.6565835639335387,-0.14671676411231982,0.797657380834379,-0.6471402545622404,-0.1626422357225618,0.6382991849747577,-0.8788666631812495,0.5202767251483743,0.6635780293033471,0.8512744617005092,0.6598742273545858,0.09700274894873458,0.40366825163034004,0.05659901089896144,0.5777304284236165,-0.731443652798792,0.42873417332721114,0.7272089862724168,0.2804091058186903,-0.39095727678189046,-0.5246335681592179,-0.37102814582087196,-0.0813836720352349,0.8020357416052999,0.1909514130212702,0.12852526472402248,-0.7861239300413163,-0.6551887122561808,0.8499978438142677,0.37999115033276115,0.10638229868664528,-0.7327662620882461,0.007081741195359051,-0.04078733307969256,-0.48909817167207104,-0.647544041742889,0.6121618982523643,-0.5458405767723195,0.4445496002382354,-0.3199527846591937,0.5004049274138627,-0.9662336032064768,0.6521753696938847,0.6475987836454989,-0.35116714597434373,0.832703919468928,-0.0346988473274116,0.13195124742238126,0.6693535200240741,-0.013405535506017903,0.34697704181642264,0.8300884707726933,0.5033623386742124,0.3727164440782749,-0.7790693772295308,0.8699193727438419,0.3537249726496499,0.8025246082921289,-0.5227522424658753,-0.5030501931726457,-0.43408836967199277,0.557957928300626,0.763122885612308,0.43267698781151165,0.7223735357342984,0.23035037054257634,0.7485852129556494,-0.40537999556420534,0.3649104724981439,0.3087054703680978,-0.9039261463606865,-0.46187130463999976,0.6241721764276771,-0.07183444097960873
-0.29141790396164097,-0.15127044175381849,-0.5758143345994512,0.7524659936065766,-0.6857459273495407,-0.7133642132246709,-0.9655379851974745,0.9177998316724282,-1.3482513088067278,-0.3840703175143281,0.034713740384505115,-0.09050890507755496,-1.1599160601483836,0.24947166963503808,-0.17933796259716894,-0.1499801499598422,-0.3951859794114606,0.8804398575013953,0.5835875300539898,0.9303266502459987,-1.202460602803692,-0.6979522390600326,0.7247808025711007,-0.6252681153178884,0.25502298407362667,-0.10158886842648224,0.60349562268108,-0.7978550577412058,-0.3732654526101119,1.7365465009641936,0.0747541609229828,-0.6673976790831627,-0.2918011896345926,-0.7376129536693765,-0.5080944286690189,-0.8453332359190533,0.6780483935646717,0.07267167457826504,-0.34321043445154703,-0.22676543788259027,-0.41781579730837354,0.4851099235633898,0.9959272698637577,-0.8292376531696077,-0.5960419123559371,-0.5191488375279727,0.5846788876739584,-0.672939879523207,0.5990874201830454,-0.6233283419178305,-0.5389404675667889,0.7503583666519603,0.1894204762120747,0.290472596040089,-0.5967603404774765,-0.992702752923717,-0.45550533874146676,-0.21652871690397305,-0.22502225824066538,0.33944398645317114,0.9366163695652536,0.11338475955974925,0.2377973982272839,-0.8259269937493212,-0.568123169956433,0.7225138013096934,0.8406022092031038,-0.7582208228471197,0.7690380992432717,-0.12202028354173176,-0.35865705495262323,0.6889537725481654,-0.16035778497671782,0.7570805123119189,-0.5300137071688432
-0.35326904495271666,-0.9505573177804283,-0.5154376577143347,0.08891441860220711,0.2456714461629928,0.2476454435572874,-0.8212736976280535,0.2782092606305663,0.16294497817746836,-0.09475794985056929,-0.3410595884744746,0.15805760383974246,-0.9713444235241975,0.3496866607429592,-0.2098098218364591,-0.22955596434685058,-0.2895026047435242,-0.018197266795295024,-0.01826531666560276,0.593384716052767,0.4839396221186678,-0.6925179851902123,0.32402669224883174,-0.8193379392393447,-0.23294142160192136,0.5226806705281282,-0.11952281951121735,-0.6270303219627822,0.6747401663154248,2.4219703996259683,0.4720060234891284,0.10706572418114418,0.19394713229088972,-0.7560443688627394,0.0058386146685744595,-0.5705818161984905,-0.3254656654150517,-0.6829606514499456,0.050765487749641916,-0.35939223362751566,0.5340829364848844,0.5388844691924382,-0.8378694352046387,-0.009774402623402421,0.13439605617470338,-0.20783169227194645,0.6672677011836626,-0.7657917236020764,-0.6840273841927219,-0.13050308247028347,-0.5002989759094774,0.5260264216151591,1.0556668469490973,0.3055193543954598,0.43716833044732567,-0.8233105845243684,-0.7736539589940945,0.44775842123018633,-0.679330757744884,0.13110082559214262,-0.10000813964480885,-0.7802866418980102,-0.7103588812693972,0.8269566706100182,-0.49807502785252056,-0.6634763588409756,-0.2045169199824303,1.2184167771932275,-0.0810845045835653,-0.12435264887030154,0.27069789810372474,0.5210725209338339,0.8988757780032208,0.49435538614657937,-1.1585770598944058
-0.031377431489137055,0.9098268921784985,-0.17132274934884037,0.8629330903771678,0.521702554929488,0.634712898957424,0.164584396418054,-0.2522844620060922,0.6289594582145174,1.0563932089623842,-0.356895831131418,-0.5441993397102394,0.03285360378200707,-0.7177818470233772,0.3185382585697367,-0.6819898882464047,0.6100498488673205,0.80572031574461,0.5033914267692041,0.04033058719490064,-1.1432882127088562,-0.5820448404252831,0.3979984588167935,-0.2338046650921874,0.21023451829715178,-0.7995027576686123,-0.560215415911106,0.7180588674199504,1.0189038944695823,1.2002843376797871,0.15026672807376132,-0.08050228735754796,0.7458832154660755,-0.0577049287422134,0.9437572478228339,0.7112544418470983,-0.9409894528861129,-0.632912570847593,-0.3086269828475414,-0.30313151213283723,-0.805653115032371,0.6114423810718435,-0.4321253952543423,-0.8343357983549294,-0.761923528099279,-0.8897246868332797,-0.40602157913795645,-0.38559893819154895,-0.5619301026573862,-0.2515522552874046,-0.029234121009883936,0.5524088696724273,0.22956709512207157,-0.9424095677969404,0.2128186716226985,-0.228333331530433,0.15334703967228794,-0.03530231007598283,-0.39679696306857676,0.08545280724485801,0.01583467152280993,-0.5100148265820388,0.8210048858557624,-0.4320258005564927,0.9055863200695069,-0.5499667570981482,-0.8985052612464566,-0.43372225390897107,0.7080766731525123,0.07615402553577041,0.873404195457872,0.21838596625056306,0.22760510219526184,0.37452138356356446,-0.020095150741053624
0.1710146753370789,0.05102550576521905,-0.9580460325638126,0.8548978804282474,-0.6392332676443724,-0.5115859626810868,0.03004450402530499,0.9242857326788505,1.0946042891527403,0.6062463853538973,-0.38178941759467705,0.30646676544079227,-0.19112124777934733,-0.15643833321541326,-0.281481012980693,-0.9234009411739518,-0.18465423891778043,0.6643493137234824,-0.08724735393266932,0.5002525319751372,0.23063833308676493,-0.327877188089882,-0.4885006302879723,-0.8267845811235521,0.32770842583678633,-1.1547205569611052,0.7292459307189952,0.627885635304979,1.013928917804408,-0.5334371522452291,0.9044434784287257,0.9113230030724015,-0.15477223663491432,-0.6714190221936923,0.6958523887215577,0.2658874028722418,0.13230091469507296,0.1072744920442379,0.21342687407790903,-0.7892717854874647,-0.24059055555419556,-0.05422978347783824,0.5120417140202611,0.842105744271989,0.8886500896609051,0.5465027311539771,0.1796308266375668,-0.24732162461669854,0.15481415915999786,0.9341036250698035,0.19801291517550093,0.23763516940278934,-0.10888931860377178,0.41786456746521633,0.5982256449090055,0.7382914539427279,-0.7824377317759189,-0.09268303833172856,0.5731088648449505,0.10715649103131943,0.3156604401672864,-0.6928326530872742,0.8485921610809246,-0.16801846630063508,-0.46510001864995104,-0.8082176814761002,0.97309959852701,0.5696235228247633,-0.8408261646353119,0.8474133615351542,0.6100757699971633,0.9879778907978339,-0.6122408619910382,0.7458118326592988,-0.9094172526996435
-0.5443470338353645,-0.46253999496552356,0.3602975731020688,0.716219907919313,0.6569968982172665,-0.4103090202590684,-0.3748497614700793,-0.6110971566005626,-0.6094209029339275,1.2853767120587267,-0.9709618636073686,-0.9226187568590336,-0.6577393222594095,0.4539667340795919,0.9607756148046808,-0.1606587286429875,-0.1780072502879678,0.6964128949738002,-0.01985821703810959,0.577428881992341,-0.1915354710612535,0.47755760072887693,0.22003399972328566,-0.8933136694641759,0.7575956338018276,-0.22570402500289663,-0.01645590761838035,-0.03530947549097244,0.8729395847490392,0.05219421013910265,-0.3229756384498154,0.8881204516024488,0.38973689517792665,-0.31013854946566244,-0.05489139944690991,0.19325931119894837,0.9699844863349563,-0.5208409525127782,0.087306180295247,0.6444452210418126,-0.9608717909814485,-0.13319509585310818,0.6175030883162045,0.35393083951017495,-0.30195659070312025,0.295037324824107,0.17805365810911047,-0.05083801530493527,0.6485542899825038,-1.1661449262812442,0.15031002479483851,0.29295573166723093,0.8172327883053946,0.20327243772598014,0.695514012493141,1.0078115303953157,-0.16807250538167848,0.11730815107532601,-0.4035853818435684,0.70202595330975,-0.19375538099230694,0.7937994535667022,0.42512469248562396,0.5789893816197773,0.4287915753500384,-0.15416209337057118,0.47749019911015605,-0.9296730195173235,0.3798492950083471,-0.6296608958165146,0.5607588533261924,-0.4428713168375376,-0.027956177094336388,-0.953551791469245,0.2899290663289316
-0.1076412092398808,0.6218034520513419,0.26199100667470954,0.18711825224585787,0.44318275615302505,0.4777261043496988,0.5880372842782485,0.8653431675882415,0.041674704248950284,0.19399727315861492,-0.010493345262528772,0.9981869018308298,0.5892494567440018,-0.005757834490001647,-0.9292207497417261,-0.3258104939841649,0.11565526962341513,0.6917869293041056,0.032667263749475345,0.884421762956564,0.15672893581021236,0.47004491267864673,0.335502559502728,0.8773968199208986,-0.41126736383889856,0.13614718898238592,-0.4268013074684424,0.27909429620354625,0.6307169793769655,0.8603819762707315,0.6171911657554127,0.09810531124041878,-0.7132032740577637,0.6537223502657759,-0.503332906308999,-0.6759690772960101,0.45192277847210965,-1.1180319391229998,-0.49653272496596806,-0.8308785227493438,-0.85464662199197,0.7010927085051297,-0.7758604288475114,-0.17564609180191193,-0.6274349810830983,-0.7861836672399328,-0.30700779930432187,0.8539679847795569,0.35748023510905735,0.9173833266439206,0.5620735817620713,-0.878519573294339,0.7252312687889022,-0.44577873473322605,-0.3393486363375485,0.7172846020924312,0.9331066488053907,0.9077417241270997,-0.026304037992681526,-0.37720430001812266,0.7019573618515657,0.5793204945853981,-0.15703805220931571,0.4206144049632476,0.07929802707669559,0.7501516740046645,-0.8149445901135265,0.5018330546449435,-0.2910411490830312,-0.9041593606187895,0.3101162834185113,-0.3247056421501149,0.834544328710923,-0.9702051118255166,-0.025537488123751867
0.25122403743297594,-0.6275928215752615,-0.27866735845597274,0.5614543036568681,0.7514469120508674,-0.316337079002855,-0.28354112352884003,-0.010147729241868976,-0.6220972363554957,0.4079251308786536,0.1485752109394814,-0.9647923943919716,0.9305339238040784,0.23148974481079926,-0.9864091020925432,0.07261866645669321,-0.1698902712090919,-0.387375822104675,-0.7324720686957021,0.5480340210279013,-0.40408151309254176,0.6170329003800307,0.03312632952539752,-0.25937021126566373,0.3971133897145214,-0.1055214316318461,0.5282037396377296,0.6553970750711607,0.7640672496059886,0.296947258896207,-0.23580112693832714,0.830483376735849,-0.16919102844260617,-0.006008219568867009,-0.5897843595817303,0.6331279575342224,0.9494566407886617,0.34507272659357047,-0.8503584723855224,-0.5525388900302791,0.8329088946020807,0.6942832634940388,-0.03314906770114481,0.3033839588562181,0.5705113862179513,0.10776162789384829,-0.3161714072436427,0.8805373079887239,0.35689119422738697,-0.8190695010075523,-0.7183484352813791,-0.4755201180217928,-0.4774756651672182,-0.5235445520049972,0.5925932229208288,-1.1086997897261632,0.6740282645396427,0.9244595250571487,0.41637309297321967,0.7142461849700066,0.6005864415427463,0.8496694292010513,-0.07430085430897818,-0.6804467712923836,-0.2463358036139081,0.1973069181218726,-0.6974972848657354,0.6756688075033325,-0.783801745790739,0.7617770162866072,0.5305931224990714,0.10636316178698259,0.049239852513839395,-0.8815690688513609,-0.05216273538520964
-0.08361627195542079,0.6910103430049338,0.8696551408442832,-0.9230641685072887,-0.017589894279192934,-0.3206506177099355,0.3279907596661883,0.6341172110531722,-0.05102389867438011,0.6511382607826046,0.3613232836983923,0.2116501368604121,0.49184307194630633,-0.47807963369531986,0.18558893772138188,-0.09609039401614755,-0.11934016156346794,0.2803145735888357,-0.26305989094337595,-0.7510009192527002,-0.6100814242327575,0.40989576391626675,0.020285272163338045,0.043835892714415854,-0.032964988179716236,0.7902882125666852,0.5236364977113467,0.15692649264153008,-0.24118649433014788,1.2438828848410781,0.17841837056893858,0.8732603962934559,0.17101071222021283,0.3605179101136195,0.9397069371297445,0.6351299081369969,-0.6679230548181725,0.04218907922285661,-0.934001749429567,-0.11586828119084522,0.028817414755696345,-0.5775985496178293,-0.978021718551736,0.8912216827752025,-0.9906637950625357,-0.5082484955024196,-0.3090416705922766,0.7124029413368718,0.12662959791924924,-0.4229527544655503,-0.07805229617574841,0.5470473837339963,0.34275904337611796,0.7143340021050342,-0.13683041036572993,0.6008890864081982,0.6565128557250709,0.5490115362089094,0.7928723384676775,0.6852058360010359,-0.8247127670462971,-0.5675282070140774,0.11920319494839178,0.037604290633820245,0.15712892304602175,0.6704332387867534,-0.41809245778952536,-0.5454865774664623,-0.642005798907164,-0.18873403630573052,0.7557714554217776,0.529202799757582,0.9694041804957876,-0.865470582641599,-0.6194233810510072
-0.5711213766013357,-0.9892726670877084,-0.4168417860396739,-0.0003053863922358747,-0.3276750962407848,-0.8083996288951817,0.006985590953311856,0.5133354064833484,0.6179368325638405,-1.0317639579327524,0.8961893223416669,-0.9540088781504593,0.6151323754703312,0.7527643107616939,0.42459156985152874,-0.28025951515794856,0.8420094584305594,-0.7357065840473231,-0.7648675142917929,0.22328032221182847,0.013528600727724577,-0.39155440376144285,0.03896581747550237,0.6996925665414757,-0.6880183598199641,-0.045901626647357426,0.3473789050483532,-0.030817697318656485,0.8052921099661488,0.3128561732317768,0.45003257588846945,-0.8006138517147743,0.7585829472412502,-0.9370816459712181,0.46483171022718067,0.6242140083941472,-0.5437552430470861,-0.10438183777313126,0.44861801542267676,-0.8423247685328771,0.20924522327451395,-0.021409917569698185,0.10596355480940421,0.2959413677158109,0.005823754464874001,0.5457558388364715,-0.9389301821481971,-0.6456342243303999,0.7980079002819047,0.47287412520560757,0.9595307524617355,0.749941406121199,-0.5374244457025981,-0.8101717187813288,0.15400631794811337,-0.7709836696486169,-0.6490708734182883,-0.5594505458667872,0.6697122109324392,-0.17087870506149608,0.7774544248155153,-0.7265247332590716,0.886283563435601,-0.7005739162476892,-0.029663345767151728,-0.46984325039307456,0.9120911685754625,0.17907858831050888,-0.8515928323825039,0.23332483188273895,0.04516789787717357,-0.8881831126287357,0.75073450860123,-0.13209203328476696,0.8994983975705289
-0.45361838819621947,0.12772427816033605,-0.9976480605619571,-0.7325376762274497,0.055829218477621984,0.13222860418373797,-0.18251010851203744,0.4185997227409776,0.9572190776638456,-1.03502738040724,-0.8175316814801543,-0.2698348752239722,0.3391124764825551,-0.6471965367457393,0.06497249157220975,-0.38138955921930856,0.3454880553620935,-0.350827191077058,0.714903172345715,-0.2982935295270995,1.1231935833263489,0.40314426827543615,0.7303452344615067,0.19244781206960124,-0.21226649853026547,0.8113779022120483,-0.6057587128215031,0.2920976226763931,-0.4732075627962756,-0.3123421237703755,-0.9301494583249874,0.0443397729954061,-0.5106692809134593,0.9812994968762566,0.11111007021824151,0.8338847941794353,-0.9503644497224785,-0.552308301617234,-0.8287280809469831,0.9425704256685137,-0.8478589057093981,-0.48077578389105313,-0.9493541179729473,0.9507531304562516,0.9567058348786822,0.3515274054338459,0.28487876988708355,0.38062330641442915,0.5903622570281042,-1.118051757577341,0.6313843081670061,-0.7896781824276032,0.7782359256350951,0.36253680592434095,-0.7257257275662492,-0.08737414426972089,-0.8174220042406313,-0.4325175825020647,-0.35565785897648877,0.1475525722220736,0.17741938734366544,-0.8021919449976936,-0.3788334264570445,0.5031373920173509,-0.889314143739875,-0.27466630869803066,-0.04976474120740954,-0.9980813439665959,0.6794381695100516,0.3696078153777039,-0.5562322699483009,0.7110553790483637,-0.1914894567520278,0.50853618940332,0.2454965291767616
-1.0133190517298354,0.9471854188895559,-0.49280658018007223,0.9981852032319154,0.9938441541614821,0.8346458515164479,-0.18929573246949213,0.19634104034234223,-0.8016264804993529,-0.4494275244896674,0.2006711140209344,0.004036866070831018,0.25170628536260264,-0.15698170193339334,0.15205762837549458,-0.13933293564678478,0.6117007765151308,0.9485863403823362,-1.055246428032045,-0.643347320556843,0.007520604760840561,0.8733765852317923,-0.8037435977264391,-0.08921062785618449,0.03603224637640922,0.5931895953758193,0.10651976976926156,0.6827870596670077,-0.6703621266521907,-0.4638238843548705,0.9432567147408586,0.2752297087139425,0.45984028564253054,0.14065935585084297,0.2887038119089331,0.9741798362802477,-0.4322250120993724,-0.8111551804975651,-0.0818891716222427,0.34359647276423294,0.8165844832988789,0.8947161315524549,0.43168101533387715,-0.5953568610449155,0.9908597562342313,0.1117054806350718,0.03768264677402492,-0.722672879389003,-0.5918689161845111,0.8169717710764489,0.06542874742596012,0.6370186826121232,-0.0672067838859032,0.9445419130427507,0.11087467206145175,-0.8027510214034389,-0.888958273422729,0.9467518484823887,0.7110509995526605,-0.27132239224900595,0.209627245707864,0.8611985777643493,-0.6787682883425648,-0.23565996130263792,-0.41161292014868905,-0.868520650795979,-0.07949606682747089,0.3855711553787427,-0.17954745750664505,0.3117850769686736,-0.8174371352969321,0.21550069801758542,-0.5827550372004047,0.9096099626842092,0.6357096859919277
-0.9851200525714421,0.5154037234460561,0.22722311501247489,-0.7668132641007603,0.8516619712194221,-0.4256735441016506,0.6441433398992799,0.40070693164240234,0.641144266581915,-0.13363839354960516,-0.3562228648807995,-0.7428775639669248,0.5408283664670208,-0.3957787799975664,0.04486587071607099,-0.4045364919934435,-0.10030641353985545,-0.2876520110887048,-0.4574358929855681,-0.652350073342222,0.12779736801828454,-0.2527566973338962,-0.7883146361022985,-0.17291986011426536,0.5223246858783351,0.5036038587863707,-0.24970022949942192,0.1882585792257797,-0.051116027976729234,0.00880136395590951,0.702607952731112,-1.0627851468433056,0.2227495047476764,-0.4920414185235625,0.28973912387773687,0.31093865967171885,-0.09039890494775808,-0.9099428241491345,0.27401045176966027,-0.796183463040605,-0.8739216479849345,-0.18833996018159968,-0.002793283166478148,-0.2485395272292619,0.46809854631404657,0.17735759770291293,0.5927318563199485,0.29856100217108,-0.5145985763259551,0.06045988392761405,-0.7357173713025544,0.7443666769975307,0.27560903980363044,0.6781750258922399,-0.44532027905845023,0.7682328342987255,-0.056674683987143364,0.20466625405772532,-0.8920818207539023,-0.2146460183489659,-0.20424781528262484,-0.005284879842700223,-0.8542841557453612,-0.1324379902400588,0.6979781197360341,0.2857151746187808,-0.1431498656946995,0.6817421891370785,0.6912218683904776,0.6460836258654068,-0.5778880215987907,0.10319820657876128,0.3754471102767802,-0.728039314545592,-0.004215257021979586
0.39559585080063264,-0.5659703295144579,0.1183995886193476,0.024671829598773207,-0.6579507230350793,0.18370014760264186,0.6677630229329791,0.6168936652495676,-0.7616885695212503,-0.5014016144026525,-0.7501495284340012,0.2773656066666214,1.054294276428338,-0.8886308923358923,0.9088921902964445,0.6477394345700701,-0.5415151417093305,0.7184884045184456,-0.8524747672193844,-0.6075166753092925,-1.029138323981359,0.3645090852141027,-0.06649602873973737,0.45865084440936554,0.6495971763279283,0.6227800537270993,-0.9030626347040726,0.9097293498961051,0.7478566921966702,-0.6758288469699579,0.3970737170310196,0.370192935434084,-0.22585108049692798,-0.19112406262593276,0.7021822719805315,0.43888210277360584,-0.30613476640284326,-0.662101336085857,-0.029314951032945805,-0.05345085934176777,-0.15858407474306996,1.1418639271194466,0.5173782553509333,0.9601075424138065,-0.08781767654589438,0.4352034235409612,-0.3911985607868045,0.7521818378520595,0.14353260014547597,1.1956529517225478,-0.7573278880789471,0.365570301300626,0.16610907851902618,-0.890364054342657,0.32900511141407257,-1.2689257332844068,0.6856120367708589,-0.37172291818787473,-0.5793534891254443,0.8790409547495348,0.38853272663751165,0.3982121443932831,-0.6034815080843611,0.12914089812087914,-0.46969741208834337,-0.7818443523718992,-0.20395733088773346,1.011676557407672,0.979674353820742,0.45019455221652194,0.6864048975061484,-0.21411930285919753,-0.07997110248974691,1.2068066201152323,0.6447488447380787
0.511541247880883,0.27733238270032873,-0.287690023056227,-0.576476133617613,-0.47029523422972014,0.9657900551801673,0.7350124328747949,0.28157150757260324,-0.15743785026812374,0.42999278876635116,-0.07415683916200921,-0.9214059022930572,-0.6728362947782563,0.09492066235481704,-0.7642384252286961,-0.8861960004830489,0.15951002852911803,-0.8112782058715841,-0.1154677838326955,0.2642625050153133,-0.7945879331701947,0.41841372226909324,0.4646659412802605,-0.30417133227277104,-0.7727240344971161,-0.01945432917575381,-0.5853310026014499,-0.20287106196777774,-0.27685907735336823,0.22332080297543153,-0.9544172863510156,-0.3177739230478339,0.29518949398233246,-0.18247650297869894,-0.22489979223470383,1.0044820083610866,-0.07000921106013923,-0.1403890044390928,-0.6103116444637401,-0.7363859004440094,0.6134352494996569,0.6262333765639571,0.35680877515282877,0.9248710428199064,-0.6873618692010999,1.017962421522616,-0.44182235377890217,-0.24133192928029099,0.20364202742269671,-0.9741163502033165,-0.34916558292784816,-0.5687334587263647,-0.648529418114429,0.3630028093853714,1.0091011769575102,-0.91947724959803,-0.798594844093174,0.9412825354461216,-0.9016219993863913,-0.8903571978142868,0.9860128429303577,0.5343197250551264,-0.4737905429914715,-0.0677652181722736,-0.8709759583615074,-0.6994337568330248,-0.3173722814326518,-0.3807117656025049,-0.4293441133921934,0.06474650096737619,0.7791044690218455,-0.2323727688953087,-0.8006098624127914,0.8613978659716036,-0.4046823749028836
0.41476387181663926,-0.8079366484695691,0.10104857515852897,-0.14596948121994976,-0.9327081579390296,0.3765862560531235,0.7816290948964375,0.2646032126405596,0.32950088690938983,0.18888023776501084,-0.6662945082071065,-0.6525388074146496,-1.0155403400277796,-0.5390145937628619,-0.9062203473623607,-0.2947540080149385,0.5357039606643987,0.1459181378216035,0.5310186836243629,0.294781606249124,-0.8205830017279561,0.26354983009645466,0.4636530537290006,0.32914134319278776,-0.019532157121701612,-0.022496981523810838,0.06242205040156004,0.42183837974963845,-0.26420799463947536,-0.5186724827469168,-0.0554916091763041,-0.9460363882181823,-0.5710991944608578,0.46218032081935617,-0.9666679674801623,0.5376134007485062,-0.4296499843875584,0.46712627930673123,-0.622583597318308,0.9302092898096609,-0.4528624778002469,0.8538266664342203,0.11127591382269457,-0.4957727461183892,0.21958416197624545,1.177112269096014,0.7963383686014172,0.009438400855806547,-0.6753722752820791,-0.45362949558102,-0.5274957098326291,-0.7248589036448311,-0.9071870648117627,-0.6819360224004883,0.39067789611413,-0.626980733418043,-0.7860697178225311,-0.24785070717414162,0.4925393259203926,0.1672146441703404,-0.8537036870264353,0.6356595872377491,-0.6473933424137922,-0.1821261650004625,0.5969089045703125,-0.7433656324090269,-0.6282424899251212,-0.40685779318955323,-0.33536628341233604,-0.3893403543528354,0.7860375928957819,0.30127196365987574,-0.6523567559832569,0.9499425528598229,-0.25321683117876237
0.5885012084153171,0.17056311495599896,0.3187152634423073,0.13559491762191933,0.09736288807125681,-0.5333914927529239,0.05467783096347315,0.9790332406435504,0.4392751155456322,0.2525796347214068,-0.7879623953085793,0.46335263210253624,0.3411708801252087,0.9825105538180732,0.8088801704979496,0.9683442400431816,0.11365545828163245,0.941010718837456,0.35141536544374213,-0.009191200578188032,-0.42178685459546583,-0.4395567048712255,-0.9542590241720365,-0.6908993413641308,0.5316420046502779,0.678613885676148,-0.3118751858092478,-0.30166733499724524,0.4133252188587177,-1.0189784421534338,-0.369191430650209,0.5897996007385973,-0.13273623724240302,-0.5843150126928078,0.22139742093807546,0.7851332269700682,-0.3680026071799593,-0.26284475671731117,0.5867997027452274,-0.5554467334767789,-0.21114323847716823,0.8883946935054059,-0.7713219235305812,0.7300131577083131,0.9466943379065144,-0.026766135870945094,0.7527006728247599,0.18105569027492294,-0.8673499187165475,0.6690156816383702,-0.22621676960792247,-0.12948080466642162,0.20634663428199618,0.20024475660702304,-0.7786519203386308,-0.6620866954796779,-0.802033996129145,0.6408198036939119,0.4218694685691961,0.4617011458215981,0.13979957825384975,0.2774350088209545,-0.7576653321237818,-0.11424955155881585,0.7400361767235307,0.15663227273858096,0.5442691060966661,-0.5515409316417836,-0.04274235025159449,-0.7245506324905263,0.13729764740146747,-0.6436126929048798,0.06719681007504633,0.14897328084387051,0.7227858525518969
1.392087250994924,-0.562230297310143,-0.13950973613352755,-0.6053945835702561,-0.03690300585336625,-0.38527949067875406,-0.6493101402714067,0.7672710077502946,-0.9885134427338393,-0.919891222957286,0.6125512918987919,0.3245121690126308,-0.5103738929501315,0.874250745855222,-0.9081826299430522,-0.8979943671009807,0.07375619985552966,0.3640229847187507,-0.4190360341792655,-0.12256162647044246,0.37499656306503554,0.32081278774828487,0.9062847242974107,-0.6852464812785561,-1.0118413894773108,-0.509276387638016,-0.7414541513432945,0.8062469505961014,0.05612754316004206,1.2508952661680994,0.3669566065839997,-0.6370706352216465,-0.7988228750591124,0.29201387830955394,0.20084589687616203,0.9519676397616091,0.7683931151907729,-0.5175063795561518,0.3453755859019762,-0.05259339075132363,-0.5162145663335675,0.362963656621183,0.26125662012781187,0.863343350186678,-0.24496109937979538,-1.40046013452647,-0.15658379272584308,0.8468388035408977,-0.07866039329194052,0.6469457838376045,-0.8288684823342071,0.43307749708284987,0.5609365096560096,0.5284463161397505,-0.1888335086685694,-0.18870820963159698,-0.5454539274584513,0.320666454545194,-0.0033258177394420055,0.08397176607111559,-0.8668810683600032,-0.7713259038402435,-0.6735403184638116,-0.2365008429019416,-0.35848162279894313,0.1667191562523298,-0.820906227059609,1.3221307189643206,-0.5109464651710269,0.9224507324264382,0.9146870817262808,-0.8259034740399904,-0.6747318268127865,-0.7865535838989539,-0.18249761108575538
0.9330437290446135,0.8447596264083587,-0.2928829533434391,-0.5880108179369158,-0.5353410893871127,0.53108312598223,-0.5798942386164136,-0.42584855295891577,0.06634892318476375,0.394731739995351,-0.5061133437317442,-0.452353868781994,0.052858705768361366,0.3320805617907639,-0.610187641851784,-0.1775828121591016,-0.05202979292499275,-0.9202474019842508,0.009111414581779014,0.053367036825021495,-0.9572748321503447,-0.03997530450720312,-0.6575902991693989,-0.9014020658414871,-0.1408235447817035,-0.5752231925380338,0.12392148212453692,0.5132307805254751,-0.5157717443317493,1.4117576393149829,0.7207692386748196,0.2264678017768589,0.7937367830640565,0.9151920833153302,0.40664828980734596,0.5931551956592533,-0.2921660452078003,0.08526265075391487,0.892445734139688,-0.2999293933715661,-0.657294785129452,0.5093488937913814,-0.31532487030271444,0.17444864004894928,-0.3149503040516879,-0.1436630398102388,0.3287558736945395,0.4498261669870198,0.47356903314216614,-0.2151459303640168,-0.082053812462661,0.07357247505150377,-0.6208898237283961,0.4566556430161452,0.584577213475962,0.3706068817135029,-0.35924096796597876,0.022271125463805212,-0.32354393731126435,0.575616558246701,0.6719091643889276,-0.7865116233570965,0.12099148169167503,0.6539183296096406,0.29960759332542475,-0.06703981753711749,-0.13358243709810486,-0.943922268723221,0.7905849571083455,0.4269061007871791,-0.11084557376208252,-0.8677663880098164,0.22860962165826323,-0.011716063066508381,-0.7608227836483091
0.28002443148429607,0.42358606511179475,0.4546907821943621,-0.3077056694804771,-0.726978375446283,-1.094544116959172,-0.973634349503999,0.05724162006029872,0.8025919665666232,-0.7879129748936423,-0.8682157400129995,0.4602620663792758,0.5847096190150389,-0.6597681392917846,0.3689115309243428,0.8705208707394319,-1.0209219922548394,-0.028799500503541825,-0.5597097553614834,-0.005914251948666665,0.34075322344876857,0.22367671616086574,0.7572526401173206,0.9289606125874607,-0.7460414256878919,-0.8854609467519432,0.5792350422882288,-0.11727314401998656,-0.36641182417677476,1.352150524553961,-0.2676759257411495,0.499624484700143,-0.11727644794164142,0.4123311846832732,0.6282002939734721,0.744643509296638,-0.18822059086092835,-0.01975834870310891,0.5476646176278923,0.009470783425656519,-0.9221924126324723,-0.8440676000326013,-0.7982012848488865,-0.3612921181621059,0.9517619577513727,-0.24752887265576717,-0.4239890997691522,-0.2292099010950841,-0.5536428814158205,0.5027510579625174,0.6863582980226276,-0.8570970319986295,-0.6713314961450565,-0.9523641099792891,0.5758277413740311,-0.7368295961366889,-0.391330645500999,-0.03634855185683046,0.5292015155641923,-0.005650601169038618,0.47321222406449315,-0.8064360350950022,-0.14460746919968442,-0.0833359975251395,-0.869868720921942,0.7483109101114451,-0.45926200750677376,0.6024649189103201,-1.0169682102025708,0.06517839863326949,0.7586672809978672,0.34120371570077357,-0.021007500948155143,0.7415707401024791,-0.9343772903708328
-0.37772561258443393,0.33449436820175227,-0.8368653296949917,0.22564066839576916,0.8080563711614104,-0.6345375150109757,0.6403578782469073,-0.282453994708144,-0.1518644579902978,0.5907658988270537,-0.8203754796566679,0.35555460634603825,-0.5835953997714884,-0.7901650076271247,-0.1327826890270229,-0.29628316835323143,-0.6108084377283254,-0.6694950580474612,-0.2959586674090027,0.6180344845256254,0.3625080719854561,0.14545403466482806,-0.5155623080354436,-0.125334747484794,-0.4311221846514033,-1.059161882290229,0.7524558382358301,0.34495589127096726,0.09343772330041461,1.452688974069275,0.2836102220463755,-0.18754965246165428,-0.6532398036628156,0.7408137263706327,0.0490587063623083,-0.914554044353303,0.8385254433186577,-0.012371556007895457,0.22157914520033775,-0.49996789468189545,0.06576356253390549,-0.1742649519607843,-0.18318097549433898,0.03235673615926211,-0.162006702813703,0.526384458287539,0.060687609316556146,0.500569208599788,-0.8815645825274903,-0.398698227755162,0.22404985247373718,0.9734509644987124,0.8761781708746191,0.2237218853982641,-0.8843548411900238,-0.4666050744169911,-0.11883582679811278,0.784548779305381,-0.2959723806002616,0.08328390829311946,-0.31816400806845535,-0.20801631155538988,0.7400826370260334,-0.6251814234967455,0.16860471751673936,0.40364296644648495,-0.8680178529939878,-0.37366643602697336,0.6392698729041726,-0.08531298990691616,-0.8830778124064377,0.47976433318178474,0.3958119563452567,-1.034827713966269,0.45173185227393814
