-0.3398688546174177,0.8360691837508397,-0.41344074431360706,-0.24762136420278794,0.36502536557771886,-0.7705456022949215,-0.9866824246680255,-0.7220683509772817,-0.5923373743207582,-0.9077756588687584,0.5101246714277338,-0.6227891787310827,0.4726508775051086,-0.6297572922224657,-0.7534098073953517,0.06608683423585905,-0.9152515576038516,-0.05671506504307819,0.5851592667384291,0.5007553749083016,0.16640685039888684,0.18076367898057658,0.5285406324547038,-0.1879581486171037,0.6422240475908931,0.9622523603279552,0.250612352111781,0.673314426837164,-0.8184942190681814,-0.1747609882320991,0.7298078176366798,0.8459512727750145,-0.2615900645528525,-0.4575782278170371,0.2783197365529,-0.2024069962362907,0.6699206761382583,-0.3869045664687679,-0.6500593568191032,0.30632390421544775,0.7216056528516022,-0.6936876751208134,-0.913904478390281,0.9354607364347399,0.2474592282927982,-0.2871915526874284,0.7573746068665329,-0.8509401379549888,-0.7303478464040469,-0.5770301124986484,-0.717666021635509,0.9132581427028867,0.9697837244925084,-0.1066614591713292,-0.9540348350850932,-0.33068633820551296,0.16177348881783468,-0.23278335854692928,-0.4363615223943302,0.9481538583086968,-0.9256757994509855,-1.0007513911411472,0.9293995656519167,-0.5555179461220671,-0.6690098939443406,-0.1576788618379923,0.1089372898337428,-0.49034877717116915,0.028417982601055897,0.1586687208072262,0.3772155527356122,-0.7588534178166626,0.7145746944741008,0.9748545367344937,-0.2245435933877764
-0.42255004377110017,-0.4612811675477098,-0.25595864679764924,-0.019209384006803675,0.3257266360034218,0.37840528275025825,-0.045345034522780096,0.9866214160873805,0.17132887749127954,-0.5259668878160649,0.24030152805554433,0.8872090660854687,-0.7369588817737869,-0.5318922679175874,-0.21260009105872998,0.6959046328807934,-0.09063512490771125,-0.3839443672407457,0.7535744583698942,-0.40726544184278435,-0.7209367147061638,-0.04989691366018455,-0.5266410702237673,-0.6642928704137875,0.9889660551834942,0.4916243106751889,0.8734966246425372,-0.49297693460539616,0.9089564656220247,-0.7041852504730041,0.9264165635378238,-0.43594916383886617,0.8479845230995958,0.5266118666408596,0.10525986175809443,0.31504202203367826,-0.7007752286734776,-0.6871241006783861,-0.5483098692273201,0.12587431246888323,0.5257753974727238,-0.769089556081095,-0.04501364110228549,-0.3399219357550461,0.3414228811668878,-0.32198142160735305,-0.1482007142418671,0.5808802085484948,-0.3736039478661598,-0.02385829944155647,0.7294358716514735,0.9183104169745085,0.740354565010137,-0.34244849418747625,-0.9685007813454535,-0.5735753703790752,-0.9910298315018279,-0.8418429739810717,0.18505705069199074,0.9699035086870329,0.4294710876058103,0.778098823366027,-0.07972522317764852,0.46191567131267075,0.010946551275968379,-0.5578337192009091,0.5042991809990707,0.6241271060642714,-0.41088396717988757,-0.30868243802389433,0.1731038343095232,0.9182470303526307,0.468814511811411,0.9297605187921161,0.9692937933232174
0.3089556067956234,0.5639832331180492,-0.14389972037685336,0.05364390035104123,-0.4611062978537241,-0.9949420105353883,0.3898882523518412,-0.682057060657621,0.004724366758746901,-0.9431586102217971,0.39157480235097947,-0.5832314242004366,0.6002773622848177,0.9841719988771763,-0.6285182276839203,0.40746737025171054,-0.48852121465083503,-0.045191779583815136,-0.15908066504765925,-0.4356324156844453,0.9240218576162906,0.6870115832122381,-0.8869681727272489,-0.920053641294387,0.21351694489275846,-0.5407050889011187,0.3214496824507498,-0.3188856837072015,0.86197176412741,-0.7715784198712293,-0.8910370637977668,0.1950998764879134,0.38777010081633334,0.1452965481309455,-0.9123297511421933,-0.22373697078219854,0.9008710965702841,-0.689327271514972,-0.6580690155047043,-0.9233330265350217,0.7223607156227062,0.15927991411948092,0.08276147884868364,-0.9765476891051014,0.9540150139077492,-0.772702320120292,0.5536958536676695,0.7115050272143866,-0.378844532946955,-0.3646013673156813,0.27742468054177655,0.4155487833749063,0.9225279291530779,0.7820968713209457,-0.31306326830245657,-0.2160983698229472,0.03705479899388412,0.3060959637894138,0.7911905809178568,-0.5036812974671468,-0.8353824796572757,0.7929203396828773,0.9005872459524342,-0.2168146441665544,0.3883676134700881,0.39705215466304616,0.834561524888178,0.7128094305420386,0.3296172952040513,0.9089313849461669,0.07343839355102832,-0.023954738397836187,-0.2861924977298422,0.05743030732663319,-0.32630855436060324
-0.12427022977829938,0.9195827989305605,-0.9761599386417833,0.8780422757061653,0.30267131445582085,0.7876892625856723,0.42194342407848057,0.13957616806288087,0.75446541809904,-0.9305225216562533,0.28310817711510927,-0.0038818576539413215,-0.48092103327984187,0.4661600488991192,0.7569643837755721,-0.7726610088073099,-0.009656180542492966,0.8930185693811731,0.38725025071999636,0.7865259004224822,0.8954366101480609,-0.2840449571711231,0.18955768466877682,0.2795676706747128,0.8434534273655295,-0.6769965801578264,0.8214876264216053,-0.11687763344118848,0.5491751061620198,-0.8840466018243457,-0.8883725210986559,0.14154670520508733,0.7710196566370283,-0.7232174325191315,-0.8057043268332083,-0.3867589685342105,0.490236297671123,0.6590305560352167,-0.6149737929840982,-0.24272977173985139,-0.2233757361702818,-0.7178427992022923,-0.9490760548360316,0.14283530103523212,0.05738468696322843,-0.3272557212341109,-0.8925098238396607,-0.7936517188950523,-0.9659732410012878,0.9633062131922318,0.5276925802764154,-0.19813827973526577,0.7769676062100046,0.8423805953699801,-0.5831249904701767,0.2924124848678532,-0.3141669680872369,-0.9526796824286254,0.2966760035155595,-0.5498956235285737,0.866258777413262,-0.47125016707376,0.09704036861154233,0.5503561444321278,-0.22094789697258047,0.11560665801072897,0.6142686918293699,0.04210465085694175,-0.7823652466844943,0.48630108006659534,-0.9220418391797551,-0.6866086091049433,-0.7843534508274619,0.5965359113567364,0.0632844641927561
-0.014881717083261373,0.4975256036809557,-0.7635462942818783,-0.3066025871591024,0.8008779628997089,0.9293025892662518,-0.9394415372357798,-0.9557892469843667,-0.4930705582020722,0.6810164393789819,0.9781502478557088,-0.5860339980953088,-0.17165876135165997,-0.2644191821457816,-0.3832977868500458,0.8996523417502446,0.8841052025315791,0.8937128430841557,-0.2809541070475963,0.6408171610351048,-0.25310037937343705,0.8176973093449048,-0.2453278997992213,-0.5646485539638639,0.12197089272155442,0.14354169452761487,-0.6956109164399564,-0.17102824573917785,-0.476245803397875,0.06754945692942202,-0.42340175407106906,0.985560868779336,0.5899526492272547,0.6534879080932634,0.42882925517324033,0.4565847859437255,-0.040856601840099094,-1.0590541895343073,0.06993109832409923,0.11760046572816155,0.7571752010617566,-0.33167179057302565,-0.13987543820285925,-0.04542789890567671,0.6219032816964782,0.28762130984109413,-0.2394930454105495,-0.9054020658363356,-0.13667448403452478,-0.7018883463476063,-0.4474686316537761,-0.3331407811705979,-0.47694186083694384,-0.1267742057027192,0.8844606927394131,-0.11882305737089449,0.06060735479393712,-0.5942269814894781,-0.6918989210117364,0.585179630377112,0.5010650380447651,-0.48963167333570595,0.1726049790808137,-0.24712095160913763,0.4083112809928691,0.5111758571946055,-0.13286609763309218,0.4082534889725574,-0.5644080895410103,0.26491064120698,-0.4415584561169987,0.681714506382786,0.18287285025075659,0.6557119480992978,-0.5113720622799024
-0.07780314982970407,0.9416385900106555,-0.23944762623013968,0.1397593011058862,-0.35757893149812925,-0.75361957666771,0.054635141097608794,-0.32813864469765053,-0.5981869552782864,0.15763677809105095,0.622224137836379,0.3480558017748011,-0.46092718101350205,0.011248855449629697,-0.8399969331374714,0.31223203539949573,0.0475264761075614,0.14894635108767443,0.5832968386289014,0.6970292747249844,0.3460323336118544,0.4822451489940474,-0.4656662954976654,-0.8286432780247416,-0.4754256833489622,-0.39359795630368094,-0.35451069915705635,0.8953771552838485,0.3618278372953306,-0.6223998491679877,0.2374384895823238,-0.5546122458616514,-0.20339012677258342,-0.5446225793935107,-0.9811682350542686,0.05422777946120217,0.5443757592359935,0.42066167913894525,-0.575231096496705,0.45365177057147493,0.0968164542863435,0.20043625208706226,-0.7709923893273211,-0.21266062261204036,-0.7275925753243353,-0.8697808664354248,-0.7661496786471115,-0.34154625896426505,-0.08557242278490874,0.17724662440658967,0.6724678686096953,-0.4078384459882921,1.0625086914623936,-0.3715529674903549,0.34063217612273616,0.4185189099660995,-0.30200616868754465,0.30358449328968307,0.37616285232760766,-0.7855912295018005,-0.6041197406043107,-0.9891415412091488,0.8833707484878115,-0.8005716301082895,0.5527557682061405,-0.2942444162776921,-0.712699861995207,0.8034761242614828,-0.8288066474340465,0.6512412252397326,-0.3819731705813732,0.3755219566205754,-0.8469051160127666,-0.23737757607596766,-0.024731960607237508
0.9397924221069343,0.8198681903076978,-0.5981746724580637,-0.6062421540655893,0.8800411489941908,0.010827214139130322,-0.051161387196352374,-0.5799235894368556,-0.38909212288099915,0.6094005343408389,0.7807653379751688,0.8128865074814632,-0.4978882740737967,-0.655798307589551,-0.614916042238696,0.6950895693822986,-0.17783289477231015,-0.251427909332212,-0.6001651516976145,0.11159800955290561,0.5420881584079358,0.1547263191849402,-0.4321901097828311,0.5062607775797713,-0.2232355243026342,0.2651518759060978,0.7654291048447587,0.10899900930701137,1.0356852545708288,-0.698533503475528,-0.3191987057576643,0.5463644509903776,-0.11550371355612672,0.5835368564955895,-0.04722053675989665,0.975478018339774,0.09087082923399381,-0.10507778026241629,-0.6258218933686895,0.22992954891437403,0.5965172144064427,0.7189505132871513,-0.898841190307822,-0.6186936773611273,-0.1717676315167473,0.4752328357656337,-0.14809647210994886,0.7419607201742764,0.03641994602657874,-0.3888128668146002,-0.6115394856644399,-0.8832709554353388,0.43129100106127943,-0.11606499536818535,-0.9649876118864495,0.05310097213937967,-0.24821253643300592,-0.41430347772920845,0.1368097084781675,-0.6068816757489433,0.16395519717939244,-0.7841641332105072,-0.09953222469599729,0.18730751869319404,0.8088061006887515,0.09186231434196235,-0.07498486882949683,-0.653121162162236,-0.07455430612616006,-0.3693282557602415,-0.8655319484484212,-0.19172079904292655,-0.7512706950942102,-0.879758629600541,-0.16547576613939904
0.6255031639377889,-0.7873741550017733,0.31996898326177386,-0.03929627369266984,-1.0387366768040938,0.02194944010226319,0.9718740591488412,0.02382713346961975,0.21684317524787977,0.7236421565430686,0.6551778936712034,0.6028710474180109,-0.667006307496435,0.08502184902293963,0.3007474459529985,-0.8653103894131359,-0.5323570690613099,-0.5534897560241409,-0.7625494189586527,-0.8866025527050082,-0.3370373021549024,0.22085525289110627,-0.9351173947934813,0.6721720196391617,0.35334389387210324,0.9396209920634871,0.6528009487155036,0.18190347849783034,0.756873263349553,-0.7062607136392848,0.3731692432839084,0.6791813508322164,0.26705020465610396,0.455159124434262,-0.026524289539398154,0.6381448370355507,-0.9887633376649813,-0.8349353804115476,-0.40835633725641574,-0.4434455848787822,0.9727563688462809,0.04641763681212368,0.9018492691873768,0.32100220604060653,-0.31890771586226674,-0.18863696443933115,0.26137242452824444,-0.2923811078096054,-0.22942621911485328,0.4555274239418617,-0.9421729097685608,0.48388739420435656,0.7164361342923541,-0.06264147654964212,0.6126488952811318,-0.46510297010937524,-0.3778427972546717,-0.569931053335362,-0.992224054337845,-0.993671297116673,0.4799487328144704,-0.6092533308182052,-0.655054175195664,-0.3320798369132276,0.5563426995133578,-0.07458903349743091,-0.9320629251546811,0.553614892127435,0.7539912486969436,-0.8866745008014604,0.137143049234118,0.7132383259578557,0.6468360676316909,0.6571358473502774,-0.5450212966217691
-0.4260126759568666,0.8183502452641419,-0.14389511013096137,-0.3189181426320494,0.767142092328578,-0.5945502896665317,0.5643833908574027,0.8559312900329319,-0.4831587423481827,0.6760415578595795,0.9366981867831695,0.7168389821389018,-0.23616182645505154,0.9643812238267657,0.35443646210382135,-0.9765720825954753,0.42413815045952025,0.2299918766568935,0.147366563255196,-0.6807716023576961,0.43857918643199906,-0.18414530348593566,0.8277612159602413,-0.12303945520622249,-0.44027336459112093,0.6192258005461241,0.02053639120730962,0.35541974115810065,0.9565207860353035,0.7933831338542191,-0.4764050786256606,-0.8757055930958583,0.14753184555189916,0.2855036638079335,-0.6053817742710618,0.5406740643487565,-0.3011919343754904,0.5708327557300064,-0.9058576476139865,-0.15874810555014165,-0.24436429798388049,0.21616203809409892,-0.8905596488737417,-0.8172323606991644,0.8964966091072086,-0.7158933634516351,0.8177000781639047,0.4326281774356178,0.2635529875975261,0.5158724607815288,-0.28759956986495905,-0.7087996861006124,0.25288890728976277,-0.5884878766631457,-0.8827877998434703,0.1036810458144973,0.5057893048622899,-0.513347626262394,-0.07035093384746793,0.2876571243529594,-0.6522634530254323,0.18044954628777565,0.5314726123305817,0.8347528966571602,-0.6168277455308877,0.8834828492693324,0.6974794062988943,0.07237503450820167,0.6090787783620288,0.5858935931597115,-0.7098086837221976,-0.5460601576123951,0.14414885753045448,-0.5094314338151973,0.1444381996765367
0.18737534176102955,-0.01579055475331668,-0.15309336823022623,0.39301517456691615,-0.14910230176640668,0.3938863092033313,0.924879213487928,0.7074943792518789,-0.8454087329206005,0.08413968957608489,-0.829442863223265,0.061800249782989466,-0.9045639380058197,0.23316346087717504,0.6487752181490306,-0.23966933167467028,-0.6692007432625681,0.04871324229510711,0.07842348069827353,-0.5061610402875002,0.8344990492828709,-0.3755405384211381,0.49983857377411883,0.6004295702513313,0.30603681132904115,-0.581735458196934,0.39441968597441035,-0.651183381388553,0.9994418412304625,0.9188839672712361,-0.2505723999983701,0.8582646040082864,-0.10713226144493687,-0.7733760605437449,-0.2854256998855366,-0.08670827670512439,-0.7985480314933449,-0.069767614260178,-0.9657944540511202,-0.8318152620318124,-0.42156966885635594,0.3979570196018119,-0.4039266591049469,0.11523323469006293,0.6470741761931228,-0.8337228339537333,0.7724001731321762,0.9481247437635889,-0.9391100405993623,-0.11684664982345107,-0.7021383078273886,0.9718482017627523,-0.09399072546578,-0.4964138452487652,0.3814372473887704,0.768693778913026,-0.48548459850586095,-0.5283684718299427,-0.699125221250877,0.8260726684093475,0.0662364389273567,0.396328798677708,0.6752194698497501,0.6784262531757654,0.6475741026533028,0.5758448832935642,0.4795851918619624,0.8843459157468712,-0.8525118822197693,-0.19670604748681672,-0.06164968969817867,0.40083369694268284,-0.43170550711847516,0.6581878521070796,0.4320462898379702
0.9191006138341039,-0.7778416068433606,0.26728770060917134,-0.15819591827729265,-0.749802584315989,0.35573485381264036,-0.24257418534081351,-0.979768426832499,0.5301781416642626,-0.8699088661268672,0.8547156524820105,0.9973754000780157,-0.7239599553957878,-0.23962581875378397,-0.6547876888044452,0.44637641664836675,0.6908286834085223,0.13560690921855253,0.7493939392301181,-0.44793468959046395,0.24970269199065093,-0.8088437818271265,0.26757690211917795,0.27100024586901994,0.2351004326924163,0.2055491913873466,-0.49663112456745545,0.36012258830314686,0.32303850429717557,0.9902978808314133,-0.09327412378589635,0.3020592866669186,0.4192691752559151,0.39002378512338015,-0.19459495668616977,-0.226251847329062,-0.38669411498427053,-0.8954923574546401,-0.5976171796974006,-0.33258596096039367,0.9303248880870192,-0.3097925612978688,0.609755974254869,-0.8798189279306953,0.9914968312411973,-0.9869551781037558,-0.7901890579491934,-0.08618592629648082,0.15614352710515222,0.13038247326252728,0.38113592329718887,0.9438116478405276,-0.6864780845008359,-0.8786547369923723,-0.12219037754985726,-0.63271720222476,0.8761441769591366,0.6597439820478294,0.9863011754108372,0.5663485753537858,0.3184221517043048,-0.7724970522773698,-0.106555132557971,0.1317769875043133,-0.18642591564479508,0.5934706442883837,-0.632278773797074,-0.9183386649297397,-0.8810851825564721,0.9443559869514472,0.24646267215483136,-0.47040461474785544,-0.30107476478282913,-0.1574342984353778,-0.3117495694747179
0.08474663022350382,0.6715548022003536,0.6219047828730058,-0.7275169128567631,-0.21139463483793844,-0.8064348866266661,-0.4865386694565311,-0.598171548433786,-0.6066208911362387,0.11076357531498167,-0.7976368895749941,0.7068557736663459,-0.4133850526287115,-0.7814646037723243,0.3589382487338313,-0.3202308522327675,-0.26143093169095616,0.32026679017401477,0.3662972355005008,0.12391024868604703,0.8903335502978685,-0.011347199333657163,0.12894041434079295,0.6223744737665987,-0.167566538066189,-0.8314542700455566,0.4401965631035294,-0.6695404533853125,0.6395663963086242,-0.6983075245586111,-0.5944316105717219,0.9715753696025733,-0.6326987194141137,-0.044911186214767244,-0.935241757758012,-0.7359869493495386,0.27477822657995143,-0.10660948063013007,-0.2026586874613368,-0.4557779629227154,-0.39642678645717394,0.630430091295983,0.6815450146355071,0.9630950225985719,1.0024582234405128,0.9142432379602133,-0.45724224556115944,-0.8922590845947286,0.016982812552300476,-0.6953811383291232,-0.524660516864127,0.8559857023157363,-0.7097589363346128,-0.3860273516981469,0.6828572484238493,0.17230510738182725,0.2357049868614202,-0.2376392022746924,0.32295643197862905,0.7208747424286968,0.8602616108409359,0.022540745510126546,0.1805257720297191,0.17937007316277126,0.13359117726840658,0.5492458701934846,-0.39395652773197665,0.592344857147582,0.18931508340087858,-0.4318433438376499,0.06360478126548308,0.7802791533782822,-0.07857052850412424,-0.722764875707469,0.07444550820649584
-0.20083530903840907,-0.8430183049470804,0.36074935054923235,0.5401393063726843,-0.11080005738909265,0.9614950504025007,-0.9069333659394672,0.8252024355109182,-0.05471469531153136,-0.3299350748899337,-0.8358618656607308,-0.12538941066593506,-0.3392011457489047,-0.9328900168807853,0.11966683759535011,0.2742324133289529,0.2200780365186973,-0.4203980174093948,-0.28075649385717455,-0.840094005924205,0.7665074671683623,0.3039344682649352,0.7661555672752526,0.8177427041265446,-0.9094291020757003,0.35616469283250785,0.3124940641632573,-0.5342728386503166,-0.7610733772910282,0.31307185107889035,-0.32322294625914644,0.69691509727184,0.6918219339234539,-0.6744388407046044,-0.7831755863626386,-0.49074384761059064,-0.7703574465155153,0.2697547072010869,0.43504171135387687,0.7152008936635957,0.39683072034038375,-0.5650659330593949,-0.6375937372614876,-0.4868242595291218,-0.908021736103299,0.5164005958724682,-0.14680363550470854,-0.03890717420782372,-0.578573653606181,-0.11037290819793251,0.2920554997188497,-0.35259594546094264,0.09545417932137412,-0.9843111958198648,-0.8121343336857737,-0.6345484729778731,-0.9026384269294907,0.8101582592639412,0.7029488078160462,-0.08715117545889034,-0.45524273708868707,-0.8192410658589262,0.21254474232754436,-0.3150236836509399,-0.09584059166989677,-0.4090100404318294,0.5450306558565197,0.02799871303567809,-0.9817777378282612,0.9655890706234035,0.7645493961880901,-0.5374517984499924,0.8442314181054468,0.8347584928496472,-0.9754626017627102
0.2659910360319214,-0.7847130301903587,-0.8573291267452472,-0.05614601464127027,0.43460757913445786,0.1282042903978656,0.8720267299265391,-0.14984174267094513,0.12664735938925525,-0.8762508950295615,0.7806130999374763,0.0791377316138969,-0.3165321532169066,-0.697297833958938,-0.7620586564675979,0.5772976274613565,-0.34494627985051807,0.05813981315232182,0.19761398223592685,0.21367597425524382,0.9339536457788549,0.8171753719164173,-0.1036210898468895,-0.4538446136153838,-0.8629618067851161,-0.12879630507868678,0.12189690270096373,-0.6078620433743867,0.855991193571407,-0.6776378046560433,0.012894273433033648,-0.6262555223702752,0.8064087290420208,-0.7494665168108859,0.1638473128048151,-0.37927690761692706,-0.35348854138080144,-0.8096769720254815,0.7178426096613829,-0.40767881927828414,0.6699835526123397,0.20518356007724686,0.48099810355324196,-0.9059609229962996,0.04342117149304819,0.18390636789700807,0.5961330474617436,0.568599014477167,0.7325703519222249,-0.779891662652486,0.37202716707019573,0.67251218170488,-0.3871898777143352,0.7419427175777913,0.6981892675044803,0.4337593439313514,0.8158253343357045,0.6559459876208507,-0.9890258896307493,-0.9157294994220019,-0.6904769529324759,0.047841260389992035,-0.22733736813344174,-0.9672527086321068,-0.027299575774569176,-0.17876655638938507,0.8219119046106552,0.48812131469311576,-0.36912802385765303,0.7100668078275908,-0.10766748111692542,-0.44699128213101175,0.7098418217167604,0.8616109401200089,0.7487449528776838
-0.4744522404759927,-0.09856526178085066,0.2608473524054508,0.3238966637178698,-0.2998980378133527,-0.34801729759968675,-0.013283577224465321,-0.8144198894624551,0.32603003306985096,0.4001043188402185,-0.6320400627109682,-0.5733656138725347,0.28589730765390403,0.8223264686760576,-0.37563692134391635,-0.5886860866174882,0.32062527786899997,0.46201869377470944,0.10019280228046917,-0.5471191866696354,-0.24265772722123408,-0.19696244768153703,0.5326303661306055,-0.3360677139754029,0.005659176117397505,-0.07575623406080724,-0.7321212802080733,-0.3477019806341251,-0.8726775910250744,-0.1984497149353884,0.8042219328329521,0.2567297351553435,-0.20458358623697867,0.5072235645175486,-0.22828977909330958,0.6743296432088565,-0.8126767996886158,0.9288282381785853,0.6018520431736597,0.8225092530555979,-0.49439414556338585,-0.27869131783072965,-0.6504389903075376,0.4231947500667313,-0.392007554255926,0.9554103157668564,0.6747325332187643,-0.10727197088533161,0.49500350295493034,0.39049842854261996,-0.8654606766842802,-0.3467069575973605,-0.4788442556716938,-0.4741973127311126,-0.39870736104246884,0.08193845501036491,-0.6886038825558637,-0.5496119832751116,-0.8266705323759806,0.3193805239453143,0.49929830741112996,0.7815934562073941,-0.18091695558322504,0.7353097226401797,-0.11063811451228538,0.6621727640139197,-0.6569849097953541,-0.11465510863979055,0.5268107245773763,0.8499630108867673,-0.3432411384723465,-0.6015266866226754,-0.29787953622070473,0.6144013411439427,-0.34920165553017074
0.49117429625430115,-0.8170742649937983,0.07145176865540664,0.8701237597560381,-0.5493585321180382,0.5689434351127882,-0.14930451490342836,-0.38387640235811893,0.8479282372461852,0.0824575691582498,-0.49662769479176544,-0.7518904233191427,0.23568751187377282,-0.1729007819128508,0.6345981151354263,0.9128398788192349,0.7385052274009632,-0.4983424908508068,0.6107043863140736,-0.18157996272124846,0.9073569970709857,0.1556540210170393,-0.6834879089821615,-0.6063343193474393,-0.5595431532033713,0.8285880796423037,-0.5665824937343829,-0.20987035448367236,0.7379966197077477,-0.5046824439622021,-0.047256588525908846,-0.8575501711848221,-0.8952187126190991,-0.34962739531660675,-0.4698886456961585,0.36947139307851795,0.1708368582308475,-0.5539112903970022,-0.8648129768496157,-0.07802546446511982,-0.8128368546124892,-0.6487642745186674,0.5201815250429626,0.5274146227282679,-0.2227959641929731,0.49486284930169155,-0.6303710293008087,-0.4046905591432519,-0.06483714993378446,-0.9761458488111466,-0.268854339040163,0.6995979278315042,0.5078233295657844,0.7380788338787764,0.7563267969687925,0.8105745753426786,-0.9281681728652622,0.9358581385036053,0.42157751427931694,0.1733328971476678,0.46099087160045843,0.7009804196061369,0.8075175001413711,0.7574805384716145,-0.9500212344016379,-0.9202788276625018,-0.814642152926139,0.9678489056304846,0.1742867231583248,0.4169062015777722,0.370849590517235,-0.06324362865290326,-0.7529285144350514,0.33695798716270564,-0.7662885490926425
0.3909510563332061,0.9951973207915775,-0.019371502434967207,0.5273511955283713,0.31686786021626406,-0.6590637121841275,0.616449896738297,0.43973764970602097,-0.13532874368249204,-0.32283018881330394,0.07697831780869951,-0.2136982622650906,0.1804267000717186,0.8057054541800042,-0.70524647775856,0.5664253986668173,0.3223824680345368,0.44041385854662646,-0.4163042281671834,0.7518061633182467,0.8760471739210056,-0.2742344264928406,-0.39984149875351405,0.062367161353317616,0.36171288181079597,0.33272110167088287,-0.4922718653262676,0.8113704626231013,0.16432333763653983,-0.3542873180748075,-0.6240646949059038,0.4092372875682373,-0.23750199429717606,0.16513320552280325,0.08451368595685511,0.06255158016632634,-0.18670311383211735,-0.26679864491175775,-0.5018028525042272,0.5272290441386743,-0.7656347354428839,-0.3921724835867166,0.8591173048602465,0.7319476496932807,0.7451408220568271,-0.7658621728122816,0.5920737571337862,-0.9148031819895881,-0.05084582316867152,-0.4970246395767209,0.2080550923957187,-0.35017771020907823,0.3303429829639005,-0.062472110159229384,-0.42966342557182585,-0.37434028862718316,0.9618810479069952,0.9963394939774542,-0.7518627953936237,-0.031537321544667846,-0.17447306823336792,-0.5680603635477857,0.8084902708788719,-0.2725284162438085,-0.41468741874212817,-0.6525849621075254,-0.03261745580343919,-0.8169922958337681,0.4757013551026986,0.5008576001392219,0.38690270471933375,0.386429287799722,0.22061555444434322,0.5838996866365838,-0.06227384649483079
0.18859907075210178,0.09145131118084118,-0.17851911237745105,-0.08093194364524658,-0.31495207087164984,-0.30164426049579113,0.42586353822254236,-0.3444730608010633,-0.4858777764343812,0.9382443005664622,0.9255947492602487,-0.9312296958222402,-0.7292311326862941,0.9342204822552933,0.3931078355205729,0.35575294953251263,-0.3346112753549093,0.09314134140655403,-0.7185442753600446,0.3330464754355486,0.9888333268316386,0.4027902585673315,-0.03921153276483007,-0.3043312375983862,0.4939554772000707,0.6060986504831437,0.7031932249925611,-0.3321512667733031,-0.5902268129513933,-0.4903376183092397,0.9179033003499502,0.6034143601225913,0.04302472806690919,-0.4814062227494953,-0.8833926906708373,-0.6339257065006165,-0.11066084631522122,0.7016732748285767,0.6434612897653648,-0.13812563681819565,0.9685395475518567,-0.1883372309984103,-0.15797538437223776,0.031723621419168894,-0.7910383169932785,-0.8186071406023215,-0.25820384156796766,0.13513589692016947,-0.25535527992908585,-0.9951963216561044,-0.06400857453702978,0.5733774667749993,-1.0614863645375412,0.6500322759648922,0.25725862298891855,-0.43396955733799114,-0.62075620621804,0.8344421344370587,0.3851549744507544,-0.14454450155072066,0.7761424953584163,0.651937651226311,0.43542428879316347,-0.7786287321977298,0.5110305691714099,0.6927816835870282,0.7157516492062713,-0.8277120358837197,0.06483000543377136,0.8106418148375006,-0.6463900413161492,-0.8065461722284828,0.8392962618484118,0.3713962846542323,0.2043677297549558
0.614602522693878,0.4660585938143383,-0.4024478161699055,-0.06335949673988626,-0.9582751251243434,0.9830164676808001,0.9729512701054408,-0.28007988235077613,-0.33737509849422725,0.3248594086209491,-0.09380217046223491,-0.643211504371569,0.8042800768498566,0.7730477055890781,-0.5001373428066624,0.20708638391674747,0.24129906585205488,-0.21633755399762403,0.6960622341267577,0.7726736872868388,0.13951187175557334,-0.8623189928864883,-0.29020312172285595,0.32637143759711246,0.10908712519178829,0.5700248863442426,-0.9419462082367476,0.986434528051272,0.3043190956464366,-0.8385241970103626,0.18351473447826547,-0.23927030274681016,0.22045934421821467,-0.9517963826958666,0.7728478809001836,0.27924998470095713,0.6280199885433462,0.8641478753330211,0.373603461061449,-0.3657469505351102,-0.4823779843809616,0.15575437683839186,0.5588331197981978,0.630512147265419,0.788127918661056,-0.8070347696761762,0.31927046386060687,-0.9433469395873104,0.555953043564334,-0.6171792218242865,0.4165457703378313,-0.6094971786083362,0.04145305385039421,0.5431866238199792,-0.6426714095600339,-0.8955273713313596,0.7459254403333245,-0.1831122221570089,0.6554079945982463,-0.6598419073560106,-0.2726811738890473,0.11731130014090417,0.6685147237816165,0.1353282177068426,-0.944486231063558,-0.4640108563053916,-0.9345265445239118,0.6728449108559749,0.05762359275803622,0.4474631448732873,0.9096428395198484,0.5201027656904583,-0.25463633900416593,-0.6416507520312954,-0.5436138393768882
-0.7981351558062011,0.4551249399227798,-0.49077443904992457,-0.15263639722038233,0.5896889138033502,-0.24126817440287218,-0.18807597253135527,-0.49556791019622776,-0.9285960857313499,0.9434048615661867,0.2052817312799579,0.226809600289572,-0.7627351792072553,-0.1692622101134719,-0.9216587561474702,-0.9590532034301246,-0.8943874910867523,-0.19377073451274796,0.6579327601414511,0.04594845586092684,-0.04458593187447471,0.3358310707399125,0.6612852712001931,-0.3178681604224963,0.0868010360491991,-0.12242836675163381,0.8845781899165001,-0.15812115286172979,0.01496961582223407,0.11025587974706902,-0.8773692735307514,0.755176988111962,0.5834928078471348,-0.3843618984703533,-0.33184458775939274,-0.17875198643970763,-0.1165986560625164,-0.16444185006907788,-0.7946033626258979,-0.5433670398458476,0.7507888871729117,0.7373590995317127,0.39021706038091425,-0.4656943331358611,-0.017967297036411912,-0.29749622173424434,0.4463376950170988,-0.09867801078910578,0.953871614789548,-0.420480626224495,0.662706523697397,0.7882184113729058,-0.2867635315637406,0.28186814492031464,-0.026699741703881844,0.959071604627901,0.01904950092696186,0.5638484961019329,-0.871053603472344,-0.5839509077205545,-0.7818106664330681,0.06531362881790752,-0.4566010048213872,0.5424144697879839,-0.8722903563898456,-0.5590743141676634,0.3944023184917338,0.8204503839292487,-0.7420701108349501,-0.31523589762407883,0.08707318846750384,-0.28296511130470225,-0.860795527672819,0.9194208458721292,0.02485348424675039
0.13269962736860555,-0.7916545018981692,-0.12824933275735698,-0.42214513434285555,0.3930361840707479,-0.7080311258997957,-0.7360814705237573,0.9614262340747611,-0.8043867111295844,0.6488531732475661,0.8264160489144313,-0.45709054915016156,0.8051999567127459,-0.6784839671040763,0.49174166505392425,0.06013289338266509,-0.03279859270173345,-0.48181630220107374,0.8949279003632006,-0.10860499426128152,-0.24107551199092647,-0.2982723059177037,-0.0399274686108744,-0.23849661853632775,0.0745043098442737,-0.5138110910364357,0.42065520235722026,0.027522953064237344,0.7122444032271198,0.340318572914457,-0.6492792695909496,-0.10555449644055916,0.5454504835714172,-0.2585189471114772,0.25030063420516085,0.37005657490144944,-0.1633353581765581,0.9218356190159173,-0.02132611070722109,-0.12881683570473784,0.920837877361915,0.9995698213668239,-0.0253494617508992,-0.3262458443999631,-0.47791645863014837,-0.3516799295285793,-0.35472323530270633,-0.18893104586927056,0.9517714795114115,0.23991421055842846,-0.1699987138876987,0.6667690963204937,-0.03090947446470264,-0.4974400456907972,-0.9427320606986735,0.8638791140356024,0.32133538403631523,-0.855659447696203,0.3883937142038531,-0.5952925718109192,0.24436010271465364,-0.8635694377597793,-0.3703653696965404,0.3181318930836532,-0.5425377187854333,0.18738325925308402,0.8172288160741331,0.15103323418894493,0.8315665717268461,0.14608610852743162,0.03105059926755216,-0.8008454875888786,-1.001398878190549,0.1126386812183593,0.6097086183987246
-0.9193957146850866,-0.44185455676247043,-0.22647713827220203,0.30395182788847164,0.9721249147239994,-0.2580768733523022,0.06375957258985679,0.08546212873969584,0.253308951058357,0.8145953952489384,0.2341591029890776,0.6711249211898117,-0.8362331680652645,0.8609319244570431,-0.501747940617636,0.9339973518004165,0.8156053442362345,-0.5479226798703547,0.127999057340286,-0.16151644342380805,-0.9085807279856535,-0.39746783848158423,-0.2301214333701662,0.6009004129827322,0.6463635745166899,-0.6750415558272065,0.5456441939583223,0.7667339574951475,-0.8626985036090634,0.40170420808220014,0.8823490273216089,0.6696005263581435,-0.9448047713763614,0.8338664160285111,-0.5344850058915362,0.3366839229558109,-0.6089046627272734,0.462534533089731,0.3382643751420139,0.14556399576250223,0.5756271208344879,0.5375560483696099,-0.19876061457440675,0.39157969673254445,-0.3600607067354242,0.8024989944491825,-0.3922351587125113,-0.16266531243727067,-0.2853415805278814,0.7946215173609222,0.4439850347595587,0.9327328710670462,-1.122221099233976,0.6787896443705542,0.444201341348638,-0.9254908569672441,-0.6307931889538728,-0.7933794759061328,0.2563957209714172,0.11035844841601039,0.8464234160340283,-0.9487722922145929,0.7600232074252057,0.5371587894528024,0.369598503902619,0.49134222054824517,-0.6138907246861723,-0.25001814333703304,-0.17389937422692422,0.7792807183592362,0.707046490408178,-0.8362783568932113,0.26162830269617715,-0.6630326467344871,-0.23919910635091474
0.8352334424907849,0.45045576198677084,-0.21993311484587505,0.09184378158315498,-0.9464348961186779,-0.9865926536787614,0.4216495548121559,-0.6452411566165152,0.17876214501577325,-0.33602061820017354,0.021204749397891347,0.7701180354721018,0.9480748845356504,0.8017841018935538,-0.9519474535494544,-0.2817527766346892,0.335884618836614,0.8409202999974918,-0.36051577497989423,-0.6611564385952876,0.08636719288909794,-0.8592586675884495,-0.1651761129102931,0.24718152359291531,0.4402994319328046,0.02838371497116409,-0.2789679238530138,0.7915853837016584,0.5771981534764672,-0.8219929674925956,-0.6355141252753346,0.7722320674734209,-0.4062191099473977,-0.39195833202972985,-0.9490510257408321,-0.8198880621906417,0.11017224407268722,-0.4126612538909051,-0.5415358929231868,0.6956087237751951,0.05112165964796763,-0.9689903015627236,0.879463227774374,-0.10685473895111651,0.736119426780298,-0.7689865363170012,0.596495841110149,-0.6466690630400701,0.8052275426462273,-0.9639423545604213,0.28324611047321635,0.35623528477400895,-0.3422971827904774,-0.44659777117436605,0.4056814099524865,0.4557253638196766,0.25142333094056263,-0.7254377758233422,-0.14990634262340247,-0.7890914071009991,-0.45678691934505106,-0.8122510943897425,-1.0312502442525,-0.930277075440077,0.26962200407031034,-0.21034004366923872,0.7699940029186149,-0.523113031335489,0.03102874096233857,-0.04077369461760295,-0.6158317844650766,0.02695731843741385,-0.5887964965842754,0.6480068550200355,0.9252518631952199
-0.46000735533216397,-0.04950151438774572,0.14079430985625666,0.7382262876621479,0.8955645288892848,-0.9778713790050346,0.8630839843574557,-0.4669585183117742,0.2991586972705791,-0.22948760539628943,-0.7331067266576279,-0.6264533408200568,0.8390899454671763,0.30296839850794516,0.3899932086643618,-0.634484650162524,-0.1930582417863705,-0.5656737057231145,0.49634802104566594,-0.7935673506637605,-0.8808792308315339,0.8613210717224845,0.4478282837317214,-0.6581046482608314,-1.0301971654116164,0.04390317526108051,0.5355942142880686,-0.10799826506592104,0.9746669103521565,-0.6067011964338488,0.5494763247458927,0.009275504262290218,0.29711511150956627,-0.29275472585821044,0.4106847200635028,0.6378385787279555,-0.03481710023762219,0.4228524909011238,0.5317798026107937,-0.13118751099603734,-0.3045844846078061,-0.16129077974495273,0.9038653615659363,-0.35826907062558466,0.5357680651011246,-0.40414678688372313,-0.5036438966490642,-0.5877593793933245,0.2886679143904265,0.8325536736218789,0.8805006273721441,-0.8772002286350234,-0.843184715115815,0.0694703694822905,-0.5011633340162384,0.9530790594876982,0.5749791034222054,-0.5812722336129539,0.1031937821303059,-0.45139727773697386,0.24541292996914635,0.9256361888792769,-0.5942535619656669,-0.4067477391972036,-0.3147190897786638,0.18790776729225397,-0.9673805643369143,0.1920481950408406,0.40974210364399405,0.49656191471146544,-0.5267146009977048,-0.6349301429198783,0.7337481842673296,-0.5419330462721721,0.4833914486563956
-0.10336571415356582,0.08584904853139066,-0.3226494867051377,0.5945987185952192,0.08929822458268108,0.7706525797622104,-0.23737763480376844,-0.414058331458814,0.5049833916852057,0.8858619218168153,-0.818400200468765,0.7913492749874306,-0.8076249432444232,-0.7426525546803681,0.35359052005186453,-0.6169378051547378,-0.8693846950625286,-0.2806656790574023,0.4334084056900259,-0.5344031398331041,-0.02466160562846665,-0.6844544417695624,-0.06232975004861063,0.2528042225951106,-0.028763267563946465,-0.706202188624503,0.9656261289550764,0.04032423860663909,-0.5294302015319878,0.4552461233434773,0.17175824975862652,0.4878943967526702,0.6351823326925958,0.6412415325104849,0.19567204329472862,0.16460792465463686,0.588811007132059,-0.796145179605229,-0.6978664878913842,0.9111427300950259,-0.9003450067364803,-0.7163691017727872,-0.8208349494241,0.039779750859185586,0.21626672821014128,0.22444863078786711,0.8591091330796604,0.6993577285242185,0.8476183140318858,-0.5183540795049544,-0.2871924129370605,0.9638067849668234,0.7671060557668166,-0.19508264652086546,0.7199201868566384,-0.14661691945615665,0.04461175379684186,0.8909714179843149,-0.8877142708429446,0.9170974814515117,-0.13448053518972183,-0.4286064072497184,-0.39779379054339414,-0.004237837712197688,-0.8896883768885127,-0.02231914297724219,-0.24479964633783213,0.7664958989824311,0.6134345267426164,0.9109848326279508,0.6295443623506608,-0.17531697638191152,0.1890475169557211,0.587551621013071,0.6102849904167418
-0.7589126331999442,0.23540205354658822,-0.27835984379365664,-0.41502051153761826,-0.5301476788555446,0.36332627458696204,0.6658302088016048,-0.15638430627246197,-0.7567296103372655,-0.6446752775967998,-0.019755415915750304,-0.13297303515418682,0.14988788013929868,-0.7904464047193701,-0.9440707699208885,0.21666387905493098,-0.8200699492048016,-0.006158955858735333,-0.6771961613407573,0.21497450593055714,0.9721218384701169,0.01863553474568394,0.964674077278464,-0.4188927456935197,0.23608267338757044,0.9466555189136181,-0.37983027706375233,0.6411070382223303,0.5954888067951049,-0.40576433347240454,-0.7631361621161151,0.660894086858748,0.1346855737094727,-0.1821147704441714,-0.8538387285070875,0.8985315339945346,0.3978898088432171,-0.17454249860442433,0.7611879148370053,-0.12665367026335217,0.05127968900254319,0.6459250212765322,-0.5634223085867108,-0.9231447643864629,0.454380177140802,0.05609394200972646,-0.3580260730389715,-0.7578846160389909,0.9219125800306526,0.9281676433379636,0.7707053130065853,-0.0024557497114846925,0.7377775902367214,-0.7586953695092565,0.8201080797001516,0.7258415033964334,-0.8462493852912097,0.0783771190060789,-0.953947104528789,-0.4641042402024435,0.057850276248482685,0.8287262237557824,-0.2390138724539495,0.003986389302761327,-0.5365668012459571,0.8615043021165397,-0.014405643673538165,-0.06040767625193161,-0.2928005267447566,0.22353516168953874,0.7343351272253787,0.19501303592169653,0.4095065492651281,-0.6825497781908324,0.9550583215263944
0.4472417032372839,-0.5284533053489047,0.3208202012183128,-0.8842131391090235,0.15767931928307902,-0.011879641308976166,0.8690671618450483,0.06345014046709672,-0.3099168373148302,0.22275813332880634,-0.5662783350006079,-0.5357658458752698,-0.4481447944013277,-0.9072782900158902,-0.035401378962034324,-0.24338073329788099,0.7831515355545361,0.7185976368929885,0.8121081843624945,0.6290297864723534,-0.46146825204814973,-0.1556212081512853,0.05489710919935197,0.9940319357527323,-0.030967429022777205,0.801143899519893,0.9808307140966854,-0.6001452244455999,-0.4106040305431477,0.7868500025239888,0.4700447257496618,0.13688913960601792,0.0016948559180047784,0.9293594252756896,0.3987773732289022,-0.8413921794424404,0.9927951435757301,-0.7594348098304926,-0.3589370298216486,0.3160789506953201,-0.8468963902478805,-0.5283506627829595,0.884965333241794,0.19905528511283938,0.3471924341626817,0.6716773415962488,0.4660855780239372,0.18441823378743344,-0.6834059907008805,-0.7246594113813156,-0.9592438748851333,-0.8340396989951563,0.10614035210034668,0.8544398634514281,0.6200539424515746,0.8400143466717054,-0.8339743809745205,-0.49759002499198823,-0.6526795357070331,-0.01752153097368328,0.33266035527523025,0.9521064300181292,-0.06627357185054061,0.09557648497319461,0.9899119228759603,-0.36252641822960174,0.9289442646393442,-0.1380595391487398,-0.5717262717139266,-0.906426882012313,-0.6559385481495154,0.5818940583901587,0.25019803363362375,-0.02838947541061208,0.3533737972062305
0.9007984702070412,0.12039955853541194,0.232919651394948,-0.19447504374113314,0.31651224399578537,-0.9336056896395917,-0.5621847892183833,-0.7444411797547614,0.4383019895883681,-0.0458009299177434,0.39441269436399434,0.17497291665841647,1.0362154174042022,0.32665427522961316,0.7172064892104724,0.45078898101541526,-0.06880238587158702,0.06038972948321409,-0.7748233016339006,0.12279127224681413,-0.7046329685726054,-0.9351304383315139,-0.8095682102706017,0.948247988015136,-0.3943336594916597,-0.4669427277013231,-0.11975409199707236,-0.7646049605576478,-1.0132902641113124,-0.12424967456887039,0.7730146454881146,-0.43498338009049353,0.8045055081035398,-0.9184021225126064,0.4033987520639269,0.009021576969272443,0.9563982140054599,-0.7411382615751334,-0.28330075190974396,-0.29621245205098445,-0.8408135412931441,0.5311555672517504,0.20945138567508761,-0.9123288214686276,0.7877700678522308,0.8796347815852027,-0.9450110035179287,0.4079986632972183,-0.032699758648949924,0.12589104686174332,-0.8378365945404842,-0.6378069794645098,0.2620739998833014,-0.39722787171908636,0.4182749899408927,-0.6712068069174828,0.14557393213767075,0.887307715420437,-0.5717341709023874,0.8540461498968096,-0.9748466264297657,-0.012538420864362243,0.2315743546282622,-0.44838300792118113,0.003197049121462336,0.4264329206629636,-0.12290715155647408,-0.10055000703522009,-0.5436985607985322,0.8160834483953014,-0.39120684104578674,-0.6943453819925531,0.8011599869754537,-0.735293813329768,-0.5506278877999226
-0.7693186448945084,-0.04758521803811094,-0.3317669237637276,0.6816893530958833,0.05792592161955958,0.7351469301617496,0.7659976537118176,-0.4189387115179249,-0.9440567592323703,-0.019460473000180376,-0.5766726238039122,0.43632794132811625,1.023727161770085,-0.49328614247545566,-0.3488756267152657,0.46747327097543967,0.4172159599124649,-0.26346151662649414,0.015746864226337972,-0.6210476109131141,0.8871962779608839,-0.5538607195980231,0.4072777835600723,0.6464265882624243,-0.9047884177153446,0.5447182569597482,-0.6964598932795651,0.8674318324338188,-0.6864333629249845,-0.5641973180213748,0.4761297908936133,0.23320263100906372,-0.9993695478427634,-0.926581774636276,-0.38806945779296875,-0.07560117495015731,0.5689695652799799,-0.5193153959226283,0.8852020510495218,0.8767619049282295,0.10907294025524372,0.5438119678644888,0.062273150497621076,0.04506284662577114,-0.3968213120581048,0.5499382642114922,-0.047620651396299334,0.5064614292449824,-0.6480320467946175,-0.1525143882971565,0.47648737139257635,-0.18029337303113455,0.6496855543422834,-0.10600148731904595,-0.6450861288818972,-0.22416599936071557,-0.4222397517818742,0.07297831353540352,0.26160244831930224,-0.788554161904588,0.918333925196918,0.7205247784169642,0.5841607154781499,0.6013064117103453,0.38863869567807374,0.4029591785565784,-0.3021636376212253,0.27991251787037646,0.9129646246308046,-0.4494973244444837,0.5547544889251601,0.7362188229527222,0.13657685342572187,0.8650965662344686,-0.13396494017393196
0.35216898511100814,0.17934600979210782,0.41849330951585234,0.8615361539285573,0.2516368825089226,0.5072550724490923,0.7351873358173665,-0.7594205972310958,-0.08862810670901504,0.9902866512804576,0.2933056900834381,-0.5361373364429844,-0.05239287194859453,-0.37018819674414355,0.01524525234405228,0.8314796462009596,-0.7088580920739469,-0.008587377374314498,0.12717727464795284,-0.16822122555453153,-0.898306003465971,-0.826244576326773,0.9363846563149176,0.8440265064698104,0.35943327735955555,0.25275343616933627,0.32580871306425874,0.7638569893419418,0.2849963273230232,-0.9856066141644162,0.7444627306927483,0.06882716167832315,0.27714527024151625,0.40674020763054186,0.10121717851941918,0.04864193541267673,0.226952689553783,-0.8866968259360681,0.8117016549434481,-0.11859168590729663,-0.07671526456169626,0.41895461381709165,0.6158533000087145,-0.1278313472354794,0.7526917207042091,0.3760979010269848,0.39181566319866995,0.7241263801938982,0.3867927794648437,-0.28579865407940513,0.4166182569681221,0.1667484107181733,-0.9561405419852141,-0.40885048955599695,-0.4471972573343533,-0.09671611706831333,0.5087037473936216,0.14489754206076297,0.18702764679946424,-0.39984017078927203,0.7076359833801545,-0.9611083725815328,-0.8333526713177218,-0.1029820217876892,0.7255943797831049,-0.5493162455298076,-0.15164576945975894,-0.6264729409335578,-0.7427663497294972,-0.21863529065180193,0.7647151733970683,-1.0502140452274458,-0.23723730994810022,0.7982440127350263,-0.591994529154642
-0.12955564169486572,-0.24027792409385976,0.9524955904525352,-0.40006751983250394,0.654227061264942,0.8452049766774972,-0.2427583234207829,0.6771762495875727,0.3727200892836049,0.6401117521747905,0.39278287844228177,-0.2862696607153925,-0.4733891470138895,0.7061546281696028,0.8635330806854212,-0.5008359691151212,0.009524462317306737,0.0785137022885684,-0.38599812575797243,0.8100674827916454,0.8813252476275052,-0.8390974324183595,0.5574943395689606,0.044086952474194,-0.8364246596360317,0.7601888542018144,0.408173907440159,-0.806198661319236,0.43516068589584506,-0.8366276153619718,0.7926023272473613,0.8812610239418133,0.34405954235259767,0.2887668715312096,-0.8156995087941405,-0.8834980749309349,-0.04396201565412783,0.49736767154162054,0.08108303949615904,-0.679538596771706,-0.5190916049211939,-0.16769192219076784,0.011300577951166992,-1.0029562418294464,0.7891793965371914,-0.7651299597369683,0.5813808467056931,-0.27461809016594263,-0.1004359720979509,0.191021421228242,-0.5996470247699384,0.21107524443758918,0.8197264989839246,-0.051649342793459244,0.42794532322091317,-0.5576203651416839,0.794817342030123,0.007038100472413398,0.28121227893742423,0.8355960957563421,-0.7913998655847642,-0.5355084489803329,-0.4509735183151559,0.24232281168869602,0.6777359203484005,-0.2336993383762515,-0.6752213876279789,0.04921047923051156,0.574585576346371,-0.7935887486708341,-0.839836426339991,-0.021798764355319602,-1.03644148224653,0.3733747468144655,0.10604350392199154
0.25946079081972884,-0.400582158642741,0.8014438254529711,0.5883114142011555,-0.14592637567707778,0.9803318739207215,0.14890486082920557,0.15724669508618613,0.732733588231814,-0.31854272652905263,0.33036920625558247,-0.4073337557017272,0.9204419305676153,0.04474191788756281,-0.5457048548623711,-0.5754973708893869,0.0412057787557311,-0.7117339826904656,-0.7077820523619267,-0.10464846690352339,0.6333026364350219,0.23779880554304098,0.4919937971151976,0.339269932889466,0.7719603610717045,-0.8880349076833213,-0.25332726430178165,-0.8369291446999343,-0.5647510517248082,-0.2135355727982408,-0.27918855817128957,0.5058660050872368,-0.20787838760659805,-0.8692079793638073,0.6187773186844865,-0.9659024578561051,0.23227656610080383,-0.8234693455764414,0.9518288453104203,0.04346877782775405,0.8847022399014256,-0.8633357213638861,0.42705367741137046,0.7276335006179184,0.2241388874310834,0.8657205347101095,-0.8673277591314184,-0.08009064950118401,-0.7571776296156922,0.43796631350476617,0.5812118884291864,0.8997580845007835,0.7970329319663774,0.9412246433267656,0.5983928392168703,-0.417591141908714,0.5990898891824529,-0.02591106992705455,0.018492286205783234,-0.524916140365679,0.10267879067655365,0.5299503064349032,-0.8374597109908631,-0.5794702969736217,-0.4476037974524774,-0.1657616171336503,0.4175345837597647,0.5914950978213761,-0.8803913599703773,0.11016946511533451,0.5607011447018673,0.25081506495603867,0.32222356955671616,-0.616928144521105,0.22487065168030007
0.4446719662947062,0.7343004589022128,0.8038204862150351,-0.45161080982461493,-0.8318005196057504,-0.7511957060722506,-0.14014989854336773,-0.010506238746236317,0.4903448145766176,-0.03055370824213422,-0.2226546951483663,-0.05649063758100241,-0.29885856296812696,0.8575762661158778,-0.2856587838554948,-0.1988572111986741,0.20485507516827955,0.017984416784769232,0.06294157121158915,0.6822046723376395,0.11351711733677576,0.34681440035009026,-0.35913186616964904,0.18917786326298047,0.9536608600463575,-0.3121730295825639,-0.7325592839129328,0.2224381034873772,-0.581414097389336,0.772465523265564,-0.06112286627938819,0.7715405886954025,-0.11387660868815418,-0.20354250961422668,-0.9628774937516317,0.41071172841503956,-0.38265043484270567,0.6539686931337377,-0.18281851790246215,-0.9853753307054172,-0.6307998248200111,0.3467404625708351,-0.9863548994590401,-0.5912437241120388,0.5778646377546828,0.3993799563213673,0.4754362469086919,0.6282837752459105,0.8474894856590157,-0.9482960188415263,0.1959426820854138,-0.9714634609167188,-0.18554786295534842,-0.9240699724816578,-0.7575154966155647,0.7764374133366742,0.6373985185260911,0.08269161408804021,0.8869467301557641,-0.14675691790297563,-0.8318263361565845,0.7873205596443591,-0.21125471449572433,0.503535600256056,-0.6961759421162343,-0.5137538836800128,-0.9288443406724294,-0.8870081804215684,0.809043991475505,0.42577842281779393,0.14977745710621643,-0.7648344563616118,0.8641575956601933,-0.10786964815943255,-0.28196132494565723
-0.5562768046740741,0.33844487979359733,0.21492980160291542,0.5861411753753446,-1.01004428165446,0.8005277990387618,0.333930911802499,0.1253184638319749,-0.9877649711379062,0.4712349823645007,-0.7316614954945092,-0.15800423243104378,-0.2757980831745228,0.5132920830927528,-0.1271445576418181,-0.9002065767457517,0.1778674070431764,0.7717806825379273,0.14725592566714496,0.6670527958686705,-0.11813214797895867,0.45906429444462166,-0.43395935627230814,0.4531746291696537,-0.455620006742196,-0.48325921735302046,-0.7888541405249572,0.14534785134390812,-0.038379121038411526,0.954608510649092,-0.9995252412561165,-0.8380765443809799,0.7656669623282284,-0.999005659322115,0.013565499770918133,-0.19298922706954028,0.11514794774059689,-0.016687829166614678,-0.13474262121683014,0.8419757197372657,0.47034709809953784,0.0010078381062503194,-0.06979392329734327,0.9244750913887364,-0.5311575595821858,0.8674013134436247,-0.4224555099881664,0.006374114586166019,0.8153413108567801,-0.6311241939358324,-0.16660045752130234,0.1918176407504341,0.31438966601640506,-0.642891764933337,0.7515585564852297,-0.4662916838464647,0.6780173691212944,0.41141520332467757,0.8517596015520614,0.3467438795892013,-0.03802188256017477,-0.5851742033307475,0.20460912896897374,0.4562969896090916,0.7889140866564606,-0.10838629503722068,-0.526660719135532,-0.029162887916662376,0.7496215195329332,0.9961249542374727,0.7059140436667748,-0.4923700863698004,-0.1368085756068842,-0.11560824050258268,-0.4297264050529961
-0.763456688477634,-0.5641142437770693,0.6121209427992857,-0.48916482792395344,-0.2992403032366423,-0.5097193494568907,-0.918892297502675,-0.4742764884447567,-0.9792779892582175,-0.75939609221342,-0.3339192756265588,0.8861956574758129,-0.872959861757663,0.8729939329473826,0.8572559901991729,-0.42968911257102677,-0.9710790632102871,0.22810211790711477,-0.6763720222771235,-0.7288647927512909,-0.17159126183588538,-0.5784201237328845,-0.9135395588508927,0.5504013760769548,0.3546396901264593,0.7986837389963583,-0.5525415297036902,0.07910597725571053,0.203519511425034,0.5185709820154983,0.13830753247712185,0.2727134856676228,0.6093448063788739,-0.2112719792114048,-0.24244380765001974,-0.9407389525078157,0.09816308407411345,-0.6741779128443044,-0.9021999642297562,-0.8721817046838061,-0.21484220854543393,-0.4780618728588354,0.31045589213389896,0.15108842014067422,-0.07014444382713542,0.4376189512461343,-0.29638476712648587,-0.40975126643706367,0.27222686179945854,0.202415665183116,-0.7854264287749801,0.00502400755601939,0.4781978645824635,-0.4724403886800423,-0.976315203336884,0.6411041123394018,0.033363471024771406,0.16552537400568842,-0.338134658169954,-0.11349380414551695,0.06301239636764171,-0.9404425354707252,0.39402191751096255,-0.4692102478127403,-0.5889330645818068,0.31075268705662934,-0.5318669672559669,-0.07642970422800222,-0.04679264749203372,-0.7168048965107857,0.9874551221280409,-0.09184164419479814,0.45950280184541825,-0.1421527855191312,0.48290206542620245
-0.7243314180614072,-0.4948661082242212,0.08688420470877586,-0.6082619670136247,0.41766339098711847,-0.019580766276605016,0.1579373776526027,0.5809208640613542,0.2862126557913272,-0.04602385385811486,0.7322063136426521,-0.16377731051115235,0.5245975286653285,-0.7147802124284639,-0.23893190157827207,0.4816950997595614,0.8088599370625346,-0.43570920540966557,-0.6930929443424528,-0.9035516174583488,-0.8467341917175105,0.38198706995323867,-0.8508364750514291,0.8409747001398558,-0.7066828640472252,0.1249868350873573,-0.8407576631180754,0.09818170703828079,0.6493799263149478,0.9468684034797739,0.8376576914619616,-0.7654516228793316,0.042162149848701216,0.34227417632633766,-0.325632552514892,0.40194349859852785,0.8563958789676905,0.37813060890521794,-0.38858415047648226,0.8724757346506058,0.8713766245235479,-0.9934772622550696,-0.2607424826899238,0.7589390382234951,0.9903085066396817,0.6841877109296614,0.20105246727049061,0.45548740155613265,0.5961798123990714,0.9689549566677607,-0.08422939703306782,0.5085251493187938,-0.8985678242070598,-0.5961031645776141,-0.32116378710387283,-0.679594930789183,-0.21531165634723215,0.6908348106136152,0.8516145344376683,-0.8642694584681918,-0.028010529821602227,0.21910710493841934,0.14197227460471554,0.5449601148994995,0.4426981587592205,0.673574659401175,0.8219337060060999,-0.6056311116607355,0.9088075479485057,0.4710089387668278,0.9052854811034828,-0.6349098505620562,-0.7619775980021726,-0.393781424964045,0.5021664979233383
0.9805202115091317,0.7541042112011525,-0.8431695844046166,-0.18588309884843152,0.7661455280274695,0.8818558471005161,-0.30569509642421216,-0.9224853003788763,0.4917439415605031,-0.3977074767340231,0.6180943154160284,0.2078339560008082,-0.021534648450452814,0.29427363400798556,-0.4335738736371566,0.3321563080442198,-0.414874292899946,0.48015567850010027,-0.37830266445429483,0.7313287399046746,0.9574687318743258,0.08358689452857704,0.15698314755216264,0.029576961251378136,-0.736700219966065,-0.5115915511936265,-0.7788045376427893,-0.6912199562543846,-0.18321901108699715,-0.0687080739545893,-0.11067844246740387,-0.5464456592674279,0.9053277162947937,0.11527040808978106,0.21373114922601455,-0.9068522470401256,0.6970504855041038,0.5880417265570608,0.7195594489944181,-0.07731092756784945,0.4285330998627416,-0.7714171350558238,0.5686800777975632,-0.5151685982395499,0.6554434520552921,-0.12520716404485366,0.33476705121919514,0.4266325445636999,-0.18207791661278566,0.8217633177833217,0.6083483127129936,0.7641457989525033,0.22785603968660423,-0.5025116750741747,0.18385048798812534,-0.3219596643251941,-0.1157685533316343,0.6581370654830383,-0.717028353819467,-0.7778968453732832,0.5615941890795453,0.13624960770002237,-0.2543385673779322,0.7890443505533407,0.7341139624913665,0.4889829060005933,0.15173289168718354,0.5077309589251413,0.8173656817047911,-0.21910124727677158,0.437240527763904,0.8468109726111357,0.7310836741476883,0.07012666645384286,0.30335126183981587
-0.8603224426924431,-0.5532672692414712,-0.24605346595631336,0.6814070033866501,0.24049070739919648,-0.3281716889508653,0.6658723460235855,-0.3845122612501862,0.5721258213217145,0.060510290876980316,0.4007594304582043,0.8232896156854616,-0.7994792990659588,-0.612438865008484,-0.4221672772041758,-0.31688105060450683,0.7014501333917569,0.3779388196827669,-0.5653731724981909,0.19136628202317588,-0.6532690418637958,0.7602799790452527,-0.42300454027699913,-0.6944366486794649,-0.2899599881924552,0.6623748322907921,0.7488345292271675,0.5355772338727846,0.2154468692459912,0.6758426488007896,-0.3453291809165349,-0.3359568463577907,-0.8006251791050345,-0.2595282869687207,-0.9276088499500003,0.8886294681529856,-0.5631173529352657,-0.08074050226005491,0.02302961470100321,-0.33080191012721566,0.8265504092914299,-0.4389588177249391,0.6775159956414882,-0.4356649030658102,0.717926027619778,-0.6791226132023392,0.9203342772647202,-0.5463328331090023,0.9239138492570304,-0.6282594440479139,0.8118607191901333,0.6568796289761949,0.2811787582143605,-0.07577065318669443,0.6802140393925279,0.12701214707253075,0.5178541008522562,0.08093399740996486,-0.2927343781944426,-0.8565285876711445,0.039220151337873085,-0.11386286346037179,0.1205500860688325,-0.8784673369345783,0.8924982035141514,0.7140255075966498,0.015546268339669777,0.8869501646079566,-0.270248640505027,-0.7367557274866414,-0.13331403259281968,0.45528210620192855,0.7234908072390936,0.8473722410492,0.944800790578902
0.16573219598660868,0.3535793081374654,-0.37883271807150604,0.8070632481332809,0.8531806536975084,0.07651302061550386,0.48214446132616806,0.7121305961548373,-0.3943338339247966,-0.44255500748557663,0.4688959883025029,-0.05139285605565044,0.09692417233076911,-0.6369466315298683,0.18605834638885774,-0.3523210091491996,-0.3489565826658194,-0.4535289083777016,0.08193709115882089,0.4219028177550865,-0.0051450556804337,0.7347160313598424,0.5905219258061322,0.4389704686956008,0.03216411165039845,0.9255257295129957,-0.29266136672918325,0.5968315905693247,-0.7106501139785147,-0.19031695366301252,-0.43776244230253736,1.0032031220528765,-0.262842766550168,0.980989384105757,0.6118442900140251,0.09434242431647805,-0.5766563772798566,-0.812944377567162,-0.2506971260095122,-0.7292782190677045,0.6931273006179148,0.1262928841569965,0.9673225779391669,-0.6164417645722654,-0.8766785778658089,0.7543500350945117,0.6103458093287342,0.8650789205497346,-0.34673274804692106,0.11725554438724822,0.46567625435220095,-0.3778672063965865,0.5097794797901544,-0.2705377042158305,0.679739683701891,0.5008438184160513,0.8412272100010355,-0.2810893678632868,-0.2635619636524392,0.7823065972211816,-0.24895737834556098,0.9221338875410874,-0.15371680449664127,-0.3236778848258815,-0.1352294797608241,0.9214742869713803,0.4224890825753563,0.7103724018084409,-0.6910612326320412,-0.8745182468505076,-0.5047267646173563,0.02743558331745463,0.3092740263994257,0.49145060811834246,-0.8670669176373054
0.017457582778910106,0.6083352842420746,-0.9147489811192562,-0.8542937306773111,-0.9828154217117567,-0.5151411432736562,0.05303521842310777,0.9681688938875493,0.9979333272003821,-0.6518888095968839,-0.24599319365475333,-0.28550391186646007,-0.6417954740166457,0.31174145464057673,0.47637782230265013,0.17998522721944502,-0.7787718171538596,-0.31520808976956854,1.0211077126034631,-0.9629585813160483,0.10102726258683745,0.09782880390077651,-0.33299469453286484,-0.9084265792265972,0.008491157064249496,-0.7360975372827887,-0.4352210769829755,-0.5179075238596677,-0.0030010949544955617,0.004453646074217723,0.11287485674657555,-0.11255051092759087,0.23956034048957373,0.8563357283713419,0.2370300294713168,-0.1603901706794583,0.3902632806640526,0.3506257932382169,-0.6205072958763282,-0.42495312604635305,0.8232809002764583,-0.7065459030796349,-0.5654050106092888,-0.9323669073849176,-0.3701169027557794,0.918296006367778,-0.46145672757067646,-0.46094020652799267,0.20734239423774098,-0.8392344850017731,0.9585012768741449,0.07045788969714138,0.5281718365655309,-0.6222147642769049,0.8639615155441306,-0.5614977010832629,0.46360179052411143,-0.8076056794973905,0.11788852373586409,0.7451566708640424,-0.1795007942401959,0.047846212779189,0.1486951192383883,0.7782628438378275,0.6848495363883489,0.32895289480194534,-0.25874185513006737,0.7225398726262423,-0.28146952811983983,-0.20454207547580108,-0.12923210638664412,-0.7625818555968457,-0.3709850822258932,0.4027880442753762,-0.02407038763297398
-0.17174994169131627,-0.24585758703793562,-0.9010805694177438,-0.9296443645894861,-1.008457840243361,-0.5064438159878422,0.18669468210428863,0.23432763777244645,0.9614968231638951,0.2282524237990562,-0.1408034775558355,0.6416385995606726,-0.1813834391019518,-0.2130833224360189,0.46864400434303743,-0.5043524720315838,-0.48516340829806653,-0.16304589075282236,0.020849967390199304,-0.6388071251200568,0.6178267931506967,0.6779364721259246,0.19994644423478194,0.9411703346358722,-0.48857410864173517,0.3688489263464381,0.1315198606601229,-0.7891346007867778,0.8701309097151144,0.6618219043420341,-0.01869005171084155,-0.3892833704073719,0.9374765193849819,0.9716918654242981,-0.6644561264525682,-0.7463591711752886,-0.6350230399491487,0.8513524936460182,0.7617076390953581,0.9255403775796942,-0.633638546046886,-0.49769813737286756,0.13701921239072706,-0.10349965204691633,-0.4119362716737653,0.8532696415003675,-0.13671309885289612,0.5564422101902757,0.44877687505072555,-0.33980469728196017,0.21501531935088203,-0.4381106024760859,0.368615437198599,-0.5262427903681401,0.6521552538113338,0.9562185783231754,-0.7060086879924384,-0.9806069187345497,-0.49277096670492293,0.24495780230580394,0.9076311367448822,0.8205982905829985,-0.42234099161014516,0.932298349852355,0.5578195115021469,-0.06527303530335038,-0.9188782906395179,0.4769285040316996,0.4543775865645018,0.5894615676175052,0.044599387197575224,0.2462513334105284,-0.055789714804891324,-0.8730452634040918,0.2225774536562978
-0.901996251988076,0.11220735551945878,0.2014553132082656,0.2589511896226759,-0.5372897941599311,0.028996329191797485,0.5095694903042641,0.0394101358466883,0.320843781576756,-0.4500192637760426,0.7588187570721308,-0.004409481620775254,-0.10803104205207488,0.14267047073691008,0.5562313875609206,0.47267446668936997,-0.5365324464364047,0.7693190984970089,0.5886552723399496,0.8839365895292687,-0.7730824108217994,-0.0215633957500537,-0.07504998471563269,-0.34022182169454296,0.30277816783868405,0.18153302046765563,-0.8798784633474845,-0.7080579441368546,0.7073948839796493,-0.6222140700168151,-0.37632352424936966,-0.8751306557368709,-0.7798814294287459,-0.48494146691661505,0.9097565249155816,0.019523584531180162,-0.957205362092763,-0.5362196196312919,0.14223527472099842,-0.6139411502406505,-0.5411733798144824,-0.6260095502765197,-0.5621680102679385,0.23749735875841724,-0.7807356266891496,-0.34134739973375133,-0.9738996780393242,-0.2919481715967924,0.9633719936242903,-0.5919067137162418,0.034890585188990936,-0.046784749658706284,0.7036953114725454,0.2798050755053281,-0.5069786702450557,0.19141216598699168,-0.39256853864100577,0.5274804467999472,-0.27401065428858346,-0.2217075197527727,0.1645975961293874,0.6932248211827284,-0.4690051898374909,-0.8742447067851903,0.1571421155933764,1.1306953167893565,0.9953312690621792,-0.014345244482361469,-0.6768104239636208,-0.7899412440036783,0.7935086909481315,0.7532657958455736,-0.6747169393096679,-0.10274251655757027,-0.700804329441978
0.433363561862754,-0.23727605389874035,-0.5416879760794027,-0.7324505683486764,0.2986952685978858,-0.13117349681527962,0.1555249542344146,-0.9085963821508761,0.8833258909151269,0.11136134607043728,0.3450819094615299,0.3198678536383379,-1.164862226599564,0.5985248075172762,0.06816840464623093,-0.24728748337592718,-0.515961946645362,-0.18217863778848065,0.7057030174823761,0.27169825908751843,0.29568624742479643,0.5643371772408919,0.008093921741938107,-0.32653360817633015,0.9988904866221602,-0.3395048814455279,0.9508425481486662,-0.6229444295185728,0.6886040391688053,-0.6315677737541865,-0.8409925546910055,-0.06050250148544453,0.6666459540408091,0.9135921043855446,-0.15397032336800845,0.0450793525981632,0.43370148190626245,-0.02815335156995298,0.3148346132661579,-0.5101025192698195,-0.5353975149017062,0.7994505441668072,0.4221717501200052,0.1988209178637761,-0.8403045599256325,0.7060162833492093,-0.3198723981066188,0.6628404018723854,-0.505334747423352,0.2111969361813314,-0.1853479383329953,0.11370924449107332,-0.5557794932437136,0.01009811731855075,0.2813909893066317,0.5202024532537343,0.9341723393401784,0.21113204781047795,-0.5445067637029964,0.15105032013136319,0.48390895699238407,0.6912681243619355,-0.3246926628509183,-0.23739649799649953,0.9588718124839178,0.8137206963436591,-0.06238098554028367,-0.5803835044943891,-0.7065236704263963,0.27042263460515614,-0.488881561684839,0.29723327011212575,-0.03114784862420628,-0.7482306550669819,0.9714107385054851
0.11428032723291226,0.24591872963992278,-0.4359892041816792,0.41910724981952024,0.6313768144892165,0.639554045274424,-0.6593182279053217,0.5721776699465502,0.02176523769811472,0.11767787044919026,0.6259481786790005,0.6625603089630424,0.822327968930357,0.8044619073637532,-0.7269963274487704,0.46657052219234574,0.5736166707491868,-0.6018563897899258,-0.5792775178162426,0.6436188871871809,-0.06557302627173735,0.06927954401160331,0.6321464390109932,0.2880799802573716,0.7118298445183063,0.4607969838271666,0.18635506795585144,-0.8914771972980418,1.0211401516540255,-0.3534219230227783,-0.6759625361345373,0.4250033730607322,0.8151038136515425,-0.24201898699328267,0.7422585525978616,-0.19113609649538874,-0.0005109312797646912,-0.978655522809823,0.4900960663710781,-0.2595190643885891,0.8151228039078467,0.07207442034002305,0.8533455542698906,-0.6069701951498523,-0.7930802358568662,0.7113493073501967,-0.2593888731459875,-0.4807494620189319,-0.8674393186300059,-0.30989176680517827,0.7174459700032585,-0.13460127939593405,0.8404298837406539,-0.37239899000695753,0.7263057053749686,-0.5455893543940402,0.7362801659229252,0.5275041043752005,-0.09053447307160015,-0.14632742373676713,-0.37629929773077575,0.7468579756622904,-0.8125417678539367,-0.7454140034469059,-0.5476469783950324,0.5427976553839298,-0.08528336805105362,-0.05596115060849357,-0.5999329728218444,0.43884792841105086,-0.012940230734504352,-0.801923094844765,-0.9127131106977617,0.1833180225331994,-0.1947014624076661
-0.3604314288454734,0.3341771570683099,-0.24903377510701358,0.4170341045055835,-0.7973593695308345,-0.2377366874227629,-0.403557601867963,-0.8223818483256016,-0.05137563343598148,0.6581898215906695,0.026716046682858277,0.5022980948101395,-0.6453278771598491,0.320679422966326,0.28156108341293956,0.8248795836476218,-0.16947417513243324,0.8012061887225687,0.6567022731671855,0.911202601541267,0.29402739923497434,0.04729323752719324,-0.602863623165762,-0.40319240227248193,0.34079122978425375,-0.9531102106942133,0.9459887753802318,-0.6159678807454491,0.8293926894655096,0.16952762410892616,-0.6271625841725996,0.6197672930839527,-0.5825579151612723,0.9425710540336222,0.7256769192837459,0.621189259790156,-0.059416384976657355,-0.6020575634933435,-0.45116852990954465,-0.4457016502443929,0.7733243731319345,-0.49061641731859224,-0.8876871890583211,-0.37000948521097915,-0.10303097901820488,0.740853335065699,0.2536036669694973,0.25289167860872647,-0.3518118116749925,-0.4089074936626907,-0.046232798478964804,0.5695518633563135,-0.6095824858748239,-0.8476037018522998,0.2770525204591644,-0.47489086858244384,-0.9868418812738656,-0.22328479481643385,0.035344631832678934,0.8157221664173911,0.925814274380821,-0.8489495765023664,-0.11137291542416701,0.3386172969681186,-0.3249010127290574,1.0880285516590333,0.12073857877129944,-0.10293317549336807,-0.12569365884134145,0.9799737383247239,0.34471474130315954,0.2861311724972355,-0.6700213607334509,-0.4217673866470564,-0.46290492875813577
0.021029710083008236,-0.11449938389892374,-0.6946666786355452,0.6837285826699683,0.23366774035086385,-0.6019631223241574,-0.2640729432828485,0.19253216607261567,0.09777186613752438,-0.7737004353807049,0.8396241720110703,-0.31443428494720027,-0.7168630612256445,-0.9263132837148249,-0.9673221398967599,0.5247162926845746,0.7062810052119638,0.2603067646218988,0.6590924224938036,0.2858777765003448,-0.715401545959961,0.9218716436391169,-0.6073993921418978,-0.4954712792084059,-0.6348386493964167,-0.01662725917377217,-0.8851055156532269,0.3693644653914657,0.9075034821169706,0.0024240527946548756,0.3892751529203462,-0.7507132628363614,-0.9946706551558211,-0.9242785968892276,-0.30852070983453556,-0.6048401765833877,0.8521152993309657,-0.4698167039372962,0.5671226076279512,-0.6436677630230335,0.9723363354139437,0.07063364291620908,0.06872375606597483,0.35692766838616763,-0.09281723269855356,-0.4628932167292921,0.931287150277659,-0.6857067004120266,0.700431846264725,-0.706183982978658,0.013470802681852917,-0.2472343191434142,0.17817616911407014,0.4585010898972707,0.16458537083849079,0.5026499402942483,0.6410665940574831,0.7435901223194321,-0.7866738823808328,-0.6333959199461784,-0.0996290733621037,0.7203936621234888,-0.1664554295598291,-0.19721492372144586,0.5352317221762135,1.08711307779991,-0.12096415498749365,-0.9396499623365618,0.3370417167225495,0.6814263423198003,0.001129154125093592,0.7811909792222959,0.23051640891270206,0.6808324649115027,0.7602475098625879
0.4071454282566772,-0.2517126689491885,0.061776217735667056,-0.27442561886202,-0.8108650721091569,0.5083465638250805,0.969573627812087,-0.9148543584117811,0.9056574346409931,0.7516868317318087,0.47331453182262645,0.5461076006585878,0.15044629661043615,0.3703069100004935,-0.6293247390191054,0.9034635643147643,-0.8722524570729343,-0.023636566534763478,-0.18128479719408522,-0.7103294217811427,-0.45076712862265,0.0019117181697194108,0.8043720402252849,0.8738827245268335,0.920190733414984,-0.15306228782998949,-0.824373561183409,-0.21199100624326242,0.24787068914506727,0.1311017418520517,-0.29615494750374277,-0.3873337539794089,-0.008471031224752838,0.5025957831485779,-0.5939106195697195,0.6283978011692268,-0.7831779966075706,0.35464350811209566,-0.9317663991008556,0.7657966113740756,-0.7298703427600997,-0.24583615274077986,0.42016864535013265,0.871555355068961,0.05655502919078279,0.9762752293733117,0.43793929029947354,-0.4807859546271991,0.7484001463587447,0.25599157022083363,0.4779883299388991,-0.7987978251667612,0.7334295699465878,-0.9658274982310804,-0.30021063138402054,0.5561257748817254,-0.17824002516430537,0.36545323516571476,0.05138318604722714,-0.13146224905093648,0.2838539315649671,0.153050903227673,0.5562997881253265,-0.5823701946464437,0.6408720491679496,0.46973940530656705,0.636469587200216,-0.18121618649996865,-0.21208569778125524,-0.7274612617056563,0.5407251226921568,0.8891553053093183,0.562762407138206,0.15454629117593568,0.09727277450679737
-0.006206700684123758,0.18954922763230292,-0.7557599663415343,-0.0782520111666671,-0.0660158900372623,0.57956790542495,0.19071632099782487,-0.2417693916916095,-0.05220685677288138,-0.3141111646449635,-0.12942847399589766,0.08346247479449824,-0.38846864450633306,-0.06161338161300505,0.9526130413878956,-0.11740254771880043,0.36949345936634526,-0.6040856887486434,0.6134086790022731,0.6276404217679263,-0.8239563744395914,0.595795495562452,0.9983592080255227,0.8249413286549915,-0.16225337308854304,-0.7577430290472759,-0.549742749769961,-0.18982266094322245,0.9968266585915533,0.3589042135320115,-0.7290810029192069,0.45875867297292966,0.3317583053134647,-0.9052585064061004,0.5211274827714586,-0.7006539273285213,0.12934459811844135,-0.6892874017060641,0.3961163724141941,0.6586423154487837,-0.5105046472116906,0.15588723085042927,0.444889277815468,0.15441831057571573,-0.6850465067933732,0.8804537015931602,0.7482685316994092,0.604036186897179,0.8290161980078729,0.7059652556437788,0.5854892574829507,0.05120336911164813,0.7298830769625989,0.28389060842580727,0.05307632421857828,-0.3961311896559539,0.22754076046377888,0.22243176458543235,-0.56935080567519,-0.8774563444224472,0.4024276389972108,-0.4083974054365494,-0.6562029506926297,-0.08415624858470191,-0.9502558686790623,0.7991468956154548,0.4552335112009748,0.9403535971348835,-0.8320547350444502,-0.11794533294078362,-0.7748953427830826,0.36383278020352766,-0.21089868412775298,0.5156182460050919,0.11728400535582506
0.17611456730328148,0.09545121021122369,0.2502728633895948,-0.9040112234020874,0.4222773140073066,-0.17247568511015782,-0.8059845328159391,-0.7623650671926134,0.7179088261817625,0.250591347272473,-0.33800047989623666,-0.7512316316848836,0.3338919647068137,0.11749157234677428,-0.3099661488198979,0.32318333389852877,0.38600592812796425,-0.43834223910787723,0.36029186701223703,0.770270880602938,-0.9913197897227617,0.806556618168506,0.043712496598379294,0.9508113771088721,0.350282326406206,0.582417581972933,0.22867065528430003,-0.46450236164346437,0.030047816960501964,-0.597092744275259,-0.7212025455084295,0.9623492536626004,-0.24673779142318347,0.013773470576536396,0.36629999207570557,-0.30489697270819466,0.24366318749466387,0.07511226314040004,-0.2549660734687656,-0.9678149444732711,-0.7010419029021997,-0.03342517475186344,0.24140925333610233,-0.23381534640178675,1.0122867917823901,0.3314516476985957,-0.6160893987805156,-0.9788967611539097,-0.7454284553791369,0.3831525426709008,-0.5738111886405549,-0.0759561235618626,1.070078680561614,-0.5412479244263536,-0.7144556834216984,0.2699536847181669,-0.5402671213093747,-0.9945156136719834,-0.8061750846822984,0.2098274296167358,-0.42979408491269466,-0.33220049432054954,-0.5736166862762302,0.9680345241690562,0.5639843949350518,0.22773084997389878,0.868803989075776,-0.7783561548644076,0.5364611783030308,0.06634069624438144,-0.939081723818148,1.017658997351944,-0.5255913494665106,0.8968665416822708,-0.15431967630294705
0.5821004918463007,-0.213777496472123,-0.750189107293487,0.2253677362303388,0.6608523128162495,0.4530274854722066,0.3204896521665017,0.04855607035647172,0.7757835132982778,0.28920573167739316,0.9443242155388518,-0.9332637713052747,-0.26277399677365554,0.6418898779559651,0.22893695642345882,-0.47134981013923755,-0.3939840422093047,0.7546753573623468,0.3827068125469551,0.6928625418145051,0.025626856269229146,0.8849665173633053,-0.07982313113682872,-0.9557254146220182,0.0025506859950600795,0.3655921452399909,0.1825930143252829,-0.7212166805438324,-0.8479773843959317,-0.135015824570091,-0.6848175232476286,0.8114314128750889,0.6134861187923629,0.6077704634118329,0.9255102958995034,0.43355109869710556,0.21950044848191086,0.09291026097866785,0.2294005729623912,0.9804898956676462,0.17006245844491114,-0.9263752066150583,-0.9626708114340605,-0.7780539651508895,-0.523279651024,-0.774633488225523,-0.7159743186890244,0.37197955204456684,0.9224699257528803,-0.09286281285627979,-0.2729147438391377,0.40857067001018943,-0.9216148903052293,-0.36278553340805036,-0.017195374829896665,0.17399673586215314,0.4777284494758017,-0.438906482548613,-0.3755268827646406,0.3801105212499994,0.6378716059376597,-0.3002274875336906,-0.886282558789826,-0.7727185646926156,0.6705358326586285,-0.12087187452582879,0.8680820980577879,-0.7741444898598446,0.5296675051353554,-0.3055864871912025,0.286636125834853,0.754456995290272,0.10653970550721405,-0.8083111775096268,0.25240738594053
0.9012170930720771,0.6062629488204596,-0.9977223735783057,0.8873166901604829,0.7796863737224369,-0.9837574516915674,0.3518988365033602,-0.7554559048533147,0.7895490195510219,-0.09588646603067459,0.16767200885346206,0.020762464190654823,-0.1464510326312552,0.18437754850405005,-0.6376057463709044,-0.382747480447971,0.5627819983874276,-0.04976836526700513,-0.10025148043740464,0.5251474177763312,0.24719786924230874,0.06721514623616842,-0.5826193405082657,-0.41263286859285975,0.5430967742610862,0.5665717291053475,0.2191811639282107,0.516319690388799,0.25948267253717294,-0.07864012454348021,0.0599932131298361,-0.027310094400242173,0.5447076592237712,-0.8076494666561048,0.8641100608232709,-0.4427595667134135,-0.3594540009324698,0.01598858442075925,-0.6259463492606201,-0.019205299000790883,-0.04985516324133928,-0.21748807412165483,-0.7178753962517623,0.8439870389156761,-0.5836294817329376,-0.3619689738790801,0.07581594740108404,0.8759486646224599,0.9593928946480397,0.6572887472490856,0.5921962811473714,-0.04493306688769327,0.061509838115365235,0.39375177871549244,-0.8527550624867815,0.7550539717440805,0.5195421958716846,0.22735278785877347,0.9929812843795786,0.5813150086644594,0.927471055547611,-0.1688357065807485,-0.05632567960252231,0.9451076886966145,0.29898859124882793,-0.36853875361314103,0.11886122746261431,-0.5044251122025607,0.886442839863258,0.5193750762224638,0.45611820940309816,-0.9726080067652674,0.015390296638491391,-0.11554969250883915,-0.9641458470742277
0.41294412077292686,-0.30566593644434187,0.7317509813006734,0.7252152984676441,-0.024690606485056703,0.7349452916688718,-0.23922820350494886,-0.154669341242673,0.9928236600342986,0.14257078584554825,-0.9886501630386517,0.48281769376309286,0.2652309616025909,0.7620416972229274,0.5771356690627909,0.613010250388339,0.8771759510953412,0.09638646447631016,0.7729872847708104,0.8728304443708035,0.10823375126881252,0.24407425967085516,-0.5629957680171356,-0.3439606438491828,-0.5350203159213617,0.5139252987101951,0.30092517029185606,0.6039102573757846,-0.6464593958034546,0.10978120482861227,-0.06067937427552908,0.5605579946631698,-0.6206840322753359,-0.43690574027235707,-0.7802497290897696,-0.48501248140097325,-0.23149073195868686,0.8412357217011037,0.6473403217583056,-0.27997441551337493,0.4705771436307025,-0.08705004585180191,-0.05522280523872678,0.32402589882751237,0.9480986429419068,-0.7528560541497499,-0.6970028824939419,-0.01060825378269863,0.898334197476849,0.8471867058328376,-0.6082748348866204,-0.47112053739277016,0.40614259140776715,0.5645808635114621,0.02529749433363717,0.12149320259601833,0.9498019677865117,-0.6601445302844163,0.4660416990982821,0.25209503142696177,-0.32613414599401175,0.1202119094757321,0.8515160668160355,-0.409707269256334,-0.2412800395776404,0.5926563482756974,-0.17488266235768615,0.8985163834059617,0.5796872771508822,-0.10171869241364893,0.3768454655435203,0.9910957357203096,0.2601760084946481,0.6499021912235343,0.13783547768443155
-0.9307040097165501,-0.9615654520839526,0.8425922984644043,-0.31370117354861404,0.710063637373551,-0.2583779702527775,-0.18165660997590424,-0.5275455371540219,-0.7570201410163777,-0.4772202801305321,0.4395452294332342,-0.38581700597039137,0.7548822303606622,-0.2535139434837204,0.45456409744724613,0.32237459403039315,-0.6605836480396179,-0.6684006235767526,0.00047654317863674847,0.2612690701810423,0.1482059672437291,-0.5185941580550502,0.8183702182997463,0.7416833286153045,0.9072901914223992,0.21512466812992606,-0.3181180703575256,-0.6083950007001059,-0.38951770098340327,-0.2782997613854394,0.49890713640075235,-0.5809367746725098,-0.22811508716206763,0.8757049402879719,0.21869329505544605,-0.2454644648668706,-0.00498049221726717,0.684646963348432,-0.5008572003374308,-0.8010972707716606,-0.6557422476119481,0.637478031881061,0.4750951925328422,0.355502594960149,-0.8917372423689245,-0.3996172860470026,-0.13342157849090977,-0.026666119615736124,0.6903641753837543,-0.9893280158156534,0.40742018116851186,0.04366215265691632,0.2688423393942182,0.3552920439716144,0.5060260866736873,-0.1953515167215077,0.4076805216888986,0.3512433468436474,0.22954524537171597,0.1075192955950433,-0.0411817279961327,-0.3856932934731385,0.9576428287743133,0.7659546436015781,-0.5278186580152991,-0.8095543026716593,-0.7164552377339963,-0.6713121646063628,-0.6027616749377742,-0.2418035785206311,0.6047459681716668,0.4816081313790266,0.4155134098050225,0.6934724778995031,0.5326064129912382
-0.36334595732914093,0.6548118749077106,0.4894442073634492,-0.18950865589068713,-0.8007694582640033,-0.13008573193633957,0.4519722884733241,-0.5153924132593533,0.6583873319701848,-0.041908414282956906,-0.34866499313678695,-0.500033564697728,0.23122213537225306,0.885460269955082,-0.45461841354689647,-0.6843126997371396,0.37884329602420536,-0.5683856365889869,0.6206335138136521,0.9776182642420307,0.4531688208572081,0.33141526430611407,0.28069388182250704,0.9309294799195339,-0.6337233492448919,0.08039411699356878,-0.7091937104266096,-0.03761433109957872,-0.514652972637188,0.5071643588834324,-0.3835906596825567,0.21798565301248926,0.044576754428520986,0.34405123430243956,0.3878726537578474,0.33946328065212117,0.08814698306145463,0.6536851077794928,-0.47995220102447034,-0.15205900975780626,0.5323551762710367,-0.45709545252902367,-0.6164560504855776,0.4481384352947778,0.5749796222893083,-0.32245754504411783,-0.659123276877756,0.11871897336376372,-0.4085423224377189,-0.7192882234950765,-0.5461460049398,0.3712021222239984,-0.07095914485788657,-0.927156637476571,-0.795482478565248,0.6882922740325209,0.0028292201646401595,-0.9334423762396845,-0.8653583468971529,0.7284342224747303,0.2933206176028543,0.975312592168149,-0.10849763629688354,0.6442130156427792,0.5704034557798057,0.517748266306177,-0.33386055635641887,0.40558571111242403,-0.3905817919903638,0.38621029683393127,-0.8263120153886346,-0.818842132761899,0.3725824269689184,-0.48577524799855126,-0.3563162511944273
-0.3079555321043879,0.31325671472429906,-0.8770515185558593,-0.5024047720828962,0.11101693876127251,-0.38974208102720853,-0.19729473504667347,0.49469156573401135,-0.1571046516390843,-0.5121834683395258,-0.24040948831399267,-0.4724077450955878,-0.8722973027306908,0.1772751145418362,-0.7434647451338661,0.3944167705492185,0.44515891291474313,-0.20598080770802019,-0.1204072457557175,-0.146472601310855,-0.06435017376059672,0.14762183164148893,0.33484694713121543,-0.7861492027818103,0.41429715909413667,0.864751432621723,0.21593287570203332,-0.41534838655781403,0.7681124747249279,-0.9325739179538473,0.941780072923719,0.7899615990015634,-0.8471560341619955,0.09995587163445496,0.4772567057326464,-0.951030119561413,0.09731486492878139,0.3127402810119931,0.8948138590351385,0.24946113477517995,-0.6013799251408092,-1.0059377407761187,-0.5826222075220145,0.20820031048571144,-1.022551438435184,-0.8967361839095803,0.7800323000836499,-0.25550368589692224,0.6841109694237375,-0.465644435361301,-0.49501554835140027,-0.5164708457467815,-0.4395496136431388,-0.14086863959822474,0.9352206613469816,-0.8864753476719984,-0.2079973036884057,-0.9402286763456343,0.6502748017937324,0.5632076068533796,0.6752855925478234,-0.3144096725459539,-0.7185700867292825,-0.9789729660469974,0.33328594709644427,0.581778372159497,-0.44259891003024493,0.17956770067386899,0.45933467048468346,-0.573932689802901,0.6881533021350086,-0.9011640474138043,0.28287310262185483,0.2381843395567283,-0.14251282841895505
0.05930806111168107,-0.11508077674681685,0.5091874055398992,0.7910412053838899,-0.2576689441047439,-0.22583562831197487,-0.03274090473046518,-0.11012098781735027,0.9305988210937735,0.724352025164291,0.9743922938298314,-0.8361615437943931,0.09619876757077953,0.8789948070570748,0.7157114208216626,-0.28895695780047714,-0.008939202672922284,0.0002499042593824965,-0.22227229343806226,0.25105037141280734,-0.2564187626452892,0.9681360270536861,-0.5694507421141054,-0.4079584501131823,-0.5638143597245934,0.2835846377844945,-0.41721324558066925,-0.6645930938509844,-0.45708655646505203,0.14707610882954386,-0.8334489474130916,-0.34651189691014633,-0.6085818590997045,0.8391608909720703,-0.8201580492811035,-0.7153609385771514,0.5874637281207924,-0.21195703878527944,0.3420602227755873,0.3842360762121036,0.33250383531524047,-0.6694451978708027,-0.7617850516037855,-0.7767836225182778,-0.06685216038651953,-0.8558913436508417,-0.9645888920187883,-0.6796674283821885,-0.010732174980970583,0.344525528699526,-0.8520985051994586,-0.45325479679286385,-0.8476332456597108,-0.8765146647085598,0.12360615864326116,0.1678583386264829,0.5561864753129827,-0.08512740739247539,-0.8574364510551536,-0.7608188894683687,-0.17394313271882111,0.47435393633995065,0.015634013605317933,-0.5256933172732261,-0.6498015490662091,0.3560385123152712,0.7452916346266033,0.09497868538451663,0.12342023728642362,0.20973998191157198,0.34690019619236195,-1.0312758941786098,-0.40894231987994645,-0.07427470369606878,0.8195692420362182
-0.7319506568141323,0.9292447896714294,-0.8526922456607721,0.3243196615573577,-0.13233996915863833,-0.6871690551256728,-0.2270658738082778,-0.38102164588651766,0.8242986393277693,-0.2608048155789874,0.38988689088454725,-0.7224774086475702,0.5759874179754876,0.2818476524650994,0.8010351444924592,-0.9468743618369233,-0.15985119343021334,-0.8438447283344912,0.8456897575302921,0.0925640463680318,-0.4448456845421221,-0.7099296679359155,0.7272315138478012,-0.24829846682195886,-0.3950540802269775,-0.19538550810723615,-0.35663596154705035,-0.43627432703938385,0.4796375705389344,0.8748781648589348,-0.13509271484334806,-0.7504689802575175,0.8376541869902576,-0.17307369107470405,-0.3042033037906238,-0.539474050798694,-0.4933042429107426,0.14252895139576133,-0.9523743930792843,0.9116342310286643,-0.04275437706300703,0.3603011559454714,0.22741657530799433,0.7366582625066386,-0.9602645838001728,-0.9343177759569519,-0.23791635832681765,0.7979186933415626,-0.4893640757029433,-0.4658933083814927,0.30487262393737236,-0.0943141675539822,-0.7292702948078864,-0.7473435178228307,0.23531423261541753,0.692283200499832,-0.41156859929836215,0.8431265441195789,-0.08749215073432154,-0.00920529100429234,-0.594012538910058,-0.3855592345526688,0.0019316379956271403,0.9401279989093115,-0.01794359391628479,-0.636748353701874,-0.8215039262339032,0.08453922247628484,-0.29648376446125885,-0.6082948913453263,-0.2281491757886433,-0.6362458034520684,0.6905027218222977,0.24861800472597645,0.9785140884566172
-0.07948079510134622,-0.5612219820546303,-0.34070728199349887,0.374967856946462,-0.48949115331898896,0.6743661527727399,-0.19814159703194553,0.5751513792015871,0.764367102031426,-0.6382246514136758,-0.3028925784728169,0.27353935171028537,0.8226613130814209,0.5782558777805212,-0.5996780846383768,0.7594157588117019,0.2552662768978318,-0.553588243796554,-0.5049843559938205,0.3819582980692008,-0.8568406332019842,-0.6704927278637813,0.06756486466589258,-0.799195390037612,-0.3144245925024323,-0.4839066403475017,-0.28254084989744765,0.5936307486591371,0.09786829794978519,-0.1993997089720571,0.9045386200950897,-0.04064645774828048,0.04665755642643832,0.08216981711211757,-0.29116409138390925,-0.14943920340200603,0.7306948811339194,0.6351018149335784,0.1945408893164804,0.5580250123887222,-0.18077856004312365,0.4699221895031252,-0.6580451289880682,-0.8350936503216078,-0.31342737621567524,0.8779486319353873,-0.39638049813486204,-1.0642263935566483,0.4875730253380537,0.32505397141043907,0.8705183480561745,-0.630034278526207,-0.3658402392960706,-0.40901536876035,-0.6681922720657163,-0.34981357987519823,-0.7581312515319825,-0.10058420011642923,0.07246778040705713,0.9691904763402434,0.2827917955874381,0.57100796223257,0.9316651373091439,0.3801958038619826,-0.7354532202052498,-0.4473513367380111,-0.7312592198625343,-0.807615715279693,-0.24297125794828991,-0.2981162246845134,-0.7451488985643144,0.19385155253857467,-0.9066137427486081,0.9550875851259651,0.5097228552613936
-0.989232075376102,-0.38682500865768754,-0.7732107572937971,0.005562119530241676,-0.6728552101703726,0.8951193847689514,0.9062631809666709,0.7600494178379562,0.8511058312377122,0.7779519276602521,-0.1695823025500789,-0.03916245282117372,0.9070803971640362,-0.7379228931508368,-0.40054359327625555,-1.0040588404562263,-0.13941184901023054,0.7399405962078368,-0.9399053550350638,0.002954750653949157,-0.4257387825635464,0.8895118668526948,0.8106202901705748,0.3198674545695055,-0.6667039507943657,-0.22065902555189937,0.3844652819720656,-0.5302520268014846,0.7304908939677218,-0.2316734218561625,0.8731004522244814,-0.5724123749458666,0.6826579984076623,0.843265753853605,0.4785124448258281,0.5321058966447874,-0.6754118110947662,0.09003115909263343,-0.895429883998554,0.4947964169131466,0.5265122359307458,-0.24142080885383924,-0.7539232378484292,0.8717570921968482,-0.4529432115019844,0.20448589371051262,-0.9748268143297569,0.547673134380348,-0.5349476498169509,0.8704328340963743,0.6328679481457838,0.3099266316900787,0.2996924617776356,0.9128750601540208,0.1641788052912378,-0.9349933290377975,-0.9424769667139707,-0.3403936568968246,0.49828069110017836,-0.09607914732273022,-0.6511761377683921,0.7446603838842502,-0.3914337483777462,-0.31420250803622574,0.7146699338647974,0.8686175110474709,0.07846656486896691,0.16261512514749787,0.5184172758661808,-0.06288422689291481,0.8567362370813254,0.6534417632772976,-0.07058140356719787,-0.982271152544736,0.08716070314638495
-0.668614087424528,0.010922377042862032,0.23181034035199843,-0.07192375883777455,0.6736532803895645,-0.4067170458873901,0.4578833227823164,0.7331604995305345,0.7935561369782466,-0.18048544721647508,0.166439821486999,-0.3237352057144528,0.34558254570295455,0.0698244320664091,0.06363096148958758,0.9179624428782331,-0.4879784539843863,-0.7212101636650851,0.5104419798088627,0.7341062041544046,0.0496498905296297,0.6365048531419928,0.21209649393406543,-0.6016563368279308,0.08823617057577128,1.0019258441148684,-0.44549202324413756,0.6578814616183123,-0.8518625813241941,0.9301851216616358,-0.4613173860614783,0.4366753150125313,0.6892887637099325,0.10205015868221717,0.599711118488207,-0.08322643956413438,-0.9668738994468982,0.8219706289490539,0.4101498173287579,0.91140226979297,0.47532781035805394,-0.08573080779526045,0.29560691636709,-0.7605753000331718,-0.9959787909984876,-0.4681621880514781,0.5031115615777609,0.6389928025412921,0.7468009385734883,0.567834427148905,-0.014069212338116805,0.32242088173568584,-0.4486198565569515,-0.3702785147021111,0.7727906783839622,0.4621801206259445,-0.8645993981729829,-0.3158560683655229,0.10981474569140849,0.5505918731144553,0.23145072528518662,0.21038834600050485,-0.005169038340896238,0.7419921226196105,-0.4648294930672166,-0.22929294866790856,-0.5540074023441163,0.3905646547386346,0.7557267088508983,0.2872335116154096,-0.48983216905459603,-0.6139352933378207,-0.9882643314212023,-0.6952166801751077,-0.3752765597552847
0.3739628676259846,-0.11370194010265668,-0.7964760455487162,0.824607534738354,0.30741107403888174,0.6956857081333034,-0.37360025729535157,0.8135866352033249,-0.12064523164978459,0.937156476280992,-0.5113845177892008,-0.3894254542010997,0.49001030552851826,0.6805287148382877,0.8471778237420124,0.9825856728225711,0.42015052371218325,-0.5370262064983646,-0.6903878538085795,0.6440774833021342,0.834313513693121,-0.06890860400808223,0.0019932863772222217,-0.5695026268467754,-0.38002195557164825,-0.5698810382464008,0.14945363118113378,-0.8793523103170114,-0.6064067214076397,0.643557279522659,-0.10113554498098842,-0.6872895405792381,0.39520382973334917,0.4736133812469258,0.20905505435680302,0.18366623397366333,0.5441546744895008,0.28836543320975794,-0.8054419649631913,-0.0941702895346041,-0.29741557879255776,0.46304654929029954,-0.2566478579934594,0.978455667541223,-1.0245251452702322,0.6404406151362708,0.5901791683941707,-0.557132808091329,-0.5417198249234928,-0.7730770946873902,0.48026397890198635,0.3324682505304544,-1.131295961948167,0.5956202573422129,-0.005290836733199776,-0.12902840141536712,0.17311428906932022,-0.8517346624962473,0.10314318924187492,0.5154980072557614,-0.3162064920831251,0.3671879873362145,0.9299738919617198,0.7005983975098642,-0.7202120789290601,0.6784998173428771,0.7508302968310654,0.8603726254150376,0.9562210024156661,0.17406777581448535,0.6995605855942294,-0.5826306376744089,-0.50580807236592,0.8316458306440032,0.14343804806723542
0.9207802854353473,0.7879448410601041,0.06064805717036881,-0.758970582312767,0.38149141970548456,0.8302194436673814,-0.700797423342714,0.8374249323639485,0.8173419574264416,-0.17764398761023886,-0.7831625486224473,-0.269821241801233,0.20410272237750224,0.739753425227881,0.34239359327037955,0.9472697514341561,-0.973972302318107,0.21868035748129397,-0.4930757276529494,-0.45139151917088616,0.7888806535259739,0.6356442022069153,0.19590975568691466,0.5978673904106255,-0.012107259798616873,0.12013862457984006,0.7109297789593513,-0.2911820757167736,-0.7811057055548581,0.6481838460685831,-0.6861236840778276,-0.8455811381653082,-0.6780951584486286,0.23846328945603565,0.7292580690525706,-0.19645043082735733,-0.4058463545527179,0.0223894377129631,0.4530195960194579,-0.1156955097694755,0.6932094605813467,0.19900560084465488,0.31834198357624743,0.42760431526621673,0.42188665598489455,-0.5126391941692476,0.4938992617914316,0.6681827696004475,-0.6574650813976098,-0.5940664347429744,-0.7936367326148744,-0.029920700370226923,0.700780958440219,-0.5501995943005844,-0.4538236537480365,0.9317193906001455,0.9786094015928395,-0.7063495899540312,0.059585588461462724,0.3684462242734558,0.7690195736198001,-0.12892295150880936,-0.2339267295042042,0.3497460703870041,0.16081694121036735,-0.11614905357110603,-0.205806728336078,-0.2833015004218382,0.9385365761505697,0.630202336225195,0.4963306849287578,0.17108560771830356,-0.5503927077675742,-0.10988723545856932,-0.3066226607260519
0.2404684176577068,0.49183162544080716,-0.7429755006590583,0.2595314966314815,0.8405046606262346,-0.9582327617046988,-0.4845427628014134,0.9012950047330411,0.10454607991207836,0.4424693100774575,-0.7959346433253105,0.9086895416133485,-0.6195508512510994,-0.3830454851288474,-0.7869782101588796,-0.6153384985808964,0.0789095277102329,0.6374628109780767,-0.04712441218534036,0.8590778043309955,-0.6231949574594975,0.4372846206358774,-0.21972673575285082,-0.07851041951035602,0.5461885322421042,0.5510311431134451,-0.25666934087336185,0.32406168210498315,0.17657645205202302,-0.10247726306968194,0.10153867585820055,0.41799260528883786,0.5449476234064803,-0.047904024241803775,0.40389750106140637,0.32222768138583296,-0.9494662626991379,-0.1754486143768479,0.5724948618952198,0.9642715486342139,-0.7011748826019126,-0.8329701189907541,0.37196946901154454,0.6580407604578274,0.5771896875665342,-0.6924662275176157,0.5699332623721969,-1.0554069574998617,0.4193023829918847,0.2079730793798422,-0.7700838021976267,0.013723393787251686,-0.38049516873850064,0.846788538093436,0.9712336170389322,-0.5981636322566781,0.70298364455435,0.5122063458318667,0.24333216009650033,-0.6995120173260372,-0.5165578238162406,-0.029663280546145927,0.9524381975372539,-0.6336977499938251,-0.22639934092899291,0.47027337844236794,-0.7428771673638611,-0.04190346765561458,0.9203737939004876,-0.9815652463629383,-0.8996493888497985,0.6584207209626772,-0.3012441522657193,0.45419655713840185,0.5841401378828522
0.3427467825412857,-0.9305002374997208,-0.6736975707402632,-0.8012213171200107,-0.22213110858500265,-0.6586044243654164,-0.08051083640533234,0.29569875450916344,0.7272652868045213,0.5502539033292135,-0.4970286987504543,-0.7561336908123706,0.7116482881967772,-0.6882983216299391,0.12944023695768886,0.5580260649860366,0.7678703564822235,-0.8897589033898466,-0.21958908530629775,-0.4074297526203578,-0.44028526137234014,-0.6477972743008389,-0.7710446125893557,-0.11866152579285325,-0.3170236157736035,0.49268835477894324,0.7629217265988711,0.4233171439773242,0.3986031382979383,0.4712336839597208,0.009004123744320967,0.6003195822999476,0.8842517693581472,0.7506863797260023,0.9426476044097206,0.9261379332947529,0.054636473013579434,-0.0857525150836553,0.12258190607264939,0.5717979668397496,-0.6841316691401145,-0.7820245182104428,-0.08337050375762274,0.10385258688701389,0.13927537463952003,0.37582098526808727,0.7139809454452423,0.5074164229795464,0.8187952931146192,-0.12571864466637378,-0.19367901406053417,-0.2961546757990419,-0.6537122088067224,-0.3875105637684133,0.22842814278596804,-0.1760755904435452,0.7970456743447317,0.9378378727652554,0.05959666620826447,0.592700612537836,-0.3972827188226692,0.509667297894266,-1.0207467713518936,0.9714447541098501,-0.028864502478692305,-0.7959924534327647,-0.08760295491147693,0.9018723426958394,-0.2887905684165714,-0.9040843393063817,0.13618935243210611,-0.6660518959678121,-0.5244927969070208,-0.9418092563840895,0.942920113598015
-0.31668382612034623,0.5523786648741412,-0.7958065913588075,-0.1914088485513536,-0.719333614957281,-0.06850542420670762,-0.8086321923967179,0.10402447480626717,0.14398899311779906,0.6242811890177402,-0.5639615807255725,-0.12634011050437197,-0.5928569105573616,0.6755771509827515,0.21985824962052178,-0.03367207790205556,0.8645969559655379,0.7744098941369736,0.6447770337933229,0.5106683376126794,0.0057148255613610685,0.2580743695660599,0.31752521375075865,-0.15410524598301872,0.8989676439343375,0.7513686116836249,0.13594412885314047,-0.08813638267755132,0.528282829125823,0.639113912918326,0.9732773577024771,0.9022182588449396,0.7057179166640837,-0.628460704231851,0.9091931196996369,0.33256474404772784,0.23366326641063606,-0.12032370147095924,0.6091951525502466,0.9275106794169824,0.55841714323025,-0.7853405061864451,-0.21163378397583577,0.3165117106605366,-0.5046598105285379,0.9518909729052822,-0.6529528958196888,0.5338487631754537,0.4506817847916106,-0.7931380406290278,-0.2047869213592111,0.8456394857842191,-0.49299805757817783,-0.7445535371928814,0.19809568376165157,0.2234739181877259,0.15411202615979652,-0.5221629225263399,-0.3616154975310804,-0.7421244557434922,0.3385654019703271,0.3923598187751735,0.8378953561795334,0.45836704479045365,0.9749181451173101,-0.6101555224144238,-0.025642435570308625,-0.22210073603999445,0.6151447200082013,0.10755431924062549,-0.7120561945632852,-1.0348245816457318,-0.4483670602252945,0.4885021695471271,0.7730882301317008
0.03955246676584079,-0.5198208498744558,0.9049439669122887,0.9485059608917504,-0.9889228994288709,0.1066738580708683,0.6595262547363494,0.7242645989994102,-0.9423763289995953,0.7712715614446972,0.4412197562490064,-0.6666541707155822,0.06298691089490632,0.26384791041122013,0.879015799474764,-0.47820873538922265,-0.2733524583528563,-0.5748161852060253,-0.040354181989148835,-0.2320593929730245,0.4189354608567465,-0.8904536412387352,-0.13130068076028106,0.3007408581012331,-0.16434008095726998,0.09265646994211597,0.016797898611551287,-0.26831251389429045,0.01742299358432129,0.787463359780047,-0.3905008154193969,-0.8656230599527608,0.5005586192427888,-0.4858154657603786,-0.706167331138301,-0.07947301932150257,-0.46861898604258956,0.47701613420352384,0.7720526749820666,0.09882325194124719,0.374290508205151,0.815783737530114,-0.12901022680561935,-0.1512121528190026,0.7556422692172654,-0.45382931685840955,0.7209797420705861,-0.011685661174044733,-0.013708251485631257,0.7286789704310068,-0.03532380227408927,0.8169993921094802,-0.6123049006091844,-0.24711795795856767,-0.6372504535791942,0.16853702241325988,-0.5558393434478062,-0.4388323940442448,-0.0019856563546551266,-0.28807147424590596,-0.8419555136694745,-0.8087394527210044,0.8167816882549507,-0.2316394998975722,0.7298960081628271,-0.6533251850488695,0.471837246015409,0.9366810828675268,0.3727357371329244,0.33897252213669177,-0.806731166927646,-0.8298255492271162,0.265501781738751,0.18769772206706614,0.7426801649236382
-0.6820536197890604,0.5545813483258947,0.49089732380687545,0.31042116120009494,-0.31096366117276136,-0.6760775373509038,0.5497128039651309,0.8220998812503039,-0.46981624316887927,-0.03853038533805846,-0.6673366777028465,-0.7562855039293853,-0.23062798796634662,-0.7423739992712279,-0.24982908510432722,-0.5874942279170617,-0.3701029617168588,-0.008093736243740018,-0.7310145466560778,-0.6810976631461844,0.9408638928171575,0.4826366177772677,-0.8029590039421733,-0.3702221456654753,0.2703909726185168,-0.7424750999103271,0.6959629963396553,-0.6106451234571885,0.3945077619317935,-0.8526493771421233,0.23693611884133178,-0.09472271619646595,-0.050352068506111444,0.4421890291051274,0.512316462209114,0.10594901985836568,0.34422323120885856,-0.04948189328271941,0.10468774869788788,-0.5689480225885246,0.49223053377680154,-0.9646748721673473,-0.02082451253463188,0.1485519971659405,-1.0811731892441825,-0.3248546447818428,-0.1029689720280948,-0.022122307542664348,0.8563519378308044,-0.7865655536180537,-0.5292754907608284,-0.06881760016330794,-0.13597328524761154,-0.7132211699090483,-0.9820730329862236,0.2022864575370982,0.19830105607103832,-0.16556499779158204,0.4415409790416584,0.6077279771778316,-0.8088787865554273,0.7999523459349206,0.3937281823606542,0.8709863105494466,0.21489021289796287,-1.1341492107929863,-0.5353997147814435,0.28885895364686004,-0.25434737878904623,0.22019525679568247,0.07161698603088237,-0.7010077701350687,0.5823472826906829,-0.3050492469979807,0.8365764266503389
