0.673471697846065,-0.7158457861224237,0.38153098384884687,0.324631568107838,0.3259491481149591,-0.7512532288210647,-0.9999788765479848,-0.865415821022721,-0.15962051959642798,-0.08691982258663344,-0.11478135679338575,0.13125880740638562,-0.21543735604970704,0.958966384318894,-0.10655357840526836,-0.28815795342436534,-0.8907735957252617,-0.132878661060003,0.9417667488859296,0.8386421902462616,-0.21502975735727403,-0.48721070159912694,0.23204182385608063,-0.48907470598521907,-0.18603855304773897,-0.4908421923420362,-0.643691461433331,0.8998352989687386,-0.11017129316644925,0.649128329731478,0.5221107063185939,-0.5516250387197521,0.0820404249943556,0.36381560462693985,0.24730017441429897,0.3351633828559163,-0.20471185548619164,0.8907879776672064,-0.7989727487114744,0.43920091885347645,-0.8768378800951807,0.11988816191249607,0.33757950319333374,-0.3154346610497666,-0.948365088054676,-0.5685821278031101,-0.5484369185876489,-0.016649897792876067,-0.8471547528238985,0.4073560034120459
0.6462156314488621,-0.9703385061699246,0.270994042958835,-0.6366206808055529,0.730909362972106,0.7458858617857741,-0.9090665203389318,0.212811910346566,0.35953580706414245,0.3614980882204175,-0.7487838176335078,-0.15927193454571775,-0.754378618692962,0.7003083711547649,0.4736757273520076,-0.11585861221528404,-0.5615982308700918,0.5658099450444072,0.8740412006920757,-0.3776498430569225,-0.2065477094144298,0.30781700585934824,0.7972436543993336,0.3337327820575955,-0.8227364564604397,0.10771430893576506,-0.09524302521980432,-0.167487508597418,0.13510205691073418,-0.7510477387427504,-0.4718006814762573,0.21041886015183953,0.7806064166113583,-0.5146032969262042,-0.6261412290735873,0.6122093150815894,0.4001748127368755,0.42463926770022453,-0.30724542800967625,0.5097023434355434,0.764313590617534,0.84697421726948,-0.20189119493100216,-0.44772861096330463,-0.08533309979492976,-0.0028475147540087953,0.7420523795102679,0.3500080819069372,0.836891574062607,0.740089074635169
0.534471755199587,-0.9450320814176711,-0.9340348142146911,-0.5230709761485226,-0.5309228172164909,-0.654325913716831,0.10937867864741446,-0.1854886161270951,-0.26204372225743067,0.3371072353878459,0.7260856502210855,0.38995593115428595,-0.916416690980801,0.7585215570694657,-0.31685352031938296,-0.18002675770171273,-0.548750945357665,-0.806344355913422,0.3972428286676931,-0.22665046662043675,0.8195382827052188,-0.8652952593522804,-0.36144671254203353,0.575171366838385,-0.08166846124233751,0.5638014420369537,-0.24793880226177856,0.03665987084452427,0.31758307778970807,-0.1827450839161644,0.6443076137813671,-0.37623179549332963,-0.9077579970769718,0.10690658601200809,-0.7249017492796693,0.8250545877434166,-0.9562710032901361,0.392995008961866,-0.7974999283660003,0.10070673601033209,0.5379750000310178,-0.17712672121634765,0.3098497991877571,-0.7005843468519082,0.43631379650769975,0.509610466939779,0.9480404211905952,-0.7692358706930691,-0.5200265416125144,-0.8846658486630387
-0.48871711396666584,0.6986831084540179,-0.34676589471830566,0.779797395979997,0.8717562290149026,0.19827351623758815,0.5398225581849925,-0.14775220085346863,0.17601984552916694,0.38460842793137995,-0.2098487555022206,-0.5868765062891254,0.18344476264159892,0.07793877391569015,0.5258445671193033,-0.6314670961487848,-0.571633498452549,-0.18572996957076937,0.9732398720756452,-0.7285867171868815,0.0804557091833662,0.47288119409333607,-0.4464481012326432,0.8902730931791889,0.4201565094052946,-0.00982647187773067,-0.7201580978691482,-0.9370243709158866,-0.9982250327927884,0.7229619714006893,0.9046382949650172,0.656317043769823,0.12699986994891765,0.360487385007781,0.29301507539282057,-0.6245493521225021,0.15226948000865215,-0.24453818989226572,0.5974554202164576,0.4022781380935164,0.9969292611717895,-0.1147941795076326,0.5701753356213399,-0.8997190342415501,-0.7911300223930894,0.8953235130252291,0.9495001117802155,0.4264055798377083,0.9337724256019526,0.4479174492379441
0.4177085070872387,-0.2437304158990239,0.1805286830552607,-0.0992163864832214,-0.7823444204316468,-0.6968281203939717,-0.2090369914792921,-0.6465022731792153,-0.1700752940414627,-0.510382673804113,0.7288281604510135,-0.39013212263846997,-0.08176469419913723,-0.07202988621177475,-0.7632044530075155,0.03616569920673329,0.2030600675361407,0.16386620748312752,0.2959956929307799,0.07735018574372099,-0.009178656694325826,0.6838203849756319,0.6762139750218138,-0.38804385362079497,0.37613289504904324,0.3399237855609336,-0.3441292414003576,0.7151558160306593,-0.9260629816956781,-0.09519224903061918,-0.5663843052152996,-0.6533764258455295,0.6417279275183655,0.25313807489042717,-0.27631160624384143,0.2922875820108721,-0.45798820894210757,-0.9722640550302953,-0.8321542758216047,0.09280363259505853,-0.5381404931139999,-0.16919312477753812,0.40083810853394686,-0.5386308031189091,-0.4326884853513465,-0.17913931048869658,0.9323197909681862,-0.12457697081791153,0.6067005649336924,0.030119601585305467
0.8230197131951525,0.5085969800426914,0.4405470234423938,0.9885180347046807,0.5743235283346324,0.7479173335034695,-0.9953372101770117,-0.5788060356141914,-0.015104534009285464,0.30673809522979456,-0.8312482177789877,-0.663845551874113,0.35503200696260884,0.9261885971348649,-0.3559285592683906,-0.7604187915513679,0.3400452793762121,-0.5596532130326448,0.1875446204071609,-0.7418256176955373,-0.5004502560417,0.8604248519713187,0.48387493655765956,-0.28403626159137774,-0.2428575815901859,0.9973924958474013,0.8263563113884919,0.13551862977967943,-0.05782543230973969,-0.8930363452830089,-0.5634293933191897,-0.4123135638609312,0.37395836240414937,0.7213874635832077,-0.6534471428592554,0.4174212117257602,-0.19614275042266516,-0.3121193511127348,-0.612260020265998,-0.5002131141387413,-0.4982107046682289,-0.7411425449048269,-0.08999832070151659,0.18201817907763906,0.11804829979223663,0.36163301915904333,0.15066205351347972,0.13269614431382404,-0.3391070556924327,0.8575321390375352
0.5575942714601138,-0.22139615718677685,-0.4221098709806804,0.11631758516157409,-0.28074207661813433,0.20480383731770468,0.5045318457555783,-0.6649922000224563,-0.38171299349128207,0.4417924013871283,0.7297097834933973,0.017616320048024603,-0.6876309602260217,-0.42508686603246804,0.7749705999225371,-0.5700199975303555,-0.05544019773477593,-0.3056875199265482,0.6005224184151602,0.7892409699186863,-0.5837047936332311,0.9824868701775687,0.5905995739632532,-0.5983553126361328,-0.6118066068410921,-0.1653731978487698,-0.9235816307912308,0.9696937646372783,0.167937938961773,-0.37965351696092065,-0.06666028545073266,0.2535850780801485,-0.38513864399831443,0.5273487852441014,-0.11672121025967686,-0.6732781554901771,-0.7931181059585638,-0.0419619476143811,-0.011450265963274808,-0.09154519666400562,-0.033092470451205,-0.05110958178095526,-0.7823152288770577,-0.6058886819351833,-0.37491280204839705,-0.5822715748582349,0.8981908855394902,0.22853305131563384,-0.9665118814509018,-0.007475397280330087
0.028071056046541365,0.759523570188574,0.8652113284767259,-0.38312089248153147,0.2342622311913919,-0.010952490843944673,-0.125976526225678,0.9779245095938852,0.262661315882592,-0.14838460750863525,-0.32938384388158815,-0.6805617602935121,-0.6976089611192801,0.7345065629719273,0.9111013707850298,-0.8169812362031117,0.9664275864860301,0.9686370140235314,0.3018628751559884,-0.5908362106230315,0.1442592172984456,-0.20892659751861464,-0.6604011430491904,0.2966221305601099,0.7693430634781828,0.6215399788855231,0.09548265630455555,0.6652137449305117,0.6684725583284238,-0.6061101804821081,0.15644824828207493,-0.873280057736342,0.7760360207807245,0.7424049478548531,0.5117446514383023,-0.6086275858057166,-0.6111915919319826,-0.8182024645443416,-0.9056743610086533,0.8462988686636821,0.3551878860731771,-0.6943119971376864,-0.3011738328954493,-0.49413814432254577,-0.4022882233414553,0.8075235944953705,-0.26137898912270197,-0.48675383290373986,-0.546192529658897,0.344762141185022
-0.8576154700280343,-0.620878384050788,-0.04774349903049835,0.30693510213836295,0.5619206554682467,-0.13590979942930914,-0.7739390747444177,-0.7018446073641161,-0.48237816679824297,0.7784125852385806,0.22711651140865285,-0.05206032271791938,-0.6092705719569831,0.4435207615131477,-0.5713790473106302,-0.8461037888141165,0.5948485990742006,-0.014364326915769055,-0.7573223287050127,-0.8571253283522856,0.2930783086759361,-0.24597357854133828,-0.16664322170895696,0.10915738979741674,0.10386533015055843,-0.9936218021374247,-0.6622366105111197,-0.7200703119070908,0.46903245674215166,0.7574268966400322,-0.48591294452138367,0.5057776080340642,-0.3209160403247908,0.505420371794949,0.17640173033400908,0.6655770201984188,0.5014363096556417,-0.13555343018406962,-0.9602372209023669,0.5219406753642456,0.002870996410822113,-0.5243676199402241,0.906672936323241,-0.10408775265356296,-0.2758598910163267,0.008466238755051814,0.9368384968551592,0.9307200912914683,0.7571929922290699,-0.5735719077945071
-0.9646963247582984,0.5471223811227678,0.6424231428060709,0.5271544292843844,0.11301974078301069,-0.5659328964346289,0.3397286244813116,-0.8539193380353305,0.7181769445965779,0.47661598704950536,0.690514373549788,-0.4462222696089745,0.1183110466756575,-0.46341505997330823,-0.9581000669180987,0.1473104167566216,-0.46478623943053876,0.6067274530303275,-0.9760298895282726,-0.12185477246800591,0.3725023182351588,0.032850543174357094,-0.7429998437748208,-0.002421382104798364,-0.8783060335393619,0.1952866968682192,-0.1869964340617123,-0.6483671796569848,-0.08446009560686663,-0.08416314463310492,0.7608510174867257,-0.7214827577585116,0.4185939083997867,0.49235355478252296,0.29947091935629977,-0.28679495083173345,-0.024756741790767922,-0.028751761402421527,-0.42568773896901446,-0.6370579806772653,-0.3657915270026463,0.2613188285401279,0.5436923093658198,0.14331884520260119,0.03032795119880949,-0.6034416098429713,0.5211494519701868,-0.5212017875953904,0.4804341182940196,0.6370573021137813
-0.5161379563215377,0.07217930401086314,-0.6507944224910136,0.1857001472352583,-0.0801286035845371,-0.012341812477810299,0.1937131680964791,-0.4418756619071078,0.8431511789155909,-0.3897121532164157,-0.6058336354615376,-0.4850111148139725,-0.293186037573014,-0.921406463707009,0.32116256897652784,0.8739386846563814,0.2040250715143016,-0.7182047011725632,-0.10626496982945988,-0.8328750576225236,-0.7905683276844444,0.5782170087261129,0.6661353924737154,-0.04368197738335122,0.47297222075658873,-0.014454380975623682,-0.047441116777482195,-0.5935051247228991,-0.7559572068790726,0.684975582632461,-0.2849793652947282,0.2704009800868299,0.7015356298343789,0.14166228152909932,-0.6277517202517013,0.7416466631457342,0.24731929157663168,0.21902602379433134,-0.5661850552958116,0.6384240105365037,0.3040138222315826,0.5275961489356265,0.7608923378814226,0.2562134618860179,-0.008561141773769432,-0.4142427509051827,0.5950979941210564,0.05321187283779072,0.5818615883793626,0.9152877289262376
-0.7837932442753192,0.5050037666307406,-0.7057648218580611,0.6103019482894287,0.06457908856096317,-0.8251315648714742,0.7682908302058558,-0.43123947940251983,-0.2805823076080576,-0.3758962683415542,0.17068775133831393,-0.6800548855175407,-0.25909732473309177,-0.14536753315254503,0.09175784322897895,-0.9126369108514824,0.7017892277189149,-0.8667293228767332,0.7330539599636836,-0.8962665965762798,0.0032063424853927547,0.43041479738750277,-0.8408888398076393,-0.5001120814836424,0.5671065418726374,-0.4022616328274642,-0.7084044603019471,0.30168083451034033,0.4598920663496353,-0.18165840655678,-0.5627309731370633,-0.17011650507552134,0.6386905156919743,0.5963342456531336,-0.6438977466793718,-0.897117722502378,0.9581596314327229,0.19821881923413476,-0.0470156795732275,0.015704436133227473,-0.2180566716719401,-0.3834276766805551,0.3497099950801281,0.21505024206436174,-0.025571786445319433,0.4616671647970403,-0.8179992330187068,-0.45524621900453266,-0.3275023642659104,0.10955456798975327
0.4681914522705951,-0.046688094970049,-0.7853099794546414,-0.04472327762134376,0.8660830584816775,0.5922249121061566,0.3762892680479789,-0.5787714623581561,-0.6592660379938663,0.3907877470340414,0.8556815054746042,-0.19919959694189682,0.5568003577895102,-0.6456770020640216,0.7915854205982635,0.9704763921010285,-0.3594966866439139,0.6797588434887504,0.7298650915558954,-0.2899687348158856,-0.2802785745626051,-0.5287692510574863,0.3426029634720459,-0.8787638725303728,-0.6246668149108057,0.7271779962626197,-0.8546401369701668,0.34473526130984367,-0.6520865676128947,0.6142715823186832,0.7177970168142552,0.1760110595184592,-0.35590188506722586,-0.269549612684719,-0.36010212832274946,-0.8058575118381577,0.45985558245524927,-0.488823073258669,0.30298074458528745,0.7832836145642577,-0.3037578550147413,0.012964804137737707,-0.08812234033136102,0.8908494603620892,-0.1046531696854005,-0.3423554523266069,-0.9774013343803766,-0.5049793289893985,-0.5003523884661701,-0.9489537807654567
-0.061707018434296934,0.07639905263355995,-0.830896457766849,0.1975626102405026,-0.17670633127487012,-0.7706228888501087,0.29275683574222044,0.23515766783332526,-0.22220271360021338,-0.40602711941022285,-0.9016849847132231,-0.6088913056579789,0.9252565341068314,-0.4974869554285388,-0.7193369095791098,0.8737562362083079,-0.7373577857146907,-0.7928321916378968,-0.5504043278504825,-0.5044769281975955,0.4441677866354241,0.5446536801262167,0.7137059092052354,0.7964194746275934,-0.06596006977592461,0.2639645478895821,0.539962702757384,0.02559292067658303,0.4987118785149389,-0.5718139345562275,-0.5088529299835106,-0.4520435917440905,0.36910676136574727,0.8074503747764186,-0.668979551120092,0.24219775479891836,-0.25002779983328627,-0.8320306477606069,-0.8276253004743499,-0.020013292490530854,0.12140999344689063,-0.6141129640245541,-0.20853492892400127,0.8180817952548084,0.4513556350254532,-0.8345427333522478,-0.19438547536253636,0.20570308505955204,-0.5837714577322967,0.0708111377189502
0.6279418185241841,-0.0359768372234851,-0.400389387847648,-0.39354441484922564,-0.08171653490090236,-0.5386947350960101,-0.2391354050474277,-0.2714647079365321,-0.5635670904245313,-0.10296260558767112,-0.205568835293777,-0.17145616115622964,-0.6307018323021093,-0.08543693890536275,-0.48343466121698353,-0.34489834058346014,0.13965021435663605,-0.9205692154108848,-0.430143993051715,0.7720974178266844,0.8144184802999002,0.6814308403631615,-0.306196070335236,0.35978512945076335,0.37976376754198726,0.5887254394990439,0.174521421317971,0.49146757025186805,0.15659931049779152,-0.7112261802112535,0.6072262031958773,0.0689401530373942,-0.8694275247783316,-0.19349858653532837,0.9110679433401649,0.6044472246863772,-0.6437926471470227,0.08545710660244521,0.45418387012382666,-0.03244097905737442,0.19921505310675025,-0.7938340601099451,-0.6862454524819347,0.7965703998538503,0.37374140399553923,-0.8582266408353821,-0.882622207624401,-0.7886379350186447,0.7168778190828282,0.5827634043457974
-0.22024257247827783,-0.990063612655186,0.8085849922910728,-0.8174957450352791,0.2935291199329485,0.6183871121610217,0.09512298465102131,-0.8565231654518783,-0.24809443009371457,0.9085088772943262,0.3910059837158095,-0.12917821178271793,0.24891353305804786,0.696316689591857,0.652312665931938,0.8929877015567262,-0.6449712314086908,0.555674276693571,-0.7595358897880503,-0.2781199562978046,-0.8038168510722581,0.1842011372665021,-0.9438919676083531,0.2817384286034629,-0.2970847754660495,-0.5839287405472856,-0.2890515618406625,0.2930146961116805,-0.6016347797290359,-0.8346157659099009,-0.1956034773104287,0.836849232301849,0.08306935136673044,0.5111625530087307,0.9727207495965119,0.9425017783628618,-0.7422824894406026,0.9281233327033667,0.5077162908635526,0.34915557355797355,0.7071166689031894,-0.7048112385044234,0.007961986360559448,0.4463562594986036,-0.2101897961857403,-0.7416456666443905,0.3951558288297784,-0.43147261974856765,-0.6887501559375503,-0.9397144674617008
-0.03966688775407978,0.24926242414007826,-0.7440868279507477,-0.15256591152678511,0.45924600996794196,-0.2884357259383731,-0.8830973849881567,-0.01576743927768165,-0.7417252056234792,0.33147898048742386,0.2200269588469811,0.24521903529079836,0.370290596360762,-0.24178154769556848,-0.2336263865606668,0.644005712138554,0.9294349048345154,-0.6792866626058515,-0.35464460233367356,-0.4334504682583039,-0.5017334086806582,0.65631178824455,0.9777107559557898,-0.8246731342460715,-0.5907626386676126,-0.33164920034403844,-0.7660165378182879,0.9481721543132141,0.35168553616139675,0.7184832193865718,-0.09784600601645377,-0.663609923578399,0.044168929912975496,0.4999983001449564,-0.8501006609034546,0.1621428472162495,-0.14502088277090353,0.21756033991815282,-0.7566309454613976,-0.6755568515109239,-0.09378348926605806,0.30867637549772453,0.8976740674631555,-0.931715902852713,0.2004162929677611,-0.003346711885897191,-0.008122476438441883,-0.22664665750706625,-0.6404411763368467,-0.37223018199912317
-0.8347037386392642,0.7521931526698953,0.8148632520815012,-0.05050591985725417,0.1199106687511019,0.21564495554279495,0.8701981713933128,0.6809589130254784,-0.6927434207738187,-0.9540249368444548,-0.030664491526601556,0.22421163308249448,-0.6564334255593004,-0.3110601497761629,0.08691419199720996,0.48847852078770115,0.7990636263278593,0.6495402003523426,-0.5810947249226893,0.6148945569286692,-0.29478208165795805,-0.5463879858917141,-0.34765071571815254,-0.6628666822404596,-0.10933293884923045,-0.13886718371617102,0.9992143294078392,0.31167515271347923,-0.700483447125992,-0.6325324597016079,0.5784860536669049,-0.06790180072649177,0.29033933167053727,-0.29194214886226433,-0.615306908393182,0.5475789439991522,0.8785158761984211,-0.2660428428098415,0.11089880629076632,0.9358726093077666,-0.5039692992468464,-0.7863851298109545,-0.41674983242870134,0.6909006093729247,0.15898948190084627,-0.6086891977184843,0.6755760243934967,-0.6595111784505697,-0.07101597525099201,-0.893053501221648
0.7870202460898688,0.39523141241523163,-0.7700197198132267,-0.07871879963194395,0.7950003063210851,-0.32517140699360103,-0.9233555634197649,0.0131163229771466,-0.4916256674847891,0.46626684485338754,0.8728565557291263,-0.028192172700466367,0.24611827841429768,0.8073007367747838,0.14404635758296913,0.5056354022072788,0.33059643050188137,-0.10533873173662367,-0.08810547730345475,0.48356174910208716,-0.5014305629932332,-0.17664911007775952,-0.7376266296224346,-0.9974644231195646,-0.0036914866376090982,-0.3685950783913652,-0.23532122809624278,0.39943038219800553,-0.21974240132016587,0.19223061901553495,-0.07084192897322095,-0.019396545154822475,-0.7488349179268206,0.6797260363923946,-0.7810841605108908,0.6158600311208431,-0.9427713269886734,0.25597377290409395,-0.21041315295085283,-0.8831618607526887,0.7718113601579303,-0.8811427050408328,-0.6962067166615594,-0.6072322693682425,-0.9650631467561108,-0.20079196176690128,0.8205388992994931,-0.44664018991737575,0.8338576682050117,-0.4211750362928711
-0.05032861231102215,0.11257289907396673,-0.8267032653416156,-0.747713142034576,-0.2741647427351137,-0.07852538442270418,0.6803161545554555,0.7361698625043838,-0.48166594787437744,0.5869935736566115,0.5059725544158575,0.7307928964729561,0.9048411307916931,-0.7687219888050573,-0.18912398235441708,-0.5270156742540161,0.3953726312831116,0.9255017875184977,0.3370812257814353,0.9585902608743603,0.900547431970434,-0.5157759713188057,0.6640481636376542,0.2886355250494709,0.42845654840177017,0.06988492956420467,0.6080576502743368,-0.6718730278970722,-0.8867791951549073,-0.26657029866060467,0.3731436502862354,0.36134827250552537,-0.12390248258900916,-0.69441410855826,0.034667690045395716,-0.5280387728025753,-0.550840948548627,0.5866535733367405,0.9467362875321492,-0.5247731086689074,-0.6522777234479583,-0.055812323283754184,0.6487099348199864,-0.9818361422666948,0.20331673958142837,-0.7778737238486809,-0.1517991671338852,-0.08041274102254481,0.20102764488798108,-0.9743656262195266
0.960009416746008,0.3863029119117146,-0.05472497064411608,-0.6632805417003036,-0.44465686570716456,-0.6269032874549544,-0.24127711512156624,-0.8498115668772626,0.7447284804344869,0.6557880050220606,0.3831673318114106,-0.6528725957989668,-0.7663196351929511,-0.70687266517896,0.2988287763759647,0.0848844362309863,0.007391217313563403,0.42042374747411837,0.11944370724010589,0.5678989141695121,0.1442964047692883,-0.22933077677263447,-0.5404264810565038,-0.9906408472621017,-0.960959024876516,-0.5962389346719634,-0.8745638105506808,-0.45600276068051304,-0.8022368916778623,0.038507624568138055,0.24909389242959923,0.7726763669838705,-0.7831461028546187,-0.4281250469312521,0.9009141018806293,-0.5616594762904245,-0.8066029341684616,-0.3109867637639788,-0.9980827683294261,0.41504975610060346,-0.4394029215426073,-0.6021176882235135,-0.6892194694476572,-0.32708801708601687,0.26371120754095567,0.36109866715949235,-0.9984830410249551,-0.90217872430908,0.4086470240845329,0.9504100307974973
-0.07730137753615562,-0.4503783937137513,-0.8823911115914448,0.9275285921345477,0.5930728274732894,-0.9560327804253023,0.5497324438072881,-0.45918341736549084,-0.9284978857174063,0.6857682721379281,0.9092092436712818,0.6076799252828212,0.8352342410883623,-0.8990391308872339,-0.07909277880002641,-0.584650440502163,0.2535550213953953,0.35500806109015837,0.6898793894382295,0.17060023136281222,-0.7908142584447126,-0.779947249662669,0.3701508101303177,0.830085631198407,0.5577421936060918,0.22102610368173936,0.06519494413970162,-0.9039743905055816,-0.17905318390071,-0.9160455007188336,0.9308672719158011,0.9107592124398822,0.5064666084844426,0.5733979705099382,-0.10990180399276084,0.1948111090470267,-0.2008637280497918,-0.7724997795235073,0.3955953490989591,-0.5985196797870215,-0.452510568192109,-0.8019587466878868,-0.8260864768159658,-0.31073454494323294,0.7071988191754225,0.20055239158613025,0.13265165092567033,0.5081876576906316,0.33888992657331796,-0.9884791063493199
-0.5572225359957268,-0.4636227781591642,-0.7353179014550446,0.23440514054845585,0.945953927936538,0.3169552540262287,0.4436626749987591,0.2795496182953441,0.00934991519433992,-0.5713358969977086,-0.7080663684797268,0.9518760303064691,-0.874018298060022,0.6605611279187282,-0.7044168533948075,0.7237649307411428,0.3826271240491812,0.9862878015693614,0.17671877818214088,-0.10717881200829804,0.4941434759408696,-0.11435648244004293,-0.6226517297251685,-0.7071249925665108,-0.7826418965641104,-0.7397598903293237,0.9626370577177714,-0.752055713213632,-0.9270165272896567,-0.850128195659191,-0.9437553602709661,0.11497743791202109,0.30013575511987545,0.5362391383695351,-0.5273826011012981,-0.40898084037237137,-0.03884508230848027,0.5758882139961988,-0.874542191808228,-0.8465404055186158,-0.7918752883130679,-0.33891885998911453,0.045077582674585615,-0.8050950917989576,0.281694889865452,-0.8764007175892041,-0.47037309247148607,-0.4745992715993229,0.29734257821467003,-0.6567127906134547
0.9684787014320606,0.18512952328935472,0.22225953508026086,0.4213160956355355,0.8020706556080174,-0.08710846796657945,0.3852803595290728,-0.04707207588554241,-0.057538071015225345,-0.553282349838559,-0.5393644384069382,0.39206282076033805,0.47495432785523306,-0.007776399619429997,0.3460292446321186,0.9160291113819969,0.44803649027199743,-0.06023950944327916,-0.38729497613638375,0.9845620303820518,0.6816299890170046,0.44194713104386063,0.28472274794280195,0.8002232678216477,0.6302959464452598,-0.6654845976956495,-0.6760730957685124,0.5761673497604278,0.46260362490976226,0.8830070011685607,0.6339698728797225,-0.17907291374459278,0.9674867653053721,0.7056607615448613,0.3299803721286977,0.31275446783180194,-0.18172672865203865,-0.47339055666257346,0.92839817718652,0.8639626267404164,-0.368623788427883,-0.671548461000236,0.5828758972682417,-0.5953563100565709,0.0021051607000199812,-0.5694391254065696,0.43903061406519495,-0.24947138151656578,-0.43703307150359527,-0.5973379349722149
-0.6806803938984024,0.39566953041924746,0.7994809798383832,-0.1843227992068347,0.6127988563426507,0.6298054520423999,0.2165862919009507,0.006058659634144092,0.33853823957198936,-0.6215913149312305,-0.3791981933397003,0.3592029029192274,0.3739007069049515,0.6925397298684788,0.671103188443807,0.7267143148273099,0.6329334139620454,-0.29398687517804023,0.02605083372672845,0.5948379488297547,0.8497598950971398,0.4571041720309499,-0.3413540100235287,0.822490404590808,-0.7084001999728704,-0.19327337617811235,-0.9074806895552979,-0.7234205609522015,-0.6548314465221681,-0.24213762239306202,0.6454166900873266,-0.23122611833575435,-0.22145342799276913,-0.11630981084411651,0.9960884048992916,0.9267582573169237,0.8713332540294016,-0.9152139897873026,0.28231070063423225,-0.5605081696193911,-0.2548839766360831,-0.2919393589119863,0.9279116421624781,-0.5625043087450018,0.1257399144765472,0.08610348736533524,-0.406812565589568,0.030582943552542652,0.26343524122659023,0.4906309264584201
0.5639924198738625,0.5838049875319145,0.9889546261331188,-0.8529334647582886,-0.051034146834069705,-0.47642210120940265,-0.8002182647642058,0.4031173858547238,0.7893482521752034,0.9072587701278109,0.5912704886092593,0.7760400878120527,-0.07205382803345783,0.004481572276193724,-0.7884616180337135,0.9387821631503303,-0.2104689599594538,0.9766304936990583,0.47572217056541466,0.978485118687686,0.9543900518899237,-0.6190451313621388,0.3427522609348004,-0.2468826129924251,0.38213311684990814,0.642228112127075,0.05227920758869553,-0.8983195296769613,-0.9905761275893151,0.09293419343037101,-0.36183927792981263,-0.5733376825491595,0.5986267210630762,0.9942345022239302,-0.9164417358237552,-0.5056553816385403,-0.2386878126852089,0.5589963821981725,0.4552817900056263,-0.504099340493455,-0.6910269122850488,-0.5174158141951561,-0.6934889647327963,-0.05084651157389375,0.11133695913833808,-0.8249344670620504,-0.3101003442580458,-0.6159920331185373,-0.450792893430189,-0.5553273440898896
-0.23128674128882354,-0.5000159633422215,-0.9934238765229871,-0.4530263062224906,-0.6628342285787429,-0.7725291880905559,-0.9052070522200425,-0.3534311002740612,-0.6696838448712986,0.645693960753671,-0.24599654428394457,-0.3571249080883838,-0.3620080076443861,-0.01388492669688779,-0.484780148259235,0.3889815703109387,-0.11219887674200002,-0.5206993900019169,0.6847546409242772,0.20287390223097468,0.010488624580026085,0.28691484763889863,0.1778568338873615,-0.5270987799783071,0.22180346838995035,-0.23738489110908811,0.2662357139805316,-0.37828065577869774,0.1176379859417016,-0.5621518934902463,0.6531099422425414,-0.27746705437322094,0.9721562021010919,-0.5551454682114529,-0.22448300340197724,-0.030650526920081966,0.747375721032475,0.11045426207399667,0.9424729548955366,-0.24869285402737662,-0.4917371422271999,0.575871505319024,0.23549027100146858,-0.2639953484120531,-0.9835293325264974,0.4896407151122355,-0.13969629936723715,0.32523687573817683,-0.8687459648959717,-0.571862492863122
0.42886709237546994,-0.42059934059878645,0.7071167503806551,0.9861329053495397,0.8427796553468645,-0.542318246047716,-0.22650750652549556,0.3908417607603869,0.4724026385164949,0.15019726526772037,-0.5402643191805864,0.1951860635322421,-0.57179751176106,-0.12984780895998782,-0.41532829117255765,-0.4110213465285799,0.6363457700193905,0.9827334337810394,-0.3428461178253397,0.321361748004507,0.6576643900458963,-0.17729429155427057,-0.010533593791610896,-0.24303773985703336,-0.6094977118746038,-0.5895468030224575,0.5303119181988778,0.34288691881709954,0.4658136819810782,0.785657498577053,0.028073984710010658,-0.21726945756426774,-0.47326117950266844,0.7703843430734473,0.8766052444935248,-0.1090033177570583,0.586593700620133,-0.18088685810122251,0.7864632471167403,0.5426751021338061,0.7117374916339314,0.76185716387543,0.8652384663477527,0.18272665536531107,-0.1983132890301189,-0.16701872278025343,-0.5834394616152464,0.202706175402674,0.008055773406126954,0.7529279949124887
0.10231585796400589,0.6955672707427045,-0.17232951696144938,-0.9223896196187659,-0.8024386045781552,0.29532228954452544,-0.8234794296797584,-0.22025151277651633,-0.7911097161091123,0.015458682950783564,-0.06347398244791769,0.13369320984899757,-0.8192991368613334,0.6628568214029703,-0.5302356115810045,0.07267781506748705,-0.8135867720091329,0.05380655776055321,-0.9270140989045479,-0.6028433164730762,-0.06267572103430363,0.2814383927875662,-0.42646740179103904,-0.5373550051693342,0.7217685069388343,0.9739776663210589,-0.7145556701131736,0.7026836982529444,-0.1529904835892778,0.8420395914045755,-0.36434321097503564,-0.3364289053802362,0.9442445315581547,0.604399867351056,0.03571570898950471,0.08008444007824089,0.30170391787195716,0.2962234638231106,-0.14484107130405655,0.03272507299253924,0.03727471631439527,-0.6574408278994363,-0.33618038423055074,-0.47696498061615067,-0.6600734577419628,0.8315419241883673,0.8638906337300963,0.8895888141600403,-0.09605252415226828,-0.33763572954193033
0.5193707276769922,-0.04408026507883023,0.7182617519291097,0.6615430235699061,-0.3788858313977864,0.7022963606748853,0.2668459189910446,0.015002162366194116,-0.6394595541706348,-0.8269974755317224,-0.21634929690522298,0.85196031444142,-0.9011088098810367,0.37169335711111084,0.6041828997957017,-0.8103921603243699,-0.3696348550583135,0.8437568506767824,0.639753900401196,0.9151350255368178,-0.24223337670138712,-0.40698754786889957,0.43439773463388864,0.04073030440248937,-0.12411761421996059,0.2258162089980862,0.45664733533338553,0.9683994564976097,0.6875853855628565,0.6331697660929457,-0.9399239030814709,-0.37789900946343813,0.9708982541515707,-0.9683645422502539,-0.7372803335372443,0.08131973347500676,0.5479048494486124,0.7771580931980793,-0.6027291459844776,0.8101641307644797,-0.399896835421108,0.46155613537430606,0.465290169736739,0.34406248881067514,-0.7365251177195405,0.20844334657223107,-0.5572571236995107,0.8547168921523549,0.44610495786221727,-0.8078780871415494
-0.9129255982068012,0.24341771986324667,0.4747367476781986,-0.0033549399088814713,0.7751924607427078,-0.5014886172973249,-0.7951858303643813,0.524291266824076,-0.1028241376701794,-0.16476715605308379,-0.7217813570205592,0.33063840310619486,0.40009761483468487,0.8799406523406794,0.03840070869823786,0.19997449310274118,0.18268457159979234,-0.18942847337072055,0.04057885390649241,0.2998757730283276,-0.8466236871699746,-0.3308997952974796,-0.8608763104545291,-0.880307966962443,0.7177356084632271,0.3509846384838903,-0.9589771324008991,0.5773640683838352,-0.46582291556012423,-0.854519743470393,-0.8102697531020299,0.22059546784984618,0.7858388408923603,0.8537310252870808,0.806444243224681,0.5459307426252762,0.6596165690549918,0.08688953012973433,0.21074047302262522,0.7538196445300375,0.8695200161873388,-0.7598448336113162,0.24589117219680257,0.1707801182701968,0.9078244894109625,-0.022960490605736128,0.3091228433289568,-0.8975635107386559,-0.507998711873356,0.003987163654846193
-0.5725930940574832,0.6125621809478876,-0.7498164286011414,-0.23620537184289236,-0.19334091093468053,-0.37276743853404193,0.7445582039404935,-0.9656439962016282,-0.19835737703939393,0.6833342022083174,0.7318428776927511,-0.6104679738408492,-0.43384685130447553,-0.1844939775607376,0.2160202051561826,0.1125360093983292,-0.8866131951152022,-0.8355958430533622,-0.4936631089162997,-0.8176436389345169,-0.8180171167448175,-0.6259572364047135,-0.35022161874553004,0.4163728064194545,0.1599930529665674,0.21873301426280078,0.9976158484939993,-0.10223557082225043,-0.03635655052337272,-0.4287208288234675,0.296462037260839,0.04301119776286788,-0.7774134165184388,0.10429248038940164,0.7265937151857026,-0.28393617923435277,0.2380173157549733,-0.4256205361916996,-0.9686449893426082,-0.09524140859187191,-0.5341672136280123,0.6992360695584261,0.06971649489008946,-0.3551585988708039,-0.21356873615687755,-0.20262592797357948,-0.3146495065021203,0.1748283980388562,0.19668766016927186,0.49269463024218285
-0.14544034359936697,-0.7249133480972145,-0.6819712428443817,0.6441667236010111,0.1247860764369938,0.5377767336741812,0.03794083023960382,0.5025068815083268,-0.9627834780223441,0.7596226165197181,-0.05874864113696532,-0.9598729814832381,-0.892871096793015,0.7114104693995096,0.3662215412026145,-0.491839987761887,0.30172813935917153,-0.9221884035278668,-0.30898764769129883,0.2740356915744001,0.5048049394561972,-0.07562011327323681,-0.07055259303014216,0.41919542387810527,0.8953212080806104,0.3336520431919834,0.5466890400009922,0.3614132049166846,0.4851363448682724,-0.7916639276277175,-0.18881410218067984,0.40845604250017276,-0.4902841536882331,0.7087988913351472,0.3281421315274069,0.8732758833208095,-0.2283620336240444,0.944635759738275,-0.13812664111897066,-0.7998129703073925,0.006758046888797886,0.5877446050298469,0.5134292667138979,0.3730606179884258,-0.02316465296064618,-0.9580629317520296,0.4688435004521895,-0.3555955500218315,0.19134695165284787,-0.22527524028118495
-0.7093182173676211,-0.7186059978559619,-0.23617715045250665,0.428299753657297,0.8084068695827042,-0.5437477100660922,-0.4937841438305638,0.08949435430267172,-0.10334410519893356,0.8653320851533638,-0.5753913761523624,0.8940751756335895,-0.18284356187586992,-0.45309131684748516,0.5368684217471745,0.5664757200191002,0.10129784726250379,-0.32108570834892214,-0.5696318163052437,0.7053522715561247,-0.06619097414283581,0.16514804731278376,0.42623576671975083,-0.2108396039844218,0.28693495426759164,-0.6404769406039824,-0.7562797619594714,0.6410948250304737,0.6304436956415531,0.31651972129786266,-0.2565998601208177,-0.7715232804259318,0.9956133394535815,-0.8145007647550092,0.7315780713547773,-0.3507774647752683,-0.6698844268069445,-0.32590483523051494,0.5235442041455901,-0.690615885986326,-0.3759032143268578,-0.8228962591710386,-0.9307954888999657,0.5967784399631759,0.3797410780845818,-0.33520311986167206,-0.8496720617216434,0.17775107787662048,-0.15454873816341685,-0.420658260630704
0.9542582712763795,0.7400213646091086,0.3750379891225706,0.5429718234603634,-0.6007034154669277,-0.42625897663088796,-0.5552443462545593,0.15823385378458388,-0.17373950430798002,0.10871978434072938,0.8504805273712266,-0.772755240290514,-0.6550870499408193,0.5694026402530104,-0.9758203558028652,-0.8889303244774228,0.2377968779685934,0.10886051850140177,0.31675879451424704,0.44291874090068484,0.7234746163847309,0.8668853341280409,9.728810607323446e-05,-0.4108141974598857,-0.7962153648432577,0.18636855841131839,0.2811862639275583,-0.19664097030561645,0.7027285327656566,-0.9537969929907205,-0.5691884820806462,0.5400868189158474,0.8445790213824921,-0.5602947048937977,0.858388952660579,0.4546144289587878,-0.8820759546034114,0.5085161257690196,0.8202839682485916,0.5373499743801097,-0.6883892462215261,0.8725831882137033,0.8235760847557911,0.7554987316354111,0.9801759683924797,-0.2939783576415773,0.7406396549374916,-0.8935829344461821,-0.9887322001850277,-0.2160279317116388
0.6278107250744202,0.2927942276875689,0.021556264795926205,0.802626968589791,0.010415682874248877,-0.6038341770126157,0.0276948671624615,0.4990584800089206,-0.6561962414275421,0.25171917911530284,0.047491978559823456,0.22451302564037057,0.8295235176291406,-0.5747165706246238,0.4160483317725726,0.6813301315263356,-0.7782973184492614,-0.5635307250605657,-0.3934195237690655,0.5198572490836612,-0.10180494377089444,-0.9200301152008286,-0.21175724391460626,0.7829604932384896,-0.04265460320226255,0.31729133482491234,-0.39976189417546004,0.14977151387527587,0.48369041116511424,0.6596734373238845,0.3955848777210196,-0.733617059559394,0.4013523074791301,-0.7682450523668857,-0.27640153198491113,-0.896447576788046,-0.49864525813910643,-0.8160945079611599,-0.5817299643097447,0.41845918802158977,-0.48901790727620287,-0.3437635802358001,-0.6876570707512473,0.4038422150736719,-0.6961569305607426,-0.295159326814158,0.6016902918806835,0.7374197793249526,0.5210179284026263,-0.4817635647263988
-0.2603962376562924,-0.8037169476887314,-0.7236011613052586,-0.1794908063658649,-0.5981028176697252,0.4735672649438252,-0.6901751859353193,0.07613132818638502,0.8491374773880229,0.6346697346018197,0.1079169920417854,-0.9892228000810831,-0.6101081941419673,-0.3343566279056145,-0.13260455568579144,-0.9653138776785832,-0.6361209840679486,-0.26725584790041834,-0.9168028705601382,0.06320805355586046,0.7741525515729983,-0.5920421225760287,0.2964707471912481,0.4529434431623389,0.4498056506812097,0.6208017827247333,0.34283168251579876,0.2397702447892489,0.011229906405241685,0.9961646469221257,0.379477745620013,0.2865505231121852,0.8555619808498875,0.9388238828947477,-0.3605970632428406,-0.2822987028856373,-0.31901611175536504,0.0024981010432790773,0.4085523421896783,0.11457299687765721,-0.6232843507211877,-0.6860892459215385,0.8978205575114021,0.458522278887185,-0.6225956660230567,0.025911345727296142,-0.8170911431234091,0.3419526622704193,0.5055145092270698,0.929702615618849
0.4641833254094606,0.9483507111858114,0.32896880884840307,-0.37455707726192033,0.11747201913267047,-0.6164297480171603,0.20002798856021775,0.27394404283417517,0.8811594426209627,-0.23979174215428622,-0.7774213890124979,-0.40241180947268873,-0.13416147705075587,-0.6309870760322117,-0.6666045492337149,-0.5369647568250245,0.051303595089977505,0.5473487566116672,0.45107215047093774,-0.032643419007147734,0.16513430757456282,0.4405526648885534,-0.3216186603133827,0.17383335878374218,0.3798640434890892,-0.41493697037899313,0.9356913624259856,-0.722814397648668,0.635436667379557,0.9518803489447047,-0.4338491403925224,0.48968517496738784,-0.7620484226357996,0.18713059502368967,-0.14454956000881103,0.19347129861878332,0.8280008749811424,0.6525520489129998,0.23645692317414713,0.6309845355121904,0.28151019756328144,0.8864984809508967,0.550294795026372,-0.31558350910629684,0.933725629535317,-0.4069169485445985,-0.09451919385318464,-0.9606253496891486,-0.008360252146430658,0.5830752730583774
-0.06506871209661469,-0.19801458541928296,0.23500839450449595,0.703386240714408,0.941659712627732,-0.5375670817838019,0.3052439017125793,-0.736749133887207,-0.8625853669710295,-0.5206702513851335,-0.1514380908555938,-0.06713669730456895,-0.9383662899717258,0.014625221549996126,-0.6235254504762017,0.37423360450253595,-0.04533897104122797,0.9243260545531605,0.5273547147047016,0.6159617774047274,0.36244081626353597,0.020553270271238655,-0.6743092144722567,-0.31501427220745637,-0.919608113192249,-0.014862408796653681,-0.45450565648502694,0.43476216811441504,0.18451996760884204,0.9869868624118973,-0.22326390338988966,0.09658595539774995,0.5920735306699075,0.13822552619900286,-0.5339255943848815,-0.1549962004089075,-0.5517365326014232,-0.04506731110784168,0.1422487871037501,-0.9210679646488147,-0.6155765098445437,0.6810855338346792,0.016139880935459705,-0.7644982636392054,-0.6392242216761376,-0.2016846983202255,0.7332166830301351,-0.7625981604919077,0.8449962151369727,-0.7701123176150382
-0.4334236646114531,-0.7429385697463344,0.7923764763212583,-0.15351648204408652,0.156472760925635,-0.3691657662972183,0.2785359888178893,0.9919492809296724,-0.16904365114218922,-0.35108183698417084,-0.06014824557250453,-0.8541039524321812,0.6855580886828821,-0.8230280356285061,-0.06419277734931406,-0.337040406642232,0.4155988215836133,0.7953787713385198,0.12391176609760568,-0.38988137503539766,-0.2070318573374652,0.6655436300399533,0.5524083711069936,-0.9234775576427978,-0.9791389302949377,0.33587363665718895,-0.39772191386402467,-0.4297694745772995,0.3774996290589019,-0.7490552696549785,0.07699229053661061,0.5436616597842657,0.5144408896759621,-0.6271977734388888,0.579343593553974,-0.47031973789039605,0.5545002141576288,-0.8786573140209604,0.08636623276951505,-0.8642171676912125,-0.15560541445799192,-0.632579241940558,0.3816937960576253,-0.29035912097974537,-0.5697756674272958,-0.12418630729193125,-0.7129349834407221,0.376379830815453,0.003239851093233992,-0.9770580507028812
0.2564452695591206,-0.5447920697780912,-0.3096845283845956,-0.9781089465555045,-0.48952910338032574,-0.6448437478688449,-0.786212513633481,0.049523271357630794,0.48894233204608994,-0.3309715541196381,0.5377707191566564,-0.7163469731042192,-0.8387470658544691,-0.08064633096195684,-0.532040995595207,0.5806090705114574,0.3404987055527011,0.8618639437739933,-0.11523104768078496,0.9479347671183028,-0.022458584415010585,0.4976136180304572,-0.24808380598038715,0.024176976051440868,0.6906620876943285,0.5649353699184699,0.7802088000665828,0.4773274095022938,0.8832046108835871,-0.5505531765849382,0.6438704904011919,0.6417887103757408,0.09347059584410056,0.4414292033344632,-0.5246250337424493,0.8502187223994807,-0.45560429138437075,-0.1941653612074017,0.7009047336329399,0.5816924917469773,0.8555080926853125,-0.326247241754721,-0.582507063721112,0.5318897264089885,-0.007067458245107017,-0.03223887522682001,-0.9266899291512573,-0.12771005752066933,0.5851091396947496,-0.7904461218383833
-0.5787959307080339,-0.7639390415996384,0.7843003407709163,-0.8981822572348012,-0.06529330196564165,-0.4489279676199097,-0.36302080984602625,0.8434821668870129,0.06857250868884679,-0.25808545814502415,-0.37773042808968227,-0.2532667941873581,-0.2073631796678863,-0.8326422892668932,0.4161489162702251,-0.26045376700838874,0.7702650138399261,-0.554518634069573,-0.0007714397107179138,-0.6836385274828388,0.9146857494687648,-0.47414737910962235,0.8734016986217198,0.44583924458005464,0.007325081429696567,-0.7496102272219275,0.5053880123279634,-0.7928386342200979,-0.7399672431748119,-0.01210429726549056,0.019973517084663328,0.40890628413922103,0.8477569537898996,0.7859240290009732,-0.484309555798341,0.6481654420834464,-0.041667866490977645,0.9696844354957156,0.05020908931949197,0.6468628193597722,-0.48318673105312515,-0.1988038946218308,0.41713927268547646,-0.4010808400659249,-0.4228667305817795,0.5603443240454492,-0.38154742468449265,0.40734700124240497,-0.5518107716640784,0.37570049785511284
0.8897842391892804,0.7095454872703666,0.4398498596902395,-0.085096761788088,-0.08989467072066992,0.37375539038605976,-0.5571371060629435,-0.15975822451941435,0.12287984692270526,-0.6134734277334215,0.6528262427735347,-0.42663005280647814,0.3184273906773851,0.5550794721750352,-0.5023998684221825,0.22204067984704234,-0.5141705239961643,-0.9961291218355172,0.5432953367236865,0.6955682051418194,0.5219924877708454,0.8857544297906559,0.21227872806764891,-0.9229014046078653,0.9839245137616992,0.9967310772344171,0.8273017937520141,0.13840570206253278,0.7586265818813143,-0.5663865824322167,0.4873976602588658,0.3246161767747284,-0.19321952483477267,0.31894420522409794,0.24266540595294595,-0.27335305261939635,0.8807678783041586,0.1367582434360336,0.42399101470979195,-0.2991865372819349,-0.7453919562006418,0.13695759528640084,0.7777801578001287,0.19401311418714318,0.2690233870047877,0.8136324316873452,0.21536448991684987,-0.6039993457464395,-0.263781769567745,0.37355497861824905
0.01274278530121864,-0.14278580207270353,0.31707708431895976,-0.9383953440921599,0.48973680135736275,-0.7903517606245026,-0.8202856327648816,0.2883191192604917,-0.7121376255394406,-0.5462725340557016,0.1362520567216855,0.44250422333582273,0.2653771066160069,0.9334672192583273,0.04174152033675871,0.28636725944674735,0.4286636108519444,-0.5528522211868155,0.007823991424602883,0.5884122165159613,0.1811244084049397,0.8071054401154781,-0.6864805140240684,0.1068024349501645,0.9923632978900238,-0.4922866213347973,0.9240298720702507,0.023841707989466165,-0.5645694389005442,-0.8217387176868783,0.6124595945789141,0.44750187466000046,0.8878318397982756,0.5577789661454893,0.8471660568992174,-0.39069830692226637,-0.3272904650236429,-0.314178376264041,0.10114173119554759,-0.9344970589338373,-0.5962958616754256,0.7600314853120076,-0.8288301250239146,-0.3537532470490935,0.9107339405051803,-0.10736802074373364,-0.9180752446218029,0.5032456812326951,0.6441604373707911,0.4809376023203068
-0.2650023074687915,-0.3457657752296963,0.9587074356067057,0.19264437389661215,0.1893788996311797,-0.9374594591266358,-0.8487834991512174,0.3418622791350532,-0.649820710426663,0.1572185060579666,0.28160730772926623,-0.9608741024102372,0.482146490519331,0.03998639409175042,-0.17939792311596414,0.1686437615571068,0.759429710499214,0.6644171273589042,-0.5758540369154673,-0.984496685459283,0.6277690211633923,-0.7908745636370135,0.14963522239399207,-0.09965733249618935,0.05790781065678574,0.6524252604989539,0.006008564682451367,0.2779744119628078,-0.19787411336643734,-0.49140132388938684,-0.20347812318580016,-0.9845101084045045,-0.0803511608361519,-0.25764871075269125,-0.7027264299884722,-0.28317312421606966,0.99159044516134,-0.1469576013089715,0.7621474750451586,0.9497022430885321,0.7020981871999297,0.7225327709641592,0.0007322848555139094,0.015182776384542795,-0.3633021714805158,0.5227012742362694,0.6803333107559685,-0.33158101905012427,-0.6568665644715938,-0.25470382135763536
-0.3324181021845133,-0.3890455317322191,0.7849050914850941,-0.69634370972919,0.7009880072875215,-0.05321307735227887,-0.5573302766375338,-0.9370340343040722,0.4955122438292461,0.49667467144663247,0.2806384063125943,-0.20260594645435692,-0.247607933953916,0.024980514827578904,-0.10124995869214859,0.9511978749802458,-0.28218183736570646,-0.41368401006925704,-0.3308193903857657,0.7809246224644131,0.8859996824043936,0.851083017906153,-0.8031059563981047,-0.23260550227649868,-0.8774539975365164,-0.061074869895560546,-0.3963791598980154,0.9868104761560117,-0.24078197263781764,0.8642358679421808,0.2492925942090075,-0.8537521924302252,0.8139967347149477,-0.8659617471490624,-0.36384666304166047,-0.7989880793885513,-0.20332398115485661,-0.13944878249340276,0.2851775549991048,0.7194330985254378,0.12044981844792668,0.9608888916412324,0.5877541175113321,-0.4150523388396279,-0.599245892835308,0.13049194842372736,-0.022006592173581918,-0.3736581307498712,-0.39070378838058484,-0.733340934359134
0.7354018710879131,0.8191567045647252,0.07804496622062052,0.4763539676379164,0.4847672789915507,-0.7119490240556863,0.17503809287205996,0.558904708042152,-0.11185422792155342,-0.5128203771166991,-0.26961767476521004,0.6752377405807594,0.9268058883998525,-0.606733222049449,-0.45865663249653066,0.9811108491515023,-0.34205245593849054,-0.7093907450349677,0.18002131695439472,-0.3293518069075736,-0.3232344236865934,-0.2613691035729159,-0.6153182437524293,-0.5827860647193672,-0.7785308096891749,-0.1237802583244646,0.5506798400647362,-0.2439991547710293,0.4559193206308234,0.045922364018177064,-0.7015274272157596,0.6794009748326264,0.8787468638373774,-0.16079179522425813,-0.8186383234456525,0.5062723361327566,-0.44264208566469887,0.6733211634624653,-0.9957111801901309,-0.18990631626920385,0.27072334138937637,0.35263698094480134,-0.4040633423537108,0.48837263745242976,-0.3803018038521109,-0.06984454859342493,-0.14453870667886937,0.018216254365813644,-0.9417596611241672,-0.989874195424495
0.7211167582279899,0.6118163225427976,0.5541307138339631,-0.393762970773586,-0.9434873967301017,-0.49911446417633454,-0.9470884756036131,-0.7644788628088521,-0.47436802420207225,0.9610449889287472,0.43387787693805846,-0.14469625314391232,0.584929404940143,-0.12300851036779836,0.524152372253517,-0.9688330311765448,0.37399988830025865,0.38418381184874695,0.3159283440227394,-0.5589671427878357,0.4461885976618485,-0.23141964299525086,0.1567411237482189,-0.34163583258084773,-0.5600326939079328,-0.6723242298806286,0.28120614526542553,0.31891215622758384,0.30303461303739676,-0.09602222502117885,0.7875806388904502,0.07069648344463075,0.5613722060384776,-0.46852192427640726,0.5073477932363185,-0.8611275525599125,-0.17427610007684136,0.9073843449498092,-0.9117049676546444,-0.21150601397818836,0.49592417272323874,0.665816979097613,0.934252380872875,0.3325351949686607,-0.1620072836758465,-0.4428430708529918,0.8779514899630069,-0.577298251011216,-0.5928141367799804,0.03869544775001632
0.06873940217424179,0.47740481535247925,0.578613390912453,-0.3756067908132471,0.625512329837615,-0.21931677323972876,0.13944925738492076,0.9111394832071813,-0.9267954048285899,0.016503913144552018,0.9356108197613544,0.2473976407038272,-0.8261559784993272,0.5392369943833442,0.17035095868962702,0.6214486098482662,-0.5081120772352687,0.6873364630881504,0.10813010047714611,-0.5284881405299051,-0.515653056235952,0.45343692710740713,0.6099075248073026,-0.3740290747836027,0.0931399658395462,-0.5793962118294884,-0.7310188959381844,-0.6404848372130096,-0.29084207652373506,-0.19655182018817563,0.568257582209985,0.2738565239465913,0.6433354490787239,-0.6803724639044331,0.13329647756096163,-0.8806634582892449,-0.1925005215534854,0.30917199167436193,0.3218391672584474,-0.9769575510379337,-0.509491949421989,-0.7667860183566809,0.625877938759933,0.41287042704624843,0.5758811617428656,0.4906952836016458,0.41746314212994784,0.008907792443128781,-0.8528049409484793,0.5728794128397038
-0.4153942012660181,0.642785904559439,-0.0012832812068452881,0.11087951905204096,-0.14574841523704818,0.5344941778509099,-0.31460578476852363,-0.8325084177587446,0.8038623083679,0.4161172351749125,0.2897704647249303,-0.2776853512366052,-0.513290765202187,-0.9846686844272232,0.47113283756002555,-0.9380593201546602,-0.4650306689969337,-0.3613589659431762,-0.8306956303781226,0.46352391564113093,0.5309900868757814,-0.3120212130797061,0.44334430183391804,-0.25805402581816983,0.46020727114887905,0.9918440866470343,0.5416495918845761,-0.9116939918888717,0.8473366569516595,-0.27354293489201187,-0.004623193318322727,-0.28836356118604356,0.053859095967003334,0.6887929189218558,-0.07380026817799556,0.04502784263560444,-0.9909841761372217,0.5871350915246804,-0.17404711859008004,0.7595881769597655,0.7860938912722246,-0.07914041403411165,-0.5994982094283843,-0.3764497671587306,-0.8485503309709526,0.9200059189321829,-0.94165733680466,-0.7351914509007453,0.09805959489198723,-0.608999029197494
0.3776665237430651,0.6453049664738829,-0.08079186536803806,0.4914812590413382,-0.7703293412663297,-0.7567554753273773,-0.46875784902383555,0.6627864111230978,-0.12392269420614499,0.24250935100880777,0.789941375944592,0.9799175733481721,0.9619583246744307,0.20330891946307472,-0.009454637549482392,-0.9452978689431196,-0.22412490016093556,-0.10506804112541579,-0.11647105468787511,0.27032786164113964,-0.02987153276275123,0.5100153646245884,-0.7724626032337657,-0.4655096828651636,0.7580523781162128,0.013592405503843441,0.29883310637040394,0.2004321696727005,0.9946663293257392,-0.208279832736185,0.18273753236069534,-0.8100548186890537,0.43954165343858154,0.3394876261315227,0.4276578104615746,0.7090716941690298,-0.4182373295637084,0.8834010367938714,0.31740426650135967,-0.2162481153678587,0.6777982451202927,-0.6243070249588822,-0.0663917353244643,-0.4840029256781886,0.18572938696548436,0.6517664564562421,-0.8827550723348389,-0.5792999667637435,0.4433874372742437,-0.7407184217319516
0.49113657224408136,-0.5882865082753961,0.9887875622096051,-0.3827072052947017,-0.2900281630683813,0.4032285722495337,0.8166050701535744,0.3166572856924339,0.559536496555058,0.03716813075381198,0.7786545369760396,0.5483370257960218,0.18162785484308563,-0.4593189461231124,-0.8101981995206025,0.00031586258322713334,-0.4287174173119602,-0.48888149036791284,-0.7794525470990913,0.7517066324105738,0.6758213727067593,-0.7151209729187537,0.8888391604568714,-0.4122216903425715,0.9865219030120937,0.630155728029282,0.7478345844948264,-0.4492005011688679,0.7913325144465099,0.03211493374512131,-0.9996111389697803,0.8831311572751253,-0.9244472070062663,0.5691111038078764,-0.2772809794167316,-0.7078198974492216,-0.6510922849489506,-0.05403030560672961,0.13873786129682164,0.4570646232413633,0.07718752031822207,-0.745478040084641,0.9178761958369139,-0.8453307325415381,-0.22654135077026005,-0.28403138513428006,-0.801475309416176,0.6805258923888796,0.23766141132413365,0.3710847040675659
0.25608661844297453,0.24757448564425866,0.38989338210371793,-0.03223943839239307,-0.18091469540545912,-0.30606070194120905,-0.18411156363943837,0.4106134816084641,0.4516843233700848,0.8286201910438177,-0.23028760711986573,0.5506593664600002,0.9048820157635921,-0.44286984118902173,-0.388676199898087,0.4851170708810537,0.4211720007067452,-0.1023266256144173,-0.9389650874886005,-0.37484303572897637,-0.49530901667338545,-0.6905471823748348,-0.12606637658291275,-0.7754047706032811,0.05261168117923243,-0.3174134895552313,0.4915996552233659,-0.6374307990876371,0.4097171427615258,-0.48378576279383556,-0.6199456645850738,0.7472309801821894,-0.0639399599056294,0.6789062327626698,-0.8626027722846004,0.006200701772990369,0.0779513548568771,0.3411519080110863,0.8271661930259632,0.04204543308612296,0.3930529119373961,0.3474576657561419,0.04059645897562636,-0.6157275772030005,0.3693313826389746,0.6234896968670087,0.4858057731879435,0.5003478252642815,-0.8801907270809035,0.6710938780101852
0.3577695295567622,-0.4867653830592338,-0.3702641196473342,-0.42420995968422814,-0.0683733154118813,0.8917380540412756,-0.9419994642692467,-0.4117286403234147,0.7330384428705328,-0.019692489999234453,-0.9809355391373669,-0.3288260973031084,0.19233683076492802,-0.12492442959132843,-0.783763062865601,0.05455930237218409,0.5068562231180338,0.26666876558307684,-0.8248250292293519,0.0708241339979081,-0.4230777415708513,0.05954996205739593,-0.5507342988898035,0.5654756384838362,0.23717863091931202,0.6063731837571747,0.37679751949520457,-0.2540219937330156,0.84179626943993,0.8837397647683013,-0.1483043553249883,0.7372415697804773,-0.3383951059036303,0.1516723243257605,-0.8658110381368076,0.32975686340282606,-0.9525719495689693,-0.8489673083172996,0.2698009866970804,0.1964335319658821,-0.42917115123998395,-0.34661193579498695,-0.5963570299365769,0.3076839050693465,0.42702759427476233,-0.7520277411415568,-0.349780688363281,0.5029852045633252,0.15959218821135157,0.981481721423524
0.16008806929779396,0.2763961349931564,0.16233535008246858,0.6626149575412239,0.07434676103373927,-0.5135599286586789,-0.11326907903221839,0.38912221632842003,-0.3102440556276841,0.5784713891236594,0.7376819500652035,0.9900110542018554,-0.2292910085217813,0.5296196889530486,-0.7388043950655617,-0.44292005644063415,0.6801276020829984,0.13126606468836777,-0.3428293413477057,0.031289298893318995,0.5681089477542435,-0.16687315817318038,0.6554940196690386,0.17919051017897092,0.7777052783335666,-0.5469590961330861,0.9539324088989931,0.027871709565064795,0.047871376712184,-0.32134244102452403,0.5061476448876963,-0.16230333484301374,-0.512131115697161,-0.4658649399181679,-0.7780035004614015,0.5438171406961165,0.8021866403359356,0.6979838833261004,0.6420485683014959,-0.1539370651427091,-0.47621970976606665,0.8765851846872694,-0.7589744344419966,0.19123828657609865,-0.17960135800137145,-0.46169984267632846,0.8650719776525205,0.9233642335370007,-0.11022755193965206,-0.07227984896392736
0.4166603504334109,-0.7627399009732129,0.4613936599804681,0.7366734774592962,-0.3059360929699829,0.8180745042830918,-0.8383053455868603,0.1116480069876774,-0.0029975265236650284,-0.8352430027703713,0.8092295464904915,0.4302381574323694,0.9409396560015375,-0.3778728921629946,0.6386400848323263,-0.6771300774198442,0.7250791379796676,0.7123198553532006,0.6726922109880447,0.3418199750626367,-0.6486862669198126,-0.3945233440720166,-0.585428739693654,0.7543518373586415,0.7165943061095585,0.974011701770288,0.11675840163501006,0.22172868618992259,-0.3623774717119358,-0.8639746020810185,-0.9436630276072602,0.18082725629413932,-0.22078829096017694,0.0483810057483226,-0.7647992080727251,-0.5649826907101225,-0.6896145991546777,-0.8811346824142335,0.7346703488937338,-0.3713270561941564,0.968042910707766,0.8574454092531897,-0.14303175239664045,0.7270053114123878,0.7473064066368648,0.3575529251263405,0.011305100470401563,0.8145655075798436,0.7351751670717362,-0.19323741955377782
-0.6396395694740946,0.8421378537343152,0.19370665362465422,0.6098141214528616,0.8050457936878113,-0.08336398777537113,0.7560958012134609,0.24278373166345923,0.7785204894753563,0.251948344543218,0.9743191960667477,0.03955315117665592,-0.3714218538453219,-0.8771337195928928,0.6368915208515825,0.4900867476084113,-0.38536553445790156,-0.009744947008199722,0.1200033024833389,0.007772858835821461,0.8594809588485027,0.8557102693568462,0.8280772856524372,0.9736932374812891,-0.6373314630208525,0.9545546214435344,-0.9737210721392914,0.3192977499172934,0.37803721297171944,0.7829561950263753,0.6453536414958471,-0.7452681419098809,-0.16996965757496452,0.7166947481568268,0.7905563537709251,-0.35313713809940706,-0.17376609430539391,0.1423630612679858,0.8618555058727567,-0.008411922140542982,-0.052549895004210034,-0.13203135335705074,0.6472536635863054,0.5833668130557658,0.2070762865252216,0.03874959428568281,0.7575546270091191,0.7600782117491423,-0.5297573665734222,0.17907829313050383
-0.4914746010903145,-0.6483748262464282,0.8647684662422322,0.7768457637013303,-0.3328393185124241,-0.8368370609984367,0.06789716827350567,-0.9041283535106579,0.3110526732455211,-0.1043045082242684,-0.5713997334581989,-0.7898234925801203,-0.12233340353838706,-0.025412238532649734,-0.9488788323909852,0.6240174953600359,-0.952583384146342,0.9097096274116528,-0.7332678727492268,0.813551689589478,-0.2481374349833576,-0.5671344905173872,0.029020511107680114,-0.7726123728652017,0.5625549573700191,0.6308077799515465,0.51780162012009,0.8081372220247323,-0.036925642687297366,0.04010772387480732,0.6572406231850597,-0.5007617067545925,-0.7238450845873523,0.9901930488480474,-0.6285751072771263,0.6529263121091078,0.3771184741030795,0.41437946616976573,-0.10410449889606144,-0.8847331301106192,-0.7532608011283712,0.5415726265519644,0.09503527681684265,-0.6070006480938188,0.9871814693738661,0.4695529507103058,-0.7843161156072778,0.25103207528878835,-0.9556762003326583,-0.22365649194899562
0.044155139583609615,-0.04845221559997548,-0.4255487556418812,-0.8774798211712935,0.8434183720410513,-0.5051458420950276,-0.20785653919293723,0.3986859595418877,0.8020252003251661,0.6947704727062881,-0.36954244224868327,-0.6318338110703647,0.06111701445681661,-0.9327495138184058,0.999515758224788,-0.5430115555557866,-0.5697238488081054,0.9994787345446497,-0.705841821894528,-0.9505059230367605,0.993365929506678,0.0996307045921988,0.01852889621200271,-0.9439053140451062,-0.33216891012897487,-0.4978327661319095,-0.6811165414190242,0.771328039111698,-0.9627048008230872,0.9099675864232871,0.5160045894211653,-0.9023718550845852,0.15209997316460144,-0.08501623097245214,0.30265504522133135,0.37658566442566876,0.8769002380013405,0.23996590307440058,0.008597083521766136,-0.9663851630945376,-0.4954676088427753,0.689486065567481,-0.49460860521268735,-0.13381399394449234,-0.8595964174579902,-0.5197263052120668,-0.13557901400298522,-0.8854556968783812,0.5139124546341364,-0.3611260164635963
0.04988575113042648,0.6669683548389252,-0.12453466517568834,0.6618716457085281,0.2866490517889454,0.23916978169932512,0.3915115091726611,-0.12372248533432206,-0.7576912388213652,-0.8625862071565401,0.4947712749587877,0.5567139569310835,-0.9541007447495011,-0.13936878092310134,-0.9502727132183935,-0.6130695492009208,0.4293954088029883,-0.5728251619009824,0.5482700788086902,-0.9534130613335878,0.25631848233245713,-0.7737769891535783,0.4970200918418133,-0.4042657094764813,0.565249126955328,0.2004266104087956,-0.07418844026306959,0.6195327974347759,0.23898240001591242,0.19290733379466007,0.5335816494291291,0.050361868191163506,0.6183147248792885,-0.5700154348321567,0.6827566501960014,0.13057505955862492,-0.1478517990698225,-0.37229025391174364,0.24880639790332681,0.2283072410446385,0.6378252779416368,-0.8683257964323526,-0.9438651951682623,0.6832743942008255,0.4760582185730189,0.7571189330801219,0.20531104304021697,-0.5968713716099268,-0.559330107633136,-0.2796713334595279
-0.7451311001617744,-0.28025686008439454,-0.7436280726936153,-0.2818886824028358,-0.7172472908639937,-0.8855005122975782,0.38204312629950543,0.27338991922218525,-0.7536643909528258,-0.928206776409604,0.4144163318835926,-0.8978649019376138,0.37065908449035867,0.831053349122168,-0.2821401927847281,0.278272656190826,-0.2000702706561993,-0.9721363736582864,-0.44440775753225426,0.6524086929378958,-0.5655517215194595,0.9909175613299878,-0.049396367806120556,-0.902361583762422,-0.15516503599742992,0.4353995973511975,-0.10975644424441056,0.18852518279891373,-0.18141908207214752,-0.5934880052118079,-0.20201460328018395,0.3742599820422855,0.07993921722596486,0.26603754195713747,0.22896666207953376,-0.6678831114402637,0.4466844162792101,0.6320062120911453,-0.29550122982114935,0.10378258281452879,-0.5882815233496692,-0.13591994627627302,-0.3820796217558854,-0.5817760684946433,-0.13769888513413986,0.14950373301645192,-0.14136752903663286,-0.1700185328141286,-0.5444419855859588,-0.798783035344875
0.4120899795157943,-0.012923955790000052,-0.018094319007802895,-0.427393301238448,-0.2663874430108667,0.09576997419377475,-0.591445316078906,-0.6815535632310677,-0.6377401841676545,-0.07765586140970315,0.97027540357605,0.6798129630000238,-0.7391879549338203,0.5478102249707364,0.874073361505644,0.5899610291786987,-0.020858307671925314,-0.6687527647804206,0.4317934484612559,-0.4626384874310583,-0.9863614191815447,-0.21785975623421583,-0.662774099646647,0.7653886451073106,0.028880654160000407,0.9417027768396462,0.24256809743288554,0.45588965850605934,0.8417374591460708,-0.8261703105439822,-0.7650154768577203,0.10952549443191761,-0.7840809095906993,0.9463131072287797,-0.7746685102823957,0.6807607532708884,0.6381280517898168,-0.43081963349010455,-0.12780854812860387,-0.8438655118217672,-0.4803986132535051,0.8994744841912661,0.8215356093032895,-0.6724161595716278,-0.49563829308356333,0.845278576534545,0.2648538392737436,0.5020760773328253,0.23795022469953608,-0.6638624323098562
-0.08686662374900633,0.11841532924970888,-0.834445903907719,0.4400404862616575,-0.14673859053327354,0.9587393754013263,-0.12304359816398369,0.6149116465069558,-0.7122422929491464,-0.22409513552631644,0.40814789474417024,0.9180995321908596,0.0941621857745083,0.8804777242950926,0.6250154146418153,0.5654071168673822,0.11907120128800808,0.7447821208826539,-0.7608556957446234,-0.6711238990028973,0.9349107891613924,-0.3039946892826181,-0.6708101720507164,-0.2594214199778466,-0.15315043780254323,0.3409637614221246,0.7824723191396125,0.7949252157600032,-0.8707859286100725,-0.24975079578071524,-0.1719169087089636,0.6514868818435109,0.32333014196257703,0.28632707339147334,0.3204071450256447,-0.34866041292517913,-0.4384810424896586,-0.4213660581900708,0.5655528399200398,0.31354175518231386,0.9003346358171455,0.08634152760459746,-0.47777502182650533,0.15473919929057534,-0.8476197058760543,0.042662038946119085,0.23874769088667147,-0.7009587692241848,0.2620927070562977,-0.6837990716038216
-0.41602404931730275,-0.7319592334685838,-0.02190959203130538,-0.25633851862210977,0.4016242398811798,0.36807381535625683,-0.6005101994820692,0.6323515148714202,0.2829025558432796,0.5970361728147572,0.665089409017168,0.5335346651682821,0.921086373828487,0.7840278798551005,-0.682203419465105,0.5300387740291287,0.18232521696706272,-0.4622424752304326,-0.2974639533653741,0.2890765666084507,0.5491003872422233,0.5767353245151292,0.31219913203599636,-0.27314125051084825,0.9963649822102757,-0.869377321719623,0.4447878246354805,0.6036409269410856,-0.29601655283192263,-0.7156929392192775,-0.11118034059949033,0.42840413918315046,-0.3640303874899389,-0.47336430922430606,0.11820427203132,-0.2667143536849118,0.5082719155972312,0.25810726307566534,-0.46561119761381997,-0.5433527050859428,-0.6768612389872195,0.4275228268844753,0.14910078174629104,0.5316207909808743,-0.3323365901767499,0.1696682375051839,-0.4954311225846486,0.10821731285080527,0.7789895038847044,-0.13665327569975771
0.4798894904980566,0.001921344822387372,-0.8036676096665168,0.6250345016689957,0.8664259253330109,-0.03210450672036913,-0.4929228890492,-0.3612757379894119,-0.16044994400573176,-0.6623984882765463,-0.4123663076339532,0.7957491098434635,-0.5633772119493224,0.8614426875715792,0.9008888130176966,-0.7873284243039882,0.43969630034257223,-0.7876314340344369,0.011123305676902562,-0.1959955862815207,-0.2992908152316448,-0.3048692488849115,-0.6807900820844296,-0.3266630913064744,0.04431405646718156,-0.6847803541604464,-0.025186666358139154,-0.4335560548861107,-0.14540649980086318,0.8421405684146133,0.8351572506763048,-0.30406694683841906,0.7452538048003122,0.6851687676467665,0.6536716497543873,-0.3764923634826517,0.38358168455017794,-0.3861007501868805,0.5200283642143868,-0.8790478558716504,0.7422696478455407,0.23700361619192956,-0.5465984929842663,-0.7385342261867679,-0.2980194006936392,-0.4107862282488258,0.37707202628666103,0.7468774555127722,0.6622360095571834,-0.25168156894410465
-0.1637376257241958,0.8107950653347427,-0.5286658267554782,0.35620663287374255,-0.13940576095735846,-0.5478137258179788,0.5725880461685854,-0.5454784129276569,0.5027715524218883,0.1444512982200863,-0.2748179782481349,-0.7361486900544477,-0.3238610308245016,-0.2902861640762774,0.7386711735888474,-0.6030987163117806,-0.8189969408278608,-0.4864465234425338,0.12945769433948962,0.3166810060406059,-0.018266066545736148,0.4525512603782256,-0.747126674245393,0.703605362468351,-0.2288535891656719,0.596725247615967,0.20989861292985001,0.43163433090574366,-0.9417097087482894,0.839280752303508,0.7682993998193128,-0.2998033478299489,-0.45209233704670193,0.5134431408612612,0.10395463581560638,-0.1809078317969024,0.15808490257368335,-0.2906902627687096,-0.8619849874129772,-0.630541911754289,0.05806696045045445,-0.9550382514572536,-0.9528055041475632,-0.48182382347049735,0.8095479145983345,0.5706985057363043,-0.2751348289164528,0.20423431514000057,0.8669819189697092,-0.26612910363173004
0.12368135364418154,-0.8380952463798832,-0.6270992728158747,0.028719025417711985,-0.774027358105174,0.19808798412422135,-0.8829474841540333,-0.21130010070049643,-0.4938952847670208,0.09375917624820329,-0.8617893975648252,-0.7481432651769252,-0.7677806663051837,-0.3867375455656198,0.828905983873108,0.44090943828715445,0.9805423585341866,0.5450353413192434,0.7958536649106669,0.4346176627041023,-0.9185110077003219,0.7744608481421521,0.68101496156897,0.01394311965408479,0.11225975577373537,0.985630255261039,0.17895208735861212,-0.8993697813979553,0.7914722819454153,-0.3737429977085912,-0.7968809476931357,-0.8944411864878815,-0.594495482633119,-0.7508215247431791,-0.33704994344353334,-0.5182903741250778,0.957686446620956,-0.748219266980692,0.5855109273428514,-0.6430521797854089,0.4980874310943558,-0.5969258341697029,-0.5519095156502181,-0.6885395141136155,0.10231291205288495,-0.4858593449767673,-0.42565747695148515,0.867659603014976,-0.13330769189527758,0.6837246751189067
0.6785121374522533,0.23830529454994642,-0.1325481101210626,0.6825477313631867,0.020140027452424047,-0.9563036905563416,-0.6931111429127149,-0.1794112828596952,0.13741758108291835,0.5374366453344943,0.34939052217338595,-0.2614779556581627,0.6707938076780045,-0.06290643349509228,0.012074543117659875,-0.9787955463782937,-0.699700973950005,0.8054204439376552,0.15496590690991252,-0.9893075188171595,0.9963901581783746,-0.30250271768197223,-0.45447298214180776,-0.17787256940769647,-0.5483459945072567,-0.8791435678799617,-0.44701727131552593,-0.2348975272764684,-0.6666818108196122,0.4884655264677117,-0.7257484720163748,0.6259251118609035,0.26962046006194496,0.5556132091304391,0.9017158895830013,-0.04038407844514058,0.8476874899612576,0.774134772962554,0.7689357279915907,-0.41296039965286524,0.8667780000805322,-0.18143322553059915,-0.40696079629886417,-0.7516821134112984,-0.8301271689875096,0.5319345579616326,-0.9927909200961829,-0.7877034684388434,-0.0018370278050433564,0.008117169527965262
-0.217731909307053,-0.6304688291316917,-0.8182035641932671,0.5584764393602912,-0.08799630244631285,0.5535156294383096,0.7088518279164515,0.18017561713214048,0.7561900524349844,0.14782625288543294,-0.14259981906948838,-0.9648759423138554,-0.3065631090871431,-0.23815983368676852,0.5596291050765692,0.9935198672358259,-0.6292569965153016,-0.514245697669772,0.2545703233871106,0.5123168654834839,0.38431503879691487,0.9807577853578939,0.7918675560454148,0.13326027991162903,0.5918135522368703,0.42877216107431404,-0.08819742847819934,-0.8642295745418509,0.6153457349152931,0.49980941033716175,0.5238508367495048,0.8604563047375974,0.3942166298630827,-0.12930043973038297,-0.1940429631458923,0.6333840347137171,-0.34125869494117433,-0.25435041082156473,0.8521366567770506,0.14996861146471918,-0.12878043376608184,0.3165166501697009,0.1172287683088098,0.016690502096913584,-0.9738706503046471,0.7326580205545373,-0.07467563808730904,-0.06634565230097256,0.2175026544068278,-0.14279208235088892
-0.25114704425607937,-0.07616284819411312,0.9331840217922159,-0.38890249501026786,0.9028093483044511,-0.8098324062439389,0.855904319074758,0.3583570839088507,-0.01817852106736262,-0.9401670092874814,0.29324607018838456,-0.22515183380570958,-0.3735317084552092,0.09880836816560223,-0.7090866722712929,-0.7630128062484453,0.7662688732577561,0.5625953889795183,-0.11380416054189424,0.8725647552063067,0.9090311604668068,0.3827001957109363,0.6495767087590854,-0.3417528692856485,0.7452045712775204,-0.6996384122727485,-0.3486211356887382,-0.931791637106027,0.06803548419960903,0.3318435442726416,-0.9677436602103369,-0.6246326743482975,-0.18908880169549958,0.10598898166993376,0.0921705694517756,-0.03281912401020426,0.2713257011065674,0.41972456488850385,0.7505048905915556,-0.02968186053273081,0.9323643445435411,0.2241665260004283,-0.9092261391450294,-0.9244639013864452,-0.29404066219808844,-0.44487505814620065,-0.7901896018541117,0.9567699297777404,-0.0190971793457968,-0.5727121308680115
-0.18719184150476553,-0.21790091636051157,-0.7795628311695781,-0.6280809167452381,-0.44587277365875555,-0.3263737823010695,-0.2569345596147703,-0.29319628938709963,-0.7693105652533276,-0.042906098396698344,0.020082033092256535,0.4072249087562394,0.0778213315996964,-0.6103363625295745,0.4108328728842182,-0.6041812332296558,-0.4189044829443742,-0.96027746550702,-0.03550326984094199,-0.5045315886439431,-0.9000376578654206,-0.3417123593126068,0.4212726257758507,-0.31128699627439527,0.6228455587824395,0.8397102135769311,0.26009671085143926,-0.3200691013718675,-0.7057032250270758,-0.8915798293503844,0.3947405429486104,-0.6023874467090425,0.9783487270305108,0.8175587913356047,-0.7603082514949043,-0.14830270614696883,0.5355384966322028,0.9951243176519943,0.24614133914619607,0.1417842772377912,-0.8845882619998267,-0.173695483396619,0.14127972473778427,-0.719154492534913,-0.14306303368527284,-0.6161392451802516,0.11450514839493697,-0.5386102008027396,-0.7596078460133452,0.3241368025089316
-0.031297723616123485,0.7261549167904701,-0.37018730351988016,-0.31439540610597105,-0.04148647432156316,0.3707240328942355,0.4835307151298862,0.978642383753627,-0.9591672136563552,-0.5473808308722947,0.9324381550343451,-0.6624336688649374,-0.49237936071849564,0.1793541626276547,-0.2042599448508189,-0.3827820722872264,0.6372516447370202,0.6020532282336196,-0.7221455639053721,0.13090323448804086,0.6193412729727086,0.5502737141382498,0.9298873902705621,-0.7347996805438358,-0.5799847776819375,-0.34938168810434966,0.712018573582846,-0.8380172465505675,0.4409268999138165,0.005362207799129659,0.19842215813341668,0.5714505169123402,-0.6351677621854912,0.5601499634705925,0.4685179690620759,0.7387939758113493,0.32373012167017656,0.6744960240360913,-0.31343330002416203,0.8152553857386929,-0.9088539360457187,0.4849668268883496,-0.5372530350626157,-0.4733644362101769,0.8635763817197494,0.720716093302829,0.6594449321534004,0.22783384041630506,-0.5711422614143679,-0.5912540719493298
0.5372353542081899,0.08855274148126535,-0.867291398142432,0.6195597808263869,0.11738706694510914,-0.43627043987397907,0.8097320632965364,0.33323726579297186,-0.4053694478187694,0.6710894831888987,0.17382096418198278,0.10735078282164168,0.6054757049812818,0.1411820981952031,0.23331373578806935,0.5773619399424557,0.8512216234366742,0.9158368322629123,0.1796649284605245,0.6533618475979796,0.33797705709285986,0.8276516222983704,0.7766410366767798,0.6924157637977486,0.9976925486499642,-0.9362947738858264,0.9195089473046528,0.5526328275665496,-0.9121129706738568,0.14516591642816712,0.024479306136033885,0.014814592073546962,-0.5312432025702863,0.6412432222213844,-0.5930490441540462,-0.14190124181418662,0.8983988935039257,0.015281478673865534,-0.5747708139027007,-0.36244769804353705,-0.28964895827756354,-0.44601137271432445,-0.21131100361390587,-0.22627910354507264,0.43841944633298957,-0.5186914827342486,-0.07353319244564749,-0.1459133398055299,-0.6357334988660929,-0.17459135608576004
0.24976431331251425,0.8736321310864406,-0.2355601280828996,-0.9483753783922957,-0.037374540322099636,0.8357301934493323,-0.553529923781166,-0.0316139445965391,0.33563176920886495,0.09684508660659796,0.3892293831178567,0.7120298183427539,-0.6586097382763179,-0.5780250636468516,-0.5521470503438818,0.31040570956331737,-0.7760418519068342,0.45463568974350477,-0.15369109122663782,-0.17906675922876725,0.5441305074341282,0.008266454471454687,0.9608641929869665,-0.10247808090841626,0.6511473986417046,0.3868581331249348,-0.9422918644519279,-0.6909331571527456,-0.7402573944840077,0.6631820568556618,0.7926172985521054,0.7006946005354444,0.16980769302923404,-0.4868746337804396,0.001462464409476838,-0.11782847656891104,-0.8970732558247485,0.3679996631419441,-0.549846772010968,0.30515960307797096,-0.9819029845004286,-0.7527500657021277,-0.41386672325677953,-0.6744954175100306,0.449590526664047,0.7839665683119782,-0.8938412128424854,0.2726936481532444,-0.5747310661011049,0.5518193770151147
-0.7603016552589766,-0.9230217451749299,0.7128178760439344,-0.3887121809472601,0.874157634245455,-0.5486229836222365,0.9071115347091163,-0.7146067577314924,0.6260336574037972,-0.9977561451633429,0.7893478442169859,-0.8330353483847805,-0.09031869646653634,0.3868653428040464,-0.539573799208896,-0.6732982480643903,-0.9679011283013551,0.5122516499808573,-0.5377786360387158,0.8027511064156939,0.6670973842471143,-0.5478329560928468,0.8683969835370702,0.6253264985888499,0.22591641221355874,-0.7420642962016621,-0.3528433595115702,-0.3785619668833482,0.11882989388020915,0.07467195277742344,0.4482746209363241,0.9378036480243616,-0.8042985067378952,-0.35412936581415144,-0.6722446432242716,-0.5833858548970294,0.9844840142514791,0.7490564479032972,0.3770906175103984,-0.1988118224582056,-0.7111831878074986,-0.7853731624071804,-0.9004048260601378,0.9037232515771779,-0.6899346046815921,-0.546937657053492,0.7298108612358306,-0.6123570407167889,-0.5043612685809212,-0.7245854417057294
-0.5011893744235444,-0.48434592515474484,0.5249951460242303,-0.027092048517200595,-0.8410611110126325,0.7628141133630338,-0.9946770253438236,-0.005966096575454993,-0.10185310285684734,-0.23010557531667475,-0.9756077276374965,0.6091508799092749,-0.3978909841347993,-0.19269507074309622,0.48242221277196984,-0.8434015537810353,-0.504659769256339,-0.07711721752032441,0.8144992084421334,0.9608151138165861,0.9770700444883751,-0.2887601365211875,-0.7797674244968771,-0.37360913749500857,-0.9085991732896161,0.7031187409707395,-0.23993136702995776,-0.7908131218366721,0.4072440179193939,0.7664508982138606,0.1954118624909038,0.8593548688951782,0.9565008099792307,-0.4709687821329055,0.13214159036245787,-0.18117978842310067,-0.7610849566850856,-0.27420868326441794,0.2196368668864953,0.7928445399130205,-0.0463149006538216,-0.9154386257500767,-0.5343448467652265,0.9372750077858792,-0.23586890938319638,0.8075500451511072,-0.813202119916133,0.594697361073738,0.7850960729659989,-0.07621812904315117
-0.13303659264452916,0.9776659451027171,-0.664128033969812,0.6509711593077007,-0.7069879321914243,-0.19002558275249792,0.562677340441815,-0.648617308390714,-0.2511202983455738,0.9142882760839072,-0.22706357682883993,-0.16350292600674765,0.5377858745243315,-0.021118886522237812,0.13040069206360083,-0.3766322986947641,0.9849664118727864,-0.8609066387666673,-0.37135841710491335,-0.7855126430822054,0.19218371588575667,-0.7400087703103818,0.7050853584325073,0.7353727098458336,-0.9099177506863311,0.211224881958893,-0.0388620353130813,0.37776935892769214,-0.672310280636602,-0.5246020346744465,-0.5317046061925078,-0.7386956213769261,0.08066249025791483,0.1295665086379173,-0.6830173716627408,0.6834965578131824,-0.3244758127588222,-0.6772728791677834,-0.7983037942110441,0.3931103207921456,0.5452754156376548,-0.38938277316246483,0.22074808225940246,0.14389990833093336,0.001653118119547492,-0.17260473250747477,0.5036463731271386,-0.321359701847876,-0.2497247221950898,0.77031102348442
-0.872276485453905,0.37152419582739515,-0.1175593504146204,-0.39779655753135323,0.7599152929242796,0.5749063478633352,-0.7513336463672351,0.651644896789703,0.49967671927952517,0.7598961739863421,0.7827536154126469,-0.08964174907892397,0.85881927690668,0.031514992759988925,-0.8678901420055992,0.3828494787606178,-0.04345183458185553,0.3220980444513225,0.34530373773620593,0.9856438708429968,-0.570489332664444,0.9755471251529106,-0.9877872565569266,-0.5884180716163058,0.480019344450092,-0.4288214207591402,0.951697280107626,0.7566212737077173,-0.5844683447504182,0.40821378136560793,-0.01537505800458916,-0.7215101673693827,0.4377173641866131,-0.40109415896361056,-0.856172803357668,-0.518701995989527,0.829047032247052,-0.5917018681705694,-0.4421085120737922,0.05700535387140637,-0.5124215253418898,0.15165214753261091,0.619983677901658,0.24789569917816134,0.14785942641104333,-0.18748851437506897,-0.5257677565354174,0.24687988438132025,0.21128022924277678,0.9159978003327927
-0.39045701985396,0.9019495980751712,0.568078411018249,-0.5357867902082523,0.5710391713974342,-0.4065806547253492,-0.19278237860640868,0.7984210636958882,0.37635718804147267,-0.8642791995378639,-0.306250231483548,-0.5383181640946113,-0.638804562444431,-0.015314551152177835,0.787293114543871,-0.24117479535000585,-0.4869464363883428,-0.9892276675376801,-0.566287564809501,-0.2854263688684716,-0.012934905779868444,-0.7848140886480213,0.34663686277289985,-0.03475663746085511,0.5684924427650324,-0.2606784964939708,-0.06344479751651799,-0.3975903934761542,-0.7244076020059549,-0.49786675919225754,0.04106529632551248,-0.7351865001189857,-0.4914857483509021,0.43633663158443114,-0.9831843085598617,-0.9212531007190283,-0.6280004366275106,0.1250885203794626,-0.4791321653601688,0.09606710437945032,0.24752924125600506,-0.9573037589565028,0.5973971441067527,0.9520530117304992,0.9601549375219924,-0.1854337771234551,0.0656858219956904,-0.08579045715053013,-0.8314221005308298,0.4592147803986193
0.6615202095512637,-0.6805064791017104,-0.38983366085991766,0.36752236421844975,0.1282305747903033,0.6022361210405629,-0.48584480309580036,0.8548501432156733,0.26053610672663574,0.6657814836450436,-0.7356316857453835,0.6869200731347598,0.1884797407955563,0.6233798179999313,0.47707769993592797,0.9779707443855068,0.5876846229252783,0.6114472127771078,0.8694188596971697,-0.4289077975389356,-0.28859925499882955,0.03895940078600124,0.610113593193861,0.5576187155737033,0.3654892830638852,0.7499295614851657,0.93778487094144,0.7789735164568136,0.6918784717846412,0.02859178888988967,-0.4136868353711314,0.47172275345505144,-0.7317544965195317,0.4127866396737149,0.27510306629545944,0.15461381514350814,-0.7339924256686082,0.15319965774601285,-0.8707903610330405,-0.32131703912673615,0.06164122361907598,0.5434354575191316,-0.548059609304239,0.40956631923665165,-0.244862545765675,0.2375256403498761,-0.3234149356428385,-0.5592896364660811,0.7214849081806486,-0.2682543771006398
-0.9222979883719464,-0.013507199511200496,0.37284432242041554,-0.5914300099112987,-0.4723771216131927,0.18167974430413836,0.2685314334585184,0.39979134404715455,-0.9218676602705308,0.9704206978071802,-0.22984790748024575,-0.7218594710183992,0.07002228469669325,0.504718363655073,-0.49981719819928694,-0.7596223104219325,-0.970521893293997,-0.5743212193844709,-0.5781335643685646,-0.7622554968520899,-0.9634994416268834,-0.5533565131655424,0.3209089761648489,-0.8896311429129377,-0.26900028584502944,-0.9813155403047218,0.9182810185556496,0.9615131686595826,-0.30582784003630004,-0.13632157532603395,-0.9524632940964716,0.2528647970880574,0.5620696791323586,-0.37215615874263075,0.4762174689836076,-0.5016097824598958,0.3622652112999979,0.09778552712317046,-0.042523736211262264,0.11750220821674273,-0.6368693256160018,0.9449482525811638,-0.5216907628074797,-0.11960120388982198,0.15954103389210328,0.46781458146030075,0.010996245123323423,-0.6192108000406134,0.2507554412625258,0.8321329990574224
-0.9052413252481152,0.33108884728195953,-0.6299798140485776,0.4924329027419613,-0.9145873209885531,0.8532683108331109,-0.16170637846898894,0.21825184706483947,-0.7954669684773532,0.18733893877098584,0.1838663763997238,0.9232991384947306,0.20839485545107173,0.6450933824363374,0.6340922613633535,-0.7409901505239987,-0.45223796039924624,0.5736928379110492,0.5385838395168644,0.5868414318971937,0.6861175440771503,0.17099160708161742,0.6161330580744699,0.026413747247717168,0.7790455954822365,-0.48709320189282945,-0.8184946838959024,0.6377357198598304,0.30609790770764556,0.17017980421045953,-0.4249024791640109,0.41628507552807736,0.1498812214116766,0.5648573199379571,0.869577045316368,0.5494434939231005,-0.5903885480608739,0.4321181288224719,0.3659313101790126,0.8945744929842276,-0.8360428272495213,-0.7699104817223605,-0.06137362990926987,-0.9060104652882717,0.15138596480319377,-0.9847465198368495,0.2239394092784136,-0.09059189172080973,-0.5962987690394124,0.09095185423819585
-0.41278984659049467,0.40276915867375573,-0.2059225091859097,-0.14825558919072557,0.5968021668037665,0.6733155191951165,-0.7388276809562532,-0.917785068430613,0.2702393492245899,0.8366503332928851,0.26014377812262035,-0.5101810060390205,-0.38831045694912514,0.22744752173193772,-0.6451067745782679,-0.48835546830695054,-0.9456817391475016,-0.46489605366821374,-0.3199451322344624,-0.10833059259318267,0.3448773950771754,-0.3822506375735256,0.753038303227677,-0.6296133225250656,0.016369542106351,-0.5498211694299364,0.8782264844097634,-0.24541494233565309,0.5167567812946952,0.703748527618694,0.6749221939100704,-0.12658876610265568,-0.39079003766504317,0.03370896511464394,0.10185317828178553,0.47999177495399425,-0.3978730529048262,-0.9242754330986853,0.21571313534357595,-0.49338607345286467,-0.10911317149460431,-0.0948078032068913,0.22306963381098033,-0.6179244074812499,0.39232948346413343,0.44301828003833943,-0.691596241580168,0.7230440357976563,-0.8605553720453332,-0.7947845409045705
0.7363310311578143,-0.6099364962312978,0.3030950887315337,-0.863757371222909,-0.839089269447477,0.22183138252391388,-0.21781623835017638,0.8121622181178487,-0.5921581801229983,0.44544779405446644,-0.8435928474590738,-0.968208213709015,-0.2542175223136911,-0.8522064433116955,0.014485850228822317,0.4508898935677126,-0.5022673447911947,-0.9302688824720853,0.6301969509275115,-0.21896712169205923,0.19523345463800912,-0.7444358392447111,-0.0934163093152589,-0.4815941819551828,-0.7521309816650711,0.05244136285772283,-0.035488293806694604,-0.3645349170230803,0.4905198655975288,0.9499611411107097,-0.19033751930461118,-0.32965555579080275,0.09309457853729763,0.342015012172053,-0.53976653688213,-0.2775350110641205,-0.6671292592542095,-0.11479861414950099,-0.19278517868703937,0.9947659056348273,-0.4837631974398776,-0.1195365233886051,-0.3320174580456089,-0.5966986493490891,-0.9089000785433591,-0.8978978736891666,-0.6575112525388546,0.3688435618326392,0.08449364493822253,0.5077189123598566
0.6735153766654253,-0.31342788692999357,-0.9851752835185409,0.8252199289459079,0.48075992036752,-0.3165489802896485,0.2030296268053231,0.44686197820617457,0.5903604588623377,-0.6638549476247647,0.6494551925199447,0.20373042685789577,-0.9680717483288842,-0.34300834525193336,0.5933242655512907,0.9072701142536099,0.23884304092240338,-0.018546498572103776,-0.6537621342153495,-0.6166071368531879,-0.5986976160772609,0.6257687167142124,-0.6291901975062192,0.27541898048441327,0.48991306655302747,0.5933919431143471,0.036618540339197425,-0.17426074639389444,-0.24497903089758466,-0.4149214733054124,-0.38577356505447813,-0.032686597442034726,0.9373362824623924,-0.27807371171264916,-0.0532260326577213,-0.6570092843562289,-0.8450177492016827,0.7212813568481097,-0.623141844911181,-0.9959333642027732,0.9014618313607324,0.5009092049657415,-0.2789501219551902,0.16499773397719542,-0.50833152979929,-0.1984565956733244,0.17105190474029486,-0.7751466184917443,-0.01822524219758004,0.11675192849492733
-0.7422836208024086,-0.1854960661611612,0.43615571263426,0.8267085054003924,0.562433154325186,-0.7301160161497179,0.583762319995636,-0.15773570573089024,0.12303703870592375,0.7803130363457634,0.7241751168102064,0.05780713121763126,-0.43909883258679805,-0.5900119655970621,-0.927530854125117,0.010915605527140992,0.7374720251878503,-0.48291266946517464,-0.3452071058898334,-0.6605088894382567,0.8826818305675752,-0.12118816990126413,0.3378735234550253,-0.10971539468621705,0.050047258968295205,0.5345734614420581,-0.7340205519834347,-0.745665187085076,-0.21349242879346653,-0.9359859405563158,-0.9080512437828747,-0.8284914629072553,0.4712838258841736,-0.45216236990742986,0.9822290158404419,-0.748517871147914,0.6954281933739345,0.1338457384818268,0.8685020115195967,-0.8564996563253913,0.03911110988740485,-0.9429642213281899,0.747289626765878,0.8747846942837249,0.08877258820924416,-0.371052664245369,0.34216447718220144,0.08355325552372095,-0.9939557901317816,-0.5247147580806816
-0.7074906822755531,-0.4703114828430486,-0.7782372392009025,-0.3748982027319987,0.2010381259098677,-0.714171592682938,-0.538134094727925,-0.44967291081900296,0.2829777174504876,-0.29915060064402177,-0.24571669868604495,0.3730095321277743,0.7610840935369478,0.27320082355320596,-0.048134444092836515,0.697934420638132,-0.5434981120361455,0.694155494780934,-0.7335896471728456,-0.2188433324231852,-0.8546995183413933,0.8085434501205004,0.5414669920344972,0.12399378389589633,-0.2671898445524411,-0.44778709500798375,0.8659224029205774,0.48356062089449026,-0.1861817399551492,-0.5904499882448828,-0.9474901135710755,0.0641685297676633,0.5353365774166502,0.25431166764521607,0.057078560321356164,0.6426255329505314,0.40371519746324,0.010089683306769737,0.9512863130873999,-0.7728947831819027,-0.7893500181686985,-0.8499390891184184,-0.8594924273293422,0.7075664709389411,-0.1713219075507354,0.41974859329097247,-0.7127820591235771,-0.36262578096986375,0.8877441460305258,-0.4319511301365372
-0.7237938212012648,0.057264478574439504,-0.7751876226358986,-0.9527883479896195,-0.4181774952675801,-0.17508531907349334,-0.20035483868824921,-0.41357080286552217,-0.3341627022490796,-0.23846937483780395,0.2515217427794073,-0.004316028352308043,-0.04087778991556923,-0.7036356219946437,0.9420930109496779,0.717448124643138,0.929953712953526,-0.5477028068579988,-0.7490913992629505,0.040258777988609884,0.3074781742413786,-0.45475533151481384,-0.8052986189722021,-0.6606307606456416,-0.08378996558031426,-0.2699838085945925,0.8093584695678901,0.429919682143143,-0.03468079626422116,0.06569909330710055,0.7593058241632585,0.637344847300181,0.33301418519856385,-0.42844846462255226,0.5125854208833508,0.42721354527129773,0.025269737830360794,-0.5497112439313281,-0.38553415664059887,0.12068910488204676,0.43215125426447665,0.2000427598077359,0.35939020228247376,-0.9739647482238603,0.0390683515237783,0.473206940341767,0.8487242382045992,0.8690499517306258,0.13325531452363681,0.14488821902497973
0.8254628494876326,-0.8565552443046428,-0.0853629821473898,0.7838718455763286,-0.3006368548374292,-0.7368632434325773,-0.9289847612286449,-0.6345144449293846,0.5197910842590344,0.4869348793388314,0.5767294795915205,-0.16192632137328,0.9493388715806415,-0.1902176239982507,-0.7627691341715361,0.9490519337163624,0.42663313581380446,-0.730558576672275,0.8286765524089961,-0.403805666440777,0.5948707515855536,0.1317717070990554,-0.7363389060563507,0.13130522599026684,-0.07729049889409134,0.5307558760132012,0.6106692653416946,-0.3519043698703982,-0.6145938626496669,-0.36212476188037546,0.007585496848641626,0.20131069381429179,0.4413791293435235,-0.05201528344072426,-0.396253107836141,0.9856681967327356,-0.3180352677128496,0.7286465159877054,0.7457386973557972,-0.9683097550516261,-0.08175851389796551,-0.35526996186351123,0.7887164612552524,-0.8700912364884796,-0.5974744479934823,0.25053095972131434,-0.49133742038580885,0.6919696369367654,0.7859016544429048,-0.27280889380844475
-0.3022972404145525,0.3615886734973678,0.7487848947238085,-0.33989981235331956,-0.9253450701414039,0.3534466221933784,0.8260109438843574,0.05035055152089707,-0.617743464733536,-0.6575772977248135,0.5854470459631947,-0.5184196885300766,-0.05140051666755685,-0.4400518575353479,-0.37048592820073467,0.9566287210894678,-0.9568177352187209,0.7809938151806668,0.9765420378784075,-0.42526196847024067,0.4824205276289478,0.7674436568959668,-0.8099735971125218,0.1773319431085011,0.5371678280653716,-0.8136831259764119,0.5379776499640855,-0.7122941964090609,-0.37557065294087333,-0.6537411428744442,0.5722418020474538,0.3546727063843811,0.0964189554463859,-0.9937441559340999,-0.5338946311090224,0.1544707803739549,-0.976963270501317,0.20306383134102735,-0.6238337306562646,0.9968719526853661,0.7435154195417111,0.8012026323398741,0.3473740579421346,-0.6957524892568991,-0.23171141315638466,-0.615889165400312,0.2332689588982737,-0.6425827206102384,0.8165211815693864,-0.017642343292090357
0.25938743636539763,0.40507138715896107,0.1040344739732153,0.21280310956326554,-0.3118551441613985,-0.24091604948136336,0.30714318642251026,0.9654547907581684,-0.5943058305305038,-0.6699288870091924,0.41480032822046853,-0.7213533700684631,0.08895947254240721,0.6630530279342338,-0.8328320203374983,0.3434046793241349,0.1296154050584719,-0.8350833417481344,0.28869602062715094,0.790679155961765,-0.05669714317333141,0.1194767545740627,0.25770030645346875,0.8069171446751603,-0.15025686981111097,0.15593546220258359,0.1773529082666584,-0.4568003840531054,0.22974617327022273,-0.22394902870004796,0.8656725323171495,0.218014844548147,-0.03973429268601569,-0.689914429844824,0.17293649108976117,-0.08817476194327334,-0.921641668981704,-0.5417158922428189,0.9816448695867322,0.9434449398621644,-0.7119614479303034,-0.10935259323114144,-0.5855009128880534,-0.4697942467011782,0.24875250956057537,-0.2812147849569342,-0.8196579484582716,-0.4238901939620443,0.126144378726478,0.9629118458210584
-0.6966779672754855,0.34526352339200084,0.2325737997507893,0.296992646500725,-0.43098287585458306,-0.908980942003712,0.6665651324848565,0.3561275182596483,-0.7189814225757445,0.39113680936109374,-0.5920105236473295,0.7935650213301653,0.8364370054500023,0.4019355572258815,-0.10540515708955045,0.24651820805397395,0.5127681558702624,0.6100911506945904,0.13309953151534126,-0.011039255298260775,-0.4169146232032058,-0.16783554030319747,-0.9412015916530498,0.3461613641986786,-0.5947281121865375,-0.5543696688370017,0.6629427338831407,-0.2287789940104935,-0.9427394707474381,0.0811585975837521,-0.5782270814578856,-0.7988400270087749,0.17689686202316213,-0.621105214261938,0.4602078265924636,-0.7490667433151413,-0.010245448617473563,-0.8977724934428787,0.5946461764571443,0.7701427793635827,-0.23432818120172116,0.19552226587006216,-0.11526680821681579,-0.16635868130121845,-0.07821181954296785,0.45163852725062914,-0.30720804633121135,0.6013247340076878,0.7384181310638258,-0.45462979785649926
-0.06664394638193272,-0.13482873299293519,0.9403530723896893,-0.8884700292569593,0.6891586660001899,0.5650588714219366,-0.21694826134594725,-0.14507515529063297,-0.3540235160975047,0.7956106911224052,-0.14845281192119164,0.2186110293817427,-0.6150022321785773,0.06534024602809063,0.20312849652394915,0.9500854367923305,0.9114014672159841,-0.5615165226774308,-0.2628640233894004,-0.7221993392402494,0.09420931893359408,-0.04916300090388126,0.3153432420138478,-0.5320291883006836,-0.906587057849086,-0.8058637799455768,-0.6907985484651827,0.690162281183658,0.07294352606769594,-0.27274468899503734,-0.4345065675713108,-0.13456589463352697,-0.07684570394529433,0.46118980109684926,0.5018916606776967,0.36769630679336973,0.18571536830198931,-0.5004099144981075,0.9135560039185057,-0.5862210834957245,-0.6109511899157634,-0.23273092578277,-0.24658437158283375,0.7138534683222265,0.42105294672488813,0.8500555705735819,0.04726686431599991,0.624681623936155,-0.7593753947586241,0.8761396938389903
0.5840945220541475,0.39028501085614264,-0.8505512990627979,-0.4883882645133041,-0.09798094134307445,0.17030383976672903,0.43680266903869636,0.5933683274744397,0.8660388737499846,-0.903153890658937,0.029889727593306548,-0.8812951260574537,-0.5888697482635871,0.48217355486753544,0.211928311843115,0.22269286861524518,-0.3292781937486937,0.1651083318288048,0.3249789087143464,0.9347716821280068,0.18684447761706402,-0.6238810594578298,0.6445357324241748,0.710651498451504,0.9028813857833141,0.13798785149307247,0.8074780309534529,0.3291261775472317,-0.32380573480187835,-0.5189241289939766,0.3861156421820824,-0.47630901168141204,0.8051797667737507,-0.440183934296248,-0.849932243030939,-0.3293158535099895,-0.7093738040787975,-0.2244163345545609,-0.8548711022258848,0.912492559826689,0.37255514842772564,-0.7511241525959107,-0.7553725528840063,0.20170949391776494,0.9616801585704109,-0.6515900876801517,0.5274483114531975,-0.6828830006769305,-0.26727456249254766,0.26811045257161736
-0.051568257013405505,-0.5038457352543914,-0.9821161428736794,0.5367877870831194,-0.4606091076634067,-0.05135815541698663,-0.8773661143298019,-0.5991757906145961,-0.5115232982244599,0.8144072170574891,0.01626930084094813,0.1345528995532218,0.4206327413330747,-0.17555316588421455,-0.6430455983609767,0.5014806934386286,0.5793766374578578,-0.6380317317190906,-0.18266163360125753,-0.9963756483498069,0.9558109592747376,-0.2371669645773944,-0.0606801855824195,-0.49967191783996634,-0.10120446363543034,-0.11885339025245245,0.27628668550142554,-0.04338426733584699,-0.440442647863196,0.20077122129945757,0.06308629453180548,-0.9128727030878117,-0.33048716749908835,0.1867498605657969,0.753475327920382,0.6201082847527818,0.5555899584429828,-0.004187794069682393,-0.17506833461349725,0.40821179153308484,0.080909510134063,-0.27093848417194755,-0.23517858881214204,-0.8514016973047093,-0.5552538074195525,-0.39434395134040956,-0.9159415559200235,-0.3482596675423204,0.14952528963730038,-0.8017364028109418
-0.1380581451198447,0.3591193601079826,-0.6316438464224259,-0.2923645510547003,-0.8685210173207671,-0.46077065793764305,-0.9745529721988795,-0.6525177082491532,-0.1646109939673991,-0.7347364185705542,-0.00149242478400069,0.07138641399862178,-0.1083134340094708,0.5138907277588366,-0.9457928394291399,-0.09464485348220109,0.760360775676936,-0.025648028189621752,0.6833348910165211,0.867716363021439,-0.675133372115461,0.12680022410536917,-0.771853905997939,0.2879059322944528,0.7088513695286512,-0.8459614730100556,-0.5580158685570363,0.18928369725004202,-0.5665309072035384,0.22362583948211578,0.7737306521443774,0.15951665431300577,-0.20828609002190523,0.988921608322677,-0.9979173489748517,0.4214339898280004,0.3873377427310275,-0.9615479510843152,-0.9090792611993456,0.3428764000797161,0.09585109035524109,0.46471725944743747,0.21982383403872519,-0.7256240212887335,0.4164787076141503,0.7527871348150643,-0.43765810832340524,-0.9695000206809611,-0.12253087653701722,0.4082603690854314
-0.25315931032146655,0.07439589833532456,0.14602916774490238,-0.24322545029194775,0.34341139228971707,0.5795641037822611,0.41931978402786296,-0.9880980588891386,0.22234915809136746,0.23324136674466267,-0.07948153521576218,0.5200735383383679,-0.7583420995054224,0.23866344268566841,-0.6492931198766961,0.3184413399227404,0.628453965283271,0.2005961961431133,-0.5090811173928386,0.42506211184919696,0.8888799273165725,0.560411171106715,-0.14526741826626122,0.6426108099956703,-0.5605049982588629,-0.35094123654105125,-0.4745243660204326,-0.5557118425915779,0.5192535319437097,0.7361493565658273,-0.5369901454549693,0.5831353806940701,0.9689504814723855,0.8938248935187463,0.4056021460280449,0.5079539415283788,-0.1845757177811146,0.5709057994052656,0.7803066869263304,0.38418727785329243,0.3758075248479227,0.1587541414087814,0.5164290175557541,0.2120238011911756,-0.5908056895782966,-0.47962012023316747,-0.5737109746144637,0.1269168904576815,-0.43584946517733225,-0.3652911674708239
0.35860423337260994,0.6012408881991151,-0.6924221305799682,0.2240648521702857,-0.9921246654358366,0.624531775929414,-0.05969129135615325,-0.7682718969884359,0.4279875506013304,0.7473423470717273,-0.28559768554290443,-0.25088893638624077,0.9620356677985195,0.0422454968934064,-0.6950942638194626,0.7859273202894368,0.005076342345845308,0.9108087622869385,-0.8431241175663162,-0.20175414390146718,0.579584092792656,-0.8857384799488591,0.5703875518456359,0.5493507863043401,-0.18104165803039607,-0.4259562929151087,0.030418482988181172,0.4645379307022679,0.9514726177879862,0.8122811698000185,-0.867601708581344,0.6442131137525499,0.3094616474303954,-0.8842015507630218,-0.3665852960862698,0.7462769752629247,-0.25279823506338184,-0.8512286596454323,-0.2732611845011975,-0.18221120182953787,0.23484266694647427,-0.8179337126868915,0.18505310148291354,0.5455924528878244,-0.5854369294264709,-0.30784455494534535,0.6754249129072687,-0.577801887180029,-0.5316216486694582,0.25583675492913305
-0.03677042726074364,-0.5857458278309274,-0.7768814639502852,-0.8895872678778902,0.44551103825288096,0.3167482163919446,0.7304272839421277,-0.39169961259482133,-0.3266870183716353,0.20424071801808397,0.1444858720915605,-0.7494985266564201,-0.5604329929942666,-0.6144800502304958,-0.4505319539038396,-0.43084254163468616,0.1839798754552895,-0.2849227016730519,-0.7371086628550764,0.17081031859672458,0.04284683959879576,-0.8868523463879878,0.5749358059794841,0.2664412732651158,-0.7983456248183325,0.6195526300074115,0.33252618768875686,0.8453543304183714,-0.7966983848492329,-0.11134035529912745,-0.19879482118931668,-0.8215150158517734,0.010213148711872844,-0.7043206137799626,-0.6492033278993286,-0.6306642236599944,-0.12975066904562127,0.1928991231907632,0.8150497553786912,0.35705871202699724,0.2267614510539242,-0.6958020251291479,0.5357399520078783,0.1536598853489184,0.5150971339368692,0.8293637511196748,-0.34183997937733934,-0.32909076529511094,-0.9608324692932806,-0.03146674602725841
0.07485619880132555,0.7720192308533907,0.3783127528214034,-0.4677937337861764,0.3040833792675205,0.9281971867223219,0.05416970643851615,-0.09900683941117072,-0.4174880158138089,-0.36994082095237624,-0.779238593833288,0.7763232890124196,0.7992202131599426,-0.6476937133499704,0.4127161361162307,0.6028943475271763,-0.9226110541624195,-0.5599617744690631,-0.5049385390567935,0.3585665139373013,-0.9374071899547913,-0.6127142276032658,0.3557273510553518,-0.9681414103395932,-0.9447607008762442,0.7043164200266262,-0.44670609796954286,-0.8921408971402164,0.8771404947698048,-0.7173333134197913,0.1611537635436382,0.7628906541948313,0.4381835362773221,0.9692367011745483,0.48915097069338986,0.47140636936048486,0.4098371630335992,0.8584438377532586,0.6494020397930306,-0.9966586076918555,-0.3210216779805901,0.23729732573689455,0.6048472791031047,-0.052037912969534195,0.841808467404128,-0.21563989068242395,0.4950612028399082,-0.7869652745944834,-0.4831316003977957,0.419579991411025
-0.6463973228392516,0.18476884011945782,-0.9566475126027237,-0.8203666622263862,0.6839197868099367,0.059037965378457846,0.6739172487858014,0.11230824903372794,0.5042470889862495,-0.14242463471899547,-0.7014772458534421,0.5204475026414063,0.1389786344484074,0.9047430083342964,0.4870090582282086,0.5782738118240527,-0.1253521160953981,-0.7119116845636344,0.11359681566557922,-0.4162516901159422,-0.5663793027759183,0.7585562452448866,0.6762679090463026,-0.5059395060144855,0.3312163723160807,0.02296044028225619,0.9538580383555574,0.5104529940234088,0.8566126766988347,-0.1399893335218334,-0.0010218225799740743,0.9168608397044009,0.3867890136339679,-0.28754029305922457,0.5431851976737769,0.8361216308029636,-0.27091121096987303,-0.11090120869276043,0.6198060760338119,0.7551924941763387,-0.39591575027646964,-0.518834159423173,-0.5939338748036144,0.7333494646703688,0.40096562294899973,-0.3110257990705805,0.9287970528259056,0.9750057664608566,-0.7289689015526241,-0.051381256600414815
